{"HiddenLayer":[0.0007838618827453096,0.0044311078678037005,0.0004579755748867273,0.015506664793896912,0.0027327241995820702,0.019851627723002363,0.004525627432454035,0.017839319991197478,0.014180796280980984,0.016067882573718616,0.034188780011307277,0.04310390710863862,0.009690719970145,0.011658740091724597,0.13051457453415152,0.018522255293558294,0.049386452001254605,0.005274349970336799,0.038871732756666645,0.026743814323117315,0.010525121162566629,0.002242035501320798,0.2677758329478545,0.0031461272971964266,0.020657217407414323,0.0010856738812987604,0.004317827096436513,0.029743732812091063,0.0008154678256643357,0.026238984064524126,0.00973158835150313,0.17520530898262326,0.07168175241769476,0.015406094461177623,0.0015968028485237435,0.039862224954915225,0.00498113661982684,0.03518774864316103,0.006255009750414565,0.05001589882244093,0.062030271524292635,0.00025824410782145085,0.007940362521310895,0.0416894293046177,0.01582418199584391,0.02073368726743512,0.007632549522779397,0.0008568974883587877,0.06123869849999728,0.01753323969298932,1],"InputLayer":[0,0,0,0,0,0,0,0,0,0,0,0,0,1,1,0,0,0,0,0,0,0,0,0,0,0,0,0,0,0,0,0,0,0,0,0,0,0,0,0,0,0,0,0,0,0,0,0,0,0,0,0,0,0,0,0,0,0,0,0,0,0,0,0,0,0,0,0,0,0,0,0,0,0,0,0,0,0,0,0,0,0,1,0,0,0,0,0,0,0,1,0,0,0,0,1],"OutputLayer":[0.0027856739035331535,-0.0015579808537763175,0.0019470235880058619,0.003662476334282116,-0.0013155373322704667,-0.004737302941193823,0.0005542513169758817,0.0021678188453868636,-0.008893036943566666,-0.005164758186593094,-0.001182074936251054,-0.0005882922554238945,-0.0007568812491765831,0.0029554004111311677,-0.0016919012009236623,-0.002594927957787846,0.000937974588895045,-0.0003920563004029265,0.00987132511258448,0.002819433383199295,0.9917092976726474,0.0011951946813605063,-0.0006160205757729728,-0.003751523381334554,-0.005156743979448666,0.0017788125808769484],"WeightHidden":[[-0.2995497049137665,0.2865325086382598,-0.9005152118507368,-0.6059081687524945,-0.4234667607149606,-0.6959287054319282,0.6336826847941087,-0.3137650833869493,-0.6661330547880076,0.3287569301134707,0.3197976359782601,-0.015238049752031876,-0.14548041293048714,-0.7576981598046942,-0.5184529910263898,-0.12609682494645863,0.3552661491297621,-0.6608974724823087,-0.8806243529444284,-0.00009607367260367843,0.4895607480994438,0.1185074839038271,-0.7073978236889701,-0.3973428128485509,-0.8783413898845688,-1.2508342016439424,-0.10804749417525353,-0.7706442806938136,-0.08792649190263657,-6.461508141412187,-0.8466490891363819,-0.1967283207902601,0.6321876042311739,0.6982495753804299,-0.365431690560371,1.3951814404079328,0.37250846831513446,0.8328358986774215,0.5019087724292285,0.3227509199106342,-0.016747467762253058,0.11075220823057019,0.7489041317240311,-0.6420859196357971,0.9713388149505308,-0.3401107352914254,0.5698736732264512,0.5958836368704589,0.49998564555418795,0.6292431774496235,0.8153671396898796,1.0585193798932457,0.8715623805727052,0.6190341123607773,0.7888050760335249,0.681828329335555,0.7749972698110588,-0.9482496529125971,0.3094051515677316,0.781908438151682,0.4998496826781568,-0.2842184529147461,-0.32953098823580135,0.6373745222338852,0.14740867435548935,-0.05786651123893226,0.5950525333293832,0.647062693539197,-0.22730363680030682,0.8816042649053241,-0.5388701810258948,0.17113338956206253,0.727698613388196,-0.196273546857597,-0.18830187341062687,0.15849781836160734,0.6857721380573026,-0.8799142967828216,-0.813693707859624,0.5859596734786794,0.7592805048681983,-1.5376928766981535,0.4211290384720861,0.1344468361567748,-0.706369528195508,0.39295227219430806,-0.460419953914909,0.2451940299316666,-0.6577915137534164,-0.2350261172909094,-0.03872585982738619,-0.6136576054955288,1.6304220297142444,-0.31547507255000395,-0.7002685284776342,-6.256747936878004],[0.44582967989299116,-0.557967533226329,-0.5354321968978064,0.09561276884168132,0.32608084163677153,1.4994409797875932,-0.14570742119932498,0.06344674304934539,0.46367394273298307,-0.8015969860553752,-0.4883365458300202,-0.7909755369052899,1.1045517953901354,-0.07869888000465762,-1.0953784354577545,1.0068747290360693,-0.5112172625305529,-0.5866891438696017,-0.4965227946072499,-0.019471029072164962,0.30465134048925996,-0.11779888634538045,0.05678540504621952,0.2735586749304862,0.04321993885714378,-0.2779433629241848,-0.3963329624064553,0.2494512198144425,-0.1882510761090136,-4.589305487638377,0.6250098865232124,-0.08361410750970878,0.7428052406141202,-0.916026213173463,0.8389768388026931,-0.07788522589561164,0.550233572533767,-0.23431493477028556,0.3559372409457754,0.4261556179759361,0.08215793655606039,-0.8111444929685386,0.5982372611275235,-0.052484766031111116,0.7059101425471562,0.5638304785340857,0.2779535826392044,0.20839468189706312,-1.0253834704589149,-0.5851127718670308,0.026643162177578558,0.2845619805212475,0.6141502844401784,0.15794392785878839,0.030325810674765363,0.5538557484051116,0.7694303938536592,0.43671858456175094,0.23032177051894184,-0.2190279973475044,0.46585713854203487,-1.113725317172829,-0.5051197720196802,-0.6805432106243025,0.21778116626487187,-0.31938577478755326,0.05123421265657379,0.884431655235113,-0.42088279025006853,-0.21689457927167174,-0.3362988679318231,0.4674818465786791,0.652385445123557,-0.28088246533984906,-0.5529897268476556,0.7556153928477388,0.778221798897767,0.08185154090155024,-0.1224035465146638,0.2666204563543541,0.5841573692898734,-0.1557166079087091,0.7473397778216135,0.19913628228588864,-0.9522017021533961,-0.9340521932533972,-0.2937025224427159,0.17368406784398044,0.6865438683061739,-0.5116467140749618,-0.976289073365573,-0.7870475724199391,-0.2772548959940539,-0.49929380066488627,0.1536245642255246,-4.011663629065104],[1.1569942455422908,-0.7639733295101995,-0.36766066620559457,-0.9720422168503492,-0.8360080549245195,0.857821846091281,-0.06042164494671298,0.8604835424433954,0.6716739091326451,-0.47695217338970075,-0.038635230630818376,-0.7878029487463873,-0.3984388534345917,-0.30708292716170166,-0.5802727060606779,-0.041734668271379616,0.2736928579310083,1.0354817002661392,-0.18427692371889864,-0.7324392222117305,0.5493529167591695,-1.378376492144336,0.9746922198473608,-0.5339560965630192,-0.16215747911300762,-0.2110344040811774,-0.8431712108971158,0.8715168762370137,-0.7459411525030761,-1.0055397121121874,0.2843832949382102,-0.5316146000637706,-0.21260483443713346,0.7574772146155884,0.6195861952406091,-1.8062213659953084,0.07348444261213521,0.5783407046830399,0.6589546566477609,-0.20188924242929318,0.20927354595078967,-0.4582845586547196,-0.14319628134012324,-0.6185058487028143,-0.4095613898507632,-0.8004993476516848,0.42447171195375744,0.907987721303032,-0.26133990400797,0.2959631240975929,-0.5862079128968389,-0.6715830376863466,-0.2766408162538836,-0.9710572399395566,0.5079696099483317,-0.6663429465745933,0.6784490662524316,0.867997612148152,0.3717050587670654,0.39927274817703984,0.5466884762209855,0.1578274147904846,-0.05517683795102682,-1.1095878678721776,-0.2584672699162345,-0.5469752849025727,-0.7206758970423883,0.5006869471582026,0.47165966321559455,-0.4061926098558103,0.2935746378678046,0.03185259741978541,-0.6143676917577905,0.6459301154734478,0.6879099728249892,-0.7737518923270787,0.7014219069155324,-0.43872980266842665,-0.8313125212250893,0.3950792701849277,-0.7309022439189397,0.5250109915600455,-0.9002534576294351,-1.1881885249243367,-0.2312719498779591,-0.05725109787497141,-0.4154530681861629,-0.8443241334765541,-0.7819759290202414,0.42150544000650375,-0.8316934146584032,0.4794701530169134,-1.1291382385799746,0.812936978394938,-0.37516955499427074,-5.0689365906365556],[0.06710088853345483,0.12845013909730976,-1.0583983832061568,-0.7401965763946484,-0.2604720084155047,-1.2015023865111474,0.027563076886345544,-0.8515476567102226,0.6005433659353079,0.7497854088067287,-1.4191763047323562,0.03947505477135071,-0.865807262810734,-0.5702129263182925,-0.32725347148237954,0.31867841389773666,-0.43527231016282597,-0.07297315119921013,-0.6035030005211866,0.2400767538472995,0.49831228901887414,0.6555071310100475,-0.16389431096293652,-0.8614580844309823,-0.8429006411073238,1.0102891990434961,0.033153318619841596,0.940137762332231,0.9957006771838278,-0.10756373197833889,0.6015713691622656,0.3328404404757433,0.6431508306219993,-0.9503333897628115,-0.6332219325213827,-0.27439189950504445,-0.40279613098596684,-0.3336654930680953,-0.22117512826818125,-0.8387820316322028,-0.298668936308835,-0.7332005792555546,0.8053354350345959,-0.36846185334563947,-1.2215839301259375,-0.17438407903152262,-0.44386295675697357,-0.7240551795406094,0.8980680111524775,-0.23041779584840327,0.756966624078178,-0.3199064776195447,-0.9134120413735259,-0.2182905951231338,-0.2874165420009834,-0.6130904836047683,0.08832029202949772,-0.05541588326521797,-0.22868391532311413,0.44866539411183315,-0.8932761645159494,-0.9666017736958271,-1.5542715600754446,1.102288585886429,-0.36711178413143375,0.5715834181090436,-0.055906793724894106,0.7539175988754832,-0.2633472161447694,0.06290546635796679,-0.5258034691962882,-0.0591603440226805,0.5277863592261288,0.005382876872218969,0.35728197570572123,-0.03796821329162432,-0.7722880580383422,-0.8603664061470768,-0.5130366243360744,0.43955777179620864,-0.5403876107531458,0.3833487979670682,-0.817403087990839,0.16500030849773015,-1.2105999461274188,0.09592850977688708,0.4316120972921174,-0.07046371868947489,-0.701598587669807,-0.025852033148511512,-0.5745830994800256,0.9214530629803079,-1.296012048479164,0.49997483645869656,-0.14149419327582435,-1.861480418184802],[0.9980534921319368,-0.21408858356793167,-0.44911902877123744,0.6682848270099991,0.17260404365988383,0.24536499294661848,-0.22425961785479784,0.5286229300389867,-0.030843779180119355,0.1591670055438431,0.6461226081040586,-0.9543284514987146,0.999430816060966,0.07384552536845697,0.06581892883597672,0.009018068522774425,0.41133812860870633,-0.9084673235978529,-0.6158917549691053,-0.7083570343308003,0.19405769189843589,-2.761646923219201,0.7657122185590164,0.25979480126195836,-0.21720345120415008,0.9979416566926875,0.6562310213180962,0.07194649646927778,0.5776716003133967,-2.210252833825489,-0.31933612982682014,-0.8588227068128662,-0.4334306821354587,-0.4157976388771703,0.9074499676471037,-0.072342807174204,-0.35703289270140404,0.9114276960881142,1.038087173905187,-0.22530774712439247,0.4314892298543585,0.28518996555867465,0.5784075443328418,0.5904805170567241,0.11021339292040755,-0.9040319952641384,0.2055992938769355,-0.9145897160534338,0.6915133094404066,-0.3101826746556267,0.42248240050180136,-0.5591480451559062,-0.5457606269783265,-0.7634762247438704,0.11456722959011761,-0.8823761856829039,0.41919570061728034,-0.6171907787037164,-0.3813845514312519,-0.9102430947006394,0.08817317442716274,-0.29214625851422965,-0.6166573346194183,-0.1717084019543358,0.7701868282027029,0.3626085956882144,-0.012260458761565295,0.7670733297887559,-0.46693582965813507,0.40888758139797776,0.7038231726906435,-0.2934321107325161,0.1592194791307275,-0.030540596013846295,0.2664717471794214,0.6144714506524683,-0.382714457186415,0.5934121242359649,-0.2827166548141687,0.6602723722348576,-0.4827146780384547,-0.9931677850027684,-1.0372367552182042,-0.18934401024907074,-0.7060615938417024,0.5259166489505135,-0.5237042299313371,-0.35736439630702177,0.08197510500429353,-0.6239838185033938,0.7738745298628469,0.0647824713358632,0.6365465221588135,0.9823107580191108,-0.15854594618464593,-5.7760314138126505],[0.2260159750042845,-0.326398831201937,1.0621108432035313,-0.6786077917047223,-0.6178402171296065,0.6424267552494707,0.5043661658756312,0.2667196995470636,0.3672923320710857,-0.4365653341402773,-0.07124560900515135,-0.5783887307917186,-1.1242241541929452,0.2878011644950245,-0.9274869289657678,-0.8140683229655487,-0.04909032389657664,0.5550870819909528,0.5517062379969794,0.1162649642053184,1.366756522785204,-0.6106361686083429,0.07047720543743047,-0.08154397197368302,0.11417583112991782,-0.4172978393940755,0.32517055471591266,-1.0254468420621838,-0.8178791121797803,-3.180463415888422,0.060366533879983975,-0.23137773074793924,1.4694254161010596,-0.6141276851905801,0.3953347642245873,-0.510771975738686,0.1846013080408189,0.6273600708602691,0.765161392803232,0.02284329209281325,1.288837068387771,-0.48058037107042567,-0.4333111962551094,0.6728702021597585,0.7459305219606065,-0.12116690241214018,0.40719906930526445,-0.08102818929317701,-0.6126507341418094,0.8034156651857592,-0.7586092369064784,-0.02570707819857659,0.6864413347408388,-0.09047688820230104,-0.7784047026845023,-0.7354221027857174,-0.825485183341539,0.9336017150895184,-0.14939165873528387,-0.14821709253083035,0.6619891342890197,0.7257697510770036,-1.082417850022678,-0.1952733194616857,0.8067767586689295,-0.02777619559475278,0.5709294692042496,-0.6430715339619459,-0.1234379365551441,-0.0006237995736084132,0.6240062171148809,-0.24127196953427862,-0.12391441552140373,0.008772186595068435,0.1756709297027891,-0.10681875320163457,1.2741236089429724,-0.3617710861420226,-0.6331942908982819,-0.18071224578017814,-0.4039049421513595,1.373110084340581,0.6136892535581051,0.0552536509772981,0.16171178732856845,-0.13050330273465272,-0.15407840318894758,0.5278028530208297,-0.6731186395193584,-0.1995987568949044,-0.16734163788014506,0.7495317042272235,0.6143279833480176,0.19511743793835878,-0.33940042521622216,-3.706316832983938],[-0.9697254449986096,-0.2547161080272964,-0.6266515990010809,0.5994597697488886,-0.0795653131214796,0.5328173736463685,-0.14279490183299398,0.7582675304226265,-0.8427056007654612,0.8213172790369155,0.1879500494454521,-0.4590745606261258,0.35963962059033194,-0.6476463755253123,0.7169981979964292,0.09458252889398323,0.542858060552802,0.1983446937895772,0.7623661346965087,-0.6816371699357381,-0.8924824566660541,-0.8381571702342119,-0.5824412440979821,0.2866848791404807,-0.10571746208119719,-0.6981811497738405,0.81462446180401,-0.7533083950426893,-0.37379197746889986,-0.7232644872806685,-0.6475376074930389,0.33784577105711744,0.3945143621905795,0.5732752944776964,0.27427853414889836,-1.1116350064083897,0.0867447069764017,0.41447244496011676,0.5142182679330565,-0.38783532584984276,0.7577086839844068,-0.5107920471325444,-0.6789600053079384,-0.7891597632467079,0.3323392669176523,-0.2805762414044364,-0.4117051793125029,0.7560210027816405,-0.7713833655065261,-0.24553566724099055,-0.040461609008239745,-0.11782115220160169,0.018084672295287908,0.22072420777341664,0.4458553134433248,-0.3474798175628386,0.951978457337455,-0.12418958237838969,0.4380669052047182,-0.2478864326397859,-0.517545862592636,-0.6927153176943885,-0.1655745368283999,-0.7076452848645887,0.6177516997499106,0.22139048913440548,-0.15755959888624,0.49994632916818366,0.6448198986368766,1.2395708085993187,0.7350572371557881,-0.5076710720196012,-1.0100637823653382,0.32634855526334416,-0.8400171783299296,-0.08508017699354756,-0.6891625917667227,-0.5718575613122521,0.7347054819063487,-0.9928675339572234,0.7988582537996426,0.8687758151068192,-0.4390898781820686,-0.47244194685072116,0.4834080066133147,0.0034095010898526593,0.13699971636826666,-0.6313317559168744,0.43842639830862873,-0.9694467849282171,-0.10853159178842336,0.5236651583167395,-0.8177857560963816,-0.15708061613213462,-0.3266440674451255,-4.91526126921712],[-0.9279861822817269,0.5289316485416746,0.8059989425339039,1.0285278101557196,-0.9140288616653047,1.6074921236164006,0.19940323681683314,0.47291348174258163,-0.7393578052382014,0.4018838668230031,-0.012869098904136933,0.9422629233114753,0.07432593545617282,0.38162768240115214,0.10553835718003346,-0.5187589474158829,-0.6421332619970748,-1.258350815519678,0.7741822028307821,0.3470409280000787,-0.5761353072942805,-3.6179534184773767,0.19923321147162482,0.05186856285070895,0.7727771627306302,-0.5317929917244527,0.4405901328297165,0.178707694496838,-0.14927580891591707,-0.6055024335542926,0.28830625146643424,0.18171278169529193,-0.9069071902492747,-0.947118761626129,0.4879598783390824,-0.6444658875886922,-0.5325210167333485,0.42482064569704553,0.8223217423018603,-0.5471541991237348,-0.2655048005918325,0.3470577543318254,-0.49166213362416594,-0.6059434515936152,-0.13961417388818972,0.09086502784521834,-0.29233935944698003,-0.38978595776709835,0.4739342425250394,-0.6807515150007274,0.15974442147882933,1.9846079449018026,-0.034429432690342834,0.33041108562088267,0.27165296548414164,-0.1259175929864825,0.6559837842593516,-0.46653906307897514,-0.7261346942546626,-0.8427963323745729,-0.3379385044495987,-0.9061075619200712,-0.2951801464823634,-0.7647271961736862,-0.9997716469786959,-0.7335060095831676,0.6988512653279809,0.6803260937217718,0.3178154876421235,0.5830822095806908,0.338997982345921,0.6119380752214931,-0.0012397059654532,-0.34808246705294904,-0.28352109958250826,0.150985364745048,0.03808108411781408,0.04478287450144817,1.243028683055873,0.009112271462403383,-0.9157473915006724,-0.299289718210438,0.8808011420847488,0.5642365692001782,0.5777860302728598,0.29630313133121483,0.18710553969327995,-0.4845598397834598,-0.1057286817702834,0.3161620241060799,-0.3993112484514223,0.49254141930893985,-0.6732418078636033,-0.31576790870763,0.7887154900084106,-4.9775677531070395],[-0.6116639426771906,1.008129214727471,-0.30892847254024697,-0.6745612300686601,-0.5311302675598154,-0.8090491804717006,-0.227504757245559,-0.49815118483432985,0.7659420515233534,0.6910626805266239,-0.8643930922141727,-0.2804365266406018,-0.22717664936374937,0.40782446399189726,0.43685076494669783,-0.4815613144561682,2.6875826994180056,-0.36942321750378093,0.676441258945505,0.8065207800241664,-1.083482129895619,-0.9459466025161544,-0.4931475078720137,0.09988708549147643,0.8528290850839307,0.4926726888893059,-0.18222430535606485,0.2060467680609764,-0.6359273944703787,-1.4039113160965917,0.7617971998885958,0.635312381801565,0.6243489572868306,-0.2631835295657734,-0.8143197129525034,-1.2084647762299026,-0.5846206131076825,0.17865585569304054,0.2820282631692335,-1.41097138732771,-0.41610982401745295,-0.4280503045004346,-1.085567315476159,0.2912780183426409,-0.07290166989478854,0.8053211932106433,0.2533073211743563,-0.014141834853932977,-0.3526220108865003,-0.5331316310380411,0.4102238849980914,0.22884142917919856,-0.41269878767117535,-0.23893466371978342,-0.9452970630931014,-0.6559365049615025,0.32135828997061744,-0.08637864973548537,0.10100599169844836,0.6519948192947287,-0.44095158653285776,1.0059487655442587,0.30562405399385073,1.1224809019837017,-0.5640075004272733,-0.6896808100187103,-0.8319779950953332,0.013127344244163596,-0.5162511415519165,-0.8963768003129476,0.10483088852411662,-0.9548236914638795,-0.5089513152791868,0.48599707607181336,0.41440250525232275,0.9085812413550635,0.5601683735491474,0.19346677665215423,-0.45426114091156117,0.5626190484069911,0.3504612692202928,-0.5380773479355132,-0.2184971893615551,0.07139453883799739,0.21895362826262674,-0.6655064943766184,-0.900742626058421,-0.5038013018310096,0.9361181405803414,0.3215552531835145,-0.02496755492221007,0.039645135677600356,0.31471036573802136,-0.8855380473882619,-0.43751914781693996,-4.842549876712923],[-0.0020751765501721125,-0.29912653489332414,0.48359001041558053,0.33968096652585483,-0.060091055422533485,0.6142059225898691,0.010140153077086109,0.4398817164816774,0.14490527735229955,-0.08034375260332972,0.2857346556544583,0.9818751161651723,-0.01956483108140943,-0.2330206485198313,-0.04110304796940115,-0.5014810980780519,-0.07668044778903797,0.2765589225849408,0.7467962973966892,0.4271199124248337,0.30761386610240027,-0.10107988457837623,0.8355454531805611,0.45292298090850475,0.21393497288448346,0.4786380512321684,1.4231399977555,0.16495213632458988,-1.030742230733279,-1.2855413824377473,-0.8471151361666363,-0.4520620578584698,0.3257823192307762,-0.4424892831047345,-0.10027183184165188,-0.26984565684351425,0.7627746274499327,0.7594643744338411,0.11714391395919191,-1.4524548650835511,-0.7499023067960084,-0.29166221307320905,-0.3594561109248536,-0.37728904189468554,-0.6933546461762732,-0.16687862121124952,-0.5639705661158241,0.39446814221000576,0.30479463829710857,1.0418122340888087,-0.38115081623300884,-0.7998783058859331,-0.5466414065710863,-0.43094350032639067,1.3902479101174117,0.577707432378429,0.91387943571005,0.22139284680919857,0.5030389040933948,-0.7578849530154159,0.30546936462243635,0.32338884577393956,-0.8818411471237756,-0.20427850205470915,-0.8237172395753073,0.8528429772386302,0.04273426286155332,0.39061205354042383,-0.9623160906283265,1.0132725727743779,0.46252048075605473,0.5405758062895557,-0.5843565897173415,0.5332102965759079,-0.4123800930141877,0.18339503555226416,-0.7542006164818612,0.21895909239849776,0.4309945428491611,-0.4706084199078849,0.6494298858667881,0.7285421223869978,-0.9856867442714645,1.1520554379552337,0.439200131504556,-0.045892969085661844,-0.5825193141961752,-0.8392458297183351,-0.6434492293614338,0.30577307395765696,0.7424272792162971,-0.0039381198648737676,-0.650068917494374,0.04416188461549255,0.04305371123039949,-3.5972192125249878],[-0.677627536382558,0.04128266910032768,2.247875638866223,-0.6740511139686798,-0.9613287619355897,-0.07844515860753228,-0.8079893945430701,0.24072843049373396,0.45864269551017006,0.5423160543814518,-0.7375754429432728,2.1954767611072614,0.2120347380294179,0.6664849084704143,0.028747578092478895,0.23322687967157762,-0.5307983490704118,0.3736951392208306,-0.8836218954043055,0.3085317888673309,0.21366235871649641,-2.5616561855053015,-0.7217682308613241,0.9165426804459507,-0.7625829099990588,-0.0062576171666049295,2.2520209129971205,-0.08501731649267845,0.8027364497227876,-1.891276794883567,-0.18773751473876119,-0.5653697415021487,0.2783768576610432,1.4426703129916894,-1.0168219275659207,-0.6961230845861279,0.2674046172820842,0.5176596023989798,0.06782540853033388,-0.7739071958377456,-0.8996324524897159,0.3658461185545233,-0.3161131900578543,-0.1221155044709686,-0.10577972129344837,0.4556768476151078,0.2269873847478391,-1.0025326299140431,-0.6444961127351648,-0.5907810359380334,-0.006028016267566253,0.7801253671667303,-0.3920890521763885,-0.33648478994237063,0.2548291982617401,-0.9137030278834044,0.11313565283598943,0.3375136393318031,-0.06723485915199506,-0.4378587404631583,-0.23816908450968577,0.38384892913643215,-0.22454094140904166,-1.0152039919449583,0.3343023268097253,-0.9936876024853896,-0.016509577903707984,0.7670743430494652,0.006444815125984664,-0.29070724480408683,-0.724717301421022,0.6222030949145361,0.5362518105055414,-0.6792022067376465,-0.6531882436967716,-1.0267607816024547,0.411658839662856,0.37395938438326093,-0.1859470526137333,0.4641797546224799,0.41063704019443115,-0.559203285633588,-0.3218442043383325,0.08173627152241619,-0.7462236418379359,0.6199376845530814,-0.5877850039950417,-0.061549401526314246,-0.3247435224077578,-0.8941497470459255,0.22650407042869217,0.20988726887443532,-0.046375228264644276,0.24622303402252463,-0.45308331012838227,-3.940982780042088],[-0.8325694937459904,-0.4551837124560318,-0.5283567412475549,-0.676007439200829,0.7336871321428521,0.28689559645972795,-0.7692644808911653,0.8620777711848688,-0.9630442185102226,-0.2564844646841459,0.14923424308895178,0.4497651478125652,0.20249939688419344,0.3150238393024127,-0.03533781501549457,-0.3699663735121443,0.3092829532917968,0.8191708598356865,0.8576068811861924,-0.37525256164488996,0.6709173352845051,0.18886199814539079,0.43295499288605876,-0.5038795966432661,-0.43373527297269165,-0.06521589756753732,-0.03835058651242962,0.2646465852812469,0.4756102157990994,-2.482250271084123,0.6671360870247942,0.012973739624658115,-1.2053085811286912,-0.6307314419057817,-0.38677675937188594,-0.7239111165669592,0.9714501414439267,-0.7434903055432291,1.02088310276274,0.6164722774368144,0.5270391249982878,-0.5834917513477736,0.4067030945435066,0.07680073648644026,0.6050268363230015,0.11909847036761755,0.33469024300080996,0.7613402618591186,0.19552329804689395,0.9838739335638854,-1.1731288556248387,0.011697732076418924,1.2228093763784063,0.2604125900967353,0.017123425415632953,-0.786651732253976,-0.1749920967136215,0.3527417989308932,-0.05901683548551247,0.8100535320844118,-0.5369228276299619,-0.5823865028788509,0.12961781803821032,0.7241588553016732,-1.0152088376739232,0.696007890527594,-0.7319290945211229,-0.4725442291008917,-0.380617522388348,-0.0629102292238612,0.7981269178378553,0.4727635929042834,-0.26129787003336935,-0.6836807043716119,0.17286756671519896,-0.22323358390917436,1.4580181569051507,0.6392653045059808,0.19485063553437154,-0.33893949862962286,-0.3642079949711574,0.5330407894453331,-0.15549000162568383,-0.16921939527189997,-0.2846536132898515,0.25952574245696547,0.6411418485740344,1.2501672272299151,0.6239751386738706,-1.1126822664589484,0.5747991960375339,0.163268446657931,-0.9848109056525025,-0.0683258261759095,0.7894193295524793,-3.799370847772337],[0.8601636812454413,-0.4679725468815942,0.09525841389651583,-0.5505225266849587,0.3970073312152857,-0.14623066949407132,-0.363030835364379,-0.4486201686269663,-0.025401857899015595,-0.869911486881026,-0.5138825394621006,0.7573777545946369,0.4222180204619369,0.12363565636340113,0.42634934426395493,-0.3541223368816077,-0.5907832636003819,0.004743727226204541,0.37587594426525334,0.4224694029869266,0.0659904246325815,-2.2024329590164955,0.7326828901877394,0.3720518358717606,0.7796653596220385,-0.6422526530697671,-0.40381026740930187,-0.7024730354442893,0.6683221272889992,-1.4280746239309892,0.2703983673330048,-0.5702438033039265,-0.714280643803979,0.49460842621473106,0.16989752787166004,0.6850464400483348,-0.9072808336757241,0.3601599572536007,-0.4277302721269481,-0.9180990996205467,0.6563811635587563,-0.047360662272499805,-0.933043415614255,-0.5971103531590803,-0.6740203653877698,-0.11237837546517139,-0.9853517506535402,-0.9578114536077358,-0.5655955981945338,1.3897247489978526,-0.710652951889965,0.39528173929596,0.294405922458059,-0.7978552833529708,1.169458716828571,-0.5497537619359927,-0.9377590381180595,-0.43825918278741016,0.6720832813928497,0.7638244280351003,0.4288738856307241,-0.4441739706909762,-0.06281868912566009,-0.16515861510686766,1.1766033548599906,-0.45116265891040935,-0.6416405201158096,0.0952249958645712,0.40330525201696094,0.04440450256733827,-0.923817812241569,0.8055035254180007,-0.5591249628169206,-0.4756180224466898,0.049041864645015615,0.16470609504759942,0.5774063083615871,0.8075695567033148,-0.20790770697602393,0.8645064882609518,-0.26641000425115735,0.044002345353942075,0.0897876413037981,-0.06236517256743944,0.4459481249723038,0.7095011187879181,0.571458816631239,0.40900519621875014,-0.9748480456225127,0.5980857926046088,-0.06481303816380059,-0.21577396925257503,-0.6063076602622731,0.8275892871077474,0.148262143106539,-5.2017999666668295],[0.2655861467480888,0.20594733622163547,0.08826981340010401,0.8663234029270672,0.514378735632095,-0.16094494881687627,-0.5952566323988137,-0.6007326196628283,0.8888501361427099,-0.23194547091110718,0.9421289962091686,0.9935443466711769,-0.6379834256201589,0.6055205681405507,0.5211973697651366,0.14135299201281457,-0.35240031768460295,-0.7700838206865813,-0.5137847614392261,0.6106021869829207,-0.0409805330362532,-0.5348422748967702,-0.8777472337793418,-0.02957262296390309,-0.16336605708937493,0.2853237178619072,0.016032651911986683,0.10222855653084978,-0.2644039489599642,-2.4472337329389253,-0.9737153831027352,0.21404552646391642,0.5051038383890498,-0.6235594167458405,-0.016681495804232057,-0.3960578452375513,-0.012629682203069289,0.3263769247534485,-0.1881712936480569,-0.034898289916658685,0.7748284616108901,-0.7055862054194797,-0.4937122483520879,0.14656421500642913,-1.346546811455933,-0.6371140967836803,-0.8166251490207009,0.4940406957146166,-0.7587779517556635,0.08119092056856776,0.6067590050149442,0.9334130608477254,0.05473195758498294,-0.5064462884537575,0.6007662471557591,1.3072308823684808,-0.39448884717003074,0.44641953274174845,0.2691959153046504,0.5281861497516942,0.47211221967209954,-0.5219698183475489,-0.13588299995367775,0.15541172777381262,0.7856449482591553,-0.09686291851051738,0.10876628813127877,-0.10819546744020606,-0.3914196171557314,-0.88610509345264,-0.7486436639110113,-0.04393659853017777,-0.3152581333917549,0.20719656552206103,-0.7101170433782275,-0.2700031081555309,-0.5953548557649926,-0.6260120957326307,0.771767599199335,0.7533144737543349,-0.9019024588600151,-0.05893852590670106,-1.2238063757699915,0.10349472560939334,0.19098933906293183,-0.1473637535220671,-0.17158817662782416,0.4933345717428078,-0.6158338896171459,-1.0727826346584928,0.058251135570834334,-0.6943135613213129,0.35090113293742814,0.3838109724288305,-0.04381711005272003,-4.401149140395905],[-0.40317326093630795,0.2042430272387616,0.0664651198318214,-0.041944011936618626,-0.6621933335754261,0.7932772536718822,-0.9521313302535049,-0.4878069177970448,0.5075470465244604,0.062229340518768404,-0.11845200644683541,-0.20101828048408396,-0.35222354104813614,0.6488326205562998,0.5443998602367544,1.1964075575859185,-0.5837181629052154,-0.531250238342055,1.4045325060597806,-0.9017049022515956,0.14216752639960664,-1.4429858361895198,-0.4392578529260655,-0.6121575581121829,-0.017896627525040065,0.1702106405568302,0.24867028347049314,0.12478711850586822,0.7411091954378446,-2.754631612910462,0.4339777601370403,-1.3486904804260058,0.9529447479185948,1.4465650060913429,-0.8711825014912844,-1.230421835190752,-0.9699921126293378,0.4197393801382987,-0.34238706218071147,-0.7896790134309238,0.7151481010200788,0.2052145443441173,-0.49525001821472064,-0.6245914714097663,-0.5103939839177114,-1.1127336926907747,0.7716889728626181,0.6870595938137346,-0.104994113224236,0.6287609531154585,-0.1048913479997787,-1.5660150811153364,-0.8395707990297928,0.6287521428742283,-0.9108844834520726,-0.19397065243393058,1.0359309287231444,-0.7869637998317954,-0.23559024300577877,0.3896906440663986,-0.0893374170949081,0.047540641149012186,0.761206178318666,0.01983105537493654,0.7989537309868704,-0.3597591252944591,0.5828580867628858,-0.04951448327031017,0.1867259784161586,1.8057078305619156,0.3660099998467489,-0.6257335645347818,-1.472099082547434,-0.21215836682621317,0.40791315103388603,-0.28201188502751207,-0.412589157045672,-0.7497183218347587,0.31792475766800543,-0.7332337232795363,0.162990372282179,0.4305565098263123,0.5497342296237654,0.7074994135368665,-0.7494996627903847,0.13601677016094804,0.5855317757056515,-1.1502715436499955,-0.06712037785781418,0.8254457182453652,0.5800801825957216,0.5757955366466107,-0.5286736806425247,-0.17972363712178044,-0.12723972082464632,-4.217279735346311],[0.025074154588605922,-0.4011507286618638,-0.5943454768415362,1.0159848571500312,0.3123267089172433,-0.13844095790304256,-0.4055078991751876,-0.5171540564397098,-0.40256169493283606,0.4492236962822118,0.09078741833146263,-0.42479795467557174,0.03085911446669905,-0.7277081605964,0.30119788804291087,-0.10372379795456477,-0.36700650776328037,0.45072480007039406,0.29452693792767026,-0.10556031712413382,1.2045467933233915,-0.3242532337902493,0.7130831278285265,-1.1068256019296425,0.9202396436217639,-0.062201880659792146,-0.8112071862885551,-0.23134028118031105,-0.4166611582632124,-3.7420692398458595,0.07779396354841614,-0.11829479057759473,-0.9790022389286176,0.5794071099880751,-0.012843375368123324,0.25202994270589896,-0.14351798865572252,-0.7136373650746117,-0.36467449706944954,0.8003079964551287,0.5503415973055852,0.7014867299627104,-0.8518661736931478,-0.3971597169273369,0.4416663277076328,-0.4872912803334303,0.1470080053638916,0.5167433180080306,1.2076134021693035,1.09160902009739,-0.48663663741968466,1.1610130996959411,-0.07017628064175066,0.33873564412107415,0.3454328748188507,-0.017633783545348957,0.7138816980371634,-0.30586088255770133,0.7515339377811703,0.6075061494675281,-1.0154526717121626,0.24040872999226431,-0.8611291191389612,-0.8032931075556767,-0.677795129885836,0.7522859932911187,-0.14398788074708588,-0.023273244982512344,0.02637813252230566,-0.5250874444750676,0.6217252426172403,0.7809834610574955,0.6998170919415828,-0.07383118804206289,-0.5337454252185517,1.0262452898682113,0.7718991956103358,-0.243751736717941,1.0100639168305627,-0.7511702222198886,-0.5741431800835028,0.5948773546826363,0.6426386628153881,0.5067714626872521,0.43545490223129496,-0.056466310890845174,0.027780667019748066,-0.3728408768693109,0.6638142167968669,-0.3725808939322901,-0.14473800487483818,0.8458347947402554,0.05414128562887771,-0.4050486844756972,-0.8958435529847332,-4.041898089783346],[-0.0029203789200812724,-0.5408383546106967,-0.7125640648127372,-0.5983230505456419,0.4347846697051191,-0.7025082037181006,-0.32558624583252127,-0.2588596590280206,-0.33747832957110424,0.7339065243784101,0.04041509718811823,0.06313054801390622,-0.09904645073572606,1.255311912931252,-1.0338387666971898,0.13450812151616334,-0.46449249764933387,0.6974892917075843,-0.5416644082457928,0.5408735232033987,0.6316883088496179,0.4849261245245099,0.5667931451588841,0.38403433565129597,0.1634299306494463,1.1188445431528204,-0.45262553054853893,0.9355558838334351,-0.718146842110268,-2.4363697155963546,-0.30871197751752305,-0.5965219469832743,-0.04540625751777871,-0.585332929000333,-0.2147402648997357,-0.5187079701053571,-0.2233086344460492,0.7494361379582181,0.9057944416732505,-0.10949014029915054,0.9697608619662843,0.5076681005862729,0.3758280434780599,-1.2064377041324321,-0.6455839725909853,-0.182151677844978,-0.784519371459319,0.0399354818559079,0.046118165104346985,0.6095409679341859,-0.8250207850283274,-0.42160535053979414,-0.08793851763883836,-0.17060105364636027,-1.2495871106325032,-0.2439975808358706,-0.6387244476169307,-0.06447912648911447,0.16020739358414746,-0.4420533901407269,-0.841880978292058,-1.2007879169614897,0.22649836040960122,-0.18293959716761832,0.6249889742352135,-0.8463246927684096,-0.12505664632068236,0.058544628607997154,0.10057187362485451,-0.06122983436291919,-0.22162828771758375,-0.059565312435803805,0.8074487269403904,0.20225991215494146,0.4211060651696019,-0.1154223157561541,-0.329111009390906,-0.5342526213376118,0.24504003154390508,0.3465304447512684,0.8019182779952114,0.43203015395727457,-0.10904159072689706,1.8042098531552475,-0.36294140745831627,0.35812444187120795,-0.051572634447032036,0.5758356840291975,-0.3741051176015295,0.27181083989861665,-0.2795601976501681,-0.28058609139819757,-1.3794100715250417,0.6979668621916828,-0.8816283182353436,-2.7901431481630286],[0.0004306303034902206,0.5214510012544566,0.5710119946692817,0.5543716806754057,0.18305390904304422,0.9779857164140411,0.44877797690908044,-0.8071368460880405,-0.08131516781892574,0.45623545826774686,0.8675504619752964,1.1828636246889612,-0.07147191497435652,-0.4148152863835442,0.18195043913036846,0.24688725274599574,-0.36805425009853737,-0.38197734089906366,0.042565650731367206,-0.43897274292185556,-0.8833180573681622,-4.508880740382311,-0.12861032831766417,1.1625865941945437,-0.11977682006357525,-0.1253068010541154,0.17193170608607783,-0.23289047839470933,0.2370401216103041,-0.8334401163528735,-0.7831023696347356,0.38564060304892067,-0.45545531027483344,0.4750532335556437,-0.8630061396583542,-1.5195542145251033,-0.8781716247010776,-0.4527039263986358,-0.052667803646770824,-1.130587228935766,-0.9667033434340521,0.37057158835366666,1.2463167745114359,-1.084422861940085,-1.1726600662616442,0.3739084244470424,-0.619973478294247,-0.023885159972422222,-0.2802436378475197,-0.0955454023950987,0.11180921872087426,-0.29182791497651306,0.7091352550507094,1.4528258237284053,-0.42633127232670776,0.8961315531738818,-1.069970054605051,0.9488518697978091,-0.5711364796820556,-0.8862352746177101,-0.9836575670660405,-0.8780499525649001,-1.127392507810973,-0.1958322581047411,-0.11317114921143318,0.6092984562639963,0.4310344227906179,0.3519954365838619,-0.936912704234911,1.24833723078667,0.16454511418406995,-0.33463282191526106,-0.7728042502231188,-0.6174696446688375,-0.2814868743372267,0.26565282494591735,-0.7888070785079949,-0.9348150795132246,-0.0038830870718974536,1.226777729161268,0.620328830825437,-0.04860688772943252,-0.35045640563247554,-0.9731620190594902,0.7081379949351765,-0.874569269879299,-0.4001888359254067,0.28946252562590996,0.39239582571136994,0.26447045839754213,-1.1801470555999252,-0.06424601801621194,-0.3352954460576773,-0.5198715288335384,-0.871706483728111,-3.476152889855179],[-0.9733428802413847,0.32710602078157486,1.4769743979460732,0.13098718393939404,0.32929397540230276,-0.03154307647117228,1.5165411696535194,-0.2670211847608101,-0.03465937999598842,-0.05020531796739577,-0.6738245484314019,1.3365943474612603,0.0752239016104898,-0.07709111368435428,0.27823434548061016,-1.091227326761715,-0.31212687797474725,0.0611926852114209,-1.0435826539417359,0.6959820734740446,0.3755738402978894,-1.3385520350675446,0.3422106566159303,-0.0806140721226461,-0.04016554646897066,0.20002013609803102,1.0399126329114734,-0.43814557023730155,0.3198772590215892,-2.9827861285982267,0.10863502462926403,0.10129217592627507,-0.7124016199079608,-0.00011830150264572973,-0.7325966906017404,-0.8270180720740438,-0.09037220511028464,0.4837468130814124,0.3175167979509554,0.2288604485838859,0.450430203355266,-0.6463059323212089,-0.6327217889861669,0.4904820257371071,0.1305306314385899,0.4286852549461876,-0.5597429701459831,-0.11614366548946616,0.17361443772950003,0.4994366866341302,0.5579982352434208,-0.7765168498118489,0.16579045087477107,-0.14124554580531687,0.5476765150930074,-0.37674623962382126,-0.6475453953212038,0.7845110275562566,-0.33618462490549456,-0.6253145024585077,-0.05295759245662586,-0.4095020208099167,-0.22781199588463294,0.7279994122047427,-0.46163104159540136,0.13686668054279513,-0.1856061878446638,-0.08495181669045784,-0.07050609827606237,0.3576334001292267,0.1435146007420901,0.1602798943108079,0.0637168921444255,0.8191079033084266,0.22198973387562143,0.3521398887445045,-0.44778173246759606,-0.5222276995914865,0.1783464105964209,-0.3476223676872713,0.8295063349309286,0.2921053686359099,-0.24711164160296337,-0.002762223654310543,0.1340590002162259,-0.12532351606375247,0.061026011410083146,-0.2485672694254716,0.3240086774534286,-0.6470413835160507,0.19385448825928991,0.363241010288737,1.067927788729806,0.6625136156344039,-0.140418592770402,-3.35575792311853],[-1.0921807055969746,0.6940510026908745,0.20268107355922188,0.24056738433387742,-0.7042606588307089,-0.3642387271712601,-0.5160892493370983,-0.632207990166064,-0.9236943597556776,-0.40202867742443743,-0.38107774467829214,0.028803090075134253,2.4365771035168082,0.53712109642457,0.3880346783184329,-0.25704456846898044,0.9597637547537774,-0.12488762802258203,-0.15946867776052925,-0.26697936935994715,-0.3054753630873007,-1.0847983265691976,-0.08836015332796224,0.6654298578637152,0.13318911059937363,0.9861815632734562,0.9388638388367293,-0.3563706904691453,-0.4892595411123795,-2.293841579384451,1.2272947948700115,0.007918720448478966,-0.5772943374787498,1.3192569956266185,0.821717846868801,-1.5707399791329018,0.5006463147663003,0.2127728139743572,0.0036068389898473033,-0.13838755459752136,0.6484807070979222,-0.7801429589260942,0.277945006173813,0.54055599989579,-0.10657992681211473,-0.6820408636770938,-0.13080260729209234,0.3950436351202278,0.44382668120544305,-0.8187101041277791,-0.1748722975406183,-0.16392868921875542,-0.8528023039424043,0.44732667834153717,0.5520295735258847,2.027295441088087,0.4206843598038974,-0.9480621194400948,-0.5928492975917263,-0.34028900637106124,-1.0096364977923666,-0.9900605230640619,-0.013441362403003412,0.216774457905199,0.7502763939015962,-0.29641802416298996,-0.8212919129627904,-0.02838401520609826,0.6270217164888243,0.5971272793737906,-0.039990827751556775,-0.015678736761219152,0.927449817145378,0.788805201717022,0.09018746451665662,-0.48607491034911804,0.012852230754050545,-0.18572383536609316,0.12250938420208535,-0.27505578807878783,-0.7982786144596121,-0.12751204793442597,-1.0805636255856903,-0.8803537385747128,-0.13834844406460675,-0.23384905947351578,0.45600759905881016,-0.8426423512371608,0.8165115822045727,-0.4609213314712573,0.19919247274258162,0.11031108830563567,0.09616384169761401,0.7885465538737226,-0.22561670726612199,-3.6380500670668874],[-0.6312164788716288,-1.0936675451670623,0.16393092268434595,0.6037829686560857,-0.5303366653442119,-1.0930808723671699,0.37568321631289453,0.695119022771893,-0.07080562964299855,0.8432608560249629,-0.7318688669280187,-0.24476192165980104,-0.7900915826697111,0.5402590482228625,-0.5656064700130025,-0.6099929920759842,-0.6869728396852972,-0.7516590538178494,-0.5382161127773974,0.03001969246817583,-0.4700228944278157,1.467939588972373,-0.5140240485763239,0.4194896258818474,-0.11738554926770521,-0.16474487638173535,-0.0612248118332896,0.9943931238277236,0.6520818703145388,-3.3938411547772165,-0.8115213462907095,0.08269352085514432,-0.460068211400671,-0.9012499504632292,-1.0006032476732882,-0.08772493953355064,-0.4616997022944339,-0.7451496594897394,0.9947558713149967,-0.6630286705574516,0.4229823866582097,-0.43252312785111374,-0.3573207154044739,0.28029194222347414,-0.44354215740205805,0.3695164685439253,0.6915253493428143,-0.6584201942374767,-0.8961329570570867,-0.1168923034544495,1.5999788203987613,0.20667749047325282,0.5835107921557052,-0.6740586082001853,0.29187784147072887,-0.5345712045323395,-0.5684848019353241,0.608056664558006,0.6785862460170016,-0.43233386048486655,-0.4299004500384915,-0.9801227760510197,-0.21860367182024212,-0.31317822469779005,0.5887798820013317,0.3630841720002282,0.21487695951780106,-0.7032279335150915,0.4545628801514351,0.5570171876065592,-0.5095955958884089,-0.8037724477580733,-0.7245638488388255,-0.9611271385492606,-0.02771431255921913,0.4544691658510938,0.29906887210447525,-0.3977410501082776,0.40656627313173743,-0.4307873164942454,0.39316326802251633,-0.011963405227648835,0.08888810970253558,1.1727105780871794,-0.7212264008030221,-0.6473509309116486,-0.944589911097306,0.3031178093726128,0.02785011570117879,0.43692058729170535,-0.36340738657306815,-0.03339386625066174,0.7369273810979543,-0.3481102164001607,-0.8525214659990662,-4.243553742978908],[-0.02124534513844672,0.2174756030971724,1.1882381805625633,-0.8929896424144232,0.6363496743127028,0.14032142720383034,-0.13941350004135755,-0.8641132308147488,0.31027358121341436,-0.6532445915986508,-0.3837872702287456,0.5428864191562726,0.5769095151605801,-0.4007965761618229,-0.5186356111566716,-0.9246524884685197,-0.40383635246228694,-0.7925862058915641,-0.3104761234637988,0.05518186808424148,0.3022777297198577,-4.537756331887937,0.5073219484527194,0.08256067745042023,0.5089026387508259,0.34930101084923304,0.6871400948053943,-0.027619946914160188,-0.7422968147739906,1.5110368120036626,0.19613104272746476,0.24382656413538392,0.13292118859498026,0.8301924617139065,0.5888198776990592,-0.6247483055472596,-0.4766455159486912,-0.6794332688790654,0.1446881305173907,-0.7476511001022728,-0.10500663961011168,-0.3274893195826388,-0.5023204173016979,0.6472817473861948,-0.4593505062364315,-0.5366018754593037,0.7943667401117047,-0.8824526427640591,-0.06324016932985416,0.5497491493726199,-0.5275248599435596,-0.5246455873888799,0.8558818577407652,-0.4386305514399603,0.37626473852930375,0.3876185514296081,0.4642369556184451,0.2277469393759828,0.43174533523263564,0.6724024253767742,-0.6246754850663345,1.1635658604148735,-0.9494311490459755,-0.033668119860348435,-0.9511370882388105,-0.01839355824084808,-0.6681557801560001,-0.24492812870229314,0.32528200393313494,-0.14980937091306304,-0.7201748516009236,-0.4105204269065413,-0.9079952544391215,0.06088730428718277,-0.25870787582341404,-0.8726407738845466,-0.9403349940722191,-0.05372530780965071,0.14618623772532163,-0.37999482712533994,0.5626006996933136,-0.530267906250712,0.6592385348744083,0.23465896778320633,-0.16994806303767912,0.2175031626490768,-0.2361081490369858,0.12779705442200312,-0.12176512455686683,0.419935982584648,-0.7079899619612704,-0.2477392271486688,-0.3845377799748074,-0.96847787189338,0.32310725787309325,-5.1299768966248065],[-0.48487339383313904,-0.3367296665660833,-0.6392068853891344,0.5995551054685668,0.5253052394110299,-0.6951930035662701,-0.7026177922877109,-1.0389088975989662,-0.5107133126355992,0.9114191271751899,0.35777152000687173,0.253510693305796,-0.8647497874268861,1.522966002429216,0.8312242557950243,-0.9392539027927825,-0.5945059166168931,-0.7183446057265508,0.5551828997080546,-0.4500655389393397,0.6829884350115456,-1.7820807049691172,0.5103411931697404,-0.11902339523373098,-0.5084025281030171,-0.42394930273342946,-0.609185892108559,-0.1461034007845505,0.9533956163428805,-0.7078016579406816,-0.1756206602506954,-0.7733800450705062,0.45100565231199896,1.0379944278325586,0.01903852149767843,-0.38603707485556804,0.6995077463052818,-0.5369643308317544,0.9544013440486434,-0.9155574491035985,0.36238170184318275,-0.6006119085452302,0.43707115318979095,0.43675628604536504,-0.25432899487133737,-0.6359242282662161,0.6865475851020123,0.8401069230494872,-0.22957873210173363,-0.912953657563977,-0.23708049330180014,1.6661116355369443,0.4289563540717774,0.6936024159903251,-0.44600183756639716,0.5884342129680783,-0.4525064550725923,0.06216373645182236,0.25992021241968816,0.046972028285251086,-0.2861779939789038,1.5513852978462563,-0.39246577830669277,-0.36661644597809323,-0.0224655337290308,0.9107748354585469,-0.6945910022463672,-1.0175542372149298,0.59146984673587,1.361422437696778,-0.2260396813814309,0.531736739856661,0.7512430882547733,-1.0108171767440897,-0.0652430925158668,-0.01895116198368093,-0.9246953794487228,0.5740032383211678,0.06241541022475713,0.03451456311149817,-0.2294028298126524,0.2686805883561387,-0.07272891343262952,-0.6880781392944374,-0.7090114586743291,-0.6502020874030636,-0.20089839316407276,-0.20109778301832,-0.05636987230213645,0.2361353955985454,-0.39860592092051955,-0.14741211412252225,-0.8273393963963873,0.5920056576682728,-0.05664947157142957,-2.8861935884426457],[-0.5430385636261351,0.5953206696265408,-0.9353631068308664,0.246968078955877,-0.31957418296101253,0.06161776906693443,0.934191166737957,0.8286223684776408,-0.6900516300601331,-0.5448468183043649,0.553598048138822,0.8304649148261739,-0.04922844915099045,0.6077887177491452,0.21551662300619773,0.5543332526454962,-0.5495955114545137,0.39697041605228445,-0.9699119934308207,-0.44280729414012787,0.012494303456954394,0.2557606652261901,-0.9797646083465708,0.1297715611732213,0.36388245614894926,0.6681105321422051,0.30056888279707455,-0.23987111096115699,0.16704570492805876,-4.365974853530778,-0.5493146428884166,0.39818982288929655,-0.7741335990617457,0.5775117134937444,-0.7607823176455033,0.3354554276711597,0.1965905531142114,0.5769122007280063,-0.14285440308614766,-0.9007417306782449,-0.7346804416990946,-0.645998882488199,-0.4184658640001526,0.07128561743574291,-0.00729208905417708,0.5450704011804162,0.18272072217290933,0.5814168740673814,0.10828862988280945,-0.35250338525333474,-0.8265983154751141,0.6776656286106013,-0.11493810855477962,-0.8141223559258259,-0.016171039751971455,0.7246659900363995,0.5781162205284256,-0.4464412805647509,0.6809826654103215,0.2265814686434786,0.7485594838184937,0.6180651127868052,-0.86052620046864,0.5954175762229311,0.5187771593012604,0.17393248145761117,0.2670565548338023,0.4772559854596939,-0.4832801977608691,-0.01276603872129485,-0.5343117469104234,-0.8236071861689619,-0.27949102333132536,-0.03875691494835391,-0.8026602008999764,-0.36920337812012616,-0.8063033052687272,0.9704270750173281,0.6092704150633189,0.36990967409250136,0.7035360389874459,-0.8671486280183737,-0.4204995177958044,0.74538974299218,-0.1526156813849724,-0.7364931276908765,0.5355371652823909,0.7174187377269904,-0.9171468828430495,-0.8028408472888696,-0.6496069527918354,-0.3463454204778347,0.2525023048641447,0.6906132790296894,0.3059461141223932,-5.511607186099078],[0.2578620979021968,-1.0202290807020291,1.4314144068475863,-0.17863123406556236,0.8649451515791166,-0.5333787142347748,0.2642337926596082,0.6916801547460502,0.31835676121002665,-0.5347043032808355,-0.5179792447629435,1.6352718160001516,0.330274515695998,-0.8556363609502042,1.1353462656828512,-0.19404138430279902,-0.7161614826412381,0.3446683515133877,0.9106520648114641,-0.01880875045610527,-0.3677320789207557,-0.7364655290664067,0.6844205511860125,0.00879413601278428,1.1514656985444338,0.002109586467878897,1.5217342278844777,0.1607548863222829,0.9355344320610101,-2.7680361450682214,0.35524030904982684,1.5110199381752505,0.759526651385104,-0.3360310622425581,-0.464138068906467,-0.6048977821762399,0.8484680782284797,0.8508974411895338,0.8675632506673135,0.6202265119105064,-0.8875999051423972,-0.7706350581198648,-0.1755238263970393,-0.016860405655129244,0.35004577461147346,0.35461081430527813,-0.7339940519861172,0.5266678913579145,0.9379028200501843,-0.7237214701986353,-0.08550242027639832,-0.24700772321303718,0.35589045602242486,0.05082479448506029,-0.37996364038122366,0.8234135720212523,0.25452266821248903,-0.08158323924356943,-0.6127789968662495,-0.0924174081501019,-0.5637546182810177,0.4849282786291415,-0.5356808256391935,0.347257883521707,0.5393430532361075,0.9901767900514317,-0.48725869302829006,-0.7289887953196634,-0.5477755766331444,-0.705090065160821,0.023807008430304498,0.6362498179079595,0.7921937530191819,0.5483171166269853,0.004815165944981582,0.3863650671971127,-0.8933757105039238,0.1579452393304464,-0.3069918780955845,0.12305504207001869,0.8632074574019523,-1.0979503966983428,-0.23932927983847102,0.8585596761124706,-0.816219628966831,0.23115141875976153,0.0094757056129879,0.1325796289830195,0.9052095697858006,-0.11240757759952201,-0.7880353336779473,-0.843140865421412,-1.0408916740536942,0.5918923588177958,0.02135255952604082,-3.11132762106817],[0.9228021693231493,0.6018870735652244,0.6829866587586569,-0.566642904248497,0.4671912307619386,0.34209184814924265,-0.17152392426766863,-0.1563948973608942,-0.33721778904386557,0.6159721824316425,0.8424738755439384,0.7479457436558123,-0.8974895251626331,-0.6328439276285507,-0.4901127087899138,-0.7393534379923501,0.8414789882993022,0.7077957566064623,0.04160464352743192,0.7154350589317184,-0.8483865741166743,-3.1584007225873516,-0.16473916457240645,0.1260243450174404,-0.9073474663385435,-0.029463537607744724,-0.8635018040024243,-0.37318545509505946,-0.2940410307249737,-2.0708620038888017,-0.47340098564752453,0.6553817975868206,0.41601594731156016,0.5928026500215339,-0.9466997732648211,-0.3008992857252833,0.4453763832433481,-0.4860505974260113,1.412710553632552,0.09639249375112414,-0.51937119297146,0.08438810442208401,-0.8466798652275107,0.3279522561101619,-0.7040606986166572,-0.5715192016402942,-0.5407279699564391,-0.7100017537896701,1.067075248318631,0.9765465077371768,-0.8580090151645262,-0.23756477863980113,-0.3219998959266974,0.013989535214835815,0.5088464355225244,0.6783709243614472,0.02544844604073825,-0.0013529878677049443,-0.8001097767491713,0.3462289395845108,0.3121677905579711,0.49335483152387205,0.14381523193650947,0.63864009496472,-0.08317429376415866,-0.540933805522275,0.5776471940745825,-0.8301455366232936,0.5840219216460539,1.191528899732552,-0.5501535277692218,-0.3208853088329754,0.5252270186586093,-0.3945058835645863,0.00484993879648012,-0.9644415734668464,0.06238904470149023,-1.0245842682059532,0.34211865510961,-0.5701556509975312,-0.5010321864655656,-0.8313897807776353,-0.17910641836495608,-0.8394040915536396,-0.5531721741539225,-0.36488980385425973,-0.07026358009974101,0.7631158509208804,0.7187189647354572,-0.3387193498045948,-0.18698592562630728,1.3443001965314791,1.0277864874295164,0.6065511362255066,-0.2768729572226489,-5.33541306334895],[-0.588682375208662,-0.48761981556135886,0.3415790722558636,0.6249225799097116,0.7278240028786908,-0.8860641129518713,-0.4954230692926874,-0.9988231067525529,0.16120433474153367,-0.9915378986093542,-0.7699970876137848,-0.9211929275542485,0.4139657109150488,-0.580977760599813,0.6697267817247284,-0.525352717047726,-0.7905220349657341,0.9051927665721727,0.06056528146928739,-0.8468643902729567,-0.8034970075738588,0.14129084584289023,-0.9377501248673612,-0.6318568307507408,-0.519095460455833,0.5802407947005911,0.9103795487470936,-0.7312893277090079,-0.11681444938049278,-3.9624423210541098,-0.5784682386086608,0.8042413204741155,0.8331495328103945,-0.6373994542618849,-0.7017216214306018,-0.6664736827505556,0.7521628321941056,-0.6141485466589972,0.5809303458870468,0.3928608884599065,0.5424421824204938,-0.7796011943105655,0.2771907862025418,-0.7704805585675454,-0.843009426528091,0.8978857633272921,-0.9556738425378364,-0.1785002358259434,0.5582879554713635,0.8159582463124481,0.10764660695640632,0.8317720133413093,-0.563806802002037,0.047440084135742376,-0.4460371040530548,-0.08266911518491075,0.31783063459066263,-0.8514038538323132,-0.2969363722568523,-0.9732033076085386,-0.6952640239821036,-0.43986827744957285,-0.19149768190647434,-0.8778638072879963,0.5657252844137587,0.6076109338927013,0.3766357394670862,0.36765435933842416,-0.957791132911339,0.35920483070822795,-0.7241004843348969,0.2619507844645791,-0.6189030699001913,-0.7151291858283568,0.4797594556954662,0.1399623960413703,-0.8993959544437841,0.18661482053572795,-0.8458184516809545,0.3601842063972448,-0.6412966552941015,0.6558629450979208,-0.02933682397052384,0.7708603470601008,0.10245401055623954,-0.2155891558613904,0.08380675653001629,0.3351855531634814,0.22023199330447676,0.12981947845729847,0.0778279873823145,-0.3944859181980131,0.25748517132079785,-0.523403254836235,0.47620862081713833,-5.577896077692272],[-0.576110723211735,0.3317381457735095,-0.8576480395564743,0.3214183360758547,0.16905635511751438,0.8076287180159497,-0.3627941450873083,-0.7849646219052266,0.0958139728793967,0.10341978412094523,-0.015577979216324263,-0.3423554305884968,-0.6971023400535048,0.11038365604826064,-0.25702995013256646,0.17767625729135347,-0.255074137710254,-0.6886853449251724,-0.04515214637218883,0.22791317845781223,-0.15600648549984852,-1.1758197006276496,0.2765139572890762,-0.18229377383847756,0.4438088833242858,-0.8130299643234344,-0.3217208901362265,-0.02263784484770301,0.9160820040512365,-1.0666865985711067,-0.2703231527952968,0.3491595384234112,0.385502429542647,2.3774419203904733,-0.3196907494885786,-1.0164877353654453,-0.39792381019327877,-0.6499384806215922,0.5813737023731745,-1.5042038318060855,0.9440873489049261,-0.20590301336312278,0.3999045568215547,0.9529978328093164,0.25013259090878937,-0.009930848855136254,-0.30031110202803823,-0.46254871189026764,1.08437799935553,-0.5564195631015701,0.35246209397533,-0.3183975568474925,0.05311402138957865,-0.14257213170844912,1.0057593639485989,-0.09927802126685047,-0.07386823491754418,0.48129312974790456,-0.503227333553727,0.7252150693477002,-0.15082866393292665,-0.2904494162368629,-1.067782562795401,-0.4019958257237615,-0.3845574671602249,0.6869200784000732,-0.4012582164669161,0.07432238014687308,-0.6393893640826254,0.7131015526809894,0.2542366853143532,0.5504391263278611,0.45299166113776923,-0.42635141652863057,-0.6182476814837793,0.37244709689178024,-0.4997714404440554,1.0387965463279805,0.15330166777030815,-0.5458315102496846,-0.8920138052920437,-0.6023524717361786,-0.20590269040430959,0.7389994243660778,0.43530324748161514,0.016562125552552227,-0.04853125116482708,0.10965898101663031,-0.7461294772580954,-0.6148678316709113,0.00775174689879906,-0.35657281916445316,-0.23597713148777816,-0.8516019613790804,0.4868138795999526,-3.1400361239135273],[0.5520397031860665,0.6802128143844227,-0.3057952047753057,0.6413894319865845,-0.14141250463857474,-0.6373202044483912,0.4495668244202452,-0.062370786940597125,-0.2816292626877737,0.26129290807842165,0.4262736514460864,-0.6636208547225356,0.4266977893406496,-0.9826472567566248,-1.0165837274753893,-0.5275017546685902,-0.6889349039186534,-0.14046052077907564,0.038057845705117416,0.09366203705923778,0.549965324255122,-0.5912301666712296,0.6368195386241631,-0.26859384708870376,-0.1972857737072465,-0.176341570108822,1.2916824017351247,-0.3716737399448218,0.3108790154224529,-3.206979590280402,-0.27247780495267443,0.390686497868955,-0.08004933464417356,0.5897615692059093,0.4775270773168626,-0.28856800049133124,0.6264177431439356,-0.19731812150608966,-0.28060861515395913,0.16570691791040026,0.7885768660853699,1.1078068466942286,-0.7775591070690312,-0.28757791145392375,-0.17214632915002628,0.3895796208326484,-0.9334179220590826,-0.944388893449513,0.7901238148698704,-0.4009503155832703,-0.07443435790078143,0.6110830439869017,-0.4405587550604626,0.029547983462160983,-0.24102807550374666,-0.04240924372388356,0.06958185113373819,0.15002932222108278,-0.9788980845369267,-0.07153716479660936,-0.8455475871048195,0.4755604528608302,-0.4768843837315276,-0.2132681540907475,0.765151883243205,0.5026315342533599,0.14273480442413533,-0.8530411959616307,-0.43349138649679486,-0.6718116137813834,-0.37123450695684856,-0.48675042831867865,-0.450275371913164,-0.17546962044542336,0.26942131259103164,1.107735657599916,-0.88981334822485,0.7831510789574134,0.4515190371881842,0.5002769581306581,0.5294949124070057,-0.6881592401268966,-0.2994124287565164,-0.5168037968606141,0.0867008569743682,-0.5730990966552947,0.8468306376607475,-0.056519211677498855,0.24056442851493537,-0.037776033245070534,-0.12519112196515775,-0.11437416802742852,0.053895074004907575,-0.8935609204175158,-0.6615956678799609,-4.687115962144974],[-0.813045892321748,-0.24502038713429847,-0.770058337530645,0.14018172148330482,0.8636234529241765,-0.48898889554690655,-0.32737095098289054,0.27656275916632783,-0.33228698816474705,0.21703284117623972,-0.6956882930960568,0.6149610063158499,-0.6098962306047759,1.1241524719939233,-0.2794412885486156,0.16928937129012314,-0.3565342500492239,-0.5694370123055223,-0.4376539151881723,-0.09030957364913106,0.7850375742485286,1.1272117285436063,0.8886928979331354,0.3833169411771269,0.6490530436030775,1.0504104820073004,-0.13032180569034135,0.9578303261022677,0.39172300874868066,-4.692112088986982,-0.9184429418724251,-0.47299955901768287,-0.309525966757809,0.4651677135769728,0.2652220304412741,0.4468467494199861,0.40818619088124747,-0.6405558259819474,-0.17516260933043576,0.2837113779324258,0.30645493293424897,-0.09702421195517853,0.8431516062982901,0.7021028933165069,1.2176058737900892,0.48568029063557283,-0.7697853054000151,0.6206004547494757,0.5054913559544909,0.8804726459300707,-0.9605868279824199,-0.4382743494819678,-0.08349292114980274,-0.9219014094251194,-0.06757289334079211,0.6304134387970806,-0.1705045677571336,0.2514638475758605,0.5126068340067957,0.36114334996107217,-0.717894428439042,-0.47139802512352685,-0.4084107142948025,-0.7116864426270216,-0.49549031688894835,-0.42138644720439333,-0.16597056581901193,-0.22563363903801975,0.12763596053779352,-0.7805561864058731,0.12355657901074697,0.5469158603234845,-0.8716440228802402,-1.099821083802542,-0.6511577961206557,-0.8460327198188191,-0.51215643824406,0.24293524596621152,-0.6288510246192539,-0.041914749661901556,-0.9436391616490197,-0.3178534666713109,-0.0979972377854327,0.24580377888085359,1.1805641983960102,0.01624492792588162,0.2792218781444584,0.001811195134724339,-0.24038609778500117,0.0652475254700847,0.530060037422122,-0.7272972883679658,-0.0381356387728685,-0.08715911997407312,0.37967715242429506,-4.891354965539752],[-0.73736096809813,-0.9448616006959606,1.0033086153077593,0.3062089437768184,-0.5252008137759356,-0.01924834829740176,0.17208133640088874,0.6699454468949689,0.28143658183590853,0.9913788998272923,-0.20192273568802907,0.5904556840779734,-0.20697663634690788,0.24652330436141595,1.2555098630068684,-0.23033434588689708,0.3448654707572762,0.8683926220598319,0.597110202565086,0.4747350360358219,0.3822062305462878,-0.42305973053194174,-0.8063633413845873,0.3925832203882751,-0.8724723382134137,-0.3878121949880663,0.152695075138798,0.3464363000766006,0.5694682034112599,-5.687141344887392,-0.8562284259415702,-0.1360154428491112,-0.07230382617725313,0.8049822863652276,-0.2631863139831571,-0.16721725235672377,-0.6998238266481134,-0.7441053929544951,-0.9789905132931787,0.45579603933209634,-0.029559007012160438,0.33053507766271517,0.056572536201498554,-1.0046598629479286,0.9712416261009666,-0.26860982535186845,-0.839566025248362,-0.32100908936182143,-0.7130412003829715,-0.37706668354125816,-0.47097410548689433,-0.09073792240104868,-0.5279076581195612,-0.9145222778402484,-0.29505803428395394,0.0625683399748582,-0.41461700640331745,-0.42395915981997906,-0.8308762599926568,-0.7425773690460904,0.7163232970607151,-0.7926030304502251,0.21679482106756393,0.02264355080699632,0.06448955388451601,-0.03242536561990168,-0.1609923623380838,-0.9087468855047776,0.48242503019069966,-0.026600763530729633,-0.4271638230734258,0.3447377065740072,0.17195318895496595,-0.4570686558000393,0.23695099078255574,0.015524906018286114,-0.787136719294746,0.9058896570592335,0.6974719467072937,0.10041267197981893,-0.10460877111386052,-0.8941326849316911,-0.18178990550817112,0.7518779215954827,0.6077676399046376,-0.08637848651336276,-0.9461927533366088,0.17455097005300954,0.5704788031143594,-0.5247706982182154,-0.8171781907377096,0.521284077523588,1.1047989336501043,0.9668466332216827,0.34958448104753875,-5.125943008490749],[-0.44897612616757804,-0.49514474542220394,0.10671909295990473,0.5252712690609128,0.6101888445480358,-0.1850846614122826,-0.48653615497311065,0.6768284868960823,0.8508094797809195,1.545218282936582,-1.1868598597206321,0.25935039792405773,1.4460433504540389,0.500522742615934,0.06440659989894205,-1.3005664088260398,0.889625295554779,0.0554946188152739,0.1771950798450351,-0.48774247952186184,-1.1629257730705003,-1.193263825873214,0.13734167380787116,-0.81985019710716,-0.4579791183265475,-0.8826338180036664,-0.5793701132543527,-0.621796031280499,-0.36252111311065166,-2.6021831834981057,-1.0947297953244137,-1.0357005006940627,1.37518683450705,0.992219309428771,-0.33643449374710993,-1.2332589492073134,-0.046292110282695274,0.057138850859187434,-1.0564844758161465,-0.4774689353128694,0.4308947356096513,1.438602893208446,0.07268834640548041,-0.9019932478384074,-1.1739385910961952,-0.38652812095388245,0.5393258093864878,0.6868569932379981,-0.22478828325376446,-0.2348477978946546,-0.03908881018096191,-0.07402615965312338,-0.15787960428221295,0.04495774293646858,1.31334569613495,0.36204940720088813,-0.7050191884033455,-0.47170984442225905,0.07132638252772806,-0.6062741683599988,0.8084421211333624,-0.8827896088278012,0.8823191142250365,-0.3285669405632751,0.3053728268696582,0.5896236449187319,-0.3535927139761759,0.005738977142594198,-0.19060898675324148,-0.29724596288139465,0.41995283993084215,-0.5378249146735372,0.6519089211034854,-0.682540198873022,-0.9389450144725703,-0.4399791984118296,1.0428456586140735,0.8508179095347519,-0.1648118044516291,-1.1800004464773246,0.1936430029885969,-0.6928032222738244,0.7349845688085385,-0.19003064949240117,0.732912171135492,0.3604023631562341,-0.7305599592549787,0.32444081133841896,-0.655125435138608,0.6998208460153347,0.5431814840567973,0.5948782017506852,-0.2833183075950858,0.5849545669574142,0.30007565395978547,-3.3904852800205005],[0.4363011698095466,-0.4322239801471565,-0.5399381788455782,-0.6444043999537317,-0.3670586194151706,-0.5410600797158668,0.3358077268197325,1.0452504023507239,0.7298461652268786,-0.3840438415707435,-1.4383228006448558,-0.9075578028483118,-0.9852923055753927,-0.4631920188814686,1.2788064648672848,-0.622655740638228,-0.4143485298251915,1.2770150498702106,-0.897828861142432,0.7282023158810149,-0.8799178280191406,-0.9317594106529227,-0.699406380116229,-0.34696426283590714,0.2968053099853791,-0.18962329859763313,-0.43637630381418435,0.10284549036246243,0.24658081907323845,-3.9753238608866392,0.17473271450346367,1.172637434381894,-1.0253044424873419,-0.35060408653132746,0.3487282446877506,-1.0229415860064883,-0.29128277764618155,0.2885570403678095,-0.8852032008246851,0.4382138942766652,1.0403296754921592,0.0428006663029353,-0.12524466543651602,0.44437553735558405,-0.20505662368384503,-0.7060719941657619,0.8693022662358177,0.729217002286509,-0.7799761681714706,0.7354993041083088,-0.4528612409602764,-0.14084030659221158,0.9410692269744988,1.2420732110150732,-0.6474786909568864,0.7461258188999252,0.26525553675677815,0.7629044527729916,0.33372502072213417,0.18124264320877664,0.1349481582987364,-0.3912029994836878,-0.8183867233060659,-0.7206004706596275,-0.21279022320941324,-0.6651783892603105,0.48345704515638926,0.040624285209298436,0.7989691666171942,0.8946459911987427,0.6602147316099348,-0.0376542763079847,-0.2927984504267744,1.0232535804770522,-0.15757304986873027,0.19292830828120133,-0.5349214168072787,-0.340122428519481,0.3947767398730444,0.32038924332242796,-0.0639127886687811,0.4596720413080942,0.5868667240767848,-0.7492780929874314,-0.7834304991191411,-0.03867729896900844,1.0804086762250282,-0.0064461133062326745,-0.8869829067441924,-0.451320780328279,-0.12687315271022742,0.16363282477108276,-0.39793723766595285,0.8892202456048515,0.3860646948035174,-3.836143985079862],[-0.5941749502483311,-0.068734684690805,0.5110633535617498,0.594679154745885,0.1800426197966262,-0.23053912509524546,0.6181889710536421,-0.3343302573607297,-0.9443972802035875,-0.5760528318185038,1.2096247100192088,0.32657601480459547,-0.12580248816656772,0.8102054112785303,-0.8457341658066934,-0.3791919652676366,-0.3913674515438737,-0.4287247081063236,0.48021091201863486,-0.6455203081649142,0.8384238817024628,0.9389541216263995,-0.7294776660754376,0.449383116866131,-0.7514005798774342,0.6394412908485637,-0.6533983204075886,0.31568141359894597,-0.5401362615899091,-6.94847740396698,-0.895049729677302,-0.4217351937711983,-0.5922709095535216,-0.34838183811067125,-0.9905199005365622,0.7375552090431496,-0.516279856438235,0.6007628971900468,-0.7166603913635851,0.6131977763818833,0.024530088446535408,0.2527206455690514,0.5333790721721738,-0.4353469508202776,-1.0173301491510909,-0.021213390101231615,0.3104262302412255,-0.3983148975506675,0.559894568127682,0.8196331792012509,-0.8164452298522604,0.5135765028888889,0.8430113618203554,-0.26308419197680194,1.0768113880197026,-0.7444853009162948,0.3743076898850829,-0.5999742010435648,0.7611517769456736,0.26495816694032887,0.35229817894404625,-0.1199406719094421,0.3396402473208841,-0.41723654822633555,-0.22929741606873008,0.40649192328277695,-0.27078795811675244,0.011639071573263458,-0.7009758340319053,-0.9137420046237114,0.3479759812344596,0.8360447909817452,0.9657882605019238,0.6512084725333511,-0.233032695791821,0.9936272808598309,-0.6550164231260147,-0.6471226167714331,-0.24549873783223353,0.44693469288749826,0.533032826506387,-0.018850773362582795,-0.007362157258066528,-1.041575286338731,-0.8394266536223554,0.19282390916535452,0.17960950152769578,0.1962969433261336,-0.4441613300857832,-0.8431097090791553,0.5697399179252912,0.2322150290866774,0.4289014233193559,-0.9394077537943835,-0.5538553385857925,-4.684477736276043],[-0.9920928138730285,-0.9810017501955943,0.37633074063985533,0.5784775204195189,-0.7253911762705154,0.0228501106525841,-0.9088439951508697,-0.9168078736018944,-0.13708372131822977,-0.12193298467108567,-0.45917876600041707,-0.45355807846677254,-0.9182549798793976,-0.4971825618660913,-0.07244748570163224,-0.5802796519649289,-0.7881413251923995,-0.8054803317599116,0.47706360883802096,-0.8771162506843868,0.007981166471222373,-0.8497329581252631,-0.2561424887266399,-0.8012191329004118,0.40771489287240165,-0.8606884898133843,0.45658343368969717,-0.44099954593822566,-0.5818618849701859,-5.505115370220806,0.6675010029468759,0.19045120174060745,0.8253470296528297,0.4779302291783894,0.8474342629306875,0.5032944218990976,0.8145602493276665,-0.8925778472772247,-0.5830025816781692,-0.8285965098859805,-0.8692812074576441,-0.4734915065509429,-0.28225777666584195,0.19366553228409591,-0.7809003184946477,0.5169235362372296,0.11711346015752787,0.85295501349547,0.9390850917288793,0.8676846236429403,-0.4332936088337908,-0.8445472275261224,0.775786577399786,-0.26312741427094927,0.41470103245424056,-1.0344710730033422,0.32481695150057266,0.5723650985774055,-0.9165227005740129,0.45359662477444557,-0.5193503281706741,-0.9387222648997497,0.16970650781911384,0.3654928458535349,0.7729893312130616,-0.4626034312394248,0.5131774963686129,0.27610873151812215,0.6587923651993316,-0.5953039767481972,0.09000349419928148,-0.416717861762273,0.23348462514616006,-0.4198475370745291,-0.9402994197210595,0.4725121051911872,0.1853350535134256,0.7151675616485355,0.46059453254696364,0.3734596680239204,-0.7677935240112392,-0.6403507142344111,-0.09586502927671912,0.20000064408439422,0.19434115048838158,0.24018659413942076,0.17748268557817917,-0.15580506731233834,-0.2858711169452032,-0.8384047536739379,-0.055938796923121335,-0.5957511089963596,0.22828407767181444,-0.6202360625365904,0.7916010727272742,-5.716724400797704],[0.8593914778424261,-0.21554298858042947,0.39547905727998856,0.017418725186218717,-0.4267776793602197,0.7340767756569214,-1.248011942275063,-0.30300071393741707,0.2093665259621711,0.04928615068802621,-0.41924288657870384,-0.5446901997747942,0.992676174078639,-0.2972720077778603,0.15476002994558558,0.1826145887665873,-0.02397314099867267,-0.4346143779691867,0.28711968188492365,-0.6592177819578419,-0.3183039132109615,-0.40057588155163143,0.15926754573856056,0.8576459721590262,-0.13132476410966942,0.018694659016746835,-0.9916536200087341,-0.040668281220983246,0.011487618439053892,-4.466554109742502,-0.397917652126577,-0.11337169651791569,0.9116639280648947,-0.3660804842081927,0.012130026579106208,-0.4386774401920638,-0.7456556752442153,-0.5180632619380082,-0.23281334786357258,0.6095620071569648,0.07836312845352475,-0.051214179693965294,-0.12096370124836689,-0.5229003201463351,0.10973390178408843,-0.7898649674788084,-0.6072147813108894,1.0063815471586808,-0.44228940373908165,1.1156848760529692,0.5424897886095409,1.1571516163680198,-0.9119516482937023,0.40848451183929896,0.27350642485437193,0.17942964695902217,-0.7533088929968049,-0.4978657677269766,0.584997918661689,-0.2780902217609638,0.35819331577092467,-0.9072839463519632,0.004964744652076499,-0.5018188623425958,0.29399350485315806,-0.9051849376900826,0.4768677707156382,0.12293920296907496,-0.18053033359309584,-0.7332819641235684,-0.9420125883129586,0.20021187771043725,-0.6997295927747934,0.4431390452945171,0.03426778965138669,0.8957584786968341,-0.2660758450288709,-0.9437750664994748,0.0838708789290629,0.769039915744407,0.004405048550705594,-0.5410225389155239,0.5785700843460718,-0.7496132300213687,0.9553507770785026,0.6018676400187992,0.07103217235737577,-0.27193020518513433,-0.9076656090310036,-0.4236255359456615,0.13861252004780286,0.8623549485930718,0.6337971181908667,0.5819488849223904,-0.8120459342816421,-3.7565721493402338],[0.09836923978091865,0.7262272929696488,0.2644489069241444,-0.21187292217838458,-0.7538079137576177,0.4759722050058011,-0.2872969030960579,-0.7490089806334129,0.41211932424475356,-0.4070583034614857,-0.8767833656075382,-0.14799617346790225,-0.774247614635911,-0.02275957187569132,0.11268642889995685,-0.6823035757333773,0.15401878091202773,0.8953070624266024,0.8331002131729132,0.8912682200371059,0.37126536985002806,-2.138235541669803,-0.24076065377711103,-0.09038818648519555,-0.3264845789712703,-0.849514173801223,0.5400072056387376,-0.8767513431747923,0.6648514843251251,-2.443082527307387,0.6726917487927176,0.48218373602040493,-0.29255314143508876,0.8189357359262476,-0.1797549768870069,-1.088876650700052,-0.6879838791678611,0.9143741880461446,-0.26679656619194936,0.16207781876277072,-0.8931252384903492,-0.7363926606241493,0.7411162911939353,-0.4226610144383702,-1.0856530491553595,0.3638291109085196,0.21785856806185774,-0.4428616595202095,-0.5510526270785941,-0.5745642508792212,0.5926149034736916,0.2542804620375553,0.24584088346037233,-0.5684657763376239,0.5443879925173978,0.9567147843756684,-0.6092181947989512,-0.5564726234359907,-0.06271202836210274,-0.563896265298351,-0.9020853081255851,-0.4321057889940293,0.265893203286319,0.8556619594010907,0.091514411897267,-0.7193734167565458,-0.8810162792503996,-0.45627322708815404,-0.6665429949925706,-0.6556853745725645,-0.7336506840784697,-0.7560533948962714,-0.4945000256412556,0.7100081941226712,-0.8434566007543811,-0.7790276059878825,0.9663360567097894,0.36569367274469816,0.05179252022201873,-0.15874582319314248,-0.9468577140355872,-0.4499574051421548,0.2673570314812267,0.8366798059630309,0.4078934164552048,0.04987036175490651,-0.563251236853899,-0.2586367572517411,-0.35154284004928243,-0.025569892896677406,0.07928179452740365,-0.3805970323546668,-0.9110709312066775,0.8083752165427147,0.41694285267128883,-5.733727402185145],[0.24964329691028345,0.14610833213155613,-0.3843815428993214,-0.654959963013242,0.09124192803350685,1.5151508479745779,0.24038499233149424,0.6497585942471361,-0.05874321579395313,0.4550924818646353,0.19582104013581464,0.4913394242307625,1.5571993357490137,-0.6423371062144178,-0.08257675434134668,-0.7379855441817266,-0.16237573177895956,0.2119742981420119,0.6479990781021787,0.35944780739781634,0.2415013560465992,-0.3509569547502352,0.1790085071881244,-1.09979314200628,-0.34175715581544613,-0.27085593307173805,-0.39787891489468963,0.43100890398811564,-0.017354663427738674,-2.511204269137682,-0.33735774983910166,0.36676940184870566,-0.04874484835622296,-0.10269238578704108,-0.14027491515430415,-0.7546220125452585,-0.09635341035471516,0.6129981669356571,-0.8061602580010581,-0.11191177921550251,-1.038079487485296,0.22516712089345312,0.644176653145365,-1.1754069440755484,-0.35312725579029475,0.12914751845686367,-0.35106509295348737,-0.11932710804385994,0.5218224846795745,0.15382927994295387,-0.12008236952629957,0.2894269396334097,0.667881596159783,0.4114529645804068,0.04606965865574325,1.658410281716904,0.4189167435820928,0.4273682452127547,-0.29581197191538394,-0.1397444536911206,-0.32958105614409283,1.0907757399980071,0.7912238726272703,-0.658257045196923,0.1743417319982706,0.18958376370337635,-0.25835133986327546,0.021634387712312887,-0.09278182432191404,1.3158772444555786,-0.17806614006088153,0.41430259865731345,-0.9829201988446707,0.24313898694703556,-0.4180798640949948,-0.5634611220940872,0.16243474709031264,0.5499164966120539,-0.45575174420059106,-0.7037431138721314,0.7397851000182454,-0.026651951446828644,-0.024175842547686916,-1.3031402787793596,-1.1500367956467759,-0.6209240306264602,0.2990858924325386,0.24522026078446352,0.1403672796893202,-0.3553604199767474,0.14756312793659823,0.989485059546293,-0.6547296159171991,-0.16746234882052274,0.3224003267078537,-2.7099308927284094],[-0.5442743003583346,0.16825565869105108,1.3328363360123283,-0.6132699337081795,0.1395026130247353,-0.7947112154963311,-0.0992905081729547,-0.3437687206755939,-0.4172836491783948,-0.15330950533901475,0.624288594095802,0.48329914194416396,-0.2041062679918383,0.666624640591321,-0.7327453479187539,0.8865616825016928,0.5880692968817115,0.8794666973221812,0.24877648432415328,-0.2988960788110682,0.68441744393175,0.05478715726380289,-0.7043516289596141,0.2247972174227143,0.0041090189327726715,1.1476416557451385,0.31413675691489434,0.10129635960492606,-0.7319700836892247,-5.328037070353963,0.7242577947264573,0.41094380257900515,0.8014743484970827,0.3316860413234005,-0.9504161554686047,0.6873536632041175,0.4280053463478799,0.5195386165584572,0.1964405184462057,-0.32964515308225467,0.6083835934739923,-0.062362908826918584,-0.4693833426911083,-1.0816089803290445,0.17152656960968365,0.17719164935240284,0.010372425543428244,1.023200965669647,0.6484407220628909,0.35310591365951394,-0.88923123369534,0.6031674005193208,0.31429205536524485,-0.26711118671972167,0.8721157897295541,0.8788999985291094,0.7900554401645182,-0.3287210813494643,0.27379760235504536,0.5683280501793025,-0.8989842253854765,-0.9814895252148267,-0.28380488103008,0.3269163462613661,0.8807013666921127,-0.5757415568701172,-0.4358708439790003,-0.5601130612223513,-0.8171186387322731,0.5906657197380227,0.9022990281768168,-0.41994498508709854,0.7522630217893943,0.48134521770213096,-0.4489189427316095,0.08361563321196576,-0.9887998837308671,0.19678808366811265,-0.3406027905061964,-0.6820008739242996,-0.6128059652336433,0.7893865350086876,0.046391542177176025,-0.1045709862944238,-0.9914784100405737,-0.5615730752991983,0.04165165672772402,0.8596466464149684,-0.979496626428933,0.6230792400318965,0.7214010251882907,0.646394245627101,0.5258724678606153,0.030255223453428792,0.0912675647345297,-5.76969931058942],[-0.2173894348050181,-0.46401887328490093,0.22176300837467955,-0.26786181186568875,0.593107876024054,-1.0408480515890792,-0.8788059013610026,-0.9320235460490092,0.25022373779793927,0.8856778414558193,1.1740894580672938,0.38134360310471777,-0.680505555554822,0.460966858753,-0.6284986457666322,-0.11911556863838131,-0.7476250321772513,-0.38494704743004515,1.0095153224547782,0.4619555693937274,0.6400839025247899,-1.8241680868827583,0.26831490738026004,-0.22205806363757896,0.3493132252680146,-0.42959406436109704,0.07361828145779704,-0.5492638300022524,-0.629268061805099,-0.1611268904883489,0.9546704341636737,0.13729606423208932,0.3770250795963077,1.1750946474227413,-0.3089960857600733,-0.9895399042120603,-0.9489212386485711,0.4615424018482235,0.09772175122366535,0.21019111361375764,-0.5207245792306107,-0.29688719561378607,0.5293807829256449,1.455902190551336,-1.0941133622816386,-0.5164923516366154,-0.1510255162165432,-1.269560862623653,-0.42470100058787985,-0.35908675878851976,-0.5953701354301466,0.00888740205556989,0.9854109796007815,-1.1702684716179244,0.7896712973406486,-0.04235990671281347,-1.1985786592692895,0.14713622437511134,-0.5287264230708276,-0.19799731373188506,-0.5919897647482486,-0.7437383260228199,0.28507909447060864,1.0492411871239427,0.24774300868156302,-0.9413423849645072,-0.9359108684250086,0.26092663554577444,0.828303688371935,0.09948008523282509,-0.2607037261596384,0.3003867476578859,-0.6524238035067805,-0.5843029433769719,0.45291105013068717,0.3999913530243942,0.7333155116830806,-0.29722577689155133,-0.7018667350013981,-0.21824665876606383,0.38194401657794697,-0.06748746602661171,-0.7670564500590141,-0.24490713832370997,0.41409424897367275,-0.40787938337398644,0.08899322210821049,-0.18795078559068024,-0.3952077865448686,0.644110756135194,0.0872865488535258,-0.24945048301019934,-1.2788194662932684,0.2213769702124684,0.37294435066868836,-2.096978543635464],[-0.827150773092062,0.2531761061294107,0.5337358927506118,0.23519641357801704,-0.2911874045333114,0.6968359032109221,0.3344328124547216,-1.104258118389046,0.815844276103302,-0.5366946399973344,0.5221972806238601,-0.6046613669862054,-0.6325314525734745,0.9295729764247102,0.17574735268049538,-0.3784718064648864,-0.42467486694453865,-0.09992139851983477,0.504408581853451,-0.4023974565686474,0.3110962606463255,-1.1429325198753013,0.09512651807240022,0.5926839343789587,0.34521876326778494,0.2142567758008398,-0.053583100399379725,-0.16021973404100187,-0.5763013887310029,-4.3428200335624405,-0.4165972727865,0.06693593356770441,0.24797631685155178,0.12966121378088935,-0.30900034804634674,0.6125514274076452,-0.11022367163421415,0.7342602838013372,0.27499739304759724,0.5140956935584897,-0.5935582153205463,-0.11640828347045742,-0.8704540922955106,-0.32462579032185557,0.8944520768349562,0.5941307992894042,0.9413321103857877,-0.35750789673064987,0.9943370593898625,-0.637157532770495,0.2661080247862822,0.42192646172647646,-0.30167903342900104,0.21509958652668476,0.6566159994781471,-0.09311963756146825,-1.0100040019129937,0.3221446679669243,0.6967347135094359,-0.40127666184465355,0.4492932631748514,-0.4449015339903266,-0.855087952878552,-0.8463225781127005,-0.00768526004911051,0.6184447721393141,-0.041236447883675205,0.04785654386075405,-0.5352878309429868,-0.8100700042515622,-0.27026543071052334,0.5442787087574013,-0.5298270980508116,0.027545798158823315,-0.950079151769463,-0.6918666438985547,0.17249442250464694,-0.6231803848664103,-0.6625563035282144,0.6709866482207582,-0.10441651256694048,-0.10374175836595653,0.788427036587832,0.5597577210199446,-0.1234894530342286,-0.7270043344828191,-1.385539988604617,-0.4859460683939823,-0.627173452877238,-0.3651792660915876,-0.730182848249773,1.409365881724599,0.9150219621428385,-1.0229972006131889,-0.1467266684785029,-3.879195982467134],[-0.8178725108800209,0.3255363217991265,0.15430589971613598,0.007999260349772547,-0.006930351411913776,-0.026259451883292085,0.5009491460705318,0.9897385655775993,0.8044582812218346,0.13660238022637844,0.9289584924502624,-0.5681020675120595,-0.0584243394766087,0.853051305137473,-0.8142175997857954,-0.926953609710615,0.8866081886615472,0.37595283936872387,-0.5603314199309095,0.5453086234395133,0.39931100662375285,-6.256686824833913,-0.34106935422281476,-0.988208420038163,0.07418979656254238,-0.018275585995671573,0.27517646617889274,-0.8333316182569355,-0.6152728947830768,-0.6882195384426871,-0.1310427427211095,-0.24230235202400816,0.7151921958573222,0.19108479824168306,0.9624035510800356,-0.8241131920467404,-0.41062102836963393,0.7448509311928392,0.5725234707887701,-0.29852792088298563,0.067778373178344,-0.7739208936325506,0.26804228982258715,0.05245874383795233,-1.1406865810780875,0.9535476357114094,-0.3031347123678894,0.3559853843307426,0.5229833549651945,0.28295340548219367,-0.3325209949329819,0.27646366302664394,0.22251388767433483,-0.20448617265967511,0.18648813689217103,-0.47225541741748994,0.17813656902590425,0.7669045427079609,-0.5242168615573688,0.4996194878893159,0.2235027769296663,-0.0694782771268573,-0.3980570282923587,-0.432704447710886,-0.2499810886827118,0.34995425877995956,-0.5460899746013528,0.3310869907371503,0.7484304924419669,0.06733946126956032,-0.7232213496314543,-0.6990442158335614,0.4063276362544963,0.56584151654078,-0.7407415970623572,0.1114941678126046,0.9490397304072928,0.7193880914254714,-0.25773451996773494,0.7410109918515222,-0.5711475086764962,0.920445863023811,-0.9628388389695112,-0.17180234812448492,0.13638369827553298,-0.396277221808045,-0.8328734127098408,0.16962157776654613,-0.6246354745563144,-0.1395601618092695,-0.4756765612529424,0.2142770737704529,-1.4275893367822308,0.9762323726807569,0.6560836117801342,-6.861673870964522],[-0.3242007862077718,-0.7972454041373234,0.8416635019176072,-0.18561221185152602,-0.4623033799008136,0.4229147745749164,0.27602059994092126,0.1511530619624677,-0.1090553258438904,-0.029489409200407928,0.8958938921248815,-0.7069664450276552,0.48439005966779114,0.6144891809807068,0.3380447244790583,-1.1959699556815948,1.395704543671236,0.4232701339899645,-0.7008126806490228,0.6876718447368259,0.024058664489910307,-0.37890883558073757,0.19248654626072956,0.10010608655853599,0.2917431198368273,0.7654059237721653,-1.0104543605805962,0.5199753966651622,0.33180272194760807,-6.262118115874,-0.10876472940754786,-0.7373406918927725,0.6768769465310941,0.546287517276416,0.2835987741136926,0.1264137759819195,0.19814082872546637,-0.21233447592707677,-0.32935744724505506,0.5384260195634769,0.14379343189200194,-0.6868103167664273,0.6265744140827448,-0.13317959605156404,2.3746112026650557,0.8927271601503188,-0.6550925352056381,0.13367031033806773,0.0867631496686659,0.3280821775475673,0.979965561980627,0.33052564599340306,0.2983308680098795,-0.6700624657422175,-0.19469960883595505,0.3163730877665396,0.6319400639191743,0.5700591255577657,-0.616079096285722,0.5876375843934192,-0.38708532141744745,0.4080319234370921,0.46539187773764434,0.07359144162721135,-0.4789377960259457,-0.41275097160245994,0.5464691198643188,-0.06682636727033046,-0.818091745773703,-0.3763291191759317,0.08830948959095851,0.5159309176964076,0.005496942918244005,0.5155896178703141,0.20390656821294526,0.2204600204624073,-0.9110671627358263,1.3918019024623214,-0.7799690514606187,0.1593257869774733,-0.14415457244623409,-0.653703501006055,-0.5445823252757155,-0.297381345708196,-1.8471234219358212,-0.6081161306506476,-0.14616191959946948,-0.806618330886404,0.4131128044498196,-0.12412382294737334,0.06937628681657067,0.7242606035960889,1.2197151372820951,-0.6747442586701345,0.6808291496551948,-5.3051311676230775],[-0.24244955151735134,-0.3996715270125154,0.19094830759065354,0.37469407688052103,-0.26236961132732006,1.1955687490263713,0.8681670660747147,0.4492252712290145,-0.7538172447424146,0.7295608368232402,0.799867043148406,-0.19890737656600432,-0.8721434022382114,0.6563784720941863,-0.1862279023258919,0.7438169862735171,-1.0410993154808494,1.4216031271997844,-0.32022466020218043,-0.7210467317744104,-0.8333495603841762,-0.0206705853078024,0.04720698381023285,-0.07241072876035125,-0.19173892872969903,0.5003720394093032,-0.7497608867526238,0.054869686395144134,-0.24948930310220957,-2.9083440454740743,0.45358399343046074,-0.34381366160465365,0.08325216488852596,1.0476911956728185,0.2874118819966644,-1.5316878866955599,0.357960019949435,-0.9988362553095792,0.18408434941937737,-0.6265133934148539,-0.9871066855774895,0.6588955810801107,0.46992447173565166,-0.42709728101578615,-0.9994186553215864,-0.6115519768284748,0.4121312103559936,0.702374562684698,-0.44942261130863614,1.0121895100701972,-0.3414639456919757,-1.0848984707283504,-0.036964728618955965,0.11578651359677061,-0.43544705708930376,-1.4210131433702,-0.6784725747990866,-0.3491151610002539,0.40097653199535127,0.09334927086753718,-0.35139950737046854,-0.6068638383063418,1.541914020812066,-0.013934437456164808,-0.1491659167718798,-0.2661452751492054,0.2525968651616396,0.019187572468650643,0.4520290113619283,-0.11836012955097239,0.9747018129370174,-0.7677314810511419,-1.0003421147855325,0.8807663264729155,0.23011817843713103,-1.01354017335824,0.05113297731974323,-0.7828203709585547,-0.19590699964116712,-0.29678979653556825,0.09176784159829399,0.32516819038869427,0.21387293410693248,-0.3129874829305876,0.6746229607691794,0.6698098683562344,-0.33281967783699834,-0.9066305760319321,0.8742766641750452,-0.5973466083212059,0.4942400443833085,-0.5292613840640431,0.47431214150098083,-0.2854895307677823,-0.08973881534773145,-4.313412009862732],[0.2872028945712951,-0.2856617281529265,-0.43204213793233315,0.4025573449218335,0.17747338311157007,0.14340707886822177,-0.7014172817604826,-0.4596894645281079,1.6712032972263235,0.39649452108222644,0.24720158755253707,-0.7269382301629521,0.17520338229783164,-0.2908183437057454,-0.9541292773686065,0.2094520357948486,0.8911465757942428,0.4118552418609553,-0.0050029675217551995,0.04035070248150702,0.004613909128531765,-1.292480574278573,0.33971489759014795,-0.3840946660865223,-0.7584315335220077,-0.43428868571066587,-1.0542315295078508,-0.5843621008081472,-0.9134688243505992,-1.46406429935196,-0.26819546461930616,-0.12459074221638856,0.12060719707902694,0.09262620762468285,0.3823081221664018,0.04726451170057762,0.3193751849402027,-0.6025783008886527,-0.007673639348391249,-0.2892698788292776,0.25074030494256916,0.27491583360406113,0.30917982588446563,0.3249724615487696,-1.1191315269024456,0.5666308897504758,-0.3334599293750949,-0.5898952978788734,-1.0992460670631017,-1.1848148732806947,1.7063880945437562,-1.0856313806352589,-0.5422898668491098,-0.8736583810456104,-0.9838338225182685,0.5599891495697377,0.009587800630283872,-0.1191866319116066,-0.14823215315825952,-0.5623906702917008,0.5029782771660908,1.176138734295825,0.6877239086668661,-0.7086549708605396,-0.3989669631094808,-0.497583805678179,-0.1732148612668442,0.20707747709822882,-0.5108039719190379,-0.41960131168695197,0.5940863721739513,0.761953365420461,-1.1436961457547286,-0.2946547453994839,-0.20083375137402548,-1.2109005387106664,-0.75562541608689,0.08516964156457753,1.0432731479614548,-0.4258540684130492,-0.1317874728094738,-0.20885597670284736,-0.0633883946531596,-0.23006663217139528,0.9770644503427409,-0.024363116641994045,0.5844749597602087,0.18585284165824673,-0.7303205902651553,-0.8184086046665442,-0.49982605942867026,0.560042068354355,-1.4609438956245622,-0.7086299675677756,-0.6137337123916281,-2.321904991522236],[-0.564345729856835,-0.25902598864759846,0.4454677408663822,0.0025268919814518172,0.8342895505190087,0.26624605653269307,0.25358341500299386,-0.22505075220764323,-0.49570526468380066,1.1585952074787838,-0.11977272070928556,-0.815971449953181,-0.3127775157717413,0.5390886581033973,-0.3496102161515063,0.14664360403214277,-0.9147607617586107,0.013489930514181335,0.05345815783095263,0.43264811326517416,0.3229075000765352,-0.7832482019028785,-0.5334109922406199,-0.5062192919869603,-0.12588905251968546,-0.14079649459192217,-0.8442044784611178,-0.3544123949298829,0.9033298221966923,-1.6763020723523308,-0.006779134165352454,-0.07250812587540977,1.621394131393289,-0.1453785630172421,-0.5324721372987031,-0.37601021659165623,-0.5188789656697435,0.6968999307245041,-0.5331179707580116,0.10410573315265624,-0.23639957123717847,1.1190989251500274,1.143425491039793,0.5012645978144162,-0.7448633762705198,0.008411846981312265,0.6035558055577825,-0.6010649008485721,0.9060198187298656,-0.5007320411767797,-0.26416274255673483,0.7605121149644998,0.08641293313604742,0.9861350429704703,0.4634569117102144,0.5619060984741852,-1.4200311926223155,-0.5132540938211408,0.25792189717312797,-0.8322399729976176,1.0505337750965766,0.3801849870050683,0.07365599019036552,0.5112631026045734,0.6818386135835408,0.03297670323879668,-0.4934813755997897,-0.1361946539959518,0.15045764240402923,1.4442495768195613,-0.8297735254250744,0.2965424011736347,-0.7253490023041882,-0.5001081205460373,-0.5439559416616744,-0.1455121066618616,0.5458131804924377,-0.8424545727156095,0.21744587863125123,-0.5084927162506477,0.13499398288937597,0.3427464212703699,0.4694816871220123,0.12348371504019091,1.3400649520988825,-0.6229938388018699,-0.08793359842147207,-0.8187265581634517,-0.6122535767023142,-0.6220987902425852,-0.8822548814784913,-0.46392031007165124,-1.1021205624535937,-0.661204711504688,0.25251260018445876,-3.6318391563873176],[-0.5371150495656982,0.13348519079346738,0.33348498582665154,-0.6801993478600732,-0.9011515485710272,0.22435492664085957,-0.48763618803569636,-0.36134535178940064,0.5751716286531605,0.013109747958737959,-0.23190450522449912,0.5071329946964724,0.26367975359510176,-0.0782202837690341,0.38767825295394265,0.037197609599343755,-0.827438798652243,1.6160490173066444,-0.905640984343753,0.09588834756637232,0.7455833056266793,-1.8301892479742397,-0.2897916505434363,0.3141352890680336,-0.7421944393778952,-0.7525053572814965,-1.2610297085569253,-1.0967667761298512,-0.9540272034449356,1.973342677995016,0.5975875529175186,0.7491678227499159,0.718337382317488,0.26671895855307726,0.4984352463981094,-0.342641331618698,0.2841277745059392,0.41116616329760974,-0.9630440328821286,-2.1211849961253306,-0.6403425738389478,0.8682192719652336,0.06947069897999399,-0.6240630853827986,-1.1077436998603283,-0.8936753384077902,-0.31820299200813273,-0.7843299330816306,0.8914737374648473,0.7657940597030933,0.45444016126810916,0.06985583963591473,-0.21181185200190117,-0.34527252450421486,0.7346454230809943,0.5419775379670736,0.5451803636400582,0.45617780791953844,-0.22683732681672478,0.1361157720735522,-0.6403991286555852,-0.1551487929059327,-0.8698207284296366,0.5520676447162918,0.13127856404704846,1.0064676794652727,-0.16077675248984374,-0.5564992753053295,-0.20926029489706363,-0.3825594676199083,0.9711548596313992,0.37641599366379713,0.5489239789503314,1.596998362929648,0.9520685407508386,0.13273341632753943,0.793264558506814,0.35178255390085084,-0.21211113536717427,-0.1603943434527782,0.5577622421174566,-0.18881122663232525,-0.8573628589137477,0.24867831786674646,-0.6485689409433214,0.33229905723910724,0.16948338708496277,-0.43203856999287316,-0.5033907534444684,0.5341975584507573,-0.8732576263813076,-0.5944647152261614,-1.2992062551000343,-0.8375200560135355,0.44868664743716813,-3.446588582996855],[-0.2346786739213972,-0.09928362080885245,-0.8964644726292816,0.7750495529703372,-0.40795843550021954,0.7014982611256633,-0.3985055209593256,-0.7906202558753312,-0.6885002843273273,-0.9456015550327582,0.3144095091919254,0.43136458626059865,-0.09954252320898142,-0.19180717257433058,0.7638290668406776,0.6854466586337137,-0.833155233185254,-0.37858520462329326,-0.12961630322934461,-0.17866826613425307,-0.7488257292069883,-6.544971440849232,-0.13910659804910747,0.8226894980057815,-0.647059143329922,0.6594102289331344,-0.27347012616702265,-0.3349366740856295,0.4096484606623968,-1.3635511557555018,0.8575959077739395,-0.2737354762255051,0.6473426243844344,0.4944457353164803,0.08169579051719192,0.7019483002845653,0.4169198370967027,0.9044877941399149,-0.9320477729714632,-0.11813517743908088,-0.6720199538958999,-0.86702854217482,0.03299468922297328,0.7517146057503779,0.07143294501107637,-0.9412654078397812,0.8335060546033112,0.28707744841657373,0.9964879886047263,0.4029830676904097,-0.965481368623174,0.2986009433949045,-0.8845916947266275,0.21433437030424232,-0.557691064993331,-0.4273867260228007,-0.21559503756413642,0.39447011326370723,0.11820653958191975,0.36645440782851596,0.4896425461374603,0.3015201943924851,0.7627776883004436,0.5149817558121226,-0.3827146352589339,0.09339365801119588,0.38530976348736545,-0.6945906218504413,-0.2725104829813685,0.35580912138216014,0.45482027620886323,-0.4874161390126142,0.5900611750045769,0.397581734681668,0.38050139149148426,-0.08719248301109622,0.9854204625752714,0.059616029782381244,0.5875587501435657,-0.473212966165395,-0.4993365579851626,0.03607311216110863,0.48479543985073253,0.18388146898219482,0.2548417929740994,-0.08554268781788416,0.07769727830104983,-0.4735169781468146,-0.3779947758942856,0.29398501856149806,0.15561965232344865,-0.8556190079035119,0.8678226765286269,0.35340204394588404,-0.5161240497347527,-8.273772008345874],[0.03207587663121701,-0.29192701652724345,-0.45452548166199097,0.3294627058413222,-0.6986692698121029,-0.07601795555206743,-0.6594959090553265,-0.8794910840423095,-1.4214021095070855,0.6168813171586952,-1.072388301703523,0.18853358508275736,-0.3688623067867143,0.024162619653942327,-0.2594494352286927,0.110514626478199,-0.25055450537047885,-1.5769981826445998,-0.5394547434789222,0.4645719609261367,-1.0647977796917638,0.13130975026810685,-0.10698336973291836,-0.25905598271988345,-0.43412197583462275,0.6509999468512307,-0.07803072684414797,0.5517793756054691,-0.10202484302071965,-0.22297642317721125,0.5407387707322557,-0.18678127301399283,-0.5370916228495036,0.2975223506923154,0.12794325040040835,-0.5342012975074841,0.3141341215076432,0.22168032294432288,-0.277532304786185,-0.85495414423884,-0.12246513074514986,0.3556579671624539,-0.22612406594478074,-0.04749331097833583,-0.17940928632660452,-0.6149426311380877,-0.13176061984489035,-0.034667516533447344,0.06972258823630402,0.475046150496871,-0.5980084308356508,-0.4766021861667976,0.38062890191305304,-0.8538394348851303,-0.49497666688504854,0.20273854251811466,0.45387402399729004,-0.9064137817740633,-0.7655842169694049,0.3846762251566791,-0.30398653167464956,1.5861393642771864,-1.1238268059492849,0.30512799042887634,-1.26226380748799,-0.6879487392829935,-0.10898485611029471,-0.9320734248069219,0.5895928956879801,-0.7967321797457678,0.29105950139572306,0.11236802818458984,-0.23061687017574004,0.5023287761661749,0.24092098299587894,-0.7490373719901698,-0.3138819878704847,0.2555199572257381,0.45021972415590217,-0.4538986784783175,0.24135598833478508,-0.6359127900985938,-0.1135683312822855,-0.31613091452169234,-0.12044025868822629,0.32849830419458115,0.12729090619796007,-0.46417597347515926,-0.4587569945367855,-0.4971344743869806,-0.17665793512690053,0.2946544175469475,-0.742777476724169,0.09407526739636987,-0.09743928847247514,-2.2045106907175342],[-0.30513058428015805,0.3941112906144144,0.37267588313946576,-0.5041277060280173,0.7792785601410229,-1.0249498710409726,-0.0593514463800099,0.847654906212491,-0.28679537175501096,-0.9432280727081661,0.14523126295438382,-0.5251623185131817,-0.9681745534612815,-1.0413343851598178,0.5371153428498874,2.50113385731799,-0.5118063255487927,-0.8504602017052186,-0.4293317777813378,0.5192996643426047,-0.6837112421351196,-1.3233697536041633,-0.10714148629156235,-0.08705204401260873,-0.35998669140859446,0.2766048677580883,0.31224238009695493,-0.8340275958917445,0.508263523387515,-1.0385087232819774,-0.009747131315538182,1.2182994259673596,0.4708389966818898,-0.04650477758459464,0.2981514073631815,-0.3938503182942234,-0.08895498556353974,0.16644777769427294,-0.7751083750148275,-1.6837359281890418,0.6200524675468418,0.41757976504649347,0.3367052791585269,0.2721452342883197,-1.0276776659354692,0.339796512789049,-1.1046708297329246,0.7174740676284809,0.7580990899981794,0.7841009083338756,-0.6896955968482702,0.26069014572081,0.731094212306346,1.0852434095252208,-0.7699992718233634,-0.45268184019192237,0.15668377531565306,0.8259519135940041,-0.3755494164195803,-0.6066988220444551,-0.8364182485468495,0.26513094322648323,0.8680504389322816,-0.6298489834253433,-0.17877922769668703,0.1517320562368497,0.36546303108568423,-0.07456737112978898,-0.3082979626173628,1.2254792226805191,-1.090138782045297,0.08085970086585471,0.36387935149989953,0.9838274996105306,-0.04882444466139569,-0.2900116670325091,0.1452856755444,0.10031570860560603,0.5388967082398645,0.03817759949093127,-0.32651313147877653,0.4359544600827955,-0.18242446567306245,-0.08005864610423853,-0.14379700616613358,-0.31778820502242333,1.1282067569325036,0.49098911655655586,0.11476459709450008,-0.9981603996443739,0.3444755295217493,0.8182416515362803,0.16274908225296106,-0.3836337920045281,-0.10156915920900864,-3.6839656626209853],[-0.7551020494544151,0.549296480850594,0.26667390104687616,-0.6116522728308877,-0.9856431395343723,-0.699043157512006,0.740949759086404,-0.10507670196507668,0.7239072493669727,0.005863299160576041,0.7205190948906226,0.7881053708832813,-0.2755710808777505,-0.6337648663797413,-0.8032143433732841,0.17492184892211404,-0.9474097678858747,-0.2020199701347667,-0.5856367892558445,-0.14002911567668164,-0.08792386977375,-0.8538502350934595,-0.9910927645791711,0.784974536511386,-0.25951221624690235,-0.6785598918182505,-0.4284467432930278,-0.2910560335632476,-0.5337942744090591,0.6506532966869294,0.3029312492723326,0.1771653599875309,0.8795011973330971,-0.9513492914642809,-0.33353026198678204,0.19263099606864253,0.596267879379883,-0.3762341733726414,0.9473182305921217,0.9668674429244546,-0.9518770820085906,-0.7097503802097103,0.936468017728382,-0.2721818525272983,-0.931160588511703,0.9032863075516584,-0.8547039494460367,0.5052096647532482,-0.48331853867797414,-0.9415150560140316,0.1741344804309246,-0.6089274321829916,-0.16570601150909547,-0.6089374065563786,0.9357352650356092,0.5089988802503209,0.4291978581549576,0.6444159457300915,0.8755589742298591,0.3935633028139216,0.03517848425732795,-0.23200532253713357,-0.8066702485183934,-0.4611834566472315,0.805025036320606,-0.8332207761528129,-0.22909870402457155,-0.048891225633809765,0.5296088812093052,-0.26380435082894804,-0.36657155383618156,-0.5350209389539771,0.277335427486304,0.8231890259287766,-0.506412006866736,-0.8247586910819612,0.8098296267371512,0.5890445943227849,0.6572253270320496,-0.1655108392997715,0.4116285535765072,-0.5123318679329724,-0.08048403115885472,-0.31330440339715127,-0.15194571637420717,0.011624759723938949,-0.20010304134734425,-0.16644502927322224,-0.4009385319408513,0.1691107007304644,0.6183970965986503,0.9155896541883044,0.7593519734560952,-0.5303485739596121,0.23322050542607298,0.594846033172163]],"WeightOutput":[[1.3966648320576962,0.3891395783430022,1.7981187119076112,0.09325663305089403,1.095251028625907,0.11701063206049447,0.2696454560472747,-0.07029233425004185,0.4755140814958761,-0.16342438213148466,1.287121275940573,0.42478250957441055,0.7034207513069171,0.6217600123445869,0.01601930345769074,0.10707232484928866,-0.09320280962180992,0.06344788804351548,-1.0892561784775396,0.4631179921794485,1.2519653543970704,0.8141255042380113,0.16133597593743992,1.145420233167607,-0.40934637109040484,1.5977631695954142,2.055820426581912,-0.5395569264947911,0.7936014113665593,1.52350949021051,0.5501890799118667,-0.5313821433060412,0.8513362834337884,0.7997055133322438,1.2287694894895735,-0.10434267867825936,1.920473988113765,0.11961827533721653,0.3418205747062288,-0.13171023376485036,-0.2427890174021392,0.38999520644177865,-0.1798128350522593,1.7906638375639565,0.07207421073878646,-0.010621332560453424,0.9115905189634065,1.1450111398505978,0.0453643798095741,-0.6104211395432435,-0.19927437170286835],[-0.450062961803376,0.1856035670595876,-0.5906934463595956,-0.04654422847247008,