{"HiddenLayer":[0.0000053494936292687685,0.0000020822553008336325,0.00002729945368182416,1.3027306443379758e-22,0.2206100221169919,7.300706203350691e-62,1.1536026253320933e-60,0.0012841178054918314,2.5069453685997966e-20,0.0004395580693157861,0.0002817989176759566,0.00047854959534220337,9.910395251901456e-7,1.4058307515364793e-29,0.003907316242911635,0.000004484596731562146,0.00006605650375692408,6.120302679257017e-21,0.00023958312953251687,0.007311349598494071,4.5860363019505016e-66,3.0198176124787756e-19,2.2634361646340254e-22,2.9931117648565844e-36,4.0959287069407175e-15,4.169840234307627e-25,0.00032632328225519014,8.479817606605451e-10,0.0003112535460587985,0.00005152149882200754,9.39548159075817e-7,0.0016599202425047694,0.001258569891244703,1.4878301118113207e-7,3.0045573540261467e-13,1.798413142682231e-48,0.000002735411681246011,9.736989082982905e-19,0.0003570165011313497,2.5969844672370704e-14,0.0032314489091631996,0.000058432697361255004,8.071871075991728e-8,7.79008249966027e-27,2.564338612977416e-18,2.93689865126511e-32,3.17220559395475e-17,0.0000015238215014669683,0.0000010390129489314318,0.0026292925609713623,0.012877880290319518,0.0000011193092294824508,0.0000011425857450172908,0.00018441094877930065,0.000021630652417678294,1.0006335336581028e-32,1.3337500912575066e-8,0.0005763966066161019,1.5379173369864974e-9,0.000042201923209491966,3.667533468614778e-14,0.00002408584055803293,4.3384194367722724e-14,0.0010047556499511647,4.747987451388349e-20,0.00033601258598764204,1.4498248956836185e-16,1.3943876073244423e-28,0.000013499624790425755,0.0006186410357841673,1.5390865954881065e-8,4.514946000975306e-9,0.0001384267710907662,7.075500225113115e-34,0.009249310094515493,0.0003339489099794954,3.36476176085381e-49,0.0010660290638348088,5.905260246018876e-19,0.00021714145382916466,0.0054656128677587,0.000039630151196527715,0.00008341619524996258,3.57258446190568e-56,0.0009552972921801021,8.414122207876821e-8,4.1863323374859176e-15,1.2410474371753463e-15,3.0631219700261595e-20,0.0006592469245805607,4.298748363837114e-8,0.000004682321950126849,0.00002082580418783646,0.0022417970220040637,6.010843548481412e-19,0.0004588799006140537,0.0003139190356197398,9.423616877583574e-64,0.00004347322017409481,0.0004105756980463845,1],"InputLayer":[0,0,0,0,0,0,0,0,0,0,0,0,0,0,0,0,0,0,0,0,0,0,0,0,0,0,0,0,0,0,0,0,0,0,1,0,0,0,0,0,0,0,0,0,0,0,0,0,0,0,0,0,0,0,0,0,0,0,0,0,0,0,0,0,0,0,1,0,0,0,0,0,0,0,0,0,1,0,0,0,0,0,1,0,0,0,0,0,1],"OutputLayer":[-0.006686526594374964,-0.0032106114052086743,-0.006682109294804325,0.06225382739245976,0.0010176716186164683,-0.09406032903872097,-0.005387959689378219,0.01369668971739001,-0.006962453000634278,0.004926237111754519,-0.00381216145451492,-0.017942587602725893,-0.010643788029003898,1.0213538105631046,0.0003684835228743716,-0.002599720415665045,-0.00241437269128196,0.004675177184288337,-0.004342528047689864,-0.03307838426878412,-0.006032180178744351,-0.005965289248192063,0.010961537915306116,-0.0017855126518665915,-0.005033207778990759],"WeightHidden":[[0.937257633558971,0.3225955459569329,-0.581454035129929,-0.899492244153276,0.571280257872885,0.9016609870022129,-0.0048754624961627425,-0.6237975485395632,-0.7052078276130749,0.3416778375736436,0.8611210440349444,0.9157838689636717,-0.7011074834590505,-0.27583724017763994,-0.7631066187825851,-1.7719998538036645,-0.5837874651146518,0.7009785250909438,0.6870887431202792,-0.6178661951738557,-0.5728771036651573,0.6957519333537113,0.2251058681271037,0.426463328078206,-0.340766740368626,-0.3139361193060854,0.2487587863168419,-0.03623563120993552,0.5777406739018413,-0.36430671117174257,-0.636304006825046,0.4982214554268661,-0.3187677343185167,-0.1903939927402867,-0.19854316179137055,0.5890403893007538,-0.7239251537431958,0.022344550722443277,0.2869043987568451,-0.5108839067318918,-0.8297673206439381,0.7440899533814933,-0.5146962489396633,-0.47495884036510144,0.36030544604063025,-0.7971045580849202,-0.6829940230751911,-0.7727522559643083,0.06826081362077621,0.677516865023622,-0.34859701661189446,-0.3969337704197093,0.14276081546390265,-0.1660533763038696,0.127812663320179,-0.29973777678578745,-2.9865582728329643,-2.823992274106978,0.8150714369832718,0.04087830200204357,0.8705513655151579,0.5589219255275544,0.5212769650230361,-0.9310935783559486,-0.42924494428860477,0.861243046394017,-2.1830257688870116,0.04306137777593382,-0.4393135922163865,0.40765218194114794,-0.11344524656992566,-0.3158792640214599,0.18026464249146984,-0.23903981385612522,-0.7407576266807803,-0.37043740060935487,0.37311849030924726,-0.6211076394332696,0.19062492139876966,0.4262160367785636,0.43098258124942596,-0.7404656175574715,-3.046235194536208,-0.6140686881715547,-0.5466070382753431,-2.600103635669717,-0.009172374812307243,0.3994790028791143,-7.0838203092882726],[-0.10710414854470861,-0.6201528922748691,0.767171224436205,0.28579505936525085,0.8420886548579113,0.29694994902468874,0.6083108653449373,0.767368084520125,-0.6458585735020144,0.6254044458274673,0.8310116212237553,-0.19997048770881448,1.6048862495585532,-0.7199437981347352,-0.8057686339131909,-2.9826111570535,-0.8353587628360705,-0.5557985007055329,-0.14046734434249644,0.38910361027040885,-0.4250176265206884,1.0180887428504795,0.5094127690708912,0.6907528256864293,-0.017298718393403942,-0.1573115194697464,0.034691729773581446,-0.935450767618588,-0.4294660296434118,-0.27431502890121906,-0.3163216822233325,1.5489700281415841,-0.6459433718972541,-0.7200892151157791,-0.8599169516375049,-0.5500544196124063,-0.16669542347913396,-0.37012633448770355,-0.8826901101243195,-0.08483542857125656,-0.841759993699317,0.9223679956583901,0.731089315263167,-0.29527065070138325,0.6503400089866186,0.14182271236563881,0.576470645259782,0.4140838468428055,0.985744347054263,-0.026601823166019264,-0.25011321823005506,-0.05765774448780666,-0.3429086558487204,0.3370875637174124,0.2426501850845767,-0.8730268003932037,-2.49203488975785,-2.9142453923324396,-0.15956288160098292,0.5069767664802413,-0.5611972529823186,0.700393416619728,-0.26849985896549566,-1.1294453567930502,0.08400535568519116,1.0317522539469837,-4.778870690689725,-0.609264668556467,1.5985339732894093,-0.2674860551092925,0.38080241506732326,-0.3259615136264206,0.47747404584845393,0.6276052518194684,-0.9629491138389228,0.4041246116240602,0.8525305648804414,0.25908308466110475,0.0954922333867963,-0.620168080385139,-0.1363457091943306,0.9203651711398974,-3.588610808696726,0.24291293686858922,0.17477058685744984,-4.010131697423336,0.05800476789444647,0.8906169224182418,-4.707177678666782],[-0.26346369009924436,0.5397523091916152,0.2029114385101896,-0.7762559098466512,0.8006222978580239,-0.11467830818647662,-0.5589136760130271,0.2036699094459809,-0.580398045688048,-0.5527134226080168,0.7922035258807736,0.664868604518014,0.06787972720620604,0.608087825557648,-0.7825029055944723,-0.7560902808869249,0.18458069053914195,-0.7994914916551936,0.3516616711866468,-0.4447760706380145,0.02606502374263507,0.7612646024813402,-0.7298406428407217,0.6860787995432415,0.7864297877099502,-0.982459307696677,-0.3945442887463774,0.5492856042565666,-0.27147673754227886,0.08878225319071963,0.4748491808011756,-0.4556526244172389,0.8062565091983533,0.47881153369338275,-0.8917010209939024,0.3476009777457769,0.3136629655043609,0.07658801792977718,0.7647742596496763,0.9082899413511094,0.5103564811527187,-0.914063793434136,0.7289082498552271,-0.446963341184736,0.6319919776650982,-0.1599220774495523,0.2373076680644607,0.5610888865120972,-0.870624969313838,0.6260179819643568,0.3630025245473696,-0.2796038302109148,-0.09081787276767474,0.5125648690546899,0.8819294706100999,-0.012904080184629258,-6.631497419280984,-0.9672676990858888,-0.2504672899705694,-0.13764900928139823,0.06251339993174854,-0.47698325883904463,-0.1734945202975682,1.2293267576472735,0.5770051210995004,-0.6492960484247334,-0.7564458476682191,0.10477941414748906,0.2712089299197731,-0.0867051776467809,0.13127577780384353,-0.6995875349909996,0.9230465882817128,0.026879851575818375,0.14022946068087058,-0.48202506473682366,0.17277064626744068,-0.37527427973738875,0.4706646209827435,0.1590506027782595,-0.47923569265817234,0.2759197351592922,-0.6801466526121533,0.3361276308906806,0.37428697718925963,-0.2500594573472958,0.17972604235484532,-0.7747266849718946,-8.35310675094821],[0.8948291627198118,-0.8358349133145535,-0.020956364027092292,0.5386996139048621,-0.8739981425407793,-0.6112087850331136,-0.021836123809419263,-0.7432736588288426,0.16865193402410042,-0.6234154275216315,-0.9827467731142977,-0.4834844461304311,-0.7173639612896422,-0.9317745976900352,0.7141801015082732,-17.126361421799242,0.5074251992454274,0.19633126373815754,0.6304564532302895,0.6188062948225233,-0.07152202350575805,-0.5815530849227719,0.07291097783710343,-0.8385067707149642,-0.6172473335830331,-0.6097716804688635,0.7954545840195517,0.3610632778288416,-0.7618234677654733,0.8098466007995861,-0.38381237754050423,0.6144432082878591,0.6176576695802398,0.6914945370088207,0.4465747331284182,0.19122178177400137,-0.749025788817388,-0.6505529554364115,-0.30064489593708893,0.20351984536775417,0.27540928356010286,-0.2082219718163209,0.21884667017212173,-0.5646360795954244,-0.1639193027715152,-0.012135064174753742,-0.15813970264564153,0.5543493611436429,0.7123460591084038,0.6147071890361964,0.19467319810905598,0.10673748453734966,-0.5759075325201887,0.8674591301116866,0.36185158920321636,0.24187000630585184,-2.140621668091992,-16.0985276671461,-0.7509885060047968,0.594943323404816,0.49770010477333476,0.14437997674030223,0.8309196785387801,0.07710315476971791,0.17342982929263032,-0.10755549989143681,-16.525334787116364,0.5605526236787127,-0.23493454475432424,-0.21214896072164963,0.7435383675948608,-0.6960142901155664,0.10275590472843883,0.38342971572916595,-0.31054361736761543,0.762183190475273,-0.493298644873404,0.03423281425131128,-0.6823207703770672,-0.5869981599185554,-0.21758003459124892,-0.154498610999262,-15.442834384777312,-0.7956535593451893,0.019467067194768328,-16.686149868183886,-0.3255184749007984,-0.5490924604860737,-18.37751640516069],[0.5780110957371202,-0.22056176278762135,-0.4095582766612909,0.5656919141786623,-0.4982851379498876,-0.8974448371234269,0.6310683552428304,0.5813543326340931,0.23387100268512612,-0.35426718586959016,-0.2561721834319724,-0.5309033899535972,-0.16404498127347808,-0.1564481453800636,-0.5074284898478053,-0.26250332394695297,0.7724103509043733,0.3850364576967856,-0.1347627963238385,0.27375499811897047,-0.24695511363189182,-0.09512047227313616,0.06320957385561912,-0.667676641919814,-0.4353469880367226,-0.13872892979685145,0.3114619856530451,0.9037838554290448,0.783052858225283,-0.820957888636689,-0.3340519546454512,0.40283080185482756,0.29500635718058804,-0.16395382643114143,0.805687143217512,0.5564819212059796,0.24988628127546103,0.6057155329434348,0.7748619646319035,-0.1684076664363984,-0.5938491582629442,-0.6899242877150557,-0.7024677104913668,-0.4561538212973164,-0.3163307147860156,0.4701054212802985,-0.17403096869698167,0.31774792852047024,-0.4836966767556775,-0.020682896366497425,-1.0245385092486012,-0.6314114474255961,0.3181490650096054,0.6320337902677112,-0.8138738145557686,0.08507401006188277,-3.83571250932792,-0.7284433373920252,-0.6015260162588828,-0.4956226171427349,-0.8572107879871897,0.638367027563727,0.691393819198334,0.7671361600653833,-0.45607103872302424,-0.9869443700939974,1.1217531215946395,-0.0611822334263813,-0.45128492706949497,-0.6934822599726053,-0.9035310963159111,-0.17896674788728786,-0.550635579835192,0.8186772791788699,-0.5735422683272539,-0.6662683244141083,2.224502932199779,0.5467732279677451,-0.587284788165798,0.3581363148448383,0.18708830240599209,0.1886472827779574,0.23585880819342225,-0.5259745217168852,-0.36377282275618344,-0.850309747855552,-0.5310381180032399,1.051680972703776,-5.7636950778024785],[-0.6453814368724546,-0.34494120313588805,0.12238754223157167,0.06328475122950916,-0.03918540835832718,0.19712692526966524,-0.5024193503907759,0.20672890562847357,0.5293657752739434,-0.27678569980115997,-0.7484012998325067,0.433256926369072,-0.6743780732971952,-0.23599684738501558,-0.7390158815434917,-46.41346686108974,-0.3069656301492649,0.3449247266208857,-0.6128991073351879,-0.851196065239449,-0.1345944501656562,0.4603414446228953,-0.929179690455916,0.0925839978066918,-0.055684913885895804,-0.9581015021728481,-0.741457224717863,-0.5677956237472328,0.4959937281678295,-0.3651365717541979,0.15549017515299668,-0.9000970435682739,-0.05762136948076346,0.8467524762751315,0.4201773992803606,-0.5994882299001346,0.8976686944134158,-0.736201119759629,0.9264414291300203,0.4229626379687328,0.6688875921287563,0.36387806841186854,0.8275451404304517,-0.4332706714235496,-0.19769349659627533,0.587356040044273,0.006184175906698508,0.37713023373323984,0.5605881993220332,-0.5873367089684607,0.6320721672455718,-0.9594512006463772,-0.33643822209529217,0.2610866835606076,-0.15936329582528386,0.9346411148175657,-2.1579598657581385,-46.154010156657904,0.5468978802299083,-0.08922803108925137,-0.7707748274223211,-0.7402786018591663,0.2555273823856121,0.3308253334455744,0.23344062221574235,-0.40734280995531713,-45.92876675596936,-0.5084970212528914,0.9012064041226291,-0.9115673584723305,0.722402961348737,0.8218885288917372,0.5722869627422846,-0.09553212803924582,0.5673173162671326,0.29759867762299314,-0.04933984753439924,-0.5313644259205752,-0.46970845938600414,0.9175443291568413,0.023788550604523895,0.4410349423778106,-46.3155963863045,-0.9189605613785999,0.48589165805393986,-45.88669098046347,0.0817722796895397,0.7785302849561091,-48.898779091442606],[0.5161993374463092,-0.37560742194450814,-0.46770388821831477,-0.3286316560230834,0.37801528203297186,0.4356046366044173,0.40807898514798246,-0.7092926485295284,-0.1827013841186208,0.2591876288055064,-0.697644821054222,0.6936673720608653,-0.8573413530151446,-0.3831021712512593,0.10156529799964265,-44.71789084897987,0.6892122710176869,0.16550921988061273,0.21872719000590202,0.1587777910201844,-0.21824318679766108,0.2524071684077438,-0.42445112397949114,0.33210733225872757,0.09859274248077066,0.3077458961884796,0.9252923145261835,0.49743643905123625,-0.7544587904770796,0.3498533764521783,0.5806667154023823,0.22337702735917153,0.26048202645440655,0.5673963132439224,-0.8775090431337257,0.5913170594705202,-0.21722639045142556,0.09193988437807143,0.7899782063721104,-0.3447008652221384,-0.5007092776216266,0.682777357275355,0.5787776725203069,-0.7383017566531503,-0.05991647494632879,0.6860840493915157,0.6944644997838414,-0.0639295845730945,0.19343034220641608,-0.06115375214031582,0.8273885201186564,0.36346676944957457,-0.19854715190409655,0.9754957436768497,-0.7389995177682123,0.060729923767006255,-3.4343640897379815,-44.25919715484084,0.971024846520208,0.6066823293582451,-0.0851346273730692,0.3876302441882262,0.3224677352366099,-0.4714354211457322,0.12143649826993652,-0.41212869106797867,-45.59099549723015,0.45480321643939514,0.9403369551030536,-0.037560803401745946,0.7198147955220191,0.1502112089552028,-0.3614197954387576,0.5076582732172539,-0.906151486332934,0.19121787388393,0.8444579955350364,-0.7338871322990974,0.006233679879007472,-0.6227944570541311,0.0545410217456872,-0.879307347430257,-44.168196269984335,-0.1216225181280739,-0.8519800142235635,-44.75579389582908,-0.8795681260887298,0.0822937289305734,-48.21997300151028],[-0.2836501949341224,-0.2870703025493154,-0.6499424957288442,0.05761338168905431,-0.14291008823832205,0.19942796793633905,-0.00002665712780974757,-0.9158214075462325,0.44281443063883796,-0.665073999169866,0.8501009082582768,0.1391504041307094,0.8849166452496133,-0.5130213571860746,1.7019211274583048,-0.43610897738971377,-0.9738091362736352,0.12814126634611187,-0.9287240239812381,-0.0008079430809379678,0.04843690280922652,-0.7499743585495489,0.06863441948581367,0.858270905279826,0.0712098607651658,-0.01021688926456043,0.24829340487921225,0.5211653615609758,-0.5550203101984756,-0.450632197623018,0.030895967257316668,0.6918400883207225,-0.3631535630820826,0.348957127970234,-0.92145840078628,-0.2760875350377549,0.8867535286799038,-0.9688909953051456,-0.8165539936766835,-0.9526503098923144,-0.2611067517582491,-0.6879865745059058,0.0845337363946673,-0.62312387083658,0.47728936554669116,-0.6923559303218623,0.6088825384930764,-0.7236474325441656,-0.12418481648545752,-0.5066226333744343,0.8277342288292954,-0.5972816978803962,0.5350372936498766,0.2021181762817919,0.49456388604881896,0.8244845890362222,-7.02087821948587,1.3208781830544782,0.6147647943632271,0.748259815285059,0.5279672720204509,0.32086909588458634,-0.30267640639698046,-0.8026587313276595,0.6950563394807728,-0.20442417078127278,-0.06538433845265673,0.7380598703440667,-0.8906108138601019,-0.34791958313583754,0.5238528455234515,0.5227696479329891,-0.8518647979967562,-0.8342198070905873,-0.03264084567556474,-0.44564059484053853,0.47933551552894504,-0.5872017811164196,0.7411919022198203,-0.6119080284767,-0.6115016521890959,-0.7363294478679212,0.9659626263625599,-0.06417839764933346,0.6688553238547257,1.4243148024407728,-1.0058910889679424,0.5936395187454468,-7.114926339580894],[0.05033339659261689,0.41397658287322064,0.5317331202253004,0.8569236050551036,-0.8037394106929528,0.7293819841278784,-0.30692738930961716,-0.6540164222780314,-0.1424745662401825,0.1354422194779577,-0.36072101066100404,0.7725119998013833,-0.2492995846043399,-0.2523757183373683,-0.7242932401832951,-15.913415547404831,-0.4464652150310885,-0.8407972177213275,-0.5443520021948107,0.4101827982727292,0.09048194780430754,0.7441868943534781,0.3535442238241455,-0.7132946821575793,-0.4914327312277669,-0.9199104498601413,-0.22282396441227545,-0.9165149553797053,0.6395741345376614,-0.8108176332341556,0.7861842894452982,0.434462887817052,0.8340388943745625,0.6491711317305492,0.5112783279394171,0.5760977461170554,-0.10542946739851562,0.1617726252645318,-0.835441941305286,-0.7936244668860235,0.47379798947201546,-0.6462319304258971,-0.3140148145954303,-0.9965737081763991,-0.7310457525567036,0.12164973752186346,-0.4189285240007494,0.5046191242057453,-0.08657520682636301,0.08879311296673398,-0.10085459194267457,0.6163370686488601,-0.90497002629012,0.9579941448334239,-0.0602997469497125,-0.058634976906563996,-1.2559347751229553,-14.399123442389497,-0.30708420886653115,0.7792873966190481,-0.3075077322400726,0.41544605631625364,0.02052617494262314,0.7729208901302078,-0.7417327228677235,-0.1705530051312441,-14.63339111226292,0.9014982656450754,-0.6149270386111187,-0.802886715126415,-0.7162500113452391,-0.6269426204775975,0.9087631848757597,0.2277313353460333,0.2331152553340323,-0.10063636295673377,0.9447011520317334,0.7626508154270559,-0.49061367835157443,0.34826980925771095,-0.22188109622149543,0.7028148132990786,-14.667301652124284,-1.1243562959090474,-0.8987486532238558,-14.994752492565793,-0.5112043885326532,0.6334615341456266,-17.28792354807537],[0.20227479006622895,0.4665700737255722,0.08025958684666813,0.5899958756354323,-0.7027655232423938,0.12017714925726447,0.7337066293233849,-0.5589057743000952,-0.6448474114975152,-0.4253219882343092,0.6090613128381169,-0.16522110974094975,-0.8917400778185453,0.10898387145704178,-0.6944201679618531,0.30063810550057113,-0.8630728953336552,0.3046174599482962,-0.7687095866750204,0.9578078417777318,-0.5441876985838658,-0.5509319320982327,0.38136485871326686,-0.20330880549397773,-0.06706395961463615,0.08936668533414648,-0.5572579385027424,1.5109899640193838,-0.7021082785693767,-0.8738217181908035,-0.43828502756016013,0.07701890994261039,-0.903566143021511,-0.3835805812821337,0.7506760796511976,-0.9109373161023033,-0.5344675784964423,-0.17453379404198505,-0.16580570376259632,-0.5982837312293467,0.7463438616995973,-0.4645262016854185,0.6459807656630508,0.6960866234780888,-0.40834302841575865,0.30522163710333267,0.2797775924917971,0.32607810893000133,0.1256968140141299,-0.3296162917054098,-0.903868414072904,-0.23364641465175798,-0.07357270679288351,0.521269588805626,-0.7169333497806165,0.15113751469985348,-2.6646328293085153,-1.1450621978870341,1.004064520690855,-0.6090493094194033,0.4991417130454508,0.8904604525157338,-0.20322333140227242,-0.10583231358568365,-0.49875638204775036,-0.23635369591717498,-1.2790095682284472,-0.0017053907533872404,-0.4736918697184981,-0.796516581763795,-0.7043498799835411,-0.19707261667906129,0.24065156813218092,0.3218943430256428,-0.898971245409172,0.18646072415245782,0.19543372434173484,-0.27498582513755826,-0.21226161384787942,-0.5589126026782246,-0.6800674113261223,-0.6592528712328821,-1.4936879018478348,-0.8175658921534537,0.6377007821922737,-0.8282290981784115,0.19180901731738775,0.9775830655348168,-5.902948664060934],[-0.6174105565294634,0.33819064389850517,-0.027813298742420983,0.734067100441275,-1.038675653542827,0.8725692055477644,0.854451741489748,-0.13019589844788024,-0.2539634811188199,0.3661804826603993,-0.33455968396748426,-0.7336645459327171,-0.3151022849786637,0.5549635990852569,-0.9100483386035376,0.6198072666782535,0.5598437841536144,-0.1754101140638818,0.008738507782558837,0.2686457792979707,0.8504656266409747,-0.1181218533107757,-0.2543544094135956,-0.6771522854925377,0.30349462912796443,0.7376256829237774,-0.750652683409676,-0.3071277640772451,0.8092904416573867,0.18201331779881233,0.8332611284722565,-0.4228965776265415,-0.05522483975009416,-0.15446519721279717,0.6227237280790274,0.6481874995423546,0.22788836192530357,0.5030347119702234,-0.9940574196989609,-0.48439079453849526,0.007653156847999062,0.5801438891600492,-0.8762693066854917,0.5452843308699785,0.6002731895346743,0.23486137396544643,-0.432685175644565,0.33486236876590303,-0.7426936176525466,0.7218863379392657,-0.33431225957354815,0.8659497703709407,-0.5433755969489361,0.05386500055373836,-0.40980312099484034,-0.2261315561918863,-6.411981796765441,-1.28789603162418,-0.7889135716255651,0.03683233157585299,0.9914009330846751,-0.10853804293582306,0.5271895352813359,0.6018611083762369,-0.6681098309022954,-0.461979111026907,0.17195933203363417,0.824554510055023,0.6361045250986876,-0.20652217211540977,-0.6243496860552739,0.2374943312709393,0.620862915378106,-0.35997329581487575,-0.272666924696282,-0.06497351295978009,0.11029496285177486,-0.9870406682515738,-0.6873995560495798,-0.9163579940510167,-0.44503386346991786,0.4817469404861774,-1.2744181291184906,0.37236575615644507,-0.9509429966442459,-0.06893522859409824,0.7734583754710476,-0.07665727381905378,-7.8046782928522545],[-0.46137537548145174,0.17371042824389868,-0.9972589740778404,0.2589587218634842,-1.1205543900615542,-0.02325881991384555,-0.85239598065945,0.8059242145102631,-0.7757852745170537,-0.016706937986249042,0.41600058791815936,0.404521036415634,-0.7870276861378952,-0.2316643887147028,0.5747320730042588,-1.2718024195261493,0.647450447889451,0.05435458226813171,-0.46738807103229457,-0.11735825965177395,0.5818879593495313,0.6672733983806979,-0.4849450009454835,-0.17623477230184853,-0.29976788673472954,0.39448322415452175,0.42595980177043397,-0.719041374454078,-1.0045090459085138,0.9904605879787745,0.4222173522821417,0.5889932879507476,0.36461418359108416,0.19298920494559788,0.6972126279839818,-0.5214613433521215,0.03741679257952704,0.3610597306552743,0.8907008038678977,-0.2100058073228503,0.02757036286584226,-0.7865191259519899,0.053624350380117036,0.5838953534186817,-0.8266799234500968,-0.9827304243376043,-0.07704541633932445,-0.8419129325029566,0.14111673695921031,-0.898874812311315,0.1497738036687316,-0.9351458504851514,0.18441038977160396,0.85759763342304,0.2330460549419805,0.8401479222968176,-4.400038614432006,-1.216372586672858,-0.5013039930649955,0.209377096567803,-0.3039899999900764,-0.2606875705253227,0.7334840972110743,0.15579340678034712,-1.026793540645417,-0.12627907459653118,-0.7173031781171857,-0.7151002101116579,0.46576101732923286,-0.6835055871863538,-0.27333547187827856,-0.4023675569181994,0.8093962512321536,-0.7396920597719211,0.009048609982889179,-0.2597759566263623,0.3748704304928365,-0.14644363719429251,0.20665180874283,0.6958760210635462,-0.5568177468079915,-0.11348527504766007,-0.9916122990491835,-0.802736977371171,0.8826828581874566,-0.0698076455423403,0.5010828855947153,0.9660590236410039,-7.0077459101037],[-0.02161944587379202,0.450110598068767,0.16671121965583927,-0.3646828002161394,-0.5322023006741842,0.9945683671585059,0.38379486354386605,-0.22811833518450708,-0.8794830726093343,0.6196015933669162,-0.059439833086634274,0.814181536872984,-0.1176329607637323,-0.2951358241437081,0.4921603396191331,-3.466583237828219,-0.08721061014983786,-0.17375919731346698,0.5644662855010594,0.7733200221721525,-0.7767551195766415,-0.9285224040231597,-0.9352923793131616,-0.3169957648306816,0.7671956859260302,0.18670642758404715,-0.7323158894166296,0.09427261039617452,-0.718664090058838,-0.5454828008119149,0.7473837459233003,-0.3308386766867841,-0.9202622855147942,-0.7826922111863389,0.8930381514229021,-0.8377686816360016,0.17575969829409735,-0.7648212968198889,-0.10983230518539054,-0.1091704808243633,0.34531863184822664,0.5783049794656141,-0.9553842921872846,0.7678215797615671,0.3832280625016979,-0.22470617843752416,-0.2761505627913803,0.8384111771636409,-0.20464189018332088,-0.42696186003245595,-0.3974548832647147,0.6820304921834393,0.2235195166472807,0.5380342888318309,-0.10725614000291801,-0.5709892036908707,-3.5580918132471053,-2.5903261530454103,-0.4569849135954884,0.12847991379460033,0.27659485965055025,0.713695203812603,-0.7104134968684539,-0.6679502277276096,-0.019122197744300583,0.8689585328323924,-3.4643433874583858,1.0578639128985816,-0.8580496268506158,-0.20774406124559874,0.5723610429457954,-0.34095037797216193,0.5170025294722181,-0.5478670923084262,0.27469369102953217,-0.696994051522566,-0.011736509789691913,-0.8146957029095503,-0.31113483794135816,-0.2445709094583932,-0.6101983544859785,-0.2412933099301432,-3.7528003135842614,0.18468933081431124,-0.3326784618426822,-3.63734116888052,-0.030903068981689496,0.5918235318037393,-7.488669100616608],[0.9725783298945745,-0.31174135814200943,0.9510852334739708,-0.6459398153637584,-0.3833704243649734,0.398523031985037,-0.03654311056034931,-0.32354262932642824,-0.9199356620359463,0.04698406609907803,0.936064563338281,0.441697889969728,-0.99300631717195,-0.8076952219424631,-0.6753894324563174,-23.176258858043695,0.9476688776691915,0.7860186411515215,0.3545006783766923,0.48332180267642166,-0.15998961749928883,0.04145115851076372,0.33500335359336464,0.4829567337442849,0.5425537889470775,0.05237237948502035,0.3951893065781246,0.14331896510750122,0.6887998917502954,-0.980079459188934,0.04188446348327739,-0.27851140100978167,0.4464895314887599,0.6423077520493177,0.7309901939228185,-0.6521803800505868,-0.32399028122652307,-0.4597185915041702,0.2195616797122346,-0.8300094521671733,-0.15237678075105252,0.49886635219487996,0.433474992314549,0.14896798219025942,-0.07869734163658748,0.8963539894303493,-0.6380016396577259,-0.5100098679342117,0.24509244384673107,-0.785901615254469,-0.8029712648614263,-0.3543691014608059,-0.49082768149537337,-0.69232080743402,0.9777564293180973,-0.19907971490144827,0.15518050172437461,-22.501215915497454,-0.44794279087629685,-0.7355048656931404,-0.552300234993545,0.05205002884700005,-0.9790156730091772,-0.5650568628051249,0.2794134882221959,0.16959370266037121,-21.908566169137785,0.7641217203431716,0.6751347768477387,-0.12518724881809393,-0.47464429240355643,0.7009763032393679,-0.045259264174224365,-0.4456054590192182,-0.5731714738615051,0.16481558639039764,0.4269659719462533,-0.8616401503683562,-0.5157206002845438,0.6433831846224599,-0.1632454006026461,-0.11465544292429553,-22.369198991100127,-0.9501302745560203,0.4632790057984616,-22.160976665708525,-0.26998752177167884,0.0418862037943574,-23.314530292177498],[0.23682446819515363,0.3047872836080134,0.41311678762977616,-0.198466856148267,-1.0909811421415818,0.03628440429593266,0.7321560443183917,0.004441276236358447,0.08095644823298852,-0.646568069757886,0.2075822144729262,-1.647949811364703,-1.28806935506644,-0.7619172407868521,-0.0009960835685018249,-0.7794544753529774,-0.548890630517448,-0.2946948682326276,-0.2574483898265099,0.37502153000671196,0.10784716949111098,-0.7437578819910421,0.4885090632999812,-0.35310619804058596,-0.18000052901742017,0.2633871254110113,-0.0711490858168559,-0.6133246945589372,-0.6962896380056288,0.15029086291092328,-0.5953531970748557,0.8974779800258762,-0.54724243243623,0.10723319405626505,0.8100116759237038,-0.34117495762286,-0.24582977662341954,-0.08966476061353225,-0.07094522299913256,0.38540196868185905,-0.5796407068482551,0.7650784634545406,-0.14542000658619916,-0.3052273183552981,0.07612199269828353,-0.6783187992042995,0.35865340522465133,-0.09712175889002277,0.38521220088882413,-0.04763010951708176,-0.5990921672060102,0.06556711864559893,0.3115151563266773,-0.2826880856561919,-0.4264382375378335,0.49422442827260554,1.9879625833618666,-1.8875148446733832,-0.6041007458384918,-0.903587903024531,-0.033551427379871525,-0.6039373727486714,0.09542469976529773,0.524033147939769,-0.23083733829699074,0.5593313205899263,-0.7723912161823,-0.6561161789200411,0.41526536012172743,-0.7921198004480692,-0.9821834834266143,-0.19402922176313284,-0.04177048578545671,0.26860584601301446,-0.04518936863902999,-0.02340756001445355,-0.6272166154076635,-0.7985310952138942,0.17366936895999158,-0.04363449564598885,0.5158372400340129,-0.836863513985588,-1.7259984052001613,-0.23800764326187346,-0.12574136584012496,-1.0755038145751097,0.3982479894415523,-0.5451375785994629,-3.2303637227166235],[-0.41576722402107275,-0.9161183058490883,-0.889055798398435,0.4354231173034052,0.8672513735385639,-0.59044941636449,-0.624478389595007,0.7346431475912917,1.8027580150930251,-0.04729880208848977,0.19810568797231043,-0.979073679913961,-0.16901475834518098,-0.36853961998784773,0.9055384499216924,-3.4601654510716986,-0.0991559866055984,0.2261317038129862,-0.20565224245198438,-0.3454977189696443,-0.6034116322206634,0.8931025797178004,-0.4368996978775312,0.046368828819079576,0.03143618027570216,-0.9020723880984064,-0.09391073019515435,-0.9474323368687488,-0.6855352437893366,0.7027334025847821,-0.3573210233190799,0.14728124723040956,0.1431893222837706,-0.847721500852793,0.17422163271329183,-0.9556374285784712,0.8949641768034284,-0.42974062640909805,1.791525827254271,0.19199104102032552,-0.08435886793936524,0.8582579170671666,0.8781240363340183,-0.9780919333886653,0.5846380699580455,-0.7048576922263369,-0.8576537799173853,0.41393788373900126,-0.5365310319581214,-0.37469171728419964,-0.2369844863058958,-0.2695005597939393,-0.7599891453549269,-0.908633929958428,0.08240823994250471,-0.156703535931059,-2.631543166164317,-3.6618603446858646,-0.5801644977084836,-0.138126056705626,-0.15855179939164754,-0.8016004089496421,-0.7679942764104657,0.02679028958078679,0.3329426443605386,0.07304319598169239,-3.896599539230423,-0.9497590716560095,-0.3747102412960837,0.34539057183106703,0.46998875796471046,0.035988913812348894,-0.40036875207241446,0.2918230032572143,0.8974847188621533,1.6614417276689875,0.20726449825990634,0.91196700995596,-0.3207127886134656,-0.2668448088841553,0.6766818398681113,0.1091907673943341,-2.8819253082527054,-1.1241705361159513,0.717656055249765,-3.637032380344107,0.7855317258399279,0.07538108436082627,-5.9178227813381135],[0.7356621637210311,0.9877832686373111,-0.1815073955578907,-0.012684907096711672,0.7075880785100769,-0.9368936560322474,0.4718988696763651,0.6947625436953478,-0.08096903821895712,1.270794403907099,-0.005798063702755331,0.20191030183344874,-0.2956809283646259,-0.6639269085242471,-0.32562260897527545,-2.1708163320986666,0.36817711338861514,-0.6251190890120027,0.7514198047024728,-0.7199974568296611,-0.3185350220321568,0.26193748888319374,0.03623915974396682,-0.697059266864268,-0.12252622350722382,-0.9949703374823636,-0.591903425897693,0.05544105123615628,-0.8401604262156741,-0.3211688679871143,-0.11756587784050043,0.1224979067708278,-0.46439661823916,0.7839597162198487,0.8274551237599326,-0.2223083643738716,-1.0116752900542094,-0.3390408216028553,0.575825733848332,-0.1057066026867548,0.46532983183503496,-0.26879086203803415,-0.365392000198924,-0.05124547464362095,-0.41797813901736947,-0.9548895531609624,0.23936677522736266,-0.4634926210382652,1.8817474826548743,-0.7896179131944622,-0.20849845372408102,-0.17123543018982393,-0.20521859132329023,-0.3013512575982989,0.5521163004046495,0.06498807602313778,-4.590657579419066,-0.13530528327481406,-0.42127451132403937,-0.7211380045989425,0.18170714812676048,-0.9231282252583102,-0.6656396708388539,1.0112257989695508,-0.10490112708719525,0.2697031114544465,-2.109531907374943,0.33231033796955695,1.1869666511428771,0.259199556538281,-0.5254808119290775,0.02431486071825963,-0.8821505539946648,-0.8488134705289874,0.006526287040671264,0.9178279014595226,-0.7396606352058351,0.12258450219620898,0.1422018514032785,-0.5988167571408962,0.40032104671359914,0.9376869818558771,-1.4001064603424795,-0.7369057559283623,-0.3298577194930608,-1.2660424277612508,-0.2841991840972224,-0.10552549156851461,-6.20312640941687],[0.6239993190074019,-0.7090635489217405,-0.27123547773174905,-0.900392513988636,-0.14170298067261589,0.5932805682380276,-0.36816704348075424,0.46917660117491344,0.07741064996957697,-0.4202196730200298,-0.720165360551128,0.9552910042349533,0.6695985179943242,-0.7091582618082068,-0.0631354493767593,-15.01987215598736,-0.42149864094226575,0.5960527422504812,-0.7705467956173158,0.9796192915333418,-0.27914258020808663,-0.48124061594465356,-0.6365498479564459,0.11368309913271944,0.19074968775651774,0.15661200876250353,0.571131533592818,0.9806477302016994,0.5485132811229874,-0.6476611319356516,0.8748613502651961,-0.5011056813602204,-0.16152990624516714,-0.7239920782951829,0.06349033037611429,-0.00813867871450153,-0.21628950383108536,0.0034892994332877065,-0.15604715729357801,0.5425490001407539,-0.049413211206775276,-0.383783082654325,0.15335328713767224,-0.9715067418290823,-0.1249890815412196,0.9872680069763632,-0.5898851970541479,0.17384275008818245,0.17669434231925582,0.7746084187716888,-0.033798300376947414,-0.8374216219920138,0.450786326724155,0.3522256802134594,0.10876515817259001,0.7401998499063261,-3.606862831210154,-14.264750036260702,-0.9776841046572159,-0.7047130297895333,0.8280949886005949,0.7514186623174401,0.858907738651646,-0.678090670528257,-0.2645090702473625,0.6784488965450308,-14.995895569134012,-0.7512577820159033,0.017638633545129907,-0.5585575892431061,-0.29634329696976325,-0.5027061055620295,0.52619210943938,-0.9520424431608847,-0.4886850890974092,-0.5339029951658515,0.3201006193509539,0.17377038567731062,0.8511352924958278,0.483756111042602,-0.018061138009190122,-0.910038860871341,-14.001984410353279,-0.32427278220927436,-0.044108400356661054,-14.854368841227757,0.8552138092778607,0.7498567004130776,-17.928386370419698],[0.6255562703337307,1.1052639599482788,0.3432934902538714,-0.4704747817751599,-0.3460797144162496,-0.3259543722818389,0.09917057680955596,-0.01995981547377569,-0.24532910086305826,-0.4195288245844884,-0.5961823888139874,-0.2052864773993829,-0.3777399459944264,0.9107310709955698,0.39135306801071157,-0.8365027374303375,-0.29085857889107947,0.23469558754122133,-0.3067339765661459,0.4798228784159849,0.06679577418121252,-0.507781848651917,-0.10719434356998433,-1.0070162793769741,0.6712601849406904,-0.06290779058050304,0.41709874776507944,0.6702496073200663,0.35513653477606316,0.11136659618668411,-0.8077373369283047,-0.6403684300881791,-0.9103729466535666,-0.8511643984280544,0.6915937933397311,0.7810362359411717,0.6943328096616321,-0.24733146018653482,-0.5815487182238278,-0.8697101701588292,-0.4919210416784737,-0.5592759926776325,-0.6097199289307468,0.6015488676243002,0.41755979660069426,0.8677447951047397,-0.34088000959306636,-0.05718104894513754,0.8847057612978853,0.2537472536682609,-0.5903278635681896,-0.3894644564445341,0.9875408893815816,0.6762693603770616,0.026228154355774864,0.15094770800903404,-6.948596537007064,-0.3018574066395462,-0.838924458869464,0.34524475736482635,-0.5766422151861023,-0.733589013979647,0.6300546536403235,-0.2128533681128652,-0.10237997780100112,0.825290976923257,0.24955575929724247,-0.7911619769005485,-0.8444995244181689,-0.30799423402775666,-0.1561855202268081,-0.2036786708074044,0.3373539319159222,0.04990315778719046,0.8210782583405447,0.03004673283029412,-0.9361345407811593,-0.9918670939546488,0.3245316859566279,-0.3221093797254332,-0.34989440227849,-0.9083947682171987,-0.690680678922227,-0.2691837079918888,-0.8248329041396525,0.22674649435121103,-0.2158213103468287,-0.39379964795873107,-7.6507944195372115],[0.08405300340001667,-0.47096767538038303,-0.5321568527146491,0.5397178092991389,-0.24397701379404393,-0.4950495684430209,0.6612823584636796,-0.3154877121228321,-0.16970052237372904,-0.751262880175208,-0.8334691913599881,0.06565350079475904,1.3518530678086813,2.085841279359868,-0.7138768781448984,-0.8751078448638137,-0.1370197452855978,0.5355306305099089,0.0777895576232979,-0.14111487197613354,0.7371141891895268,-0.7308393718342842,-0.14256629740501384,-0.060075848895203746,0.016248784444902558,0.7825975933147987,-0.11089009042559832,0.35742000571515076,-0.4951796197320573,0.5468472587726116,0.5797562609427404,0.7259155014761216,0.20593133184923998,0.37484614813469036,-0.13849442017076685,-0.6383584101549618,-0.9052036276872201,-0.8610223115671264,0.48308560760808406,-0.8155899701317385,0.5580144121438475,-0.6442594835640008,-0.45653720438992274,2.171129910649209,1.5244513856294448,-0.3252619397875961,0.5291250145621382,-0.021390901051033948,0.5166541388860665,-0.05679939521811772,0.21164816645238924,-0.9769874317692882,0.7203015199827505,0.2366748489840207,0.483517164163002,-0.28230705176500437,-9.379349366437186,0.22760971588266413,-0.7041452058771442,0.516211547985826,-0.4504149510142803,0.007188908001489687,-0.7669457103295825,-0.26355758569462323,0.00902737246075996,0.00021411165419076242,0.7971804400172491,0.6025204851827397,0.04646953837460144,-0.5632127013475148,0.6273440074422415,-0.9093820657388019,-0.7158218139041764,0.24270707620311668,-0.7665117214294398,0.6707322046814737,-0.1900118842785242,0.24666004492510635,0.4484156826436396,0.11324996191927895,1.0283137884143607,0.691482796177325,1.6758353320863821,1.2004467474495022,-0.5857810537440814,-0.7880501366687952,0.5212889795216094,-0.7194804763427327,-7.058694877879957],[-0.22678442105982277,-0.511079654793364,-0.7701064346941693,-0.7879188548161221,0.7825917062972743,-0.5317585139671386,-0.040997570711131304,0.7738933036524582,-0.7286818197954976,0.1519798626923421,-0.7465128516166448,-0.2634004629711748,-1.0725604596161664,0.09590381234352312,-0.8807049071949953,-50.71891223692705,0.726324084973835,0.5976003513472221,0.24123937285787367,-0.5206880233565561,0.6128742693967175,0.4038994366703672,0.7980630396417914,0.7660438038297959,0.07707636349262015,0.47848564372819147,-0.8456678610214343,0.6677273266571668,0.2847527594983372,0.010037075766531567,0.552748422208692,0.6466015903750861,-0.18377628249869893,-0.8052521302706429,0.7455428642117634,-0.002030285761248085,-0.615965950808872,-0.1934263246835537,-0.1837733174189038,0.07692795281669662,-0.6307211866150813,-0.6628760351661396,0.3357677029501347,0.26798455431028945,0.29165273909871026,-0.40540094384225933,-0.02842802624332552,0.05116005725752415,-0.5672332677131797,0.19808695965423628,-0.1870772049533277,0.7513902816371258,-0.9147504394303148,-0.9513448806312866,0.7020495820293646,0.47558491583778384,1.9012297541662924,-51.30320767038242,0.8776149096776646,-0.45385475751060944,-0.46426877796180577,0.8785597599191413,-0.11272551530194619,0.262123331196205,-0.14092934547699298,0.18063158724278527,-50.7148064796072,0.8303925901907399,0.3221866670392024,-0.9925890618410994,0.46550340798092416,-0.27966547751805626,0.5992544579177659,-0.868140715040428,-0.8470218647241838,-1.221760096783476,0.49801827006144306,-0.4759307312913047,-0.2219767168497534,0.6546050619700081,0.6584544515839794,0.36905613973283824,-50.40124760647307,-0.5994825653679173,-0.6620723031197588,-51.95208484268634,0.3103030616113527,0.3483680997130363,-50.57510708557559],[-0.1266120936844563,0.5608645018987655,0.18033933532365,0.05039668775862613,0.19733441677011204,0.16003940869633437,0.5242308331376843,0.15498115726926967,-0.19578662208377356,0.6807004492122684,0.23503435140275697,0.3135453862719166,0.4359631230842164,-0.9323883929718854,0.07744609329619201,-13.207636315017439,-0.32399948794296873,0.44082332001440167,-0.6640394163950749,-0.82446793112642,-0.7108326570365199,0.4626650539545181,0.5348660822717747,-0.5630186403873467,0.5797726372601788,0.15235719366189016,0.8266593429577229,0.6497606756024783,-0.5623362831675285,-0.6733186686819975,0.5659566894829752,0.5097089207431682,-0.8320816126333589,-0.8477496369009009,-0.8570399446962851,-0.916438783993772,0.4725882850215062,0.1771152685913759,-0.22372440347757955,0.7548471201751725,0.2507926284216411,-0.8872105444102355,0.8775952358354566,-0.04884229367207769,0.12553220443008561,-0.5655498925706111,0.498597516602299,0.23297073662953735,0.2931368250378051,0.38283613754355883,-0.7634519641542388,0.45513017939377787,-0.9773893503507688,0.21825817514493592,0.9121341631512239,-0.9877142604510268,-4.772130069479024,-11.784601111247921,0.18299776179281654,0.560632138120084,0.6051165180231817,-0.9861656227099098,-0.6723498631315713,0.9358592340031351,0.5479506063693174,0.5812059423346694,-12.822306607228644,-0.7581770835134265,-0.4916213575081606,0.5648806958079104,-0.45859161473549226,-0.005343373818612815,-0.6684126837197722,-0.21958338972650315,-0.7317821907048374,-0.2576230406016811,0.7870817761101514,0.8561074729507903,0.7552102074138248,0.44249552861733077,0.5693259844717575,-0.1895733561657762,-12.906029537125832,0.268669283330788,0.41284517779863816,-12.032679271056484,0.6172318651461148,0.9981463420930787,-16.845626017602314],[0.4430560918031591,0.48863034236945924,-0.6807553954477288,0.45527055150280954,-0.011459439282097476,-0.5527195797314934,-0.8340600809220031,0.587749265051672,0.5299879692778515,0.6693379786709648,-0.8109970478853005,-0.5163527734406158,-1.2053069202877058,-0.8236284827735223,0.31239180530955024,-15.950615024341207,0.3593065790741256,0.22335282921712962,-0.10551155016804567,-0.9723555811831103,-0.6261488182539985,-0.11318683923496903,-0.7907480689371151,-0.2582226503965568,-0.9430305037041413,-0.19622520197822035,0.6402350023297878,-0.7121777380498289,-0.5408705381286442,0.5681230509015854,0.20317115761055515,0.20776648930942118,0.16814022456856847,0.9071164289257411,0.3161977273915808,0.9148363242806146,-0.30606750327061516,-0.9876841102185646,-0.7224870312253724,-0.4929112299076078,0.3390690673205148,0.26450485715762,-0.4447766249140557,0.11724118433505953,-0.6892145251899733,-0.6086780596445434,0.7689637145065576,0.4925861529025545,0.8560144336500906,-0.4576892336406347,0.7378935091405358,-0.3553029454697554,-0.830975514820537,-0.5623709240377766,0.08457622398247396,-0.4893290615302117,-0.7596816391058655,-15.6884665275754,0.6399609010304684,0.27512207706458613,-0.29625974211515993,-0.8211839386805335,0.29527563230235776,0.5245067541835556,-0.9921121921536115,-0.3885714559186772,-16.799463035726625,0.4061682463699377,0.9528724798952595,0.6633952613942142,-0.22278999140607136,-0.9169766571102071,-0.9166836691891866,0.3728603671888773,0.044988498768505046,0.02508474670394521,-0.19670703677754586,0.9959784291708133,-0.6476240036109306,-0.24671118218006288,0.7696997805225944,0.8412605872529519,-16.580760832076905,-0.5731801326926793,-0.26006997419022,-16.697186406643855,-0.5013877959856573,-0.4702160533732818,-16.579254783448118],[0.6336447893573247,-0.27037016902560423,-0.7968343593687027,0.7953983301984788,0.08424219717807792,0.07621488615489569,0.8798061142035771,-0.15577135404220688,0.06549534957320946,-0.7478545635921653,-0.8151075699478757,0.47878096279342525,0.06343010890109198,-0.6481140272361674,0.1395845173049146,-25.910277542034493,-0.17596051158591974,-0.506223037196922,-0.8485007107350323,-0.71916244229889,-0.8716907541091643,0.870329129832354,0.5030379509290027,-0.5149539473241773,-0.26903591046861486,0.22138780462327465,-0.7537181574254354,-0.5708680323180971,-0.5434370936915158,0.8439136914461578,-0.36221417023714125,0.9825678391285337,-0.9215294309395783,0.7048155900485843,-0.6024030031890677,0.8423250069486322,-0.4344711108070617,-0.6234226826563746,-0.6218057500593193,0.2300358732897878,0.2427812406077563,-0.0067669353844083124,-0.0022915038939983513,0.055735598279914145,-0.9475024804030616,0.15405957512973603,-0.29756128353028743,-0.831791755567328,-0.7616003257614283,0.8944547836277407,0.96039507849546,0.9300151382424453,-0.48469425707745806,-0.7815387877342613,-0.09253738728783471,-0.7974465847851319,-0.8586881801109169,-25.722737673049973,0.10473437421124959,0.9049394664671533,0.9666434583351893,0.1873334360862493,-0.1800553792277807,0.061924135122437246,0.17599904053690563,-0.5159910833077853,-26.21661831414592,-0.2958935388116623,0.5901762059996518,-0.8624837729740746,0.587829997030463,-0.8767870858391648,-0.2678355621021372,0.4543916655857687,0.6131232372067985,-0.3590589843205206,0.5651108998035783,0.5786323613707769,0.1925350260285557,-0.23630775853097608,0.6221547040469199,0.24884383258128762,-27.548359646367807,-0.29133051670244714,-0.26668412001666697,-26.4613034275484,0.7899468255216264,-0.6940793096540911,-27.994479713629346],[0.3721913869207178,0.935014881223528,-0.7025085345917697,0.28990880503751437,-0.9309074350100492,0.3767388100050436,0.23684076983777017,-0.3254704352516516,-0.6288927350863115,-0.7931020251649545,-0.2316462415327721,0.14071919630304672,-0.21868464864997983,0.21698268852928154,-0.3209288530160607,-10.740583487399999,-0.9264919252516459,0.5895469016040318,-0.43492100680810053,0.1251677784441396,0.8612468902788147,0.5270400554214814,0.5199453461817378,-0.0166383937780314,0.28663617103966305,-0.20836186269004683,0.4425986175014638,0.4912970683816032,-0.5901214002850645,-0.5757261950629601,0.9898208996746509,-0.673806850598296,0.003353834367942721,0.42441610592439494,0.40386677631617895,-0.5107390369974707,0.016745438939648354,-0.13816877399029037,0.27669740153447064,0.8935180245770721,-0.4540158702402021,0.7023034860615405,0.4949320376764743,0.472411232903157,-0.395631885998033,0.5062550380263554,0.10957007657346372,-0.5653509867404843,-0.38691446147462655,-0.3702442249390424,-0.9869991657467339,-0.31680349097564486,-0.48377058154454927,0.6743498226757373,0.9967551482617032,0.8800624515377307,-2.960709077145749,-9.417091545766278,-0.4660728180394364,0.524963351432304,0.23221319597556528,0.1860561620473482,0.12255820870175645,0.43167352895360367,-0.8350630511047448,0.6504799423679666,-9.433556080643896,-0.46979162874654196,0.283429027470445,-0.03514291131273031,0.4031644156724972,0.33105429536003217,0.7146074578718422,0.8987576915215897,-0.4981501330185213,-0.2275578661855714,0.06845521583951408,0.6490511861924643,0.01994395314837129,0.8857866073361741,0.24717245020151257,0.5600253931539443,-10.54175130673264,-1.0000186717131911,-0.5605806890519734,-9.077556717321649,0.1863876686617274,-0.828886131059743,-13.625797519336807],[0.9935320896180703,-0.25379878132342276,-0.6046072002893342,0.11954699209116104,0.053037123147908864,-0.511279338970467,-0.6565537914933994,0.4894802773557045,-0.84881692907902,-0.5545242642067806,-0.5819549525494844,-0.8940416725131003,0.7330205429445821,-0.09748047095750205,0.7348512892510248,-16.30851249025256,-0.7206113830152738,-0.36132548528946684,0.8351872971468042,-0.6224401149136483,0.006134021304370662,0.8356215913504493,0.7767303513116844,0.24281610983991406,0.3804767549457953,-0.5228468930139325,-0.23595101548408065,-0.23510384042800206,0.9033439794334597,-0.31193261293944785,-0.2810826421375397,0.7448966160819462,0.5206537912361197,0.5000641882793363,-0.12836906425057049,-0.8350360766105908,0.1880777727620473,-0.10151543302148967,-0.8065962590876345,0.11699986949577941,-0.9739380524662218,-0.09853164998256826,-0.14423277274496188,0.4164936087465785,-0.2959716594040698,-0.22423723726647446,-0.03095631128065436,0.899321476661479,0.4550979922213134,-0.04659280172404952,0.8211680897482727,-0.3960454773273976,0.9353315376197764,-0.8189183847297846,-0.29924125623881603,0.34413763621092847,-3.9142149296603677,-16.593082874971813,-0.9945181129177788,0.28043482889235566,0.19215755180332333,-0.43100567932376554,-0.8669292851627969,-0.9759758742617417,-0.7058693147285011,0.3676447491597707,-16.716460540328633,-0.27913728066005306,0.5489932566904973,0.048526622330196084,-0.19255813890740003,0.21301798181291978,-0.2759312484071698,-0.5072989377069845,-0.4965109390932816,-0.6529122439159863,-0.6808355408201956,0.37207302875665316,-0.5119036139655161,0.15505973720304972,0.7284919294719602,-0.8453085070133887,-17.244237204561163,-0.6277188077604138,0.4564889120931689,-17.83038250041059,0.7442023631190096,-0.6578919827690541,-21.3668472529294],[0.8104674214304215,-0.7299365166707725,0.18154171722197937,0.46068435785045553,-0.8145384316130966,0.5556111431407773,-0.4925793523884339,-0.9987849198925511,0.23832046685091413,0.5382986825957274,0.5904198575061834,-0.4964228491922712,-0.4386145003151631,-0.7463730184256256,-0.3659136236924342,-2.302614127029064,0.3772739209537156,0.04650719863771658,0.8032659332943486,-0.18304334200299202,0.12968197312513566,1.2577863836638348,-0.7150003484950891,-0.06423519219190911,0.23761067583911832,-0.3445138346987092,-0.31376751670734576,0.5425865054854546,-0.4586896299177872,0.10886129900205165,-0.4896622048346407,-0.7187329601436938,0.8347496726800515,0.10670451163416918,0.9160655884041332,0.8961888564538315,-0.6242341848046413,0.1171673597720229,0.5844532345097057,-0.5899322852360765,0.006117632730403522,0.1074218280319437,-0.1463088641540431,0.8203928367946709,-0.13003069745005963,-0.5033195422949546,1.1398788835632914,0.8093950037168505,-0.9933943325258223,-0.9149698620509341,1.4705153812276213,-0.16832696376202738,0.6653380247450208,-0.40865002078824575,-0.8896548431812668,0.9651076158676561,-5.900889523644974,-1.2736851533735398,-0.2788279940735327,0.3174897820573665,0.624806120990798,0.8161261041107004,-0.6202915985436841,0.041771165680465114,-0.21368075722389873,0.7289649402470824,-1.1884341091740587,-0.17623159915383432,0.04832151714148878,0.2755334333588842,-0.30702999737806413,-0.2669719582078942,-0.06546470935110502,0.47593683149768795,-0.9228076488305291,-0.8058461823413187,0.7967546835641239,1.5072745642865713,0.13454744825215717,-0.5939652206820382,0.22132804716969381,0.0046713873380488154,-1.8044701498909583,1.3054570646987993,0.9612862454066123,-1.446694041856227,0.10934761422923708,0.33766860755173,-6.747333355352214],[-0.4699190884380552,-0.6661439453234733,-0.5959853466000162,-0.7298981980639061,0.9043801425087472,0.8864483379770894,0.17028627818990114,0.7007807033816742,0.3746240353365247,-0.23596188384403396,-0.7791828084364243,0.04958834507720774,0.016091307565688728,1.1951923564732763,0.9238392732197024,-4.238856194827649,0.5846002614899608,0.3345769766681137,-0.18265155407033531,-0.49472686063182336,0.06429881529881541,-0.024098716789834555,-0.11061082558943061,-0.34598871803258807,-0.06522172254764347,0.452439155424346,0.19578626381240938,-0.2011995302593733,-0.1892594146747304,0.5909450223762629,-0.745539226423875,0.8459625636798009,0.8765315975413747,-0.3117409413635141,0.22280522563224994,-0.825218903081118,-0.9248777119850073,-0.6266183243348208,-0.29586185657144154,-0.09692880574394562,0.32713267097466686,0.20619702069740534,-0.10558728967127769,0.4079674361190603,0.8123127245365074,0.7699965897538151,0.4105018729574217,-0.03417386191876495,-0.648122213784595,-0.3434735672184859,0.8870144953322465,0.33665122308531803,-0.5682290765195083,-0.558577970578869,-0.9215872621552504,0.33591788688716223,-4.648021941311135,-5.277414845075187,-0.32953790433251867,0.8318242324293903,0.4938268359047217,-0.5958237658353576,-0.45918104713041313,0.1642929594547261,-0.807624566656392,-0.11030564036134159,-5.241341969346124,0.9815118916611985,0.4560883274605763,0.4970758147616311,0.4752397956370816,-0.0003321157011866863,-0.6549215035816617,0.4036027736559162,-0.15560890828662452,-0.3650523000998173,-0.5464360712624065,-0.4955993130172012,-0.12463678333472268,0.4238315244301549,0.6553969641959759,0.8672818688288417,-5.343414733134149,0.3791962560531535,-0.6676495580208255,-4.705039676557414,0.3805690050316135,-0.36063064646203974,-9.979774439081718],[-0.23003543651565544,0.051521451461440104,-0.5766526413094999,0.20162902215566383,-0.10100412879348075,-0.1580693412577228,0.6061028344057054,-0.02514981166931736,0.7380278856785542,-0.589962623936249,0.04510868108704373,-0.42168525479425206,0.609831826391263,0.32815668310892204,0.4767439729747993,-0.9185303875791593,-0.3078446573575006,-0.7360373991639781,0.5767830196303384,-0.20272996254786368,-0.043731507022966805,0.15192963591296693,0.2788153341899066,-0.24583110646017267,0.19817017227263234,-0.2044044319406709,-0.103414226918477,-0.5781351881158331,-0.3871127382806599,-0.9459024910602456,0.599977311764793,0.9767465467200567,-0.8934904349387084,-0.550590809176628,-0.854692534108878,-0.8510474878371349,-0.2437878934995301,-0.12167223856811622,0.601564638200275,0.705919969182589,-0.912929245510002,-0.8713860576558822,-0.6444407367182864,0.1615809207240931,1.500985501821936,-0.3613921184576755,-0.3572163218128915,-0.04486384120310079,-0.9003627029282696,1.3786888863724278,0.9020934550074023,0.09521647493051763,0.38953752269667036,0.552055815055897,-0.025790634089493475,0.801414192631155,-3.532715686032922,-1.160556325887389,-0.7471233408372652,-0.15748869767419738,-0.2672536995319187,-0.21562374472377854,-0.17676568112621172,1.7279707780285312,0.569880370474119,-0.7710072790228246,-2.2302668587416505,-0.28844898710018085,0.6840508479077463,0.6378163989331941,0.4907325179252267,0.06313108076023854,0.4701144794744449,-0.8296226554301915,0.041999443936749994,0.3213834617945412,-0.7254144243668625,-0.5388052928765162,0.280450331552485,-0.5016497451324039,-0.9699922444212999,0.25604553419071524,-0.18483226871353456,0.13886034687344892,-0.5204834146416494,-1.2567258560986079,-0.7692641853383173,-0.09797088178917322,-4.0793927634144485],[0.30462505852901184,-0.5755419351860175,0.11896671102348905,0.6866761046746093,-0.8100969647017664,0.5102751664524836,-0.8427080076902049,0.010430764138145535,0.5572647653230806,-0.8250898401176969,0.4375910310343433,0.5575316712800196,-0.48673134423169745,-0.09259065268350153,-0.5801685484208663,-0.7299087096893981,0.07172838448375383,-0.7494829090848234,0.6233591768290698,0.9048977686217232,0.5372564411057011,-0.873364897356543,0.5705725954051233,0.40227896568511473,0.10874363038744203,-1.015772673149658,0.647317804992175,0.2686427961629885,-0.42574626020493345,0.09526064598972452,0.5290084052249521,-0.6779878981955763,-0.4167194281500868,-0.9386409294187074,-0.697808019426772,0.6932206077544998,-0.48845549959912504,-0.4311247661229059,-0.3492413934284423,0.6826641198807656,-0.10200840693823832,0.13184731574682218,-0.9440603834813972,-0.494036914683407,-0.7749807432565837,-0.4747088137243326,-0.8280167101383189,-0.35535309395242404,-0.16039412968752187,-0.033915233103044985,0.017850817802104752,0.8536127182798776,0.38594100728562397,0.38743778562261366,-0.2632210308929464,-0.9501345919410723,-1.3343560443000198,-1.5808380438874923,-0.14289048420144135,0.8796180748074284,-0.04561615472321915,1.0705087767118675,-0.3900278078949751,1.258752514794987,-0.584323112861993,0.0812005258803593,-1.5102251171834522,-0.43898163326153006,0.02251896955148674,0.21478056865689502,0.3574248111358284,-0.6461225076213979,-0.4233229268939119,-0.5277823647749125,0.7007867913946931,-0.7211952644646776,-0.5017133289375745,0.030319196023268883,-0.8808673195875679,0.2719574770725827,-0.19784813396569267,0.4910411909372791,-1.6240493712163373,-1.5421630205206875,-0.38289240824713855,-0.30890976010628923,0.6446490863906637,-0.8367928914182851,-5.539691667208163],[-0.34384355475659734,-0.5768429217238685,0.23581612077282638,0.392049531539463,0.4961931591902847,0.24927998642302052,-0.9667974033034589,-0.18403976709596775,0.1371393335466643,0.49055615785187084,-0.8349366919945966,-0.6844683734035183,0.8902348191623816,0.8079278404018915,-0.9875046902637398,-0.24900046083364713,-0.698256747711437,-0.25074900045810844,-0.08080963603444367,0.52687038332747,-0.5106141294247588,-0.7698408542862781,0.9627132134748642,-0.43463790368757554,-0.9388995160296094,0.4984909364941493,-0.9391795417235286,-0.9580783661347525,-0.05777246266992239,0.8212392604048929,0.6362179777359429,0.6318141352992239,0.4353312348418677,-0.31045798230625943,-0.22797944474849505,0.5079579908804965,-0.22657689478729104,-0.9386296442608051,-0.21731789504232313,-0.1079925338537998,-0.8802367330418375,-0.920967273406546,0.17987079033186368,-0.7202444050142747,-0.3279933566887301,-0.9127607332166136,-0.855349589455704,-0.7318745143387974,-0.9295766013577449,0.8923568160646496,0.22185103405046314,-0.5249213619160022,0.02339763238091293,0.10191312991302717,0.9418442353377864,-0.22397284023030237,-14.198152547459198,-0.2090342393938711,-0.9549867656660732,0.17805672180213164,0.6437190559702887,-0.07137267798871944,-0.19508369620186375,0.5792324476827597,-0.7086287579584483,0.09460027970699668,0.5719952890515868,0.20811495253040982,0.2739920723168438,-0.6774528609251725,0.9823612453448456,0.19986947693637097,0.33362992285922244,0.3519983576963281,0.39443733586860313,1.0597129665864449,-0.23479899442642063,0.06780969887017105,0.7213541391402394,-0.35959618747906885,0.5186976688067012,-0.48358544339103315,-0.33946480850858,0.5608267864144697,-0.9847100869200286,-0.5043716158153544,0.16414987851918716,-0.45362584233189446,-13.64761809741513],[-0.03956301048413055,0.6491992559655014,-0.012308874405618443,-0.49475833738165215,-0.9015308505206447,-0.5781070596424623,-0.4598391849927969,-0.06792436865380179,0.46731483575560573,-0.8785666148278205,-0.21586516868860403,-0.96018266900288,0.22268858843721903,0.6254756901247678,0.765942213167134,-0.9752686407502277,0.3718219438088388,0.5699328642653828,-0.7878958975805949,-0.6624129744282249,-0.27715029286191245,-0.41035555347294894,0.8317232273436265,-0.9377243965579382,-0.23136849160340595,-0.9219271891511068,-0.2944777488358557,1.922741037999169,2.0633786788940953,1.0805355582542502,-0.8209899284731156,0.05364570415113797,0.7725353190526508,0.5490804626309842,-0.13787477682908178,-0.6324521486010857,0.4595339269624827,0.307005235445705,-0.9462232427623536,-0.5383450522314367,2.2324185588751386,0.9047400784372225,0.2773162487421963,-0.7855068980706195,-0.6086596876782981,-1.0142041858918878,-0.019243131478435087,0.3622498075281667,-0.4833878899476314,-1.100493472839645,0.00034432915816958695,0.6165209206418554,0.639989203863935,0.40655146241432755,0.09933549859655708,-0.6672119088908677,-5.711969672026266,-0.811711739141474,1.2549931192081398,-0.46869247347994963,0.12781779471280963,0.500900499677814,0.17443981755001112,0.49380640401797027,0.5569936552457505,-0.48304724891859296,-0.9296175829883353,0.37505138180569775,0.24593819642057607,-0.08149800816086983,-0.33510148432377496,-0.7349739942358194,0.34453276385321924,0.6840814166725955,-0.7637702751913341,-1.3635991100055749,-0.23517123321761108,-0.8971382563016123,-1.033929348388996,-0.49313240090574056,-0.516365144571751,0.42264788527163777,-1.033313946273888,-0.9714461884478073,-0.4353026604898546,-1.2783361482503541,-0.26252676700814903,1.6061942902559658,-4.064593361833855],[0.7719894998387574,0.5265298385894728,-0.09244252098500733,-0.3988692738304025,-0.595039820469169,2.6679128762309685,0.015090019630620349,0.9593601422920821,-0.24720737969512033,-0.7550609211963742,0.2964855214179495,-0.3577701258882438,-0.8781340188995092,0.6073937582371318,-1.7601814217390908,-1.3596061608604944,0.4848127431562179,0.33468695307808166,0.5847561117291873,0.5991748773244681,0.4090337942753426,0.6836041516991587,0.31000296299045427,0.29940960290523594,0.47950685014839184,-0.24970161365444837,-0.7970234831819456,0.52406215938151,-0.6846743888770893,-0.5621642356045322,-0.7329731745817195,1.0357762922247462,0.11174840588932358,0.6269193002467209,-0.6164621624924287,0.6227599117509475,0.13831691946693575,-0.6062828177519503,0.22444324411924974,0.8404166406075638,0.3125967730323895,0.5344592555863644,-0.3154023010240149,0.9811526054586994,-0.8745661346053347,-0.5285453482681501,-0.41192270148686594,0.1954046738660966,-0.6911892544857974,0.7318354442134277,0.6041403976400305,0.8637502366377418,0.8579118713944719,0.5876553636280805,0.20556089005767406,0.6028233084677311,-5.029896162658674,0.2441435147455162,0.7988694186635078,0.4558216722284687,0.13096390421900225,0.08693278672623471,-0.6217454925103566,0.5215047203391044,0.018603443660926394,-0.872913728123195,1.3449249661777782,-0.9110569603756113,-0.956099661601163,-0.5639014117983252,-0.7476678608489297,0.4909426200898635,-0.0747773466085356,-0.5231507031505475,0.3871102967653362,-0.43408144770495505,-0.31523592728622224,-0.740991319840969,-0.7423819619871704,-0.024116327690676988,0.6519431262884975,-0.15717910725677908,-0.028947145001224046,0.7071004836729441,-0.5776365484830175,1.7049976239820013,-0.04925769052923424,-0.9282257923808376,-7.061471812981492],[0.4646199196581046,0.7030986710779294,0.4012991634092677,-0.3617308893880396,0.4065527854850318,-0.6873701023914556,-0.05131845146928986,0.09947968868823287,-0.06562263635380415,-0.8573692121928665,-0.8468099623666768,-0.0944265526183412,-0.21781676328839694,1.10088269355217,0.6464825813452181,-2.6729604897217825,-0.9737048725556082,0.6857091210089008,0.5353913293085663,0.44419251108829955,-0.5911444330614567,-0.9707634789855397,0.872283487579712,0.1336338249389651,0.8725596888596365,-0.36709069040986875,0.3496579476497937,-0.8839888393882491,-0.084378972016897,0.0642656693395823,0.541721970005796,0.24703583481693478,-0.9248822233634668,-0.9182707213972132,-0.25130093521292746,-0.3799337865825062,0.3936926276830153,-0.7471966521040009,0.5557387570479396,-0.3499930076546012,0.10081509630191787,-0.25472629335504066,0.5201674687656354,0.4016704846561689,-0.47757971299314145,-0.3055338001927675,-0.5314430283458896,0.0783024346260519,1.014039255344122,-0.8812251226664137,0.9195683711620749,-0.0771461410363216,0.3281407794581173,0.7015239739230262,-0.23695169722949191,-0.36513872873493775,-4.8133989988884,-2.486367967479424,0.11021403157061636,0.46565229119643964,0.7398601711904348,-0.31795873376951345,0.8417555383536116,0.17807656085236273,0.4322599394840583,-0.8125455210097087,-4.07709462783336,-0.23464702656677647,-0.26427350045833514,-0.34450217278789097,0.40260495687375303,-0.5371990097097359,-0.05896329947324088,0.7382969068993096,0.6056489589216029,-0.0648241059199669,-0.7484273714550294,0.10719246942410993,0.19552559215385704,-0.47573420718131704,0.08737812144709257,0.170706515452785,-2.901877857882613,0.4895932837628454,-0.25517679208524147,-3.2774928746733,0.20415048776659567,-0.5442683203227587,-7.742075925684472],[-0.11846750920952105,0.3508030319470643,0.31390216862790576,0.6692989958587489,0.6095526595025181,0.9149217939474521,0.8474483370531364,-0.41061623425906885,-0.1129074349983428,0.9680353674687386,0.6954585179797027,0.22435807756890902,0.3761434376953043,-0.48115818581541464,0.7232529401875006,-6.892963764363522,0.7780849973855242,-0.048586127011890655,0.1610862029223398,0.7830747373761349,-0.9598076015917393,-0.027044340621953558,-0.4115698928324205,-0.5371842572925993,0.50971224748398,0.5115547614682594,0.6282407098046584,-0.7748178315064592,0.6750434166468133,0.9216976505155863,0.6545782362885236,0.4530220561123735,0.05632050708174416,0.2980821442093677,0.5697720516174177,0.23641585245456476,-0.3724455934261551,0.36707578844028743,0.5754820843561994,-0.23364308837644884,-0.47219755661244933,0.1755221732019168,-0.9354667305871934,0.23038461056897006,0.5487802302360808,-0.5680240637411751,-0.5565938440542928,-0.19599535794229425,0.4678862887676959,0.3822968176410209,0.5161747285490332,-0.3218271659784014,-0.27402641609763057,0.04066616233267469,-0.988750759669022,0.10864089887896142,-5.0853689958506605,-7.824892184793975,-0.5183504175472989,0.9475089994208248,-0.7395567102740037,-0.14283932775969616,-0.7977177332487434,-0.6605666244947186,0.6361043626945014,-0.6054299868479909,-7.075422890309445,-0.518547075369161,0.5059479548812097,-0.3424454770355335,-0.16861315590533377,0.18653105201054743,0.7682963690130439,-0.5409492032448101,0.15842175049203416,0.2518737852414899,-0.8768757587545931,-0.2777635758527517,-0.9031843220924664,0.42515901237130255,0.47522159344335946,-0.9067974136958755,-7.586726125852589,0.3757500986079315,-0.7903932440348795,-7.601064902167081,-0.6567365326632641,0.23611954579849248,-13.864223231631302],[0.2055662787636713,0.5355151197389595,0.8668517687438191,0.5790520764449272,-0.3810335697439901,0.15660747083775273,-0.10387429746415189,-0.9960682113028245,-0.8075865327981167,0.09426809359298471,0.3569465332979813,-0.2313765562355491,-1.400434804094871,-0.010695593150356337,0.6276591012891055,-34.720103203091135,0.5371902891542972,-0.4660691192321552,-0.8008217092256007,0.8418477915325093,-0.025264004318298852,-0.020129382011118135,-0.10616757569648194,-0.09375007356238796,0.9836697715864449,0.8451808989606027,0.9678729385660014,-0.7840126339074296,0.11013609592891135,-0.4639070761947891,-0.9294848821904836,0.6821469993090157,-0.40885681193080814,-0.39371572110718234,0.9774868581568803,0.35150447166189447,0.759188598929579,0.43015794629184345,0.24159366902903145,0.8984549044797846,-0.42293341996862854,0.0663442406482726,0.6045562309930421,0.41169631470740997,0.7163962312169074,-0.3386995588531797,-0.7791853282339312,-0.4047119869151924,-0.7409581761554971,-0.915810405297256,-0.8449625885589008,-0.636618520304955,-0.6038224383971763,-0.003971510845439044,-0.7570671176100675,0.29316542237508547,-1.9814965089960719,-35.20707496127114,-0.09322517493714817,0.06754659876824365,0.9315288309609007,0.9048517174276836,0.06144450795978538,0.022041864044583602,-0.976551666893539,0.23296811260632314,-35.58774514676984,0.07985135429490688,0.3496247676782258,-0.39107168273249915,-0.24352326895552046,0.5982303928218309,-0.880115594782475,0.6835115649650407,-0.2722001907700514,0.22239953732043607,-0.9669561052232687,-0.7638248026604014,-0.4516277762623041,-0.32541669859770705,-0.6011759553005304,-0.6695945649442234,-35.64007715854762,-0.9989823992470341,-0.8835750406088556,-34.73154323416366,0.45926117585847037,0.260405272833647,-38.719888222653715],[-0.09788585190700881,-0.23055275838788464,0.6045287325003273,0.555743663051714,1.4538635326250078,-0.5760438070294511,0.13433172119933037,0.2772551747036599,-0.5464733789703378,-0.40826486421283575,0.3895488744486139,0.2507581950403721,-0.0784075155888591,-1.4148821470843143,-0.6018234185648508,-4.7506414958194165,-0.2249440919643377,-0.19075029819036385,-0.09861218320332527,0.6341804244751702,-0.6924811636293731,0.12231945256596628,-0.33721455569719616,0.5542644620295397,-0.571785097009852,-0.026000834561622662,-0.5523953568882817,-0.5090182398643632,-0.8856048927626456,0.7001925256922364,-1.273142237699339,-0.166973923742057,-0.8246493230599795,-0.3657200461196538,-0.9426510091928915,-0.23096438787926768,-0.03394478674055604,-0.3661152913297566,-0.5603654444659056,-0.6762031658436686,-0.39596086988489265,-0.1856268513935806,-0.8240496488561297,-0.762296399442504,-0.5392945647856874,-0.3649459676676882,1.2133502415569946,-0.34254237231058815,-1.2072547049382811,-0.543406891401802,0.3222831685193484,0.28744578050952097,1.1547314032325984,-0.5355479485494864,0.2785902138955564,-1.095679808943971,-1.5996400527446102,-3.741833726287521,0.16679973394463704,-0.23057250661167814,0.2695406381315914,-0.5306735769510292,-0.8138837511756801,0.26134276844589627,-0.9737922660640755,-0.20888970382776295,-3.2599472358776995,-0.22424833173672018,-0.5896482516840889,-0.2439508172493213,0.2661984407902236,1.9698979824472267,-0.3450985763875956,0.41695582378540946,0.1573010610068958,0.9144045929603747,-0.2051533495240396,0.8434760434173764,-0.7848161692982435,1.432063281896007,-0.599691323855185,0.8657374350976301,-3.389685327356403,-0.4229242577552541,0.5163092938803653,-4.982502424624533,-0.3612589671790079,0.07404548294412246,-5.011788878932647],[0.5937641508053801,0.5150886896971077,-0.9187799924293898,-0.269602215812127,-0.07039103959382907,-0.2556218988389899,-0.15557086797635772,0.9162480087615164,0.37510627448309214,0.16796399548122268,0.6702214384523194,0.9569086429263073,-0.31482627265587604,-0.6945847326297944,-0.47607012234312573,-12.33649929832724,0.13087633496440518,0.9139767021510602,-0.9290383970614311,0.9495850494602273,-0.5033080047720211,-0.9420664355121372,-0.43917089638550544,0.8431823073126259,0.28082988086373206,0.8620924925598765,0.220060323448842,0.25273949332964474,0.26046866344174446,-0.44990289327483357,0.6545209024861443,0.7798558570126998,0.6985933070662231,-0.8827504458665677,-0.10298293684848359,-0.6032168150872786,-0.32182401518179615,-0.4456425900939436,-0.0018734760226046053,-0.9256757046785024,-0.7883273475668191,-0.9725334611935704,-0.32743703317823475,-0.45455638461961695,0.21910510566798902,0.6949102513392927,0.3326317909285386,-0.24572732790531712,-0.6440900004356518,-0.6749099757594734,0.1213315981551583,0.640073414022083,0.7174708154560059,0.1265235976431246,0.45016105597037276,-0.4177912507300284,-3.04649065006214,-13.904878683758557,-0.8795599335934732,-0.16323646027908548,-0.22358487491388407,-0.8231426097750152,0.35109101924631,0.7051137340235296,-0.9994235141001149,-0.536079762932585,-13.014008850793624,-0.8459727384656591,-0.7823801354438343,-0.16493629781812083,-0.19974385939522743,-0.05908209739224321,-0.2571303810748651,0.43915213103324335,0.4288515191262692,-0.49421702317397587,0.33712632798097153,0.6852289817009948,-0.802392891564627,-0.053593839755651095,-0.9779593176472832,-0.3602493065931741,-13.65823752779136,-0.47949406432575026,-0.6410272383995009,-12.571442527803075,0.08273789815672367,-0.9417488740254482,-15.035081838775678],[0.16071300193160673,0.10282628697149847,0.4190020472330723,-0.41840767761551984,0.3702969952815561,0.33796593894797117,0.10355115306721731,0.7033171714892981,-0.8989248656424231,-0.9463255440757308,0.10763568635785417,0.4196167746263367,-0.9053603074020875,0.16371718276763747,-0.6347880920112976,-1.0777796060509846,-0.2932883054731446,-0.846729468968159,0.09227085320629212,0.9513526802578671,0.05935214423670281,0.29419030740204033,0.598242594661179,-0.6170209646288878,-0.9290382885022556,0.23733319823790658,-0.7790258824506319,0.6571120950992765,0.45672230347584186,0.7466885054405705,0.4385431207603948,0.18433344025789475,-0.46984316200734527,-0.5638156400519216,-0.5908380014554233,-0.8345988063571292,0.7346015594287774,0.4141210461793348,-0.7206707169907027,-0.5992821088287785,0.33115772857302456,-0.6440893085559231,0.7709206051008652,0.9330671310887528,-0.7178193608591631,0.42798281441345465,0.6643557337730652,-0.6203069169711611,-0.12623444189471592,1.0771862874656541,-0.5026270369021119,-0.859468034375161,0.44971459939555725,0.5847313243851209,-0.1150720946851638,-0.7835729931990209,-3.763699559384236,-1.000437089797318,-0.2854304410328497,-0.01567011911691531,0.283650502306512,0.7059464333410599,0.5523437063368455,0.5614890021701314,0.4948524643709671,-0.4268684418776712,-0.4222724322269906,-0.5540097731370655,-0.6746169300395461,0.14303441910110645,-0.19735739870646615,-0.4319020012491406,0.05792477739149962,-0.07412491190085434,-0.04924980553644938,-0.698299790224345,0.3798367531532953,-1.1979382582612665,-0.8697714873520234,-0.07565628424354344,-0.33229150754409476,-0.4325685536289586,-0.7943079128509364,0.20889302344959543,-0.13311163665898723,-0.43878947496940574,-0.9118177736683741,-0.41836577314270273,-6.509989016865996],[-0.927314573165471,0.5103843990324877,0.7879873150263632,0.19276988617690746,-0.1429041246052051,-0.24293064406948178,-0.7893831008020892,-0.8955408433239888,0.13934685760864307,0.7400876602920801,0.5890425844485148,-0.967406582659949,0.6436465777848003,0.7675415262869795,0.1401963685116181,-9.605609904645524,-0.58307540686963,0.25987349314566927,0.9757005352432955,0.8696046097122211,0.7993721215307777,-0.19510398478744895,0.9242904535255752,-0.5980365937337275,-0.7257181290347247,0.07467726513767817,0.009794290519066804,-0.5278027126213176,0.10892066361100367,-0.9530015637222222,0.11209186399099477,0.967733496064435,-0.22115476741933057,-0.4775534902414168,-0.9778211684015683,0.05323010702367742,-0.8666108309284362,0.004625793405023487,0.8730633249946295,-0.6973387927502714,0.9474936924279775,0.264102125140309,-0.10216296941655754,-0.7893766450970531,0.9541753699011736,0.770733913737707,0.016321853237566106,-0.8494032286294446,-0.27464325672566414,-0.6319573829653095,-0.5665502696860903,-0.1931902640713304,0.6503724370624537,0.20218445353546188,-0.7010903259372534,-0.9034579206751934,-3.7312398624762966,-8.468388455174168,0.006875924211364361,0.27288271842592926,-0.9528350220345131,0.16340239810107576,-0.2105594096580862,-0.6299751586029492,0.08638014777716745,-0.79106243492656,-8.875285210471889,-0.7500415422315578,-0.3837893274662529,0.04119510549455737,-0.02229921267024843,-0.027179418601153235,-0.9744141378114238,-0.7536214113079582,-0.7482476809742802,-0.53293558955517,0.9024167970971658,0.7143516632980023,0.10652289431953338,-0.6346411148284856,-0.7334669133817716,-0.16855887450263224,-9.338771833443538,-0.7273547539278212,0.02474074914625274,-9.908963404949963,-0.6768114061808552,0.512470560668142,-12.99237893537599],[-0.01035026052905853,-0.23503416667468882,-1.9446763843067092,-1.0022179284173767,0.4502982675008979,-0.6632500100354916,0.44198774174553157,-0.6155005535720782,-0.9137372148798789,0.49286084472802083,-0.12381373294471211,-1.0061933779065177,0.18118354169546078,-0.7088816667808341,-0.1618081329074865,-2.33606265228526,0.9698416247708211,-0.5583525209596804,-0.17973415252306288,0.04216635271227008,1.8664030940613432,0.31027193942831427,-0.2245991671542603,-0.13980330278769953,1.8669304383071903,-0.09867307071143973,1.851532833595862,-0.4840556619484185,-0.4579655644152959,-0.5792566693542981,0.8803435346343628,-0.04243371153433107,-0.27848856000994976,0.17815417793180113,0.2440868971805529,0.8517654245531306,0.005280655809031062,0.4295188083486179,-0.5517608757277889,-0.17531383114277055,-2.2467789865522216,-0.5694684446335075,0.7302573222530977,-0.62903807155486,0.08708782005623324,-0.8853340890628574,-1.211830475765739,-0.7267805761844196,-0.9799397481698806,-0.8471186640228546,0.314074443756063,-0.5357781531058993,-0.8614662369956642,-0.1683383110801935,0.2229383409684191,-0.07819995427897429,-2.0358051930308805,-1.247752663154379,-0.15660844713005648,0.9890605817682889,-0.01136351465021984,0.5332401441007393,-0.9803705055716585,-0.9570588259079116,0.2388871828894079,-0.8836860512730079,-1.9203414566181922,-0.2606339255236865,-0.7742831820617203,-0.19428758846803318,0.032902579558703765,-0.5355554014541869,0.13890716144351048,0.07509740903837778,0.5583570491030165,-1.346179827362503,-0.45745684127117775,-0.8049982217213005,-0.15869943614562057,0.20129404663525013,-1.0478313634859742,0.3261409541389062,-0.9477569606193315,-0.03750140108754167,-0.21972494333878576,-2.299455370031156,-0.5463982773103566,-0.23163370138205366,-2.6506633006424742],[-0.6016722376544372,0.2123485929377587,-0.4764114497588505,-0.14987899765406454,-0.9294257527563392,-0.21359395786142124,0.6891966979631063,-0.7648432593619382,-0.012189563795924781,-0.8383452977348098,0.6048102446068144,0.6731161248787916,0.5381096677405253,1.14907780095576,0.6610634867920323,0.6951532688795266,-0.6146653342954893,0.08323124638311441,-0.8737785637000519,0.17845751253567094,0.021105871326432563,0.39324810797677956,-0.5691355134616682,-0.0857163133750923,0.6572100343393171,0.14327472380269884,0.08602538493857566,-0.42261088445373585,0.14235016353791144,-0.10905580284479031,-0.4622733840035906,-0.6917212426878541,0.7267994406990361,-0.3036904335955179,0.0768336084573636,-0.7336291855511392,0.9118339365753726,-0.5918661685450496,-0.49020260531258303,0.35766760279021004,-0.9691695696825867,0.2239622235630882,-0.8105802997266056,0.4656484758721189,-0.3078135915790713,0.7519326591867039,0.5150115238296558,-0.3997719825823795,0.37646144988694197,-0.6738401242390532,-0.87171619444676,0.9554888320500485,0.2413145789514577,-0.008185817978077634,0.8654241060758646,0.1432139653510583,-8.50211388503672,-0.45090966059836946,-0.3338231929770195,-0.23838890485217396,0.14487984256424125,0.1644357699267941,0.5776008119638839,0.5830331644528274,-0.8292111923575215,0.2085888786305114,-0.5300805365693864,-0.028832008427604652,0.7308288046322822,0.24816100797739518,0.8245248772704288,0.8095062626028716,0.3053028493227288,0.7336779094537431,0.8942012719383384,0.5585665731584941,-0.5986620180424815,0.31820118629639726,-0.7652918431825965,0.8007494578953436,-0.08744910897504111,0.9551634088684696,-0.4662563786786631,1.121709284015473,-0.16992458715972844,0.10088298557841972,-0.7296865034341309,-0.7887421982369892,-8.229419351679683],[0.25293894144949547,0.4711915442883428,-0.06638906915314279,0.9466239864295866,0.4912495676963625,-0.9642709681981911,-0.03345362149422775,-0.5836404350838232,0.7750727887997811,0.025369027977572064,-0.17690391793820728,-0.0022435739636813418,0.3304123186445615,-0.33549074396050166,0.20972977099198062,-3.8376035821301615,-0.8190741046769809,-0.36097662723142104,0.4710044496600807,-0.02621773640345384,-0.10227203400152772,-0.9036125085870611,0.6535025796295343,0.1515053438637752,-0.4383079358919512,-0.07126955289686288,0.3930182720446245,-0.7797691899182598,0.641088096817805,0.06701548404616522,-0.513624573284501,0.6399256787247103,0.2715519589096407,-0.4486447885159892,0.2640453459307034,-0.5894178931319242,0.5082801274574613,-0.0400103350356535,0.02309079487446834,0.8263566107195314,0.4794435293154346,-0.4741851075106173,0.040197099682424964,-0.9280228454551613,0.804329140283904,-0.7892056160584302,-0.000773372362856873,-0.7140045317377377,-0.07826290904686188,0.4456584879746858,0.036024984442102614,-0.1490793180741545,-0.6332772519467297,-0.2413616124766853,0.4738928982187575,0.945458745120927,-5.137086115981833,-4.76953332757412,-0.618898642868164,0.014481227205902412,-0.668177119499828,-0.6672836832312218,-0.8130438397471587,-0.5067930758595255,0.40583837965174624,0.5906971263606436,-4.173370958233838,0.7948235783717077,-0.10673198968333235,-0.685886291664423,-0.4543596781601968,0.47552045854394187,-0.6012194867633908,0.14907296924179766,0.3152139453297668,-0.5751844761022329,0.8729423556748261,-0.6352178425312627,-0.5509394580258651,0.3877384501617076,0.5367719638492766,0.18063448859740686,-4.654803889273238,-0.10712864572568745,-0.5804847701759759,-3.342603657438685,-0.5459894820509839,0.24632882610898282,-8.641108231835931],[-0.176488051178253,0.965984968287774,0.2579005471439623,0.956378497866922,0.8379865832936867,0.9869490013086104,-0.7187862456212983,-0.1813667535021055,0.9556290553526745,-0.22286600953556843,-0.9596557748507233,-0.08455885231693942,0.3508891332336007,-0.8576809669354659,-0.7104576801357882,-20.865401908706644,-0.5233342913705825,0.4527039500411444,0.7930414961866329,0.8469507511165633,0.8776155855579291,0.06702667809373031,-0.41111319993219125,-0.6853023347602384,-0.8231286409570461,0.8531111013581764,-0.8874224799460565,-0.9042559230955561,0.13664594303911276,0.24252360396377684,-0.31536808632455926,0.432882647719261,-0.944876882414406,-0.9675081434238666,0.7913050247618574,0.8460806751711435,0.398788261034851,0.4168691903063202,-0.5195576014718633,0.8660053460688746,0.777615993983251,-0.13624540887850844,-0.8443872644580481,-0.15179535567624247,0.7221011682857996,0.22509705959820475,0.2778408595834583,0.6587846541900578,0.806505925370931,-0.07402781006131783,-0.4663872419132872,0.5291357792203728,-0.42450918478466737,-0.991601298359981,0.3707423205656768,0.06407939034578189,-1.515592107696889,-19.681891626394023,0.2237002112465037,0.31624091878162724,-0.4467593747438967,-0.2528169182004838,-0.7258724465434008,0.14995565470943348,0.7434474525684736,0.7208641701021331,-20.11034454332389,-0.015149906362738105,0.6057965955542132,-0.2985018715911978,0.8533205429047739,0.19062920432147368,-0.40546826772919836,0.062372962699299705,0.6319854108334839,-0.3274551721720026,0.9344738356976527,0.833731750314326,-0.8204122112591117,0.8799973269831723,0.4846443297250216,0.5241792429433989,-19.916671497998994,-1.0551633262608702,-0.3853809140439616,-21.47805327822668,-0.5718551377894101,-0.9787549841681628,-21.815708879692156],[-0.48828326969747426,0.33599630767002703,-0.6836712924621613,-0.586774656574099,-0.14039262303066544,-0.6686812113529899,-0.03603143496450526,0.1535988096338032,0.8055473768819532,-0.272037393540298,0.3184922187347533,-0.873349726871765,0.03987837378576589,-0.2052568977452943,-0.3622168338799504,-11.20291757891161,0.2968392660327142,0.8228969040908903,0.6402909045867702,-0.9953805742807798,-0.5786527402230531,-0.9261883968948887,0.3757372191168994,0.17400831587880994,-0.6623973227424274,0.16758954075578975,0.6882177138407908,0.9318929017463302,0.6482577094518452,-0.3537606692425476,-0.013960886978797417,0.8900603955316937,0.4434036497980239,-0.10087871004152793,-0.7386702075191344,-0.36617135004440915,-0.7372904018412028,0.418610172607938,0.16820183866778318,0.43249514106141274,0.9248967705418647,-0.6870194799674125,-0.9043032901885661,0.26473568814317056,0.2915535684688399,0.6112643368610302,0.3761059639232949,-0.03312554617663416,-0.8099836652322079,0.8958967155384188,0.5794834889462152,0.9462299969030503,0.725041457592119,0.4422469414419822,-0.8251620334833775,0.29294389630721324,-2.265598198736213,-11.726780708673674,-0.3155662963305213,0.6044284894153598,0.22388480190461568,-0.16716833410720167,-0.4513693605099767,0.558466192830073,-0.3205454833215031,0.4057062232012535,-11.722896039514074,0.6934762492967365,0.9365740584194586,0.04914309019815865,0.24634034854183007,0.26552220785859,-0.5224186658325932,-0.8079019360883747,0.5019841091620526,-0.2492524567733483,-0.5741758114885362,0.7925956508755984,-0.21645545774577965,-0.20176614638627693,0.560412972229919,0.16855229964306462,-12.680151470692195,-0.4058777759519106,-0.9662451653870834,-12.770462984556456,-0.13232140803190903,-0.7041494547386254,-14.78893755001762],[-0.7178439392957897,0.05536076579568436,-0.6728050563364105,-0.7892294901137441,0.23223586841207905,0.5848301437065222,-0.15546395786349776,-0.969727933223367,0.03486153179545541,0.42745515820621927,0.7885408789642632,0.5037701885034399,-0.7520788419718011,-1.2562123274210908,0.021223979669395154,-24.684593469482408,0.32896105756416727,0.29875379756362586,0.7160334452245171,-0.16232583076055984,-0.08249959269596283,-0.09335414090212922,-0.42111711932612267,0.5738411331742286,-0.21887107429877772,0.24167778471960924,-0.36215337894919447,-0.9435706007460697,0.9650734962180884,-0.34577376111637975,-0.697314431356752,0.2724643615212858,-0.5408465818399519,-0.8224785057617997,-0.7763677752332818,0.21621729189694913,0.9942910556629341,0.26167654686165104,-0.7109711459249463,-0.09751491625529002,-0.25513753187937555,-0.3293692194754291,-0.8034039835342973,-0.9224761591572903,-0.7043304273479805,0.5278453726822062,-0.009193840706656489,-0.4948898842409792,-0.5259584401443286,-0.34128493492851186,-0.5557137193112686,-0.26809876478313033,0.3476112977621376,0.49945218805511116,0.7380916010258246,-0.9119134929918936,-1.340474825348668,-23.338622817678758,0.3260369729001819,-0.5251195946081538,-0.1578731460931163,-0.9623405356274618,-0.34488915975982937,0.481755831237197,0.028786522431514028,0.6168357222809634,-24.495848283957216,-0.9510994250333736,0.12151671533726677,0.21450094341675185,0.5032232707782285,-0.8331002439798058,-0.8578166102459689,0.8477283163304112,-0.5838157736071989,-1.1715339795993986,0.7384205626269613,-0.6734383487437865,0.15642237772297266,0.3596968693641825,0.41985205885354765,0.6028661411624914,-23.496793112517143,0.6874487342829637,-0.5179605288942122,-24.230892797928522,0.16248230407614517,-0.679168138945833,-24.57478022267831],[0.3034666661472029,0.6762505820501086,0.8929969573108436,-0.6761887590690482,0.02889861413147765,-0.8769841929625841,-0.2519168001296019,-0.6320485745386661,0.5323811396200874,0.031442281804089305,-0.15226756857516063,-0.5409243464084367,0.5181795171487866,-0.006446386042871575,0.06774921208188259,-12.710541072017199,-0.18076151637773413,0.43813259808195754,0.6488830710966317,0.47157194796426377,-0.5770708699563954,0.6935948890395055,-0.6502949021170676,0.7552982541770694,0.7404563814481905,0.11105534600011484,-0.22455015111151072,0.2776647043462017,-0.4569287001119259,-0.9142403827447713,0.1932483815262378,-0.9963008350694446,-0.16216383867431663,-0.5362734085229365,0.5701437900540194,-0.950660960190617,-0.6648359848111579,-0.36489842375732556,-0.6459611987771643,-0.870966477771445,0.42986187122908104,0.6521318511187753,-0.5942879589860682,-0.31024804680401924,-0.4723890404823769,0.029416457319705096,-0.4329561334323748,0.2336489707981613,0.2419873962068273,0.05715608634620862,0.12124932103686109,0.475175036325326,0.8940720525102122,-0.29997604187400745,-0.2157932097519537,0.8988652715846197,-2.5573170036218023,-11.679589842950916,-0.17275286808060134,-0.6693924624282993,0.2731598781840661,-0.22121584759231605,0.4801309351525027,-0.7621921489050268,0.49027550898682165,-0.8523199703159212,-11.966195700619839,-0.1253148514985471,0.299195229624463,0.5154364973207505,-0.9333639523154587,0.23333413540542441,-0.04786259413325195,-0.7053405966239653,-0.16252440029446222,-0.47676593875324313,0.9364089616459821,-0.21635647464634777,-0.08534026715545744,-0.46678278421077507,-0.6950845266718427,-0.02633663904176331,-12.136590267950712,-0.7658762876732448,0.0329993764984888,-11.839384885288709,-0.5691061854825242,-0.563824721702542,-15.393286247052297],[0.9502735537325883,-0.30882594780090145,0.5919975996017359,0.36004210420773275,0.6071648604851699,-0.24002394952919165,0.19035146849519502,0.9288900433473699,0.4317578612694391,0.05342770244644337,-0.1498200240943759,0.8988509846897594,-1.1722602404168796,0.7466791461170161,0.5861872031530653,-1.2446252647069331,-0.4802537850472871,0.4538255991303621,-0.7613412790060967,-0.7435455571974318,0.6434586872123647,0.35464044908180375,0.7237118574977758,-0.48426707074558895,-0.3125691161251808,-0.6580371524080104,-0.7977790007417358,-0.908586349219948,-0.9011649663531268,1.1554343720928095,-0.6243956241018731,-0.554470169966312,0.7310765190362403,-0.3570972869696989,0.22807381871019863,0.055157467155084426,0.04973931524484304,0.21932912215214828,0.15970302719406923,0.7033790711439842,-0.6726788808140537,-0.9921379598848875,0.5857704777394016,0.26732887165343966,-0.13651710103871031,0.08269964683241363,0.8578917405007154,-0.14918148088608507,0.3252060866433297,0.2997022654386589,0.4644757239974073,0.0799472769865275,0.42343490846644305,0.8044075297682354,0.39186356511388387,-0.2518726861437944,-6.401317754921241,-1.952837374306067,0.2317114133327142,0.5394704385523678,-0.35689072496265684,0.8431391056253236,0.5219103619473228,-0.25329620115288437,-0.29914261472670706,0.04634491713325679,-2.392616476440144,-0.7988163964609404,0.9152359473069096,0.7155746136928592,0.1431083260968273,0.7027838403934822,0.6737567716209367,-0.9034363433563473,0.2449779329775994,0.08726881959202894,-0.8879786251514359,0.08737706087968693,0.33983132690212653,0.853825181074478,0.6577216947126482,0.724704403694506,-2.353077859761549,0.3354217162714009,-0.5615858054987891,-1.3974583347568061,0.16631229102737888,-0.09701270786333155,-7.988689493226424],[-0.042826678337887454,0.13002585381787243,-0.5640148173106023,-0.9910871529529411,0.2134315269982671,0.8602262104154791,-0.28870760138718154,-0.9932081523009049,0.9963313578071374,0.32302633429907657,-0.7197679279806483,-0.8221822421062227,0.6932059811645828,-0.2391647935550702,0.5804190307892668,-2.203740195733408,0.4988332965218021,-0.6460040906344988,0.5779676661731323,-0.6961222154258315,0.004892842576256458,-0.17469638763467474,0.803567601034458,-0.29417126252732323,0.7056584507278798,-0.9309168286648488,0.11185953080537332,-0.6321854196301527,0.2386597822488811,0.3777273152189578,-0.716600719334221,0.7942935253785018,-0.9884541065725428,-0.6131508210352943,-0.9143274431918903,-0.36868482673579994,0.5529255434794643,-0.7364817003023059,-0.6593260452435531,0.3415218598949244,-0.40572660371193725,0.8220711562987323,-0.3477648525722502,-0.9753359463333011,0.4294457866341379,1.0028852930612933,-0.7326126569622253,-0.6433080826426537,-0.6400452480516771,0.38846610051811153,-0.18274584949088363,-0.4616393877741217,-0.27645665421959903,0.7655985342115054,-0.768652927491831,-0.5214942586490463,-3.5316828363656576,-3.4609456257006057,0.22101157214668668,-0.4231936523288619,-0.8679285567307062,0.35120832449108036,-0.6462376606154472,0.7078004730789215,-0.7112682108575521,-0.6409976349241221,-2.633759445970813,0.5028802269350189,0.5018052497375066,-0.31972275404370437,0.27882856747063517,0.828080679798044,-0.14899585439157734,0.30196455533754646,-0.4106241157356072,-1.2383807153509534,0.4421615667823183,0.6184084519104107,-0.815162886175149,-0.18464540047741343,-0.17016506236601417,0.877569289478521,-3.1498640017887816,-0.15543403304673434,-0.8385363084694348,-3.2485646023329955,-0.9402785296365078,-0.18244345747695762,-7.5214496506011645],[-0.8622783201134258,0.12245476034545083,-0.5265695023218051,-0.8478572529576579,0.10890195643411739,0.37289224928702014,0.062226967065522484,-0.17258754297485687,-0.5415550572280812,0.30870733782134496,-0.49292155962832923,-0.5634138184101121,-0.7709864389333734,0.2718240421205001,-0.973629652853793,-2.8390027122207124,-0.8353019752375301,0.10975962407405078,-0.37204556450279663,0.27649738548208536,-0.4024391144379985,0.29544869218933506,0.8018485187092994,0.07663495859623934,0.20532528065060418,0.8559750254523619,0.2934418552960481,0.5087832914991409,-0.8517437730974621,0.9526603781522117,-0.24684170995200425,0.3763069775387136,0.4415481668715911,-0.21882540357462088,0.61037508187067,0.031031336747541632,0.562915433227537,-0.19820100663543358,-0.6767000835140486,-0.4283967947568771,-0.8952737247802031,-0.45425573872327474,-0.2727003738688277,0.5681860287878591,-0.41614536966564314,1.4693883278403326,0.027626465211832978,-0.8629750674212243,0.9382453666687193,-0.6386461593176139,0.024777282802436698,-0.19530414260365367,0.39665302855591744,0.5366717810589626,0.6475909090533846,-0.47609989643939926,-1.5170894725978734,-2.918045800247008,-0.04569887237710954,0.16105445420466186,-0.34772244823624,-0.7257580475177344,0.022554487694840124,0.36593061623068573,-0.6308106280982057,0.5601858730891542,0.5207271198910867,-0.23587742527209965,0.9452470060071977,-0.8065731698660794,0.9446840154543018,0.30482531373853655,-0.17684055213186473,0.7121010651666139,0.2651022930117096,-0.27974914091071545,-0.941420681326518,-0.6005215671986225,-0.08782427379729159,-0.4082941781543397,0.4629731910830589,-0.648904004066086,-0.6628389906111612,-0.5229290451928549,2.837739108097664,-3.376291676138579,-0.2770369115684522,-0.31974344402371047,-5.466513390859312],[-0.21524932836519226,-0.502660395711047,0.308014165253616,-0.679124762225605,-0.9496210379296978,0.017834308145695792,-0.4225347813976877,1.8211470560409035,0.7193839490368595,0.15154460067085698,-0.9012126302747504,-0.6950900888393556,-0.3247010632143618,0.23727294290137257,-0.9511249002726916,-1.1662268268476648,0.002744738434403828,0.5415907527974578,1.1234221517861864,0.5352243337066541,-1.1963055369111302,0.10926315260187795,-0.00251045724271077,0.3011608630859044,-0.8645253092825154,-0.5108968372059579,-0.5226554069299456,-0.5659460849049649,-0.518531409960682,0.4271068923463025,0.7978371264183216,-1.0285400298991556,-0.9662936321453576,-0.4518533018697775,-0.28669856973402896,0.1811355177531899,-0.2571934134009279,-0.6134233692667088,0.11033605396406035,0.7971161121353295,0.3799807730362451,-0.34917372029283394,-0.7180801184834115,-0.5567954075260358,0.5746178610502793,-0.22276748130268906,-0.357892716797424,2.9027065239921654,0.24658495874040565,-0.2492358350673433,-0.6524636468545809,-0.8765757395437879,0.6147615069546989,0.08428976121401698,0.10568379675102234,-0.5584736298618561,-3.1109801958249643,-1.5371024374818463,0.15018104554548778,-0.23896190624219346,0.3147047636888141,-0.5144238687998153,0.19974027485600312,-0.31221070377337573,-0.31626658342043834,-0.054394549484468216,-0.49001964487635724,-0.7257985760936856,-1.0339593005517118,-0.24216015353996428,-0.026390291651405644,0.14575276289463235,0.4016966445812867,-0.26868865594532276,0.2882740622434233,-1.526072994673087,0.6263400508638775,-0.5238987732910705,0.36061710603625957,0.10360043427894737,-0.600472245283665,0.22216561454062148,-0.39095925569322043,-0.4325616272847123,0.8211385759888041,-1.0100768456403997,-0.4956645293454588,-0.42727390595621934,-3.7999699081687437],[-0.32222015585835817,-0.6713610268479449,0.10639713335390047,0.1763706364482029,0.2880650082157614,-0.9440799778573005,-0.6617907280034586,-0.6930613110316142,-0.15916244230171908,0.1494204896214619,-0.054772944692802125,0.9298722598630129,-0.6283906697700016,-0.2790189962029676,-0.03394872423727313,-2.7101728626238737,0.750868515688094,0.035288928757551956,-0.7630831908930192,0.6571010584049018,0.925597602434515,0.10481237010426292,-0.336342536921588,0.6800945182162841,0.44232530013628457,-0.4122003981755584,0.10332274702907755,-0.87753278379122,0.09426638999008799,-0.6376382958013748,0.07766251779576665,0.1250458146680904,0.2844509840321577,-0.777988082980684,-0.18315274171844617,0.2895695185367846,-0.9865553722967471,0.24289884992481572,-0.8200507749540783,0.7397029064771011,-0.06426653670382411,-0.9529666362480632,-0.7568266359232727,0.8634101199382003,0.5621780616384591,-0.877516494761689,-0.015579928606427113,0.3732874540874493,0.3256076656575543,0.5492809006606444,-0.28630410446486926,0.6640527976107363,-0.7433820088859385,0.38316784217431227,0.5847712678707138,-0.4651669882392982,-4.312508430711358,-3.2176234746536374,-0.7901615277775462,-0.5009286408542455,-0.3219423256739074,-0.7261757962153299,-0.468624071607032,0.4144668741914516,-0.21752762090435784,0.7221830471949239,-3.3619596188194367,0.8847030253204677,-0.6390372827742509,0.9120526072376013,0.1576282469720635,-0.32759165151048836,0.7531066437069944,0.7481486640657197,-0.4192557959284206,-0.061076174333965776,0.4898743243674673,-0.11510163645660611,-0.5641843487348063,-0.8497157893540418,-0.4275471783866979,0.18234586843760087,-3.084623864775115,0.416675828535859,0.6462751481443801,-2.609072682623356,-0.14608927251354945,-0.13951834745718406,-7.562936735367383],[-0.5311050251042926,0.29255012483663917,-0.697263623643971,-0.10381522843615942,0.6898666432808757,0.9178534059863378,-0.2753449509315936,-0.30695785763815225,0.14051042089829807,0.36173685314664955,0.5647387931920729,0.619903327730666,-0.4401029657729835,0.1710840553305739,-0.2589872240435661,-2.772045097688426,-0.10861676722841229,-0.4845911649742468,-0.3910962192419976,-0.352433366591905,-0.9618631605738969,0.8858226471644232,-0.5996342404100293,0.7560455346339596,0.43919721812928714,0.6592849058648856,-0.21851371405304285,0.8824883303492306,-0.8610831347539207,-0.19712526043905584,-0.8975864449469169,-0.44496115242735235,0.8898880313507955,-0.5798909919502573,-0.401573382256565,-0.3071182610004711,-0.9075409834329853,-0.11251391018600003,0.42824315415320297,-0.16330328666887023,0.8397627976190807,-0.2992689777628042,-0.11374462788815833,0.22268724018266367,0.14628588364321354,-0.5343008514192568,-0.43183794062036496,-0.9839172933286069,0.7573498190403367,0.352507721923448,0.08952906006966546,-0.48774351755079154,-0.2636567491347429,0.33502277328671887,0.15163414240640374,-0.5619445471652826,-3.8039237145602587,-2.6822820454632,0.8418444920293013,0.6352585973164411,0.5139877416695018,-0.14689207844289984,-0.3219866481713212,1.0766612534010516,-0.37399154684441693,-0.24971275174951188,-3.033720719693986,-0.7421536824541185,0.47453926954638875,-0.9742524782641669,0.5298643713466797,0.7855936681527149,0.14775036186515325,-0.03142463014702076,0.572064832441542,-1.3348399475091206,-0.7320535822280274,-0.8187271935021512,-0.06499265496782433,-0.5556015999137702,0.6246280716756194,-0.6942989016854936,-2.2651493552449606,0.41122684312946955,0.39626733581560464,-1.3755309424973945,-0.47877416516404775,0.4392935142474141,-7.249719088310827],[0.6006896870525097,0.28684349617885724,0.6790173116913086,-0.8147970991030609,0.4126206719998865,-0.6828075352503972,-0.029158278743940745,-0.770074466253156,0.1590858852603996,0.3579092018266975,0.016813238310284896,-0.44931489898389065,0.14763222479967075,0.3563455655503878,-0.6266639682843614,-0.10486573431275462,-0.2206889713176668,0.2647244271411656,0.8213709008048654,0.25962899984996274,-0.6216455437667884,0.13711944867769937,0.2689344486573818,1.2546225392265402,0.09881202865945012,0.14908776106540528,0.3836136542766132,0.7762901006720774,0.483600522513322,-0.5465717262657456,-0.41876157495384986,-0.6586432506912964,-0.002217751348558076,0.41311103696685353,-0.39931275436028346,0.2216205354996252,0.8675716113731134,-0.296530903965125,-0.21870835487363519,-0.03871572739770082,0.21849687298313386,0.410725479214213,0.7950183259954616,-0.26308413832542854,-0.5648999697712,-0.543218177968662,-0.13430311409190063,0.1755948990350858,0.7655959049512024,-0.22166475055606083,0.02782845379815199,3.017811840637721,0.881249632884041,-0.35002703177352856,0.3749797587914444,-0.8066587053164479,-5.9961841104227735,-0.24224534658764155,-0.5593188921126588,0.9274896135594741,0.09269462215400359,-0.16315543130707025,0.11141855582514947,-0.2787836804362727,0.5082394492508581,0.7250449688112177,-0.42979084817355023,-0.34393543637600166,-0.803706589748166,-0.5316610880564211,0.14778610790634422,0.49827008067679546,-0.6696599556293703,-0.9815986194472066,-0.25776592916428753,-0.6973563014999881,-0.4089809538712071,-0.22912777331832562,-0.835336584745246,0.9045022628144025,0.26438914728283236,0.4573206546848077,-0.44597740812276393,0.9697316989137335,0.7631152034959579,0.624804043352096,-0.9579221651961205,-0.02972821596087161,-6.914168673251277],[0.20038113005473626,-0.021800031229271002,0.16791051159252612,-0.22018824533823184,0.8532270999834632,0.9445158270089007,-0.5527390420873466,-0.07737123328360933,1.1535299317522154,0.48615771880333014,0.39377361156441565,-0.8111700930888575,-0.3173783889509457,-0.5285320082802875,0.23294767693101698,-1.2342741248845266,-0.2178704672160341,-0.5443682649636462,0.5996130656556716,0.7522632294484646,-0.9930776667561374,-0.4505845971265317,-0.17197980981015165,-0.25613199226264,-0.4200493636604772,0.49099872519798043,0.4477793898678183,-0.5505941305738599,0.602111934480487,-0.07873590427793127,0.47487301977364205,0.3198973459820202,-0.5718945569389454,0.3445829131685761,-0.26352911898124826,0.42429157340859674,-0.42471357136715016,-0.10876129292746918,-0.2828838763455698,0.043083274196189895,0.8944846743332013,-0.7448596529524965,0.30752092284206334,-0.135409105475586,-0.18610796950272798,0.5159907699606336,-0.5153780219003209,-0.2652712422570806,-0.10849445647432893,-0.02837124884997356,-0.8871661649484023,-0.6270740903627186,0.10915798315648297,0.1623812229151591,-0.5348099912392721,0.19220021429580342,-5.260344608232904,-1.0459737195837986,0.5312927659456175,-0.030574688039416823,0.6744265749894495,0.904881424014462,-0.2980704866131727,-0.2998799447223392,0.9242663059456864,-0.8013317094149269,-1.5482026381648744,0.6994098543324058,-0.020469955253805502,-0.20745081835243498,0.9420752142463259,-0.3539777869044667,-0.4482884734600901,-0.10217893839241816,0.48659678623472385,-0.4629448178746615,0.16387572508702522,1.1034639549205314,0.6440725910478559,-0.5412016424109151,-0.42225851353329463,-0.017408120957971698,-1.9881241818891324,0.6045839084535563,-0.429797782940809,-2.714590797328021,0.6105736499757517,-0.1739424341566708,-7.105402617423288],[0.0003616506551858134,-0.9642774852515664,-0.06000481028005257,0.15804976288096614,0.8955962860901318,