{"HiddenLayer":[0.0008764262508262837,0.002631220902352692,0.013230236191049068,0.02824727905692224,0.0001563228033985749,0.002642269166749568,7.209808457245173e-7,0.02193088947839856,0.033716228572838014,0.010100419919583433,0.013139697828732528,0.0029428600346444807,0.006029651841549468,0.021462037763325233,0.0004892268877107517,0.0000031988498555006302,0.014239620537923542,0.11629502379191897,0.0006674057940776563,0.0004248914176465363,0.003059204457493471,0.011591589616826232,0.0014803871663787882,0.003813477528925819,0.3667397418485824,0.11358852031912445,0.005016267882533512,0.000028870116367095538,0.18247115856205673,0.00019879283161641984,0.2553913270836991,0.025342092893840325,0.007527933306479439,0.006450018715106225,0.03526303391856017,0.0027809697009543973,0.11384142531865366,0.21319725247249052,0.0005515938998103084,0.0029571726219327047,0.001985580502920413,0.045886606488877324,0.0019371647446978257,0.10607852326675332,0.02107902073198556,0.014637691677634962,0.0035758357742090713,0.0024273328237190413,0.002668833290366133,0.0013565943396213506,1],"InputLayer":[0,0,0,0,0,0,0,0,0,0,0,0,0,0,0,0,0,0,0,0,0,0,0,0,0,0,0,0,0,0,0,0,0,0,0,0,0,0,0,0,1,0,0,0,0,0,0,0,0,0,0,0,0,0,0,0,0,0,0,0,0,0,0,0,0,0,0,0,0,0,0,0,0,0,0,0,1,0,0,0,0,0,0,0,0,0,1,0,0,0,0,0,1,0,0,0,0,0,1],"OutputLayer":[0.0018176588183912573,0.003526864875762342,-0.007734874591040011,0.001459723089473182,0.00531048658478861,0.0039935282268042,0.0004918282353028047,-0.0054483147351002716,0.007577984359515094,-0.004850622982366324,-0.005228126097028625,0.00146285672368901,-0.0012593756470413026,0.007218580887341654,1.0087967314204205,0.009439644088712257,0.0002895723901719105,0.015404277251911291,-0.007316139653719349,0.002027614572587641,-0.004464097234802629,0.013324594121270558,0.009287514096439818,-0.001819385813192756,0.005713966702262013,0.005444078300242128,0.0017530898349936899],"WeightHidden":[[0.0564605257556555,-0.2258990954403234,0.5673131658634376,-0.8334076988790704,-0.6337465177303268,0.968636673081607,-0.650843564966581,-0.8000421875956282,-0.9514434056209392,0.028647035596280703,-0.7889966666939904,1.0729614205541846,-2.8369126675506076,0.08738314281397369,0.5093210652433549,0.3896505201449183,-0.2048761113024772,-0.669300867932185,0.41823447859778884,-0.9304111246435269,0.2873008357356442,0.15357026979920985,0.9184405396119085,0.16331569381200195,0.41810895455672126,-0.8421343856547991,0.019650569485611464,-1.1983165746905766,-0.2535775111927557,-0.850836436422156,-0.10583511697310628,-0.7738033228658735,0.29441520001740185,0.21822982292147566,-0.136252372471699,-0.5971558992224754,0.22849868643163512,0.6870683034187075,-1.688671553973117,0.3528046394311783,-0.7778983355667823,-0.3383487528447874,0.8360263271384489,-0.643885415129116,0.1452659724638145,-0.3160149759096335,0.21546239401370187,-0.08793730258064243,-0.5535546886372268,0.8280052131102117,-0.8966890240284752,-0.5576289031480154,-0.6764581512205695,0.16811094096483847,2.371207361304138,0.12221644588952091,0.5406408074303289,0.861744146592011,0.54672136746165,1.1136023445964867,-0.6828875786870183,0.5006951925016584,0.004014348290745261,-0.8557827504805292,0.684863067469844,-0.19312951255829572,0.02161791248658096,0.07984988283015408,0.0749657227087256,0.38614771462288494,0.20024877402768967,-0.028642761416936644,0.6071568812013207,-0.4225188603593109,0.27613927403077193,1.2356975757958295,-1.3542155680929682,-0.7173558292017094,0.19553312878366336,-0.6569575594416601,-0.9223465442201035,-1.0047314368688454,-0.5269484921008948,0.15714619755480558,-0.1452354992051409,0.8521631577319143,0.8241324999140778,0.6533963353396107,-0.7073930439873537,-0.022513545456041548,-0.27503985437730577,0.6823721748094811,-0.3385148028951202,-1.0518296655528618,-0.6801741247772042,-0.59584415566127,-0.08435611466205176,0.7069415777987748,-5.392295619604612],[-0.5789224683470465,-1.0414242376403018,-0.5617116038710114,-1.078480006775179,-0.2579816196638877,1.247097395492735,-0.3360292453666735,-0.46044658181529474,0.3156023400823788,0.40213273002490296,0.1827032606491817,0.8175175254099276,-3.989739888091183,0.7155996850554001,0.47422659863399386,-0.17522881393177792,-0.7767905468430445,-0.7856428407837601,0.15418122593906713,1.0048021872306594,0.4226383966042767,-0.8055848911844699,0.3587251811946887,-0.8469864273450162,0.8033117501087896,-0.5647294074351812,0.08720954310886046,-0.8702693519267568,0.4474426746666383,0.1642367311642323,-0.8034389593036899,-0.7541738682510746,0.10026651735446741,-0.04193247020863484,-0.8283962601769262,0.970183124142189,0.24191969517993847,0.7602616909577415,-0.9499945047217873,-0.594108644147948,-0.3839590780887564,0.6276442506741533,0.47610256540122353,0.002156870652073992,0.21996676873713317,-0.9436374665104549,0.25711812851785976,-0.5957722283221253,-0.8503630174503372,1.1354939074925354,0.135001143531397,0.15724769741842953,-0.4774124362647619,-0.41889306894015105,1.6137376886337593,-0.41154078814272493,-0.029048835751475325,0.10040512390306326,-0.8727409806371178,-0.8763815340421512,0.6546417349028318,-0.77711792249518,0.6941358289522153,-0.21860485599495924,-0.7753997433167964,-0.39158823646479124,-0.012384374550287852,1.1073550870660682,0.6999666469397109,0.0031626711645018936,0.24665522396361028,-0.45507765820031665,0.2560493643135799,-0.5163309317824276,0.829523227620228,1.2987487372164472,-0.29094729407172554,-0.09546073858889272,0.880738443469359,0.190599827734845,0.21952190106565508,-0.36318801358931263,0.25990988530586523,0.6376476650369306,0.011562713523563995,1.9246510994446244,0.2405366875048737,-1.362850928839434,0.4198550192058429,0.25170627003023993,-0.7944661868730182,-0.6167946054101086,0.42746547251861167,-1.3010073362172625,0.14604113084109582,-1.741218767213543,1.0239266184320246,-0.05029744237742334,-5.930615618782436],[-0.35805090140785917,-0.9077196578029071,0.6514054448867842,0.6434708561221595,-0.41647215881931154,0.4776972727477283,-2.590657098862208,-0.9444401993276549,-0.10114101205984594,-0.7575075480475534,0.14716245657188007,0.1214295993247778,-2.5699130071620964,0.09774661252804136,0.9485115728190365,0.6813106914503558,-0.5252932293481568,0.6469216634637833,0.6299439111293543,0.6412136306674232,-0.41478612463602355,-0.8749245653972806,0.49717419150126235,0.7559622842671672,0.8020872215679147,0.2734229721396532,0.6864756434580623,-2.067045756712689,-0.02612359282535687,0.8455814779173704,0.8167926373946532,-0.8130488007665266,0.6600116038771996,-0.2507552426609926,-0.6372537686424036,1.2125475199801903,-0.6305782448800525,0.7320813593220985,-0.7365412458483789,0.29280206772194367,-0.021785406424256117,-0.23016170464885397,0.6233142793527187,0.014229255814871227,-0.6820784493899468,0.2647262488809927,0.45107481325977206,0.3155811380970125,0.5404634994328475,0.24028226781326814,0.3027750687706849,-0.0199717523892642,0.22666336326590977,-0.1767833137523719,-0.19503292528078428,-0.7326731401962991,-0.2402550367583695,0.37323012846311243,-0.03942990941865474,0.4212146785029121,-0.06254758826105924,-0.22736431770172355,0.22907224080524122,0.5800419426934125,0.13571160260619886,-3.7040082745736873,-0.20132769999388644,0.07127085741530043,-0.6417635787701409,0.13161279823085012,-0.3906743174924582,-0.030506269343203947,0.5227898287702125,0.39992529173365116,0.0031477320058098408,-0.2662684573847817,-0.058748152996033615,0.4615539403222318,-0.6624577966962546,0.12443461738437091,0.37678528838643005,0.8891338575134855,-0.11538557727838197,0.017428695936074833,0.5165375107141186,-0.5603534118994685,0.057239604521053984,0.23646290834386618,0.31166116581336023,-0.2708585238012656,-0.2732303718576266,0.38144862815166536,0.5189221939017518,-2.5821399341166433,-0.5202612175138096,-2.861667495011714,0.6225203194366943,0.03337495345556514,-4.8077056201978],[-0.32312960696235266,-0.47784239563275627,-0.8833163184346752,0.4472819483068121,0.3322774564790729,-0.10083619943773336,-1.9217530862099184,-0.5508293603296848,0.5067577627218174,0.7470885804837263,-0.727889794424521,0.38902399647376823,-1.8990222687725014,0.23462309068055967,-0.24207602259451594,-1.0300536030282184,-0.2335838157661159,-0.9096933552189165,0.944617257597015,-0.7638431116902028,0.28629736243468307,-0.08347395709578562,-0.6342157427007638,0.05181807483442803,-0.3594970241418757,-0.697280596621671,0.17506796361847843,-2.5734869544898964,0.45985882938709244,-0.655340255508273,-0.3660087599545158,-0.6734803398668164,0.29908162757820456,0.7854150965579247,0.052039946824976535,0.5154989574449832,0.12317490595638796,-1.0776522845535288,-0.02232849298623541,0.20303588582323046,-0.22930342082998686,-0.8196126416935267,-0.8626743097674665,0.10368469751804155,-0.13401277215823224,-0.5484323856099702,-0.805229743436916,0.4832204967243922,-0.8961070143772375,-0.3524114207796539,-0.10156008873951827,0.599645543630452,0.9764280084955794,-0.18579806250709996,-0.2029204299360523,-0.029992336821384264,-0.6385526860529778,1.1108691590227613,-0.4478645537834785,0.3428718763966873,-0.6330272534331067,0.04881662007562423,-0.7194997314145968,0.7345301884352733,-0.8777580393387332,-1.7849035657729595,0.5812339245284706,0.958348435273548,0.20396486472954845,-0.6402572766972161,0.4141513567000016,-0.4010497636666312,-0.5246524886341513,-0.4589767614215581,-0.8584519166160768,0.4727132892719016,0.6306447893379824,-0.30065054757643617,-0.8354474066684734,0.05938348213254022,0.7474972364410112,-0.2157754036948272,0.2090978992227863,-0.24591639366869444,-0.9502591045095526,0.26156723462301296,0.5616954352669052,-0.8667983110908349,-0.36292486059083345,-0.13611561286943386,0.09267120146776804,0.5819898902734532,-0.30256932229030487,-1.7250661978634712,0.16713299949870428,-2.03032382067414,0.1957574293812553,-0.5733162360180407,-4.198173845245134],[0.3540130487385165,0.6082908241547234,0.8118099891200009,-0.31977228499665156,-0.8226494599266837,-0.5678832728075616,-1.040555524502196,0.746665306517548,-0.12765360274006615,0.7266441201459659,-0.7242318797415046,0.991342817227289,-7.3479502720191014,-0.2903572395539231,-0.7091246920593511,-0.6205969554990607,3.111132212480906,-1.0838499671769042,0.06418827632780258,-1.4518246177749552,0.36915756314609577,-0.9279208991088106,-0.10678853676505541,-0.4123249780119533,-0.87319070904915,0.8795208306000447,-0.5276286294866043,-0.4275915183112297,0.6871572147663298,0.7770153956078485,0.4322848787287753,-0.2514138496634391,0.14404133248087736,0.6051808566670057,0.22574812087065155,-0.6528012462424879,-0.14404592844960729,0.07469955713973069,-1.1412754262201263,0.09389645861193267,-0.7649496518377662,-1.3214071274931283,-0.2913435341578942,-0.30899563082077297,0.6467284997889183,0.8164570670661649,0.18492997576753248,0.5179230434035565,-0.4903931228103006,-0.830493539357814,0.5893572045615377,-0.16489847869661975,-0.07882402647853924,0.6364011588944752,0.7888344940529237,-0.9782027060147229,-0.7083909691394901,-0.25425843832553685,-0.49608363741393774,0.8569068156877365,-0.8728838666797939,-0.9222014614154659,-0.7367069226414872,-0.7695143364405711,-0.9610267473811469,1.8542225101689092,0.8861387837247579,-0.38637125049450916,0.7743031921162533,-0.6199476539776949,0.5441727902561114,0.3550160811374646,0.9901657494211433,0.4447503581553956,-0.20585888928219573,-0.7659584196370645,0.5166218253130522,0.5134893665393888,-0.1879359784934917,0.7541428608893785,-0.1715665233985559,0.4991890974484595,-0.02933130522573134,-0.6744978039531793,-0.11849501735916432,-0.5917991141793436,-0.5282367638024957,-0.6463448389481574,0.4061765531430006,-0.9739527005709547,-0.07267667986075492,-0.7722561704724199,-0.008404337423062916,0.9461345962075299,-0.2912577102046386,1.9028025068882413,-0.6301006946867348,-0.3191264882655821,-7.978460137125571],[0.009137056525604809,0.3774346768961495,-0.6085377178515577,-0.6273584649056246,-0.19236319759018392,-0.5157382604212881,-0.924956977448513,0.8123409359968793,-0.9926687106618522,-0.7801115548146441,0.3944612699557861,0.4023769931959787,-2.9217384856679804,0.9085638719035718,0.1574483462163149,-0.044987967591303774,-0.5811916202139088,0.05546394779425422,0.5032767835072958,-1.2419384682256458,0.8752676985001804,-0.13845948471222472,0.14369412033974024,0.43924397671593224,-0.513158843941253,0.2192852253120652,0.24007146935906687,-0.829419945147726,0.18141601630667037,0.625988263097124,-0.23866611655785558,-0.7214395535311164,0.5704637952605833,0.03834613536452309,-0.800767260134975,0.25799719177058644,-0.942768715906479,0.0699174639807465,-0.11521584207149603,0.1257160721856672,0.7442449899740368,-1.2269494142015223,0.7274697466327329,-0.21941620650838795,0.14838422261817752,0.8375534124889176,-0.03541046127297125,0.0890173145512547,-0.8608274337252285,0.09533410840842228,0.0903975980687035,-0.7674617754019618,0.15675934801796745,-0.3632898258357435,0.3981712669727059,-0.9460085382609885,-0.8750450709067247,0.382347723266561,0.9623393717907965,0.920496722893563,0.5058128438682337,0.9290258239243337,-0.39314780661714277,-0.1955582684878017,-0.752327587478344,-0.9916619668172879,0.4125155102953687,-0.16414386196284317,-0.919099477957557,-0.04593061985189264,0.1600761348857012,-0.8259837603402133,0.0022802891065204422,-0.6595676750111416,-0.6696725782686181,-0.03699261621672195,-0.07261802933346993,-0.5356445812601505,0.6551167736578394,0.37070259464580774,0.9917716946169503,0.036917778267123474,-0.25584420947206765,-0.8713611516666965,-0.8814189458680738,-0.3510956567062701,-0.8519588591339845,0.4076865141373594,-0.3404303206720108,0.6092457732216047,-1.2511865186587905,0.9883879325657512,-0.28521288931969424,-0.3704259165533766,-0.6147806356996236,-0.42424955612217274,0.35970534567370865,-0.5961932200149888,-5.467967478497484],[-0.43231699909180843,0.5471037303762664,0.7843320471212057,0.18971324971005704,-0.14802183931713525,-0.18826963612066,1.1609568680057882,0.0369002054128869,-0.5013734574002229,0.09376035073718042,-0.825742289857716,-0.1363521621774649,-12.208174683689599,0.07212649811730328,-0.4719969959004888,-0.08228320379789007,-0.3831490146697586,-0.2802229999301035,0.6923606984833882,-0.7622372477134384,0.09630917721580588,-0.4952599297366414,0.4283898635038992,0.6611683493257895,0.9075573029086943,-0.6690734224145575,0.9798756517458316,1.0143029286582597,0.46542883215100894,0.25363178416700966,0.4132863698941611,-0.49979848780013264,0.241825904831438,0.10226332651526368,0.6948863642681006,0.40860341047030063,0.6631156503281671,-0.6134074996350743,-0.9222378594779798,-0.3537945531944165,-0.061766997164744895,-1.0383972859734087,0.8491039936105601,0.03951694405152636,0.3301952312400731,0.7760443870187108,-0.4263010871313475,0.39482762620658346,-0.3009768270815565,-0.9191815474448639,0.8218081498320688,0.6980569031719507,0.22005984015946467,-0.20558043871009815,0.7681737810907422,0.150684701782663,-0.8996825023139656,-0.7140437710789769,-0.8189385135335269,-0.45202894425367357,-0.028940487590275347,-0.6247900709541226,0.7427298085434909,-0.8125690298692507,0.13253018646741502,0.5785042978970664,-0.754083474873372,0.5322944995871259,-0.7469936594486941,-0.25665825944690623,0.3659077146854702,-0.16148979657964316,-0.3115388762863424,-0.3808531877345748,-0.9433600226943925,-0.6849595084556178,0.36977360302451057,0.6997247641541128,-0.6263825978322073,0.15820242588429445,0.5172816365933237,0.8148144868568246,0.12965567566779013,-0.924336958359175,-0.34994242972934075,0.8890782967128781,-0.4240272361026767,0.20256034275611048,-0.33995515866375875,-0.304196668076088,-0.7167117644116698,-0.29214047090562306,-0.33367461981215674,0.5136585514889395,-0.841673023866412,1.3191572235192175,-0.19134796543595622,0.7180255074342067,-13.692957297671677],[0.3297368784977235,0.07779730788936749,0.027940860643737634,-0.36054630615725125,0.993295627976857,-0.23648266512399388,-3.336307751565048,0.27670046499007844,1.5123515606553897,-0.023278380670291164,0.3677499243079031,-0.9664804100598502,-1.0592748070006428,0.7963409982268603,-0.6313258034526632,0.1529324751816588,-0.6755552885527759,-0.01382494728861833,-0.3689206621712905,0.4168558492877769,-0.5795350032317232,0.22432962487353414,0.33254503700790333,-0.3635163731479715,-0.5031884144519019,0.30378573313610335,0.027142157973293463,-2.8661326964911447,-1.3548868558580753,-0.2593477372185165,-0.8982959332875857,0.15412437160294798,-0.684094470701093,-1.0845647715353939,-0.3922361892351288,0.8250224819735898,-0.5940296676544772,0.4525716047223634,-0.1392132232440956,0.8098337719491587,0.32845195943204836,1.446762906242565,-0.07090159278971896,-0.1821454769744886,-0.8066826667200971,0.5052675370707114,-0.03554834362623097,0.4470900433896503,-0.3641611786172445,-0.047406214514976924,-0.22177137983380235,-0.5473460292538526,-0.8475468977057937,1.9394076920165457,-0.560493768841289,-0.10430050423864126,0.08401156999573195,-0.0244011634468359,0.06609637555105094,0.3622476431631688,-0.29184283296955893,-0.057502600127271826,-0.5229601228950712,0.5139251146862803,-0.03550189540245081,-2.819103414025146,-1.1991694206321153,0.5630340930677366,1.1052284942956832,-0.31169596413101325,0.8285155440203622,0.8633373908040022,-0.5215233980807795,-0.11732672075547097,-0.3227566025533969,-0.17841043654812294,-0.7246667107628161,-0.5562596390700784,-0.740052543353924,-0.9224150132187392,-0.7241223313421185,-0.6185015349168497,-0.3856006998462162,0.2548339382076545,-0.2358692030263889,-0.8299943175580107,0.7648483032785021,-0.3413102183759307,0.43737990000878085,-0.1504328151886903,-0.23869996487370795,0.628519541379332,-1.0973554440272957,-2.574369230319454,0.8994060322989894,-2.1634361861174605,0.4383441275834728,-0.8299082134023618,-3.068716844316662],[0.6295424754072911,0.18589432989187768,-0.4780926476815772,-0.6896675423459878,0.038191276665604255,-1.1528339777354601,-3.493896802909586,0.5438098307338091,0.09323179765656688,0.5243001316600968,-0.719493783031124,-1.1252018231124492,-1.2517122063944286,1.0959400713382876,0.5022811662738769,0.49932396109151955,0.27287641441075217,-0.26560776139717457,0.17279320689769773,1.2220548320554383,0.2939948453145378,0.1481391300507389,-0.05771521384034712,-0.8391289642548073,-0.1446198264313962,0.23362422697352897,-0.5119518725980278,-3.602812412651627,-0.44090436604093924,-0.35948504597827874,-0.006995155941094964,0.3712689366013538,-0.7102432273744997,0.7300622689763067,-0.9691855373918062,0.3160963548855839,-0.13453119316432582,0.7156881469849564,-0.75574822936329,-0.3135781944712102,0.7157762090700033,-0.4995394584803962,-0.2713065194158727,0.02098365781973037,-0.7006620327723325,-0.7610198738475024,1.0664076896332604,-0.4003046659008268,0.056762193011568395,-0.29184818519968214,0.7990789952949395,-0.7300106220713638,-0.50409312601184,1.3921443549434926,-0.10782759496757365,-0.06738616858312783,-0.011675681090393275,0.1879509249420293,-0.977218976842642,-0.9622657439079896,0.05928663050194905,-0.6116662233565415,0.45522727475467856,-0.3554438342300975,0.4564929258445551,-2.3055791697804238,0.3459069256419667,-0.3530630854486213,-0.2984616402676175,-0.8794263879786088,-0.8522074447065842,-0.7849454774074017,0.2196971923560582,0.20655916431949176,0.5483655887280515,0.5817172336227272,0.658183328689322,0.4890319745228609,-0.0038652449994826263,0.7307209540582457,0.7528077373069618,-0.8180771444682488,-0.7243771734682335,0.052971170763023954,-0.8450553850908644,0.5973249678219565,-1.0851677303838334,-0.45025806599466806,0.7632599368044275,-0.856515424838068,0.11832153998480503,-0.26792311108500577,0.1414285124514809,-2.614644330814008,-0.37050292619371805,-1.7455910529481937,1.1854021906675216,0.0630862511033894,-3.786492936099625],[0.26623601099502003,-0.5867286785504067,1.0203317213663627,-0.7607303601006423,-0.15638358855231194,-0.7583850772763142,-0.26875474388719717,0.47482981889667464,0.2886711942779559,-0.9511770626852117,0.13200630403542274,-0.8136483511391126,-2.4380168995554765,-0.10925005060961812,0.2479569058156282,-0.13065768208204895,-1.3067113068663365,1.480789745442201,-0.5689598336960351,-1.115534733508656,-0.7800166426904714,-0.3104823646266682,0.8167044075089206,0.3191134326918088,-0.9349047239679371,-0.6976042326178844,0.22661514366634086,-0.17963622409418387,0.8397657447704103,1.17816393325455,0.110009644179393,-0.07478372049604168,-0.9369380226195596,0.044949766141016964,0.28010348572724664,-0.15038952739985026,-0.8692992517427206,-0.2602612135191717,0.6402371282812973,-0.16696528208919278,0.5603200131855167,-0.48458865291289466,-0.06381334296123198,-0.947220331498062,-0.2632769999461573,0.8833246590571003,0.018080451759051507,1.3250899007605657,0.6562479949193193,-0.9175597273737677,-0.9016079853885628,0.7373196773422549,-0.16599514849028285,-1.0031137406613757,-0.25793765749560904,-0.49093063055833436,-0.11734074718262255,-0.3063324097814824,1.010159337177632,-0.23452586465846967,-0.8467438486968136,-0.9081329163563977,0.2984791703766014,-0.9268533905399585,0.014830247111851248,-0.8537986451969319,-0.08141329565210832,0.727046162559479,1.0411643627346308,0.1785969062603272,-0.06587958723079734,-0.3558275925573123,-0.25716028339691915,-0.6159276284699876,-0.05627880823796217,-0.8078209758670337,-0.3936079619940293,-0.33240848708250353,-0.268199000765091,-0.15978150028032626,0.638902198335448,0.10239137919183817,-0.8229130623273505,-0.051153031252340844,0.2899401834388692,-0.39857121050807043,-0.39668208902283036,0.8520308211022971,-0.2842377386867335,-0.7832391762454766,-1.2878439761909417,-0.20859371650822198,0.04317531747244271,-0.09822962035729624,0.48797817185580344,1.5479947184580627,-1.1522698402285168,-0.48971444847921874,-4.398668913481881],[0.35160900240480736,0.6859539347324645,-0.3754300952449816,0.38259067304342487,0.010606171195310196,0.38877110238492824,-2.5519663049545556,-0.6935910551601361,0.3043230758629871,0.3497120555474565,1.3916936053438662,0.5498240026983005,0.1302772343987914,0.9661130072417502,-0.7199444392154907,-0.5513914946516594,-0.8383248662065814,0.6923693281647296,-0.45916981007683055,1.2931956767128918,0.5606063349993483,-0.9454838993787231,-0.41992800778411726,0.8732786512046585,-0.7210395813862744,-0.22803554732086637,0.20204089974386974,-3.188003969329734,-0.2773161192513795,-0.39122423119092925,-0.6909131639745807,-0.7373782213850735,-0.11763612750335309,-0.4145161685124819,0.13237390784420955,0.3431999047774346,0.9989037391054032,-0.5220753326123532,-0.19727527722012606,1.5751942711436375,-0.2777703135490556,-0.1832594623240599,0.8691332130824003,0.720317662417568,-0.7999775718023795,1.1322879289804753,0.3566660151249693,-0.1631224055837467,0.33978414820870767,-0.3851453557917114,0.26363824643437134,0.04113971580011232,0.12115746857749385,-0.6931734812774023,-0.9679715304200908,-0.28588756139391674,0.12035705850167795,-1.0087214050245263,-0.36070977991391506,-0.18251386067511527,-0.5861574992395399,0.23910362800239948,-0.8600734041703447,0.3758324690292346,-0.8361588286705276,-3.2840628997347716,0.44560630174153665,0.4847882625328006,-1.0644017028582675,-0.22162282799135974,-0.5388692622528185,0.6389488100322883,0.013688538580605963,-0.6342998007204943,0.6362441065399836,-0.7259476630003222,-0.39658671423785247,0.15736054839835917,0.9659010272080547,1.0690512765754583,-0.1542490371357433,-0.5398513610078479,0.37657788239343226,-0.20382374887469573,-0.055332597033373794,-1.0651255539632238,0.6981099878990576,-0.44089186675537206,0.3780986508092641,0.25109819801123473,1.53266766093437,-0.8783702520529059,-0.8282274143950423,-1.753579019122923,0.27768467723220125,-3.570586991287602,1.011322114349568,-0.45287347375533504,-3.5144601497520225],[0.7882983585996437,0.7374675805294313,0.7794580657509066,-0.8014625909757154,-0.6281153464050458,0.06359100527742353,-0.8330341294848703,0.3666732292943698,-0.3079130880943793,0.5936924411630121,-0.267078856897541,-0.9382019546654263,-1.4202621481197761,-0.24041346077140152,1.0245122775688538,-0.13715634499904583,-0.6525074342560716,0.11834575434425965,-0.015242456147417252,0.26028098329257343,-0.8996866501758807,-0.718086743621953,-0.9952551190247074,-0.9653339209303501,-0.30177061803288374,-0.21131906238429482,0.22679163640639854,-1.327326714607046,1.7042212501183123,1.257539379148777,1.1748922159702084,-0.44866050534427965,-0.051588559272128715,0.10536138278807397,-0.15315505488511758,0.2958450145594098,0.06465792822480183,-0.15262724946818376,-0.24905503086629313,0.649449434093203,-0.5212988273705071,-0.6391731331454598,0.03721338742673391,0.4479846100637984,0.08916717791451233,0.5092401168253292,-0.19250830492392398,-0.41533774869418255,-0.4686638483207263,0.511116400550098,-0.36605911577039835,0.1583104909850137,-0.4594620096868622,-0.36283495415847267,0.48436867471219525,0.28025409976962756,-0.4306495604151408,0.42321093547317007,-0.7673270513391021,-0.8542885711630732,-0.17948057618768348,0.7200103790701122,0.5064028549239428,0.8183463803862331,-0.8881800201543967,-1.4593376618373695,-0.17552689912195443,-0.6285304119527441,0.9629824417802576,-0.0873176926590701,0.980476761221667,0.913175702163061,0.4808780495522392,-0.5934058066971873,-0.8984689792121726,0.9164295263562063,-0.3169433958897659,-0.8785523298857111,-0.10973495773011088,-0.9864884224924114,0.6375802878705663,0.4559703835841103,-0.3754457831964435,-0.24264455979017152,-0.8236391867405561,-0.6465138663639313,-0.4607966391971045,0.6251462092076963,1.203253787362447,-0.4712967861296444,0.10737924288820491,-0.7376245390175477,0.05453109725804207,-2.3523968502814876,0.330174443555257,-1.6729170265532984,-0.05404674469714886,-0.39805717613597286,-4.5808344831922],[0.01226137793646315,0.5081893373934415,-1.6043858904972228,-0.9126453112543325,0.7999684045924175,-0.1559056137178684,-2.3977526697307674,-0.9990649658623677,-0.1388383814762112,0.00481082714711102,0.5759698659155398,0.37832287406382686,-2.4422895887794267,-0.27167552473015694,0.27073484401322423,0.24483547004253745,-0.11766835957190083,0.5867585095378897,0.4068957225011709,0.602477022618269,0.8168395847445614,-0.2748297894001604,-0.9739498217257405,-0.9082970109775436,1.1965995995310437,0.2550740089418523,0.19322511537195242,-2.6027638446421673,1.3318700773640135,-0.9963797197323897,1.1821794327383552,-0.33046862690620177,1.6566032015370054,1.6402944884181128,-0.8798675573119085,-0.7717123892335322,0.38111655380730264,1.324943586143742,0.17981442194813302,-0.30972049900761367,-0.7412015410171681,0.6630686160808313,-0.21265561341700157,-0.046229609217495735,-0.5528381746493317,-0.05223646116882326,0.38898991361789387,-0.276904846505027,-0.9530806232059613,0.137150501820964,-0.266165829028104,-0.304390247748875,-0.0799790918303406,-0.34479109445396916,-0.0684132578872288,-0.6798775200920106,-0.6602704454355974,-1.0486664462650077,0.9361500085516148,0.43886974099871107,-0.21344346288779764,-0.6577938608355905,-0.4254527871769611,0.608883935118716,-1.0178947783310686,-1.5791995287170386,0.37145641310643185,-0.575391645630259,0.3136866594013061,-0.06844941716374232,0.5678522790662421,0.5618348165690643,0.1927584521859444,0.15692838978671309,0.21404044819298468,0.3780930398744146,0.22159248037297474,0.7827555950193499,-0.38082448872098523,0.1334120437786481,-0.24206596724947263,-0.039128562309686844,0.0003157436887328807,-0.06758684019436356,-0.7676429753237972,-1.179883320239908,-1.0313483640863796,-0.5991421286037335,-0.14106075969330595,-0.9414850344824278,-0.45137371468996085,-0.7351586510821928,-1.317082868970406,-2.0117993883759997,0.36609718382231715,-1.5193561366806287,-0.7955960399152544,0.8609028738063228,-2.2367842065545913],[0.07699025764851837,-0.8608673457459578,-1.0494444117241761,0.6887565037002704,0.7017331209037884,0.6689933003791755,-2.1332239763639445,0.375394031238419,-1.271984123295852,-0.8788963224486416,-0.35882106613170317,-0.30277430886683304,-1.15587343498686,0.04191312825189414,0.32264089187885203,-0.8534189101463869,-0.8391015862042742,0.3333721521461641,0.8204617947601275,-0.1948107669486518,0.5415599378781174,0.06899693618845233,-0.7712492360565015,0.9419815145017905,0.8242673243344747,-0.1663957589854928,-0.4568935010455776,-1.8313755525941657,0.09975344948770397,0.04319343986788532,0.6041170633573275,0.39922162598866373,-0.5113947130802411,-0.3981900544101622,0.7705769217347993,-0.3676894858070718,-0.7402523044562215,-0.19444209986342342,-0.073631340494995,0.015092423807444693,-0.1007738560649465,-0.7294020911885234,0.44403853480250827,0.6644763050962725,-0.43518914208435,0.441285966392305,-0.8454195315739473,-0.1164841134662254,0.2902727410194232,-0.8888982740976528,-0.10808817369620909,-0.2633536037305962,-0.029796780107692752,-1.1787201633022066,-0.06888253697336962,-0.6747423463053766,-0.24555764305989403,-0.9218962899466553,0.41766187744970695,1.533101315717274,-0.6876517893779318,0.12425778053113284,-0.5424651405972908,0.343164263401879,1.9601613127174269,-2.0369999231516123,0.11025526627648356,-1.0192896721074385,1.4364949320222058,0.22155151152278765,-0.5831674304732016,-0.24525389137994072,-0.5070834928695438,0.4354891717920578,0.01696113940295506,-0.7221371129413109,0.15751303551032514,-0.3998590341140111,-0.1655340127251443,-0.2961308623235863,-0.2503936941061498,0.3695638005668248,-0.7697053959300401,-0.42203023090955294,0.1477886874521641,-0.04033865095415488,-0.3644321841018078,-0.4305084735384272,-0.1815401837597325,-0.4104988236446717,0.28316308074489716,-0.3870636921701674,-0.377922400282159,-2.187046336856512,-1.1558314515929886,-2.5963348876865835,0.509894247555108,0.12114517067770171,-3.1338789844084722],[-0.3941280981184227,-0.6330930677302443,-0.16234869796239837,-0.17069866537304948,0.620454358503209,0.27487703089883253,-1.1011869098947555,0.30343422983871615,-0.08746931197813637,-0.39435397574323156,0.6144531851641869,0.5506036860469,-5.356893911245279,-0.1590341483617095,0.8630948380139721,-0.48520989378980006,-0.28078494167020057,0.9689498039039482,0.25208003653024397,0.9061816415700968,-0.23156559296486975,-0.8161759779761498,-0.003992700636823057,-0.26455447195230686,-0.3559882624896337,0.6855605517120649,-0.8524119017463313,-2.2526467945035544,0.4649342327520963,-0.6538550588227489,-0.4873047281567373,-0.5949758736054518,-0.30513898647387955,-0.4504455117548816,0.13621261563577344,0.23718417960024285,0.43746807463449705,-0.04703386137418405,-0.16209170728265324,-0.7618574563304829,-0.8038029350130332,-0.7986387778014896,-0.978746959028072,0.5074086317122973,0.5025067863597836,0.44013935382117075,0.7377967506231939,0.7335190129886283,0.08091280687898351,0.5330646425934931,0.7167433594445001,-0.6081784348906061,0.5925281027413073,-0.8216588242512068,0.08072780786685704,-0.25874461997290904,-0.6320176410644822,0.756575997595038,0.07972710173013378,-0.45735694140789934,-0.2700283616922453,0.7378517937601494,0.3348106505589384,0.8118947333935688,0.8957889724661965,-1.7315480393036147,-0.17895600419797525,-0.02182005944823122,0.6741822358022116,0.1923437324281933,-0.28953049835472483,0.01749369959035875,0.3054982322409453,-0.9672726158140366,-0.28628636080556963,0.7855921890651697,-0.5672793936402017,0.817872512074178,0.5093623414115284,0.21072334539038276,-0.8414234222457165,0.45256873175523077,-0.7074250185367202,-0.0879015470049467,0.6020962373775105,-0.778147399746902,-0.18885289222190824,-0.7939429539910225,0.37388648466563285,-0.47643579315535567,-0.3670477855988956,-0.7566283009970612,0.38363275114982287,-1.5957612998934607,1.0007124630059223,-2.890258998228157,0.6407246301688354,-0.833246227275835,-6.445896790861977],[-0.3230945512947763,-0.5637327879222794,-0.057855755470519916,-0.562227226027301,0.898347494524401,0.7726607255397524,-0.2931314468645171,-0.8128708052037664,-0.9192217841903371,0.7698711514639289,0.9945268182484753,0.12285012541505982,-9.275998176870626,0.22074645748423244,0.8399515777044171,-0.9945957429967851,-0.5044030073013883,-0.625246436548774,0.0821343666132525,-0.7154952058462908,0.9353778653557602,-0.554196503614458,0.07879983017409123,0.8061182066720808,-0.7589220815924113,0.4572326883288046,-0.8961433214631128,0.06645644116978278,-0.5514710665617978,-0.5946398894885123,-0.3649892225862891,0.0726033444845293,-0.1934169888068779,-0.26386248412870084,0.07814343080424654,-0.9870526855878211,-0.4953406342655343,-0.7228597590194263,-0.25080386648081404,0.19499499345407598,0.18926727166374785,-0.21350155088404724,-0.46914987321834745,-0.7757596900960225,-0.8575731387754408,-0.3972676413905881,0.749989350818246,-0.3322188124555726,-0.9417159074222683,0.5614081514447266,0.9391589384535336,0.11252259605429703,-0.06376182312986982,0.002166333773000876,0.6234908952765431,0.8940671831939999,0.06546073229370263,-0.8528906914606705,-0.2920517639201849,-0.9407117355138493,-0.8439927007353194,0.8082686954139833,-0.8327705183751289,-0.052406958678694764,0.2708776575951909,-0.6753399309081225,0.09569049954809525,0.2508374120945751,-0.8173726916139643,0.8291894144414425,-0.9658223794401466,-0.5359297169046859,0.2266608923156856,0.3302821403259838,0.7788113804899909,-0.6393821416428991,-1.0744863361263988,-0.27406022226896704,0.5960421322580849,-0.6784550456367267,0.6702995125393295,0.04777174367059208,-0.08468907480390411,0.9860075636956668,-0.19525411525449873,-0.02725564383814286,-0.2562821982184518,0.13834136347602205,-0.19342461744454545,-0.8849994930374122,0.3179653453694298,-0.1089906750116266,-0.8037227187541071,-0.7658362445048283,0.9540780774401504,0.3149589137406459,-1.001912178357869,0.848919809907269,-10.707491972130992],[-0.8042428939864942,-0.7861262452206917,-0.6285856732351252,1.1019811642164399,0.07687683154335527,1.3193919720051712,-2.741483473772672,0.23901142123126676,0.4674282959897071,-0.22735522099991365,-0.5678841445936886,0.6972324315152522,-0.024777740986461076,-0.26064856772688366,-0.13424707562159222,-0.19103708937819394,-0.9692207155370558,0.6345865854215089,-0.9397993679579685,-0.45671422545417173,0.19897328206359258,0.032452125854655206,0.21498631370403778,0.9753695004690245,-0.03794179027816194,0.47162304177887243,-0.7070140440135849,-3.334360773925726,-0.7266807320541336,-1.0424954724052387,-0.4521866822154678,0.5245895242354682,0.6082955957725601,0.7207803551827838,0.8029134664222864,-1.2491756889818568,-0.5002163420803468,0.437897628988098,-0.07853768557685063,0.3433774326037365,-0.3687608225553232,1.1810059214464317,-0.5408584951702231,-0.13170328913252163,-0.4894697554763903,0.6072892238109442,-0.01034108615054843,0.21113011499026693,-0.766131758566681,-0.2399740005481535,0.38865070127892326,-0.23961979588222412,-0.16980117985107568,0.8251158165742658,-0.12875906722525787,0.07138844628623701,0.6387078175764165,0.06830356856683513,-0.9769047702137569,0.4057082807461226,-0.5491048183491553,0.6703178829860122,0.3938375989874435,-0.38281987869358647,-0.6626604219734227,-3.184651405318346,-0.508835300018287,0.2146376026115527,0.8531586824448025,-0.8701185394475506,-0.8569265180863744,0.735619574287904,-0.758747406214658,0.07317333085177842,-0.8235028936621164,-0.13668307945534225,-0.5258713467573577,-0.24565291150822705,0.40296303764990976,0.31247087577066435,-0.21884070532925404,1.8066484070159288,-0.3785069150739441,0.12784262827896348,-0.6232346464331486,0.1477778315333048,0.8624662042860287,-0.18498665730161257,0.26871278482823063,0.6676862896215622,0.3381164791068918,-0.33595007021859946,-0.40749483362836875,-4.434898387492516,1.0264229662984108,-3.8383333676150917,-0.30745996557043753,0.6679731961124841,-3.797957916639778],[-1.2363248345341542,0.38657507603778046,0.6498068068383722,0.5435179652954568,0.7637134889558982,-0.2280963735184281,-0.6166477160740376,-0.2907410269527084,-0.8042608933471762,-0.19068915743105724,-1.0419613875910962,0.040031332032651364,-0.11847353153350532,-1.2198038628703067,1.3308198576959656,-0.2025458142485722,-0.6608509879310571,-0.7711851296431107,0.5612508814467497,0.34774608388224537,0.4841081119784933,-0.5351931353653825,0.0662015665822698,-0.17685317276652096,-1.6117257851730071,0.5457207255180219,-0.30109513062661397,-1.3358819321215272,-0.6677371224856041,-0.13763483137391969,-1.9601736930924618,0.5426749967505364,1.35720001109013,1.3277568835003157,-0.9096493313365993,0.6287194606903512,-0.28985897018590356,0.2068995205683889,-0.9725659643778416,0.015123897925602562,0.523403484542403,0.6359756278568071,-0.5551528776121761,0.15361551728459066,-0.7327268642049382,-0.26511898172620424,1.9800143678062017,0.7976976959741006,0.07183743026460865,0.20476873407187307,0.7705665670088976,-0.07976687026566834,-0.7077624761027262,-1.677255978974458,-0.7376124458499663,-0.6983928160565838,-0.11277733481819435,-0.14469025213737285,0.904880551131466,-0.7629746078335453,-0.6743191219921626,0.26398207360322734,-0.4011102764455875,-0.005693603559356586,0.0012071180285008751,-0.8769834831694704,1.1103673133664413,0.9498950524871647,-0.06038103726164883,-0.8413762220664041,0.2093230803554494,-0.22346845091109066,0.16008244832335797,0.3037380367912029,-0.05376948245609472,-1.1468070239109933,-0.5289488751745777,0.49174005650096125,0.36034459430769206,0.10304166497286553,-0.9629087692769861,0.1184188817628119,-0.11426632169841962,0.6117981082684733,0.7357876171903894,-0.04113845681577168,0.3908984907127477,-1.2820988733921366,-0.09128814272774326,-0.4738145223507447,-0.6494042209641605,0.2633910327873815,-0.6096926269979652,-0.8419927180958545,-0.353790231111964,-1.8505116603982403,0.34258645243562186,0.8192044076237565,-1.8043353203290653],[-0.2302601171896878,0.547992949963859,0.8180898336113542,-0.8496833683325431,0.8839717790494208,-0.48224997933780156,0.6203961067149916,0.38388464869857775,-0.8428813142111543,0.7198967043184614,-0.655432773895132,-0.3622937474407991,-6.473445727175987,-0.38761353484632244,-0.39915467605052013,0.5631373882421566,0.08544315753871153,0.09661679614374669,1.0114506915479213,-0.2983516565301274,-0.7013842673787296,0.14573131792681196,0.03068619649419659,0.7072760193929367,0.3932432178845113,-0.6725516507983214,0.4928893470315652,-0.1355347303742486,-0.9534377535073908,0.8824639589144315,0.27425964648396256,0.17242273365375435,-0.08935524468474763,0.9391939353908524,-0.0870305623504212,-0.8824793687370612,-0.7612793091384116,-0.8159709687622757,0.7043765321112367,-0.9174252472053817,0.6061760123826646,-0.42692276898549736,0.8510098287842512,-0.3325874785778015,0.22096878394523448,0.47138048001730026,0.865085787183337,-0.4982755014468038,0.6903550672539116,0.02587861596748771,0.6612532585494868,0.9053290062934267,-0.6690087129717421,0.06793194212820541,0.4310659456115805,-0.3149361189508219,-0.11786890407592286,0.29484963007871773,0.7946614196578851,0.023970332626947966,0.09704784884740641,0.05942077707545706,-0.41229667933268305,-0.44015802466001236,0.7713874586185256,0.6935453433678729,0.5957802855775597,0.9672583338904164,-0.15328942226348186,0.27367668182558563,-0.546975560183701,1.0598941314092436,0.9014648592853692,-0.27112328817152226,0.4439796550313307,0.14694933637910942,-1.0447251853718678,0.01677761735164288,0.28478245967561977,0.9470900701954712,-0.9634582087645468,0.19764945197379769,-0.8942640142616718,0.005089694928734683,0.32633021246001587,0.6892875643481883,0.11572598014834018,-0.35961214484309284,0.8796642500999244,-0.5000312039650517,-1.0313276375966796,-0.37746590364303045,-0.16148934290324324,-0.4662920396411791,0.9600336727133767,0.9896630728735599,-0.8486329815275505,-0.8181498168780073,-6.827132756118775],[0.4884489178424743,-0.6015224638666621,-0.9387924385021748,0.26887509864350057,-0.01797971172476822,-0.08562778513517229,0.6491282243881301,-0.523334320830846,-0.587032652810204,-0.37091062601456565,-0.764909766143056,0.2808942583402706,-6.771143869264107,-0.6602716100360763,0.4337044007720209,0.3337596718005206,0.6944214460996916,0.15875408490218693,-0.6465647551064776,-0.6453649387025127,0.6719385319306338,0.5905577300203989,0.09307272473861368,-0.2774272890694488,-0.3381082597866739,0.3276735940689248,-0.5459349271004655,0.564681438796067,0.3801211548749473,0.33482256354134493,-0.6866501718698517,0.6960442109127444,-0.5586478663413071,-0.16981844608473315,0.42005796177458565,-0.602700804864664,-0.7907323923721217,0.12050165055063856,-0.536785999518721,0.984824502982486,-0.5252635450925589,-0.8306312118867464,0.3995032353152166,-0.34331837965900047,0.06390511492762223,0.8264879420510751,-0.6099322062602458,0.37089497913008623,0.12892605927669928,-0.9687267597770721,0.1554238647731165,-0.8331600427774916,-0.650516511374646,0.7563961791565589,0.7583009053232775,0.02375244020466604,-0.8203037585549732,-0.39419487077470894,0.6996384823685096,0.9385714561309448,-0.27207907095617484,-0.9850289296577439,-0.37691987410258615,0.6833044585178517,0.8556083746991225,-0.9285877644193505,0.3522159658049759,-0.9577945333868758,0.20896936656838339,0.6338387443102038,0.8076411171146445,-0.9162176449333411,-0.8173837095882247,-0.5427948731064767,0.6743928621229219,-0.2255084486393238,-0.46892328876699807,0.8777557086084287,0.3129484052442445,-0.2742536427937877,-0.1473426880405944,0.1761921499317171,-0.9250654267044662,-0.3745187234132682,-0.984435020806473,0.651140692810899,-0.3445491002985802,0.13436909006034614,-0.1964409489880325,0.7182673800301755,-0.6818992107515219,0.10239555370515621,-0.22185578304983009,-1.0749683324114445,-0.6136979010781028,-0.21537966348641385,-0.05973798556017127,-0.36584149632070573,-6.202675538626148],[-3.2634787599037267,-0.5395222838723434,-0.8357396111181128,-0.06026874788889835,-0.9191508470789527,1.7946628470020065,0.032533035928943854,0.07749994867778837,0.9681480387204554,0.5835848167914722,-0.09847505476114658,0.5946807883482432,-1.4599521626991308,0.5973953795195409,-0.7055680396015606,-0.5453394732728143,-0.9509352921740678,-0.390704126523253,0.8173982688657416,-0.5019961040997472,0.7175887686679481,0.33715203229635976,-0.40564274888341345,0.47526609966432687,-0.822867815868282,0.5741099858392885,-0.7631920594606498,-0.9464079977774039,-4.224631191050549,-0.27443569812888363,-0.8408452028468606,0.49564863557842165,-0.06851760543372475,0.1597742069633216,-0.9121303260484899,1.1302359664309212,0.3349638854363284,0.3904121753299091,-0.8987266283736809,-0.2570609794762426,0.17401439070228206,-0.5274629338484156,0.8496063599275204,-0.8397659073104954,0.5980544011316472,0.04010519592330661,0.8784587634545697,0.2731856199276223,-0.3903564115086898,0.007725933659121605,-0.6213595536765839,0.016423968130998078,-0.5750044049570914,0.007504722203459823,-0.24150898288980033,-0.2672980213840257,0.2934539932291615,-0.3727412693858331,-0.05194699999786507,-0.11265555896709666,0.6215834527839466,-0.19862646679297116,0.15438589318924828,1.2414034997225318,0.7477263113344965,-0.6517219584443816,-0.7729277253388305,-0.11061800501345721,0.053273034304812415,-0.05516509852639867,0.6916945458350663,0.5624114285492237,0.7181147886175451,0.9662616123938891,-0.4616912134238302,-0.6763237119872125,-0.05257632695125904,0.584387249581428,0.5546924548316202,-0.48963527427349884,0.43071835719185453,0.14515960362659108,-0.8846019198243851,-0.12484628265437564,-0.2486204866648033,0.531854228372124,-0.3425388592156525,0.4062783507132516,-0.5126074852973825,0.2523953111843174,-0.16368487977336624,-0.3748276087724297,-0.8894327504683097,-1.0658705467629868,-0.7259917531729734,-0.575370476266369,-1.074837381188946,-0.5134084815557596,-4.675967760352019],[-0.7882290404056135,-0.41066593567456916,-0.17495799512699836,-0.19838407309439018,-0.47097945499411326,0.09963420261008984,-3.805876914655416,-0.5101710258624431,-0.11834578384124231,1.8008359698760112,-0.599650359406782,-0.6542058582353021,-0.2831582008877447,-0.2620578313497564,-0.6363551769933212,-0.113334016822842,-0.9646436880685201,-0.3795888555551169,0.7420291286424521,0.7977539986144433,0.3228773975297024,0.43362278955051675,0.6654344415109463,-0.448796404503292,-0.4863087959764061,-0.5352309932530639,-0.536336381389621,-2.9261292617860866,-0.47722916283367156,0.6466773920661766,0.20979953972305276,0.8588826293389646,0.3541276324883657,0.34835953176450535,-0.9228743929223747,-1.04691637956927,-0.0025947603105910106,0.2966358800969187,-1.0677851485625278,-0.3712345883161141,0.2127457641504147,0.7268342234498549,-0.9979130960124983,-0.37116898875109167,1.7700398578384395,-0.9159380854154212,0.35721403473191904,-0.07500669141732752,0.8030367117291485,-0.013808839816489652,0.39762516529677283,-0.9153709701762189,-0.2554517911082488,-0.6351350245849743,-0.5873866812772411,-0.4773507900849872,-0.7034972153384832,-0.12167276830070566,-0.29571622737713127,-0.5224964204658286,1.0008679518042198,0.46245308445475636,-0.3345233143588462,-0.5989811756254053,-0.11845410903618485,-3.2796789806397104,0.06896110993030952,-0.8219069493151415,-0.0473878265874653,0.18389888313966257,-0.8004004216187913,-0.3995400380520223,-0.7528187442407773,-0.5927198784429568,-0.9211811884519967,0.6387499130726005,0.23816158378166236,-0.11124005540091077,-0.8333763800946125,-0.8469891943507043,-0.8453846605031166,-0.8690297560184895,-0.6272744254270489,-0.5318437928105135,0.1301947589703929,1.13518329097783,-0.2195253245488501,1.4858779225845897,-0.2697954895404427,0.5305672412119254,-1.16685527519311,0.3910556151230369,0.376357632615012,-4.688793096533906,0.3096637243381695,-4.129766392467657,0.4258840401168206,0.44386171019126025,-5.053612835960237],[-2.3026532533475246,-0.4579541906200371,0.3079852725768209,0.8941828023088174,-0.20011950274388546,-0.513317046541108,-1.3735902843490218,-0.4315560116631784,-0.6812566423535735,-0.21549132338258614,0.5299738448073781,-0.8375802428573446,-1.338365537178998,0.7161963249025022,0.08470042331939497,-0.7008472350458596,-0.682561112687559,0.16778560571619053,0.09170586737867444,-0.3294044154095339,-0.2753297065891578,-0.011715927955005145,-0.8413828102411829,0.5486586543343793,-0.24846788460374736,0.08267768631017997,0.5293895006360331,0.24162629782577924,-2.455421563663963,0.30716158755589235,0.3918092038044011,-0.7888398422049719,-0.39408260082947394,0.39679142830349884,-0.23727785584690933,0.5880125472920968,-0.15445316165063802,0.0030125583555542274,-0.8475436244071981,-0.8522270664545659,0.1300312387406983,-0.3306091265443978,0.6719191060184435,0.18045625012472097,-0.016914751450221074,-0.21479183610317512,0.6049534114086885,0.4335317775697818,-0.7205250198647277,-0.0549384817680319,-0.13693773358715042,-0.8222941148303622,1.4299804913110519,-0.9060043688750896,0.23024917692488164,0.26446384216719987,0.44747403140105046,1.091297446838745,0.6894307016335703,0.5080522920912908,-0.6025465632105034,0.35901741315807345,0.9161328617607531,-0.005247615648928332,0.6580065557154295,-1.3238339950307723,0.18700829884494982,-0.9599017541011798,-0.07004964225501654,0.8222607387977051,0.49041085799965584,0.09975269504083617,-0.4274209191893519,-0.010595883646646086,-0.4898972768793513,0.26716677762768487,-0.17665582605847777,-0.06103216682973467,0.8040908887825663,-0.5113131180016305,-0.676511854785073,-0.0822410839491464,0.43735466344834656,-0.9380048076488626,-0.5898165592652306,0.05961063447639419,-0.5537883735201024,1.6279297511873907,0.8501305471234767,-1.0194404150095304,0.6062118746918534,0.3975445663797916,-0.712994268985685,-0.13733906798604245,-0.5471995543053523,-1.9952088148321414,-0.20219887050549026,-0.1798332770186966,-5.200595274967335],[-0.9555680992799871,0.8141552156502591,0.45121499617519883,0.5734659447617612,0.8103597308154228,0.48883372705611144,0.2041167037790142,0.5902693331025285,0.05656116024086991,-0.8688902867546267,-0.2114155910927525,0.2858236344872945,-4.783524527048842,0.6877209577740311,-0.05519992947217687,-0.11167939429511888,0.037885836407643425,1.0750705346049616,-0.6413995111600449,-0.2610900391968661,0.36105648117712,-0.07855341537386444,-0.3710110299629713,0.5825381701703273,-0.9414148152052396,-0.04113685897585214,0.0891158395614362,0.7004623412294806,-0.48453390319437994,0.5496895332195987,0.9083045547465055,-0.8124017165515951,-0.06780108661207343,0.5750615685911454,0.22562956115803381,-0.010615867128422263,-0.5473979538676876,0.9760310925340958,-1.4538779946872304,-0.6929093285428255,0.8806282537981982,-0.7489513779249287,-0.24203821083783505,-0.5126565004345602,-0.21587372724657064,-0.13364627626680556,0.7643969840130295,0.0943590289635507,-0.6791860462902407,-0.2752476734083404,0.14923186065891017,-0.8930499268285024,-0.16372084634821768,0.06691259686619312,-0.6936233328026624,0.32670780930613746,-0.6495142819605223,0.9686373947253979,-0.14748025591064226,-0.2849989957719286,-0.3325792125712552,-0.8247871588138319,0.6575233324907509,0.09493570634543277,-0.2574144197005969,-0.16988385802263323,0.5667846721365979,-0.08793073339584016,-0.545798069173764,0.7097008758881131,-0.010221701017918191,-0.49675494592009767,-0.6292309093072602,-0.2197369910328813,-0.2894441809494266,-0.44108711446573684,-0.3820101156796679,0.3874458810557687,0.9502876850479978,0.9636232213043356,-0.9528609923148971,0.46311169623020865,-0.4138921386588081,-0.7866804308699317,-0.8075741531252862,0.7965272749516092,0.7712542575053377,0.35756547149865353,-0.021189575344588676,-0.393374615844041,-1.8920027558323271,0.6872760250364078,0.3362102643204123,0.92132937601179,0.1211725046263171,-0.29494445077788983,-0.5139773991157358,0.2965054153942378,-7.171580989217791],[-3.976155174302106,0.1518387835707376,-0.9498771773755572,-0.19440013583186283,-0.5954600736240546,-0.42330121740128196,-1.5742989847387936,-0.4787764903011565,0.5029386727098489,0.6833088407867463,0.18460612931275658,0.4290794579864632,1.0124588522619438,-1.0242815102473048,0.2107189001313766,-0.18058688321865482,0.1648196686989955,0.41195067154952764,-0.4122824591308367,-0.9613551861293648,0.06678453405677758,-0.6781519834468362,-0.026151710795333065,0.31260875071863864,-0.47902474574703774,-0.8566636880453583,-0.7534345276423975,-1.0867278273834153,-3.320847185312101,0.16743511563991573,0.2693430005902838,-0.5124030223135623,-0.2603408925420591,0.3994873850420113,1.2093013072446812,0.5745412032221404,0.21391226669841282,-0.23514430455422958,0.17004253706680938,0.809582919005425,0.7325712484318007,0.11770837369886913,0.06446287107304126,0.4787235972968983,-0.871810932035485,-0.9007363843991177,-0.9407105063632321,0.6565426876758492,-0.6760256056156891,-0.3635642339256249,-0.683923660609537,0.28510213889627145,0.29738102255577814,-0.20486585645532765,-0.17285435545628228,-0.9537803009950864,-0.06221182459199263,0.18640906781435104,0.6721874794345034,-0.6650294426020251,0.7748696658689973,-0.20616925552174709,0.8084708418521203,0.9130388286346346,-0.23249008100818447,-2.0235901264884673,-0.06721008604248588,0.007157960725671041,-0.9072447625993879,-0.11582538173145213,-0.5905778242695822,-0.7835308461937499,-0.1602549946587393,-0.06934728237611437,-0.3430132592983893,1.0051985951464053,0.9818003128666732,-0.5530499390132914,0.5166082141117194,-0.6659782903709364,-1.0977275029692117,0.44381134856265964,0.8389711676918343,0.7293517316490006,-0.6701679655981532,-0.060452283383009855,1.1876924611395598,-0.3824724570358646,-0.4392936104742474,0.22327799782899277,0.12221418393724941,0.32613371127913754,0.8297970343562987,-0.49135963552757816,0.47185536077348356,-0.9308875319478256,0.6744869918847413,0.11166696242937472,-4.274049488354972],[0.787972439615967,-0.937262817433619,0.125870409780779,0.16418373814031456,0.14296544105435788,0.4015438515158327,-4.851089174390233,-0.8916448966679809,-0.2675331510467568,0.23295293094861166,0.1609957241969625,0.5048089672802635,-0.7010001643474432,-0.09774669624909853,-0.4741817773341426,-1.2405140321252068,-0.6046740928833509,0.218750131155122,0.05512793740244065,-0.2027228517143565,0.6588231582227029,-0.10593827955206335,-0.49878832280792906,-0.9025314239350392,0.33141451218209017,-0.08045705170262474,0.5055286341786022,-3.524413332358916,-0.6198258234433538,-0.8972533066244371,0.25024074536872953,0.441914288881945,-0.5307901244077825,-0.16548670230532386,0.25317431397465506,-0.7034446594747896,1.238967732331014,-0.735633264506337,-0.6279666248372711,0.7256347563691544,0.2237895878208774,1.1171400020377604,-0.1726888557205256,-0.22623035709277453,0.03126431334545436,-0.7791337066755113,-0.9136865815711127,-0.8703894536870852,0.09054348541773859,-0.03357574848720626,0.45190122139765954,1.2096621746156855,-0.5994949518932944,0.6303121107223779,-1.1227086529828862,0.4578986346864578,-0.1676438955482253,0.761437666560729,-0.002918213742913348,-0.7991258942402757,0.4459809009466121,-0.4398569626478471,-0.5285473889868099,-0.28200983383808875,-0.7541890859115039,-4.80683804592003,-0.004780314674086051,-0.09708741208139902,0.29081077818218876,-0.14930739553522343,-0.2092071048207591,0.4920153364819069,-0.6694546646693951,0.5394054210944021,0.7090130885496666,-0.8151475616495237,0.6870545883363953,0.338000975915844,0.43657658692885004,0.5632364299019877,0.3983236172883555,-0.45523263086542215,0.437373231884795,0.28063513424979586,-0.7495551203286215,0.8550633725548905,1.232420445580639,0.3950392688283126,-0.6956239507808003,-0.05082883524336443,-0.46916616827917834,-0.8406732619426323,-0.2624402087778299,-3.9820291701488855,0.16360538323294851,-3.735534845149951,0.338584437390105,-0.4339159675499171,-3.9353945575870672],[-0.6638477410472707,-0.6731654548339947,0.8898501912127682,0.5426782981022172,-0.28868793240628976,-0.9641716769318783,-1.5572991446218234,-0.5744837249208976,0.6086285229985496,-0.04077953094584604,-0.9194295825334436,0.8047014949651982,-0.26772358144495717,-0.005093756225286076,-0.5270187404775247,-0.30500561643504914,-0.44751000750115516,0.2911812281590956,0.6373176602961259,0.17823014128135034,1.2088650621264239,-0.22918789799153047,-0.4466550380121784,-0.5490642083293376,-0.2689804307970008,-0.4253897662671666,-0.6147805346068562,-1.7296508231809942,0.061623074056843086,0.6089639976697747,-0.46912846125175245,0.14248543053377624,-0.02008760130021125,0.2607015573246643,-0.7896466970724207,-0.10873197800806736,-0.8738490782282189,-0.4154067510293274,-0.6255473750080033,0.4260367532736023,-0.26944284654754913,0.5498183252039018,-0.4131122768408913,0.07109970289495038,0.31745647867419063,0.13505361671429433,-0.03528474844795052,-0.7065649519482023,-0.006742047044855113,0.6702194790114828,-0.8385734638775143,-0.0019082355371723139,-0.31273324793417057,-0.28072927629886946,-0.42630185710941637,0.8075973952546668,-0.6274130374882324,-0.25007386900606604,0.3122328904144262,-0.4921842386015619,0.7408573468419494,-0.28949322814073114,-0.19306418918003015,0.6403646357135249,2.1301445779754045,-0.9791879879477151,0.494322160916666,0.36024084049532895,-1.0753564538010543,0.33914488950847527,0.7850736163163587,0.17176436266741707,0.18370273795461312,-0.26983488568472236,-0.1342093800358671,0.2696353871049309,-1.1056395249891555,0.006975950561651718,0.3793428228552506,-0.254723449882396,0.23616325542336714,0.3826405064235484,-0.24654495971388046,0.16816894595329643,0.6444350486479735,-0.0978826153684166,0.05427074548806528,0.9401023238385503,-0.5569926734774077,-0.06459588419253434,-1.0887618579379152,-0.46299686569782184,-0.6793791149356183,-2.0530581868532867,0.9865174125158157,-0.4403924374496993,-0.28361145380920066,0.008287235754872354,-3.2897989236662832],[0.0598658773776159,0.6858399021186727,-0.28297441523995026,0.5857001357520204,0.9739771613183859,-0.6599316464670637,-0.9330589835391436,-0.41144382522879547,0.24674721873128208,-0.6584953425095227,0.8938160504396576,-0.5941432696149248,-7.1149708998768935,0.09296614104115929,0.5648091533915456,-0.23941035017805956,-0.5646798011452462,0.9150541061819044,0.18717549573961811,-0.7448864384311282,-0.3733244147268835,-0.051752702803634844,0.9899963967665362,0.9790658900201672,-0.38095978746458387,-0.5103668314780468,0.12461960402123526,-0.62268321964173,-0.5613867816008158,-0.006930729039471632,0.35106194498644105,0.7201804732763891,-0.2559882494993774,-0.2719316287603996,0.08453837086700558,0.9112584927068669,-0.763385923053139,0.4594411982133861,-0.7425528949141472,-0.401177984826287,-0.56175723313667,-1.0733579352302633,-0.4942611638355553,-0.4193750993840761,0.9526883826386705,-0.6791612268876411,0.9107226197079311,-0.7103453584205619,-0.22004596238280189,0.722956283704664,-0.9766033932963456,0.9882767519909444,0.6786177231315446,0.8172280085243935,0.4675369778115298,-0.3906063957689107,-0.22336682654385678,0.32303740611138426,0.8885810525012414,0.9338633477751809,0.4188806068370823,0.20804472843290678,-0.7247950248643884,-0.3346720155909077,-0.25593929495741585,-2.1591179791751824,0.8501367907006473,0.9647968187142651,0.6212174029714279,0.3845850080746341,0.08331934379439228,0.5381868183714618,-0.27076127672450684,0.29989533122919754,-0.4800126773314617,-0.5163688658128385,-0.8306680233490973,-0.2624106283332136,-0.03927968326964787,-0.7467966997899987,-0.41744343702612685,0.2150611710068964,0.3946684947955831,-0.10369550072996926,0.966123762819887,0.10678880420349172,-0.6746895145134129,0.07192825021272349,-0.6697888094838692,0.8569482917623539,0.3430361497856165,-0.4866122558290995,0.617983259817868,-1.9023205525372269,0.06806704103064387,-0.8913843709377846,0.21040913150690158,0.3829302791618747,-9.003543520722177],[-0.6522904204533682,0.08425345784918514,1.0483388838975183,0.11192773021804986,0.3056823500107718,-0.21766785935261793,-2.6491789930856022,0.9129838555036813,0.531426073792279,0.27214753801112374,0.04761982870931837,-0.6084934507086364,-1.0887650607169619,-0.04256373551924531,0.6587101193994452,0.07975778798590252,0.12496847883914854,0.04722885919310148,-0.5773895770698125,-0.12444272091590435,0.7888451862031165,-0.4191028008320542,-0.11261155518022446,-0.8956972863320563,0.4061122044192537,-0.5992417395422535,-0.11227578329343968,-3.6435391175039,0.4343124003778999,1.1311464352162584,-0.2606195917078855,-0.0748128787503381,-0.03679618372662962,0.024858336568926297,0.9851175954671011,-0.3480662514210792,0.5596130327762604,0.30007490172150375,-0.6954995527171434,-0.12022538659072987,0.2797489164580461,0.9131685496873158,-0.24986587836561738,-0.6930736727493142,0.2256071675771477,0.5023555338073107,-0.15363188131421376,-0.19490483514061507,-0.7425481112706226,-0.822616396541087,-0.1798192390681693,0.16363900679172488,0.4887639907320302,-0.43059261706847635,-0.3597244406355199,-0.057150408942981686,0.5641233735051073,0.018621446677667467,-0.9853425905615563,-0.30969446651768395,-0.8646400728507221,0.2855293197238558,-0.18430854507185507,-0.8531568006111923,-0.5810445656270605,-3.483784337394824,0.281544543113738,0.6080354867168993,1.083130957589071,0.06148973926107304,-0.7201022993117261,0.06447849601215737,0.610685802334172,0.09466232076979339,-0.025082763321207638,-0.4737473962539792,0.5588290912794748,0.36306555036710614,0.7428234373208316,-0.8311374356289827,-0.1976975879667346,1.182993394321083,-0.5421225836870832,0.23415728531471644,0.585637033798914,0.034830792531637976,0.12614579689652977,0.3702748446518142,-0.5097844883338146,-0.07455000000790415,0.4696965353370216,-0.6506319590458826,1.1542300703692467,-4.337491720218453,-0.14012720105003768,-3.557288169527551,-0.13789546709128475,0.17857738962479439,-3.6191661198303375],[-0.8363627401445858,-0.870068343303618,-0.6751652673857028,-0.48145731081431814,-0.6646159646278831,-0.4527390286534242,-0.6056372478978512,0.9938100667553249,0.3994722138972285,0.5216242106650744,-0.1953744526706649,-0.7983613199109362,-8.158798554191177,-0.6863639590671328,0.025316029049852334,-0.029376581621233442,-0.526892398548895,0.37632590108421005,-0.8094225504368187,-1.0756938053172966,0.5524969461789705,-0.9377002274115422,-0.5089871847126622,0.34333591314440365,-0.07809822131113099,0.46247659786370554,0.8774025579479295,-0.616612116370559,0.4178340664781022,0.6876092216228742,-0.5808823480870773,-0.8015194344971137,-0.9621297713379999,0.9162061421326332,-0.7559135355747142,-0.29936011376807264,0.3423926916396544,-0.2431082681085169,0.2718524003051228,-0.41976446608943707,0.5223539977341847,0.1765693174740629,-0.26106733987340963,0.22876609003133297,-0.7609764483097727,-0.5989977710952799,0.35878476669700204,0.06905809469582397,-0.8882356855186764,0.3336850025195931,0.07121634648116804,0.5444227382278887,0.07467842993229422,0.4469103128185288,-0.6477823050451781,0.526966218408077,0.7533847515930493,-0.8970605708850906,-0.8010122687722002,0.0891636643426309,-0.2479316497809472,0.3947494657865526,-0.8828505262269586,0.12299462676035744,-0.7524507404925633,-0.7026462948260517,0.3473606112795935,-0.12573547105937785,0.9623299451601662,-0.5356556346412512,0.3615499363706623,-0.2596498919824527,0.827967613581618,-0.6590919680409293,0.03261064453855985,-0.2906454447281966,-0.6022077824508363,0.4371846373407919,-0.4750494399440081,0.5385849266553545,0.282940060799313,-0.9792482734818347,-0.7056867828101291,-0.8487364112772968,-0.15551130350389758,-0.749992788746743,0.1883727929288146,-0.7545084542375964,0.6296440983315083,0.02766621206740825,-1.2756479292130725,-0.6416110427260658,0.8804380677850591,-0.7960669759832971,-0.8050070871011505,-0.8086346031373425,-0.26163422411594833,-0.8144002015683788,-9.511997203970697],[-0.7291463748358266,0.40811529751076714,-1.12470434318442,-0.5159614043345175,-0.7489856112398985,-0.4951076271030224,-2.5371511742130215,0.5569565175462651,0.7011257986649739,0.20171054102264213,-0.61490736943464,0.0171065107844,-2.6364711554608617,1.9304493542782855,0.5179335165705017,-0.9221479460422859,0.10870983368831082,-0.10855370024898517,0.30210479066405405,-0.6819060325636974,-0.5521021769373451,0.6026869648934325,0.600749686134322,0.5246242136243238,-0.843821047976505,-0.07349877436389296,-0.4266134798018989,-1.6977219298352568,-0.6161075891473801,-0.92218360678384,-0.5316886970918414,0.01485421396114625,0.47925518069505063,0.01178432853687302,-0.9194011088962573,0.21554562959993562,-0.2996514050489856,0.6755507971332791,-1.3831580121878135,-0.0950789845986323,0.36014924646970575,-0.31513055254890915,0.4949858541756451,0.6004607293018224,-0.9396965166073101,-0.8035950458315123,0.35586409788877116,0.43881794259032203,-0.3166427088736477,-0.7533972339672019,-0.25905046739037574,0.5713124480719329,-0.6177938098835991,-0.11979584807867151,-0.5437213556656217,0.2174448876550908,-0.80458404182231,0.20133830217661322,0.45293453356257285,-0.4720590665461487,0.43236499279922375,0.38503701029694887,-0.22172015722748017,0.1610611430804931,1.097891125715011,-1.9194920809765663,-0.2520201299395637,0.13008002587991765,0.4563350807741894,0.32236664966414114,-0.5365780527785571,0.44607881721778936,0.5538103104563024,-0.0774425474825703,-0.46899920143090396,0.6421681693121217,-0.05424596973100271,-0.4377739650490342,0.17010380698048513,-0.5414133777789086,-0.6642689020695706,-0.9336676676151867,-0.5368876880183372,0.35842158159707044,0.8777428254818693,-0.11693938241225342,1.199519760806217,0.07555556848741873,0.42308279110811076,-0.3196797934789123,0.10164518867806688,-0.30438954615585656,0.8359741309992751,-2.105670468833724,-0.6586788158273331,-1.8673471969920439,-0.04183464705200484,0.5259044780125018,-3.420519535872753],[-0.331314736484439,0.16896581779695677,0.40406114436575374,0.7020111128587142,-0.19105036818420143,-0.09239113341476562,-2.2413560809079973,-1.044223083268367,0.044713784518241956,0.5222951765915097,0.9422673161506908,1.113818225659276,-1.8113888377434182,-0.1073063171915064,-0.8804791772815517,-0.04415978347838235,-0.31079807442635016,-0.22790336136890374,0.6746198152751063,-0.11912401954350037,0.6496822170684694,-0.7949819885735611,0.5060870797595776,0.24853896902285544,-0.8789172900443106,0.25546997318548653,0.20472886634324397,-0.8020603570065794,-0.9854280065094491,-0.39468336966302225,-0.1996668253727804,0.1741194427642985,0.39540460484200146,0.01984876204424378,0.7321813709119186,0.055409738521522554,-0.8400133750805673,-0.4136467491883621,0.5521889514830742,0.4400247540852699,-0.6907687849728592,-0.8668369576873828,0.35269260354849774,-0.9305674488702427,0.44920771762736716,0.7081494857596486,0.1487744908779698,0.04568136565634104,0.3232576880435951,-0.7285636463261389,0.32970690635559374,0.7105885465813778,-0.09563378990432088,-0.5263606027325781,0.9226089963728377,0.4471511429643034,1.1489509293469005,0.042161662070709274,-0.5673690031172614,-0.2318234245588418,-1.0096853453054964,-0.00836265821816517,-0.14108502488140492,0.4347259780759277,-0.7221927893185641,-0.7751691997437689,-0.08358444222039683,-0.8565251851035237,0.8122899510493745,0.25743939369747243,-0.5091615192785846,0.8007033698835778,1.728868409050777,-0.3101768331259279,-0.6150712575332636,-0.16195277045089634,0.5604440602064407,-0.36520283381840624,0.07160421082427208,0.3131462701918954,0.6913081170871984,-0.47270468584380887,0.07715505838382451,-0.5327284090744643,0.3996085074534953,0.3027310717075139,0.8104451648283738,0.08760372887680871,-0.567103877276909,-0.7682238233600278,-0.6732998514643146,-0.5820770223420593,-0.43347095916325384,0.05673426137293303,-0.2203240163241208,-1.8551159012972531,0.09560241524301535,-0.06493110986751217,-3.8964524396100053],[-0.10810466138076168,-0.351149448344667,-0.8533937652406886,-0.22037168327830448,-0.9701994526717643,-0.44464482402089756,-0.40372841874783244,0.43024710219360945,-0.3803984962318053,0.00885394817537272,0.23248101408883193,0.04066862368181759,-3.4152397849996006,0.11256080757822637,0.7104561853741546,-0.6987465862494634,0.6474746126877674,-1.145608960623558,0.554923011504706,0.7275261554144334,-0.41297639571848527,0.699569500257479,0.411271959135272,0.12109877071057454,1.2073367639754569,-0.3851630971205291,0.08425903738867546,-0.23201152776613876,1.1669665662259294,0.31269446033469095,1.226683388588769,0.38122568373754623,0.3904010618400367,0.37400179466775685,0.12363676407620156,1.0345474948435545,0.019852765056528637,0.5547493270943216,-0.679121125502669,-0.04814896250425329,0.025554659386704984,-0.9832112767925149,-0.4990023964769446,0.8569900176497477,0.10514170703202012,0.19105530347427718,-0.28899345578095054,0.7711302572373605,0.19855480460426805,-0.4068014692093143,0.40342519177392155,0.8746616033048225,-1.0988355467939313,-0.7730432680746917,-1.0845504167211528,-0.5539769852319748,-0.6275378753944906,0.5483106365975792,0.08842907504476455,-0.4251447112464752,0.2844357706919204,0.7540960671622925,-0.14555022924153083,-0.45442795368767347,-0.7771731136995119,0.3217418089970722,0.19342463939117718,-0.05892109977795883,0.5460540441243604,0.3594729201097003,-0.29075469266500625,-0.4038871432998658,0.025929740247432494,0.7372512015798025,-0.49700275225866025,-0.17767040086641497,-0.07583840104666473,0.011310612302103456,0.277265505181053,0.49490560985286497,0.6789132462935041,-0.4817102152264791,0.01771217174974339,0.44290473118281914,1.1149866135947468,0.3214565954764197,-0.868079363068195,2.126807600170334,0.3911318127364453,-0.49461866557192213,-1.1397022490330257,-0.9431239831855383,0.04118155555376912,0.2245969331160456,-1.0014939881755174,1.0058320932790514,0.5635413719612014,0.63794194645457,-4.003884588326904],[0.09649726896779275,-0.16443676280007866,-0.9673945058138034,-0.8912746289365739,-0.58436205567256,-0.11936595699053475,-0.28435990503328457,0.478153905055965,-0.022444809505074506,-0.4509169207966444,0.44677891798792824,-0.5175539145097421,-2.2352912565436296,0.15874742061689623,-0.26637636621453525,1.065259230455262,0.07812111811922338,-0.30098552230103115,0.8216999422819293,-0.9155975986436622,-0.28729650702310244,0.7863320890306611,0.052629342206591385,0.10652874973724685,-0.6182680535297485,-0.7434304587347328,-0.03438598008331698,-1.1837195961460383,-0.4132439918881393,-0.5755970352817422,-0.5837753574988025,-0.614216780264946,0.4284479748824831,0.7199097248562317,-0.6707422201090495,-0.480852127039094,0.15815519679693846,-0.6048360770851124,-0.1514774891825186,-0.26251314778048374,0.6600095534548925,-0.07158271180405654,0.6644610936781288,-0.34118703543973733,0.27038609212765957,-1.0718968177734227,0.5175250632055505,-0.7714074113900045,0.432597111135527,-0.010897583102859432,0.5553226532114656,-0.4898250598037477,0.2505697535429815,1.0279586555059765,0.3578597981676944,-0.3167790684383907,0.12479923913684864,-1.1247122771319384,-0.22630080426815885,-0.846566325293634,-0.5434194384038371,-0.7188332853593195,0.028890873014623928,0.4898685755895207,1.7139424300805177,-1.928411904083822,0.6178639708973253,-1.066663006401774,-0.8732517922376029,-0.589264928060302,0.23970818582697892,-0.25174113902244083,0.42573913703198085,-0.10671327208051655,-0.20996312522688923,-0.16122675748075943,-1.3565687747406536,-0.7146045048092885,-0.6989653841985471,-0.6550820689663639,0.05548042183220679,0.6764503358441382,0.39295522332030486,-0.756642003238769,0.1086127668798279,-0.1913203207675557,0.19038025403006165,0.10829620695373797,1.0148464171747225,-0.19688573514120972,-0.7816581204865174,0.30016340864208085,-0.7009489347212519,-0.14357128029154653,-0.9516032999060918,-1.3543839659123127,-0.49586053665391777,0.9146302221761464,-3.8302756422844717],[-0.23857382011538597,-0.6986689383408418,-0.5473976719474412,-0.1857764268363125,0.8579200825095976,0.675645090099707,0.3521572975316467,1.3509531542072712,-0.13745053479662292,-0.5928265848267825,-0.38469374720789506,-0.9754092113776779,-1.916335617237709,0.2100659014373183,-0.6034927576427941,1.4003488705393734,0.4819262672597007,0.23250427460387998,0.7304044752959037,-1.0696951665642274,0.39421101472425235,0.13751227828734175,-0.1496112511167718,-0.27007431792059267,0.4781722374734067,0.07338567117387843,-0.3030645307002911,0.0015906067700903108,0.615651554654489,0.04105421074582845,0.0702665331281604,-0.4267196383867559,-0.042865358331078886,-0.9363796496507791,2.088844496227375,-0.6310301263894823,-1.0107864007846812,-0.7447653644058795,-0.39112589124168895,-0.5607105072009285,0.39750302661869347,0.005233362445621846,-0.3112658242223302,1.208788804265391,-0.43603714712814673,-0.5396282500285652,-0.2788074189999839,0.011946273143372486,0.6512358787372109,-0.182348262280651,1.0520551498813933,0.08112795477326723,0.5395428872031697,-0.4486606065096156,-0.5374877846010528,-0.46785260548523583,-0.9557008136006527,-0.9673277391961869,-0.47767080579247834,-0.16424626451979765,0.622689763633671,0.15968589269325928,-0.7608064745809532,-0.2092559626892392,0.3502860202705661,-1.1032354413008667,0.07930415975529378,0.019360814063833033,0.26807701365578485,-0.26855558299401316,-0.8577858731680307,-0.4157234925258652,0.11912338628071517,0.25300810359918385,0.22094227525727608,0.323496641428248,0.8825816688142417,-0.13066275867053098,0.6880089497262387,1.1606925096341993,0.8272075150324342,-0.365475701530043,-0.5916657380440736,0.3572092805670043,-0.5843729676272464,0.3097637280117293,-0.4775004021987493,-0.5110543336410835,-0.8282811094728952,-0.44841401542191023,0.9919519673582977,-0.4390327765247599,0.15400596594542734,-0.27815403634126085,1.1088905258374033,-1.461986984065758,-0.6061092130286914,0.3089678321159571,-4.264954586629714],[-0.7781700415354187,-0.40573243392946684,0.4877433664542708,0.07393251751493657,0.009769660717956315,-0.8336855040932732,-1.9083504635733575,0.4859848364631539,0.8846069786968308,-0.14080046079984926,0.9789488831750521,-0.2856489358353462,-3.855763122465664,-0.030639916916588687,-0.413827093766827,0.4290691389254466,0.2548248705824925,-0.3820168623429103,0.08467728896089782,0.2454909420503429,0.19879075827413162,-0.14600306652601366,-0.6497418336095544,0.7434319779141393,0.48431830676144555,-0.6130964503224565,0.6676545365919172,-2.24247328369758,0.005970702419840432,0.12973428298858025,0.38056333741649256,-0.7059463343782538,-0.041592117954907706,0.8902873879368671,0.24444219812157297,0.0009452733107872735,-0.1396858089193223,-0.33155458415174593,-0.9767189198827485,-0.5829597709387859,0.6315830488759472,-0.2485732485094447,-0.5890340521554907,1.1497901285518484,1.0323025917826476,0.5370213959944065,-0.33027347744668983,-0.2536860924324426,0.8056393032882183,0.05070630864622805,0.3058585638233177,-0.22909516073847125,0.949653029350074,0.757314006419803,0.1956579009735865,-0.637337394069314,0.13281500220146963,-0.013013577213731902,0.4184603919935699,-0.059117247903424285,-0.34397094346913176,0.6365740399052863,0.3940428556247991,-0.31806521795959586,-0.9999749620556134,-1.7043932795890893,0.48196338694166324,-0.3439024156827617,0.07870032325862332,-0.6712758129454034,-0.830703752880966,0.754939963965586,-0.942062765327485,-0.9213237786857625,-0.9410040024672957,0.6423420725402795,-1.1001644207957646,-0.5915254111103546,0.32112371199051876,1.7324610472071018,-0.5194114184768056,1.0419617279232865,0.6885298748181642,0.8064733665395308,0.1863838552457448,0.49106568151160473,-0.1797471029232559,-0.41087418040020857,0.33580912916029576,-0.2315085826897762,0.8741718452642563,0.6281593561711064,-0.5200991353251578,-2.272334398773839,-0.12024020651179264,-2.2192535288220747,0.6621066354381306,0.951771871173524,-4.713697086188971],[-0.9496795180240264,-0.17753444551128128,-0.8277894902706056,-0.9821799453974689,0.466965764122856,0.9746675869396467,-3.0546922219718016,0.41418039952264596,-0.032089866856853735,0.4512089104679676,0.740851836505401,0.7864397303745676,-0.11081264624841855,-0.6713592349220919,0.5263320837186147,-0.852416450182463,-0.8105189498112276,-0.9788669348578538,-0.005975208878169501,0.8096454485275574,-0.19201521912533742,0.47355739502210964,-0.13269304414307345,-0.17939827353616236,-0.052542362716331045,0.8832542497493615,0.6418896043361456,-3.1483255358510465,-0.9546570766600201,-0.7372468076656299,-0.36497298479394447,-0.9571882603871795,-0.16378454644808071,-0.7541323575525345,-0.24153801902783678,-1.6695946291842876,1.7903522920344825,-0.5951184368552725,-0.8624593586664147,0.8759431097664404,0.01558082265953159,-0.0674881053268215,-0.7095679625308644,-0.08282283764667776,0.2231367420993468,-0.07373851070636502,-0.7719449314735605,0.030674933785040638,-0.41423535247319043,0.6482807723919404,-0.5776724902075625,0.148819604933014,0.3618867014444498,0.14174271626182064,-0.29783674429494844,0.6617037880763712,-0.34563252203260614,-0.9031502182324508,0.8112948569864022,-0.3471974411300412,-0.3778105788795408,0.250698950384748,-0.707299927402813,-0.6290894874532109,1.199357840219871,-2.0808364354964346,0.28242074869158057,-0.9768209547743942,-0.6851632842402178,-0.9464055798889488,0.2066702224183754,-0.0019260123169555902,-0.8248677484605353,0.4897109918156975,0.7666553180685357,1.1703002602155101,0.820361574824493,0.4158436541727579,0.10720195446127624,-0.9154122703878238,-0.3351023914364043,-0.13342799481294665,0.5254139366337605,0.16716824164508345,0.4154980103045128,0.21369597643118868,0.04012711010062875,-0.49010545766995245,-0.34714574192881303,0.657167323679943,0.18468002142742915,-0.08409954221986828,0.24438193335595793,-1.6454004062796665,-1.053155632035802,-1.9548263085548248,0.8588181022527883,-0.7465729893684548,-3.1712388620659877],[-0.031070244046102216,0.015497869594638275,-0.26222875013341335,-1.0650899715942919,0.014036821329790006,0.39493058133633846,-1.119583883674918,0.39958414985669477,-1.0757719172678142,0.24708933234227376,-0.6346509367046583,0.7501043036946469,-0.2706000862919764,-0.4245163225584608,-0.5907876771884389,-0.7675900277602635,-0.3607901625865148,2.4386595374422897,-0.7550520604853106,-0.11350402519123143,-0.5816426130280667,0.6776326540044015,-0.8132299293718339,0.7166391317663141,0.13004385536554774,-0.21327960400571827,-0.6031694649705419,0.21628158629743258,-0.3173138534958501,-0.7440116226221662,0.057875140045116374,0.06951869219304313,-0.4509552817721588,-0.2636472996454538,-0.4056848876493681,0.18569448110512232,1.770506990118317,0.6490657828242277,-0.4734540202616078,-0.7557756886900833,0.2751914193226225,-1.4615215999032356,0.8007399419060957,-0.2980832011703404,0.16982363530274522,-0.512048661804304,-0.2881489039677273,-0.7768771772574703,-0.6388446383260125,-0.3329055877524158,-1.3545805168793132,0.21082374643078827,-0.5733233151896352,-0.12334698732907523,0.13907343086840976,0.014731929039249783,0.1279348266274812,-0.5933008995215947,0.7260288397698524,-0.877879888546955,-0.11426126055301536,-0.3697755944882191,-0.10824805293082432,-0.09586752738087598,1.0254384459126085,1.0297514704822879,-1.1314995112728343,-0.7114496702012415,1.1540403955521168,0.4158683444568914,-0.0009117469273803439,0.6034423664102042,-0.16511232929259748,0.3681556210056358,-0.10694486406496738,1.0898928217616508,-1.0963226943773392,-0.40555688924738414,0.08814121993232861,-0.9657893834471618,-0.43358606197001626,-0.3901775151241656,-0.36100724623182107,0.2979154115781125,-0.058393521133137546,0.19967401340527988,1.6926966209368515,-0.1344961323902715,0.7198519093976637,0.4642006697129477,-1.63842087711194,-0.6848384841537466,1.2155661087658756,-0.09271473649484595,-0.862066188954434,-0.8817680477055959,-0.5591756213183097,0.3461256549646481,-3.3911568133721226],[0.16733365537077366,0.8746406478272152,-0.39677906487333553,0.4762133372720244,0.690465522268884,0.21420019163157725,0.9304121098470153,-0.8497578098387166,0.5617862362542579,-0.6514113667373564,-0.7213537667068892,0.7771683389013261,-6.476394382938618,0.5053300040087976,0.18680601190257884,-0.3428336652656073,-0.7055656680576572,0.11654222087716166,-0.4728912901087019,-0.8083209048556178,0.3391332776974135,-0.5108043661007712,-0.9856933008016877,-0.44930836745076963,0.2723304631493336,0.8106401288488351,-0.16599795604301945,-0.6323660978805299,-0.665656188720156,-0.6393504012691852,0.6183525007722364,0.7656894628235398,0.1106670716272631,0.5941505556180209,0.13360469964158367,-0.0572914512676311,0.8203405136573518,0.4209630190633543,-1.0379539609816093,0.3467652479548344,-0.7861569916106648,-0.13557114649761387,0.5063920552292881,-0.7078082291444476,-0.49247757030641404,0.6969153795764945,-0.9404640445758166,-0.1464111805894726,0.9294110542626256,0.2220264292235034,0.15839721080634933,-0.8671595117344065,0.7320886997001708,0.19936570642931803,0.6225638085148124,-0.6763696819613881,-0.5410751323489517,0.22443569905068042,0.13188467428637085,-0.31411891733576086,-0.8755936129043922,-0.8849132214367028,0.33728355996002024,0.8620598221797509,0.33205513617838134,0.17540728768241032,0.47452289247720747,0.7163414318967609,-0.3552375621709487,0.422463413423969,-0.13133854086467073,-0.7104988932779953,-0.7090052439392607,0.3871535516960607,0.4375790918277527,0.0000275844550013034,0.006470141131407451,-0.6846263653908436,0.6195998899131666,-0.8795554022805157,0.7769455329635943,0.9626424071302303,0.2597996132102726,0.8614268040185794,0.682292617122597,-0.14458921676876507,-0.1682475486540814,-0.9275273046465191,0.5750090216281427,-0.5295341132599992,-0.5551419998614614,0.7541927909932341,0.8639512803323007,-0.9509344793853644,-0.9993015092265831,0.8410187170230311,0.5048452230106342,-0.7774361427419162,-7.418146225284802],[-0.013185737091630532,0.34873470297449155,0.608578769713199,-0.47408141956873995,-0.7764533342578055,-0.37904825634244615,-1.9195027626377725,-0.26428501009758665,0.651909056725493,-0.9596264814453982,0.8824295095446342,0.26120864101658814,-5.201075577964254,2.0602631433246943,0.0384130482153444,0.32159770796085796,-0.26684356588852065,0.28287298380575737,0.7787604877141768,-0.19658990833960646,-0.21787152819893751,0.38574815497660964,-0.20817320224118932,-0.7910724570264585,-0.4268423858292386,0.04804042137758054,0.26610252311338467,-0.02065781551289296,0.12528905562786993,-0.5019406318221462,-0.7879851482795933,0.54279718775546,0.3932797083367056,-0.30115306141278714,0.5816695384968478,-0.8231313580107456,0.9311981128570834,-0.834910228632023,-1.1940657490706559,0.057265037279213366,-0.9472602229177407,-0.9757980854299051,0.5939275722109354,-0.608992972631761,-0.29297912078396887,-0.16776940768475473,0.7626075304872739,-0.5081894633061175,0.10374555556766568,-0.05552882958352607,-1.018338478821427,0.07368457551715936,-0.7546134822325791,0.9959298637374787,-0.6987324015464812,-0.7094283039641412,0.5883632375575611,-0.45317358601527696,2.0397006057670057,-0.7122872584951998,0.6031252958288162,-0.4938108894915234,-0.4683511271344924,-0.9572196560786135,0.3388155664304591,0.5778286797652776,0.003712755292150688,-0.30799955463511697,-0.8409204349145925,0.9994884742953609,0.026037629658997884,-0.793745245383147,0.6685614549273657,-0.10188366130032657,0.2891640068274484,-0.7211992969942895,-1.0282928901466775,-0.1005695679829449,-0.6023905395986393,-0.9448694584601358,-0.7262048463554103,-0.5352607030936135,0.40798535413242343,0.6177822760859225,-0.46377513940126264,0.31323799185565737,-0.5105723385497593,-0.6038490564911888,0.4678160710350135,-0.6638342214469259,-1.0903620555735627,0.978126290472292,0.9239443215101869,-0.09568014524202632,0.9133487242846274,1.0134088383309288,0.3759638131754297,0.7768234037007115,-4.258383527120926],[-1.7189429597375536,0.6995904554174164,-0.8666855921061023,0.7312327207484771,0.03535130803784309,1.0244291421371645,-1.6506074737362835,-0.06776500173101921,0.03460008445370087,-0.1848198138915458,-0.4611214845151796,-0.3078778450204714,0.27514353759677945,-0.6273751204488311,-1.0074634301422956,-0.36645248745461123,-0.7739056338654251,-0.6547902547129917,0.2180429032948882,-1.6408122518112331,-0.493896520489256,0.4021888727531759,-0.10728909175604104,-0.15887802495793335,-0.7742852716837779,-0.08185698226506262,0.014931732980574545,-1.6945626419952313,-0.7571459737286286,0.3195665085189699,0.16303734816605225,0.45455847130562693,0.5606022797574369,0.32363157047608815,-0.10168905979647307,0.09025897531114271,-1.2358521049008349,-0.7120076181147031,-0.4086473126312782,1.290749263295038,0.251114067310964,-1.006862959926058,0.451851578270197,-0.029246015559434617,-0.7204039463723668,0.3354284814878901,-0.3542585693956578,-0.938429668430946,0.5491282049704228,0.7031071779796202,0.19019687153156753,-0.6366130254308332,-0.07314863684419498,0.42894312600952766,0.8448889446499412,-0.23292393045258789,0.5627196197478085,0.19638437252490465,0.37752638331791893,1.0441945434384796,-0.37704374745094793,0.038484903935885974,0.5492878933403283,-0.13403606367614643,0.09739567720804773,-0.4735434656540319,0.9257302682135773,-0.12875655488091028,-1.055714401463289,-0.11241585964653092,-0.6477706557685662,-0.551068983094226,-0.7781777940743324,0.30684319262103127,-0.5205183817001149,0.05699403507244418,-1.5266280225688569,-0.5869179558375437,0.4152335081324787,-0.39206919986008276,0.9672757278228382,0.1704717091179507,-0.30120425471862133,0.7157954896945884,0.12824249353178774,0.7250027017875552,-0.3936756453301455,-0.018221526662745884,-0.08873127786526122,-0.618751262031617,-0.08591284899161962,-0.9715972038915399,-0.39048434500815005,-1.4838141846382447,0.43599754286049514,-0.21604677001120487,-0.3510276469018157,-0.45498337103958836,-4.160160891527493],[0.06939792706075291,0.3354649494384263,0.23006072600866054,0.37532834552442645,-1.0693999824866696,-0.8248978025580639,-1.3092492038833001,0.33101331395548655,0.3699608155561717,-0.5673279364215155,-0.08713033488490153,-0.4692248193863625,0.6337425197406039,-0.7340336192733105,0.1536393565952644,-0.09829705243783707,0.3056331353141336,-1.1967122550179545,0.4534235957585403,0.8486992834069612,-0.890189348753835,0.3311600253097737,0.2977334688464521,-0.027658065904023112,-0.007331299910438395,-1.4142984715919396,-0.5691169467401411,-0.5259461891575546,0.07676416814081317,0.3665110549560486,0.04104451378348279,0.5338337902700454,-0.12994113254534806,-0.20386928383600073,0.526760216589976,0.04916642369588319,0.3660781342956581,0.46694538347809705,-0.18289372768003573,-0.2580658269022489,-0.25520177928531346,-0.18497547351235524,-0.7836445883808761,-0.6952030573839096,-0.25544426667678105,-1.1240998665678745,-0.319122702864501,0.8285284743408217,0.12600801382996077,-0.4712363406881574,-0.3275910261579059,0.2800065568063143,0.4063437611435359,0.7271641222597126,-0.6815392396708834,-0.4452766852092995,-0.4615791944427605,0.9434591221107476,-0.011658549269058868,-0.5189050894111189,-0.08694131939267395,-0.5115479721049385,-0.8181242971954451,0.35585096283845935,-0.47335322258231816,-1.3884836634136266,-0.7775003577891118,-0.06591678055124602,-0.9491247800735285,-0.06938971659809996,-0.3108750712345542,0.18578106252348606,-1.0853414556624494,-0.08641230350420338,-0.8051121602500295,-0.4552624456167876,-0.8532274542014366,-1.0186995924901603,-0.8623914632341341,-0.004311514558803393,-0.1274326726001459,0.323350998305998,0.16055854299325728,-0.15330740967132864,0.45381628935288654,-0.2621822674582093,-0.0888764458045783,-0.996492370655625,0.3600811668113786,0.33308844157628753,-0.27330425447218626,-0.7771918126014344,-0.5976700583337724,-0.7861419287537424,0.3874953314099004,-0.7384462994775062,0.08602953994047846,0.7668361033580585,-1.239157138199862],[0.500701780659837,0.7603960133970891,-0.4308627399759802,-0.7336517017705371,-0.8577347961603525,-0.49424918856068506,1.616659993031935,-0.4061441384138287,-0.46953213733898236,0.7085503204077251,0.2880395050490188,-0.8203383547097651,-6.066084980623831,-0.8455748731306425,0.2507604322334338,0.10371320134512654,-1.1095964068633115,0.16747145983686165,-0.0019618330727185123,-0.5173847035102653,-0.6656327402764188,-0.8098440279919245,-0.5320423697355713,-0.4270188064870829,-0.6726530700109153,-0.5557969267859338,-0.5547071882993033,-0.3864468665069084,-0.08580036920723264,0.9991021599535758,-0.6979001882928115,-0.364431917382944,-0.30204949800099185,0.47347917846043813,0.4013366547798793,0.03885783790001396,-0.3479349316078551,0.5238627827310854,-1.2394299495224268,0.47722766528598687,0.22081277914778646,-0.03820008067236214,-0.08251892652913217,0.19774621025700687,-0.7902952988873806,0.5904685342283265,-0.5616335256378148,-0.5034919659056939,0.7425143507201546,-0.42760344069079115,0.3479526416154074,-0.42976545835223745,-0.9685793185733967,0.2839799839872499,0.03396915060377546,-0.6355771702081344,0.5607512425604266,0.7838459454165738,-0.5616105485057616,0.8947894834507746,0.6936923525765588,0.9085480192330406,-0.815079427271514,-0.19540344587403402,-0.061704051496735336,1.2613869684882058,-0.5693713936622601,0.2793185969960814,0.3498311504918224,-0.6775438485358122,0.13703717342500565,0.6400471448402227,0.022546677274393433,-0.7634957653176362,0.492429878081495,0.22418643985267664,-0.8492666064537783,-0.21254223233126535,-0.10567578641689945,-0.4709083510999567,1.162248604843304,-0.5859735724224416,-0.11495768188486773,-0.693202975225113,0.5186481153790113,-0.5058868403380836,-0.4812933424988772,0.6232406608660565,0.9026099307941393,0.7831778192402317,-0.8145309912459768,-0.006855053682213715,0.3141650311283483,-0.14150535961028765,0.3344926417821661,1.0402340712956797,-0.737843925502287,-0.5870738755461306,-5.448981280882791],[-0.25095030675037855,-0.3734766220652064,1.050060967039275,0.347033006107583,0.4998251846409238,-0.4839573868228735,-3.882996238865983,-0.004549358396077247,-0.9176998989818045,0.6933029920346823,-0.39278243305109256,0.6529103481849747,1.4682778838740282,1.4895982271362849,-0.559695595696622,-0.49768418858736213,0.3964724168468083,0.25051646027860275,1.4016522418099897,0.041018579414228734,0.8784637459047027,0.7321770351502926,-0.7092534168773643,-0.21964763315687935,0.05461741497682286,-0.5170023723098373,0.6290605850160631,-4.082467285799463,-0.024019020066316437,1.253080593952103,0.13517391957046862,0.2255274265231171,0.1105321544314194,0.18995195519018637,0.11112198923487344,-1.0138516562257076,-0.5115350419623005,-0.0587360062881436,-0.683148430345152,0.3551110267608217,0.493144437861062,0.5688926114604218,-0.937503955127284,1.0105698005270412,0.5765620614557676,0.677170862450166,-0.46417269042579457,-0.13979113048418404,-0.03885534818372456,-0.23781983625001027,-0.49580928831447724,0.3002735331479791,-1.053881483922445,-0.46188609446442824,-0.7201212970123824,-0.4720517952562448,-0.11613168058766983,0.1070696008344115,0.23137314303347473,-0.9336241410424224,0.05854819270992434,0.12919694873376156,0.42678475444422487,-0.5713580741439033,-0.9679822985088676,-3.6279488794991632,0.2177470299719152,0.7625529503020942,-0.003459957358314132,-0.41973248407460545,0.6315622229693877,0.30063570451579485,0.8730837619663487,0.4840892313939006,0.5239907123076956,-0.9406052517352619,-0.1464969543862097,-0.5986375732325561,-0.2472902910325463,-0.6508888582831535,-0.1143152066124022,-0.7052037028965649,0.6497960434842734,0.46897860061048885,0.7611034449174158,0.004327756468173727,1.0408905179405192,0.16855674756172123,0.4343224094905139,-0.29175689308990727,-0.14791259088942968,-0.9475184007272078,-1.17394819286597,-4.4855410905863895,-0.29925716165606875,-3.6370726517935417,0.6476478586786334,0.47897991281371344,-2.343630915453369],[-0.3515097204496605,0.7193038723434426,-0.9275971549786757,-0.10780928745051468,0.5115277728026705,-0.15706357100498763,-2.887087711741418,-0.8984797278349371,0.162744094134971,-0.3130246323373846,-0.20974557223519263,-0.40954210500762517,-0.99027442456856,-0.6628366279196942,0.74512244806624,-0.4447055708347425,0.6901414020218226,-0.6235221384069509,0.7642899048157737,-0.17575622182969397,0.12756348867795103,-0.036984786081408046,-0.328865167300418,0.919342074438052,0.4820439952457969,-0.08982170453442756,0.5040793509166763,-2.6411067654692224,-0.26678677738525375,-0.8331253830889148,0.3129680843591602,-0.26571256220675427,-0.03022811403841339,-0.5215998692169547,0.36387518680656133,-0.267772167357273,0.04795140868520745,-0.8972285039041465,-0.3485493150004246,-1.1892108972090623,0.00045791588217161227,-0.5915867635582736,-0.4229259136933363,0.44276977469750695,0.3584868883038673,0.43769901183303245,-0.6329049757817896,-0.5528715500754535,-0.12178801480562186,-0.456879188532276,0.41414203302067853,-0.3088740685135457,0.2368818125277274,-0.33151777362147994,-0.323859235798883,0.16998267693011548,0.7940828910262522,0.3870265425520758,-0.3039696942686293,0.5918826150625732,-0.1747191667111158,0.8861055183353838,-0.7063766550970466,0.9264108717788246,0.7974694463281193,-1.9832511162290065,0.614604345208111,-0.5814016498958207,-0.15169214315730586,-0.10038294235905408,-0.29004334322929054,-0.24612017079397427,2.231062338647544,0.6117349767960222,0.5846563048629411,-0.24267252250835578,-0.13742870920392355,0.6636313429522892,0.4423861976249762,1.466930890670709,-0.5958690604118269,0.4005085509879372,-0.8687606618132545,0.3359010528412508,0.97737062081022,0.18976753084557382,0.4668401397816849,-1.4576170362213,-0.5210070078146625,-0.17496806666763823,0.31141374057866267,0.8015367882948581,-0.9786104511040988,-2.1593608759098264,-0.37807204081922496,-1.4505254817444357,-1.2360907913253474,-0.9858178560087115,-3.189332446099273],[-0.12456445364840175,-0.8836378995366896,-0.8057333171346202,-0.2936650787197866,0.1696165682314732,1.3737175429690616,-0.8443351900126879,-0.07111425535731516,-0.3791032124795832,0.23564531314386267,-0.17973576339003217,0.36244773948654774,-1.6641461501540769,0.43430091352503175,2.430625474742087,0.5833655246937294,1.1403912484833922,-0.5149145853148962,0.3330608139769899,-1.104462412160815,-0.23178866052034988,0.41199352138805995,-0.5416807734156379,-0.5900622926409272,0.43520465153949506,-0.020553749353320733,-0.32946125351648137,-0.29747803892026,0.2324893871301429,-0.4572797730184982,0.13168889131185302,-0.6671921974576422,-0.14447001571951654,-0.6340156502102938,-0.2906266549976513,0.41140554243470956,-1.030297006802235,-0.9587557760358193,-0.7009630739557567,0.6360722245146258,-0.8394864827967864,-1.7151246142579448,0.959635581717678,0.7282670444861625,0.2513367663431439,0.6054747743365564,-0.7832947208243931,-0.598927802640009,0.25216659965373134,1.2235549435312003,1.1373571359697707,0.7213267740432042,-0.33481696573616654,-0.08498229355615719,0.25095743074232374,-0.45260151058889236,-0.8117935163477286,-0.2369138597705112,1.3992195056396084,1.1856901826147213,-0.48345012157872425,0.30858055692557224,0.50953677716785,0.6418442960657617,-0.3574437742708701,-0.11868712902010929,0.45642672090075,-0.22990209989216207,0.023542492401378325,0.116263542331576,0.10033443694878903,0.24218456990768755,-0.5983605424490673,-0.6512528257785709,0.8961959021397594,0.8464626249877477,-0.7628443710150096,-0.028311670682095606,-0.011093232425564568,-0.1025704926934724,-0.9460009622775727,-0.16031338379695736,-0.42932780871937465,-0.8168242478892598,0.3286945239532902,-0.1874409821790162,-0.1375517404277138,-0.6477439773791455,0.47804653678170894,-0.03593666023042042,-1.258557284800107,0.06210613870420306,0.6710709366756591,0.23256411501635021,0.680366587625533,0.4266428900814495,-1.381050549738314,-0.4307227469266323,-3.1408323017336666],[0.29216257583997607,0.47586447130328136,0.9004009909689547,-0.049794330295514284,0.6481455900157261,1.0551019862646132,-2.22914733926106,-0.5115403685125741,0.4914083138543897,-0.4287099654552996,0.22936735140171635,0.5510370080877983,-2.165930493116778,0.24916058672926608,-0.7089918486735376,-0.04627855859515108,0.2071865694956607,-0.3407580956499576,1.81566689773051,0.20702581203666806,-0.7572511903913633,-0.18248683104912894,0.1927804491775991,0.5028976202079471,-0.6136317903985856,-0.4596608178735463,1.0639273634769457,-1.748796122632553,0.2511468141687924,1.0824421147720806,-0.5548557973908005,-1.0185811624834817,0.5527942331325986,-0.4054734482031831,-0.5611185809823565,-0.07716138260907072,0.20279287875163984,0.9714358772120013,-1.2211074821042225,0.5897775811406207,-0.7625863420805885,-0.9236384867348882,-0.708520939508447,0.09988842100330364,-0.46550472062170256,-0.785157286935946,0.8979521041760198,-0.3820094638336249,-0.032126588609627256,0.15124855725611505,0.5809020973608265,-0.9324207169560298,-0.6662447961261533,0.7737934448962663,0.8481472130751849,0.6849541555347629,-0.7071321307339041,-0.5438362491259976,-0.7912169071500033,0.941536727255262,-0.8478428298055202,-0.005040275576024917,0.4851592171721968,-0.6558242876277321,-1.086370944888516,-2.6211476590603953,0.15039828786849374,-0.8587286902745614,-0.16221665117057465,0.9126626343548115,0.5004288523663504,-0.7470679393668921,0.31098977207126133,-0.4713562827671895,-0.04235731100098783,0.5829502343243557,0.8715547837505221,-0.164129009708324,0.3732600961287373,0.6500628364786222,0.10491150234305688,-0.4727884951766226,0.8959346532308621,-0.6815905323535367,0.20032749610947545,0.6444401808394506,-0.9228339695630559,1.0254999430740608,-0.9197718200130153,-0.8271290519033269,-1.1241506624315134,0.4432369370588927,-0.3366105705913418,-1.533535520738847,-0.5171266182778191,-1.0553076588526464,-0.2878300299963335,0.8554479893504691,-4.479567035710374],[0.5102084627930028,0.20779093315552322,-0.4148842833059206,-0.8330882457653963,0.7830429071992829,0.35465083471550907,-3.6098548483090713,0.15496323822493258,-0.32928680734063726,-0.30564070186182607,-0.43904406786156847,0.15827087894522449,-0.7441909772283392,0.8813344017977776,0.14839851734717716,-0.08668158094893168,-0.47944674989220454,-0.13060881747587036,-0.22668510094676425,-0.24698305795016165,1.1525079466876431,0.21271854976378943,0.31909356133853656,-0.8581055114682492,-0.938477447805771,-0.273216109703451,-0.05580973180502078,-2.3115715090885054,-0.9878234501038066,0.09334525289692008,-0.16402539753046355,-0.03985171872344361,-0.08925271456726139,0.6196327042150563,-0.6697634648756863,-0.07449891569328358,2.133354139553982,-0.14930744399140655,-0.87517772961913,0.6170999791051576,-0.37890186834829337,-0.12403650779420342,1.1546883797823442,-1.265803721181312,-0.4129365263782378,-0.2689448418433852,0.15716450027618348,0.4133368054379908,0.16124729078225125,0.5474960762989906,-0.3025472497679037,-0.15003742947131102,-0.045001808254402496,-0.6390605231809335,-1.4183760634209805,0.4831855762912999,0.7655075911253645,-0.548128326689182,-0.8392539752824391,1.4196830316229931,0.6597084442777587,-0.07970335815564811,0.19418997865456109,0.1707344310120121,-0.9608063568166615,-2.1726283878198673,0.5730091661559503,-0.6323301830464254,-0.4421107128326995,0.6888216611230057,-0.38740837010152546,-0.3080993777123719,0.06805594274350671,-0.5428729342558684,-0.8639682993443586,0.3007703264066874,-0.3785512490376119,-0.5259123194413053,-0.04680274408398245,0.005409490889182744,-0.23515231889135796,-0.45437540931012976,-0.44119764614470164,0.5255517411442535,-0.2450377978720933,1.2389637035963879,-1.0108342133786974,0.17809025727033995,-0.31471923857464357,0.3136267763768001,-0.14562923222247398,0.9906236676445311,0.0012292163876802152,-3.246634039593642,-0.26423666620575753,-1.75318386010419,-0.21434622626154004,-0.5872619535146945,-4.25146005631166],[-0.2873783293626492,0.4545136224525861,0.08445088873142995,0.3224681088302452,-0.823818368798764,0.3470450023273373,-1.2796622266146414,-0.28979642536046696,-0.49356500283052324,-0.23111968357847107,0.06619292165144103,-0.6429575994058563,-2.596666485547474,-0.8986530946023891,-0.028374541918394145,-0.6665572870105226,-0.539110343606778,-0.20424101890592525,1.0156429116095043,-0.4414079080208106,0.4857848819503111,-0.45805346932144925,-0.760760223388156,-0.6390753691517689,0.5130611735487995,0.21547771944876776,-0.8955511741402522,-1.083457341168581,0.5610668092338565,-0.026352051234502967,0.6014674011327426,0.5197854592520244,-0.13411380757088961,0.5148701312724003,-0.8944960253833083,1.3374817356716895,0.026526003935580595,0.9257550188511452,0.8778475851310505,-0.7797227526982093,-0.06396772135117171,-0.21659980672959447,0.8000950273691315,0.22759735687965016,0.7966661631834409,-0.5835293728111678,-0.09063382553755846,-0.3502733424999534,0.7868730319678059,-0.022108219400456403,0.5543794069021711,-0.9251034842433873,-0.3863233078336837,0.5289249797947495,-1.0023034652475067,0.8890506840314739,-0.8919155923652441,-0.03900593827812769,-0.9186010584405496,-0.5240538360740027,-0.9653407145676719,0.6983971796374189,0.4145127595912651,0.12821112440987767,-0.6609825151963548,-1.3342543647974967,-0.5407033712110159,-0.03355996377373902,-1.056351226828973,0.19160722828427423,0.4924533008460626,0.25386278522327255,-0.030909697571120866,-0.705104511027744,-0.4649645795337872,-0.8431098154956067,-0.3392940862850353,-0.7078471049988749,-0.5260864970656013,-0.8840274865144847,-0.35959587231125556,0.8750289176273486,-0.005544408592482902,0.297835846636524,-0.047125704019127426,-0.6748682199176426,-0.7470994581628235,-0.09191482366676341,-0.02246815150885688,-0.6491629562350502,-0.8105006588090757,-0.9392285362963871,0.3033062321963989,-0.31181810213872485,-0.6439796207149372,-0.8303261097733068,-0.03658503472629983,0.038568532474828235,-5.076397965138121],[-0.08282579497628384,-0.635772386026181,0.1359453881731605,-0.14612678000606352,0.6797330930983226,0.3841010648179328,-1.1846574800140992,-0.6902127723988979,-0.8481973549098493,-0.3301531029279205,-0.012419032989539214,0.6493804931947266,-0.7562564006083782,0.1413802793971688,1.0704382390528466,-0.06018633040138471,-0.9149000843870502,-0.15664116023954053,-0.6379758589631909,0.08388136472182853,1.1748384774694136,-0.4203650815787537,0.17438251367334043,0.020098968748024307,0.1734084774941228,-1.3839277458472747,1.4337732347942451,-2.2475565473646646,-0.11464332029573435,0.2064461745984486,0.0004037897078254445,0.32010797277403463,-0.2080559178863836,0.20260219660064308,0.5470449435934818,1.168356294025826,0.20958422365616494,-0.804855640601695,0.10832941678525931,-0.8481653185604022,-0.5512273230319482,0.17025202663520284,-0.4947423344302646,0.1170394620102583,-0.3267441126657683,0.19817904837928618,-0.16179243169836593,0.10027909206739939,0.3483170693664666,-0.15940038777730736,0.38345799303052935,0.024833148345184856,-0.5555198648471473,-0.8273500425346383,0.5978716469284934,0.08201588635394418,-0.07626083214161468,0.24661051903226225,-0.18287198998423113,-0.4752634594299243,-0.29719749252305444,0.2830848601287323,0.32700627236247326,0.7227205099259014,1.1815905560252338,-1.9518713476444804,0.8108707888901229,0.4974732831963774,0.7215463174664799,-0.7777952179999026,-0.4274923981219084,-0.10426499057624715,0.47964363133498,0.004482697439421162,0.24221202964668395,0.15529738084417327,-1.3961974843855782,0.05422231536102277,0.3775137436693542,-0.041084304506976484,-0.6432794440628595,0.27188237768914786,1.4189712116637907,-0.174379156912834,-0.1934035859323435,-0.012347777910107117,-0.6446854048831508,1.2820012592561114,-0.7208802624557014,0.6661597846701863,0.24267758251074661,0.7150881852371237,-0.44618821206310605,-1.6826596800140403,0.758684658124307,