{"HiddenLayer":[0.00010805029229421579,0.022097720124977717,0.000003024762548645529,0.0005382296454058042,0.0006069442794629368,0.01820612015948668,0.00017369193840735712,0.00038122109443380605,5.4100817300073783e-8,0.08810179811939772,0.000765570948506638,0.002231262584268513,0.00009607633313823083,3.097054075362849e-11,0.000013087630194669427,0.000021183204888951264,0.00018660396162294875,0.01820776677529279,0.3693486071125264,9.425552682668907e-7,0.0017204150684245207,0.0008197433370272971,0.00003930837547970337,0.00009604792453837539,0.0021263482574318854,0.001640309725849187,0.00028043744493958217,0.0003102468116489596,0.000007521650670030215,0.000001077378958164651,2.3432400989672684e-7,0.044232764261070756,0.00009693207684871146,0.00011282589255687763,0.0017074745535943289,1.3963506274895192e-8,2.690441607251659e-7,0.0730285415426547,1.856855087633184e-11,0.014227193320065347,0.001267294681948565,0.0000010342100268036042,0.00041440682028140994,0.005521853627633332,0.005453188436051377,0.00015208503006914711,0.00025661161612888225,2.5985666584253038e-9,1.4552216514722085e-7,0.00030643146690397617,1],"InputLayer":[0,0,0,0,0,1,0,0,0,0,0,0,0,0,0,0,0,0,1,0,0,0,0,0,0,0,0,0,0,0,0,0,0,0,0,0,0,0,0,0,0,0,0,0,0,0,0,0,0,0,0,0,0,0,0,0,0,0,0,0,0,0,0,0,0,0,0,0,0,0,0,0,0,0,0,0,1,0,0,0,0,0,0,0,0,1,0,0,0,0,0,0,0,0,0,0,0,0,1],"OutputLayer":[0.9707910658063627,-0.00704607914235833,-0.00006297129306120919,0.04783303189020159,0.010030186645462152,-0.001675806646468131,0.05331541811551028,-0.010958665113712053,0.025774433519157064,0.21826066411951417,0.008643788083335435,0.028577835521762962,-0.035233335503154745,0.002124797389302824,0.02072219497026584,0.023856500604697614,-0.06276944275445646,-0.039773296825029426,-0.025192761220430265,0.018636307197179,-0.012502874443123979,-0.017892368545400175,-0.0012195856584783366,-0.006112531146188149,-0.01540594370196893,-0.006852038503450675],"WeightHidden":[[-0.4105918885101639,0.040055456109655024,-0.12633770483194545,0.02093287425037824,-0.8683979007976935,0.33667353980828235,0.9931042655677927,-0.11862730212688087,0.06537323220518268,-0.4521154312399438,0.3534169628348665,-0.6321519919339823,-0.7824157084546165,-0.28660302436489804,0.7887548751050619,-0.07625196220230132,-0.28955130935931217,0.3475607237002256,0.12844689123723613,-0.7353798847240524,0.028487717768001127,-0.4645748069452488,-0.9155139571795419,0.5408456995940071,-0.2969770786380564,-0.3122670942642043,-0.5843494357966551,0.03732320331191139,0.10715503755588748,-0.23441388818665582,0.40968168213851697,-0.6165160550744901,-0.3886947663552579,0.9389593927591487,0.37437544051929517,-0.9627267845446219,-0.20763190112608684,0.7390668741707395,0.06891949427551214,-0.7242860610273606,0.08343752550803141,-0.7980805157054262,0.22403006519042273,-0.46168805808108254,0.768436055708243,0.3791103402567379,0.39845825999252743,0.3638976904505369,0.46681145328082,0.3752730639755212,-0.8077234342527898,-0.7506176784338932,0.3382983005105382,-0.2447286905636934,0.463862574397837,0.09863576949440292,0.41248127458543477,0.4781597937734172,-0.321372056944391,-0.18579778669071026,-0.058905279793740384,-0.6736088564394388,0.09753851031681163,0.9493717801531972,-4.40212401460243,-0.7627177072178671,-0.28516983354251446,-0.4149504741974894,0.5500189351536388,-0.5855719097110353,-1.1029986343436025,-0.9425354566796387,0.9213306538928727,0.0904337848614394,-0.34107579778688635,-0.9382993508259603,-0.12969652912127114,0.5928068510700686,0.3159448396545938,-0.002499378480909785,0.5234350924646337,0.8092891664521702,0.29955735984858584,-0.12674181860311134,-0.7383880327472642,-4.775918525624532,0.10679968523090402,-1.213513578733413,0.4916917712624307,0.9021962648121471,-0.6469477907051853,-0.5312166751368214,0.01617311474793622,-0.4096564753672641,-0.06506628148133554,-1.2296073318982434,-0.2776806930163028,-0.052322083020381355,-4.692294717689586],[-0.22595336835356705,0.3148161442046911,0.15563994188278846,-0.11335919183507347,0.49938048478744534,0.5636513366961436,-0.6041445575241023,-0.66734097582015,0.3492091635588284,0.15336110134840533,-0.6966860117115419,-0.13394666447437686,-0.6282916284578737,-1.1814445975927972,0.3934581849817649,-0.5873756515272313,-4.110257556556343,-0.11038860091129211,0.7879043959998487,0.10811379858977904,-0.4688348666286077,0.7275981856955025,0.33998147486029107,-1.3744028327249238,-0.8630252218956485,-0.07517810241471679,1.2859998463259272,1.0344049203391583,-0.17069661350917256,-0.3926661553801909,-0.4081847213686051,-0.9976287887283689,-0.3481580616986541,-0.6177477544629847,0.41240341773132855,-0.5970582361441811,0.39081224693556527,-0.5114125755306341,-0.32471907879178014,-0.18866377328863126,-0.9848093919834888,0.038321435505422254,-0.7471836825283797,0.2652504052613681,0.04849004259900745,-0.23960203608184058,-0.32705729870054445,-1.3810185951628469,0.7430497678244439,-0.5775277988885205,0.932934616649206,-0.8155813470389538,0.33768184420162733,0.20174702897264674,-1.0848577761649996,-0.8598370588610161,0.1354561891131976,0.19023738705395263,0.6839168845597281,0.47130509906399776,0.6843273928693446,-0.3566462756176726,-0.28872624619153536,0.26190252279867,2.662145652903183,-3.6519758194661867,-0.08317224418391363,-0.9713155092740616,0.2151368425867467,0.16524410361139327,0.3396019461695459,-0.75670796045494,-0.4110696488202611,-0.4786386507389832,0.3593501240427633,-0.29951502920502077,-1.7384828457351573,-0.4183911834039603,-0.1864120038764628,-0.3877717626393682,0.5517489319237466,0.5394142277673372,1.2911343163656812,-0.7101220348001857,-0.4863753191722809,0.003638093551657585,0.2902714451202761,0.06777024229489546,-0.48321385842830955,0.6436544059352158,-0.49896234144287305,-0.9080703022913441,-3.636126461108765,-1.2712626147260153,0.8606067065559816,-4.457574375157676,-0.38892734377475974,-0.04783243647760135,-3.4073619229810546],[-0.7221221424497618,-0.6419033502199138,-0.2232173809372961,0.1444136385328143,0.691373809529506,-0.1599580374863646,1.0652925632032364,-0.6107197577249018,0.6242877463070292,0.4408232534983643,-0.8104297508994686,0.6140360328421871,-0.5790796383990103,0.19769719208064573,0.3824768813752659,0.07945343851926458,-0.8393203984526517,-0.07199340143391167,0.7345338662139042,0.21303231768759937,-0.5311346044822822,-0.5598596093882507,0.26037061774609394,0.2993408404964564,-0.5718736581826883,-0.38632346975506204,0.7696105309936969,0.5582626792998916,0.10215547124353172,-0.03014182584842979,-0.6271151608327515,-0.29443607417795953,-0.8683379798932547,0.8199722581296522,0.27708336640542763,0.7970280713677197,0.10979398736921543,-0.98630150631506,0.8460403543443166,-0.5365976770174453,-0.8462234324929894,-0.18029777513750683,0.48114011094019443,-0.5164991846060432,-0.64225689216342,0.33780202325751574,-0.34703560691363083,0.7822708789297047,0.4095352724613866,0.13184297453867533,-0.3426033540920773,-0.7956530014696378,-0.05214409070417291,-0.8953764016946315,-0.6317569252225649,0.3830072040505263,0.9138676869592491,-0.21687775902422798,-0.20138960166624065,0.8338754533682402,0.8579577024754326,0.9977522855263508,0.6840120044779635,-0.35344958671125193,-5.677312619705483,-0.4008841772781484,0.9962826602306799,0.6424005325204394,1.290308375857385,-0.6604474667736847,0.4108542611722382,0.6913860066853219,0.7195361010952805,0.5282358469838415,-0.1395344918070729,-0.7805556153317118,-0.04771783264485053,0.1756839161716943,-0.8124801562403631,-0.7896703672597466,0.1627357498059032,0.15683885726907984,-0.20558074680467628,-0.42374244775717995,-0.7003954152756456,-6.710391359712398,0.6654147163780688,-0.2847768011783879,-0.4941423582120487,0.0996876701289527,0.3086078878627309,-0.39174924430384195,0.9026660235111265,-0.15904571423370614,0.9709015512817698,0.24172328053503903,-0.40313739372591645,-0.21297263861222657,-6.52514184836382],[-0.7074616797955787,0.05578804401021121,0.21570686854343335,-0.3170831046791007,1.1076331399837451,-0.7304203687394216,-1.1790262683121848,0.22727599844964752,-0.20717025893913812,-0.431945882843821,1.6874096298520234,-0.6788428897816409,0.021204360143107386,1.0461847628591672,-0.6907458662384521,0.5392334820266388,-0.695774384748467,-0.6101770563689599,0.8978434568309922,0.9494856003573854,-0.5654486476033461,-0.08781855608444714,-0.470024569909486,-0.5034677979517027,-0.7817751985870607,-0.17398597927503243,-0.27150011021048415,0.2904215016226407,-0.04105711941298594,0.13581830741740408,-0.16827459246121665,-0.7626751199261709,0.13012138776957455,0.3325104717023156,0.6763238143142736,0.0010978793891309713,0.5910474663709179,0.16317641524197216,1.0053459580780888,0.4037211520495306,-0.5113050511762548,-0.745784183921851,0.4344383536994297,-0.8188322536005772,-0.1227137651956208,0.6819840744373576,0.2799391033686794,0.026810231184367664,-0.5683690135212104,-0.5245792344439113,0.004776020335182964,0.697003982468135,-0.40882493190696984,-0.3506252774728827,0.5933503082173817,-0.42882028384981846,0.7852931779254666,-0.5024924046489053,1.8934704392436774,-0.7226992578199498,0.573320803794285,-0.517904905061077,-0.07882174149671806,-0.4223447232421167,-3.6241302607290025,-0.9727898486086775,-0.15212033198447486,0.02577219170870327,0.6194162337833115,-0.0901496953556258,-0.83652145712492,-0.6567094771044112,-0.8053441298715721,0.684446155979055,0.45290717510298945,-0.01576838876570182,0.28011041586054913,0.3085299277584658,0.31292240287403866,0.1077625803586702,-0.2542773818490537,0.8824560259166163,-0.5127668289810726,-0.12650707603555866,-1.6550540172930437,-4.644700080591789,-0.7709381740378128,-1.902709481135994,-0.8564667960901814,0.657731948517007,0.5537445447902921,0.5308452441491405,-0.9104355834303447,-0.4353639863779297,0.653290462204133,0.5941735805893607,0.20120178126514593,0.06968907657735847,-3.3296115770903105],[0.5758329040753157,-0.2526747232999583,-0.7798298509930566,0.9611917827664375,-0.6758900960284981,-0.5956731417483951,0.9131893632777782,-0.6514778226112174,0.298926894281932,0.7441874056943032,0.7804890056676407,-0.8974996733354332,-0.9530578653035704,0.2747413543886021,0.11309996789569493,-1.1541735835703655,-0.6682718592000644,0.47968710005429843,0.848671271511793,-0.8035232042924251,0.07070366760441128,0.6803310841292911,-0.4208931270350154,0.25574438004135164,-0.6929791745124425,0.29719877206015166,-0.7846661978351744,-0.7694164625138704,-0.8386287259845321,0.406848581903084,-0.1276503950453403,0.6012492353075535,-0.5540013273746314,-0.8413438103572463,0.7302669460010712,-0.940508058827747,0.396170117254074,-0.628556251015998,-0.9343955474581155,-0.8244482375535856,-0.19613117379909475,-0.06450627560003176,0.7898989270525375,0.11024865688668238,0.4363377213694758,-0.03591116998346975,0.5102473758902555,-0.07066087702211565,-0.7336519062577639,1.2072113192131435,-0.6611664749795106,-0.5537637261091346,-0.7438155875421847,1.126502769244893,0.4295113744720255,0.5416824338315075,1.3803075201167094,0.40794032274433806,-0.942588065435625,0.7940478079432363,-0.512768360166691,-0.47102209658237787,0.21189047172860812,0.007946157864471476,-3.4835544324421344,-0.43472663615787394,-0.1357428577758948,-0.9638537981437088,-0.723954734331015,-0.13929507455001378,-1.1401009904033914,0.02623257712539713,1.721063386532099,0.1624797891800686,0.6688979061107514,-0.11872538153075568,0.4775946996140166,-0.07687208259976669,-0.4612000783163011,-0.4219027189888317,0.5327316462344938,0.5056447081684485,-0.5342610009213141,-0.063234219548947,-0.9403316541112426,-3.4231800528826786,-0.5576544740995987,0.1694705451962642,0.034405809764846154,0.7721705149301837,-0.6656347782578319,-0.2823807068913038,-0.23345801769037217,-0.10907923533364669,0.24553912956796364,-1.7568622546199661,-0.1862841260197822,0.4012306155206253,-4.713807880814076],[-0.004915886894652848,0.23352254514488432,-0.39161729570258064,-0.09535867397996191,0.4967800321798331,-0.05023768005912071,0.3019183878977433,0.49804719990814744,-0.6797212346176544,-0.36509131697180763,-0.9795007755072572,-0.7081199127460582,1.0225434174180115,-1.0050189559343787,0.4094861382592635,-0.21856310784622687,-0.8647054760967656,-0.32640267742473056,-0.1446635623680289,0.30013993008926554,-0.3957346880598828,-0.014689774435937648,-1.0508178460363842,-1.7664193644074178,1.4186181146027776,0.033259247459323835,0.3248763683725003,1.3515826586585784,1.406868552042469,1.0389853746145123,1.401799487874968,0.09305617682575969,-0.08158793587467172,-0.07623699307150646,0.9911182194850474,-0.37560184356278525,0.22422828387486438,0.32391538911073414,-0.012515182753320295,0.04082100478948104,-0.46517901059942823,-0.34781673458763923,0.7118351113735862,0.13139335692314308,-0.1534840371557853,0.11228676174282295,-1.495644503529928,-1.7473070259884484,0.13429925618771588,-0.5009614408972017,-0.3758289367461649,0.037258305009264504,-0.7604667727238454,-0.5580298736551855,-0.15938626127751804,0.5915891542402087,-0.5722631031005297,0.3277961644112944,-0.5105863871865862,-0.009306840220810655,-0.19643429056103345,0.045754863839985005,-0.2596723620628013,-0.11098091488665811,-1.699077119713961,-0.12965734088548622,-0.4271058400216653,-0.022069706887399444,0.3124927192512515,-0.03019112778172771,0.025608719453011023,0.024649758939519848,0.7611468761797117,-0.760728937778208,0.33733874773930267,0.8015915050879028,-0.8202027872406813,0.5770471292542829,-0.03306265503211167,-0.13427787177069528,-0.4161032588009893,-0.10349159588237672,0.3034664931712741,-0.3604054392415749,0.5313107972905156,-1.078137742844217,-0.5280431898850166,-0.17347589520670706,-0.00838498035830189,0.024322956985982823,0.46676293655227097,-0.8760181883881327,-0.3604842703588649,-1.376697127944192,0.8300791124721177,-2.6402021545178274,-0.9908411476729571,-0.5997263562392682,-1.894804526826628],[0.09277930861807326,-0.47600580551464117,-0.15895834933525987,0.11093117814096584,1.0658490044523723,-0.7071094058776105,0.7333303088667126,0.49339156658860256,-0.9967269229967061,-0.42186829101114964,1.4584210843527023,0.6181393619842663,-0.5941635500503849,0.4023491985004754,0.19441025835314207,-0.042561817954613786,0.48757820187688117,-0.758011324611325,-0.021775166212572045,-0.6515754969981895,0.7478745877476671,0.011871158298092255,0.7813527961181933,0.6391521295584768,-0.16034599921873666,0.38623872068558907,-0.5525459355217811,0.046701396840564804,0.1852522901551389,0.645635472353825,0.045035515426253364,0.8886158523877244,-0.8122484043725304,0.2642530675948125,0.5744910680437358,-0.5935383295161643,0.5105745799189695,-0.19027833162669947,-0.5806974355404235,0.46729279359335757,-0.459912272551562,0.32382220378907334,0.5222275230892159,0.9705005038941291,0.6644633281124005,0.362607450538771,0.41647260375039646,0.9094294702484182,-0.6745700325263438,-0.397788934594794,-0.2664717624935549,-0.8389655183162802,0.18844015568087166,-0.3660783422479026,0.5088490482117708,0.19203287788390966,0.5151881873387714,0.455767345018427,0.5417439300335564,-0.9196480269249744,-0.9137302672201547,0.81997125172843,0.6003041628151164,-0.4485615895203588,-4.935369754824818,-0.36977532277027275,-0.8382130792984064,0.03592558469566157,0.9248192676635073,-0.5344703091611506,0.09224132248784778,-0.8829437502291042,-0.15200488809306414,-0.5229438487338514,-0.7745285470361822,0.3066237233308197,0.7676478360410757,0.6070314380324049,-0.8789936770368559,-0.1533137258728242,-0.058099094826754606,0.46922370460307966,-0.3523204086561174,0.3559593111586241,0.7738556435114639,-3.949809380192096,0.39242100252893114,-0.7860855826435321,0.2502974357968852,0.6940090356817118,0.9024184890324347,-0.8668856116693847,-0.22247556165629304,0.09181283480802167,0.9583046874418151,-1.2333195429864496,-0.07081030392520991,-0.14430068628586804,-4.747019750538481],[-0.13923824136463286,0.24857471300328982,1.925621266945981,-0.8194265749792637,-0.8295616148403064,-0.16357934772156982,0.4913677812649101,-0.5121752269905131,0.5542904098755689,-0.5140632949268676,-0.5781933880264937,-0.21754118447307788,1.8038885050221305,1.114904869682157,-0.8431849417510296,-0.43545958001181373,-0.6583882981878272,-0.863615668264594,-0.541223118737334,0.5208181541542192,0.640123039037046,0.022722218182732838,-0.5621212911484355,-0.14811794158534605,-0.1137048805395156,-0.6727991636696694,-0.8587002377925472,0.8143381210291004,-0.18996782353789377,1.8165941357978435,-0.2563615270497403,-0.2865861242913512,-0.794401809228999,-0.8115503961773823,-0.9878517206602485,0.3738717192844238,0.05120566612876853,-0.7081673368029652,-0.4080498509260367,-0.46682483812258113,0.08187169624117424,-0.7606620584988047,0.5214440861006332,0.04131130303881683,-0.7054268342614382,-0.4105426997262142,-0.7213408029102133,-1.4565696463822386,0.6113325035436605,0.6347322146756734,0.6181118095628033,0.44226022694204575,0.1230708701763907,0.5618692241293702,0.6588970191645659,-0.2150714272028413,-0.29643653575563894,-0.1600449924448167,0.3534349953136369,0.16985496879376027,-0.20393863129313644,0.05626122742264477,-0.7006907692341775,0.746390791755932,-1.8122628494241568,0.16828711629002133,0.09878262132144763,0.8215234462954599,-0.33274483187265086,-0.17381080413538935,-0.35865915588636277,0.7964887150589783,-0.5652478125696633,0.48927979477196504,0.7739493656970491,0.6588459674394002,-1.464124753679208,-0.24166809181231602,0.0520381243143413,0.726399293309398,0.16419165082359316,-0.4545243286227144,-0.4234388420102476,-0.0466905129805985,-0.7021000412372002,-3.395546203314236,-0.6892691261707603,-0.6183312580997578,0.24094995231281405,0.9229743302071515,-0.4070600854398579,0.47285597102042803,-0.6423167125998135,-1.5475924883477488,-0.051474966187968284,-1.8312683411244015,0.14554144217016998,-0.3601497964235777,-2.307227592481146],[0.08741693617588628,0.34092422724428173,0.41111143091119406,-0.39236345793258715,0.6532572658198219,0.6878037117950025,-0.4313009576892341,0.6332726539079394,-0.8629264415853342,-0.289809878694029,-0.4848316725479749,-0.8478403196959159,-0.7740253499996153,0.2398876896541757,-0.5004169269999061,-0.8783779851534431,-9.165636411587224,-0.9936871740220908,-0.3931812995202036,0.1642339637612444,0.4756637470066155,-0.403817910508174,-0.2648024957782275,-1.1747181821037136,-0.2793880416084975,0.4429452068341603,-0.5517883578382015,-0.7101641375248712,0.22092474508749055,-0.09533034853875368,0.8881746568087673,0.17770529494274415,0.991449132586812,0.5999936608842033,0.22005587931659817,-0.12912472132159686,0.46297325849226156,0.1423649984712901,0.1003887026759056,0.03995921287434143,0.7538595273703336,-0.4661167317908782,0.1646779420455458,0.7044716922490208,0.4547015865563562,0.8473463027193558,0.20557317354188398,-1.102211383860593,0.4723202712349392,0.38664304479559597,0.3283352035755651,0.34116048502226365,-0.28870091386600816,0.9402973910774878,0.8849810404472225,-0.14901244135806746,0.41827908669758174,0.999271130371743,-0.3983103502795512,0.14147267113464204,0.30747675652536216,-0.2126022463444177,0.398998400590792,-0.6812515257784593,2.3063691624701415,-9.071546093494675,0.7902189733808744,-0.15992922288389416,-0.05821234439656278,-0.5557174267443782,-0.5046918057505805,-0.12638579073938874,-0.7621740034500125,-0.4680854103913849,0.3735718874790501,0.03745479722812094,-9.647443485229946,-0.5353091012349183,0.6552739679083872,0.783213201514553,0.951770401362051,0.4155756731914434,1.0144183061532932,0.4659015926125885,-0.7302575588172231,1.7610330107494694,-0.0059836224306697335,0.049442448925911577,0.7423271461233578,0.9720324192158374,-0.6398972935420423,0.7286327839676293,-10.327813339824722,-1.112549831554393,0.2269532968317331,-10.662890504142188,0.5808633943697061,-0.6924088063330531,-9.14063875673823],[-0.11094873484237032,-0.6278004433156443,-0.05162164276728892,-0.7350302705604569,-0.014310474774021456,-0.9338655464364713,0.05063235395255419,0.7875158759215053,-1.0632343695534923,0.15195296182072257,-1.170559540253279,0.32062738555409454,-0.40884278274358005,-0.6815003566135795,0.30490383265822996,0.27431440697573095,-0.933163807179972,-0.24605276666080453,0.6136725576760346,-0.9337594980353765,-0.4921094668407962,0.2028044906313083,-0.28730084559073615,0.17800007858453312,-0.3396919422770483,0.2891168340856111,-0.3479583018594553,-0.05553868726796977,-0.31142907751701093,-0.34983641846728264,-0.28507934600154855,-0.3235814906463773,-0.3929894607410886,-0.5240762039466169,0.5832642111553201,0.03052294843910374,1.458805972976397,-0.08897521954133446,-0.3307330334868176,-0.04222774854807914,0.709197710244671,-0.9153412488690609,0.2442565429298579,-1.1292458761007094,-0.9057958550705348,0.47257747199756844,-0.2506834498109117,0.069197077158754,0.23907555236726877,0.8166440922568674,0.18713371751639704,-0.1663098334804301,1.394047228773457,-1.379065945430843,-0.9229332471750556,-0.5317627290675416,-0.2480768470003489,0.12307861961797435,-0.7903799161741079,-0.30940682628543426,-0.7571625923711106,-1.1659638580321887,-0.36089898747368593,-0.7017673755466166,1.6656982315895998,-1.3183607356265248,-0.3902762731130546,0.6948473594250472,0.07172943637316251,0.17749035913459876,-0.6387878782200693,-0.26077512978090206,-0.6229827268301182,-0.3559325143116042,-0.05968087783519457,-0.22619899957502704,0.4247060403993866,-0.13768417982765682,-0.6121382231121183,-0.08056534511102025,0.3732776112794918,-0.6824483637852302,0.16657771290273937,0.7493394950769744,-0.23061980796700837,0.05154848700670828,-0.1505772956423326,-0.6689595957986405,-0.06727694217328456,-0.25206923995273006,0.46950118562122994,-0.9968882246535149,-0.08606863429698162,0.3029153833012439,0.10144493763475511,-1.7777310332855627,0.4991539019535538,-0.12516197405550805,-2.494210237380347],[0.5943009571953555,-0.4869791225079526,-0.7426306656078995,0.4206779768403725,0.08700079404031416,0.413262217149852,-0.19672707728813463,-0.9353088187899488,-0.8277745300174985,0.7433903497170415,0.7772441380019208,-0.5810800255558496,-0.25663198159210765,-0.5452198810913704,-0.0033024128835182085,1.451176193072662,0.6016848753883643,-0.24786085308475325,0.8383159540268958,0.0035625182339121034,-0.30699311350372405,-0.9398032114189516,0.44468245666861295,0.9435827217447641,0.6362374996445167,-1.1131645466627378,0.265890733857942,-0.5564660108389914,-0.06962924340903187,0.7092909278192774,0.14004796871367492,-0.315140389290664,0.04832749947676146,0.8426466288323969,-0.5917573786246311,0.8033954356946609,0.8898658321040531,0.7099149798876728,-1.110561484893369,-0.9960848470223486,0.494791761033073,0.6923816539081158,-0.42763476598159766,-0.19043163500146104,-0.08699159876344059,0.21418881034071469,0.031669750795666515,1.8905162403046265,-0.2612821720188795,-0.04833718055527839,-0.9002674900907792,-0.9439811608833208,-1.0470920689707672,0.3855461206233984,-0.9201210034063263,0.6668006124933172,-0.48205026526949457,0.5039124231733887,0.2926296603239955,-0.5936126802469328,0.7318206689211431,0.2682316802410421,-0.343986013579816,0.33253395291982984,-4.302392294687296,-0.3902567648826068,-0.4702547793309488,0.049406965882796326,0.04523010173832757,0.8284029405102882,0.004181772931788779,-0.5286490438933984,-0.01389991484445136,0.1308132305790167,-0.39562424070442825,0.012623903304070693,-0.4504090082184873,-0.21184203977380175,0.6388547222066486,-0.5355345024326313,0.8040263114933736,-0.12422022031469725,-0.5549068613921299,-0.8363708507527642,0.8980968653979146,-2.8607087136697755,0.19459110494013984,1.891652185725711,-0.7452232908462277,-0.6920883412104131,0.4875303555923554,-0.702410883979021,-0.06758152355203444,0.1373369933106449,-0.3324186388346494,1.744131956564503,0.6494041898342301,-0.16330410321472488,-5.114545948260436],[0.06656286388350274,0.41352526571230125,0.3089325961923626,-0.4063892874527888,0.18818720875743808,0.26493043053361964,-0.0421891235328433,-0.5459182666674693,0.20642722059413704,0.5706476966045575,0.5286354996486706,-0.2757076368724778,0.13095935662388805,-0.1539186230179969,2.116874499842033,-0.1584771401875965,-3.8006279410982775,0.7541716276108844,-0.6066639269071706,0.11959551716891435,0.12773137899760828,0.03722463727831261,0.19561827487974764,-0.13863983031934035,-0.21908417172996328,0.8501501878498358,-1.2649373654377276,0.5313045769282035,-0.6178810219741918,0.006693558350579491,-0.4934069693818779,0.2633339612871379,0.08983596770655984,-0.3590470393240224,-0.33577947768660077,-0.361485980291239,-0.28564386587927676,-0.6494888928127335,-0.3782726958015892,-0.42372783632254324,0.44269048973286085,0.21474052308520383,0.3759778369854347,0.5641128456801785,0.6725740092392921,-0.18294688558864172,-0.09259642259213444,-0.0872977412350488,-0.10979584913582247,0.2193164319854092,-0.585288000990441,0.3676273979504886,0.6849314562017251,-0.2306363068178335,-1.881128468640959,0.4381432373765957,-0.048553544803322045,0.30613583246855147,-0.23240987354111206,-0.43217615993580316,-0.6464906135300424,-0.01114569780123925,-1.0339537024545504,-0.23722217930686962,0.10732911466380861,-2.254195234070665,-0.08188194468254816,-0.0019785292857284623,0.6311197369109853,0.08881119211465016,-0.6246790372660135,0.2113147556903713,0.049479920261180345,-0.9125055532371434,0.4079624346565236,0.12079180512743615,-2.8109437431520137,0.10787668081643727,-0.7044756079500091,1.0515631256350306,0.5477051205695938,1.0394409529193058,-1.1268758231625082,0.47970589298666844,-0.7135171943350338,0.3718638662533997,0.4535371104630731,1.639258283409346,-0.4008962514100971,1.444679936041745,-0.12102591665712246,0.5354853438037894,-2.337321102590466,0.2329962804593535,0.9897255827634343,-4.257668312872922,-0.6675235614355234,-1.0123451005459423,-3.32281380860561],[0.19821970515122123,-0.21846511662547408,-1.2677603375093276,0.28778173473527535,0.0025844937231756402,-0.9828408667275407,-0.5599158174994231,-0.024638246537220958,-0.448179207821623,-0.6830075163112378,0.3293044260778135,0.4524092471221086,-0.3606410425722427,2.3435674185599447,0.14868616053051675,0.6187107175888025,0.1075433912054709,-0.7073289034787159,-0.9289069332853954,0.7917295786858747,0.5364317218526242,0.3117660957865794,-0.004721232973747916,-0.010846014038109518,0.8261487812720111,-0.9255631854386956,-0.27492852558890896,-0.0659442375086123,0.8281316087935362,-0.11989458263960157,0.6736659656844866,0.48207031878668105,-0.2534510851837211,-0.3891873278984608,0.2326423443079996,0.040980891505220766,0.9109087770136474,-0.4272727513658911,-0.16622059330207042,-0.8650352152411844,-0.5697590494488078,-0.9835597549136058,0.1128821792414653,-0.03575742943633761,-0.13198499220804852,0.790938808525976,-0.9031782501821803,-1.0238270589082066,0.38879821998138225,-0.13866319501240923,1.5280779282041748,-0.22221242860883622,0.13781709823218896,-0.584903400000644,0.28273803656912705,-0.3035291983866244,0.04009239262227067,-0.3924045076598564,0.7318840096207558,0.35607689021050193,-0.4014077275209279,0.1924601055559035,0.3017424932472787,-0.10935922099821249,-2.436235193203118,0.45792069526242024,0.6306926390378846,0.6791492510162552,-0.736914856495067,0.03172249040367057,0.1238346468830407,-0.8930028149021413,0.180398606790184,-0.3353070717295968,-0.7088822567757691,0.4380431537444265,-0.9967263386783304,-0.40051087619569337,-0.5656937372473584,0.2858146514753837,-0.45829684555007394,-0.38936539996404773,-0.47274217470778135,-0.029778632882115685,0.7877227811628201,-3.6384725991717066,-0.7800540630377937,-1.1878238613356304,0.44695553512038916,-0.6186849774382228,-0.7799475008645247,0.38316105885589397,0.6358492915667445,-0.42584574219417637,-0.4257347131042474,0.04354996764856691,0.4488842772440114,0.2693813659111131,-2.703332734276802],[-0.05691762357702678,-0.32768920804615786,-0.26136895450203895,-0.6265696877403216,-0.3546907388224221,-0.9071798261937449,0.9266853583773579,-0.5386160493447635,0.020855104232033125,-0.9547798793400244,0.1410925241208235,-0.30373270318524676,-0.227107161557266,0.03481013722371523,-0.7130669633162328,0.39428979804686964,-7.785591384534098,-0.5272960567280219,0.6771825202830933,-0.31609724078263757,0.31731835793607016,-0.37616591675473143,0.4911228709449789,-1.2425417034571,0.6816846203238984,0.9107993200858827,-0.9300332622271036,-0.819096215673572,-0.9127044183474198,-0.7034853508312046,-0.5357807705564409,-0.8123371349544166,0.9744264932685337,0.7542645635282885,-0.8509155901079384,-0.03839199857689403,0.542078173949323,-0.24116339630256453,-0.3273667396178073,0.4703284058289844,-0.8195697799367789,-0.6577301305366376,-0.5015881853170311,0.343101512244906,0.908801596555876,-0.6600630877783584,0.3131189331003234,-0.7622730517314735,-0.9416811575954526,0.9675456395955029,0.12647631674369164,-0.45104127320745596,-0.12644112177482225,-0.6813922513188052,-0.9949542067320235,0.8983704187292796,-0.065200243199809,0.23404732617655855,0.10760634032756917,-0.5971839241987037,-0.266555200789552,0.8959275255330175,0.31358289199976125,0.869671423810905,-2.827731766087656,-8.45395222455105,-0.2661912578148366,0.817211990554863,0.42485796977041523,0.2014038312283466,0.24644891652991166,-0.3530382447143502,-0.1838727349553295,0.08059219326555027,0.5703763209794793,0.8458988633393456,-8.402988112190991,-0.12659420129768556,0.4657433694096648,-0.07088983694671176,0.7414211978995983,-0.8649984521573036,0.21207613931795102,-0.9488177116669438,0.5950786437600457,-4.105934191467462,-0.9088342818407525,-0.5915784568937441,-0.0710418709737812,-0.9247407791562977,0.371646269649731,0.651342423121973,-7.976263116430789,0.524326110817068,0.6522758742385665,-8.520934807741503,-0.38221280404827623,0.7970281327719523,-11.459065042926833],[-0.4281573087038893,-0.42491783942447214,-0.775694645222394,0.31062707540365003,-0.01139207363787489,-0.9255253330056635,-0.9547252685198694,-0.8775610493319765,-0.8206582032288947,-0.1368780067667767,-0.3785789015032391,0.8488642048466356,0.2929368198118688,0.3813566587589692,-0.3522148921033945,-0.3838079784186055,-5.019729982180571,-0.4410761885049966,0.05262584318949123,0.4148938419275523,1.5357585528697615,-0.13861783779180584,0.5761613153575788,0.686952101787893,0.0006559254255969279,0.2496533701891033,0.5563480380754904,0.553962948555241,0.047986039892538114,-0.402695601408907,-0.4435836176610922,-0.8094150985627439,-0.5983820466351631,-0.9869071265140503,0.3702140474060368,0.48290457524377933,-0.452884347797332,0.7000282371294836,0.18134975718313606,-0.1630563898799759,-0.04920381255046816,1.0374241414213667,-0.9425941974688381,-0.4169001218649543,0.12602909572092155,0.12099900810715525,0.6709997410442595,-0.6176504248961693,-0.9426920924203047,-0.8456507495888511,-0.452683646805742,1.8285896489171054,-0.5402910024139758,0.03724169037568848,-0.34866257044921745,-0.49261026968152405,0.1972865425937661,0.43575453860008256,-0.8450565718368538,-0.3134870884384236,-0.5165334378712343,0.6447465020051625,-0.1163936709577928,0.0036132531813402114,-0.44090117850943683,-4.455917448846417,-0.7664907044861218,0.10953509134699274,-0.5691327241700559,-0.7462403202697983,0.6801173182742979,-0.3120129427234768,0.4318731914648136,0.32062320812161976,0.3742061957173939,-0.7048207013474915,-3.8872425894967666,-0.7587888916660068,-0.02858204552700885,-0.3493408465780896,-0.027126441982857588,0.636383940542373,0.48874130519664416,0.37736128656933093,0.4903951437806776,-1.2137613992462128,0.9721656156862437,-0.949954073910922,-0.033010460101532406,-0.7908571374805684,-0.552873593076466,-0.33271467059743154,-5.003744900991647,-0.8845388732382029,1.1464528427240532,-3.5898021444845623,0.1826444017452645,0.700447284685481,-5.2699137376306595],[-0.5513448738896236,0.5967641139771577,-0.4230667606239614,-0.725225059162898,-0.30024985124729187,0.3844182008079896,-0.6633568246254672,0.7390869177371876,-0.4452284357282461,-0.34908825975590746,-0.40866590443893835,0.3789589246129068,-0.11349987872679726,0.07137792109147349,-0.9447983989120384,0.9062585781978889,-0.16086057002283233,1.0642599877133305,-0.8866529145964978,1.2819647621924073,0.5166300719472839,0.6166339012312689,0.4406919118667185,0.16495742815784822,-0.6154645766386104,-0.5984265765163493,-0.39782602120764543,-0.621352415766643,-0.31803847144818187,0.28983295716692997,-0.5257076400071553,-0.7970009094596109,0.39740013836637805,0.47743335518840596,-0.5637980300988692,0.8420002463379234,0.8062581867535535,0.6306924170843178,0.7753475438863439,0.18107371918422369,0.8295937482373329,1.0194292848163433,0.8667894141254777,-0.3371842620029973,-0.279255163057863,0.7429179704806386,-0.04213941848367005,1.364439539746274,-0.5684974770774184,0.9655266302012678,0.10523645577031611,0.9202057425421127,-0.7919533246767764,-0.5452935670603507,-0.19731534252784652,-0.40625837303608786,-0.007204485544301323,-0.4247769520208351,-0.5162345964146805,-0.9116509036383423,0.7630842240513128,-0.8795839794062862,-0.3883091387632107,-0.8318721526584631,-4.749124477370362,-1.0129388074991172,-0.5629525892355723,0.6101120475573556,-1.459059745015521,-0.00899433373225965,-0.056110816219096075,0.639974087669173,0.00025260791882590145,0.44517672238247424,0.8839035577204807,0.25998933021474846,-0.49999770649545827,0.654938284771469,-0.30192354955207223,0.05732124079513673,0.8407413620253867,0.11732928384593871,-0.8961834721435594,1.031905889254759,-0.8561582032995777,-5.381260856419499,0.9986813172194694,-1.9256051843497193,-0.1655766053613616,-0.34739040259602444,-0.4158808825711958,-0.872058166441308,0.3173172139222417,0.4741809978133203,0.8810102027521908,0.8548305564561389,-1.6757206444646238,-0.6338950629692226,-4.3787936588886325],[-0.3447583369114422,-0.940342004189631,0.10943247312540107,0.2101407442905734,0.11196173961949836,-0.21509345468962995,0.9270603443130793,0.4123441289855726,0.3431389937097153,-0.9816045227749967,0.5060077120117349,0.7908078330150816,0.5464427281743555,-0.4395620389844092,0.1023792736643055,-0.18711644603612174,-3.6572088595271617,0.46020509815460914,0.9867426643631506,-0.727345962674024,1.0536990054448059,-0.5167109741177351,-0.2855616917591892,-1.4825112319539813,-0.5005323024205878,-0.3194959370513978,0.5841327190108315,0.5257798352305337,0.8940838112757876,0.6843190316057884,-0.3451868269608511,0.33811050323224606,-0.9310618408024072,0.6636568919675526,0.17830196054157568,-0.6369102499927554,1.1386572071169008,0.9153581931489274,-0.14500086973577112,-0.03881165084092835,-0.6220268032141881,-0.7251903603305186,-0.310287023583466,-0.018992772271322504,-0.8542738659474943,-0.7471319129711266,-0.12416784694628873,-0.7294864086575714,-0.3609299116636688,-0.04643085597523046,0.3442540781061176,-0.5724932666180335,0.33651815395618045,-0.4844760804927511,1.4502378036364563,-0.9045128270122735,-0.44587685023605755,-0.04776570710273089,-0.579774343047324,0.015329187691113673,0.10054358192131144,0.4208375715035246,0.05790289420486036,-0.29710099206123175,-0.9278955067869196,-4.764183564341754,0.05600575091702665,0.6779666116817953,0.08628864417090225,-0.5993903664234396,0.6289741999904692,-0.12213812098802689,0.08753060615916197,0.10243647628971368,0.2292637661428324,0.40754638306355756,-3.4286734683295954,-0.3139767807579992,1.178438011526026,0.7514352812717594,0.12107235529525996,0.07664807110696312,0.8921318840080412,0.10208865932775059,0.33510396106352885,-0.7579978034940158,0.09890096688971504,-1.690466324780862,-0.4552782110230408,-0.0423350959382517,0.3660035308489995,0.6606999185268709,-4.2595014291597035,-1.111209281283598,-0.6220827377151469,-5.935812371892796,0.008446961879090293,0.44755133961631444,-5.171351519387916],[-0.748194561635539,0.5354683108177856,0.4305002510998007,0.2666574551681627,-0.4576441185252889,0.5919784867673576,0.17637880425355118,-0.5284801193879096,0.05603333608251733,1.0251660978729793,-0.2700145765147852,-0.6720075037956796,0.41010002467260354,-0.4335554832538035,-0.15572467329934475,-0.4158373430792243,-1.9157002357978017,-0.27474877273208864,0.9632080268837796,0.5228826433228453,-0.037401341399324814,-0.6660038639357722,0.41596290140935116,-0.37561780769541014,-0.6013953963339566,0.06149365326491075,0.5290826525857032,0.6686643436358478,-0.018120043845370474,0.31592666656900975,-0.671945477026571,-0.46327710041087333,-0.45018629317835335,-0.2876343968908226,-0.029470438191364096,-0.9413655198465631,2.077829152431652,0.17478704260987307,-1.1580755951535582,0.002901592818589941,0.043478657647681475,-0.6209639891859849,-0.4096930765108696,0.7458426476900368,-0.49341379458878076,1.2413743121367737,-0.49506780062032063,-0.8529952954940345,-0.21971761048140573,0.994468712779041,1.9050272099222585,0.05960243692798026,-1.0848521486428424,-0.34616704345069177,-1.3572113293807841,-0.9742597961809679,0.48228883376004145,0.4326341893832748,-0.5995549091558812,-0.7717890134833854,-0.3488664367427311,0.12047363841033212,-0.5936555064152983,-0.623621124531383,-1.4457703679482545,-1.6825313432447384,-0.19086694904814897,0.12788513907272958,0.19918937858141117,0.1602930078252869,0.6372821272561107,-0.8694143570158921,1.571880602765641,0.5725855005809884,-0.5607076742441082,-0.678249230444766,-1.1709683756297302,-0.255412326853491,-0.7156673082658973,-0.5244602993959724,-0.7898918774166304,-0.09153297685791105,-0.2138218971941084,-0.09961989129687855,0.9574470124485591,-0.9452205295436256,0.7394679084091952,-1.1843919620077161,-0.7070789119300568,-0.015109503249674147,-0.16847068250198016,0.3441117612146582,-1.4295707257749544,-0.17884397442129585,0.2854682833230746,-0.864361344566511,0.3416743291216239,0.25803489640823346,-3.428049382504886],[-0.6844670745449369,-0.7767464120538602,0.43655427497605237,-0.626735827740279,1.4932121092253798,1.1699377545826886,-0.9988260142825693,0.056273982657010876,-0.17317503179044827,0.6411651660942872,1.0666499310044677,0.5349185304179271,0.2100865951520006,-0.19806198715402543,0.39178698875640505,-0.459170140801376,-0.1504369877450421,-0.5303969880945137,1.9709138886484117,0.7112631240284288,0.5937876472470129,-0.10511525930335379,0.2672336238147542,-0.07149771465955881,-0.36576916687215694,-1.0611477139654149,-0.22634259339698487,-0.10254601263386717,-0.4837742879319881,0.027635929195617623,-0.3642438193590615,0.3371272509739557,-0.3105514355154962,-0.33489181460785666,0.8829494026812271,0.578880670541833,0.8805665920534373,0.07451934476659024,-0.24884430973396532,1.1955352848011267,0.16755558437625337,0.03164585361782278,-0.8858118356388797,-0.8300539524070499,0.7288625227391241,0.05115288078555142,-0.18817401553563604,-0.24036604588679766,0.8365344059232415,0.6006388484025642,0.07897101340030965,-0.15608847618909186,0.32930395570272597,-0.8985054523742598,-1.0954663947434908,0.4208613723860028,-0.5569102066838322,0.5276723897363331,0.8866676542620135,0.4526840414052491,0.7356362284425046,0.8542349346770459,0.44431342093089327,0.260905991784953,-2.6827458726173363,-1.2748006564306997,-0.5139714923806368,0.2826533207163835,0.1621360895771553,0.0005332417713750066,-0.1756216985962626,0.1913293845566458,0.03499689223370186,0.18087904967066867,0.5202735716513883,0.44535927868446007,1.3928571066819193,-0.6691927011627786,0.3692754974020663,0.36101319008140537,-0.6731673577687344,-0.9078491776864238,0.5334356138624046,0.2658955323933587,-0.9208653780525251,-2.2392527932865356,-0.07197931041039742,-0.8926749308267641,0.03875461734241617,-0.7515282456299792,-0.5686217043714332,-0.8118493427615588,-0.07115392823944224,-1.1702463284698972,-0.30176143481851814,-1.7832519122192647,1.1075237605588129,0.16616431627441564,-2.817082938977056],[0.1288152504254478,0.6425658878571364,0.4128592633651822,0.9136604173109109,-0.9947135467257772,-0.0911239250817825,-0.6696906973139605,-0.5721089934171556,-0.38094263318776894,0.2561903827494499,-0.16897308804505742,-0.8274217099281448,-0.9305915151427527,-0.4057394941733378,0.9897402617953696,0.9384348623430717,-3.7098139937372347,-0.16627037449159965,-0.21745380616638635,0.011655113077563641,-0.3959018791273804,0.265837294288395,-0.04869127668321758,-0.7637944776503242,0.3089862821310504,0.7072253631015631,-0.6123478950352821,-0.37601429024078087,-0.004779356067443686,-0.6251303197915187,0.7125662266271605,0.7454594925802975,0.22152882774190694,-0.7326119751978157,0.03138264133369466,-0.49168694002422825,0.18365090386392982,0.15441624453879696,-0.0017938297623846058,-0.15963884745108084,0.15974902256682852,-0.40760723672611027,0.09122802163915808,-0.7732598856726575,0.6166297315921503,-0.7749019474484085,0.4081150533263867,0.016124943206749953,-0.9541653274892291,-0.008199705205933366,0.9831733136847193,0.846944696341135,0.2555166110095543,-0.19233082396064524,-0.7106161658487246,-0.6460977093816125,-0.5226952444966092,-0.0024538160427387073,-0.7263023348615788,-0.5851365530581877,0.8225220183921995,0.5888635210012588,0.044107150667687715,0.34725743466690917,-3.6323390005804326,-2.599628198513335,0.8440884427576165,0.6648436678581473,-0.09673513941914123,0.7241362909374047,0.5302511168424874,0.2859852009961459,0.42686359673630925,-0.8972168975461302,0.71285572109628,0.766578928009681,-3.314642699915755,0.36864353362917296,0.07059327776194112,0.7014097620703805,-0.30735632940060015,-0.45034111805291066,0.6934878946582593,-0.7330621137989443,-0.35513560388101306,-3.0609185891613944,0.3759504355583162,-0.8483616842579591,-0.4679096728399762,-0.9617380494717941,0.23420886218433742,-0.5537879472269956,-2.8323752314450408,0.5769298985781985,0.6881479533361504,-3.6193110301954494,-0.6301391971620348,0.3092705399381237,-7.190530459412718],[-0.6468410497958749,0.8138608777494516,0.5177456784767458,-1.0040812518111728,-0.5447428207235079,0.0038108594246606922,-0.8736271558424452,-0.3275108133261183,-1.2014523025045625,0.5970734480683748,-0.5968805637972846,0.841166410681258,0.11318819164822959,0.09486556399228079,-0.43769545330057213,-0.12715398431372918,-1.3475348253559485,-0.5558675318837963,-0.33638372001702543,0.37509418634629577,-0.3662023218591432,0.27360465368178444,-0.19527697976826788,-0.7636418901776496,-0.8221927534558472,-0.38801112674381594,0.6557840703741687,-0.4001163824021904,-0.554027029397565,0.12106429408153013,-0.8580446132956884,0.13864992758270567,1.2600802380940974,1.2096823689220022,0.05290485941008544,0.7778494145354168,-0.9840403130253214,-0.14782950670867234,-0.6031888771422911,-0.8956029610579123,0.06841635025359202,-0.7725360036733385,-0.26227423035278236,0.8684426058831641,0.8630595316111854,0.6575210874418023,1.7104396446645471,-0.22522088172228985,0.4361931290398874,-0.6045695420644928,-1.0201136960741926,0.8457264966783538,-0.5264483481367027,-1.3379482174932438,0.30338247147262165,-0.3651866712086882,-0.20886763526181776,-1.1382761267623425,1.3813540156187232,-0.13865998752681985,-0.3747743559025503,-0.9580973414124918,-0.8695322682002496,-0.14186437722597672,-3.248444163991117,-0.6829256402179685,1.3505505219963303,1.054694794649912,0.006409649174020005,-0.2990495699453642,0.17793854623334107,0.9776842329175579,-0.7490627703148104,-0.734577224186391,-0.252951450286905,-0.24039834190624834,-0.5562783554951671,0.13325837249465178,-0.23513150323360382,-0.8299655834975134,-1.2291100302834863,-0.2819003400860711,0.6851008118400655,0.24216406667100202,-0.502909350867922,-3.6348976138860727,-0.06376274108360502,-0.7219045950953252,-0.08907982231204904,-0.6141205828191681,0.6154220855701139,0.6083438807771175,-0.43121710664459256,-0.6845895008021458,0.07520248237169912,-0.4414148176551752,-1.2722275152410956,1.066186214117115,-1.8394555776557442],[0.1801015682036385,-0.8111991388267262,0.8268525757216015,0.09232506634535381,-0.3678609087199744,-0.9258197947296557,0.07609580360299938,0.1670587153878103,1.0513309252679717,0.5688473072842065,0.17900273456788,0.06395614933929158,0.07274103810459026,0.6224948887013535,-0.8599978613981079,-0.5235254395094463,-0.05135929443950929,-0.8969584871486813,0.4529079736146179,-0.02023123534121455,0.3708757978937789,0.68889230986031,0.3840520677471273,-0.1609019522088848,0.014531508704615635,-0.4391826314502503,-0.38900101875265647,0.07121850018547633,-0.1752739947609756,0.6637420799703269,-0.7429617985600272,0.08409771275587366,-0.10561469070873379,0.20057705842742263,0.7738491855814945,-0.024847781395555046,-0.17680579286295997,-0.9199194767142327,-0.00281794053985834,-0.8999259044367613,0.003601143993433426,0.49642077567778814,-0.6818020634360936,0.6492169182447535,0.24539215395340747,-0.6254283736360082,-0.6664978685694241,-0.26663087903417354,0.25044897227145607,-0.12116991807410878,0.5905248127224627,-0.7698374007293367,-0.5615096004729009,1.6236489206584634,0.34312988813061857,0.22013138278600652,-0.36342491827403506,-0.2360764926351731,0.696822716186594,0.6494858441161487,0.27702856347496074,0.7216655295912482,0.5682481883373595,-0.4135328262022927,-0.9955123901792154,-1.1105525178898084,-0.3034917172603269,-0.15234528542569686,0.6804082319447486,0.17986536071044926,0.5465170026247307,-0.2745362235823127,0.6891994847772971,-0.3046991739432475,0.06717512970276572,0.5671884623512723,0.06810946771352841,-0.657247525192358,0.8333915220304343,-0.47940836776758694,-0.4923670872621625,-0.5814338293261957,-0.7003167477144238,0.4844814099771721,-0.10362206986709294,-2.2099295178942095,-0.8519743243454312,-1.4474268201023026,0.43877648919237666,-0.015355593651280279,0.5736786076050598,0.4319353342791004,0.5022147224731649,-1.4388460628969755,-0.857186588622806,-1.9669169609898332,-0.4503995366449844,-0.8188559303648437,-4.490958886508889],[-0.406729530255708,0.6169833070044581,-0.9363080388074194,0.28531135144585046,0.06750662727480335,-0.5292516467977443,-0.30076664687102417,-0.004320778327261694,-0.054690789569058776,-0.15717229649485887,0.03124194439257406,-0.1313881709338358,0.855292897042898,0.5254254963744034,0.10181776388776466,1.4040521602616927,-0.6310603671977015,-1.2142309307989594,0.5846252253869726,-0.8410085683449213,0.024787836435908296,0.45625563725637475,0.028762267737866207,-0.12245967154180515,0.5470380739635917,-0.22159429891486046,-0.44910194117747637,0.24599771543204432,0.07075395322799753,-0.6266075914729193,0.8289158221075387,-0.7298178215796627,-0.30702420287877796,0.050563285531827824,-0.22895453943527697,0.5007627820570031,-0.8110614158444095,-0.8718204780324006,0.20647245341370635,-0.10701160374264292,-0.25703852597278526,0.5109595060061902,0.17019654935784345,-0.5875476888363725,-0.38896203257756895,0.7811226049702445,0.5285592653914827,-0.27414412924054093,0.7977861226004734,0.6492888448408022,0.3197877583191208,0.08367524077892949,-0.6074651257025933,0.7202821523960565,0.2621893327853016,-0.6365480296705834,0.8665932616134012,-0.24856794135556698,2.401793728174923,0.17576667671889482,0.7272061767317972,-0.6709994895714992,-0.5086077558447571,0.5169543974374721,-5.227326366519081,0.7515321289154476,0.8028285584062254,0.6952236564202018,0.5408661504949556,-0.8090403261784961,-0.35648838081106576,0.25053592917746204,0.5090499547258337,-0.5525954155307512,-0.37348437673186924,0.7061294141885839,-0.4995011601819328,0.7144092378914326,-0.4842365164511057,0.30563065103198617,-0.253195853474091,0.4763710256732102,-0.07382416222059426,0.6637515680624949,-0.36477212468331394,-4.122798774258605,0.3551601300450478,-0.02170997794300926,0.30014625839117437,-0.5902224424555108,-0.9227194452342883,-0.5252056010346611,-0.8466528356835216,1.1425518406298298,-0.1556954916080406,-0.09931878630248717,-0.4403059010371042,-0.6669633740932371,-5.577104816442811],[0.44015350611252074,-0.03168807669740216,-0.6669603194034006,0.36326320956254793,-0.8082917463264557,0.35593930580291294,0.5095510892519426,0.8699713155574358,0.4457350701136444,0.5813731532292017,-0.8809677561558521,0.20888007680393814,0.4941994107913582,-0.42247489591387133,0.7556855174663669,0.3922792308151475,0.5057578313910296,0.0772099695029303,-0.03552875268013108,0.09430456217863888,-0.6904767752935984,-0.46136722391860874,0.7246394270252031,-0.8949160698962701,0.7115000910375188,-0.1292965968059078,-0.3415396081200693,-0.5087985118224901,-0.2857272392197046,0.072187392076416,-0.865749156397324,-0.7013607756062937,-0.6440393401551721,0.5305354841766854,-0.7750307257024351,-0.3878069948097298,-0.0032922417705809792,-0.11975001001735529,0.04244115928574236,-0.655683968792927,-0.45928756861033204,0.5618479113027068,-0.03294563248243068,-0.7707967895234585,0.9668192756457409,0.384190000145012,0.8697440476297887,0.28651752324653895,-0.7800632485016028,1.8846222499740775,0.8773070894963625,-0.014323180086358689,-0.7451014473531917,-0.6103016388816499,0.9732089250005082,-0.33084989243156016,0.8291215543034239,-0.030361345523602312,-0.26056000460107165,0.11076058630875471,-0.42759893383112385,0.12853376508746225,-0.7785391240230405,0.7675187484882463,-5.195116836761716,-0.5296660659585449,0.8373636419218639,0.9142715872208874,0.3270966305440646,-0.5215975693828566,-0.7277339368919963,0.5100802440813921,-0.7079145507131013,0.5225296840485602,-0.12220082837954585,-0.04418552254420386,0.18089507266209778,0.7530533297084585,-0.8073630780519424,-0.8284893056743563,-0.044649690656243086,-0.30265911428253467,-0.6651065419675601,0.4590501175904403,0.6587184089429757,-5.2448529979068335,0.20915395274423845,-0.037119073342804475,-1.0148481081565732,-0.9207709175835413,-0.23408388160099666,0.3924853755922952,0.27789939520655704,0.22922658195662868,-0.74715584244714,-1.5247793743360807,-0.3166086596732623,0.6145953613198606,-4.507002336446738],[-0.013826905039733607,-0.47850375529027855,-0.24210958723072956,-0.30799927136379646,-0.5782460998994353,-0.2175724288968238,1.0985427506211756,-0.1982847664701251,-0.1646959675632655,0.26192428715037586,-0.1624619046304516,-0.37962251296857114,0.5939558114830451,-0.6847950686006831,0.703550640232768,0.4496136665473477,-1.0665687100693415,-0.3804291980094117,0.20811241434024694,0.8324253312961819,-0.33163391776854584,0.936126382672386,-0.9089605546533676,-0.3753581969044095,-0.0325191908127343,0.08922294018818114,-0.8432457221173023,0.5555056713185732,-0.8533665011884135,-0.44063243705010263,0.4463245386761958,-0.37723228533598235,-0.8105897727559881,-0.42780396275981813,-0.6801680576291314,0.14015287630166592,0.4522918795238821,0.6024277294474407,-0.6415827700861738,-0.017744037353181023,0.796999078183179,-0.10058053291615897,-0.8470220116736862,0.8763090273516915,-0.1314843128638764,0.9327708228586805,0.5127893018284478,-1.0291438186965187,0.3535284666572571,-1.1173921375823568,-0.6873433859570023,-0.6841618774032326,-0.5677342207077698,0.45980054996303493,-0.2188882408261611,-0.3037366853995628,-0.3213652971319046,-1.2754931236980367,1.7047847739513844,-0.43253014846774845,0.6901501500084676,0.432722141868362,0.797345840376032,0.9361139589537927,-2.6279467016194804,0.1450053025691091,-0.9005566551301475,-0.7129926020308478,-0.14140908118520532,0.515520496275269,-0.34120704645860306,-0.40594933029530134,-0.6109997757898638,-0.8593276801497467,0.5440601945950286,0.8976008585803986,0.6601229873460281,-0.3995940584890815,0.31585911615846046,-0.8430195657538848,1.0062277519483271,-0.9162792165911743,0.8680616937231096,0.8016373549608725,-0.9486740842523113,-2.6738685158152373,1.8677820517118964,0.20791714470018408,0.5087378782976196,-0.9693682546139476,1.33376593942562,-0.8205895225780612,0.6386857873579882,0.8559824443730636,-0.7790596090361664,-0.32544374686669336,-0.765698652203434,0.4872150678411517,-4.128161616909141],[0.48313404560509365,-0.4211664316510427,-0.337476404732503,0.13430051208852595,0.14211305808579455,-0.31318241035126243,-0.5065893772362556,-0.16618305755690474,0.6327764108934338,0.48560381168505595,-0.8237115293825935,-0.04244589702278263,0.27672596323840076,-0.15111807859965004,0.3814442928827022,-1.0727255886145546,-1.0167028807703653,0.2399199507417462,-0.7071001179964174,-0.18652802998871018,0.11296182345324696,-0.5582387811259942,-0.31236334681750366,0.033872582977843076,0.14217718481683764,0.4373455641322357,0.6103413400642238,-0.2298068015582236,-0.928326593527062,-0.42114405992151277,-0.8886790697465915,0.1591459252541589,-0.1190295208527344,0.04380242489169912,0.05998349740093295,-0.8364675154207216,1.895468769409308,0.6036023459134465,-0.8350174248257539,0.5229488207704164,0.5268452168021316,-0.4930680323096312,-0.8702206602236715,1.126193386719312,0.39355720437661806,0.3433246316927335,-0.019766819708400624,-1.036964802508396,0.8573776008301118,0.24063595787744926,0.23674205630941078,-0.23806582236589,-0.1836450574694272,-0.28373884161422563,-0.1779126316359567,-0.60196540728059,0.06354230382889219,-0.3983602071812337,0.10636811590789869,0.08110254359296452,0.6245253156900329,0.3972826403066258,-0.5732379843255873,-0.33333045276343776,-0.8174788179679348,-0.1395891907345719,-0.29015801025113747,-0.26405024615856404,-0.5449410359622433,-0.7950735266097642,0.6577827797153202,-0.3074246736624062,0.028947660693192934,-0.8452919641112512,0.9020042713526237,0.3408185662927054,-1.1935870027340643,0.7212089754082375,0.69393110865797,1.568577897198652,-0.17575320130757324,-0.5668613439342303,0.3502072980872549,0.046827880325445215,-0.13137085289817996,0.25221378420116836,0.38680772895564564,-0.7636182498195532,-0.46098064649600673,-0.1340146657899303,0.89012441854469,-0.6254943750360029,-1.1774927661211965,-0.07322683775045101,0.48980066572904246,-2.1205204682372623,-0.06852308882012491,-0.3875669063332588,-4.44930506901225],[-0.07611912601409869,-0.004645625563612114,0.23401342485330795,-0.38725854147466676,-0.6706759680343031,0.8196802228449435,0.7809288071359795,0.9189822626747761,0.9629274222623753,-0.4004903132057627,-0.3822327501626576,0.9335093832830645,-0.8649399310113621,0.19312778970991742,-0.23317942763596067,0.1583455417327677,-1.9024049855022442,0.8074095148058271,-0.9239495801498493,-0.6870592497016219,-0.35756107725813296,0.5565948944012781,0.5045886298845405,1.086998609837618,-0.7910420865649684,0.19887598612341692,0.049200375586227196,0.3597621510449929,0.5759007982745534,-0.2721039289146026,-0.6632169208589065,0.16064952299792792,0.5982744293758059,0.45739022194098994,-0.6541999877533454,-0.8678862182003545,0.4919169067872718,0.787895183507299,-0.25772634041261705,0.42397463818406406,0.2570737715076619,0.2226531153701518,0.27178607208031624,-0.5777244447556634,-0.6922212564888464,0.6482383003484197,-0.9547607055842818,-0.23248964104671124,-0.9322883311593126,0.6390629532768055,0.293034795141406,0.4175230587448299,-0.15381025887130148,0.5249231887381218,-0.2497792714435356,-0.7196489531072497,-0.21563616629789983,-0.5855659932138317,0.7530256889290343,0.7907760862805818,0.012051716738840246,-0.5474968165874997,0.34695136414693684,0.5416856932334384,-2.498330190001366,-1.2651782555598134,-0.30291701895632384,0.2803092871015237,-0.061807032976160296,-0.6199174816035233,-0.5882785407943084,-0.8989827718459786,-0.005179246016710459,-0.9110485836667792,-0.9124781383714718,0.17272125908985533,-0.5045080171488664,-0.12569945490172937,-0.13064933239927962,-0.791783934575614,-0.4152319458546088,0.818163562504176,0.6801990113450439,-0.850373556781672,0.24671028726296632,-2.577647302423735,-0.08376186994104569,-0.16975534668964007,-0.3041759361218838,0.0896293935270228,-0.8404633372413202,-0.999679992994362,-0.23502973981404274,0.3137668464809172,-0.5731920656937064,-1.773716158873899,-0.37670213913129674,-0.4755099240239232,-4.992421362508594],[-0.6510559302240695,-0.14551356854124833,0.1699371523053668,0.8949328313094774,-0.7595847813123752,0.2506266662689569,0.07503379286874008,0.2768230769069335,0.1494501002368056,0.8588006715006725,-0.6563495531399408,-0.9318422502611597,-0.015485444272828807,1.3901801063179593,-0.27715207832240374,-0.28232344760582184,-1.9127426884855059,0.4938805785047012,-0.630974743688715,-0.06598380511076198,-0.9574338309029076,0.9040265208366722,0.3464260520999035,0.4648279442949232,-0.4441774746582118,0.23076271598343562,-0.6125525761951561,-0.5778055026843884,-0.8119188753179521,0.07362953978325877,0.009175568816918575,-0.7394826222177091,0.6092389398857239,0.38426270483139885,0.012913231285796077,-0.7886259799319056,1.5821646647969394,-0.3490694614946415,-0.7142017947049355,-0.44203294075729466,0.9761801869473806,-0.6606027400891855,0.7753934582347686,-0.6812736447961222,0.9073523760168408,-0.8990955405868045,0.6170049394499714,-0.9517836699824201,0.345771965415067,-0.03505146503605425,0.941767298561636,0.6704995493125193,-0.18118930585833862,0.1386368368442172,0.19969825989327153,-0.5318988319638417,0.18659361730773263,0.25874217829589397,-0.8799533626896687,-0.8884273731414417,0.4806292702041084,0.7786572283406535,-0.5147757957378973,0.05898254958046491,-0.5404764840137927,-3.303906480437797,0.6497518984873717,0.37121282302726616,-0.6746223959044008,-0.39344362519236425,0.0009705051646063009,-0.2985333800316175,0.33687420412369273,0.35243835011169933,0.9854881071038653,0.6576322489340912,-2.626087072786322,-0.506342257220035,0.5947076973847784,0.8336238162634869,0.2740686753537443,-0.7079268403241479,-0.9419920067121476,0.18339380723575632,-0.7516907618577108,-1.256765618128734,0.17126139800096313,-1.2139399949749552,-0.3463416254448682,0.23681198494321906,-0.37209544417572826,-0.3995923840711611,-3.749569461316837,-0.5225185983292358,0.20127908722659912,-2.7720219543930407,0.9061680585763972,0.6757081449964407,-3.8122458340658847],[-0.963855733710372,-0.6597902767589775,0.8084956047345726,-0.9294591301994511,-1.0914539463349453,0.910906831469833,0.987405667743856,0.7769082491549292,-0.09436738953556723,-0.9927569394414105,-1.0105463415768254,-0.6657926033127566,-0.7185413837761849,-0.7087629195566267,0.5175399834695129,0.9716390570878332,-3.4791799576130695,0.5945825170669118,-0.38427539059848964,-0.07367010998870821,-0.5543090545261509,-0.5626536390489772,0.6859269970107701,0.38306209605664,-0.21775235468130769,0.6104706734428967,0.19513286379565775,0.7089292948191014,0.2617410089506225,0.1104635718865826,0.16525010868369375,0.8767026956384253,0.12890467202462635,-0.8882901106948469,-0.2580347586987736,-0.5139559953770615,-0.650093853204985,0.09970177170411813,0.09729391424009545,0.2129801962554369,-0.6284278120352328,-0.3173012123026632,0.2594885449123287,-0.4820580745136107,-0.14326631847614552,-0.06309023478436661,-0.09052486204994223,0.43233814884438104,-0.5295577046333202,-0.6417097967713937,0.9929261499340671,-0.38966312126240327,0.29084163910941147,-0.6373351104350624,-0.24310906125699844,0.17606352961317984,0.4488407856038544,0.053288789210055,0.31223143880473003,-0.5041335987927766,0.30234210323052674,0.2574345104683914,0.01703563070229298,0.003050230057131692,-2.7953501570046067,-2.9980113075184054,-0.06834854850669315,0.7998648297316889,0.4015313132655422,0.53139384624656,-0.8924856765199539,0.9493277628961987,-0.9378244414018676,-0.8754105697946152,-0.28943001811080454,0.4602739658058732,-3.50022918328433,0.9669584574286869,0.9808455800180649,-0.8828127383325086,0.22969099267426454,0.5057430627602758,-0.9731858086935011,-0.43821434455404146,0.847256702609916,-2.451051270460209,-0.5465073454245091,-0.2789108689740808,0.07114343186591875,0.18683067556122385,-0.5445866028010096,-0.4185057453934948,-3.0862158444419685,-0.18195504873858825,0.760118947734878,-2.673174953058133,0.142333647675314,-0.7208920690274034,-6.373073922749035],[0.5946812680494287,0.8685547811345513,-0.39312248278022227,0.9691686545572185,0.9884263015049989,0.10254282561838696,-0.5576127884777489,-0.08667406325919924,-0.675338305977996,-0.8647297744502002,-0.11907858008262813,-0.5396575488557911,0.6024553712733001,0.5217915756929805,-0.991779038342001,0.5153226618542989,-5.797149377762859,0.30321614681135434,-0.33219544091305137,0.9698924233226485,-0.7996649050334492,0.19589144284556412,0.637187722221394,-0.5839113408143427,0.2869919725326977,0.5379197905394111,-0.9362677885299882,0.24245105532557304,-0.34024664876895533,-0.16944832670413695,-0.918551276803873,0.2768322586897772,1.0088973266907506,-0.19986515718305053,-0.4735114728874236,0.5746218828321417,0.4474646594800477,-0.8092790043731497,-0.4009232490667462,-0.833206234032898,-0.6539989409542655,0.989476825535396,0.7118965948301949,0.39204128718227527,0.278707792862353,-0.4445065324308183,-0.826009622130292,-0.8864919443806132,0.884287803893541,0.10216395352792752,-0.21503791341190553,-0.7269956761773734,0.6003869312349517,-0.07174735002712238,-0.7505556016652727,0.36133271662979627,-0.1738246212553177,0.6961872714824036,0.0984846837879475,-0.9339466410863689,-0.0834893604254363,0.4260143046073473,-0.4977860039452643,0.5237498229400693,0.35452464999556277,-4.812426789458459,-0.6512471613619967,-0.9779895079836644,-0.7051769516282677,0.17114092940199538,0.5926608104509081,0.08436398484119981,0.6533223505149544,0.10175206600723054,0.6666673350725101,-0.4284176736147423,-5.609961819909987,1.0169909204671992,-0.5418019144200821,0.876315735480953,-0.5964417582263053,-0.6997943873758319,0.7753728367408808,0.8060644476929985,0.3683351750659003,-1.4313156820862387,0.6583026658163054,-0.8767887412001018,-0.5102763167624138,0.5943102633612607,-0.29586000533765344,-0.9297833006770005,-4.632548333674083,0.5607223896258242,0.6486722213083614,-6.2067613909933685,0.7489354049711479,0.0647209280611501,-6.470059904841205],[0.5962997081827676,-0.22906729937279735,-0.5306114591291876,-0.46743491992686526,-0.4972046991683172,-0.03623554716960328,0.37595515157481885,0.891890537245447,-0.824660829259691,0.5716059860441678,0.41765741182758465,0.8704531641432628,0.6763773270604346,0.6813114846836251,0.215779562326339,0.018165382882963762,-5.31176319360103,-0.27798224861570586,-0.4182226416997668,0.0841687931397452,-0.33103600687741785,-0.31753506097340745,-0.20159631939267247,0.25102224169455983,0.971896731730306,-0.1674522069715439,-0.9315142382899305,0.5237582199604731,-0.9817505814941386,-0.45511783856437554,-0.2621211562035521,0.6697890618136462,0.25213667717917154,1.0040994968516639,0.7577389308779408,-0.8185528994963838,-0.962055273471361,-0.06940603046377612,0.499118837084632,0.23559857608557205,-0.001223828083325148,-0.2760587238332413,-0.7808772758992121,0.34052978105456444,-0.06540267372572993,-0.23993721436493487,0.5926775601288041,-0.3082732476570312,-0.125000375827094,-0.17690656765508772,0.6789950590201075,0.9262483186346783,-0.5338177683861178,0.20735674484223382,-0.5829677186585422,-0.9227944423980903,0.15288568469153868,0.16623098841025252,0.99372221061908,-0.04616062429732704,-0.06266735284080437,0.7504539069525954,0.3821579218270564,-0.16102760429219123,-1.6392114048482347,-4.034332670005406,-0.6599433743791835,0.37399967356156194,-0.39470128559019946,0.45117940471043927,0.17712886941657846,-0.272219422979513,-0.5200441582994345,0.3601343052939138,-0.6476443929037439,-0.9981422105979526,-5.696850454133227,-0.3341664597504936,-0.16220783931711152,-0.7677669417270099,-0.7321974157947164,-0.15563531282588253,0.1583473895814091,0.03229376503821966,-0.3991183497650732,-2.707861573324771,-0.5596242066696121,-1.094441942028247,-0.78849060953903,-0.6414088742885797,-0.5128888608479649,-0.9428258079427798,-4.232677075184301,-0.7132104060034985,-0.0061451098542434504,-6.037336664796766,-0.7837192039170091,0.7350363541734135,-6.4073940994876475],[-0.5185231430334972,0.34828840491147633,-0.4785925770913416,0.7383831063891367,0.3084768983520192,0.7197366834426452,-0.4341126021480038,0.7687495953657022,0.369764260468937,0.15310198076860018,0.03145188852976544,-0.9845302305231143,-0.574134548353098,-0.4151527071870136,0.7927341230920396,-0.27723651277231787,-0.5954460975632825,2.816274519120902,1.4710837821628506,-0.09330403101866018,0.7484985599274374,-0.39978266151669595,-1.044698641033932,-1.700989819003476,-0.3599513341400728,0.40423529612124637,0.18935021771404623,0.020005282447265696,0.24563299555288817,-0.22304985409852038,-0.6456160752925091,0.46864661790986056,-0.6990377722875174,-0.7288949708518059,0.3643864173368515,0.11146933408906153,-0.20645733090243373,0.08765147892061037,-0.4949828430663093,0.19741275442196798,-0.4051915335746258,0.46136028328607326,0.11157402319774413,1.03261089479962,-0.25501834467845336,-0.7503644330886953,0.17144747083954093,-0.7049619284022617,-0.8267475157931908,-0.7778570436184998,-0.48149713656927257,0.5776442888821061,-0.24725886770159947,0.5919371345898305,-0.7312627840877862,-0.3085641718257785,-0.33882528879938,0.06044022850285857,0.00299937406445704,0.3347557551009104,-0.8141917423552324,1.0521777271177237,-0.7943574449295513,-0.6241145129672546,-1.3733454951562702,0.31527962219810696,0.013096723617460263,0.6051379727411222,0.7234637209289307,0.5770466093277451,0.017443289135146783,-0.2692539482099494,-0.764322460776147,0.9427801642972551,-0.2467240817241342,-0.9851631435558904,0.5630768949164082,0.5460724976799392,0.6896543842756363,-0.0564071062038596,0.5704497656699038,-0.13239430703634067,0.06111479007042935,-0.6961503208100652,-0.11966383649402891,-1.6962452985394219,-0.3526867065799976,-0.5266103705016943,-0.5826654835729844,-0.6730022763901203,0.28503484312379407,0.29989432960716356,0.07855375902782423,0.6101716974527895,-0.4969411637713991,0.07125848004372601,-0.8706904224006152,-0.3421410958987216,-4.133436471752948],[-0.3772841572716349,0.22669465513521525,-0.36333424334277936,-0.9077652453613687,0.1108249370193592,0.3401204990169788,0.26999271720063983,-0.06815568445937284,0.30492472280230415,-0.18153096760248913,0.20868797189250246,-0.9730113350095599,0.7767054921694345,0.2829956509045866,0.771489557967753,-0.3344607795340036,-0.09875825154211937,-0.6786509879282099,0.2527032243382326,0.2186933829986544,0.20123769782754625,-0.6595199963837212,-0.32476942476404963,-0.738915198942889,0.5227916022471164,0.3847552140128895,-0.8952351927572817,0.011485733741161852,-0.3750351639906622,0.07614691936917076,-0.9023332523494189,0.1035110406092118,0.06195141729376435,-0.624931888306059,-0.45518543689762503,0.7093569255920188,-0.03568529562770415,0.5975484068905886,0.268450578036339,-0.5564863190846647,0.36202457588356474,0.438601489576768,0.160835479225669,-0.7217126131002611,0.4424273942667277,-0.34869103762824244,0.3745273810319931,-0.5798662530452451,0.8118433455620848,-0.6019240946600087,0.3572688342303854,0.6155857492062881,-0.7973436952288474,0.1558036948288739,0.6580348291395919,-0.02822192827003494,-0.21096542240386737,-0.2634620085775749,0.4605170534504219,0.8353949199904985,1.0715937778995357,-0.6921213667442775,0.2805640270078448,0.6586846613722144,-2.0567759013899227,-0.39362694605074755,-0.9560078755904746,-0.29610655798499025,0.27549411538348756,-0.15386643067150127,-0.8647402725245702,-0.7543069563270115,0.3901417278428878,-1.159056671540363,0.40607216509234556,0.11652759885724052,-0.8912684238647096,-0.6985122636979224,0.36897871278469474,0.27039384831293917,-0.7825959752436892,-0.6607503844106336,-0.7913536123856884,-0.4349913459745546,0.6817282904818078,-3.8562263402983774,0.7639847920696999,0.14278881443611977,-0.03449730600956594,-0.47141526643345133,-0.8349909943760105,0.5417019410940331,-0.30760538409582144,-0.39524561018083737,-0.14533097079232699,-1.0533880922173757,-0.02415833291214417,-0.8735980455832341,-5.086746832052813],[-0.5402719899109444,0.6358289224068681,0.8116666200148811,-0.438659609070278,-0.8832677824425627,-0.4499235486790568,-0.5734393320915017,0.15403963558329278,0.48969414686848767,-0.7366657475366846,-0.6665376606130566,-0.3168995192152428,0.24007061469943533,0.4035054059457675,-0.3379118091187011,-1.0700193576220436,-1.0751182900911085,-0.07650329448333937,-0.2809623129824896,-0.579908444168198,-0.7818161106253755,0.6044650641583622,0.47147134512113,-0.19001044963680994,-0.42755362118834606,-0.8183303879008784,0.22642734909915144,-0.39618528913456585,0.5411298344803598,0.4465721466230986,0.17538598047269016,-0.4744889483908228,-0.9168429918503078,-0.06940630683665923,0.904825895281403,-0.6931235032382798,-0.349601007864867,-0.946588391138731,-0.7429745371355688,0.22710730397749493,0.7556655968034134,-0.9397779984616766,0.4323405805116215,-0.7539485022098983,-0.010013208544661787,0.41572058779680887,-0.6993390026247058,-0.022748842957952063,-0.2927094223388782,0.040743062394841774,-0.12174647023093545,-0.4582854545691519,-0.1303003868099077,-0.562139570570191,0.137661353943347,-0.9825072876770476,0.3474501468346631,-0.1833099826035995,0.22836848857732334,-0.4004359623389246,-0.011116384299359156,0.6981990061059088,0.4115867460205861,-0.8775349986475874,-0.8886029146811233,-0.7473031679872738,0.6288694451831702,0.10887557792764717,-0.8086713379936066,-0.8726575429525459,-0.6878947179799669,-0.6753704743353429,0.02324778690881471,0.4776594183799008,0.5830121151037702,0.14563905658657322,-1.4135807882168936,-0.9270655016029222,-0.7416771931263951,-0.2157414472883469,-0.32801370224184967,-0.13828269213148303,-0.6841917684125904,-0.6256159078513313,0.7259349172202841,-2.7887229515625376,0.4751331036179745,-1.1012262073117216,-0.5645102049171197,-0.07312909339407266,-0.782626407330093,0.18264495526197713,-0.16591683028742807,-0.6130478706484499,0.2933425742944365,-0.9119675299929305,0.6594668906132969,-0.3118793807586336,-4.1563547822252715],[-0.8335669949309461,0.4696786861932158,-0.9351854478121945,0.29854011491196564,-0.002845432913448218,0.45035023506812755,-0.591625209987384,-0.747351139249126,0.06991955820961585,0.47261006759943885,1.291594832133795,-0.19801515325345317,0.326210247198179,-0.15718745804092485,0.09927066332223153,-0.7321408736719089,-0.4134413814600893,0.377063020009193,0.15260625672449912,1.1175660517592758,-0.5032256102190781,-0.238044614852408,0.30555654615166605,-0.3615700639214226,-0.42438654504068113,-0.7257055454378064,-0.1804701410681969,0.048577417874661556,-0.24333543274913919,-0.662610590056924,0.0799059323983819,0.1393087326997388,0.7760080915440656,0.06910871776966752,0.8661824331145841,0.2593915022800714,0.31225102399926946,-0.19854996962961757,0.5630543033969274,1.3712073576033073,0.6490542056178964,0.8913838685446359,-0.8332027849002561,-0.18396681754082686,0.5293662384572309,-0.048166387745396486,-0.0009469722739084113,0.1402747495477845,-0.28216252019649085,-0.2534584551708388,1.3251728407463979,0.21761540220807973,0.6762522012626359,-0.4913395175477827,-0.5105961531444312,-0.5067293083471645,-0.7767893055608646,0.6335981824236409,-1.1296281756720665,0.13325296278711873,-0.6238071107930104,-0.3543377467523167,-0.18831289814387825,0.5973934619765082,-2.356656356830299,0.5679387853660698,0.821550121169561,-0.5096181239452999,-0.006024384364748685,0.16144531585129357,0.34963510681885535,0.05588956318823583,-0.603679678271204,1.1064270306371686,0.05869339837487632,0.6120486513666481,-0.6620129439753961,-0.7742212737022329,0.3399811135563168,-0.356122341678208,-0.06080546061324138,-0.20856459352519563,-0.5984167222747737,0.47895580780644953,-0.23838362273895977,-2.6966267452576838,-0.5690081166114285,-1.0302229263013407,-0.6490653217078731,-0.43642587307274083,0.5042289545243769,-0.39448190319292475,-0.38931636453281654,-1.040227259308534,-0.30159705648819535,-0.94594499547794,0.2387691536790318,-0.3298849020041157,-3.6155195050429754],[-0.651257413998602,-0.9451072194724544,0.15308525280326812,-0.8375155419922944,-0.038293172991796694,0.5607167832400067,0.20235779006770244,-0.6968739094127637,-0.08703469777885538,0.9684635606582479,0.7080943506098205,-0.9752839785351906,-0.6781114505814729,0.21035472621107854,0.7003105603855029,0.4408523701357758,-4.958358600401969,0.34497729240607267,-0.6726608698077403,-0.2791445561539113,-0.6349765093704143,-0.012482746030551614,0.39741422748987276,-0.39407528312965273,-0.7308771138712956,-0.9138621106707067,-0.08628418636919083,0.5865160649360294,0.8033451875071204,0.6155363214361215,-0.01745602347175437,0.8785390071382865,-0.2039261872950344,-0.20331275264696666,-0.38331900026850335,0.5181723960749369,-0.38825701296092924,0.9203111679277813,-0.10047509767328343,0.7571069267997343,0.12654058567398602,0.21877536597997468,-0.12015403261050941,-0.188742654961574,0.20328662234876088,-0.1939332502529287,-0.03653560888760863,-0.025813590026296202,-0.03660959204343872,0.8155095317894773,0.4703737756942752,0.6794539350955653,-0.5838468845027058,-0.37900369542077406,0.33995205928362765,-0.017870889420280263,0.6397703408152337,0.6069683229970684,-0.2329606694531167,-0.24257520899167873,0.9875090879667296,-0.23412070710842509,0.08243839231874586,-0.4597886643645417,-3.5665899432576786,-6.350188286137492,0.048978472048844444,0.7586139290914304,-0.7391474473092118,-0.9001296614730961,-0.45209022009078836,0.49353947430728595,0.01944317046563409,0.023552741229083386,-0.8596489626310297,0.3388178468252545,-5.382405670859048,0.0588746760158372,-0.9359924899169354,-0.5117597509798811,-0.3792738739285394,-0.33513898500027056,-0.6856790281617593,0.31944808535457586,0.41881484133912034,-4.494316939435656,0.7670010443164136,-0.41997679752163475,0.7840678479614124,0.3489750152401906,-0.5497598624752635,0.33630810076767614,-5.647818957053267,0.3440553692233078,-0.2824121155469475,-4.305296225369827,0.7107665421857372,-0.1962994150843202,-8.098151800532548],[-0.3362488533351892,-0.47969619511356704,0.7049913606810972,-0.7597024688915776,-0.8503691982332173,0.14669280394308332,2.562958851620824,-0.783522525600335,0.6540068972193473,0.5019408672924196,0.6173961418150726,0.30385294876316815,0.5460311906817654,0.8099940490801687,0.3802792540719313,0.8773848468967654,-0.9052507177577255,-0.8350389887723553,-0.5294966450241364,0.6402830794656922,-0.11733834919023307,0.5264267151104182,-0.9807321852864831,0.2409269264795319,-0.42086380088893377,0.24130923192877737,-0.2237411220361808,0.4649799109394536,-0.8843082960487382,0.3560596745369075,0.7940989301691357,-0.4083234189769421,0.6946864358148716,0.4341853774144161,-0.9771277560315594,0.4622705961786079,-0.5086173173441937,0.7093435636358301,-0.721748558441715,-0.8652074323640255,0.3451754640239553,0.28082981260788464,-0.5698626668099334,0.7968476392367293,0.9829767320703346,0.40553220349147456,-0.6781162387937113,-1.0960603525150763,-0.4991561825299763,0.5141034211202616,-0.3430059883941512,-0.1315960355309094,0.6582745569706526,0.023492915751498554,-0.006162116681425477,-0.0006500492870429353,-0.9729898601423363,0.7638577485081507,-0.3177333219496297,0.9279598015322739,-0.13582842251053356,0.4315590028707374,-0.8210325703879513,-0.8014649207402401,-7.8153563323453605,1.2800463989261857,0.3927267987334192,0.6103297957669493,0.9262812997560471,-0.8699651422460197,-0.3024767582075567,0.7424137217665833,-0.2965631889084316,0.5721285103076724,-0.6750981695528442,0.4928813504345505,-0.21858508432469104,0.3987996993648847,0.1737705071865088,-0.2758776098263973,0.104158559820086,0.05136641066113488,0.7093658045772877,-0.4861720341933503,-0.825742241407794,-8.149680875917568,-0.7677138180152026,0.5233034838927899,0.2824450242928612,0.38622569569446025,0.5447276455917396,0.6615357753208464,1.1410692588004125,0.4265790745595803,-0.2498586731781214,1.233648925677458,-0.783163434658939,-0.9651834965446023,-6.37732017047405],[-0.4912854678991633,0.20058999672686698,0.14045503694455452,-0.23265745202486995,-0.08353028655767765,0.4066820497809833,0.6476150220766885,0.37162451499873966,-0.3597495947603628,1.541003134735549,-1.0878564464730718,0.1535450965629955,0.6041440823809676,-0.07366473404829263,0.9972845240417867,-0.25701086689859676,-1.9474603048049115,-0.19358266907544391,1.486314704359813,0.41850723789007643,0.10141181454180058,-0.4954771324720317,-0.9461167737829383,-1.0028133731089794,-0.12670621542964103,-0.11660506122703472,-0.894716242651774,-0.04599910052631002,-0.08343329059079928,0.23675829576700477,-0.5104063419563234,0.7621388994561983,0.4169848942916491,0.1954786204553906,-0.7653334043290613,1.5364456737534482,-0.05629214581388477,0.32060817516153767,-0.6907176660810652,-0.3609107369021124,0.020720780428927898,0.23055341312349473,-0.31738739019882,-0.6146625660665083,1.5779781691104624,0.7192617474822525,0.2378268606239417,-0.7440414722368792,0.6051855952528785,-0.5586470222154523,-0.3250258609908717,-0.7731749597464813,0.28741668139825416,-0.2824378827576348,-0.7104389244529561,-0.930975798647165,0.09818217604555157,0.44800452738133245,-0.36843809704815955,-1.060172577276674,0.6798969063604875,0.4319385315276872,-0.45322552854404713,0.7168448320141481,-0.9908056090594157,-2.0418384490204575,-0.20808587897319664,0.8181852572162389,-0.49144592522867736,0.08829077451260729,0.6468490679816882,-0.692269739822024,-0.08108331041647354,-0.27056017667841165,-0.22736042805396964,-0.3552223929643149,-1.8655336961904858,-0.03488476389151087,-0.20099560881969938,-1.1833000150008088,0.2590333209121003,-1.5055212021547066,-0.9312935433612628,0.7623676189350301,-0.30337665080850873,1.1518151754934152,0.9629857395307255,-0.23395962158814382,0.1679494045164792,-1.2834564818678789,-0.2504293658526452,0.24487237910306014,-3.0038703648258185,-0.4041458914163291,0.5414888686123588,-2.036966577461347,0.2213583746546055,-0.6307347496719777,-3.7213845329277078],[-0.0976372001639634,0.6571976086150291,0.3063679667405666,0.9644249015653451,0.13738855424641563,0.34271961473148543,-0.85030786197035,0.5585176765198083,0.23068058382012965,-0.4544697822206438,-0.16395045257538465,-0.9681331524511528,-0.244405611176955,-0.4927593960643782,-0.7994873696511664,-0.7961458132164705,-11.119694992881277,-0.0005022376427714769,-0.7275899445028232,-0.9685667393186106,-0.8643968110220086,-0.8106679026667031,0.7801609947498068,-1.0034300132913265,-0.005849247564928595,0.7290574051550864,-0.24470469327480543,0.44403420275718214,0.7509450144241311,0.5520982967997361,0.6683752354573627,-0.7780846908634683,-0.19046109985730256,-0.19761498020451007,0.24094662515285148,0.5342130365402574,-0.08620467055485138,-0.32886262081946915,-0.6378253663108714,-0.3501451203230592,-0.8111875429592854,-0.3337945589266839,-0.9787143612754089,0.8130562815608595,0.7075598917613871,0.2482708240938239,-0.07291551690427459,-1.0677466889310478,-0.2659956269840472,0.9418262934107348,0.7439830396669819,0.11411286362087557,0.7165983499721192,-0.3848532324544807,0.4445313816657499,0.5852028949703242,-0.1005034780672182,-0.8834268551816385,-0.033099118495923424,-0.41525194082543004,-0.09237330083054249,0.8561954900044121,-0.8029310977428266,0.7535653574586868,-0.4528793191827077,-10.904256964276115,0.5632014718974621,0.0034228285534161676,-0.9323947728249331,0.9541016631023383,0.3399315583488293,0.3983350883419693,0.582602575583696,-0.24944735735817664,-0.414847820724275,0.9792633659468974,-12.142755257905318,0.6505032316663477,-0.20574658606655138,-0.7982250963375215,0.8719712172276045,0.5283343371583891,0.05387530394427415,0.8426587297731597,0.7471872208770203,-0.8715773418494622,0.4842405848063759,-0.2937827778556973,0.009018108845282466,0.6465329426835181,0.9967858479601277,0.561537688045696,-10.383076309882236,-0.41442726451581313,0.965796946285628,-11.353420253252127,-0.8511594048408033,0.7951973346802317,-11.310348429746432],[-0.22658145076160155,-0.601427826800868,1.5388978624866627,-0.3002623015211449,-1.010698933481755,-0.026912571962895274,-0.2106590877609418,0.7632231754528133,-0.08703830884605591,0.42296264935782885,-0.9054343679227428,1.3263351470483022,1.0489272576232453,-0.5184345577909755,0.7098030480744991,-1.087192302362254,-0.4526606416039144,-0.03613993077690698,0.11327846956314712,-0.774566166755024,0.14259917545830766,0.20035896025383712,-0.6354912035040481,-1.6593861872530156,-0.2830168676484322,-0.6695619725813384,-0.13420568646713002,0.5417321820976819,-0.4092712793716424,1.0722710306746692,-0.2784590026456358,0.43296888435627157,-0.5136046934543969,-0.6371891151953416,-0.04895647224430909,-0.5262409673048909,0.24198412469567177,-0.3900755000597365,-0.6640119541267099,-0.44431171193854974,0.1574382692603438,-0.12010435665622897,-0.47061090700227676,0.42866233144084614,-0.028184578637273805,-0.8212959944137437,-0.3268481242481187,-0.3829954197848405,0.049054347442404805,-0.706612948339498,-0.386424128837257,-0.8756000390038713,0.8621309116216244,-0.3742684550723858,1.5702259768982256,-0.8565683396075643,-0.4108103202596553,-0.8404940749674482,0.1202495386094353,1.5194371905973556,0.6223969281452275,-0.1932431409324201,0.2605642219184365,-0.2669874943180106,2.6280956191244824,-2.1198619916242265,-0.6088722664075852,-0.4410831213352316,0.5187400985129857,-0.458022622835355,0.06787197700055742,-0.04367742068046353,-0.8891178889863391,-0.3055280202329602,0.44321500377071893,0.09892960445110459,-1.6095983530435358,-0.7415254415170511,0.37487367322525256,-0.12532304250667653,-0.12088103501562847,0.6042788964233341,-0.18127515558120033,-0.09524937465006995,0.9344167882862542,-0.004518399966577163,-0.5997431398337864,-0.9331694761658017,-0.1961037273453231,0.8668408304795269,-0.8500432257331523,0.011283296830129776,-1.3258721814134695,-2.0332292268260113,-0.7170827887022828,-1.7738963195459934,-0.2879355966208837,0.3023684543626626,-2.7104291067729775],[-0.6212697797756396,0.20521435922462364,1.1192304500138217,0.10960031138671684,0.6803109104294393,0.0661681209715042,-0.9196220054078044,-0.0020046167453973236,0.06483041792192047,2.1354912663194727,-0.9688009151431528,-0.8829253736120586,1.085240735154376,1.4552080193859507,-1.6540614348267337,-0.8775464470290022,-3.631216409398892,0.6445241578829858,-0.7071831406716494,-0.040077157827300765,-0.8214962234623141,-0.3507064939847206,-0.267932281641649,-1.0852698355317718,-0.6398262070507151,0.7281066669857118,0.22252934034594413,0.6880913624835424,-0.18172927082652957,1.053513570609169,-1.1837397377177432,0.30605495058861476,-0.023611565733893263,-0.30156425658177943,0.9714265166205107,-0.9487866574845499,0.11340892271320177,-0.8302323941812143,-0.024087722287431602,0.5800135335677153,0.25330567052813313,0.771863470808237,-0.04374396392059151,0.10698673871674332,2.219960693517321,-0.41229303167832654,-0.09893202817537083,-0.8145492055120265,0.5946404985863952,-0.8980620438573963,0.19624718484026132,-0.6779495873011431,-0.8428572499585681,-0.6696837828194393,0.3827878135501431,-0.36516387615258916,-0.9469485756844722,-0.7550142136456067,0.10826160232683524,-1.2212399873780493,-0.8474274558328609,-0.3830062433186455,-0.7606709062684773,-0.6356789674672927,-1.4165885700225576,-3.690622707708489,0.6680937437265831,-0.12381228783636263,-0.9125703602815304,-0.06408126713943829,0.41032261529204445,0.3853025947794235,-0.8694296864890108,-0.5218393717345584,-0.4534759882205037,0.8639247925024502,-2.3906950467108756,-0.3612700865976932,0.6116862924627199,-0.2093799307939366,0.689192153613764,-1.0007392912614637,0.22260904838749734,-0.2519930628019161,0.6108891123680055,-0.6079131980976694,0.8791867439100965,1.1255512285438156,-0.573409472802004,-1.307260646152708,-0.4431568400808071,-0.5525711127759592,-2.5170838622944145,-0.2977347177878341,-0.1442067843184216,-3.775536777838484,0.6263861561655821,-0.12176319559478425,-3.0302976511105406],[0.25075559410291437,-0.6432505446571776,0.48041934315823237,0.9395215095742815,0.043187472175735195,-0.5658178960873431,-0.8856669264097227,-0.30789575840217065,0.4866829382630704,-0.9916689428426976,-0.7260145084025351,-0.8359169159619986,0.8261814817998072,0.015372849823108516,-0.5845865140213264,0.7037910125247767,-0.6403767501948623,0.6002792889814459,0.5817576262713046,0.017907525983649416,-0.989620949974516,-0.839090551220112,-0.1061409670934911,0.6471580947490326,-0.24832767390262098,-0.732954640592342,-0.052068934941320553,-0.20626163521384858,-0.07490802791679065,-0.8317485496725602,-0.2144889941631864,0.9075308270708959,0.6166517357625697,-0.5181198265073664,0.9555624559997766,0.981408294581667,0.2798886383963616,-0.8724186272780411,-0.7202104161583534,-0.3345542669627887,0.023587668655854627,0.26439779700475374,0.17800770163247356,0.9756485933335596,0.9457780352042622,-0.24990803002593875,-0.8596530661086781,-1.077883988836826,0.10040377090842446,0.38047140452266187,-0.4814263096048079,-0.08916232698536254,0.9729394895239414,-0.22720745033982834,-0.9870158707346092,0.07927297798180326,-0.3170134554720643,-0.23501155047409764,0.8087279676347778,-0.1988303820012296,-0.5079772054291625,-0.9447946264739521,0.3001857920778472,-0.715700885873622,-7.404924014161217,-0.9848723586462442,-0.37659067398558543,-0.09857733282138066,-0.06394565689328789,-0.683524384787117,0.5806793346732181,0.8630439531618301,-0.09390637430967538,0.7873841680778824,-0.23528642513104428,0.6404817344688406,0.13492331935010035,-0.06196563607535489,-0.563688190544768,0.288799187650807,-0.3471745665248363,0.056059362816933855,0.9123139034826734,0.1450761754645018,0.3455023141107363,-6.217662008759733,-0.3816471292188764,0.2974806965959131,0.841551608732823,-0.023516554354465296,-0.6942794375705115,-0.9993437943681267,0.9135791752657371,0.5507212060650479,-0.1436265549680589,0.2946947502693933,-0.5467938402689204,0.9906765216150554,-7.715072827229421],[-0.13643890702018788,-0.4670893192838171,0.4932538490492316,-0.12488625511412284,-0.3574642016389601,0.25839558986574035,-0.9112091835889555,-0.1491464924733134,0.0990602786186551,0.9957916924830051,-0.6074057814460908,-0.8416445480001289,-0.7931136526074629,0.1519065191961249,-0.1440766525805889,-0.18787899051791182,2.696867360128869,-0.3390267901359696,0.6416897241177947,0.13162384074448216,-0.3721947190322324,0.8925997206470012,-0.14245693727475767,-0.26069129171183525,-0.6984478037669103,1.0173241779903517,-0.508346234903561,0.8827153021159396,0.32081617503669513,0.11536504039148202,0.5120538363165297,-0.30789770989297,-0.14621421473031163,-0.013177572660918709,-0.33440646732151175,0.18166939141946525,0.08927825341289936,0.3345631952287494,-0.7022186574469808,0.3623802743762279,0.6842457686345134,-0.645478003817644,0.5264706984730685,-0.4327337337778145,-0.6315234970435998,-0.9246794908937376,0.12439382141402335,-0.9056434466283358,-0.7331752398341513,0.4385778014037269,0.06975776060252264,-0.4213125966904306,0.8196174419185527,-0.7595772790007564,0.8810562071709114,0.39049980913078247,0.3115388787358437,1.746630128594703,-0.5792521328442832,0.23031853374407565,-0.9736331900146841,-0.11366131278535048,0.9124657498478486,0.8051021503930258,-4.158525364730738,0.46778045748339014,0.21549269466242751,-0.5162524287792846,-0.42300741713607204,-0.7342194363878014,0.10545863495697116,-0.36653264124003015,-0.23960424739421987,-0.23510891533601544,-0.6676176870578924,-0.7305857302703397,0.9316816126750178,1.0231460134150772,0.31249852426735897,0.273758528852362,0.0853032447586876,-0.9928601846518538,-0.07762155698065679,0.6481953955612357,0.024166408766324237,-4.651195612554461,1.202281985218444,0.1494711722004462,-0.08769871541691489,-0.39377260329188063,-0.7594662988080926,0.7972660938141367,0.11500413710892232,0.15250133426651727,-0.9263968534141439,0.040901221931841064,0.16543544562060816,-0.05285490935488462,-4.968911266596504],[-0.031266888449091965,0.529254343287595,0.17820898528248857,-0.9276723910478791,0.08910233388329916,-0.020609180961570876,-0.8715543259958404,0.06900610911392237,0.2236204390175974,0.46864709695273415,-0.3565861813488394,-0.18963742791247204,0.05039728867830858,0.050964064697033955,1.771970451232027,-0.5364068255539316,-4.005917673433236,0.05208750410333015,0.48259118482497343,-0.23148087530778425,0.004640933058365449,0.20354980385621918,-0.669998883196713,-0.7092362479949224,0.005011805276937465,0.7266782655246691,1.01395145546139,0.5144343684268018,-0.09414825675778225,-0.012253307995025832,-0.023159727734117425,0.5568866620398719,0.5141806906508629,0.38595038766633183,-0.657651187303806,-0.5300972843467044,0.5058958142709264,0.18765832464434998,-0.4028325255866998,-0.42844924552773606,0.3821264228426418,0.8826890817490693,0.46211643368581673,0.7662279512073872,0.4841544547386022,-0.9294924228862227,0.38544736335587343,-1.3089833391097283,0.34303175387921564,0.7220599705669047,1.437526142822026,-0.6300347594103588,-0.8089697085145026,0.19394798003900007,1.052339865838359,0.3837767636981674,-0.6196800202379874,-0.4162824396245877,0.945513214495583,-2.0947148846898873,0.04177184621597298,0.3272616329646277,-0.715355035340975,-0.5733877302057836,2.031809057330039,-2.831075409641395,0.11911226856789608,-0.04601520451379698,0.21733579981529635,-0.03315695174263674,-0.5809014794828015,-0.3085111556471319,-0.8448446385042571,-0.9245481410019335,0.07709569205398739,1.168884645287094,-2.9890411786179283,0.22175149879048736,0.5658354374456208,0.6858137086377454,0.8292415498514536,-1.473393758736905,1.0266980103278813,0.1175045182204916,-0.3868251870305744,-0.01608309252877424,-0.07031071228455063,0.9673990949454975,0.07147647583655739,-0.865266969728892,-0.49785737656929985,0.1992079901621806,-2.0410544589740307,-0.01238601463962838,0.8039158972548739,-4.681617204686331,0.9297592905629783,0.109122012678903,-2.650861997894847],[0.08934525265628399,0.6715614755841303,-0.7260867089987363,-0.04613212698456845,-1.0128036875037953,-0.1756583977528509,0.5767533095137286,-0.7896773427566304,1.0885622638282615,1.0282157560202465,-0.5130636573175921,-0.6878299183622566,-0.6874625453762845,-0.8640651445430866,1.1305914942727162,-0.07629415337409041,0.5592962955041422,-1.365408663423942,-0.16100245825594692,-1.0131139131601783,0.39051677707343,0.4973962178490205,-0.2590489581056956,-1.06438810946456,0.06192964498988725,-0.5689656503397134,-0.09490182010394428,0.0955860411194126,0.1273197451758141,-0.6927274728043946,0.18064762783925903,0.12004067693497561,-0.18903876267107755,-0.15868667372146464,-0.9676376782826649,-0.6712743704483015,-0.422882870841806,0.017901258954588987,-0.29369466838951064,-0.6323143527171925,-0.3511599695264734,0.5810191960480207,-0.45295537429713656,-0.3924102137010471,0.355421637638305,0.008867657134400126,-0.2245398346291423,-0.49474609484715665,-0.4707226924026484,-0.8636754604165604,-0.13118026224524823,-1.111623983139656,0.7083120718860643,1.710549089024244,-0.21550474559811844,0.10823066434319531,-0.6464154136084048,-0.3011057084343211,-0.20094977731674787,-0.9459950448865256,-0.18358390513474798,-0.20203023866985853,-0.12879913999734624,-0.22226504752725534,-1.418192665610209,-0.3239289491646534,-0.11373836517084929,0.13480982272293426,0.347271181549073,-0.08065596872815774,-0.2694569021237973,-0.4945448727340313,-0.19929014203366546,-0.32981723143742436,-0.36907076651236304,0.21959409805045232,-0.2593122443162265,-0.22050807811114245,-0.6154038298680212,-0.7587533589640678,-0.663286147427678,-0.2902459578073937,-0.2877313402937681,-0.46955535302610635,0.2114949778869756,-2.3692757516695524,0.4637624747665017,-1.683194339169713,0.4512979557205971,-0.12704488071025985,-0.39139021295663323,-0.6881048789489688,0.07894754774937279,-0.2575620567710024,-0.4782415396684,0.2507923772536871,0.4338200478451604,0.09146395583456746,-2.240596093382893],[1.0217751206313423,-0.3916931911121921,0.07372564511477703,0.14434732219454263,0.4069046228818244,-0.4349328869621339,0.8946500943434769,0.38122834779030446,-0.09919762325162425,-0.9734602189628282,-0.5840684781949641,-0.04105182572857876,-0.5017985408422356,1.3927684836403995,-0.19358811099611828,0.006718972561130823,0.15227871551826652,-0.29305886854591395,-0.5265807926823868,0.2766178379065736,-0.8031967697934019,-0.19729434172367744,-0.1801904830122994,0.5293189068838996,1.07495986997056,-0.2789475156841377,0.5985429658637565,-0.5378805631547341,-0.7722633639952465,-0.7186751709479529,0.8800334874054028,-0.6950611956163399,-0.08908061314653114,-0.08729136154577913,-0.930979166498087,0.6828308328854403,-0.5046808567463005,-0.946192182485806,-1.4155461721103622,0.27719140019475097,-0.2502344620987361,0.2751201171827648,0.08262401498945576,-0.3990063990654784,-0.6971644805445952,-0.33080227479112795,-0.8365453282158295,0.194841826538131,0.9736925320507251,-0.3174759320754688,-0.5926221747113973,-0.38442514398847716,0.06324706929400052,0.45055495146336244,-0.8574455466209652,0.6528632313052737,-0.8717005606422098,-0.5349408752902889,0.14620337581031548,-0.12770849049918487,-0.5258583054523288,-0.8895160576304679,-1.0167931698746566,0.8690091116259341,-2.233032367604958,-1.3232084429719364,0.17117378198691885,-0.3861561157140452,-0.3506778854780629,-0.3394763028402879,-0.7460826301387903,-0.08092646189220014,-0.9279715137533696,0.01618987321659366,0.17626708677819974,-0.6577844540367027,-1.2354543496707988,0.13736375484545296,0.06398686754810945,0.9849603388322438,0.9786140457137329,0.8708853815106156,0.43342604674755486,0.20318255112630038,-0.5473129383719534,-2.9057149580238826,0.17946040229207508,-1.170529025504153,-0.1214574493825574,-0.6983779376227159,0.8462794687323422,0.3646147337598327,-0.21686272814494695,-0.7615377873181127,-0.3370595717734184,-1.5651357842369733,-0.849184202267937,-0.43988589936839934,-3.6882404954621717],[-0.1486368994052662,0.10448612220213231,0.27116907565467435,-0.21451734298937075,-0.5638350598521175,-0.26225728684544003,-0.3217041392602148,-0.8054526908695672,0.5347402093473129,0.1029650307894103,-1.0082660724709258,-0.1004539808423468,0.639489404723245,0.15992233213227347,1.1115974333432133,1.7772142067309975,-1.7323689724086262,0.6935463621249985,-0.4410422793063144,1.0436567526425768,-0.22387300453714284,-0.02772137577944141,-0.76795398726749,-0.307277760280342,0.24771858678291184,-0.9230564438006683,0.1604345535968442,-0.5641943059966694,0.07782325166073135,0.32112352689501056,-0.3188848830061169,0.7331436785141077,0.431483575967746,-0.46472098475646284,-1.2519625704344175,0.3076415320440262,-0.1058171650013793,-0.7944728769208166,-0.703344167198907,-0.28498784548771466,0.9899395520236512,0.8705624638857432,-0.14807768878510255,0.5633885117744521,0.2205796078641355,1.1280636021925174,-0.7490936262541895,0.03154373268361225,-0.13861018694728997,0.6772521622647069,0.16830521472853766,-0.5088628612339012,0.3649362706087894,-0.002151565607863347,0.3665198797599044,-0.3128041956386386,0.5567180067116569,-0.6308311208440242,-0.45862646065406615,-0.8272308009644134,0.13102062951760785,-0.5042623612681181,-0.06877264243739555,0.5393946941141872,-1.5021058229331337,-1.9301394227877746,0.02872645605540002,-0.1383376543733541,-0.9086633263369368,0.1164046720277186,-0.9836307731067147,0.23591755352009125,0.952674124589427,0.6701409908663012,-0.7070867340446285,0.17921928719028574,-2.3606196773653307,-0.4759780775316471,0.4785942972610115,0.48029387000286416,-0.014573067524253677,0.2848090895340273,0.02853719337456462,-0.17411861094094297,0.48751885065285316,-0.8185151346136428,-0.09752313875554777,-0.8154755303232346,-0.022261914817594635,0.2287305307371531,-0.8047270397036576,-0.4102737509248726,-1.795805279435951,0.25443702535583945,-0.43220478438814314,-2.700584547573754,-0.1903964675472041,-0.7703086116855162,-4.385317662797766],[-0.007528608179496485,-0.7004599023237736,0.12602762155741326,0.6003126592560317,-0.2747685834172887,-0.4518030169254592,-0.31819994473977337,-0.1577881718144212,0.49289140391583536,0.3975610474719211,0.7290336115339604,0.1395579902201599,-0.9018631388119204,-0.6997351472476665,0.3837764770700263,-0.24666887718566416,-10.084698294399637,-0.11814664813932559,-0.38996822324580277,-0.31708676425916227,0.859699544952975,-0.3855668015005253,-0.5977429363601706,0.6178812056770729,-0.3953013164683073,-0.4870511263192329,-0.5406577287718463,-0.5825940462365611,0.55898066073554,0.4803928594936293,-0.26479461227169965,-0.10904750479814766,0.4882529565867669,-0.2274023035372099,0.32429743975478825,-0.04797029503687493,0.11839950399813665,0.4582270542707067,-0.2114750357366196,-0.9582816263290622,0.7693841225695446,0.6204024034645312,0.0802933040342338,-0.7578199035491533,0.39671727093189185,-0.8257913795183316,0.4533577818943783,-0.3913968807588326,0.017102089371803054,-0.8160152431166778,-0.5399843070293634,0.4383242307371983,-0.027477246015740156,-0.9062437689638168,0.5915300571880389,0.383356907084276,-0.7776207805607911,-0.16341338339279804,0.5553848419147907,-0.36691591887252795,0.40703901710585777,0.3694458355457511,-0.7291487986456169,0.26328095639986115,-0.3032054784680039,-9.162948972541244,0.5704006440474828,-0.7679574547018558,-0.727526289335319,-0.8135352329567813,0.36723340490168804,0.5414544032016465,-0.44437225927268104,0.35165708911084764,-0.5323323276166402,0.08058762044687837,-9.244019024218671,-0.8116419053376037,0.23410980542344884,-0.9191298166988909,0.6208198861026241,-0.18892727001210957,0.6927347186957387,-0.5666313348218918,0.8839289965232544,-0.31909368079356887,-0.22779373567675465,1.075785564296138,0.5481669994890521,0.9428973696435212,-0.6702845760894683,-0.6991874329095898,-8.291746068664585,0.36304259391168375,-0.5804769228490838,-9.820968519072983,0.7882863671375449,-0.814319784675384,-9.363423610925365],[-0.584476024939101,-0.9643299945126323,0.4734074060834734,0.4090592423665565,-0.5889386059806561,-0.8111903487576512,0.1729814427819942,-0.9188321379348384,-0.8853507513915035,-0.5533182943669701,-0.5069283959483522,0.8116692674302268,-0.10480373149614956,-0.04377195126894022,-0.33615992775657605,0.3768212354488979,-1.5615880924783216,0.9798913668103689,-0.621198068467877,0.3406636679980999,0.15145929828841212,0.7863918220154789,-0.8991477703576936,-0.6869568233908457,-0.8337532178161935,0.20819868059741833,0.811294860189388,0.4115817389054962,-0.5336733409330258,-0.3661313185476933,0.19614568478315225,0.38772291375360385,0.3494460391041797,0.015302207321415046,0.03821661059181276,0.9900042899971457,0.9748106304824337,-0.668757761477245,0.9861613437641704,-0.6383490032585615,-0.486836047623407,0.8795813953623369,-0.6841872792959622,-0.4466064318836236,0.3919608973673405,0.4798493538443378,0.04159863958582251,0.4033693379237774,0.3592177977348951,-0.7889656295166051,-0.488114954013793,-0.3907386005203553,-0.5648918269872498,-0.39460878804999705,0.41655367100513563,0.4129165234912436,-0.6057034412354667,-0.6792171759042784,0.5026639186329621,-0.6949929936036847,0.252937711612974,-0.013863033937404463,-0.21707886733948104,0.25307594347552376,-4.134629886016661,-1.9809141190832829,-0.9612370535003987,0.09994827730699729,0.14717875458763655,1.01367858453585,-0.49058762437542924,0.4320129062520492,0.4533638945686564,-0.41201188947775363,0.7089707568604628,0.1211381296632101,-2.361703583157985,-0.7465554465280675,0.8765955433912695,0.7990893244592755,0.523300047673223,0.25269844996217194,-0.5758071276243182,0.8569725558707033,0.6939391090318066,-5.292939204806549,0.5108974790172948,0.6212653330109396,0.9389927063346797,-0.8185240336665816,0.42176054117802064,-0.3897087519904848,-2.2178515961916574,0.22587687291594108,0.9659625363070293,-1.5310939694356498,-0.5098121151334691,0.287619883739845,-6.65590582457621],[0.2581096652557831,0.31618613562340014,-0.6370925234528798,-0.08495771630720218,0.03842719816997304,-0.9395881313322993,0.18682675433982127,0.2732594030582995,1.2034793046205123,-0.9199279748581932,0.7150865697476345,-0.37242358237114204,-0.3396250107535581,1.614265152647114,-1.4055611488705781,0.34497648849964657,-2.0351402679805615,0.5241212447148772,-0.9747580054048042,0.8223460979402376,-0.2738191152855642,0.5790751142762629,0.380275790099783,-0.27481840076255776,-0.12057957118857987,-0.11152058432186698,-0.5963643925535934,0.13145763744320846,-0.5469408983637356,-0.29746618591685947,-0.42583269081981007,0.8939618617457415,0.48034352219717463,0.14703562723772987,1.0629857746010296,0.1098842778182866,0.2979282006427874,0.03150562618667592,-0.9597815458828467,-0.3098037104648203,0.028066070983991772,0.7976597624372538,-0.4752502197446828,-0.5579824468952703,-0.988814415756807,0.693318862089122,0.40885916049216847,-0.33912806019064134,0.5509002101921678,-0.8749231304577141,0.544818275400228,-0.40907530899638617,0.8925364673631406,1.450740116237224,0.6041425542748495,0.06417236696624852,0.1429247210540319,1.7548547815765345,0.5876666005091711,0.13140301521355358,-0.048980497546442195,0.23862272978374457,-0.35576332936042876,0.739521784664068,-1.2539318101635915,-1.6495160533193842,0.3738294422526923,0.48498628237684144,-0.3925047659823192,-0.09093642767707026,0.15104900622463271,-0.8607553929784144,1.6290129959262887,-0.43262580565759506,0.7013664822779581,0.24649010887755704,-1.6068864804530891,0.3515914201348498,0.33378003526439026,-0.9464224030802912,1.016309830599778,-0.6027018234737561,0.5932919676371624,0.7011184573585738,-0.5087894635301413,-1.5265007210234187,0.6001913542851144,0.640733274203186,0.5779846107501189,-0.28499394509934506,-0.7421272659188062,0.22225809908732033,-2.2685172207217157,-0.2980234242449723,0.8754796732313957,-1.4148892449192383,0.6277215006630431,-0.2386912615890417,-3.0425286664398823],