{"HiddenLayer":[0.000001929586387981706,0.0015942013449211068,0.03878130545391878,3.583874399961431e-8,2.0073341209429662e-7,1.9091477848525722e-30,1.1342222216786848e-8,1.5452661966646208e-7,1.609490600030727e-8,0.00010500102596175294,0.000013912289465703126,5.1386261534237e-8,0.00000329153733364863,3.6984829067547595e-11,8.015112767483967e-9,0.000038994628072093845,0.00005737960421749618,1.0220108999694386e-7,7.124769030198351e-7,0.00003456896926456138,0.0000011702442589056712,0.0000033689818894972173,0.0003087938075459024,0.0000016523961275916335,0.0000155787010159678,0.00001759315101631666,0.001095521447559703,0.000018505452093787597,0.000001694045893886426,1.0078027646818123e-36,2.4630987374483034e-9,0.00023017733490884792,0.000031322383754665004,0.000017736914119165804,8.349666278878526e-37,2.1735448749888819e-7,5.945271726128019e-8,2.3993363734241376e-9,0.000003528648224189415,0.000007901581016374582,0.000005259238209621666,4.578539826456876e-22,9.937650364719465e-9,0.00003720584159431247,1.6958912625046122e-11,0.00002484226605195808,5.712265813060175e-7,3.845113411002407e-38,0.000018151609990597953,1.02157701006639e-37,0.00006801335154464147,0.000004265304089708084,0.05000454730827834,0.00001173102334641438,0.000229006495466503,0.000007013331892157154,0.000023053654950008027,0.000017246015040360576,0.005455090636026332,0.0006574804403543352,0.000002627984415098378,0.000015008427511413222,0.000012492698590240018,0.0001516117411035698,0.000005640977739939081,9.16809988412802e-11,2.367176555727174e-7,0.000005003663125070476,0.001694052139429295,5.579078892246284e-7,0.0000012871126464991758,0.0006801019110403568,0.003729803304946933,6.771888358665335e-8,0.000041726075095814604,1.025843370197284e-7,0.000023929484515593798,0.00006497661176925523,0.000007364231283119415,0.000034923135772234734,0.0008878829570547093,0.0000530210202548157,0.000010054920865071209,1.9318369679998776e-21,1.1242564245129196e-19,0.0000015658400604191783,1.1658977020604785e-14,0.00022155375404009768,0.0000014247630879371589,0.000021520941850691945,5.01857750403761e-7,0.00000884485649851965,4.754822638797794e-10,0.000010424016574407869,0.000006794069843800134,2.787764431140986e-7,0.0005486303163204116,0.0000261684033642493,1.650733466267096e-8,0.000047786847225008315,1],"InputLayer":[0,0,0,0,0,0,0,0,0,0,0,0,0,0,0,0,0,0,0,0,0,0,0,1,0,0,0,0,1,0,0,0,0,0,0,0,0,0,0,0,0,0,0,0,0,0,0,0,0,0,0,0,0,0,0,0,0,0,1,0,0,0,0,0,0,1],"OutputLayer":[-0.015425267813546405,-0.019519956861027137,-0.007185954651122439,0.005890774793206153,0.06329828916488461,0.010553039186313897,-0.005273135558359494,-0.004145547542348392,-0.03310548795527206,0.971250662462856,-0.00008732051802496943,-0.004868812143991916,-0.030575847261768763,0.014512397910803346,0.004297913744282983,-0.017011279535152753,0.04280922703305727,0.0007608771892499942,0.008213266295141493,-0.022892046759312307],"WeightHidden":[[0.43917248291627453,-0.4718348040172642,0.7573298689223436,-0.05064202987361675,-0.7609053144034165,-0.671761820341132,-0.1899638128388506,0.8695994432248374,0.9062388414719351,0.5174150152513146,0.41410396935792887,0.5714049549520527,-0.09507081889763384,0.9038209944209654,-0.5768029190859261,0.12331915689561916,-5.445940920190797,-4.189154674782044,-0.8035626461301516,0.3936916310386849,0.6412763191855443,-0.10578771477356282,0.791952523713634,-0.9602896064327596,-0.885030958214628,0.1757792270840809,-0.20056510925671273,-0.7411126809149362,-4.5714381141837706,-0.7309019145457518,-0.613777509256363,-0.06514245892082476,-0.9990036995621979,0.5632314408389771,-0.1723966015286641,0.7850085375128779,-0.8312753260027449,-0.9051562336070509,-0.37505412057391224,0.335855070131658,-0.5769684702743303,0.7986703860589963,0.01676870947424306,0.424270503530763,-0.10393593969808107,0.046755154577571484,0.6847660329796221,-0.8452538969051548,-0.7060878462776522,0.21297339771910567,0.7200321880355353,0.2985717323847597,-0.4186284423203346,-0.5503296918604661,-0.34318812131043125,0.002037731594079587,-0.26683735177588924,0.5884959268969833,-0.8723626352222367,-0.7896299333129895,-0.25916827369229756,0.46821740062006517,0.5307399292543833,-0.578635357736408,-0.7394432282747395,-6.754107024411792],[-0.5758653702345432,0.7248714348190116,0.0628742043766525,-0.7408630926867322,0.7262214940183052,1.8541726506470182,0.3791461620505961,-0.6577098017348986,-0.032776433511065614,0.3153314794483786,-0.019887130112575903,0.7799655787390266,2.3546544367896014,-0.944481038720958,-0.67357621385367,0.03392409402625144,-1.795060925455632,-2.073295503072453,-0.7220576666732128,-0.6408525869609694,-0.24282811176009603,-0.5448711754783616,0.38517891471223337,-0.545930427526498,-0.9749047014976657,-0.312967893667321,-0.9213879470842362,-0.8893526072354108,-1.1197515073935256,0.29634515511607584,-0.5280036893451576,-0.7270661881066796,-0.006243171067732575,-0.5236192672965726,0.05342711120681267,-0.3518718708264816,-1.7432627621731347,-0.059340767796889064,0.3953405168846133,-0.7838446873055318,0.7519358616934103,-1.776669377769548,-1.4854162705983904,0.14191519090580376,-0.9752703913789755,-0.22154082504971898,-0.18957231053689433,-0.8081504482298879,-0.1196015932897214,-0.022932514065672528,0.4208532713487114,0.42497031754437764,1.0541482694621587,-0.6274596919667245,0.047341021165912545,1.741045573241661,0.994780567432845,-0.2077481144833595,-1.273250654965408,0.9749456701987815,0.5669712187245068,0.2197293801658519,-0.5889839212893726,-0.3455849985388957,1.0472989064659233,-3.501104471835363],[-0.5932147622821647,-0.30918713609749854,-0.14156012590873174,-1.7699920970856136,-0.3702921603029718,2.2011503219587913,-1.0804627909246505,-0.036824645349699064,-0.45711094763916166,-0.040984258990218576,-0.1537808374810585,-0.6732379041966242,0.8092282176776404,0.3760842705761831,-0.03466897520236568,-0.6519350599997488,-3.2609017063091605,-1.7111871972054309,-0.29535340163365637,-0.09190384153395961,-1.0674826453774375,0.0685080197281312,-0.03341533931665145,-0.3945217450893533,0.8112766249934638,0.8604006991808097,-1.9121754422819501,0.7773103045227854,-1.6172473511773977,-0.11818037900163841,0.014886262513851988,-1.016806797979326,0.7670397905867298,0.13907418400903668,-0.45680890521431294,0.43510552535507946,-1.1524366562596355,-0.2729123297441605,0.1509146544929837,0.8701681885582208,0.11800421949321402,-0.5055160519410389,0.6011498573192912,-0.9607703023683515,-0.04363942076783263,-0.09396051204577215,-0.07844005890037062,-0.17063454241509765,0.8291910158210933,0.4539260614644159,0.8083168083322956,0.19839566294668953,0.12105830840050945,0.1221373015427747,-0.6181639650695221,0.012889605624713503,-1.28735616455056,-0.3130208331556277,-0.18514577174892868,-0.32309028311297944,0.5468212183442177,-0.27284647564140213,-0.9780710911193605,0.8187416959353786,0.16368943067394873,-1.0067533218486948],[0.12292784890489906,-0.1524611842779038,-0.5789913227181037,-9.262263828502986,-0.5188958968396051,0.7917560724135525,-0.4607860910669573,-0.7103893822719745,-0.2907257933352489,0.6282069927921303,0.5974997659511374,-0.23700009303770816,-0.15736201395325614,-0.7529784921960765,0.6790290250111267,-0.19541111438415595,-3.0443001202119926,-3.7093072996660554,-0.5008493554986024,0.993458620715589,0.9604942541998193,0.2833141491941622,-0.06166022229464898,0.4699649519509613,0.6988649869951886,-0.08351460400302647,-7.931637732505237,-0.16140021425190773,-4.66827628095721,0.6233833696749205,0.3835960713424369,0.1676005194652867,0.5026718502767891,-0.4768239188317141,0.24809201049860882,-0.8817360789249516,0.34145158641190265,-8.558179961298125,0.1591416582280441,0.36136761402436085,0.20270794091549385,0.07560889182907564,0.4779509435978237,0.3674496712248904,-0.6374602664397269,0.6256875990448636,0.590839373109128,-0.8540567768856259,0.826806978557385,0.883024414252176,0.07498522536809418,-0.8360950547611158,0.10832843548390479,-0.3029084447457554,0.17496031718710672,-8.173565002766292,0.07435077320995111,-0.5108300643740086,-0.7154410163624189,0.46474566316845006,-0.5301778510853445,0.624738217543921,-0.7274835557339064,0.07528634582628252,-0.7001673048976552,-12.230483816464439],[-0.24655457030104155,-0.8506904646572216,-0.24932603508065676,-0.30503737069559217,0.2439549874846214,-0.9332321836843189,0.2788183463809959,0.35761320699968807,-0.6640693327001219,-0.17018630013162864,-0.5631325216897785,0.5029190920981841,0.04656049642454762,0.38351436010761564,0.7692330629909432,-0.21635491084121986,-7.210801714622282,-7.723404799131328,0.5589222741650373,0.05119375365123851,-0.5493515937430866,-0.3227314041749005,-0.8782789574466185,0.8660184496066669,-0.31389536837419085,0.8583980038697913,0.14418962055860454,-0.13534045711431314,-9.024020923263993,0.37761078698434347,0.9276516723465615,0.9014796417068465,-0.6120797755368744,0.33968224076062953,-0.1763734338185502,0.9217959635483021,0.6782837618185981,0.5158475693066242,0.841685874887052,0.1474267804224004,-0.5303163243579027,-0.5957640083813643,-0.4505515917444527,-0.12411087527471028,-0.2300119270730831,-0.5957848573922526,0.16324877040708724,-0.17042229663429334,0.5280110022568155,-0.27393943428454726,-0.8319261704327476,0.37991761584195455,0.8886213639052871,-0.0059008805237100465,-0.5300196197489584,-0.3896467799804852,-0.7908833110063591,-0.6150319727062292,0.936543598822317,-0.5353533946488284,-0.5217904010097519,0.540327429090469,0.4380769307473808,0.92620286198579,-0.7828681508834453,-8.199827757218117],[0.003932621987642642,0.13999903176509323,-0.806984124169469,0.25004562124780405,0.5017791301649243,-0.8570793836460502,-0.8358196247673211,-0.8252704130565438,-0.6871582865487057,-0.44042850672310613,-0.635184573808477,-0.5035684322287264,0.4393476763521012,-0.29096551100940754,0.36628684407441925,0.4493025100393725,-0.3219032021177422,0.061272269981650265,0.8351710857113266,-0.0799299865066656,-0.06632412453816906,-0.6587191736506726,-0.6584691575323478,0.9990788147075309,0.904959533481336,-1.1853696274275995,0.39729541945858443,-0.22466781575852177,-22.718430877647464,-0.051449263973922146,-0.3712586578217559,-0.6369665302155635,0.6141832122155381,0.03350183022167609,-0.9764539146822018,-0.41464642603341806,-23.38193576896917,0.9068621482461536,-0.802383828967587,0.39964915886214336,-0.6960507927427538,-22.538008192505536,0.3450578524040227,0.998322095392458,-0.45704909241569747,-0.6477398010248319,0.09642120746727223,0.9107285694289912,0.02483546536681406,0.19396622426150453,0.7907440816507338,0.9721653264289927,0.44194757471624735,-0.6452359777864137,0.2518929769896963,0.879793895654494,0.9141465894014515,0.625344525861868,-23.367796301792286,0.2558948577981391,-0.38543554927109785,0.7092453190923376,-0.5958562160603308,-0.926304923648009,0.17404479939527293,-23.34374746854166],[0.1940728520203522,0.7622657071306567,-0.3912604812271042,0.5595560362645763,0.6769615999031493,0.6241406392552993,0.21014746074030966,-0.2559419842192351,0.1830782342647864,0.518308029702735,0.45699852750486514,0.49953069251588456,-0.9948645917345029,0.4604384765640709,0.5054828744860947,-0.5244402081865254,-2.1728117311459365,-2.7738589958192312,-0.05033604066377129,0.9157442397355998,-0.3384165370442199,-0.8627853890745132,-0.5387659083029636,-1.0291850864523757,0.23727559335167772,-0.33660354533779624,-0.6562782436063351,-0.17841598572218584,-6.533378585734473,0.7709424934605593,0.5767542003521571,0.2669560055325233,-0.7489414469303979,0.8684263379949064,-0.8141902775395538,0.6606707210219545,-3.1929988294074145,0.7839708095233899,0.49871253853114017,0.7784350039089345,-0.15890567402447994,-2.830331775199664,0.18568878910632455,0.6609769871758604,0.7611846100167772,-0.7204962107077106,0.12668003845147838,-0.2105397048032275,-0.43453837206367146,-0.9524536681178851,-0.6135680220048431,0.5348440870496592,-0.7947116250051749,0.4658779710388694,0.24595207681651532,-0.7961891926085406,0.2519385741020791,-0.6067831750762255,-3.1424927097898356,-0.26610936236449767,0.475134064710941,0.013928029489507061,-0.3578354475393261,0.2043915536151406,-0.2482607428274862,-7.589673745267675],[-0.45286754133922835,-0.40007577004558476,-0.7068134752440312,-0.6323124218142275,0.7571742298539802,-0.007718193133723141,-0.8337266231360456,0.05136454526883567,0.027270551241949527,0.6381813461633804,-0.03129306608467949,-0.9690005818917367,-0.4036205870159719,-0.34036907342373124,0.1697825674556296,0.7024747381352386,-7.412551436182258,-8.2414274428885,-0.8413523075603176,-0.9939236515338543,-0.9741305521709359,-0.30899180708966745,0.5604378852216417,-0.8610884454592788,0.13271162363659572,0.8126333449607633,0.5477748047414676,0.470055748723055,-7.975917505283532,0.8886127429470885,0.8315654103728959,0.7931822967275216,-0.49835877231643233,-0.5305701302428306,0.818443092139878,-0.4785562194808657,-0.9725086196133597,0.14735080054881064,-0.48622944362977294,-0.6534145314219805,-0.9284655319291393,0.14881993724771478,0.43902058885665823,0.7816498998677307,-0.579128267200353,0.13845025681719697,0.002724325470545674,-0.4509296285557723,-0.7782225992967281,0.8121720729177372,0.8415580045922116,0.7610257606589126,-0.8507923887723928,-0.37693588199399103,0.856485219801154,0.47264695406506935,-0.18354005473549137,0.12862238456487027,0.5119222836967425,-0.5445859586139159,-1.112076661313092,0.0550986926601741,0.32283556186001394,-0.39710896564479287,-0.7895093318495415,-7.357811676103531],[-0.17889601694334067,-0.49406214316617963,-0.9283495328314487,0.9328865875016953,0.2013423227775176,0.42749650236559344,-0.2819290907530182,-0.3510540691015933,-0.9330575992693921,0.7820064432137225,0.7495108493108175,0.7314486003677384,0.2057002278534517,0.1824304694777327,-0.2643236313034639,-0.2548501993208824,0.0800325069213408,-0.00969891800076082,-0.7379041087097551,0.6104866705658849,-0.945053733235053,0.3941690811772957,0.554355287901718,1.0966478887018045,-0.9650730969104977,-0.8102040063157641,-0.27647238806847174,0.18047754914640898,-6.82563279998696,-0.42278777624581043,0.9096860561560897,-0.18300886317829593,-0.8512575830665609,-0.33824758230823326,-0.023205157582753988,-0.17530169611562282,-5.59521251792019,0.3496045419800755,-0.6701675460378468,0.8415099833558496,0.20054664931129904,-6.515087305749181,0.4828159985203158,-0.583301791909206,-0.05599250140972899,-0.8797697467924691,0.17984130101966422,-0.18734124927753468,0.3193706114865168,0.7370349105109328,0.9183746426172416,0.08864373888988188,-0.9982270201130798,-0.000543685868794761,-0.6718636061878411,-0.7613375450675266,-0.6604055707739952,-0.1699670653109422,-5.933170846835775,0.9650561011176071,-0.6903564783897235,-0.243576333583459,0.5470056893208077,0.03708470494480233,0.6605102386694491,-6.2826102042485354],[-0.054056830908667995,-0.2890255534267743,-0.25468689733421174,0.9893825651847107,0.7408906341722368,-0.8027397916674681,-0.2980463390818448,-0.026191156018807314,-0.2132756238409,0.049779884783087605,-0.43356767113894146,-0.35065087516715904,0.7656064040941224,0.24750663432370645,-0.2572046451213506,0.9295066929973173,-2.710059804976325,-3.4447399606926297,-0.029176323243244408,0.5531856988134795,-0.3496264445945283,-0.2283926546424777,-0.4271451917626124,-0.2992667445555543,0.12489477288451528,0.7638098217387312,-0.5077978760302388,-0.21728308528994747,-3.977704117466206,0.23458064155368671,-0.9300512079016557,-0.21596666683281657,0.5822091938734159,0.583631260400217,0.6254372132606217,0.8195337288025116,0.03390086845237525,0.18288215736737454,1.539542580282564,0.6312230957984634,-0.8541227781739146,-0.0290161527804295,-0.23264716357814,-0.881269618491678,0.4037201362962325,-0.4969222601986228,0.49353420769032547,0.08611142349276997,-0.17566377987221524,-0.2328861381611609,0.8336457397657477,-0.895329021575929,0.8733432462726831,0.5701292923338384,-0.6509713974272986,-0.8827569159251113,0.361152335096637,1.7581835887854727,-0.6496348398113653,0.7395833390081128,-0.9110785998022815,0.6578667585166659,0.14855796389541598,0.315911057171526,-0.044085099671070764,-4.23484099728353],[-0.9828075733724,0.2583418583535531,-0.38685756931545784,-3.1314960526535685,0.28269470070882036,-0.46202480738368806,-0.6540139927511843,-0.9968149962969942,-0.0903151559473004,-0.12894563991857713,-0.6673366238318487,-0.013152646354377136,-0.49983886240770575,-0.6641495015832519,-0.10688383902629864,0.2784400248400258,-3.484277738085955,-3.505712394161721,0.5615654990813133,-0.18637350369681566,-0.9058345927267496,-0.06047103330762547,-0.5300041857329542,-0.27149135923347845,-0.9103218936452746,0.41054780200285534,-2.813896432550135,0.23541624535657624,-2.725569124821751,0.053825688559639,-0.7285124785254307,-0.058688924426163906,-0.7315473776871058,0.6779642739643096,0.21541458747217737,0.3186999479750776,-0.929569371406181,-3.04272121850859,-0.21774359460891005,-0.7693951169947593,0.37292539568706917,0.47345773153093823,0.24369834306780952,-0.80147370669097,-0.5801761637511483,0.17251432867620325,-0.9674335858497937,-0.31739678382773573,-0.445077242753497,0.8552852929941965,-0.20067307996561767,-0.2773153381328787,0.9152337928883254,-0.14337826096411366,-0.058972089773211264,-2.9930481626684657,0.7507741828051594,-0.4117759662985914,-0.21659674948434632,-0.011728653485889806,0.6809445767585635,-0.6357102249651623,-0.6052169450065387,-0.7911457981382082,-0.8780004401542352,-7.969059166005409],[-0.26781261292871034,-0.7147496205389646,0.08403965393276741,1.9417832216738802,0.9359648212350408,0.8038210815082245,-0.7702431257303682,-0.044049292894883074,-0.9578089817174869,0.11549396284696652,-0.011352146635777702,-0.8209670476569497,0.06988160018221122,-0.785879523417763,0.6786453130462441,0.7371777385137276,0.3524021968774172,0.18386206441935027,0.29046976682861464,0.18589714554668832,0.3950169089076278,0.2675853762180429,0.3363379377792666,-0.9538223043140316,0.07944186531395984,-0.15549531759397733,-1.5864423206157945,0.5123740863462406,-5.488245981525549,-0.8728203407552244,0.6318809638851096,-0.06985471324338609,0.043727615496141146,0.01592552438327231,0.7159945174267236,-1.007719961033997,-4.752329127011033,1.4191457531177913,-0.052041714391570786,-0.8421267115773361,0.7977353951397484,-5.305102062034214,0.017025991520273013,-0.5614034108603895,-0.4524097511159893,-0.540173752864363,-0.09549156636657155,0.10312088099208556,-0.24654204971500768,-0.09267996905426874,-0.8191193589234308,-0.1451952476889339,1.2236876263099423,0.11368777770280879,-0.09146991206933044,1.7291579142418203,-0.34280054990910874,0.998381058626035,-4.6474469998221775,0.757773385653434,-0.38544223280670104,-0.6282888326017583,-0.7408111882451833,0.06262387024621913,0.0019619987087935264,-5.694377329081984],[-0.7282607388142571,-0.756089839212,0.5048740008472544,-1.0620921995786805,-0.2097371661387813,0.38876488360305067,0.2419139330232116,-0.5320545799960427,-0.2946537865569591,0.7238447634183645,-0.6062641097574304,0.24899554768460913,0.17669250467880634,-0.6385188385464899,-0.7125532048663455,0.16326699757366997,-5.190886994489827,-5.950431537060029,0.10916877614056103,-0.7339950956770411,-0.9673254671638088,0.8018457929367495,-0.25172440567285065,-0.7757012823184312,0.7322061695187921,0.6806328776019848,-0.019756690481882194,1.1115627784859172,-6.087178502852197,-1.0025325307591628,-0.4360521071007551,-0.9553544320521388,0.8660474898188233,0.9807123981650755,-0.7683103697235721,0.24363669787858072,-0.5536605920187603,0.7259565365280228,-0.03804688282115854,0.808353781245033,0.6396792268816381,-0.32800134903001643,-0.7329248442013209,-0.7068218630626093,0.9952070020018439,0.0940598329665599,0.8776724087212594,0.5533063271323759,0.8079829345795266,-0.26491748270278104,-0.9716765799757208,-0.3272390918510811,0.7467300632571553,-0.8524727053346098,0.3704463950326939,-0.5765418684761462,-0.8601224931431407,0.344707259810279,0.3685218492426999,0.3989219387433541,0.15991427924515803,0.8434823430463092,-0.25637075721363617,0.4181173843927424,-0.6903673530346323,-6.129785942017976],[0.5003076085699013,-0.5792417007013109,0.6839844854629196,0.3010705422808419,0.15778788549690934,-0.9270408135003929,-0.4649151954365878,-0.8808117152493619,-0.31175350577988664,-0.862246729573706,0.7305341226602864,-0.08546040526257892,0.5454789947226826,-0.2665669417523244,-0.646172327401696,0.4577115929582157,-1.1022320836501738,-3.03841242301516,0.24836439080113304,0.8649742752670948,0.9647072663971913,-0.8281749389992025,-0.8256766594601783,0.13936278526256488,0.4921657633092753,-0.859101147517214,0.9390004378677168,-0.33527508936272477,-8.131339074157989,-0.7535610185387357,-0.21427899545123624,-0.9971296155796363,0.9637941979054423,0.4534788234296567,-0.553218459240961,0.2404071467671819,-7.732295965035668,-0.3244113674873289,-0.5014200997811261,0.2050117206853078,0.6140302914692239,-6.640041135306976,0.07270265258492672,0.6143886141452457,0.14252664349962393,0.2734321153514606,-0.19732721263119585,-0.21702913415066238,0.6906548550811602,-0.5362902027216547,-0.5408033923096265,0.16915479597173552,0.6064694032238256,0.8812199101285236,-0.04944018023937335,-0.8687525997925322,0.8957388809277937,-0.8448055411184641,-6.917907374618945,-0.012688589368226475,-0.012830206998916769,-0.043940916241433835,0.6810311958109726,-0.6985026939855916,0.5324694229282367,-9.110620363026454],[-0.10538571122671267,-0.17604363658101085,-0.7534611426155673,-0.6049533156801239,-0.8710906909412702,0.5595994254847073,0.48154771274133595,0.8071791867933951,-0.9838372163149453,0.4401518035274475,0.16101843027729515,-0.15567081404968408,0.820815337343225,-0.7156673090126412,0.6878657953964916,-0.4554813686734601,-8.827485611436845,-9.669380396040136,0.020081858497218746,-0.4998195393305384,0.11641683551257234,-0.21856231465099613,-0.10457495899970069,0.23811421399616167,0.772183353990568,0.14580435832783464,0.6135954217868649,-0.06299051451314273,-9.817772579104314,-0.08421660306464872,-0.8488697010371745,-0.6949154147158763,0.6542928819601975,0.02082908628114348,-0.9776082978905051,-0.942470017526744,0.19297757422713993,0.8642117439981467,0.4521529730249476,0.6357959688763537,0.7137802050760262,0.6464348829771094,-0.3731650185342025,0.8066440819196815,0.6907245440261593,0.950455617772683,-0.48529800722923594,-0.17942483583984611,-0.21611117663259727,0.944496199412567,0.6226857728793593,0.4587787349132518,0.6050864235061438,-0.27989225261938355,-0.41805924345403384,0.353555428996717,-0.32044963051483644,0.11395476508956405,-0.7925843900785646,0.8888864904828324,-0.4041365691509723,-0.04500954105166322,-0.932531458050341,-0.30716428567098825,0.46060870026083944,-8.269693749845084],[-0.1534884796992514,-0.7448566540856977,-0.1306494438853253,-0.5132675465298003,0.7290281060567956,-0.014413112160703378,0.46326619986513173,-0.2663102859756653,-0.72170163431934,-0.001002197233062569,-0.6696914012365077,0.7078029442698752,-0.4004287549783175,0.13409984823833448,0.4207232638548731,-0.15402515783578674,-3.413990100658135,-2.5492853708490966,-0.3099191148326011,-0.8470357856941971,-0.2696176693679814,-0.7210203349295855,0.7469046623736322,0.1953378068138484,-0.49881084697486516,0.21665140120096588,-1.529023775141443,-0.22219708766864874,-3.2795616572469752,0.5909928446601513,-0.44586634396175706,-0.6282178748600402,0.912734196311383,0.8074909720372347,0.6297891792972683,-0.5052181494613983,-0.20354692117203652,-0.5004807536325976,-0.4226629069320008,0.8718732421832444,0.11641083135650182,-1.120763411397969,-0.1048406779484874,-0.12511157851424212,0.4046388020581654,0.4123224733876189,0.0644192921452972,0.275883202290682,0.34963325507936527,0.14346471291212767,-0.48764222282255965,-0.2847076367127682,-0.5795129201549869,0.3885936622611501,-0.5947791189898873,-1.9079190555246395,-0.30822338853226133,0.8449485170989434,-0.2581398727391245,0.23972835360327338,0.6044736881026231,-0.8679185321170135,-0.09481354586029514,0.11932223350755553,-0.3565742703984563,-6.8096469211661566],[0.12073724428591245,-0.34673006459808725,0.486361427052718,0.31676756280376817,-0.2505784232529044,0.8677384893089726,-0.7900512774193024,-0.30303661993195996,0.2440403855148416,-0.030643205883315854,0.4524191640243988,-0.6197030189731374,-0.5486114659435547,0.37294983073401533,0.9869846975673582,0.5258906491686998,-4.832429275681168,-5.537461214937754,-0.11919319109588136,-0.4156150276889889,-0.6975123707983262,-0.7695482167706574,-0.9819570773763059,0.1038717484711453,0.1651539649652469,0.9921815034933646,-0.5224103174279565,-0.2945418755635708,-4.088190154818896,0.34964572751419826,-0.6406214814828765,-0.0564311273231597,-0.7113274264777665,0.5824437974911086,-0.6431671407866567,-0.42078938766151835,-0.9976138561536655,-0.13287066127657746,0.7754215041556923,-0.4817886971548534,0.5267959820495525,-0.4243030906652395,0.8713915848569469,-0.8474801870114147,0.40973706429819023,0.1871398110898917,-0.7304416681658771,0.1822439136140976,-0.5790775693216219,0.7667345275062597,-0.732156466116543,-0.19559383985545464,-0.2960801840943705,-0.9456550299152628,-0.7604819108698045,-0.427146317781897,0.4047146022209141,-0.5745597891507894,0.9133168065189232,0.05043477307243378,0.22587643188684325,-0.9648758258846847,1.1108730266032283,0.3746864645417109,-0.577310857711331,-6.694727996205935],[-0.7565284552435504,0.19544766806216562,0.3788154484116084,-0.943618265533589,-0.0777528329214849,-0.6131210941507685,0.8670877505979163,-0.6615394278467831,-0.5287861541872706,-0.1629565592357576,0.014653209583841247,0.9334449150998687,0.20412538221191723,0.9477290641491662,-0.45581099038001904,-0.41114838911311247,-8.449607748755678,-6.569569037604022,0.5063798309956625,-0.5406013591039895,0.5338916677475111,0.44331692403607953,-0.5811515020562026,-0.9757043452714821,0.20099212921384843,0.36985935163309164,0.1378876226308583,0.9614141140447182,-7.831520741910644,-0.1724596518789454,-0.029890547350874017,-0.5652454364564958,-0.25473007835294487,0.5541163115541893,0.6690793313561296,0.44065561085707294,-0.6042954108397937,0.9964335733990586,0.12169044349463942,0.504700443300381,0.19577415401600287,-0.9247664793659945,-0.9736633258983874,-0.7234632054049517,-0.9390843405842263,-0.5478220968867346,0.32850456772787673,0.41912823600516014,-0.9624312723553555,0.1892735611468861,-0.23677200826456174,0.3774417871617194,0.5507403091616686,-0.662985676105513,0.9390235408983036,-0.7928819425756323,0.19645901079008274,-0.3734399564524625,-0.41699629122100157,0.6332312844676272,0.916473680048273,-0.037461614703276136,0.6495493183374152,-0.19861671962803454,0.20646035344466007,-6.872084310894571],[0.13474885312582927,0.4592348212202527,0.1603139570718503,-4.337437235551577,0.7597983420859529,-0.03419632495094725,-0.7236831535369602,0.813875491208832,-0.9195608715523519,-0.5223609093973804,0.8833689623716001,0.9031554340463744,0.455860219622043,-0.9963236773751093,-0.7746369530342669,-0.9031943961387866,-2.134207792576887,-1.853673147140255,0.6466161121068529,0.8705861543223364,-0.9175145766700024,-0.4051518440127483,0.4687561688502657,-0.742984632728204,0.17143572158116577,0.06978954851222376,-3.905810497557697,0.7377226262916925,-3.681899499058846,-0.5517242745829675,0.3855141831360893,0.7829326843170743,-0.56765690874907,-0.8749424233821035,0.7604862825603895,-0.9727367916436407,0.4073978202485882,-4.374966767806396,-0.3210726758947422,0.26746516710386165,-0.32466392861201354,0.28598842107423184,-0.5718490630009948,-0.9233725132442506,-0.18793289066450122,-0.4431710597212523,0.5204341106790759,0.17904328890711563,-0.10314200025463331,-0.3997043730019271,0.10825183966733815,-0.4154806738537635,0.6507985085417667,-0.7048382828585539,-0.08497584563996559,-3.820450887489221,0.26133434748632395,-0.7738219705576475,-0.8758002009044797,0.22487438565633194,-0.5083698014463017,-0.015585054155966449,0.44088185146795983,-0.5921739060111894,0.5382311330722132,-8.853831446403857],[-1.0368830559256896,-0.6714247851779891,-0.9127878652951193,-0.960195907889516,-0.20794773305512287,-0.5943700436594694,-0.6525187862521884,0.6818866264157666,-0.1282133509675199,-0.49043393456204104,0.25415487980311663,-0.8404291889704768,-1.0351232533756298,-1.0771481129859455,-0.8922223496795522,-0.9223437133467178,-5.207050731293782,-3.769736969928897,0.5637630689636763,-0.27944321929393884,0.5700518583334732,0.37347809488224515,-0.9536862598265974,0.47211020335315995,0.974873800726378,0.5072938386570296,-0.8766690243874001,0.781332613884176,-3.9485665744701923,0.726148841833883,0.6414103193245929,0.36743519140547193,-0.7507070254539977,-0.42791470769778056,-0.8639526234907858,-0.04484327010458579,-0.18864944657932353,0.6274542148793482,0.2745944634006911,-0.7278278340536382,0.5905216424007117,0.8239566534374846,-0.15244924975960253,0.7671906408072275,0.5057171633817809,0.730816968901905,0.3053394419961178,0.8021927314886459,0.04202610368061515,0.3856686767338841,1.1516957532560386,0.6098044130805983,0.5385795654903934,-0.2290463577131178,0.24689968614583568,-0.5336381613277819,0.31445614219234447,-0.965588014869462,-0.7250734245392317,-0.4465958166134958,0.6398825032280622,-0.14119982413867344,0.02625748746502965,0.08378411138500146,-0.1938987535287115,-6.070955813866645],[-0.26038623792150617,-0.850152791767666,-0.22749910512013366,-5.300642446375506,-0.22949530443439273,-0.6539718571842544,-0.7030365858356326,-0.24455657842831993,0.21723556029197794,0.6040810678093042,-0.13984249036766047,0.5804062509152283,-0.45591445904592814,0.49727577304454973,-0.8318639149079363,-0.25700259949819076,-1.5402072890658511,-2.3805887936982004,-0.17284017695369677,0.7212558207421924,0.7582409748916719,-0.4579232316356809,-0.46123031931290337,-0.09133184164057655,0.7238908126297144,-0.14767945417805567,-5.964534627611228,-0.15698993463683042,-2.9103655913457316,0.48935068180206914,0.45279753384981397,0.279779999075631,-0.6412078628104472,-0.02564457077449483,0.17438950574717477,-0.39456421505723244,-1.2251512761975434,-5.618291238038786,-0.22497925939873442,-0.5533298855214782,-0.45372059504138806,-1.2636624185409278,0.7048352120743092,0.9333890789621716,-0.11385060434591887,0.12947970001675566,-0.2961905839370606,0.49837161960813264,-0.3458221940670896,-0.1929877123003076,0.786059567330563,-0.027459578389762766,-0.7494269394389753,-0.06950715498209652,0.9178466893412562,-5.1522545959326065,0.7931297498187048,-0.0952020180204924,-1.7512652433076916,0.32993112579925077,0.9341196027308906,-0.2058136977356152,0.0006377955077762927,-0.6735881053412736,-0.9108662034513617,-8.905326778823065],[0.25946812154637683,-0.19955869470360504,-0.3573328207697075,0.8885714901566045,0.6836639061983976,0.4077545166005575,-0.4249905076787373,0.03423456181986649,-0.3565220336356741,-0.47017848101862847,-0.3483707669004771,-0.4190912082426224,-0.7951438532355674,0.3439647095508236,-0.38790420284424915,0.4114646154236995,-6.003232469575027,-5.141496221380959,-0.7440464279373821,-0.7226143548073334,-0.6734829968115579,0.4775033257877265,0.869582479337841,-0.12601622274605379,0.788398612508869,0.3586488897099507,-1.028431368916582,0.8050365314525422,-4.8123715445749475,-0.15024372656700694,-0.8309889132461774,0.8786822939575675,-0.7139488122732851,-0.11653770337721223,0.014005120661432611,0.9348697421674024,-0.9408215823649626,-0.8945683726063559,-0.4963648296683118,-0.9718083683655181,-0.5132257371347542,0.16003067271594057,0.41394434538425023,-0.8799845275990871,0.540104338181705,-0.6223758262926232,0.6692499843353006,0.340960963947829,-0.15262178316625008,0.8173020589468991,0.8775359983222601,0.37422519220116485,-0.5750598870528779,0.7287151127431334,0.05123631935841481,0.2565854369947808,0.6022839606064697,-1.0412093338148791,-0.7094472438966307,-0.2431615185862593,-0.11296513914859459,0.5185692223559341,-0.07928487253804616,0.8816114811301963,-0.12580602591814963,-6.953051052063091],[-0.26699093295688164,0.9558892261296684,-0.702383730430092,-1.2871597710904261,-0.2874676958460196,-0.019337249525409935,-0.7141248962480289,-0.5317658388468421,0.7054874747716765,-1.0292425942151942,-0.2363751239467968,0.4986041569831133,-0.30985989542688386,0.248736945182168,0.10656651293410517,0.9783817537402881,-3.2215442096652804,-3.0048679333944324,-0.5606156722223771,-0.569178427081206,-1.0359860788344826,-0.9797456449201526,-0.8621209716962496,0.4806093766993007,0.016762922996325237,0.07553260146734442,-0.8595816584140118,0.9081465746301607,-3.150719753726652,-0.9798543332273848,-0.396636658449982,-0.2826815451204642,-0.8885584989935289,0.14137045056639486,0.27316365989066516,0.8104512356325425,-0.7534403135462588,0.4972605759990997,-0.294535798326672,0.3295969469201304,-0.552096842826767,-0.9108516283076412,-0.6255989340862073,-0.5154155181405375,-0.9616096641227311,0.5499033266829774,-0.2892629210036475,0.060714427781796386,-0.5730102648261426,-0.09047001559359036,-0.6462007659287334,-0.3423967981278129,0.3251490574950026,-0.5715516402905094,0.9382715307680175,-0.992245964930131,-0.20250010763650694,-1.0584950027110895,0.7362434120417788,0.9092582596451996,0.31195538465275197,0.11927578485507043,-0.5517911916393433,0.3148848175811543,-0.07103752433941779,-6.148472500331143],[-0.9006793272815256,0.4838683813971856,0.38650923866124925,-0.4935688977224071,0.14324537551949418,-0.4207759193394799,0.40423436734974316,-0.4559284576910067,0.05910962046106444,0.7864617652943122,-0.32908822842784086,0.6670020218246778,0.3994741618583119,0.7068177647164895,0.24431120226653735,-0.41494216021073776,-8.002914323001493,-7.018172663792928,-0.8702167979485179,-0.23341805981549338,0.9181379903485809,-0.933558460189944,0.4491735840062573,0.34123840795868415,-0.06112156075502648,1.1163477464910145,0.9078989969036766,0.40793172650740894,-6.823062343755556,-0.029708237009192066,0.7434897644613297,0.055868300946624705,-0.5871384154840765,-0.042334780756864775,-0.7170949186605271,0.05442158585096854,-0.10080976172320225,0.21774538060887327,-0.7698918973158128,-0.05260488877094346,-0.6912543180399295,-0.49468768055815115,0.4365552665307101,-0.7553968460975813,0.36916385777146526,0.1935008079664127,-0.3579468164082289,0.4142673302998173,-0.6741471949190996,-0.15857860239932883,0.5178721495156763,-0.6700171482159704,0.6576716896748851,0.20813887824359897,0.5427144907520643,0.7407773903988414,0.7436291389969063,-0.07238477367096421,0.4016839179572626,-0.6205425334048145,-0.6631798446230633,-0.6520176668548098,-0.27460013178794007,-0.1571315274554981,0.7158827503776257,-7.233137128145368],[-0.19835719359567303,0.15319105100178868,1.7438920388428367,-0.055507740779961116,-0.8586281231209703,0.5776482604159371,0.12003729544883092,0.07968649769290002,0.6914244426503436,-0.06801462113474427,-0.34076529330360167,-0.7489390093053677,-0.11626202608064222,0.6415587456252049,-0.26461015119307674,0.5049912378155508,-0.5986925634319805,-0.06594302878924942,-0.37893977127786443,-0.698319682357408,-0.6965289987743837,-0.2681500206489171,-0.15635039436067832,-0.5073666387544183,-0.8602691922599911,-0.8687560180793918,-1.4608390092159853,-0.873194562424766,-3.0381304372636118,-0.11327647639977856,-0.5666123301707372,0.10874808956600225,-0.18113267868932023,-0.4825850970812622,-0.1062362229844537,-0.44846899365106574,-3.4522118241324744,-0.8226946210764675,-0.28681683149483095,-0.9800824797295439,-0.7175083009362824,-1.8303045327089242,-0.8018219808257998,0.6539476026469061,-0.027903876632450884,-0.14804355236568983,-0.20430344002769682,-0.5829652409108679,0.598483426325236,-0.8815976307447441,-0.6123697946433403,-0.511771519557209,2.0579220755499095,0.7312741739143211,0.419180508564237,1.156575528498194,-0.15882164125178963,-1.7368869888660314,-3.390133058420104,0.6825742235057719,-0.5084107686883244,1.1345020202732934,-0.8253190688558069,-0.5706468080468878,-0.7741722948708033,-4.133938899974362],[-0.9734189688220395,-0.33702848831858045,0.5684369498188021,-1.0040096202325792,-0.44509804450798185,-0.8018502782815221,0.5656365431526169,0.6855603395159449,0.1186408365779175,-0.0647368955397251,-0.9151580932214001,0.707662127689897,-0.28727213129279683,-0.04451532132239096,-0.9529445251724193,-0.9717174403452495,-1.9781833906848434,-1.592172831355749,-0.5630768485746137,-0.08748224282867398,0.25648373534484037,0.42266973481213566,-0.5457742570807392,-1.0412284509525183,0.9514643561270055,-0.03322097093527655,-1.0284199227889048,-0.6898890804363164,-2.871577534728853,0.7150532405901306,-0.5193752331035923,-0.25407949482253683,0.6955027195219775,-0.8879133972494107,0.4446349248317372,-0.6634786253901328,-1.756868443657443,-0.9743047677179121,-0.17676799301673657,0.4624630896801962,-0.33969093328080185,-2.372631406782464,-0.4772183706863517,0.31889328676914797,-0.10765880993665924,-0.5177247993956818,0.7842343290602661,-0.1606293073109308,-0.3759653506615291,-0.5865007524764871,-0.34162611980756946,0.3404610234340406,-0.22306901402923,0.04023446151567757,0.0724620210087284,0.009523551188677084,0.5497877535446889,-0.538418623297958,-1.6306825183847404,-0.8591701022075606,-0.5987940538268647,-0.5206985882278733,0.5898767332242943,0.39001849122145615,-0.6387202082528487,-5.404410197610273],[-1.5338346576151567,-0.7307486946334785,0.5590335950058862,-1.453543505118906,0.8260975855097588,-0.023957565610163493,-0.023097628568149536,-0.7551452131508233,-0.0013204005241620272,-0.07148376870846003,-0.07723099980137295,-0.18417149972886715,-0.7281026075299223,0.11458924654794818,-1.146946276226867,0.6702599799456801,-4.8186077417557,-4.60685528061631,-0.4685024598199873,-0.2531569088954073,0.3267143225701882,0.6588924184215857,-0.3632820753549328,-0.9882188609604323,1.3884941216127964,1.3576786112539065,0.058863846820872895,1.3895745638453563,-4.220031279284948,-0.39233778974402134,-0.8320029314018023,0.4001744204999059,0.7081072605546106,-0.4852166917238235,-0.477061398269814,0.14482844023219943,-1.6321616632198301,-0.4921508832772506,0.25558363214389734,0.36884244830320884,-0.31141934507250996,-0.2178215731641075,2.5402930175501615,-1.0438854456874527,-0.6399476277453574,0.16932760171505568,0.48095873983329257,-0.5109490923317426,-0.4856387886271788,-0.01319293239906043,-0.5182008116927153,-0.015624296211399784,-0.7905862944388039,0.17168297605546487,0.08930340334885566,-0.02015271416943988,-0.11633786028415431,-0.6307562496105211,0.5028536314293148,0.3487791043969448,-0.831651221622863,-0.2247300663465769,0.050354307490696755,-0.7610312490200788,0.6796229080814974,-2.1099555640898076],[-0.7846267148950543,0.529641454419059,-0.7877757265406331,-0.8157707105098614,-0.9685435998907489,0.34218279371602295,0.013409166208793665,-0.007090421971965387,0.7908109018307702,0.5024304579205756,-0.6748920155839384,-0.37340922065633436,-0.668639621065624,-0.764470254179723,-0.9846672329651998,-0.42698690116524873,-2.312852238487451,-3.3382890657838478,-0.31285529686813424,-0.010327451661107042,0.36101178913294835,-0.02136621342839377,-0.7516007042381968,-0.130777694786145,-0.48691113690896504,0.1971325633352137,-0.364551337531392,-0.6527469290365168,-4.02007819445182,0.3130028383768401,-1.0457304864204513,0.14900182392268974,0.19785660530830046,-0.05798249084828323,-0.40329856491726873,0.23070067252941312,-0.5333022675539473,-1.0028716280712888,-1.0263578877115225,0.6106619872488965,-0.22003556370793262,-0.8296832000077432,0.4616098051426144,0.5073182584644436,-0.1674771009755422,0.3436583257332605,0.2686806627511498,0.9261426515228103,-0.42881396219846724,-0.9086112472174092,0.7322744001970132,-0.8606528605448274,0.5894146491181197,-0.944812500601176,-0.22533380008300932,-0.3911588725052567,0.12835391468747884,0.10537814374750316,-0.31435853830952176,0.22695880025161297,0.4137011864244511,-0.5130017753122622,0.40345042958875266,-0.4887859091495608,-0.6419241539608531,-6.432189808213581],[-0.042201610323638825,-0.6583508437822296,-1.371377694149844,1.3824621453484622,-0.5784200243913211,0.21973196099752965,-0.8892656854026103,-0.9856734542548626,-0.674823596955381,-0.6865745436789902,0.28140410448755465,0.48525578577424605,-0.7854935544718545,-0.7891754241279473,0.8668790745049948,1.3100265649590792,-5.263954889811359,-6.379963281043874,0.20279127971823893,-0.028401606029436876,0.9295349458714564,0.26328389330071506,-0.6763028522160344,0.48968329661266863,0.34849935413108474,-0.08429245918143417,0.3778285915178804,-0.13948570545311847,-6.550608122998515,-0.5641536471630866,-0.7279115128433842,-0.8741686211206455,0.21895743524641306,-0.8180621347149869,-0.8840640417873763,-0.6394747693150421,-0.819770214709744,-0.551814687896792,-0.7880587978504932,-0.5290267065938152,0.2769587696356396,-0.4827818715373068,-0.3833090419899983,-0.9046161160068534,0.9077287733572702,-0.3072117141233225,-0.3516370213410806,0.12185662108180592,1.0686093521488225,0.8004098325940524,0.4554217444091166,-0.8949611437934685,-0.7357489892534953,-0.3161928788622257,-0.4161525952030115,1.6400431400651863,-0.6717078059078103,-0.8347048008935346,-0.9771357050673156,0.05275528385369841,-0.9192736276897967,0.131278084962153,0.3344882024291522,0.3197574575239729,0.20019402396301864,-6.250319481827106],[-0.18282223358109523,0.6233136192400195,0.2067681468616334,0.7288161446658314,-0.8434551495902567,-0.6051421688567461,0.000271805017408866,0.7688900863240569,0.19943498491421993,0.5416916059650093,0.8524413076852837,-0.43088283398106664,0.5810215679452413,0.4395672526707045,-0.6461279794625366,-0.6558932304243,-1.785098084522634,-0.9673862173979921,0.3782042347550544,-0.5811962653552526,-0.6118183827851433,0.9847310296804945,-0.38367507445147053,-0.07033143853458876,0.613544056403492,0.5938960261938299,-0.050052860808703206,-0.38664934640571486,-28.248141042156302,0.2608509105733901,-0.33782099982547514,0.2057567644496568,0.8417136873639042,0.5681833646614546,0.44861282432913824,0.1782704803995698,-26.801309370246084,0.5316925376704743,-0.8730436475637534,0.2555902181928523,0.6017633748837851,-26.836045265939678,0.6211379184634743,0.06821040794974818,0.5844904807105682,0.4725901170240587,0.7418379740834508,0.9736861282337295,0.9812026005830125,0.40632294902686356,0.39697602455169595,0.2862844604183637,0.8394024016973759,0.43066485167506385,0.18221767118210644,0.5153181512086809,-0.16090839375048854,0.5030063219369056,-26.383525209857257,0.3958199882914293,-0.13472419144767683,0.39157233708506217,0.8478254885022357,-0.23752354164461037,-0.15263174313099995,-28.183293176692683],[0.42765458580252674,-0.05057283712100409,0.7134917511065144,-0.6409320083928991,0.4013841438564867,0.6789358940685176,-0.26261270988725505,-0.6288085687387127,0.19827556129506432,0.08328346168331648,-0.1496159857611292,-0.9854024291866333,0.3719457215826467,0.6614152350359918,0.8109926180619884,0.5381709919323915,-11.186835778415615,-10.570279364987526,-0.7655643037104027,0.9399411765433713,0.8838370979908383,0.17218782069313585,0.6829158890431845,-0.07751288715607947,-0.7435686811822197,0.6263528017605066,-0.9054769957476636,0.04349652950491222,-11.177345685500418,-0.7573286769687999,-0.5184516622585085,-0.5636329358141582,-0.3098273353558164,-0.7001830396357177,-0.6312907824851534,0.18832095745826938,-0.9053220307487249,-0.14458196453622021,0.37019095329989476,-0.6537753525691807,0.5555817138875205,-0.9786827932823878,0.46320995442414836,0.010932688710509697,0.002896114430669505,-0.582680172784211,0.7127794636853659,-0.8104892731983704,0.7136370958210473,-0.15398604621071596,0.002417763603220625,-0.5039233571544613,-0.6965174914385062,-0.2732072691138959,-0.18777488719151594,0.14195096601079912,-0.29907747203754514,-0.6194507145360019,0.3700184059892859,-0.6290846876364459,-0.05624817188533536,0.12838265351315156,0.091846033796041,0.7859339119531099,-0.8322754373606756,-8.937004977797418],[-0.8540412831521323,-0.4050266489570026,0.30088398589730897,-1.431651830502583,0.23998560019421,0.948513181286696,0.4058110975461263,-0.054653658661872266,0.8781198050492318,0.15710747367444813,0.4130648999352682,0.22784133540323345,-0.5798537164573538,-0.1561302528148726,0.3097247838793911,0.4324743013075421,-3.3437607761115498,-3.889978825194862,-0.2577619548329704,-0.3851094201806749,0.125589119960569,-0.915279928863644,-0.6513456417953527,-0.5740121330076333,-0.8587738163924227,-0.12928659081213698,-1.3915238331071926,-0.69018343590092,-3.479583055608874,-0.40307421181917713,1.157424327557728,-0.19058155307454633,0.5833037973448175,-0.5918306215349877,0.6002524623829879,0.32310437719008134,-1.150959466930018,0.4569512708598786,-0.07357347855434569,-0.3280028921090068,0.04254980700127019,-0.4795145538463656,-0.13358210105707932,0.06202316158751566,-0.9519988878857049,0.7550300513044669,0.469967811677222,0.31974136977073464,-0.41970489649937814,0.6633914119417843,1.214368224536509,-0.7579359672076217,0.035378477439459495,0.2560454203274552,0.8059911066493456,0.29156466346354976,-0.5050682051035369,0.03277932709848216,0.9692076367048986,-0.5316370170228335,0.49721125641932273,-0.9274763615395666,0.001499638670019189,0.23461577063430503,-1.1185761177721125,-5.29196426955273],[0.15190439514143017,-0.10382059487367525,0.8341232554077215,-1.182301119487097,-0.45803128060385223,0.6884594819689306,-0.45976933333583736,0.8799182050318047,-0.29820665536506147,0.3895188541057507,0.5950459285633919,0.21026145886377348,-0.3497218579938179,-0.3261770481875758,-0.3835284111154693,0.5170374361801535,-3.6696298019979703,-3.1216003386989044,-0.229844192074182,-0.28386177002579027,-0.9709639114923143,-0.6238326950054351,-0.9919392956192604,-0.6810481444020506,-0.08830966431499564,0.09680053181061038,-1.2324298745598015,-0.6110309877848829,-2.8441650192944583,-1.0608503240529872,-0.47830899297654017,-0.5545602569531976,-0.409360178664077,0.22110883829474,-0.5453777702479176,-0.4497785255438862,-1.3690583842540733,-0.2609421579654781,-0.7010655503770987,-0.7609646030782776,0.684521118720878,-0.8704223538123339,-0.013142042324942399,-0.9617324649008026,0.43598201216872273,-0.3669953993143688,0.32033556183487216,-0.5685403045236719,0.16078257982431562,0.9199402975037814,0.6378135157417775,-0.37525089261266953,0.25709888994754476,-0.7852448588097377,-0.07788219100738264,-1.6428677894985202,-0.08464429311236164,-0.6396966215329416,-0.6152554770610346,-0.7486656438856302,0.34394294733817277,-0.723422686585665,-0.05871436582416815,-0.6837760590309515,-0.9103852003090873,-6.230631450465964],[0.28966134222230777,0.41421537951413057,0.5634140580303292,-0.1683313286407458,-1.130672017849823,-0.16252250750963945,0.7312073223980116,0.9247967644082111,-0.31571092179291976,0.3677123197805709,-0.5283267642275448,-0.014370300239051116,-0.2612135513124347,-0.00526263874890183,0.10477994769220743,-0.05744180888143443,-3.093401189410451,-3.694648087404819,-0.40515197907225686,-0.02511419846075193,-0.8822846300168272,-0.21597084535058714,-0.7744998019534157,-0.013203925576529487,-0.3190109431913939,1.3723907242091244,-0.43249198869687294,1.1532046048466498,-3.4335371538234503,-0.30367040028989,0.1638854601433041,0.22930180149975937,0.28543378112465007,0.9268004136628847,-0.5906607308485419,0.2003080534238721,-0.2154020158846715,-1.9889290021979333,0.48271692989972953,-0.05283394548910711,0.6064177197044595,-0.6361294267765198,-0.7203256110246604,0.41846114818674174,-0.4845889148241628,-0.7292474258392055,-0.8329289357921944,0.05106959338199521,0.6536856332744768,0.8665876420101449,0.1731289712348935,-0.694788441504872,0.13555521697175837,0.6260578929660805,0.6896882503252015,-1.7723314795508769,0.896949410846569,-0.4229131170370998,-0.9082662168183933,-0.685393499904705,0.6369742006820227,-0.17548404355844027,0.4816130316148135,0.4384318320034321,0.4657453011036855,-6.584612327765226],[0.49291036442621156,0.10113056323295838,0.04248333324697743,0.6681890106393,0.43957234155860997,-0.7939594240825615,0.6360791896355393,0.09897340909879913,0.7900138144736824,0.5103304184618684,0.39486571439257606,-0.9648147275770208,-0.4236509985699119,0.7077990171525699,-0.6925693453381639,-0.6744073696060616,-1.1731042341083602,-0.4564499656110558,0.2903140882771082,-0.5745345886163469,0.7502456071063945,-0.4601951547059574,-0.312591404993503,0.9282698004935904,0.17144148222544672,-0.25862397511904023,0.7576922037252363,-0.7004130813261521,-28.001056751747843,-0.009319042104419592,-0.3681779486951331,-0.870723188755343,0.8465547849075354,0.528504935362062,-0.6560929717291254,-0.5293965928085108,-27.471007025088866,0.9603787666739928,0.13615344781754476,0.12643631764002677,-0.3094165786573464,-28.12932872717605,0.938318162632276,-0.11625466436074625,0.9383356472672302,0.6759405370227966,-0.00974432594863102,-0.025777046789744334,-0.3483169190661649,-0.33152676460508285,-0.21124063931796733,-0.7492760831589506,-0.6155816847716681,0.664513002091926,-0.27431072464369677,-0.7751317483313054,0.5845907725828235,-0.41141004624333444,-27.293575171262958,-0.18678472553103354,0.39687071173869615,-0.08034228233805915,0.20022041834371918,0.5050696248943429,-0.4986578176070984,-28.707064746799784],[0.34537084098192233,-0.6610928634372262,-0.7586324593161954,-0.6823300609022321,0.558337344739934,-0.8729056832363215,0.9352013649767311,-0.2634866865189863,-0.9185586524694952,0.6853036652068143,-1.0060605629839967,0.7810982779223803,-0.5510160433855705,0.4445485140333651,-0.5568027485413598,0.3200230555338266,-6.695197759084003,-6.17035952272142,-0.54115798703145,-0.24389883961032618,0.37109611132740034,-0.5466697912868412,0.6943518105807048,-0.34155302118801323,-0.9453055096439303,1.0372441317623693,0.5996893359617794,-0.039900969956785326,-7.740552341514311,0.6591524604622078,-0.09229354033945428,-0.25590709152954005,0.6622593551391702,0.8564396426483002,0.8205860313110911,-0.731760580198433,-0.49287078476023743,-0.1811959848174136,-0.014751026290405804,-0.8857594629586735,0.7823263165686327,-0.427148806200966,-0.41795813574019225,0.6747208904246187,-0.07805200984972915,-0.2456968374537157,-0.5740772315932251,0.6235907313802266,0.6301730727725886,0.15767134421059764,0.10763379748328569,-0.8190908190267817,-0.013461124158531379,-0.29099470538312233,-0.45172463199774143,0.3283104578180052,0.6545656542054288,0.8857385800531324,0.34062431771794877,-0.5888232761585364,-0.3249971803186138,0.8373075988339173,-0.7189422906739849,-0.9140615760818073,0.1831262273895473,-7.600251661512864],[-0.7509333878603818,0.845883162208089,0.2846955899052587,-0.23540474020560023,-0.3496565131261383,-0.5101037733212349,-0.08668638217973812,-0.6145886424381091,-0.8632885114501868,0.18046738654665984,-0.9025247290571977,0.8225509102717858,-0.29084604173126416,-0.04650738121252157,0.48688578332625704,-0.23441045519468123,-9.349816649692174,-8.970970820974907,0.32573364645868425,-0.2980295526257353,-0.8050008518792497,-0.469073864361369,-0.5891929543514243,0.021725486448942247,-0.8815863769621763,0.7348484442074433,0.48414374842136676,-0.0392734021037632,-8.513849655655132,0.9050050449370752,-0.8939513354797612,-0.19609610707282027,0.500415699985057,-0.6460623341211297,-0.4042231903475067,-0.3965880123174367,0.5014373775800476,-0.6617412041240557,0.5834602167947992,0.6785731997660694,-0.19925677788651738,0.5232619607911219,-0.10567834054725321,-0.49763014599383815,0.8089524981846604,0.5253229230778677,-0.6647882619694071,0.039215669171243875,0.561523318835782,0.2884624100934618,-0.056961317990017815,0.18353626661435934,0.7810734968332953,-0.7938712489629032,0.6158602921872272,-0.18451212512712442,-0.8456328088043971,-0.6134835645478681,0.35162567895858776,0.05569506005466146,-0.31004872822887786,-0.7713800315057574,-0.6250729940566077,-0.19870093058975982,-0.7109105330604242,-8.497585361854942],[-0.5365953574919695,0.48009277317118604,0.32686153108202076,-0.18924336425133514,0.4395860523636045,-0.19611099267702636,0.5606768442084905,0.5932573661012857,-0.49340149640267983,0.3644460347637071,-0.837476443913884,-0.9176508112399794,0.13565194653435267,0.26166611441214715,0.15787226723989478,1.0083356196196511,-1.2477768939926828,-1.7013566596632013,-0.3904139933483896,-0.37722468408840915,0.1941564640024751,-0.2711271449240281,0.3337872768375306,-0.4828158764378747,-0.5631746849988404,-1.2576955749435275,0.28515262735723884,-0.1615456481495209,-7.285115616618912,0.9141362947320374,0.8848700360604361,0.43729212229229797,-0.5130064110543503,-0.41214230753401004,0.21500735625670836,0.8532585008941663,-3.595021615281472,-0.2194352782977688,0.015096192827399785,-0.5816954921477726,-0.9193041842711727,-3.8076944835745463,-0.6197287975935596,-0.17114525706227754,0.9029299884206862,-0.5802669692292105,-0.7296059743443879,-1.0004243943753734,0.25018850143625243,0.9033765666239674,-0.19780900892196301,-0.5008245938459174,-0.6460130682668073,0.5580570806348374,-0.23721297735343627,-0.6485651395348458,0.26295017189759223,0.5278338935594509,-5.089981402008087,0.8032361870812252,0.027176632301015892,-0.7569432639738731,0.16612156595676633,-0.09312948998515358,-0.559413778314716,-6.9901505963372985],[0.022877972308435055,-0.348394409770307,-0.8833584854072928,-1.9456997885906822,0.1845796995921346,0.6003898969135747,0.13331246305614783,-0.92647810709087,0.7349135994127483,-0.21802794739624698,-0.5907133723369441,-0.5765174838270468,-0.995633205554539,-0.7457087028315166,0.6485187390284636,-0.157660923275516,-3.9814122705159742,-2.842880905937763,0.8288073989618822,-0.6049363483326001,0.5756434945891293,0.16165076826379995,0.25936271721833093,-0.9482934051054435,-0.10520164047503346,-0.27950165945092104,-0.7417087162340888,0.6322067304403443,-4.149203500604062,-0.11351196426079845,-0.5044222639573189,-0.9343605616455871,-0.7039319696002428,0.5240815724029672,-0.10309374846176526,-0.6987741960712054,-0.39843943656366415,-0.4834604062050531,-0.41978376386598043,0.5756458697210631,-0.25583580064636463,0.3831771134430364,-0.22586314115740308,-0.3017329186316333,0.6852349042782975,-0.14890178662421233,0.49302060577942725,-0.46445665148040793,-0.7633465732775302,0.8244158143487292,-0.9702572263607067,-0.9714763890128338,-0.8583910843181048,0.5399432299520686,-0.18618512902176637,-1.533676075440168,-0.9756742600322711,-0.8357181388012562,-0.9689296646304594,-0.4690404899552763,-0.7806531293364546,-0.6711299881118032,-0.031259161219329146,-1.10576656453509,0.20333376646370158,-6.488160522366303],[-1.1239357478534588,-0.5029160848321602,-0.6742700700360775,-1.949860647201227,-0.5922966871436516,-0.19907805445723745,-0.09918371332246134,0.35626099718063775,-0.19277673379777782,0.1653625764310758,0.02487969530251789,0.09479086508546904,-0.7707348582299225,0.06161430400450904,-0.09361160934457105,0.6622776212897837,-4.145019230573323,-3.7079405355186883,0.3467679729288667,-0.2565388237826446,-0.8390578859967064,0.527511244035675,-0.4328523643944405,0.07786808911503598,0.4391321582708966,-0.3923723358091069,-0.6686699303893561,-0.6952367102538748,-5.459166711135609,0.5704358382406152,0.25276397901284886,0.9553651010824478,-0.3693054776110116,0.8359807413061358,-0.17673978242840774,0.2940229772687931,-0.1680367148119854,-1.629270678489491,-0.6155986635809068,0.0038628296600308775,0.7568283173766317,0.27826507147760593,-0.9647527348372553,-0.7242197783516976,-0.2864109653108911,0.11162605819586215,0.06460030213003032,0.33565857306110486,0.25646552020041036,-1.004774339379683,0.4164059625625645,0.7792877982246605,-0.9035145890445623,-0.5199069294567857,-0.17534952058959907,-0.42347715312354284,-0.29410104892761174,-0.4262690400536236,0.08952827896649754,-0.17878874916465937,-0.6887876430407144,-0.491943952683229,0.3622013914147546,0.5587182727039665,-0.9455541308410778,-6.456652147738028],[-0.3220665716123806,-0.8428785197946617,0.5425000892333339,-0.04582768045021933,-0.8364539650378264,0.6188735295020084,-0.47940176866019046,-0.8503540503218083,0.6555711305861366,0.3496470280293084,0.6343298203449317,0.4551540934826388,-0.6300434715469968,-0.06967293411593124,-0.07715139532531236,-0.7734691971330944,-5.720257428070091,-4.692663924898239,0.005327415796926684,0.5456421691023893,-0.19185808187319123,-0.41141814981061947,-0.5604996171525692,0.24065778899394202,0.9265378911364028,0.8681646148891303,0.3439249893426437,-0.3433280595396809,-6.1853069820671145,0.3192480454079058,0.05650274864352035,0.03133160665710672,0.6169301628592722,0.17552787621883734,0.3127562179211447,0.7135771022248212,0.679473389448214,-0.24070115824306626,-0.5893563930684456,-0.7811592249462029,-0.00863992649240433,-0.5658681894299338,-0.07892058115932703,0.28263700580825324,0.4118005524665331,0.03467614497545218,-0.16713969822454602,0.21272469831336466,-0.17914654936504265,0.0739113601158846,0.32413443149857357,0.6133622730980187,0.1067923529202434,-0.04241498328342051,-0.8668012291232935,-0.2679686082189042,-0.6912307721491953,0.46159442246942034,0.04327141994906279,-0.4748788209511899,-0.5313858498802876,0.2845792768036182,0.7607297195539348,-0.4969857794388163,-0.05248789145073761,-6.254138563140185],[0.660872689067208,0.11938873636784016,-0.2338246202089473,0.24833742881074708,0.25513610326072766,-0.6601844183922507,0.3106268006599946,0.5981595929289868,-0.18188329435966488,0.5690125227692484,-0.24414737962185248,0.3810603530852816,0.7743111564925279,0.07976485578660847,-0.8392623791042695,0.3909385876555352,2.440050323103161,1.5307765319753082,0.21226528743006173,-0.2874913990507234,0.9689212696405975,-0.9567307757865683,0.2350974472471222,-0.1598106528782652,0.14415873569173693,-1.0624552909420384,0.9543843438108052,0.4523191508742309,-16.004379097542035,0.9507498187899875,-0.9344638158264056,-0.7099454040064357,0.32127141601658815,-0.544928947120489,0.40517521128953315,0.5026680376649522,-16.225300844763854,0.058974246708844394,-0.014614132325286648,-0.7667770898851201,0.8846672408992601,-17.24526342874056,-0.36219206061677334,0.9070794345764864,-0.5603971192928164,-0.4496805744359546,-0.806917655265315,0.6571374606073954,0.11030906177180132,-0.6792571603850028,-0.00491388945279626,-0.1776634717085339,0.11538345842781274,0.5744938714869192,-0.07068354051879977,0.39617133630041346,-0.9061229081557177,-0.2711908065176876,-16.929124980269748,-0.8167085247432772,-0.016565973662952677,0.8940837816675093,0.5082176936816829,-0.490236278041693,0.3703962873051225,-16.042177183025053],[0.6390365392578123,0.35741537143890245,0.9479293581441977,-0.9162851943052646,-0.2745194927135753,0.8595561594109323,0.2126366066259808,0.9562506798600091,-0.9158433242132256,-0.14456421870998032,-0.037255194545385506,-0.7485858597818288,-0.976068285149424,0.07425417961248523,0.09095996044591911,-0.3086396515422405,-1.2645302531608222,-1.4298250512649344,0.6524302821786255,-0.8081100258073121,-0.6486041807729547,-0.6134614137096307,0.7302396436624741,-0.7468231121727124,0.9388402835701078,0.9285518663111983,-0.430467918275987,0.27320366733013857,-5.966488650582835,0.7468025347956464,-0.06362578732084612,-0.7523632105964158,0.14329488377103008,0.039567232391969305,-0.9583952644512685,0.45861725299374073,-4.151603180320767,0.027541138029322437,-0.46548710838269153,-0.8112994729978205,-0.9385076862894739,-3.1026724739280245,-0.7125425777087411,-0.9033511386364862,0.5985020311010374,-0.5562597506122631,0.4795969840485206,0.11312181031251113,0.17469582517983911,0.8686591907847837,0.48946666521137044,-0.38684344805633974,1.1379731154067574,0.2824696967580869,0.4213592704795637,0.3127239440235103,-0.5523613502709839,-0.2910070196465663,-4.893285903142841,-0.7929089853363541,-0.10684693633409306,0.8876645236018021,0.4734593804271847,-0.9763231013260404,-0.06187124987715762,-6.820318304813076],[0.6574543662017897,0.5184738659527866,0.25235400242369,1.6984326229689468,0.2991805067720158,0.1903399960958912,-0.562741555376375,1.2649057664943695,-0.6443583022297886,0.37360720775514783,-0.9932033864688165,-0.8070589619987948,-0.05245378356926616,0.9828642386823794,0.7833690586600633,0.33894227947416466,-5.272180477191873,-6.034016494560362,0.37178668654276353,-0.1807382665345065,-0.8433877640912879,-0.9722413586047729,-0.49040276183519343,-0.5875509002019214,0.8906226889701313,0.9015724044008201,1.0994336041587534,1.0168016458425797,-5.235278046848415,0.3057191617259138,0.039235172794157794,1.2763172975218124,0.8784058337117702,0.15758662959916542,0.24646752208923972,-0.8674721090629292,-0.9440909707859593,-1.1678321079493574,-0.5722473208598415,-0.036110560290183,-1.1008341354216453,-0.3816772410244324,-0.041672158197572196,0.5189615859848496,0.5034596526282573,0.5122161533312378,-0.8704895793169658,-0.10270524129624836,-0.10947698554085972,0.010109468485956138,0.20618759699435832,0.06265043153008758,0.023492365551293495,-0.193437621761885,0.6569319145290475,0.5734242704845933,-0.8843986726886754,0.7443858209449445,0.7017513888942949,-0.2797725719989035,-0.6042198777547264,-0.45285963865523404,-0.052964841048257556,0.5231938149566053,-0.7668297328780183,-5.077914687803408],[-0.6718179241134172,-0.6765042874780122,0.05389097766852762,0.9017301253825857,0.2664798439200544,-0.1314116717939368,-0.6371979334669805,0.4384111472858195,-0.16672714358878676,0.8785024328906033,0.6544213646491036,-0.9479640457406681,-0.13084439498270023,0.6194748199527341,0.9643123699493464,-0.23252848636981222,-2.479925601689393,-1.8151398324620682,0.46247292597598205,0.560015225226391,-0.8165509331121796,-0.5307118643449326,-0.296546281958219,0.08462354033601363,-0.960765765024658,-0.4529195776823918,-0.06407412204997029,0.5435215188211006,-9.3070151779597,-0.8754744972680318,-0.5209583899245713,-0.11234091563799936,0.9959711693178332,0.3945606684575022,-0.5411198803975005,0.434289682052705,-6.624881698042604,-0.9456795866819596,-0.028426905493895892,-0.18096365581251134,-0.9459812194598992,-6.062212653244033,-0.15506714610296962,-0.8510459436685428,-0.47770997431219475,0.4976153694120431,0.21605514625627298,-0.695822062079527,-0.5108493889925846,0.5640091987093274,0.27472611850110507,0.950566527143019,0.5440881464741134,0.3358274702878349,0.6882478349447892,0.38959953189756585,0.014693702890626093,0.7464789050864429,-6.120459368189866,0.8550887312466353,0.3473586557126438,-0.22159877703576994,-0.9021543399477394,0.23995900610725862,0.5496497705533215,-9.45737651873355],[-0.8699953306994811,-0.11611994041563944,-0.8995735003379952,-0.8446822859874215,0.2120447902668208,0.24034334919011463,-0.09895944601071686,0.826940302431303,-0.24797888739303242,0.42081906089539994,0.2800038337691405,-0.9711803232026941,0.45324294067858184,0.37418298273471673,-0.9877271722214377,-0.3795036558746917,-3.9891650868002047,-2.8419929251926623,-1.0202005167178998,0.678464558334932,0.2641089848919861,0.0290102086498843,-0.7620532613752818,-0.8474386758190526,0.331637129795519,-0.5170762332214881,-1.091495429795614,-0.27669902092789417,-3.5533779617439145,-0.5986389566571007,-0.14096269177787432,-0.4089850429548629,0.4783914407246358,0.2585255945379254,-0.0219347339411479,-0.7071677360805776,-1.4268275659613066,-0.9089764117862801,-0.0481893408609741,0.4191240093517881,0.24502948300500726,-1.1327985031794687,-0.7476918414785896,-0.05106292691273864,-0.6842445558568612,-0.35053212389678834,0.3349996094537648,0.3357157496997119,-0.6011820634937485,0.19982995970601788,-0.34717783788689854,-0.7961498256454737,0.6372499721567664,0.2567632329201814,-0.9322954667809676,-0.5876484401936306,-0.8590458463715824,-0.07723572114295248,0.15904772827256036,0.31972540200673105,0.4759707969621168,-0.3435615028919414,-0.2320614560432429,0.37227031623167806,-0.9809446671636245,-6.361152780717492],[-0.11945601598225133,-0.7541505876886261,0.16525108348404274,0.009667023307735886,-0.7535677559961732,-0.1401192210603347,0.5689522658832304,-0.9369954534730475,-0.22329594589786997,-0.7326999745143147,-0.810366380731367,-0.767853525469084,0.032023329788955536,0.2793050431321138,0.3793815309346763,-0.45447156505899583,-6.174432868349666,-5.493883777480778,0.715528853100689,-0.37530064582095657,0.9055679270508987,-0.43484586794476665,-0.43846817385335046,0.234633647404383,-0.23582305018037683,0.5559810190390139,-0.3253321125571495,-0.0886773765253167,-6.9846726049405765,-0.8988443362259961,0.9806195818114092,-0.486357217019229,-0.055435592992080056,-0.13077016737460664,-0.5021744004823749,-0.661247336874686,0.6333470317431642,0.7062575805967635,0.8024408062256113,-0.4188493010186639,0.1293635732547356,0.3149036673573728,-0.2473373056188963,0.9392178397250092,0.01643617625164906,0.3651215499235079,0.7725242704601243,0.9149730498367272,-0.8682851920741523,0.9190442557101486,-0.14373944394296165,0.4235816283456483,-0.40296828441811977,0.6338883523717106,-0.8439434975441759,0.49089155139094276,-0.9798932220863008,0.07618503982060106,-0.6924388483153461,1.0533449169052456,-0.3587531096534512,0.26023583669218386,0.16896771504653743,-0.7871977775382315,-0.6674398200096107,-6.933000818304078],[-0.6455885963312007,-0.07555902436949437,-0.13563769909550366,-0.5466588222815469,0.6352935874241221,0.7956432855546476,0.8525268207799535,-0.888617699371229,0.40941942808323695,0.0070698734025924975,-0.5006556640606623,0.4397012077239699,0.6963801204472144,-0.1563696950865586,0.918140524908721,-0.446423436630129,-0.2007916987479274,0.03899013432912229,0.19802048243505854,0.15642357721855038,-0.7339620991464934,-0.2884137756144638,-0.15595818336565787,-0.639310475856613,-0.63342093955906,-0.4142724202705825,-0.47052412783471154,0.29373519914584023,-28.250905874765696,0.02057251123583222,-0.9848682731854447,-0.5173505175183066,-0.13116969483957852,0.4893142896805857,0.43852884599845987,-0.5258661235440832,-27.36230646346185,0.9622091715600956,-0.92412879902612,-0.08308051497281264,0.47915872063577664,-28.792337811632812,0.9901456599419087,0.7332373139353783,-0.7332806182590118,-0.44485269682740464,0.010666284221016537,0.39623282409643423,0.39762941972447213,0.48855849408138263,-0.7931277485649132,0.557950647527612,0.03137926170942615,-0.7558846738062831,0.20836592953575628,-0.13973004055457414,0.8125824660096386,0.15085554802995596,-27.352341152433834,0.28469302164687726,0.8470460201649266,0.72823600277672,0.27535386019771285,0.8133018120479479,0.1464743652850686,-29.90887293248563],[-0.550434428738782,-0.6096425390842856,0.026438224178664378,-0.48177847993793105,-0.12672901500407321,0.28715669581320685,-0.910181879595002,-0.6053969559495382,0.06813687128765568,0.18824871570177235,-0.5608604165358251,-0.43650735154411013,0.3152292465336776,0.17715602411073156,0.11888446815785574,-0.29961027137245927,-3.5581587522547458,-4.000880700174532,-0.6397608761649376,-0.4336086838205605,0.06191418865185847,0.17305787156792068,-0.17994583534757688,-0.20165101478215222,1.0313567346797088,0.7479738938802848,-1.1291192884015049,-0.43558542383723314,-4.062327679144499,0.24662698474378228,0.9535182855814065,-0.836635597029913,0.7297576276764032,-0.8675522130868583,-0.3171261211430661,0.18771446872327882,-0.5337604604873563,-1.332276466054364,-0.5036847051735798,0.9393957145776706,0.18689233405939482,-0.7772752478048139,-0.11517711542185173,0.27386555443819655,0.4161128420825155,-1.2136858336914638,0.9161804230602013,0.4603616040936594,-0.9704841303260069,0.560707577741886,-0.5538497875140866,0.21680880060414137,0.2006271280567118,-0.7083699940937341,0.29360416539061757,-0.5830433547737323,-0.4165111719053728,-0.07951482834981372,-0.17209592602100246,-0.5848071970980785,0.21237335778944808,-0.27722763620076796,0.16211786286080496,-0.23931990136753328,-0.039433154093189766,-6.480637841591941],[-0.7135312879822007,-0.3530402660243294,0.7631755892979655,-0.9890238241297735,0.44665895281754986,0.6985446373101643,-0.938341395505622,0.9235451688792415,0.9090217314137826,0.8157331722471892,0.1358801605711017,-0.8127803752221346,-0.9331181643419655,-0.9763396234551454,0.3911482536738835,-0.5475485721723249,-1.3995318406272412,-1.4266073471721274,0.5287039063091514,0.7883125514818066,-0.7826733261795513,0.5358909613889046,-0.14607269518949276,0.8356067317844051,-0.9464652721671398,-0.5737567263400725,-0.5913144608037245,0.145862045071664,-28.444019428034213,-0.7520112211235678,0.424130218976606,0.38633399337595553,0.7721229912345144,-0.9959069421612378,0.33507176757478374,-0.5288837790209556,-26.781960148347277,0.4406734477948749,-0.630398376144835,-0.41454224011618446,0.22938054584140521,-27.175491105594787,-0.3200516808008932,-0.8935598476698049,0.48878032213252887,-0.8674644110720892,0.44011242786821914,-0.7343048365512272,0.35593542650676263,0.10189538044919517,0.9357999968719454,-0.14627852978716346,0.7305837997920327,0.2831277025468911,0.2680047439814955,-0.6250922151012706,-0.009735205851699957,-0.750733528772395,-28.17521325102705,0.5284378572742121,0.4882556206516862,-0.5282604830319102,-0.6316708930515039,0.46994121800611693,-0.2077705482338227,-29.390674971870297],[0.13664922842504107,0.4541438368731912,-0.2675602022140785,-0.8449569840433518,-1.0552036590198464,0.9107887092905399,-0.5921132376365548,0.17387154924798773,0.35024021812629974,-0.2467294555639499,-0.02624509832186642,-0.9187663063003646,-0.7662895901344404,1.04253758224358,2.885794023772998,-0.6870793545095585,-2.0775977067020537,-3.3471271185042797,-0.39267423793051515,0.5141466472672755,0.7301932674056318,-0.32170018514391696,-0.24719531026344607,-0.877919021130238,0.6149535609469652,-0.2743885937133796,-0.4752654933492617,0.5314782893868409,-3.527251672068107,0.6180475157746013,0.798611965225789,0.8288169241987713,-0.9603891095784403,-0.17574812313449786,0.2684763818294088,-0.787635817120221,0.09706816784071996,0.09440050497702722,-0.5460755756101671,-0.4658337711719044,1.0499275095265206,-0.055704512537153514,0.09743456165547916,0.36269350249064786,-0.3489854960235299,0.0036598960683293376,-0.7190069660443019,0.3391337125224751,-0.37535923225869555,-0.49413878382371984,-0.549650054276546,0.43585937747641323,-0.8313344851939971,-0.06929703563472098,0.4536642554921819,-0.22227167482261798,0.28036614721052033,-0.2561212055270181,-0.6365682710436668,0.06868780644426527,0.13229061214556095,0.1116803071023045,1.131809304907152,0.04992421415645245,0.5209728364587068,-4.5540436903436055],[-0.6468234850831336,0.34537665927438455,0.2160307722910975,-0.6008604150491931,-0.9952045545884814,0.8300107991955845,-0.61127757118683,0.2651286039345498,-0.37467798354924575,0.7649822539678424,0.2359146430619623,-0.7632082373160836,-0.024955456933395594,0.4470529333804056,0.2265637896813705,0.8186973925994465,-3.5739015700457797,-3.8781053551827642,-0.15987728856697375,0.7310257797466552,0.30186200489719145,0.5680001810319636,0.8400450368930348,-0.214930510161389,-0.12130628057968096,0.13087962338504955,-0.6835433253047913,-0.6281926366188728,-4.542278426057745,-0.7411954552260481,-0.46070709752278394,-0.38423544255102815,-0.5063587281130865,-0.37441675242587374,0.7566989293019877,-0.699802222446476,-1.7913125111123676,0.16115216890727155,-0.35825033531749373,-0.023609343410154,0.6837466413371868,-3.1766104199283958,0.06154405923688189,-0.6116512220308674,-0.28046833521309106,0.043254460967631296,-0.053461969507072125,-0.8726086663911284,-0.5366116445292668,-0.6364380804471798,0.8925778783686513,-0.36717588725489975,0.9586446625101128,-0.6598243558773302,-0.5088085914917253,-0.16864789102520122,0.5067141924520656,-0.02067443223738271,-1.3945048529643302,0.6513205364288928,-0.33406850062180615,-0.8012289268277043,-0.8535180622036069,-0.2725674943356865,0.4013137368116727,-6.213274336509943],[0.8453177070469899,-0.2558237990481299,0.07007642466494637,-0.6235978553064545,-0.522888348763667,1.2136906323243237,1.119848374477484,-0.3806762546399134,-0.23563136340668447,-0.7279298762276228,0.2626336620242745,-0.24053630710064366,-0.12222880689461452,-0.40202110454391377,0.2010776065654161,-0.14267898722253852,0.13235406473185476,-1.9098060181980514,0.09963984601957074,0.41818614164368095,0.476431222277575,-0.9900901033179892,-0.9359791619958642,-0.14783833143329658,-1.4266527519057524,-1.6064271041946887,-0.2964652521452741,-1.4601906198610648,-1.9716497673264497,-0.2827059094409614,0.4350304115418356,-0.49806393443150176,-0.5460969385757205,-0.4884479194274734,-0.40742381313377535,0.03634628835302014,1.14315453574084,-0.633114476908849,-0.01997513576259058,0.3976843134362711,-0.20597681369794027,1.0921893862359189,3.5470940018388886,-0.4331176358089697,-0.18989217579753426,-0.007576833827459281,0.7530580786584277,-0.4997984797617675,0.5299513746482298,0.8401221414742743,0.17917111335841826,0.4438509120039644,-0.3561022514642755,0.4500646641878757,-0.321656421980666,-0.01852912090967457,0.12170508966575802,0.46979110401152563,0.8366934513888327,-0.495428432325743,-0.27537712054365493,-0.4046240272576932,-0.26120149002319115,-0.2783908795136859,-0.09952664714102465,-1.6741287256907502],[-0.5819729264846726,-0.37598922097329307,0.4968629553528265,-0.46833754912187103,-0.9906058740157831,0.05126616773856748,0.5366683432108283,-0.6606143527437858,0.858073247848949,0.3016147341467663,-0.8594423795927101,0.9284796803819718,0.035667146206003995,0.6734346590375635,-0.9565760833475226,0.11262805402391024,-3.1552014536545077,-3.8563809647298815,-0.4670688897784063,0.48710449971900494,0.6491921153294498,-0.27620292510075956,0.9486714167426475,-0.2511925843450153,-0.4741281363531964,-0.6500104259009573,-1.1958226148030626,0.5966912130562173,-4.47695356282014,-0.09756979729988628,-0.1356330532389976,-0.6675716973800662,0.41055847907600546,-0.7661539541193432,0.17196553839744566,0.0812960799852705,-1.0025159745141845,-0.05252506227013795,0.20050101361383407,-0.6124913633207422,-0.0686643411593098,-0.38703889820700527,-0.8573212763775732,0.7113986693600035,0.38123447932298615,0.9659013535751451,-0.16243557338739603,-0.16944529344749493,-0.9586086552377333,-0.39645251025054423,0.606224157802778,0.6444363982140945,-0.061834428016985826,0.5198307322840544,-0.932156500553962,-1.7660702610779082,-0.5966396548373741,0.8325770476728216,-0.3975159728207139,0.15070524344266426,0.13039728396470426,-0.7937825532012858,-0.13772598920740875,-0.46556778667426313,-0.7765528426045553,-6.227591858576136],[0.1626568591734565,-0.758319414170632,-0.004717131144819923,-1.637126957725656,-0.7452095329362406,-0.7561291193025368,0.30751067658680137,-0.8544430138893749,-0.9588958307201365,0.5434959691276237,0.3316792267526766,-0.749752971010616,0.2586028623834534,-0.43740661571648287,0.5370629678461245,-0.4805628421178385,-1.865343736603621,-2.517737769942932,-0.939567318556895,0.631691075571004,0.8432085143433803,-0.11300579028353416,0.8988010470546925,-0.04195228116267865,-0.687854337846983,-0.28960670303992725,-0.5699128663797065,-0.2204595282700274,-3.2575429547174393,-0.8054298112232774,0.37643444021046824,-0.1032756979703562,0.8273806897603452,0.7445419829577075,-0.37934779810569985,-0.02721332921326427,-1.4274616800498114,-0.9367041450091327,-0.39869837404845904,0.682459964692137,-0.5015248046498759,0.20592039175477803,0.11806035259365982,-0.8408930593133762,-0.13176138830576037,0.3227036038535317,-0.3570122046694822,0.49467589950811325,-0.8062073167047555,-0.5529591538633569,0.3116534869102916,-0.9650280415024455,-0.8778975641225123,0.8907848122321235,0.6850571212483703,-1.5968584948764053,-0.3023948272623954,-0.6495870772645956,-0.023476298534749033,0.7942402990267964,0.4419845498296605,-0.014692668324015131,-0.6714997370084874,-0.6952931929806621,-0.19621564345825412,-5.05852534977779],[0.46824666720839947,-0.4006580707088475,-0.6829456661506978,0.2720165664635595,-0.5635367296130575,0.8364299392567244,-0.5194561492534314,1.080905432153428,0.6165086337037579,0.4356431986632301,0.1817337496633894,0.8864131688677422,-0.6567701451150016,-0.07134724607575205,-0.9136930501473294,-0.1441847518640234,-6.9649181662036,-6.5015481742527435,-0.1418626467584112,-0.680525515925542,-0.6585140590334481,0.18939069986379634,0.9531403270840448,0.32778017377272695,-0.9940770661163969,0.3067211268932752,0.5986059625265971,-0.7399744080116872,-7.124042579683657,-0.6627919843695499,1.402272079028226,0.8641606958982139,0.3077328983832588,-0.32185443104027234,-0.8777720446978124,0.5597006345313349,0.4177069127011907,-0.04782665898745301,0.8760226060637979,0.5705621585739645,0.269220339156566,-0.32197738001144993,-0.20243949878144396,0.5683590941993256,-0.16216185661920318,-0.4201884520360554,-0.53187444480419,-0.04034773956810745,-0.407125536020315,0.2997461833990254,1.9247950963515013,0.017066889135104124,0.713652009719692,-0.6046929393682415,-0.6502594790935634,1.5555521847525526,-0.9476585494731408,0.3390611006146094,0.7325922402364803,1.0542245494928102,0.2543308324969157,-0.8918769492742742,-0.6660103155712771,0.36107876259740146,-0.36179900059771225,-5.80402468535708],[-0.5577684735030861,-0.8965412932745774,0.6101280155603467,-0.8892031365655615,0.15578727014956165,-0.5528993985224887,-0.27739315582463,-0.8130473699140811,0.04905381574904464,0.5066829392880787,0.45072305105576704,0.4639277451089502,-0.13465108921677868,-0.06891704366310357,-0.7186160971971618,-0.1471913267802235,-3.3420021528008927,-2.0880663727983046,0.9177894891503156,-0.5981445571943065,-0.932906167208114,0.300918771905375,0.8788508994384178,0.12407096982775148,-0.5004700332895461,-0.7671166163956843,0.0018030398873227008,-0.46797989396760764,-3.9443858366042694,0.15534621238023671,0.19574195049683057,-0.9158355137909748,-0.44371070871272655,0.10493906751130629,0.2857598713808804,-1.0384130508492437,-1.513806522473576,-0.6929714542283851,0.4362276556132737,-0.4898193303996476,0.6283611685801607,-0.9601724813570208,0.029305467659671538,-0.049327698251111114,0.48044829143547774,0.8454387828662175,-0.6495101520799076,-0.6674241951721372,0.621469937116608,0.7713765025828643,-0.19367112558354665,0.5350070266862286,0.2158859602076449,-0.16669545220620618,0.1726851664353474,-0.5177069554096798,0.8688729892468583,-0.5938802519788903,-0.38970251908225007,-0.27933907867455954,-0.32245562387480103,-0.9081381586103014,0.2026639264087339,-0.16435061712596002,-0.6528106419946492,-6.467554539460286],[0.8291365949796896,-0.17739847908596107,0.4081879932570629,-2.72841292415343,0.38911354573912604,0.12249382788081031,-0.6669049342955851,-0.5455295495081661,0.736631250843404,0.8112169433493217,-0.5734960854877221,-0.3523604792856222,0.9535999961705596,-0.17940021447632046,0.6383831071975046,-0.43145060516613215,-1.918618035834392,-2.3747120070289336,-0.41235652616343527,-0.7038120436578912,-0.6680476192093148,-0.6498667243643608,0.24878547183460598,-0.5993638060808233,0.7019269590554982,-0.24367679964671637,-4.193129178162369,-0.9341116325272575,-3.175228950751254,0.34885406871605823,-0.83611484262194,-0.4021493379412822,0.585704141375081,0.9240707076313649,0.7281996040756397,0.6154825969535076,-0.6940387396032807,-4.24176039504078,0.7590847647674668,0.29371015410718804,-0.11988332575133068,-0.525835209371324,0.47534494408395445,-0.138734564164853,0.2627568090796313,-0.9201357229001127,-0.8446016352937511,0.8959044189714859,0.6358869304490341,0.7306805095866803,-0.18525859648650722,-0.05201569262512897,0.8117432108863918,-0.43665444263941616,-0.7954206322533429,-2.8515998137491474,-0.5676938663582295,0.3414598507584674,-0.5247120625064984,0.5933139522381781,0.467805754772933,0.11492213817973206,0.161712222927683,-0.4391234278011696,0.28433653388715063,-6.668598499785881],[-0.8495896850390359,1.8509687153860357,-0.40485062577181435,0.3604459065853194,-0.3038671418873277,1.0433307608846054,0.1607731951159707,0.2560926134822956,-0.021165972264461142,1.752673733458867,1.0318935935875362,-0.605720491550085,0.5717335591958994,-0.4775772777104323,-0.2827394890220485,-0.09583534146333171,-2.137428849811319,-1.9535320766624338,0.8297624270680605,0.08085177710015495,-0.2796697006462308,-0.11319635580507258,1.7786362459180294,-0.770728774176193,-0.945775253325155,-1.012695110002748,-0.3834168468788058,-0.7951436978280204,-1.8829460463070653,0.03574279225979032,-0.03156621395193243,0.2385709209553983,-0.9185096402014643,-0.27360113853595314,-1.2863305949715076,-0.9370451211531852,-0.9542133381302568,-1.4794796646679431,-0.44300631380438027,0.8559767556487827,-1.2748166539561903,1.3149583739178863,0.08758195140460304,-1.088413627598218,-0.7080013193539312,-0.02113562979906078,0.3697979298770703,0.5882312255147045,0.41449264776134837,-0.9029551531451486,0.41472661478095973,-0.19751553215409395,-0.524364467844147,0.09565654146979671,0.07200608477377228,-0.0035112506594636443,-0.22088959138403633,0.3828177134624024,-0.2231332890211193,-0.16557859498870678,-0.5845943603669236,-0.25424661495242584,0.665743797857223,1.2166432317883284,0.27411820013202154,-2.3298192844595245],[0.49327904828516134,-0.48264458479760297,-0.8458340522211311,-0.666575618391545,1.173405821494359,-0.13524337772423548,0.8656510258699741,-0.6535219240304898,1.275244601877898,-0.3330631546097704,-0.9758411069343721,-0.12185497789709777,-0.5145494382989071,-0.6426812429760608,0.20343578717734273,0.057178160784823955,-0.9789283978434625,-1.5187890836376534,0.3700671794561418,0.4096882795583885,0.06223125946281271,0.37469470256496695,0.5439795615224331,0.8691801719576698,-0.0965006846854973,-0.5515274696909249,-0.05719944760572073,-0.39940355433823954,-2.370681563259161,1.0284367711029578,0.6417991598864291,-0.5063354047733141,-0.4558457255427902,0.5383459946779352,0.5396259121291735,-0.7591670402314318,-2.423930237403785,-0.715360403392193,0.04001189144593412,-1.1301961896213197,0.5355524347026235,-1.3757560306688335,-0.6191654061663675,0.41590293752577445,0.032683989762025654,-0.25832479701011385,0.05975435655330991,0.2560536473165802,0.5627421738704248,0.6550601060546923,0.7059146983994175,0.8154451661456474,0.45844516831235926,-0.2587951789542422,0.9552834977028996,-0.12204914948428403,1.5240335762344863,-1.0112614376036708,-2.3381379658222867,-0.8550106930527274,-0.9868460495444266,0.5808050653609349,-0.5133940790044818,-0.1945413755940016,0.5110216059481614,-3.487086684818962],[-0.6708191244421293,0.4029817278085475,-0.5486530057768817,-0.6997497014706399,-0.3738328079766663,-0.23364942825467874,-0.6428067494209111,0.8371724097808786,0.4507956275978568,-0.368227999928557,0.21923516618432592,-0.654353870180833,0.6554072852189016,0.828878286650823,0.4013390530132119,-0.9928642906288474,-5.668191352329678,-5.509884281541341,0.3986875862999366,0.9342210003256407,-0.48171407135945926,0.5417680183001564,-0.21714080431819693,0.6243831231930048,0.15209481874405187,0.6901384100626796,0.43048565355206847,0.1983441565913066,-6.42371873917928,-0.4660071649506313,0.60208575056427,-0.2988713998592917,0.05101774901243859,0.6963540184418756,0.8593049583039227,0.28857264773355945,0.1403206936891345,-0.9231472167110233,-0.4056315550626895,0.8004898572159049,-0.5713821334654664,-0.5816293201490608,0.2353422708089218,0.637729098124383,-0.37021698975755746,0.14689837956625107,0.399862369664327,0.06712717629872275,-0.3447822911910097,0.1052156248133562,-0.2660099619236491,0.36298086315207495,-0.9521692114448063,0.16672830848789955,-0.9052520575793284,-0.11964237532324563,-0.09755534965815714,-0.6849627595885672,-0.15022626781453502,0.8796322901130709,0.44235879292237396,0.31235963501642056,-0.1397430993800318,-0.3483752491237469,0.6906485817291519,-6.899726855498621],[-0.2861911069342946,-0.5929147224194937,-0.9548287846448751,-1.5484548358068502,-0.0363445503517436,0.1296886531617293,-0.43097108959681535,0.13833490579775307,-0.5345824625880915,-0.9493288719234787,0.5784831789545307,-0.05741027570280761,0.6589396672360117,-0.7406702474779909,-0.5870078018616816,0.4488044621797072,-4.070416036123913,-4.469017118744427,0.215842782318178,-0.535867122901766,-0.4176418497007562,-0.8564426205625186,-0.06150644766310788,-0.9139029608451619,-0.4825058155085077,0.16111180018955654,-0.2788086075679427,0.5375964579033115,-3.4379985086338007,-0.3504852910135668,0.03076776336399124,0.7938282247063305,0.33064731963816735,0.4583857919597846,-0.10851478725670927,0.308406944218893,0.2384963165663092,-0.9033070396889545,-1.0371220260867025,0.06062092987150908,0.1927245168201942,-0.9102090166032892,-0.6650723074478756,0.3502015772257286,-0.9484108979688103,-0.6431998424732199,-0.5461843598713862,-0.1394384353084409,-0.9225407970036825,0.8904051599219371,0.377922167753387,-0.5689473546787619,-0.6079391968967488,0.17023297350387073,-0.0051277101617653595,-0.482775298755575,-0.8087134062308566,0.25665582534773074,-0.7315614034312337,-0.8884368521480243,-0.22764502560061697,-0.9936470210189944,0.8328565528941517,0.6091630933563049,-0.15144241971829742,-6.023412445636465],[-0.12822442870558742,0.2936015495879236,-0.6055672044662782,-0.5251773255928955,-0.25676108162854333,0.033884727630982624,0.091985560508701,0.7827814629689411,-0.8208825237327793,0.3237254648780731,-0.12774321334093433,0.13784419989831942,0.758479994075625,-0.9781987191989385,-0.6754386067540417,-0.5261104223014234,-3.9675618308473326,-3.79000370847771,0.6248255838560902,-0.10457023756475267,-0.28922516670726683,0.24869926629686326,0.9540365125346102,-0.03765150458158304,0.09782424982640943,0.3923034190200488,0.04448876899136405,0.6471158300807169,-4.7574596467860495,-0.9763871694596596,-0.5652828824820076,0.12412171866280611,-0.902835459490812,-0.6818062576833305,-0.7115904007954705,-0.841814876633095,-0.6679116804357799,-0.6660742406339817,-0.12997337897965747,0.30954444670625025,-0.18584002324793,0.58297260981775,0.3713532134495265,0.4691535177100181,-0.2506245782115985,-0.9377643333491568,-0.6492461566759985,-0.9088757655091341,-0.23130416102990348,-0.7320753370414553,0.7268399843875661,0.18604586727769312,-0.5774183256655224,0.34430105836646274,-0.43748246667556306,0.07404357631621326,0.7922764981645654,0.3742118030831123,-0.6064906924383424,0.7052690461799296,-0.7097929065183609,-0.1913787276114246,-0.3746900511993143,-0.5451774263547916,-0.1403591971928547,-5.888740364180188],[-0.09826403954757502,-0.7437870839826329,0.08849540430941992,-0.9258108073073449,-0.2048134570412065,0.6345238232974112,-0.17997132100522473,-0.4085653081056323,0.025030197195513488,-1.227520606123673,2.2041851250393436,-0.5051733340208086,-0.48906166012663066,-0.6985461489272092,-0.8190253943032918,-0.2107675391886571,-2.08093359739497,-2.7631264230714714,-0.3766231339660664,0.39690717622947813,1.069461590267349,-0.5946428219658566,-0.7267995711698588,-0.6706687264366613,-0.46883851078632083,-0.5822389538546207,-0.9711754971367098,-0.5414682074841988,-3.840703304510656,-0.5926912988243881,-0.5471707083639754,0.7541328561041328,0.061568164379943974,0.39537096949556716,-1.0162289571167546,-1.0991738630904069,-1.2365985550671519,0.07041277368535914,-1.0351713120573596,1.2031882058276244,0.17475320336369157,-0.9863328521839133,-1.2383877936071395,-0.906005262563721,0.1544724799850111,-0.07722261195609598,0.971114644889639,1.0082513180037374,1.0590377418106625,0.903647222394771,-0.20585830091602422,-0.42369618168706064,0.7398756723984817,0.515991609434929,-0.5844787014981664,-1.2148406636651936,-0.5799105086381026,-1.253154448986685,-1.4194854153795418,-0.37820880002921314,-0.6925463370165881,0.279606213037966,1.208450948887559,0.9744804071862803,-0.11631540905821748,-2.8631630559695376],[0.3716792458888091,-0.6483710389669417,-0.2711730619485912,-0.011296996106568508,0.40166770748758945,0.4085171332636025,-0.4796787620285997,0.3290253319016994,0.23286890920875788,-0.3189670963162828,0.5555677872694933,0.31872356912108585,0.7110432705884531,-0.40080456672485343,0.2972669016295453,-0.5283951059798188,-6.065769959655134,-7.0734849606632295,-0.5519112105761971,0.7073626279337162,-0.08881473793889477,0.11901269298965561,0.48606034006889026,-0.34129418867767386,0.9426396942727079,0.5713909328099276,-0.9147455834807456,0.60043446029876,-5.910867863151559,0.20552819286701388,-0.512531782101008,0.4147954490211831,-0.22436458456249359,0.40200146585290764,0.5472658295865158,0.3067320248970885,-0.6511370961682434,-0.7850552685582344,-0.9733176515871799,0.10309965236249918,0.11841777752223291,0.29920612500180893,-0.7961476477999075,0.16952755938019942,-0.13111526156343234,0.03335368171618777,-0.07496560204215763,-0.23252236664623718,-0.090004990813068,-0.9292508224609547,0.019237192192114713,-0.05922017135568347,0.5487725239527043,-0.8479971066428518,-0.8265866336027207,-0.799090211506129,-0.10132324571457008,0.4902494874091167,0.8594689214852435,0.3264161578879267,-0.3052180279944359,0.38042581840110606,-0.4697066247209325,-0.9765977530440945,-0.49074793357591945,-6.692749358736845],[-0.8277011842962941,0.21071326883793412,0.9096777908108112,0.5377091208410621,0.15526653895259837,-0.07555310152220798,-0.25630206314206117,-0.5250763111029267,0.803292009677976,0.046838570887931766,0.7467522045178011,-0.18570994680517142,-0.6580507346512037,0.8066362115681556,0.261783078768894,-0.8119621442194573,-1.5573781726242228,-1.6514096122549684,-0.4831511306502742,-0.6518230932834582,0.12768677093789263,-0.20123686015979006,0.8385094542173375,0.9238378359506791,-0.10568444248684432,0.9590382655785519,0.0001936767510198327,0.6461358661494067,-8.970457678498802,0.6554924799149162,-0.785360440998231,-0.051386137504509224,-0.48128454736984755,-0.39340158858672647,-0.016561783690915516,0.542086189425128,-7.045172908354442,0.6295022257210037,-0.29629674662859795,-0.24318258246373126,-0.6982512299144461,-7.115601291293162,-0.35747883480689413,-0.8521012623557023,0.4332085134537787,-0.9478179159276806,-0.7786425210770286,0.3362981743410935,0.3834525754489361,-0.877423538160215,-0.02040997434048674,0.870790585732926,-0.6824575716905461,0.6670633317067713,0.800370931768947,0.2672939808883155,0.9510317723044489,0.7023934894215826,-6.103464792766402,0.935557179288867,-0.21462321815917307,-0.9330368968091814,0.004800260084420751,0.8457630390481988,0.23839442296118973,-8.962611665297628],[-1.3557610193551362,0.27538223627688346,0.19102607051638237,-0.576571087186174,-0.5999614672663546,0.9059000384331625,-0.32393648468342123,-0.8357180033170051,0.31540232025498666,-0.8687213156572183,-1.0141002995305917,-0.07933173690969693,-0.3785027216287902,-0.2996155763162439,0.8266926394324,-0.48237272468164427,-0.44231132172813753,0.15599456737193235,-0.5409134395128111,0.20510517518488353,0.6237062063899292,0.2935893511556252,1.0789403579808265,-0.8154967221010141,0.5271432715194361,0.1716202266755671,-1.1299058858920075,1.0569299002040717,-4.57048238360445,-0.9632781029692149,-0.7690053448460162,-0.2602949599381511,0.5883297592230468,0.33500724203462995,0.46470765916434914,-0.5175336919491613,-4.850680671373058,-1.1278967932997286,0.340849831508645,-0.05122899891094227,0.15634475553446608,-4.645432358973305,0.7018432044934153,-0.6390335702521045,0.11229149619449996,-0.8358787854414448,-0.4732121388899633,-0.0908544947905566,-0.4009539671164607,0.3101942948085375,-1.0681155864959884,0.2827741965141509,0.08727149359726635,0.567809003265218,-0.33179070848694886,0.30403158944581565,0.047528688542790035,-0.9110712733129885,-4.614559859207141,0.6766371031246176,-0.3481078681558488,-0.695754422977155,-0.07000214703680871,0.4273064358447372,-0.745842224536999,-5.255828383824805],[-0.887115983449993,-0.5129170398045476,0.687150799323008,1.1032783861342865,-0.6652557282940705,0.3287286821205892,-0.9258724743329596,0.3172583970252375,0.20623051851044172,-0.13750214335004027,0.5322876589494432,-0.38843330697692635,-1.2207094770792917,0.21497464564795857,-0.07971870857963714,0.37121876142891386,-1.6947469280683232,-1.970673009304437,-0.8108335704654316,-0.45157460434659724,-0.8693129906218586,-0.7413183040707922,0.3862015026422774,-0.6492106679305231,0.07009702568135927,-0.903148505038167,0.7736953269530981,0.46606446816564706,-4.809085757960717,0.5563909366391055,-0.3020101321518126,0.2848853304483307,-0.6085746688723427,0.7219562663187445,-0.21091918282126454,-0.01786072176867168,-2.5944460967915917,-0.3421951335927707,0.5576279055186134,0.06621982345392025,-0.19836275737269982,-3.6804851131619403,-0.9334053516072338,-0.7826086287168441,-0.9112749237535599,-0.4737927760496922,-0.5963814205919299,0.001788922882270754,0.5037208561957538,0.49039182447550267,0.766824203874293,-0.4939233036056761,-0.0017004464887986502,-0.47322802211646214,0.5862448241291545,1.2558983215951312,2.0962649646127915,0.017449044105804706,-2.7146248879125476,-0.9011879702163306,0.18985761327109235,0.3804631653436675,0.6021508504483236,-0.8734867124271088,-1.238369011085886,-4.032637418566283],[-0.5949370559632352,0.5165733635041087,0.85526690962363,-1.1014995209058807,0.4272065174503956,0.8241814299635519,0.5285630260345143,0.885858253887006,0.12376334692326328,-0.1343187171477002,-0.9777915223227239,-0.8462648248950102,-0.0520318305842558,0.08335645352037258,0.3998848418393861,-0.32519255550461446,-1.2595905722440406,-2.563162861144185,-0.06267740412980218,0.6370377496336531,0.4875416006444369,1.0849018817073397,-0.09918483455815184,0.19206053933410952,0.38519775692633235,0.33027793386870363,-1.0429706971012274,-0.6923605849656805,-1.85626806479327,0.623838431823284,1.0184086922910534,-0.14693728232036055,-0.6587538390391815,-0.1302403715488451,0.47681616282747097,0.15155381093229336,-1.1201855730531831,-0.8076960922877423,0.2299152282242114,0.39062679143965306,-0.8122641227020411,-1.1600286640140567,0.06360814415048352,0.16189177128683474,1.1260312879663303,0.01924797737561347,-0.9210625725383965,0.30356599089235276,-0.24975286238152106,0.2534837506554333,0.8131505012015525,-0.20389056847187934,0.42059795450629883,-0.7139879853052099,-0.367891212171728,-0.3992731094731078,-0.36802625056902455,-1.549633932323316,1.0635042945833186,-0.5616408450122606,0.6439498281886644,-0.17227589282155872,-0.09551551607282834,-1.027844262313206,0.46035566085354085,-5.777798418798023],[-0.6116946535691512,0.6349468436379849,-0.16323557359432492,-0.5469779427217932,0.3860337463933843,0.2602617052327776,-0.8035654182959837,-0.21102805217608514,-0.0012730316894613,-0.6528158957776485,0.8307513393984373,0.8425369683934324,-0.9891406069738897,0.5839695678244289,-0.6715969732431519,0.1952416557571382,-6.92296601039586,-7.289968959527841,0.35466689483573455,-0.8829714795175893,-0.31931639792139016,0.9722764212254942,-0.5331356639359195,-0.5012413706083002,-0.4549230381957164,0.690512569349618,0.6682833098764498,-0.7873015245275166,-7.4720186584681105,-0.9286786411249442,0.9018280251495716,0.2081043202769787,0.8755287901299297,0.4989601698469579,0.30300294685440643,0.5003772407325977,0.22734355383485055,-0.6265173146127824,-0.08301346493245015,0.7256525339034754,-0.8126155102593258,-0.28684579853160513,0.0012077291192738166,-0.3631504757192054,-0.7696625142566123,0.8795986629386117,0.558998688372622,-0.5361541483706165,-0.9233949859004408,0.7012896251867904,0.018135763695560865,0.2795147879801835,-0.9075942669912515,0.8560957109208855,-0.5314895554042011,0.29430212798644656,0.22855149279149034,0.3976630112789682,0.6401614360816607,-0.42640460990784695,0.07999221972382758,0.10541589340658898,-0.05156680683078817,-0.4123749872302566,0.24251427692026759,-7.06597171201778],[-0.2187334096745872,0.8228777477458105,0.4902348183019676,0.6264553617414669,-0.5342252372938343,0.8145950370773373,0.7381206412446765,-0.060016212168162116,0.0599086140417137,0.23322147284573227,-0.8064621573541585,0.31606354767044975,-0.5117170116688229,0.2598399205455636,-0.7116757989055559,-0.2881555540971099,-7.819877065458605,-7.753746832311159,0.4049505134571321,-0.2897792918021785,-0.9505391322284346,0.3070661646482716,-0.1812071279552278,0.36787103040092034,0.4200778611599397,0.473018137154246,-0.8757569616266164,-0.04596966255838431,-7.621269350771583,-0.7299796653435355,0.8908187738618223,0.16515837127768082,0.25163947495000044,-1.0109129466142934,0.4093727442436248,0.2270204625065278,0.40464129909826396,-0.9780445048546982,0.5075322278009813,0.98623703860817,-0.7719278580960112,-0.2680663647771052,0.9880958439719391,-0.14275608068845033,-0.7723758690441413,0.42747643758545545,0.4913617185122553,-0.7677323449797844,-0.7394536707201381,-0.3864670602029606,0.4286324987415169,0.6857554690740771,0.831533075988979,-0.6807078345250491,-0.7614239069228133,-0.12843573200239067,-0.1582933881081326,0.06543221774061315,0.8259400327796154,-0.5468628018140921,-0.7803871551845435,0.06771462044377909,0.5108022918059083,-0.7691351145362239,-0.6638634797070551,-7.135648494968763],[0.5776124124019486,0.2887975083532528,0.44274228848432706,-1.0786574603838186,0.3430959390743786,0.3300552900714157,0.4738057911398414,0.2901956825478453,0.4609612251742311,-0.767935186276395,-0.1941477156799376,-0.10641556894389821,-0.7829665991108014,2.241334277562135,-1.0457697475930512,-0.4571996019840178,-1.3738361126682337,-2.013766674323743,0.7331907024928526,-0.6849457427932097,-0.5071523741995914,-0.5784421026652592,-0.06592063879077949,-0.3305494458730199,-0.7311817695227311,-0.860351716525525,-2.1101968900489423,-0.6166753188389474,-2.0916183556465238,0.12226257691463673,0.9732289644650033,0.795150234115732,0.10874730875166704,0.6084540675545319,1.0649549464616013,-0.269944517390275,-0.6796507717452004,-0.8296660808990594,-0.6006341434661645,-0.7361541593402839,0.5798297746632729,-0.38906166899385375,0.5113148909145547,0.7340500745593722,-0.9288919390585892,-0.02780861182734045,-0.280189694687798,0.70932677127476,0.30185545446370554,0.7194258958226472,0.37235916252215906,0.6241150351321447,0.8336862080851637,-0.020097779809046392,-0.38015364752645175,-0.7655827241076648,-0.005132412169444281,-0.3787696788264469,-1.0707894380869634,0.47544217852732396,0.30631962882272845,0.3733699289610243,0.13744875126130707,0.9225070362945077,0.06675249769768879,-3.799623511059453],[-1.700616850185248,0.02301138019417173,0.27893692273333404,0.059254111762920475,0.326602778115211,-0.5654030818454415,2.228666508230893,-0.15110195160080622,-0.08556153732591915,0.10837910874102161,-0.5210962060605816,0.21067820613929522,-0.06952776885664301,0.3847993714255223,-0.7957636989153384,0.4334942009987201,0.1973251926933176,-2.0917302466324523,-0.4061225692017844,-0.2894492679567198,-0.7192514688956014,0.2525632528658087,0.11446794874997356,-1.5060153276987838,2.0512469106115794,1.993793065437627,-0.02991481401953277,2.0089223518476627,-2.0824908383966076,-0.6520657946291075,0.8656991446225685,-0.01924175033725479,1.8587620953847728,0.12927623032335972,-0.6998421913904754,-0.4958277144450482,-1.0775696346347374,-0.35411428915955967,0.3501371336124042,-0.6239945789946556,0.9461035246807316,-2.5100073340480735,-1.3719614515846448,1.0372787868729365,0.2238294998104413,-0.017538363727288387,-0.16817212205472298,1.2047109773599816,-1.0464994063904958,-0.629514292523731,0.7278033948386112,0.6277682488613983,0.3360232775842944,-0.1520674693985767,-0.4132349782480227,-0.5272108813427575,-0.7992314102464321,-0.9347529207233816,-0.5850587724538221,0.3797546302178775,-0.6935480217519157,-0.6990143440616874,0.34502262920775545,0.00332445174371014,-0.12705764367914194,-1.4153438251107329],[0.3464254769774978,0.017320570316578635,-0.1427469161451204,-0.4478227954164947,-0.9807745471716836,-0.973575043217924,-0.3062170775074373,-0.46990206513080496,-0.5761069585944044,0.7747691120717966,-0.5298862128680915,-0.5840469375570685,-0.6360471041860584,0.22774477250003,0.4269164133050088,-0.08929029830688343,-0.01995410830475529,-1.3131034110270776,0.6105541198154633,-0.5038159995339032,0.2997069516804043,-0.014064347065499978,-0.6400165008427535,-0.9805159991164222,-0.4355293703443004,-0.48185259177151,-0.10975112918878073,0.2015313727738291,-5.2065278732850695,0.9548689829927266,-0.8598284210766004,-0.16265220335054006,-0.6861223499806886,0.35347145576989714,0.2520191382068032,-0.051083091051455996,-3.933174693743829,-0.8673806927968648,0.49332610075494415,1.0122414340554646,-0.15529059932641026,-3.714787180104877,-0.23676252107259074,0.6317297307253623,0.45168047863205707,-0.8430308316604356,0.7641690366335475,-0.07051107566341251,0.24212166747044897,-0.29917579573551106,-0.04412193488299121,0.09404874907189176,0.8249972116977478,0.3291801233088919,0.481505638402248,0.3986949766997629,1.0646624736544639,-0.24370544282598763,-4.118912532566396,0.8584209186489241,-0.9666937404947392,0.12325225845869571,1.0783266464224897,0.5140032651726166,-0.5790401529883612,-6.201857526101163],[-0.8901498245903839,0.6260314957890664,-0.0609968469969138,-0.9933605529203423,-0.3653172934575196,-0.1828520054966058,0.9170224471455932,-0.8270276924532135,0.32940882179771386,0.17525611273025715,0.7856007459765565,-0.8757490662482202,0.32094885028815345,-0.32522950542757406,0.14639715300861808,0.6488362034597537,-3.7293062599201012,-4.244378390669261,-0.914438934519998,-0.08091585287548814,0.4301568212046457,