{"HiddenLayer":[1.3454624537898065e-9,0.0007859594619402839,0.0010298878586339885,0.3950183312945134,0.000130580800730973,0.00006255972740174026,3.0775185285950694e-10,0.0000023689417079545368,1.4966246864577363e-15,1.3994996656187021e-7,4.69046735395169e-14,1.799935690591195e-9,2.1216331289381842e-11,2.0410784462516083e-7,0.0021011568051961214,0.0033761427002189353,0.000013102429830475704,2.1097786213973618e-8,2.1035909226939756e-7,7.61283822782396e-11,9.93201000356913e-36,1.043779796534731e-7,1.6415654841732069e-12,8.309764828980653e-11,5.401553786120312e-7,8.410714746254884e-8,4.4650063142473185e-9,2.7626226377384903e-12,0.0004459315789926401,3.165297868930512e-11,0.0012000436938393439,1.6613597874383578e-8,5.61732544750191e-13,0.0006475114621895562,1.2207689901725901e-11,1.5507471717664905e-7,5.930253466309495e-11,0.000008776072231502963,5.016234110424398e-7,0.000002332965660360504,0.01753187437882502,1.6179026590270428e-10,2.7372062303773782e-11,2.3588535981069892e-7,0.009599931217122921,8.082686899198192e-7,0.001278427317464527,9.119600973899622e-12,0.0010677185981388638,1.0927044341539847e-12,0.02399326722217205,0.002472111739723096,0.08417181263341883,2.1623826059162882e-16,3.9913891303047665e-11,8.182030272944971e-10,6.04009434158811e-10,2.8077648610311e-7,2.831693964026743e-20,7.530028829417028e-7,9.988549044040663e-12,3.6363520375773384e-10,2.6388782107230363e-8,0.04757420538203833,2.8645711799771594e-7,0.0020983772320108856,2.8893158903922893e-8,0.000008506318265192837,0.000003953457372038073,0.000039522032872689534,8.083738734245454e-18,1.0569369303093476e-12,9.75409573913553e-10,0.00009722654375517106,0.000001931405359564575,0.0000015521445385114628,0.000054283035206335956,5.327300242115576e-17,1.2681795597043332e-8,0.0009317508786124476,0.021525237007606002,0.00012112743744594449,1.111991040115869e-14,4.655241092175431e-12,0.000123449542440315,0.0000013680165447542133,4.773604128518074e-14,0.000010156111323814684,9.751020612876038e-17,8.526008834262003e-7,0.00007474406642427338,0.012526477411636679,0.0000020251175259647695,1.6031640442909127e-11,7.71630561400202e-21,6.755905055864525e-8,2.763737760045524e-15,1.6527876570135146e-13,2.377495830574247e-15,0.09300870088764732,1],"InputLayer":[0,1,0,0,1,0,0,0,0,0,0,0,0,0,0,0,0,0,0,0,0,0,0,0,0,0,0,0,0,0,0,0,0,0,0,0,0,0,0,0,0,0,0,0,0,0,0,0,0,0,0,0,0,0,1,0,1,0,1,0,0,0,0,0,0,0,1],"OutputLayer":[0.005425781093944801,0.0025515246578952933,-0.0023063196481979027,-0.008153381234887985,0.0006171173148877829,-0.0006761025525850659,0.017000476079124208,-0.007410099865261078,0.0010204508433499584,0.01829763541794166,0.009675496448929434,-0.01480510326613732,0.00303237123437085,-0.018013173795411314,-0.006633598114774486,0.002288101878052548,-0.0031053744725646343,0.005717666620552939,0.012229517259945089,0.9877498434493335],"WeightHidden":[[0.7401976190317313,-0.09502261782590786,-0.672110008207313,-0.6835291805196708,-0.7504157127899642,-0.4930405999625567,-0.809514695873642,0.42723192698602735,0.7249968817452535,0.9899287387067842,0.13767753811803735,-0.29709366268672116,0.9611772551305435,-0.3003792271233858,-0.4420394078393189,-0.4837769648551423,0.36228629837260923,-0.5938702485582379,-0.9910920436425281,-0.41266614437394844,0.1627033078583699,-9.39110778315366,-0.5101260342328768,-0.1158431888663128,-0.4301511693188055,-0.42813656926367005,-0.34374986665113844,-0.6649711918761384,0.6999650871568204,-0.5546932048290646,0.26867795175518183,0.8186686252659712,0.7192934123707881,-0.07618192941450487,0.48237091837603335,-0.45945569954372795,-9.499060268141507,0.20334192494849826,0.5256264860953571,-9.960196853209734,-0.7645420166681048,-0.8051011783758851,0.8170149168347105,0.5451104917083136,-0.5476649259518546,-0.22697458373417276,-0.10432011593031096,-0.2679091768204877,0.9861895683037637,-0.0024113220153171872,0.5385082720756943,-0.9253213486364567,0.07889529016527813,0.34367858979893573,0.6505648423486972,0.782450877770352,0.6358724159385686,0.8659465719296563,-10.412752809258613,-0.25028971214327755,-0.8124589353548967,-0.25173311329162396,0.04111846104534313,0.20020043924247563,-9.293508893703159,-0.7667435151175327,-10.454774246999099],[-0.08139746443812179,-0.5470134047512137,0.19591450473342387,-0.3487814296450619,-0.681468387778206,-0.220168281066236,-0.5709853478341691,-0.4837822155269106,0.3961989575429405,-0.7269429704070074,0.6065667228717472,-0.6232761524155073,0.7420648588049661,0.016992282146352723,-0.47948507079468417,-0.41677042886052307,-0.7407770004741873,-9.271350770070457,-10.054731315305704,0.6737769231599122,0.115562597785694,0.5312213843938078,-0.7539371809055495,-0.6132666629972386,0.23665665648680426,-0.296568144483443,0.35814782671113965,0.3931215153691951,-0.968132046449685,-8.589604257531219,-0.18388399644434128,-0.5866230867097627,0.35431301614853966,0.17950919690793965,0.868189535798365,-0.27915400002515006,1.6585847860074105,0.8003507671932459,-0.09929301249884595,2.7540050276108916,-0.019805439702859536,-0.7215867013327597,-0.1545742994145201,0.5206293707308605,-1.1541291802489886,-0.24792881133647146,-0.1328426300301679,0.4208552290092543,0.5748036020128838,0.44650682109115286,0.8684675645206873,-0.5129629271275381,0.8638100239920641,-0.8706812221726926,0.6006230654548088,0.4548953075228113,-0.06563428560755638,-0.3255679017539158,1.7913206789261988,-0.37437341138410873,-0.6148961991964361,0.19715352979244702,-0.04379847256338939,-0.7835512113125715,0.0788212152068681,-0.34738524360063333,-8.245655537543941],[-0.0386470755521308,0.08792701323784444,-2.066222541547861,-0.35079605306479406,-0.9833406195869987,-0.37301114107206423,0.8110176755603581,0.21693125035256744,0.7467024498090401,-0.536338209897133,-1.1320087800759437,-1.3832718831664905,-0.1671353163333912,-0.21837907253413272,0.6633242467330565,-0.7546604579624279,-0.018930406442761602,0.2616106082876036,0.7843405376962075,-0.5901088096318258,0.6352652618513791,-3.153961018470216,0.8255099701881269,-0.9880809778140746,0.8367335738821854,1.5180050323727348,1.4890925051081016,0.14360896010511862,1.5418751249544835,-0.28708760434484976,0.17130705452730977,-1.0244128880023748,-0.32706198994140734,0.6640159340240834,0.15308669472164183,1.461917677540027,-2.1910548156354013,0.4414898147659015,-0.4596193973189897,-2.2822822231542266,-0.509284269165326,1.0102335209143798,0.05071630729773968,-0.37128063007439893,-1.0440856540617875,0.0368653112570207,-0.2770395795205283,-0.2968197578678471,0.13363966368580277,-0.6110487756907071,-0.5299122617690186,0.662646710335651,-0.20809941674334548,-0.2532830495258012,-0.840863215863855,-0.3946232015770281,-0.1252248903380866,-0.17450599107285872,-3.0855031572159666,0.22477980151005542,-0.09767933600822105,0.5800901337540035,0.04081361347185367,-1.2880824257313586,-2.3970551370602893,0.5093838754175187,-1.930418468695773],[-0.47279115622143786,1.789481236915431,0.44635306635847904,-0.14908234250889657,1.6921302374741432,1.3220824162342468,0.3145215946294312,-0.5692283579003766,-0.7755748226497903,-0.19627677997000004,0.7296803213837786,-0.10615887095351664,0.06599676444476833,-0.7470211800383096,-0.04731903786067878,-0.20573654418595044,1.215388817257693,0.12710263524822027,0.43998723702630826,0.6866084557183035,1.6860112465110404,-4.283442609277137,0.3974450123134051,-0.08993977847667735,-0.1562097699111697,-0.19103119553829642,-0.3178891982810808,-0.2672286757211235,-0.12429933918702803,-0.5936246156754276,0.024372017477005306,-0.6110869416557687,-0.8206018077637882,-0.13760741371780036,-0.6479004006857374,-1.1876071879396026,-4.025295315792776,-0.7102863713958659,-1.519801226208058,-2.6460107967661073,0.6279046851851959,-0.33221148039070914,-0.2892346233960661,0.18076963295956433,0.8059358485378555,0.25106443758429575,-0.8150442675055872,0.1370721063295829,-0.19506975731192833,0.4923093938806802,-0.20078822400651009,-0.5980737774476965,-0.2176355276307115,-0.7274857191091388,1.6446128631208472,0.35941350572778896,0.7394451057259533,0.24693231224042544,-2.2401140789341403,-0.3715955282098664,-0.7087883056549934,0.1904976748990554,0.9055054171240423,-0.6571556225693532,-3.9303728798218436,0.07817809774625309,-4.040801694418083],[-0.4726185450094183,-0.46766568053667346,0.31754598435591735,-0.9064877307143812,-0.5966044617262759,-0.8905837072139278,-0.9414990379008201,-0.20884469989163953,0.7508831457555069,0.4264266865562393,0.20656757200907525,1.5456354175014215,-0.602299500166351,-0.19338888800375154,0.2811942532664674,-0.0531319369406214,1.002721198722715,-0.49467528354794843,-0.07313759724488855,-0.2459815627606488,-0.2754770365289417,-5.254997233135468,-0.0863357620462983,-0.21109577404685484,-0.48238619599365073,-0.28439082881508704,-0.2233602586682358,0.2704814771369997,-0.473648470364509,-1.8016200577496009,0.2653185507397817,1.8817862799966523,0.07111606962414237,-0.12899017713937258,-0.5176131412616846,-0.17105448970969933,-5.219558945674685,1.0899970652104007,1.0107915049969336,-5.30048884010549,-0.33476261007761615,0.6597462681981989,-0.30096004013651645,0.7468795631337315,0.1832990513325568,-0.37990072326193974,-0.42992354911968567,0.8236679552346461,-0.11164247554958537,0.1271875403562738,0.2884398570789527,1.2250332421439196,0.18109597931906055,-0.8287510408814138,0.8550850430103203,-0.4064326627667772,0.18973640294775043,0.5109946739047466,-3.864507285808822,0.114885670613883,0.42506760234115293,0.9848377775653099,-0.4139206588045589,-0.13150039194912824,-3.7231722019598354,-1.105804163839252,-5.059463578367891],[-0.9432209524071257,-0.9387561282226966,-0.9338487242034489,0.9592945953749793,0.4400192902216384,0.35142394185478765,0.38987511318912366,-0.1703385754785968,-0.5786370071691123,-0.2758153011361946,0.5446923275595437,-0.7849664766563158,-0.07041513666688036,0.4494944803966393,0.6473991426379493,-0.6733359357654998,0.8187481834606226,-3.6410351855308636,-1.8210828437424982,0.6429653314994408,-0.2666382355147965,-3.9831358089421562,0.05719130568662291,-0.05932689976663571,0.3179835913699339,0.021600294537590305,0.008781769272697271,-0.5256202296496928,-0.1749036736651641,-3.113364711148997,-0.5487885659463894,-0.9252718681513458,-0.8354650196001616,-0.019588234539780282,0.06527355730406079,0.8579549529834392,-2.845019709750061,0.7210808126703309,0.3283980847124561,-3.4144990238786375,-0.981006852948614,-0.8085772959798343,-0.5811743418574662,0.7172138734575089,0.5688343322788287,-0.7844730805525825,-0.24923938740755144,0.6018653989548963,0.2421803180936487,-0.6875462209940613,-0.5861746176377082,0.7448208188887758,0.6672030640252815,0.7361505667171248,0.7069959721860191,0.17008346220729992,0.050305883562698335,-0.3725556419505865,-3.342024320124225,0.14887980093234368,-0.5723911076970241,-0.21753800203088206,-0.6288189147267418,0.6279874828718148,-2.9363575341658246,-0.49842483446426916,-6.595870543562422],[-0.16941952917086872,0.7264648595486932,-0.8030635029376054,0.6242537178409077,0.701069124375437,0.9015667127008198,-0.5388747060815381,0.20722239323639285,0.4420619226173981,-0.04761119555770538,-0.40241556819863633,-0.832040651756283,-0.0984269236104666,0.10359473748169903,-0.4183098542525772,0.585808601721203,-0.9072307696498545,0.5889425826609296,0.9622970242678961,0.44462188592243446,0.7139320565939468,-11.474723889975971,-0.35630570630843394,-0.1966165768010371,0.7176950839926861,0.9634477549380941,0.8590138383152212,-0.8789207977367667,-0.012457662369614469,0.3555859438564735,-0.34188234895538094,0.8010503983157259,-0.7899447088874458,-0.9779165146394058,0.9301875132127415,0.3760912009606656,-11.745500220263432,-0.10908225875607488,-0.39541088590341394,-12.187751729594618,-0.9506735645479072,0.3042006362184282,0.2201019053275451,-0.4832258146108187,0.15845099337782637,-0.9367646665142032,-0.7397605840896986,-0.4140066553075626,-0.7728402818584978,-0.6231164764974223,0.9602564430033167,-0.9232881852743033,0.4595834502430633,-0.08438684178718937,0.7065275672440456,-0.26152733679500945,-0.664583972582559,-0.931247308395481,-10.994537133818763,-0.7651595258753328,0.6527472032944522,0.40771069484689226,0.790919702626789,-0.7209322135661528,-11.723581314378134,0.20462461522913017,-12.376667783174442],[-0.8243200272429442,0.41913597854558693,0.7050667100356041,0.5056028329231369,-0.5022381814885681,0.28246636071690845,0.3535646152658868,-0.873848905235861,0.5531591570914578,0.38263503972095925,0.3133530075620577,0.09827836851074147,-0.18049196819574673,0.9637093186155719,-0.822271266446731,0.6518230195047521,0.23330864627444642,-1.9632575753413528,-1.769061274711019,0.5465654602059429,-0.31174304856182017,-5.480397377562699,0.698307842579349,0.8752365642362168,0.6619167734734146,0.31049351809109166,-0.8553154038720947,-0.5616242216150649,0.49000326555440493,-1.8197929293530055,-0.8417785821952615,0.013013272376438319,-0.11846014895537015,-0.12729596941371138,0.7988970765924359,-0.8705810221609015,-4.395008620036391,0.34031486677126,-0.9115192063680232,-5.33027008494092,-0.0007676319991095758,0.45861573004305567,-0.7052993616725219,0.7731726856594097,0.12734374441660495,-0.8872299431093298,0.8845002326705357,-0.9915185073414119,0.5220188569281691,0.6496055778228099,-0.5148029898996352,0.9267033283931226,-0.30089560982331764,-0.1413540468640182,0.1769828676998767,0.44970900109819884,-0.8433968310086517,1.0349394348848995,-5.348997761498627,-0.6911463455741459,0.6736959490052078,0.0552157909543998,0.16977520060267745,-0.3215142929140443,-5.542238516247419,0.38508632929770653,-6.854551796099129],[-0.3087568110024503,-0.6284086649148605,-0.5615156464084465,-0.2846145013234459,-0.6675249818308527,0.7306238156077259,-0.2168402839647976,-0.9086474048850208,-0.9619667205121,-0.9015843577443515,0.16004196635418594,-0.4896579479803539,0.5713713490043555,0.6388085322464532,-0.6166536711234633,0.9466498296685658,0.36001232095215424,-0.5605792169346402,0.08298906827488567,0.8622768152124547,-0.6257634358834724,-17.244382876375713,-0.15022091845125093,-0.7873735733831682,-0.20620987106503466,0.5822682533315364,0.2793534389303659,-0.5682036354333887,-0.28837807418193007,0.5113452031092441,0.6224627738597143,0.30658210621750553,0.19406841987275883,-0.3837485777891509,-0.9445651056031473,-0.6709775751322652,-18.41187875928771,-0.003927481254493839,-0.23747348699244078,-18.0882333549398,0.833027564012166,-0.848586948008617,0.8857514726276916,0.7547687970641906,-0.5247468508808162,-0.3215259903353922,0.4032035821999925,-0.8830122537415754,-0.8291989037443962,0.7858442082514501,0.7451764843191498,0.3811055086982988,-0.8141313739492533,-0.18645135718442074,0.1886814109771388,0.7309785694721941,0.5490621344006723,0.2602840896148117,-16.914411662937095,-0.9561009771301452,-0.1280226228904341,0.41260290595953925,0.649128812833222,-0.1323453797212355,-17.01157232291567,0.3027853848464105,-16.662962267335462],[-0.7572894139595571,0.8373899445222446,-0.5953765986469141,-0.8420342929156586,-0.6503153906940238,-0.0007180874888900239,-0.6743896327488351,-0.5935697515383203,-0.7886832871681776,-0.9046017282460906,0.6035120378172063,-0.1968747486519277,-0.4256258379081608,-0.5688361065490108,0.8494864027742592,-0.8285790454935158,-0.8232240174339501,0.5155649032398375,-1.136750804389291,-0.9087548062227944,0.7958508242171681,-10.02528559372358,-0.8952806447758044,-0.49887028558596297,-0.2144199431583195,-0.40850557662489567,-0.3194834434979958,0.9409650232593576,0.5538662991879083,0.7432607202054023,0.7257749488939469,0.29025261738631153,-0.7530009258012389,0.2604264612029984,0.8970680297729003,-0.7116592213423995,-7.641007407196897,0.02968197270300697,-0.5512752051084563,-7.5245687785034,-0.7637720053278584,-0.48382045233642645,0.3490454879025924,-0.9398800617093672,-0.26945533677888367,-0.776256315877056,-1.0009793609910602,0.9585804808018488,-0.09196231273112117,-0.6242844888500301,0.11477143592060361,0.49053254763497006,0.8845162264694282,-0.7608767086344197,0.8399655587435412,-0.5138717691494957,-0.21514867604914906,0.061060383523669666,-7.950285396546769,0.4546145808392063,-0.16998501912016373,0.280937229915294,-0.08209028516549068,0.5367606870156734,-8.881111244539245,-0.6273149241352276,-8.643588071931568],[0.6206257338629285,0.6429419734479012,-0.9802643522243424,0.3680448091550173,0.7028553156066193,0.9445529436605572,-0.0731241122277455,-0.15589578063141385,-0.41078926235680685,-0.5290706764635218,-0.6695040240517574,-0.02258598885279204,-0.5565286074914942,0.7048557921694549,-0.43304068827037395,-0.023235256801221855,0.9101841937326671,0.9358464354381205,0.6261639531292553,0.16449935463600585,0.8496670940080052,-15.382387089549034,-0.9949931271397443,-0.04153778878292168,-0.20218484359793526,-0.8283524865187675,0.8221485279143811,0.026883345171239425,-0.9560635078190799,-0.5830010673445087,0.331901338853772,0.2311547834832606,-0.8463456746133348,-0.14632113688397036,-0.8152762028922165,0.07139763142001783,-15.425551204403535,0.38932572715471064,0.976027970144466,-16.133907930818218,1.0307322348507981,-0.1360385407355989,0.7906597756721695,-0.7734981018933885,1.1080860682428244,-0.4232230252842972,-0.8503763890761965,-0.14642742948947435,-0.2747873500873169,-0.8640885886666577,-0.06961353997528717,0.7673348611915252,-0.8494390901727681,0.6968291166913844,-0.76456273223839,-0.5528240403404301,0.9365026614074359,0.5837617370552913,-15.908462991605992,0.15711207104821404,-0.5721258337830623,0.006968108575657634,0.4001407734602718,-0.5489884830457633,-16.04380341200823,-0.0042114114573529714,-16.29993330232817],[-0.9962424071790829,-0.7147152991961564,-0.660480011151653,-0.3514829617469023,0.5248627062284568,-0.3129881824058719,-0.8448834157280524,0.028241017491723478,0.7747129118751013,-0.011340271967657408,-0.3561588520603777,-0.3169308794558557,0.8258926798294799,-0.42524675964306996,0.5915024840662,0.6760084941007898,-0.2685124221458305,0.5719004298626176,0.1518898742542267,0.07115220806534017,-0.3125824755690576,-9.903970601983517,0.7652503403351786,-0.8144552331903653,0.520401189682638,0.36107748757810176,-0.6552180434114075,-0.827460562688836,0.16075929979262701,0.4284869144372009,0.894677109468644,0.4420398959820118,-0.9197104270084794,-0.7468287338581129,0.08775062595879361,-0.7777856269345333,-9.14249081591142,0.6290408863486072,0.9321768994591236,-9.138363389901814,0.1251919057304766,0.3490168918539648,0.8596295770658392,-0.04222503427733896,0.6487629775554272,-0.043128756836310456,-0.09929187053067222,-0.3593200084901207,-0.9925219934006031,-0.16265024473988635,0.4815035775143528,-0.45533659686347167,0.6949450011877715,-0.5445743564299113,-0.4075008844057368,-0.7554526031180546,0.3161413649538829,0.7577201138180247,-9.655477035134767,0.6157235482886658,-0.2056738710651901,-0.6654518487575399,-0.9492824607667801,0.013696220931598543,-8.924687224269185,-0.076797376693638,-10.198825965630489],[-0.08561030991430894,-0.9242691094901334,-0.8942178956120022,-0.1460542609346213,0.9881290569432545,-0.37954997325173934,0.9903952779733627,0.28971771602339375,-0.3617369851125785,0.9844332338748946,0.7308901522045285,0.297433784782919,-0.38684173295348007,-0.5200489808521608,0.5046761451362002,-0.8391718028421022,0.8199554604043146,-0.7349794950823011,-0.4956195953116114,0.6573730879879749,0.3352666319736593,-11.53014601077204,-0.9631456336542756,-0.2317838575399246,0.5787019290174629,-0.21985985624045631,-0.2906039719122263,0.5716769398623328,0.091197971620965,0.5084283027262178,-0.970944115966028,0.23604450694784546,0.1500771700937783,0.9861932140206551,-0.5924406827741799,-0.6226430666834721,-11.255001937634288,-0.9073725532541185,-0.25057758364008476,-12.570176197756048,0.280501259415291,-0.47894463319442077,0.47617246586742407,-0.47676302116584396,-0.13061958299734638,-0.6778351670873153,-0.13450623929756106,-0.01351736320671187,0.49613244010122465,0.7317452778631539,-0.061699420862488794,-0.6785903933793244,-0.4400499791619034,0.5157696979624169,-0.7766527563210932,-0.487030207632985,-0.7637557733048568,0.177174409622269,-12.271475879168115,-0.01657134882617548,0.2616709349995929,0.4476697697645215,0.7842058045557256,-0.9776562438008414,-11.874615700053301,1.5131294917738962,-10.82822543808009],[-0.45338979882813873,0.6275866998709326,-0.6398177278324233,0.7467563941201609,-0.6489486340807757,-0.6171902622271676,0.15924237482388234,-0.542675687058389,-0.48300704354038654,-0.5147774910818449,0.05358597179150562,0.11533853823221034,-0.8744227665000248,0.8501927588309199,0.3820363101767714,0.5219237556390238,0.1926656155005477,-9.617341407808143,-9.385511086442065,0.15065052822331834,-0.8201142071097346,-2.697521792617569,0.4477289165488028,-0.24368001190720476,-0.18201694939017052,-0.8748310401960518,0.060533686310090436,0.06567739610311053,-0.053398726404299775,-9.467216509634397,0.39665396171566797,0.9077186715434492,-0.44414246893965925,0.7219177556562317,0.7440476025946061,0.6989207116107338,-3.325844286224209,0.12204350059406488,0.8849477770148773,-2.783067281269248,-1.068231214287703,0.5577536797027395,0.03214893562481726,-0.35817102002273543,-0.962272702229708,-0.30759636325538403,0.21571256575035022,0.06429507747704587,0.6311439766258603,-0.8479658297782406,-0.11631928808983678,0.9726844426428006,0.062159128712434314,-0.4409928223607108,0.8992473313937754,-0.5677888574497607,-0.20226585822546078,-0.9358690941616008,-3.6192898891740186,-0.9572393024764179,0.25767357322236645,-0.2828453774308379,-0.3120101778990304,-0.3706036891699115,-3.467649514888879,-1.563633910811227,-12.460946774157584],[-0.2594311887107165,-0.2811621430131662,0.3187116174184294,0.5184629803007164,0.18199989386670518,0.6207886320093227,0.7025045553210523,0.9785169543513876,-0.5386825079934161,0.13417205657074874,0.08174814618780227,1.4183060419029574,0.25298709328783936,0.3322182872534986,0.9027871853901983,-0.43063126140276026,0.7557925305337633,-3.742732753707122,-4.350078429740943,-0.03595868360010803,0.021530195697148913,-2.0977608329303754,0.7288288261832874,0.4381067336653481,1.0256747844370042,-0.9554711084075025,-0.775155240692894,0.08963347550978885,-0.8304295976798635,-3.747641785647367,0.14345753335188163,-0.638982960378827,0.19630573337693327,-0.4628876279362721,-0.052090643536672886,0.45525040634765646,0.09025027025632583,0.8704179028736427,-0.7799037451299257,-1.2833164615134813,-1.4074722847799603,0.04745907532725813,-0.2823305737671363,-0.3570065748767086,-1.1530567243072063,-0.9085466673381274,0.303666555316754,0.745113960462112,0.8755268757778464,-0.8370606776385238,0.39456648733182387,-0.9618583615665862,-0.8837593848311142,0.43594142609193054,-0.2348062896901362,-0.3574304415126674,-0.18963361558451372,0.9883649832720669,-0.7428702486292096,0.45670411561447294,0.6160790369728613,-0.39587189350386226,-0.581396380565695,-0.8631800364017775,-0.524022914322332,-0.6334202242948165,-4.896619229751857],[-0.020350249033519566,-0.05397579586188967,0.07667202893034354,0.5219639289361033,1.5675755361579549,-0.5917957602998606,-0.48341187714759554,0.9415224359937902,-0.6628052220621202,0.2383884604503271,-0.3524773499086015,1.504749147607277,-0.544250211354154,-0.5840122797493578,1.4579306129224565,-0.45877709395294963,1.7350160588585706,-2.3270773565500886,-1.985223955028357,0.1737485130770332,0.4934912936020855,-1.8031617062669014,0.7483024311351054,-0.4904801190073714,0.11338254752121188,-0.8518877186186538,-0.16390160499491332,-0.3212842902729236,-0.39645303490249667,-1.6124058151746243,1.3776432014102564,-0.29855170574962814,0.09277395866408802,-0.4449510649668317,-0.7423214136120864,-0.6354102187899673,-0.8784458592450818,-0.35046908194190485,-0.6056963881731793,-2.066393084136935,0.24952457262204122,-0.5575070307514562,-0.7087855533838199,-0.7769626191552246,0.14558177934999708,-0.4218558255118235,-0.5058779183891647,-0.5713678773835906,-0.8564867429995813,1.5861196384756138,0.022407322076790314,0.7306857514798937,-0.20582324470010313,0.15652608673172255,-0.2897236483613195,1.4078438066275534,0.02795252846952672,0.29168622835731467,-2.8564956715040375,0.4071722752076042,-0.5516483172602464,0.2679137005380686,0.5082580214321037,0.2196736995186354,-0.8249590151037308,-1.4929025922994708,-4.083608002486157],[-0.6600916391776753,-2.2608232716504397,0.3287117535499398,0.08073730434667144,1.0044200202686429,-0.6691280616464136,0.8322773126290969,0.6258398600428955,0.3544178001153627,0.36357593176276515,0.5519374509426704,-0.894880376088717,-0.6304423026606296,-1.4528192784953122,0.275398104504666,-0.17407946283904863,-0.8627752993045885,-0.49087252274223664,-0.4607724891086235,0.29783041979076924,0.394932439998291,-4.196091609207279,-0.9097651230559124,-0.9389070725934322,-0.7031613291333468,0.48700987382315925,-0.5875044350324411,2.8411622398513807,-0.4976072988464482,-0.7474301155226674,-0.034876563982251654,0.10620124510696212,0.04377070051026742,-0.20774399495362114,0.34486945865027774,-0.052410805468863515,-5.423333403967578,-0.908563910783259,-0.9851022094820389,-4.93997662621777,0.6819947737350428,-0.12749791119213952,-0.817405804868868,-0.05927084079199701,0.22796648002436065,-0.8256209273277924,-0.19561594679950844,-0.0502676771398099,0.973884351968428,-0.5423999537886636,-0.5279136366406811,-0.15990991978191202,-0.5032404657561836,-0.6894430724613673,-0.7777014846414294,-0.11117261510170477,0.5961554537814645,0.49359316971098033,-4.83432716340823,0.4208204147754076,-0.9294962114082306,-0.8843550755725175,0.5734365915269506,-0.17082329976602467,-4.929777178196236,-0.8176190376551268,-4.970421918892959],[-0.578207803629202,-0.6322828822332814,0.8262965140480948,0.4627431468409239,-0.9158320179558086,-0.0820353597480266,-0.9343056024523179,0.0886155241721357,-0.9207348840888868,-0.9184999055806484,0.17384590945472184,0.24778065268351043,-0.5033392089526582,-0.3836185408078249,0.6471818193570261,0.5521714099682838,-0.3133697375584072,0.7668913134554782,-0.7765883258364201,0.328721859760121,-0.11813149608734164,-7.611215812224995,-0.4231457894832135,0.5792039341956733,0.5196212804456806,0.288443168503958,-0.49887579812226246,0.6605269325541644,0.5530806737411651,-0.6140271937843174,0.40041668258667507,0.4933476161677297,0.7772349738737977,-0.541585261999784,0.26122736566978505,-0.29639833004953975,-7.919764092548807,0.1528529335068266,0.777484983818929,-8.94825985074685,0.5424597659661856,0.39151750955174136,0.875748945043901,-0.7256327214187018,-0.5716756266269046,-0.29005706932083386,0.43477393982526896,-0.21344491719056416,-0.002326045764028112,0.33505731368724034,-0.9044884266656239,0.333588209709746,0.22628547392590023,0.4163838137529697,0.8971268721789436,-0.7379338671189806,-0.8405722956059545,0.8691298126923405,-7.2735890748137155,0.6252048853882832,0.9827812389097873,-0.9416687988255691,0.6184965271103329,-0.870602259074084,-8.328621978935908,-0.5532776413495227,-8.908948661399688],[0.5493170050637164,0.9757592265714695,-0.9350696705895647,0.7589705414441723,-0.7610250165971275,-0.8552126032393406,0.825507108478028,0.783536109956612,-0.8418512623936785,-0.10059279263517708,0.9571325602446052,-0.9229333609621415,-0.8095608209154022,0.045967927220330385,-0.29327592836290545,-0.8591740280146045,-0.6873036987107826,-4.918865843357891,-5.436945435193769,-0.8720689194514206,-0.28035463607012834,-4.79171837085236,0.8958174831548419,0.3596791346470796,-0.20178217423437303,-0.03305264359865039,-0.8778059689983356,-0.6427920755255603,-0.9245762369725936,-6.109084688043019,-0.3012544201572205,-0.7441126490340692,-0.49501440119487583,-0.7949675842159362,0.5857619223670452,-0.5120382638065996,-6.638503306865732,0.0945598903689334,-0.4243221322929831,-6.083696469001728,1.127397643022381,-0.5166323013055788,0.5774382508509757,-0.876541869304071,0.9822879178960906,-0.1035730316565384,-0.38368629169364976,-0.2247432924723944,-0.7499219736281663,-0.10478394246005146,-0.9050761664956481,0.24386631193972755,-0.4124774542010406,-0.7512869229084386,0.30697568565654504,-0.10356175500856867,0.9394647552310964,-0.666971906888109,-6.39584764844354,0.03180160936244885,0.48736864326083584,-0.46682513744297355,0.4563284353418778,-0.11345115840819707,-6.064790758013649,1.1392869205843397,-10.439776780897976],[0.9553464092400139,0.3778533737608018,-0.23816405687242964,0.01788693627499276,0.042078010411354,-0.2745148452774296,0.6967592177065334,-0.4578275499059699,0.35675034315842946,0.13529156658351124,-0.3407852797492224,0.3256608938616732,-0.4491891894361833,-0.1779420400868148,0.7634353164442206,-0.8741968399696801,0.8058700142230397,-0.8497186953055863,0.2935427922455565,-0.4372393934495099,-0.2784670562820466,-11.412888988796066,-0.4492908852215211,-0.6838797806592636,0.024041293294298015,0.07113022238353182,-0.6616141604112045,-0.4024401454652723,0.5069338447292161,-0.04438608015356662,-0.920072613178238,-0.5046810821219836,-0.37145422699507225,-0.67826327755805,-0.1692568563607355,-0.5461266863776959,-11.892256053727369,-0.9905718632362881,-0.2876208992728794,-11.199979119967443,-0.37011881590270007,0.04133508275175124,-0.921679307018885,-0.16338286574077496,-1.0606524869832339,-0.8388670250547607,-0.7550538101958619,-0.4997986431171321,-0.4546824768092722,-0.5817347043536802,-0.3970598922568356,0.42208232512377336,0.13436924588113044,-0.5264082539960673,-0.3182226200482915,-0.015835810442216623,0.6426602630144999,-0.43501673896469517,-11.88962536575579,0.2621923502636479,0.49466170989610286,0.5876990913711586,0.4966556808909092,0.3250415803095277,-11.178164647874139,0.16003059921315393,-12.153343634598068],[-0.9668322937432431,0.9008564311931202,-0.8209552994813014,-0.43696816229555135,-0.8684923767648925,-0.3779879645790948,-0.3024241895420753,0.8841550269663476,0.1789887191709849,0.5733528877410585,-0.4951006757492201,-0.15916830363970147,0.3955357336417773,-0.6527997487865531,0.7822793052123516,-0.35819287362610586,0.9383020803779705,-77.4617668120535,-77.26275901422528,-0.008412830118155412,0.5816066815314562,-0.3511930501032518,0.8398534961363986,0.7378288985641044,0.9852482468355241,-0.7833261461775773,0.18459219997929255,-0.7680107739084252,0.5899424025281459,-77.16331758515182,-0.9191797871812527,-0.40755692440105296,0.06387576714722853,0.9934634146330101,-0.23062255960613054,-0.6396216032620619,-1.7475585487415013,0.29941539579803633,0.8872550703328284,-1.0827899835528438,0.40258308108001045,0.7864845608388069,0.9474383102678476,0.3579341318075946,1.5959223369171593,0.08986493511136318,-0.24971190680045585,0.13770438739609903,-0.13422572151816592,-0.7108067341871998,0.07563803795056767,0.4589064516886352,0.2806334638701633,-0.39562340708957044,0.8951214948995425,-0.20791695157270262,-0.4188182293863312,-0.027903954358072136,-1.3162009286260474,-0.5345824890493149,-0.8666661887698238,-0.1819717365169098,-0.5295876368289252,-0.6471414731510801,-1.8366561875284668,0.817945659773014,-79.78976686424971],[-0.4215402473951471,-0.3491330764949791,0.6425247900805842,0.02477617807847387,0.5581118497353178,-0.49770999156759166,-0.5294124841964496,-0.3253466716055403,0.45156032193954887,-0.2997349510239457,-0.089255302359671,0.31795691015122846,0.7387929221372407,-0.91737118057706,0.8185370124098036,-0.5440150875306007,0.9098580370318274,-0.04314048850938706,-0.898831519896163,0.8090728219887876,0.3826602788209342,-9.099686718003571,-0.717585222821585,0.8437532049695797,-0.33805992347286173,0.5419142629674618,0.7169513372884926,0.33253059423368975,0.1815188001062943,-0.7060984314353224,-0.9972391091757875,-0.9223311831800135,-0.24864159949772308,0.06780377163398384,-0.5766511128211208,-0.3595825993534748,-9.064612221439205,0.6861348430064992,-0.14726230972434146,-8.068187371959475,-1.1192582487699088,0.1957556100707899,0.9096316201022115,0.9763588651089057,-0.5635125444384105,-0.7143641295008378,-0.13272006499666547,-0.5989051851968322,-0.42767596025536553,-0.000004846820265153369,0.5724940316642859,-0.5659636391846303,-0.7182583241602498,-0.31996022934406426,-0.7188352959859864,-0.582951938799831,0.8577794012443798,-0.2470805343963295,-8.066545978575514,-0.6036011378033146,-0.4735761637833255,0.33522084452866363,-0.6177850340962319,-0.2820037579525702,-9.162633657472336,0.08242268526790698,-8.356624496195295],[0.6525357123249321,-0.5198700299872034,-0.14016311748485957,-0.9366124775166698,-0.08761590343541104,0.1834824243386705,-0.6639161389948045,0.8108988477319309,-0.8907368386029558,-0.3776591026728997,0.30031445191204814,-0.7171285312113229,-0.6994355881107337,-0.35658470267274706,0.9495929450935169,0.0694122726381006,-0.7966018213631204,-0.9594869004970771,-0.5727970506447163,-0.7692415952712354,0.34654408787349816,-11.986030776334417,0.40515620009769443,-0.6830273204389613,-0.6924349498014153,-0.6300213484154494,-0.024813022277672545,-0.35360121947467443,-0.8115476073282885,-0.07904455847666707,-0.9707009352798114,0.187140467953564,0.3053507226675813,0.7140117890639986,0.8912849968954512,-0.3936725904685865,-13.391999581480036,-0.7733023752118909,0.9489304425336916,-12.92148840065901,0.3027924891278753,0.7414477509256376,-0.0172822593268747,0.514785980210388,1.1474190950068799,-0.2543273989426516,0.5154054565745764,-0.7806405649144633,-0.21427736031534825,0.7410834228516486,-0.887916589202377,0.6809968930041411,-0.5941354171069798,-0.597960331829574,0.789534756819692,-0.9326520939231596,-0.6920967743400439,0.14687321608105625,-14.056259406248063,0.7386406135604872,0.6941100303545193,-0.9953669783713842,-0.5649197818613979,-0.10019152765594803,-13.496537925202428,-0.38192972865311936,-12.569063422457253],[-0.9139989818274522,0.7786047030198416,-0.6829288819072465,0.2036618620186265,0.7656356485390028,0.37792567135549643,0.004340363394844923,-0.4408578656864376,-0.07970403544046928,-0.3332678854008226,-0.5723550668438229,0.6761395912484727,0.4962992513730931,-0.5322018981189066,-0.5289205161256887,-0.5844826775635348,-0.4065137501842094,0.8583188890955407,-0.23312111963986373,-0.692127010824739,-0.9716359807722759,-12.962127426726148,0.42982984186969947,-0.7050273786465966,0.33200767120799735,-0.26747215994362294,0.37784740494450586,0.8202962156590116,-0.7855600534126953,0.0515603163879473,0.3963599393649619,0.30762006979351614,-0.10675249843620113,0.3703755210905216,-0.8811582967623172,-0.5474308762717773,-14.06657222239789,0.3044821952603436,0.20754816184654076,-14.170589738051286,0.5954203482770901,0.7419905735363325,-0.7731889699418816,-0.2656948239500857,0.4361545151358857,-0.7162696738713161,0.7564510353551145,-0.20630259728461414,0.5186988879541089,-0.5436967772238146,0.44530996905950687,0.9274357404943075,-0.647981868407072,-0.25958112314064063,0.789259863630228,-0.34730094919931814,0.5138423938212006,-0.8431770107756831,-13.381797861163024,0.3503951508705289,-0.537758234468703,0.6211133640653076,0.9698259196422174,-0.9557889760595408,-13.498403913873915,-1.179742361277705,-12.676549463697514],[0.4876192007153586,-0.07912582479463165,-0.025549893175107943,0.02007667157967009,0.8599563056383955,0.6988371205011363,0.07340627866833131,0.8525497882508284,0.7537658065368533,0.8611939487143331,0.11348513657224268,-0.35405136025726325,-0.7629205899891572,-0.3876439445710629,-0.2812820230142224,0.7461849017526586,0.2916007219598137,-0.9353731697656752,0.8750266246039953,-0.4063525122049593,-0.7699993801185616,-7.266185324382149,-0.42780520190772975,-0.26588940476906614,-0.22539001572407127,0.8572157339397446,0.44417402728868816,-0.4684122808612573,-0.4706161922907355,-0.8705724213297306,0.6660164133530561,0.7678886348352914,-0.8633381548432322,0.08808900313502406,-0.06866388650604745,-0.4447616617988067,-6.641577544781289,0.5357237070815261,-0.7678472486697742,-7.925824266772364,-0.7266957979418681,0.32874885746383864,0.45154866164885527,-0.6428920662130702,0.3448149366723108,0.011169176559041157,-0.9710774987633491,-0.48861005943532787,0.19695955703359966,-0.9146670359692504,0.6566037948160609,0.15826363531786727,0.4443662279569309,-0.3885761577279307,0.50603846344874,-0.43497526269737957,-0.6869072893613463,0.6523558741859325,-6.970125430977712,0.41717018079726403,-0.19202293203063492,0.19749592231380989,0.10907924842552943,-0.16398803809056384,-7.0832852542782785,0.6755415710817473,-8.061245519582219],[0.6539776426522033,0.6455737744671022,-0.4807168674043619,0.09523995081033941,-0.46659583479298467,0.020367002877186534,0.8463696999736982,0.3097586859886889,0.8876565763934782,0.9241113832139224,-0.6532134589659739,-0.9207904994725467,-0.9682126296819717,-0.4271272336139879,-0.337103892829409,-0.06216707527880079,-0.8006718613666954,0.5035767449830684,0.09346006782527959,-0.3364251821354897,-0.4202177782837344,-8.410246404921686,0.6057576820339291,0.36456610456737903,0.18635809892576022,-0.21996233099179527,0.024254453207669453,-0.6736248016668906,-0.7528942969810202,-0.8908639022916902,0.9868033833316845,0.5724706145038553,0.7549510219806572,-0.9555070808828082,0.21511357974988807,0.1490868258802839,-8.02707416587019,0.4814267795158395,-0.2669651728047954,-7.725040494515853,0.05688565589166894,-0.3433184559163613,0.5323765316093132,0.4865471204488028,0.6506988785581597,0.08177996342559206,0.356339088460239,0.09015239988901547,0.3203885115674954,-0.11803313888915723,0.10424329989231194,-0.8619184127080067,-0.8665603572286082,-0.02466253774344237,0.22155626541877713,-0.5440683175772252,-0.0962047350855934,0.3520733688668812,-8.194562836192942,0.07653524974954032,0.47570707164936077,0.3008912100289073,0.42377321466657575,0.059196269444504436,-7.801285028122447,-0.07131022096850564,-8.400946931059039],[0.17790620232847162,0.41521760803042074,0.18257766850293045,-0.9129094231121045,-0.7341465496387339,-0.9767192632691774,-0.7021526813790451,-0.6759596879121814,-0.8522771719369979,0.8304964617781383,0.2583107492394563,0.39567626331712114,0.9112877002386282,-0.7886216529847179,0.7904226701311887,-0.4929953886297345,-0.22056220881989738,-0.1204880367700378,-0.7496887549227489,0.5172646129999053,0.7578644903134654,-8.840689988236159,-0.7250510253667622,0.7345149622606735,0.10790112604604939,-0.025162621427402294,-0.6236505470787655,0.007760279063823545,0.855161907854187,0.5735462573408493,-0.13490358097253302,-0.3647867283523701,-0.803455120275402,-0.4110749382397268,-0.6736894851366172,0.5334134292405219,-9.736732494029996,0.7424982580461637,-0.02474858515091157,-10.106658274013062,0.6004426086189913,0.9858226721777829,-0.9996112750817971,-0.9754777862549694,-0.07111196023951943,-0.7253450133947122,0.600621873730144,0.2568330269856924,-0.8340542353645843,-0.5820941399628657,-0.8109419275027735,-0.6977274615924413,0.1918991219517211,-0.8730058061002723,0.8418214271937214,0.43899906229205565,-0.06621290669023387,0.8238776179200826,-10.401831461728703,-0.9546580252039156,-0.7744488526654061,-0.8167496357107462,-0.13052456361056125,0.7295446879420757,-9.087966362258268,0.6318647008337709,-9.281849085905138],[-0.41926099723868104,0.8193111868688766,-0.03999210756701927,-0.43052576423169425,-0.22155555085414172,-0.9380889825129847,0.8432262623305248,-0.9247550459170084,0.44303879187800277,0.9065342985272884,0.20367227664647317,-0.21232930808161504,-0.2830253953449597,0.8192693769420025,-0.37614796411305845,-0.49508019813012244,0.8669909265638533,-0.4596184898096592,0.1754894350565473,-0.3750473464790567,-0.27336924321712525,-13.133502511796658,0.026897896127660446,-0.10302134188093656,0.02745141593709759,0.5551450955851133,0.5839361723592992,-0.1993130155096854,0.09209615867419549,-0.7001476533214985,-0.14587791486346413,0.7367327449831412,0.894853200005481,-0.2909707737785938,0.7523459405998912,0.6542149626105804,-12.179468993466495,0.0975698270537792,-0.04439159179673176,-13.386216001655407,0.6534666079999353,0.43302570683301267,0.8806394497653701,-0.6178430794820413,1.0001831414028417,-0.6674206761039114,0.3193194479755186,-0.6518463445651892,0.787627128778893,-0.4142057937865813,-0.09997548267889936,-0.46831981767410447,0.04377420301358307,-0.5752767177092254,-0.44855436083363665,-0.3085443336267576,-0.48430405599393234,-0.39767631398279124,-13.945100234342677,-0.31420679548859204,-0.4068208586822338,0.8481793270846473,0.018978269536958053,-0.948658772872574,-12.574197089788738,0.5779478987680934,-12.334637675163043],[-0.19327892898114823,-1.0746598992605063,-0.36491406544710864,0.9467545937416169,1.1494636137516032,-0.16019099945189824,0.36187089485273355,0.9275865766119377,-0.9666597806609939,-0.4079763204638257,0.22799071843189359,1.3376040189606335,0.32666856004888994,-0.15047547201540418,-0.463258856774767,-0.6530612627243801,0.09661099562764662,-0.6471959887055474,-1.2616878074220195,-0.15211917874992942,0.8275347767523863,-3.7429363588960873,0.31218070699773226,-0.4272781515607617,0.3570609523680544,0.7322093559251796,0.3963765572091262,-0.29674526451928424,0.5467077909170215,-0.17464803408916646,0.009556142075795302,-1.0068397531178963,-0.9616871677245479,0.3696120575045442,-0.621817626041297,-0.8801404605383997,-4.069579697595623,-0.639514105132785,0.7378264252413795,-3.0806947982686204,-0.5511885589313613,0.8012078111963413,-0.6592374027878447,0.4603882356000803,-0.24830209972283074,0.03391755383513739,0.3232225989555874,-0.6263809908258345,-0.2840174734724962,0.9175182872319387,0.25409200466267845,-0.459662583986487,-0.02565067978285761,0.6604414496930074,-0.13202249618336873,-0.0040950043849081,-0.5386901585131498,1.557653585620062,-2.942741925431817,-0.7143730045927018,-0.41850895101328633,0.0053952483157895656,-0.7984546461029758,0.4558593499555095,-4.2326704489634315,-1.3844574802026224,-4.176356387663552],[-0.5350047701881362,-0.2534294669165966,-0.3664731990758351,-0.6952662565999405,-0.5687122039347763,0.6561696091318581,0.8423147448416375,0.057630229651411354,0.22923252306660263,0.16972979960490042,0.6859856203725732,0.7388991805938009,-0.5371577386443877,0.4630493862030295,-0.5715344365306577,0.17512171314595715,0.48890675842943687,-0.6244236941499595,-0.6296199692104487,0.30017148791006876,-0.03502513925551102,-11.395998790821356,0.3478936690999544,-0.6543545783430704,-0.7551218204312942,-0.6437366318142488,-0.7209898571809318,0.3834428781360807,0.4054401495308791,0.41567087326108104,0.9704144549597737,0.23312243706745694,0.9173121896321175,0.947904328516786,-0.5171853392958545,-0.4231734776799699,-11.819589846612006,0.744382459484923,-0.19105506105541142,-10.87523494806181,-1.169301713319569,-0.5797316486259037,0.4367141969309897,-0.3741911769208795,0.4349212074883286,-0.45576694239338655,-0.39938498137458056,-0.08786403523114819,0.21568074886844657,-0.5334875088645626,0.8349410037552528,-0.4817352802359467,0.9613906164059703,0.6068681211461905,-0.9727527145227525,-0.4375195298551791,0.42329502124409546,-0.23952383288976115,-11.575541184733952,-0.9879635241607843,0.03656603752527329,0.9130018889200092,0.0024504487928408824,0.4135667399323958,-11.772639025126605,-1.2482541698878866,-11.229048341238778],[0.5947729296080986,-0.6497524729925901,-0.9073973432790564,-0.2568099145707433,0.8165776033081295,2.3051668848340494,0.06516921125814168,-0.820080440034068,0.6505111568383127,-0.24860046454371568,-0.43129725381496936,-0.23945901407805548,0.8022633037830025,-0.1527558686478316,-0.5803558470451972,-0.9203966439920491,0.5700886160667995,-1.514380872176699,-3.4654505962305433,-0.7420894126707785,-0.5299161788667159,0.589043020761239,-0.32649449134246594,-0.6536010587252449,-0.1765662120472905,-0.24546173223049553,-0.6669106805674969,-0.9578164289033262,-0.4235261751654199,-2.7439774817568146,1.383916885763656,0.6020652808234888,-0.7901676616312592,-0.8338793156176704,0.4068723540366296,-1.439508580272111,-0.5887637303886512,0.09984180079450972,-0.10169802081788963,-1.0084911865041624,-1.6200150954754455,-0.24004661745340006,-0.3767414287422928,-0.6872708420232102,0.08212702824923288,-0.09550181803801294,0.4735915209926253,0.794288802104295,-0.214025691304033,0.5467479775892976,0.12428411540896883,-1.0787729539336044,0.42663651251940576,0.06423969790352299,-0.9390225948659529,1.358499691261243,-0.5347314804505393,3.041011465169873,-1.3879185264975307,-0.7496779357363152,0.21149453262757206,0.49426271623822327,0.05779211256511748,-0.8947654461692608,-0.6069008748169581,0.8213427665692333,-4.029202448563557],[0.6126991923552065,-0.3352162655070385,0.15951342985835862,0.5898632708356538,0.2622582850764562,0.052567620089807365,-0.3207980244036598,0.030496640115863137,0.4819943080336103,0.9637559585151879,-0.5980915263856514,0.6224344917687782,-0.8134994125913306,-0.9328635868205217,0.23718200469655756,0.4237139482031209,0.09197787577260669,0.19137271564659422,0.597854784517344,0.6951391723327146,-0.29127749467167063,-6.730884031694862,-0.03773181625013896,0.40327075570289656,0.9638193155304997,-0.472931837739865,0.7007365709292304,0.3456180122394623,0.21108047351936798,0.21474053223461137,-0.46533682256269093,-0.776000495257474,-0.01100352868581911,-0.9852895032988114,-0.668877475324463,-0.9599209232150664,-7.973655814765212,0.5803796401065702,-0.40473058035699455,-8.656672229928306,-0.15492802570031564,-0.9597096208123095,0.044819530347747466,-0.7556459029747599,0.8408891775310081,-0.18699287675249385,-0.5994920282117873,0.3956745375751324,-0.882506342284262,-0.8764182459678781,0.8506691750483363,0.5328076498201023,0.11853385693053933,0.5129061801940964,-0.3015251854370083,-0.4202951289706448,-0.0851179515935518,0.44746327715162854,-8.80099329789934,-0.3896107350483114,-0.004576884343413784,0.6572009782752419,-0.2636163720353147,0.7271281886340731,-8.258030387036614,-0.05104412071846132,-8.652450330164386],[0.9237860183391483,-0.6587339124629011,0.04099362499796729,-0.7805461239599046,0.16474928483243512,-0.3508380038688461,-0.38483534424368804,0.5715506574064637,0.34362249784302623,0.31630517897459703,0.9152567971897964,-0.7693977015767673,-0.1007497432054725,-0.2819039225876475,0.022021374061185404,0.08271140133646322,0.11266797739315251,0.6565093843431864,0.35948706798209284,-0.06153731458162193,0.02343837924954138,-13.652495508131203,0.8266195414080545,-0.3171192181695066,-0.12380182811605045,0.3656348875056864,-0.13203956834361114,0.7116207403799306,0.8283832055247219,-0.9528138398251187,0.13187249461535708,0.23357204127249678,0.09412272506510644,-0.13694926595904836,0.2527348744078673,0.5615109951558499,-14.059573576132822,0.4254295827743708,0.5985094196286044,-14.190576083259453,-0.2391029252413,0.7024892042728912,0.665922602603597,-0.849393140283761,0.4790757444267411,-0.095951115883081,0.9844161494772666,0.03845873866710704,0.23149900105441695,0.804408478869853,-0.18977299709565992,-0.7992602994375272,0.8370321865424846,0.17427231795537518,-0.2049710092425565,0.18409656508368982,-0.08756899135239342,0.7988222010987331,-13.558925800068288,0.45880682202814954,-0.40307917889426703,-0.5491130290247489,-0.031006213548167797,-0.3514289588630759,-13.769974623043664,1.0774786472858848,-13.862300166191012],[-0.7172797383563363,1.3507490928193784,0.05600717569516289,-0.6347750992475566,-0.3432992368852412,0.39279033857252904,0.690436346515836,0.6509396238969517,-0.778345737611532,-0.8511089282241975,-0.15504551001463882,0.8117955554278226,-0.18551880014300526,-0.09993645765474855,-0.7294406871689645,-0.6724497197037962,1.264516193382993,-0.8367337498428602,-1.7378263567310441,-0.7046778012632074,-0.5791597969608095,-2.5519059771553696,-0.6494081009386293,-0.0906035964562202,0.6813925993037928,0.6483836526187466,-0.8835829469705689,-0.8793455260285669,0.2658330758842682,-1.8299378153451944,0.7158112890445946,-0.0719654534031365,1.131496389656186,0.6412195862300479,-1.526185763232754,0.8554557601855997,-2.024460151514184,-0.17233084652329658,-0.12624808204448928,-2.3655024411380867,-1.445426231052161,-0.7706145131783122,0.9465678950629618,-1.3424663132091037,-0.17656953456485408,0.7052833345737709,0.9019840552566379,-0.8399555763842916,0.8184222691854188,0.19246333902214885,-0.3905081889273653,0.21783159740579347,-0.8884623496481073,0.3769001435053103,-0.8988593490998414,-0.0666420426947956,-0.29431470496551,-0.4205204119947895,-2.0762901336061104,-0.46277290702089396,-0.11320924080906057,0.010296440429171385,-0.8196719891447407,-0.552461030630099,-3.3527331326573773,-1.538354104348016,-5.079754088576],[0.992138402956131,-0.5374237529681906,-0.24953486259237997,-0.30384345487776704,0.5375040011543958,0.4603029472648688,0.9191446974499577,0.11791680313287908,0.41757099446705087,-0.4639099125162695,0.6805404323642279,-0.6838304473702898,-0.9316605851750672,0.582380676535552,0.11243463637267744,-0.42179847395771236,0.0018083496548687236,-0.6450468316682952,0.5010446384394748,0.7666427712719901,-0.2011171508367749,-11.716906571873935,0.3065577079052483,-0.33528984745172724,-0.1679551824860107,-0.1478994518010984,0.39655667925861354,-0.5436930830715208,0.29885649005779064,0.6736791687593414,0.7106665141168534,-0.43227772308270773,-0.5983854884543561,-0.17740813073333406,-0.34243500994984033,-0.7759028709237058,-11.157401694296054,-0.8087029107115912,0.3717921648905955,-11.874135951011883,-0.8884313223984289,-0.06274939894616408,0.995843519505359,-0.5586837672884829,0.7656855747792254,-0.17914573081161636,-0.7185541511349947,-0.9043300327842875,0.9942378000795131,0.8947664344682519,-0.7171886228434068,0.006448126894587165,0.31024826106837144,0.7548241094814229,-0.5620052213269423,0.28357109356404464,-0.8143033492069843,-0.18149381487371988,-12.264254300021616,-0.5277145525332985,0.5594138793330697,0.933836267380379,-0.0981767756516873,0.49602703445752794,-10.842248064829116,-0.3083558274973743,-11.488472507713675],[-0.39488002901767866,-1.3861264898802965,0.21679187426093827,-0.5160671338538214,-0.993876503465871,0.11237920894175808,0.8498067623629045,0.23661273578875022,-1.255914664030465,0.3039642318525964,0.35860992591212465,0.0004275638079376605,0.17095974646854123,0.31277961598370824,0.22084836740949573,1.0743778922956813,0.5194372122432235,-8.41770105650979,-6.939349110598597,0.36042095347214775,-0.735327673582257,-0.24251992835832242,0.6507034793278129,0.29326965597524085,0.41637043056605794,-0.3224777059689313,-0.7901373695033642,-0.2747812881412494,-0.5001893049512485,-7.842858746873134,-0.10293985673630238,-0.3278343193177586,0.1861717492985372,-0.19545516086885467,-0.7312800050169433,0.16529026669486788,-0.21603247598865954,0.5871746778690948,-0.6597525193076709,1.2097209628560324,-0.34037187991505474,0.18598647827929674,-0.41558148548277746,0.194596771738902,-0.9295184645570816,-0.5462618262105472,-0.7935560491373815,0.07016122182444766,0.28855925662601806,0.7467954680879464,-0.5606067185748216,0.6729281254017156,0.5660627931231473,-0.4422874413147057,-0.6459474820796638,-0.8483952231749915,-2.005777529375362,0.2615273510526548,-1.0039764480169666,-0.8567999070744289,0.4975754911652299,-0.2395508572893153,0.7502187874126166,-0.7195705010581998,0.59756063637698,0.18700406209706982,-9.64365406583405],[-0.46937283151405584,0.505715559436181,-0.8679850048974068,-0.7704245858453179,-0.1369299636728582,0.7443046985811684,0.3001325882488668,0.6110137133220752,-0.0022829140288635,0.2267364965789704,-0.5069896120180849,-0.30984328589848037,0.014781184787664624,0.24965657680140996,-0.48024790206689155,-0.2975059348776997,-0.05231691859389933,-0.28223234877551107,0.33975211278313516,0.526894840297347,-0.04929569355716059,-11.930903445006415,-0.16706612292033268,0.9843463607125149,0.664470727626988,0.3011903691821214,-0.9032795292987,-0.2757968142901419,0.7112107347883049,-0.5714715850520227,-0.05087867616447098,0.6680611338858703,-0.19654380375941935,-0.8706209811121137,-0.09810299656739449,-0.1318120752095519,-12.340714020733124,0.8016733871965919,-0.38462592918475397,-12.562187477872534,0.25930300929655076,-0.9952525073664531,-0.6190513530977059,-0.7946622037754506,0.7322048843042196,0.9501214168649479,0.5829294989893655,-0.9519421136914267,0.5696110643788614,0.567091926335807,-0.776546228129085,-0.6674810083614696,-0.17372706362198276,0.8165862369529778,-0.2944337112099567,0.34146834686475036,0.24197951019447572,-0.7378490582497446,-11.74337109849759,0.4858662508837399,0.7002802260615899,0.5138971338613313,0.8462356325397447,-0.9073502345330594,-13.532682891657213,-0.6704646800824191,-12.121329381061011],[0.025655856646138803,0.47424935206157437,0.9399509630412142,-0.08703532615391668,0.7221765326607432,-0.37212604557177587,-0.7929395383513442,-0.40033532057693716,-0.6945871876690564,0.13793154412649564,0.04749673288494326,0.6919842368380857,0.6928353084018328,-0.2324598571299333,0.5540034257377437,-0.6496419217652047,-0.1350198440553841,-7.561920201205368,-7.646147083350335,-0.2955596589927583,0.5497958506776578,-1.5605613247385066,0.43608438581360476,0.037063268163577155,0.9665972789252536,0.911142153609989,0.025660422335417217,-0.19335984666925105,-0.7191907366128256,-7.977705654880006,0.24630771965220982,0.04891386714230696,0.9360540648675797,-0.011495745767818573,-0.586851758569917,0.7854833197924159,-1.1048379352391529,0.38300072986511113,0.9711578466672924,-0.7024171895228583,-1.4692983948044562,0.8265357702334882,-0.07432682600659477,-0.7349239052071576,-1.4146741797892834,-0.9169298439647724,-0.46239336462127634,0.5216887078527226,-0.2055146436604345,-0.33812437186367555,0.11025089343275872,-0.7813441346267196,-0.49122906555293466,0.16671835863740989,-0.7546638691973977,0.16832555264629923,-0.8350635120995342,0.7380019519842133,-1.7733803616879322,0.21081457006982635,0.28917323683563156,0.9407167959999072,0.8827233262622013,0.6188684592742925,-1.7860781953151923,0.17715551393636111,-9.47678863622123],[-0.16043880801809626,0.2604593858719105,0.21627639919592676,-0.06623063553910882,0.4531992255177767,-0.25691684552972477,0.08880620221001391,0.1092541809124662,0.12976335261759228,0.19730111033091688,0.3248868726207425,-0.03940177384334362,-0.6308455398479035,-0.39953960486711915,-0.77705264238904,0.35632839493915663,-0.21656056073374585,0.471548893873119,-1.0980220093467177,-0.7116636271926545,-0.9268216202785791,-7.700593325564328,-0.2643777829491926,-0.2054325931133732,-0.2851425669513644,-0.5998004996221072,-0.7810131236007444,0.6192616976206846,-0.0719630928966412,0.10500745776853714,0.13170809095879218,-0.22848181147365176,0.8605932368081715,-0.28190826239000977,0.6540320051830516,-0.056061152343872746,-8.841908526486973,-0.6794688950074709,0.28397645189253456,-8.092578334919304,0.11166878306498824,0.21703508715661812,-0.005707226590966161,-0.02684537439993121,0.3367491615942607,-0.5157054901692433,-0.6486607684397797,-0.3812492311392498,-0.5774552787759655,-0.773600752353854,0.42731258304354586,0.1901900682266,0.2882317432781558,-0.5558621128805902,0.7428473424702869,-0.2005961448261358,-0.08021470103881487,-0.07982775965893693,-7.54294900235725,0.014466692321019757,-0.2889079078129208,-0.05545716877459704,0.6818045309941971,-0.6888156548022281,-7.569162733299582,0.6824289853966236,-8.338758650140774],[-0.6939798416350555,-0.30479569624456143,-0.9482794019173713,-0.5538975581934327,-0.2590110844732183,-0.9597876362952592,0.7375262272131945,-0.9106615639222573,-0.9671921153472942,0.590747077309138,-0.9138915940003691,-1.0291427963887512,-0.030978372720002128,-0.33868433421510696,0.8011675176237946,-0.9515890087348172,-0.2200718254296192,-0.999249295856497,-0.9677168719029289,0.8128783643476923,-0.06456285936156694,-4.80837732091582,-0.6116741095413917,-0.8977125673783867,-0.8325159471085855,-0.9904858351365688,0.14304095008303624,0.6611579484463035,-0.7719528201891446,-0.8669520195866429,-0.03862334897302827,-0.6609182885571532,0.14588408684050594,0.21175907384715847,0.45401021323522295,-0.3707514058425352,-5.46129126875704,0.14708063685523168,-0.6069743986296983,-5.074318636172795,-0.4675553837019663,0.6897020886687297,-0.42389621290661395,0.21660476913714655,-1.0161292463853733,0.72785884679218,0.1835367213447482,0.05488201198264704,-0.9834276146154886,-0.21255091070491774,-0.6390136493822379,-0.9714711591514541,0.6233799515950106,-0.41391783578146857,-0.0923674720181948,-0.5083808057761379,0.23242323763584782,-0.21798474807710586,-5.708985605362995,-0.06502563953685918,-0.25225676836864436,-0.3061787966534265,0.42133347542073224,0.23719752392319277,-4.825083511246095,0.13322149980862447,-6.835633927171547],[-0.8379842519989095,-1.6143812263844497,0.3472240906940973,1.333179603272387,0.8179534222485485,0.34974996151878196,-0.31906566777718803,0.024603785063107387,0.901330223707298,0.31999945824514703,-0.45416793909675557,-1.3536010505824259,-0.24009560813667005,-0.4421334326386709,0.6437854178132693,-0.8890601957581965,0.24922838594324334,-0.008587468269649977,-0.9560007160156783,-1.233922907557153,-0.3490466820782936,-1.4357548648827763,-0.3293830803548542,0.24234450203638938,-0.974530982889728,-0.0889262018784614,0.08569502431688024,-1.238724158164043,-0.0484670086451854,-0.8098819124610367,0.6543999021806345,0.8945024330209163,0.934741128286399,0.6206947841441763,0.17618244427994775,0.09393176280506257,-0.640732447618067,-0.3643264041475801,-0.5411610790892528,-0.3550728021758082,0.028869703027863396,1.6287410539097322,0.2287462121385637,0.6540272022146384,-0.36060794331119594,-0.001856798989423416,0.03856758701636971,-0.16462932691984164,0.08924455526082054,-0.43691751300844744,-1.2395604338216508,0.43206447429238637,-0.8522672813258554,1.1718996617995194,-0.3442520630555901,0.7817888808252512,0.05766389894340813,-0.035204456542307506,-0.3990589431868111,-0.01915173348903701,-0.1381627315959184,0.05162537857113547,-0.5387312239467639,-1.0745885928730647,-1.2575952820924865,-0.3720013104253887,-2.544505718272471],[0.632117317755877,-0.5271729325542778,-0.3497259761510588,-0.27174593615419446,0.3937333565377718,0.37348888551713577,-0.4723870183056927,-0.8308921492725064,-0.9221562198937229,-0.6194560670022745,0.2435951866190562,0.7760812396310584,0.9441388865710016,0.6232152070850757,0.051324015637560644,0.2562389645342774,-0.4133520379066105,-0.5995518946809433,0.7781685179500237,-0.36433753366556054,0.46077932710933167,-11.843617945136106,0.05899372548095409,-0.44667369283055747,0.7241648959856395,-0.37729515315195694,-0.1386675445277235,-0.8702129073640169,0.9095311038824744,0.3166769562387453,-0.2280979351699846,-0.26079444268509056,-0.3648390738428309,-0.6705097613283186,-0.5838877058331328,-0.5250143105099352,-12.256269210455706,-0.19722427219941582,-0.7596871202693305,-10.426482077359145,-0.2736648765099614,-0.6918380723103524,-0.020633114663938936,-0.2539342370577567,0.827198750914888,0.840007251512087,0.4895062105101779,0.07626699548064908,0.5020659011409192,0.08184749124890096,-0.9321565553229078,0.5740292722882713,-0.25015402086074673,-0.4008740681730337,0.4607907434008417,0.31073590145360047,-0.9421988351615018,0.681067915239611,-10.443228984299623,0.42422249221309016,-0.9226150727323363,0.9735765449288479,0.1333543042285145,0.6694019671937647,-10.558895339771789,0.7653048892468978,-11.486643730169684],[-0.4697671340231597,-0.4425157481035487,-0.3570678294814205,-0.35692538112308064,0.6998133267053679,-0.29795715553329216,-0.6923994996565515,0.5641989452128702,0.1575521787431741,-0.10551769067709521,-0.5492038144401277,-0.2610907006400705,0.22927013546165484,0.27476665306391174,0.925643073588984,-0.01739892278582277,0.7910687948415035,0.43736053378463147,-0.14056241150995782,-0.4355617163385901,0.3966054319418284,-11.468114544516748,0.7121065448123844,-0.6917676936225227,-0.24558281391170497,0.683937316689701,0.6905998812223003,0.7021764103375397,-0.6600649745633075,-0.44217581050960425,-0.42257933834099254,-0.657850375108717,-0.21501236571854224,0.07144808781437303,-0.03884838914614751,0.9580750096783296,-12.480955332416773,0.5064576419588728,0.8173784952015867,-11.762448975455108,-0.8427166048536318,0.4911219929961087,0.22768168376284836,-0.6669965003725672,0.40308131793671564,0.09588434188727761,0.19712111621358147,-0.725402181882976,-0.44681122337920204,-0.17101080245208117,-0.6128787311753268,-0.8357782871561198,-0.5650059618476418,0.40809661724281465,-0.12634287111578338,-0.45801762356938786,0.30414175976912317,-0.26862877449355543,-12.566634695149714,-0.26198915140928447,-0.20758468105070496,0.5532000847734235,-0.965320117809379,-0.6217187732143604,-11.424420594651679,0.6389569529131893,-12.18996004386237],[-0.9601383727509529,0.18640292965862676,0.7517894377308869,-0.47519786084422116,-0.07751918962811921,-0.21528813572179484,0.4881114060166472,-0.27044411754636827,0.9733881884464998,-0.6215562176615858,0.9528347585852824,-0.10816839193498953,0.5022284889732966,-0.4312821895163193,0.2715246648552991,-0.6211963293164128,-0.9008836429402546,-6.580544928404173,-5.321260275542916,-0.6198437487554636,0.33149793536071515,-5.017994421534008,0.5394652374988718,0.816960037090066,-0.3885716223066228,0.7950637901624675,-0.19294050270104823,0.04213788551655774,-0.05903731314788469,-6.038958877256561,0.4132013131956736,0.4987774795726684,0.045058491475247806,0.8788227223782422,0.8777370212765971,0.48528925074751117,-5.642297143238348,0.9588858054176856,0.8485784050074399,-4.568170312971272,-0.6823671864235866,0.016994586649532167,-0.2941373475137312,0.1647599215009177,0.5103760447638613,0.48954682936922866,0.6809737163296516,0.03705416119870788,0.03187798112494754,-0.16756432214969252,-0.9847014614425055,0.5310238184386754,0.18897492230932444,0.9130042994220235,0.2527160619616812,0.36589889232234707,0.3362242746654393,0.6292819074579468,-5.329131088082098,-0.8072041597218391,-0.33854615714249076,-0.6725633159356489,0.05896766207558907,0.03976560760084232,-5.620747886729382,-0.09619649327930642,-10.62861371093977],[0.2532584143862066,1.047176154373035,-0.7521586902455591,-0.7198202643797647,0.03677952732708803,-0.47896526685492247,-0.035414470966082294,-0.18533209402766557,0.49007126545886925,-0.05317317475407144,0.07078811463977623,-0.006532318654162195,-0.024364346872261893,-0.00795539449125713,-0.2492358558125396,2.8306888487439474,0.8509647270374484,-0.18917476311173248,-0.552453453410996,0.4379915479508488,0.6843726030772873,0.03491650725745797,-0.9319799823373465,-0.3513166106680955,-1.1260917526335443,0.5285275057448295,0.10184098175383803,0.12043325691698686,-0.2736170173908756,0.2653653152809207,-0.24210234529524288,0.918859696550402,-0.18676451260743696,0.007503075130759664,-0.06699373556027276,0.07837447993986033,-1.3475229605326866,-0.4538280835609289,0.06618317241710982,-1.8469174688905052,-0.9647387974587247,-0.7156715071008509,0.19781931124405908,-1.0740542611891102,1.222015776834356,-0.5314957656316234,-0.008233794725057298,0.4403049408266243,-0.23225155618851098,0.8014932295516656,0.18705795580343607,-0.3075688476497147,1.2477530598244144,0.19392971909588474,0.20492422250279368,-0.7383688879598846,-0.3212812992117127,-0.9169217600730745,-1.7134065349849268,0.12929770945082097,-0.48267035575237754,0.16407100351877021,1.0751651638169484,-1.171491324533397,-0.4306886282484773,0.31233223683260364,-3.8902509931326668],[-0.41327012915451417,0.17815587836451224,0.8957150211482792,0.9213660668773154,-0.2416292855037227,0.1963117357194903,-0.42457870499008943,-0.09765283155953643,0.5927995765621451,0.14090232150953638,-0.3162096776615829,-0.9110443174585151,0.2110169735752913,0.3171950306031191,-0.05945862367934006,0.32756414514334903,-0.19386604180658457,-0.44106620756730097,-1.5101277879941228,0.7561847457642671,-0.7741579810755838,-6.554616257106132,0.8988928133267505,0.21133798133949788,0.549149096729467,0.06410496843843784,0.47370025895699674,0.07136309439369168,-0.7432232726833843,-0.7203952120336169,-0.28964500007444294,0.5761276568290361,0.839967367434241,-0.6297300008358537,-0.7287255128605471,-0.5382849388361701,-6.13572744921206,-0.35318423835465257,0.22284552347143569,-6.394426510354367,0.4219096243087697,0.9481915832332989,0.3939385925237806,0.22443924955984623,-0.22856357053561938,-0.3054220945734007,-0.3972826229865429,0.17484354607502,-0.4037408017602243,0.19923972407284832,0.42630094556645814,0.5326260629932682,-0.4407505499604567,0.035367488236910535,0.3169752107196332,-0.5987308994202427,-0.626884688702894,-0.4163190274041301,-6.372876199142201,-0.3044767469803655,-0.44422506061730715,-0.6906620355995474,0.3204369292206257,-0.17633842328531127,-6.7293137009751325,0.014240471045737587,-7.282115043457231],[0.14023366809605464,-1.3312714726443609,-0.9425894819220443,0.20563641327301865,-0.5249882906483756,-1.128131829389199,-0.49175724477458166,0.5657925886475313,-0.6515449255764916,-0.5219273940017901,-0.5725726675996149,0.2834902637273605,0.8116542936529726,-0.6566669085068662,1.2425167702332993,-0.6822028144552492,-0.6116468293125115,-1.2252125101659503,-2.4505438971944082,-0.7318658596806519,0.48956165452119876,-1.4023755031864262,-0.2771482130790104,0.6675891951366656,-0.7941753817373628,-0.4440954169066566,-0.17541343746671856,-0.26578230333685754,-0.746005288331973,-2.521951032768852,0.5387950892210459,-0.49803717065499703,0.7163595311987516,0.6719085160995998,0.1590702130390636,-0.5246275917127403,-1.7991370122959365,-0.030047326100187625,0.3270182463304829,-1.3368418114295018,-1.0181135006991282,-0.9593936552943033,0.5628644052633885,3.0061749504050903,-0.08736503062111922,-0.8604405142301264,-0.4866278501270201,-0.14757386193376998,-0.33032959231878073,0.10447209326780792,0.7792300100715261,-0.27578895961247646,0.1666663671296075,-0.2625881022166861,0.6210740804978748,0.5441839855139188,-0.005139957082261505,1.208245219701585,-1.4188658831072825,-0.8550231520681083,-0.2873265186277442,0.1449774175604889,0.05455260857815485,0.300791200370916,-2.8652892063547943,-0.8872327171092895,-4.0016135806314095],[0.63982502022574,0.188235462539805,0.6713966123604549,0.16843496405573052,0.9933893043692535,0.3285630880988944,-0.6186853926691943,-0.3244079687451522,-0.9564710053235729,0.6764848048177976,0.8831230389663919,-0.4572225118571671,0.8593469261599019,0.16836673712285444,0.6859308422608711,-0.07188768874322164,0.24046934009926305,-0.9099574842271196,-0.2103836718536323,-0.30927460686458175,0.16127396346814263,-12.208423278491875,-0.5042835114499841,-0.9698333791354423,-0.546660915304298,-0.2896770357717965,0.8715538421630771,-0.6590764367399045,-0.4490646650096526,0.018069612335807162,-0.9926669912215135,-0.5409051218839271,0.9549251307469152,-0.8717583647741279,-0.8449206256920103,-0.8105180842013647,-12.211750213169827,0.7600261217891644,0.533154091284736,-12.748906254231036,0.7035935225827665,0.09634777656478694,0.2730996315305843,0.08467590917969768,-0.5796352442028384,0.2980991474989103,-0.9816524553915973,0.6621756972402405,-0.7114852547074966,0.7615848181694225,0.8646424889712647,-0.6932936636507961,0.45674678085804393,0.30099680716604704,-0.7375817647106684,0.20957029963039903,-0.1578063993188204,0.6569230191200218,-11.903135859586147,-0.9474944297685587,-0.6612428574416278,-0.7336042364532841,0.41461921259497775,-0.9386325839088374,-12.935489348439514,0.34582418750203187,-13.803695814790244],[1.038219684389382,-0.014749866062309266,-0.8716884642778863,-0.11959820988166893,0.7128179610887365,0.31946676382276784,0.33069387015829604,-0.3806986585487908,0.28139648554555474,-0.1513298723681631,2.414265538323879,-0.8274868750739288,0.11109510926470856,0.128198648938895,1.1792017767971121,-0.6240452548619221,0.5165507091286459,-1.3557330936013081,-1.0040035892824057,0.6159613676815459,-0.84754732541098,-1.8518296357850719,-1.1216609301924894,2.167247796257552,-0.7389532610555579,0.5820461621486911,-0.00623274703000522,-0.26420320725360036,-0.3969989004640613,-1.5571975650083902,0.2138160878832581,0.31199144216765134,1.13681992409886,-0.35363303652303385,0.4292820901050938,0.5332903441857458,-2.9092658416662505,0.2314221897030369,-0.5483342527846992,-1.6994690326572408,-0.5507933549020615,1.03174009166852,-0.09404370821305318,-0.6985431221742447,-0.44908824244516216,0.2873916380764473,-0.4862100088439319,-0.9349292947740024,-0.6739612354199781,0.5848130527470095,-0.8530392166837795,-0.8709673648684894,0.2962523455362435,-0.9484516113314032,-0.847461710738981,-0.09702398995695032,0.26050050009529074,-0.5363300656656227,-2.795670172446464,0.24271776143328797,-0.18498798300550467,-0.24579418760244384,-0.02184510465641838,-0.9097956452892197,-3.0659515122302845,0.09395565353959776,-4.1566053067666635],[0.37183037130631913,-0.8598699156729215,0.9507077382603218,0.26283068985286384,-0.10973376358785131,0.5716616799532659,0.5948830198094293,0.4189619116924375,-0.8921359652661378,-0.9996195060650735,0.797605729966277,-0.669117165626502,-0.6061552913904287,0.5182448207502869,0.5614024635545598,-0.012564844500598525,0.23037963751888788,-0.8749831307564879,-0.07070452350686886,0.02038415124098636,-0.19169726582037094,-12.165119943009874,0.6519823676573927,-0.8514095310602993,0.547741750375276,-0.4664227926374546,0.7978386421985793,-0.2106083866677814,0.5513278421616138,-0.5559892106900343,0.7370448945020204,0.5960326620898799,0.0018482604232924356,-0.5888062164230674,-0.9856525028867806,-0.8398031340396382,-12.126346301218337,-0.052635054348572956,0.3004922553240523,-12.178240412415976,-0.30004251916491903,-0.6397851557511777,0.22429086594634207,-0.825452143958129,-0.20388249865047706,-0.6593442151264682,-0.6488966582399905,-0.6054526305835473,-0.47782980511861173,-0.23561703574208007,0.7486002222072674,0.3103536586336669,-0.11921980641139171,0.2544480773194679,-0.881872659675955,-0.5983266282919139,0.7034451215053569,-0.619605318893535,-13.152697668193642,0.07914194868731052,0.8675625938971996,-0.23823807632035177,0.08744886117693898,-0.4079550697583039,-12.95665521473074,-0.15173518496018182,-13.241636474340838],[0.32846085835109334,0.982769675021754,-0.803585514202325,0.6686670123269445,0.2774878752042905,0.4362074419362121,-0.4706195102907858,-0.2608060701928039,-0.4204350278224024,0.25150486301737,0.4042252785797046,-0.5503644691439249,1.1899721578191975,0.1035363037162258,0.6822163926160704,-0.46647487220171113,0.27187163087613136,-0.5499636069939109,-0.7375284838620917,0.23353418894738695,-0.2724791460616171,-1.2622076863642255,-0.5250657594754222,0.8566930431582741,-0.28425114542774593,0.15736206504777803,0.0036724282551137194,1.6211074736802131,-0.017437620936116616,-0.3694759903777054,0.1570691409082517,0.6806988354448217,-0.36499597938726414,0.5626638375850342,0.5654374058958321,0.9700772660517513,-0.8725899904786487,-0.9941843167053772,-1.1259927855244785,-1.7285962370409582,0.6424322563642136,0.48778573640551787,-0.9289954870557919,1.1392156367385546,0.18015828191099303,-0.04716041778529624,-0.1456444671361209,-0.641492466922546,-0.13820446945588097,0.24616771036714724,0.5889387480755435,0.7526385594701032,-0.1885116430893572,0.08401094767707364,0.017793262866816942,0.046780495931750016,0.07394529171499377,0.8937813713813639,-1.67045032376127,0.2413504621940681,-0.5247264663137978,-0.739202884940562,0.3710674202788046,-0.4389750179310697,-1.989162777950144,-0.5670103178892143,-3.3863678813626383],[0.16137375617108277,0.9110454313255542,0.4245374121612878,0.5393891213466426,1.3477838433266212,1.153665252087684,0.9064753864417868,-0.632159983852445,-0.1288464350066821,-0.18072710135124,0.5792029588277483,0.18527975938646557,0.5752235487980651,-0.7556736384351259,-1.5308586722473938,-1.6894639093679937,1.5467513434756759,-0.03546579736331187,-0.7047732727658996,-0.33058007500379144,-0.3626310128036302,-2.767633640460802,0.10011472401725328,0.4505087879889752,-0.7021538961770992,-0.0052465476894331935,-0.06068738954367502,-0.6149289872900506,-0.32543888522752074,-1.2667486183035679,-0.9367154121737473,0.8552285272919745,-0.3360704416527787,0.23340107038596078,-0.15086955086542647,-0.3459725692017073,-2.7140416304083397,0.0844773162475676,-0.5070613807635259,-3.844947820016194,-0.051712082650597235,-0.10490509172114616,0.5882412360263439,1.1955798340571127,0.1783213666033846,0.40812821373396657,-0.6539701152145998,-0.1406490438643542,-0.23171575071466705,0.8242064697161732,-0.3805835872537472,-0.4254671257110808,-0.7623214360913517,0.11788302757313501,-0.9080405638262912,-1.0011446992049022,0.19166992132141808,-0.19489356729121796,-3.9084092082994855,-0.1964415903396119,-0.591248671566311,0.3431747777049642,-0.7280649479508765,-0.8710175021885661,-2.6021511010835607,0.9369714329860835,-3.634266940515832],[0.04800702885774684,0.170807526775331,0.5775277858510961,-0.24076823394323546,-0.9153027184633102,-0.3182355252423571,-0.514649620330616,0.7588766529524982,-0.2366933321564194,-0.8056874863296988,0.5921373578785248,-1.2956884561505104,-0.5757654346534604,-0.2870905229776155,-0.35874702897497474,-0.5201284883381656,0.4471508164053389,1.1586394038896362,-1.4304056882008997,-0.024643691569072878,0.8914185293780671,-0.9156893840361827,-0.7162514658165037,1.0406827428421854,-0.6761545018038815,0.4942902474260192,0.23001342208907685,-0.6436512389959637,0.4356315180712134,-1.0901522885724528,1.1852359503268992,0.05604986716045974,0.10427516523053737,0.7736108938854117,0.6418618277875701,-0.8251937729441757,-1.005788298713527,1.6381403340619463,-0.38378255486863877,-0.4409587005964527,-1.7925776883851907,-0.7288757154930164,0.2856147613571084,-0.497092571422706,-0.14118415468179285,-0.02996608899160631,-0.8319082034349322,-0.7536745586928439,0.3442672267609316,-1.0609846090580932,-0.5403094099589357,1.251547836588334,-0.008088153479384009,-0.02355349486144036,1.0015053971445875,1.1150093327397133,-0.010003599645571595,1.004884613833186,-0.3220840392472758,0.795175232514344,-0.14083868045271092,0.08400592355490175,0.08889335404327234,-0.24767421326637082,-1.9547909809071027,-0.05444530851315577,-2.309220571415439],[-0.6542828242662773,0.59477173113326,-0.027102233889779077,-0.16990607354753223,0.5809422151381024,-0.2562011898136059,-0.7282029402537888,-0.7687695474422344,-0.9133808055506776,0.10245583518622366,0.6134653944315251,-0.5153130441650476,-0.06301786948995891,0.3274424110951877,0.05254899796095282,0.6908752835352427,0.9191770300147359,-29.806750429578944,-30.21516496864614,-0.014872927451374031,-0.5172331698352508,-1.5821342258233906,-0.7060660391031705,-0.6358216323741739,-0.2887333766870619,-0.9414974476053762,-0.19395356357414467,0.8676719532763911,-0.5804264339969608,-29.674852038277955,-0.5096985872107229,0.5799136973883047,0.2791834242649039,-0.5367077949639214,0.4837447993691447,0.08469369841040104,-3.952860285541757,0.9086030579675002,0.5016715929842419,-2.6371258200367307,0.8782568893480809,-0.7511837552808409,-0.6765627571614481,0.4280205151944595,1.1581450257357344,0.3330435629870956,0.5176787841684678,0.5363254639031712,-0.8767939527286517,0.909152648322236,0.6623443363354113,0.9489281262462622,0.43504636689252507,-0.6492488717737852,-0.7756499362558852,0.8698074277572793,0.22013945549913788,-0.6599991456054205,-3.953085132620394,-0.842983444544833,-0.05895271061100308,-0.5755374914218919,-0.5311344315683215,-0.945916336162717,-1.6201233584902874,0.6881222711819307,-32.73726914873009],[0.7438457625330741,0.3769257741106635,-0.8795800909392796,0.6824954018833063,0.5419552092949683,-0.05934034874597569,0.5987676541893613,-0.5842519191563473,-0.34322137101601347,-0.40524242314838527,-0.6915558641254534,0.26521384311728197,-0.42595300936814573,0.7423061757501122,0.9576790024585974,-0.31788258985004014,0.8417509994127583,-0.06992686254244598,0.620708227517247,0.5071721037924093,0.4801683673043366,-13.335614064988317,0.6341232659626677,0.10203237668422231,0.4461738810339612,-0.970069648282842,-0.4039450351023457,0.09950402481482774,0.04774679142313,-0.15924613105920565,0.7286250642650618,0.5957475832978667,0.8290093434422714,-0.6759316720412432,0.46003534989648703,-0.12479877619098215,-11.839780036852122,-0.012362235766188815,0.8916564448331421,-11.229310016494786,-0.28500672471522853,0.8962970749353576,0.544356795559644,0.3250103946161007,0.5980274791600897,0.7208435131295512,-0.4906964610412463,0.16015394537603678,-0.191591082927176,-0.8663437630650176,0.838126195368594,-0.7722373327772434,-0.18339102509281366,-0.3432250123668448,-0.2018583480901923,0.1730178949093735,-0.8608335501839502,-0.9334584975872696,-12.167397251481304,-0.8896850450273558,0.6074011651422508,-0.9567717745602023,-0.02671557948757639,0.46493757425538007,-11.57360252905145,-0.29568028045388123,-11.63308856449771],[-0.0003469600991783849,-0.7817012772310739,0.7118755958438393,-0.48843935604190414,0.4012636520846743,-0.6223068228883978,0.8628811508715231,-0.022286612775310313,0.5786513524153679,0.9826386915181956,-0.2957307983610573,0.385086656249073,-0.3108752704276109,0.20109014440533274,0.6039062511099619,-0.4565760054563946,0.8152911400890352,-0.8721436494694431,-0.12067293641674848,-0.7349316618778743,0.05441929049352239,-9.999405641214569,0.9613924616772183,0.36805652578882153,-0.48100568419034534,-0.7916867565149459,0.7357956459618905,-0.4810743246438214,0.4726882089165268,-0.4848363948318677,-0.7003239240707053,-0.917923020525346,0.08001374337103222,0.44342497122553387,-0.14986840388430023,-0.10314610029393799,-9.588360453362233,-0.6959043012289642,-0.0888983428945836,-9.922036023757487,-0.9857090686249029,0.016651711870543075,-0.48957539149296647,0.838741309353615,-0.6659025081967086,-0.0715450026164529,-0.6560693649671142,-0.3186852908939811,-0.5352975926128548,0.271615958580034,0.87758719227853,0.81832814679583,-0.8719017939813715,-0.7142673533644814,0.41400032642386697,0.21350344128134977,0.3621964340341575,0.41849561443442373,-10.087696902411137,-0.2446763346998881,-0.300054734831822,-0.660502720495034,-0.4757164286431739,-0.7876016545590122,-10.24365197808749,-0.06870507540827989,-11.231972852171694],[-0.9469647848955376,-0.5678283972118675,0.5796979733690819,0.3265190214421335,0.9409039193401314,-0.017658260508384236,0.6228210484201917,0.8642094054102978,-0.26446015798019484,0.40382757989753054,0.005699805842650115,-0.019469590043536225,-0.4263918940081921,-0.7796540171621272,-0.40297308738848175,0.9484448197634329,0.9938800805919716,-9.956517172539385,-10.40414315034301,0.7284052154811088,-0.8778426604610683,-4.6766110046836324,-0.7188496640257294,0.06992907370433137,-0.16398018002352505,-0.19168812316242195,0.7695057337228752,0.9932208772894907,0.447392770113283,-10.00632024407666,0.20370808007246452,0.3894706913636235,-0.17216411183533079,0.6116196398276939,-0.8247278394476547,-0.5472812826963188,-5.741164162213264,-0.8925670464920666,0.5668914816871802,-4.475153124053933,0.6661079965516618,-0.4913231615534503,0.38207515214720716,0.3532207369357065,0.25513385009123973,0.23004194740390294,0.7341242656095308,-0.1126856525184906,0.013126652633585256,0.08208196142611884,0.5171451900609599,-0.6710539981869612,-0.40394393187683014,0.625210449800771,-0.9660312053085303,0.2860667457230083,0.32388925170797117,-0.20221788951584083,-4.9395507393882685,-0.09282164106262156,-0.4785867683365692,0.37068978300766775,0.205161101695822,0.31553577707603153,-4.499546148316375,0.08088800821194164,-16.01881412781459],[0.674541186140619,0.6099504369686731,0.9183045536021885,0.8963886119754542,0.5277369163733165,-0.08613824555388802,0.44138700887382776,-0.3905436982138221,-0.2415589204627413,0.49584785114263197,-0.8632678376225992,-0.19295431234682026,0.504549134529632,-0.14104677374344418,0.08555042964048169,0.43422942022221966,0.5004009660454856,-1.3381065028213461,-0.777774443022473,-0.8649814957567161,-0.5179436206977348,-8.19436687931613,0.9196650919522122,-0.7048824801029209,0.12809438111194973,0.8717018798742118,-0.8831315506120266,-0.7210026818436822,-0.2584248747109825,0.06300689538763532,0.6356291336016358,1.0667641669802492,-0.7445958136275423,-0.2837481943956997,-0.8248034123805222,-0.8029377571681795,-6.945045527938676,0.685221569270724,-0.7157039854497367,-7.628019913156626,0.7406470818639305,-0.6918831538991829,-0.7395383018698137,0.27250994185857735,-0.7218908216124557,-0.14356771305196098,0.12995445256366586,-0.09548584156593556,-0.8949496707177435,-0.7966968750498642,-0.8390020511380559,1.203049239685512,0.6003324393736503,0.5785109668001694,-0.9415043086036561,-0.8135081158378454,0.49557683393952,0.401419032485305,-7.9570563771977945,0.3750135530042284,0.8586570725019101,0.9753978479722617,-0.5575767052422107,0.5696454863171474,-6.633543129004021,-0.6934057778234767,-7.820413980234777],[0.5306629552190645,-0.6428258766027267,-0.1798612312076241,-0.0015669108717315493,0.8709222361580609,0.8873692926423651,0.32717275957230463,0.38302919832509286,-0.4270793916855252,0.11343547208197591,-0.46406008233450224,0.017961683820680197,-0.4765475441137438,-0.3428656956097724,-0.6076743868167004,-0.3606678500726249,0.6591742802875697,-41.82026410226576,-40.608533478841444,-0.054503414664121896,0.9136298456672873,-1.4410291670942275,0.8674131971948935,-0.35129040561500335,-0.6845251618317225,0.3527505134426179,0.6963846616688513,0.7833839048886568,-0.34742453723562394,-39.93200858504645,0.8277731838420732,0.38494488719623976,-0.3494204865048194,0.4917326668217046,-0.4133879571764061,0.3249075004443829,-3.2195802180604383,-0.7598161352362085,-0.6616567638849133,-2.1968349850843274,-0.20182152744864906,-0.7918743560520254,-0.7110450241857376,0.3532017485091412,0.37859938604310217,0.3550333686405456,0.12061907959541429,0.7189803970600925,-0.4814052074473105,-0.7801884212702556,-0.9279288107409775,-0.09568955493232689,0.6823192238778839,0.5729896795954439,0.8834863658477323,0.14864473435234138,0.10848277784963399,-0.9281934629122022,-3.0418203917928768,0.19981723159181541,-0.12303679997114259,-0.4805872542096309,-0.4462677620371437,-0.9877163504857754,-1.428677378176949,-0.22136487074025718,-43.18907186489843],[0.5079148050973603,-0.455410362527162,0.10222033975494621,0.7567509984832241,0.3269102090205,-0.0655837705238843,-0.2877842524670673,0.5690112941135061,0.9660792045970241,0.11387707244134479,-0.22016509860121863,-0.2116479891690957,0.590314701085019,-0.11683055456223267,-0.47138910808568824,0.3261060541671054,0.027511448223543865,-1.4351601205214017,-2.1037958558257537,-0.7085840540851779,0.39400668364571156,-6.337930850303587,0.5104896766703027,-0.9397460306254687,-0.008164259630870804,0.8452793279357029,0.6469513570178137,0.4122833971341404,0.14597784961057783,-1.990117659419788,-0.24404066764286697,0.3421426912246615,0.8147045933647846,-0.7803285439531074,0.8176924122570686,0.7226016273730416,-7.028856062955561,-0.35643707931983126,-0.14770443411475018,-7.459020138471219,-0.8553749746676415,0.8714141552488518,-0.6563126469862949,0.2718384901016752,0.08724098284275708,0.7219130253440122,0.00741915724206703,0.9787771745797034,0.2828890354660447,-0.9320615181595248,0.9788544274987949,-0.4346650899850671,0.5640796567462134,0.6855528640140429,-0.09518947518096034,0.3639116620305004,-0.33261731995855676,0.7362059061858943,-5.762254049393019,-0.3887977526129367,-0.3390633360707546,0.03016131981367373,-0.938542047905593,-0.7572148881930337,-6.223261662921019,0.14315180433430486,-7.7806369574616605],[0.6103895971715446,-0.67064214606688,-0.7871760317425602,0.7231573817775553,0.1713802995232099,0.6642463572927194,-0.8005370189113507,0.22654503736407716,0.29147129121511645,-0.8617060072780088,-0.18714775472413814,0.9362747738963116,-0.2635941738460679,0.4315378850664733,0.040108821485478646,-0.04964986752873711,-0.18628932661527514,0.5076063516815648,-0.6572909455419339,0.21933716605780007,0.7193502825077798,-13.009119909823688,-0.19821701711932613,0.9281028377039803,-0.553442550113214,-0.19834210634060745,-0.328485812721092,0.6360396556988359,0.15756339066646274,0.8400543607917377,-0.8522076318152122,-0.4264923534627554,-0.22194321194411085,0.5852421108684639,-0.9422047430598102,-0.22262654227786577,-14.133805035673392,0.936570511839475,0.20724825351036436,-13.679136894309549,0.7647534452434406,0.6527737301765342,0.1966543288034949,0.6805812562802811,-0.1716168967898932,-0.44028567108943,-0.9131650694645492,-0.6879008671439565,-0.513284664507987,-0.25682630618859725,0.5543500094125883,0.34003219367181503,0.5313947174522884,-0.20489742706068326,0.5774135163202174,0.8099740501424154,-0.4551306264617354,0.7142066406074199,-12.430133023779268,-0.9369114636743298,-0.9721588370515564,-0.8087005416529417,-0.027491610200674654,-0.7676126650707643,-12.71326299227709,-0.8372061700580244,-12.522469801658728],[0.6082494934224759,-0.839822299111508,0.7897078890927194,0.41123029864830507,-0.1639210582341547,0.6064900353605545,-0.8446596686477923,-0.41014294879295016,0.9782212078590357,-0.633384125363686,0.21143144757508128,-0.8707284065382053,0.12840385983445157,0.47318615629715227,-0.09582624905579497,-0.7177930161160235,0.37790302570900036,-0.009713238436882444,0.726485041848754,0.97275890709836,0.36862247906826184,-11.313604245451382,-0.5746177447181516,-0.7100256037088325,0.3140851925978491,0.7547047167065613,-0.8959906699051443,-0.1783499070029965,0.36859246953069186,-0.49835973312671844,0.04882774053445001,-0.6301823819827658,-0.13098662337140798,-0.09759542960439906,0.8942720418120097,-0.6418394790430079,-10.350179432426847,0.6607558274054649,-0.5881421924532899,-11.658243641161333,-0.09444017918003582,0.4013245229070775,-0.534389954286445,0.6089680981646749,-0.035038278079459785,-0.9611292766169701,-0.8893339483635174,-0.2586868621750052,-0.011454837965213157,0.6495149349701592,0.4145965226047769,0.7020184540708443,-0.2251264795541131,-0.7241999350954569,0.34057006848516913,-0.9691267902574794,0.481762904157907,0.030782186584973056,-10.672517643849414,0.7356863256679156,0.898144502791278,0.10083502769014085,-0.29143255559763537,-0.9047674212061658,-11.650067607212074,0.45329559055032803,-10.88094192917307],[0.2554044202666716,-0.8339247682788202,0.5839258669107243,-0.5145074403438467,-0.9345502814343175,0.12630352089023628,0.3293813383991908,0.6921711799694729,-0.4206243587786817,-0.3852437585907613,-0.8400325870837538,0.5415017740961298,0.4731871924918025,0.6788482020846156,-0.2740770435679635,0.004445392664604126,0.9552843461902557,0.6407125997119966,0.4683082526920397,-0.916799103270424,-0.4414906989436641,-8.320915795565119,-0.09642581252098305,-0.726396590822617,0.4124361661694484,0.5304720348755108,-0.7338160861379704,-0.7648060637593996,0.3733333630367589,-0.8880190524259719,-0.841697603568592,0.5662932136461216,-0.7970417574792645,0.9954386078691172,-0.5303464267083503,0.4079551535151685,-8.556102356617764,0.08321362514589299,-0.024566558376631638,-7.54892492684467,0.7087315357717497,-0.49388904136616685,0.7161445348182396,-0.9877966099777691,-0.5705413512961985,-0.36170554858970155,-0.47875440043341916,0.7161097503870081,-0.5797867313338897,-0.7063126010605391,-0.1272526521259062,-0.34081885780217097,0.8318691566969931,-0.573616532035238,0.8821568210018439,-0.9789314211937705,-0.6568505475479557,-0.9670866657489802,-7.42288758774534,0.7405698540020389,-0.6313171533784835,0.4513437409177541,-0.5830033587525181,-0.08665491410101998,-9.051274350136282,0.32354423632317714,-8.484270561617173],[-0.6395387219025392,-0.40835226954512044,-1.241525560462213,-0.06383894966540268,-0.2813298311743063,0.5851228087831296,-0.06785824332479339,-0.2936318327174415,-0.29585896843299264,-0.03092396605005332,-0.8881948549512112,0.5169846713246551,-0.6888715390952013,-0.9677532854370836,-0.9985296202744179,-1.3721876834213416,0.06899418960747312,-1.2267150644686402,-1.8192263104867692,-0.17910909707799233,0.6516075583318616,1.0111793244138478,-0.8302682137688857,0.46878573422956465,-1.5141249712754814,1.4630504744600605,1.4726454856019107,-0.07892705471653452,1.4375925893255388,-0.9515221267269148,-0.25075883800898535,0.46044754578735636,-0.8076762384637745,2.306172249249815,-0.6741580144509872,-1.1268866882697222,-0.31185803398716117,-1.4518869284709122,0.7014805155945522,-0.8016825971895251,0.7687310639075041,1.406517699919768,-0.3761408921198016,-1.8285406076340445,-0.019393630886980782,0.6678816709443831,0.12194035888296174,0.37464623570488215,0.582668962286205,0.10114348886275822,-0.2506511909861053,0.0011769545724265719,-0.2898043001666936,0.5222064829675246,0.4746987323125184,-0.2993488150368404,0.1512943324184329,-0.4789904748575077,-1.0903937801751684,-0.7227184307160688,0.5777047803796144,-0.18684011876284937,-0.39081195666606927,0.38904491821725956,-0.7185652222349718,-0.5867113175231957,-1.8384281851230964],[0.49963589572437855,-0.9222938215704146,-0.5901843626725494,-0.1794255229369364,-0.2084520764103562,0.8842557563537815,-0.9657804586469841,-0.2733122745679568,0.12517256250573058,0.5529209566807473,0.5662585357819847,0.1029426246579018,-0.18857090116169567,0.2426299684110144,-0.1615579475105164,-0.8308692068390761,-0.3616053839353715,-0.43199760932649184,-1.3345921136541092,0.5837341557574254,-0.2350945660502029,-5.581996277447278,-0.6000260455717137,-0.4292460304051137,-0.7261002835782495,0.4703522569106766,0.13432453364447705,-0.8436995719770795,-0.5314004636011952,-1.7142727169034249,-0.4511364230651526,0.17192616561249305,0.10712390902685091,0.6899724823950366,-0.8586786347379393,-0.767169155648857,-5.055197625201233,-0.814893860469307,-0.5647216113748511,-5.754250778098134,-0.4807269557939314,-0.6251999932169583,-0.15183092327146908,-0.5454139758645077,0.3659149106173002,-0.28654692873658844,-0.8387504825030848,0.030685843497918135,-0.3626022784452865,0.6383203561574249,-0.09276391008546866,-0.2504348178574636,-0.22540763403666533,0.6563406013205323,-0.3791167388768179,0.37724592139613866,0.32391152697699965,0.8377059586084638,-6.499290486718923,-0.2097425789460677,0.18025822384183518,0.9101111322287606,-0.22956530522399934,-0.4968048177923547,-5.761388630823163,-0.4250778637006617,-7.38043673617951],[-0.298610771223109,1.9969616060254147,-0.038204872231007665,-0.4204364333099202,0.9747687504301982,-0.9657642617605346,0.592582928482645,0.28993454030637716,0.43475572115554956,1.1432450561694283,-0.10554325361008726,-0.9473358553922974,0.3218639275345684,0.3493903453147431,0.4632748873379172,-0.8537387793504843,-0.16756673417637613,0.25854606666753266,-1.1810724648844928,-0.14699726657947823,-0.7723142329210361,-3.0761757931408202,-0.7447118274048565,-0.04388834840864089,-0.9175532249103577,-0.10444410606313943,0.07231457948032811,0.5198261394219036,0.08498303966179235,-1.1401906547656926,0.5470924221956094,-1.0171798263245986,-0.6997056353311587,0.02810823151549346,0.4707589127831607,-0.5456289005867937,-3.25786882665648,-0.4139969362041028,1.0241913283534,-4.109604042304185,0.2782377076793806,0.9417207107703732,0.23543225899641618,-0.8609320294015417,-0.4251531657755961,0.4489356352015302,-0.24880176930703835,0.5726611262958204,0.21401642642958205,-0.571239504622472,1.098737878437036,-0.11576366309367092,0.721089474656497,-0.7164015358089645,0.07095406643751946,0.7729530363891217,-0.4255040110508219,-0.532438731817724,-4.166124754469942,-0.22399426104890377,0.30924143582616836,-0.7194173876777888,-0.5734318827348147,-0.5252536089918541,-3.901171820915232,0.631232636522033,-4.615543173740245],[-0.9829563860150208,0.9981369368251306,0.6764886425544778,-0.47153981903070763,0.0039346978608705944,-0.27447220954914464,-0.9922492899379449,0.4793014649410517,-0.7720175055830688,-0.027503517037057428,-0.27160724034427397,0.8791708914434919,-0.5898022561565833,-0.9207790721011092,-0.24161358787963652,-0.05611069479667723,0.0026352197640534475,-0.6144249131461638,-0.25922536089858134,-0.5331644278035481,-0.5721632710730159,-8.780900098804471,-0.5281929596249259,0.8387779524909162,-0.4375661444649433,-0.303841466286583,-0.2937559193014242,0.315396144155737,0.48906716125491084,0.39570836781098545,0.6390706730526605,-0.4570234038433521,-0.03405085349600791,0.2626613384641828,-0.938603781349092,-1.008737245469791,-7.310099725262719,-0.10448975743100704,-0.8284025652695539,-8.465094638113811,0.3078937978358452,-0.40173188863437753,0.4012263575968802,0.8770930290074845,0.560151482994105,0.9876268728587957,-0.10290379785430064,-0.05255645044949007,-0.8362876126457276,0.09962981716444008,-0.9675843595254306,0.4495570947673853,0.8023944904543722,-0.22870046191465446,-0.5342026853963211,-0.14403708455340836,-0.4593144862251111,0.6320984169045152,-8.643172931816975,-0.940810896533819,0.580423918853835,0.7935608543089449,-0.44892509249737034,0.4219295097495354,-7.163152790250444,-0.5674344862568688,-8.7250457804407],[-0.7686358701567286,-0.14991893837349035,-0.6698321458822538,0.09296120326597312,-0.5718456417626516,-0.03160235998698254,-0.5754287696492659,0.5826499943997102,-0.260587172415794,-0.25696258821104284,-0.7336281517432177,-0.9581105716378373,0.3524353646748957,-0.5402604610025119,-0.01279208018100276,0.5029723454158334,0.7165234680526523,-1.5313412817961127,-1.4644193910879395,-0.9470600233926528,0.6847503095072729,-5.175584253942475,-0.35777279673395596,0.6464246558776783,0.13422386317332327,0.10907349760415908,0.9150576180033735,0.5932985349630774,-0.3822668543211486,-1.2912224638483252,0.11532385774542073,-0.06370250281586008,0.23756355627543832,0.5352612157636595,-0.34173870990964467,0.8613016918578495,-4.529439152054339,0.7381570598933123,-0.4577241064212639,-3.8836655856859497,-0.9052378572130562,0.4157782091525499,-0.541181980831077,0.17986412847663838,-0.8071691001693792,0.19088318179622307,-1.010717919358562,0.7448939058932035,0.6920803702593918,-0.3405448008318633,0.023369973559335355,0.34562642167984975,-0.8322685157183936,0.23066423748008144,-0.2114717142748407,0.12333753191493514,0.8075517389472003,-0.6993047295565556,-4.535527262872952,0.055357181988929,0.37709149253707247,0.6511819279735507,-0.0014907039882259506,0.7819764234313539,-5.731260089369068,-1.8504171866569443,-7.013491249322981],[-0.3479910032323328,-0.9077087822917028,-0.3928902377456176,0.8550679193249859,0.5401468511436238,-0.9019009352193237,0.1684930343522123,-0.81065424860966,-0.6759397688833042,0.8323558727354832,-0.45161370416516394,0.5165951641088616,-0.3093940956680232,-0.7691828244251459,-0.6908584894721506,-0.6528891363839999,-0.23513875982658816,-1.1720176621133351,-1.045087422412623,-0.7790295554988782,0.2178226995170527,-5.251579051438465,-0.27436643812432915,0.29465983260908735,-0.030492240112360045,-0.9348935611485,-0.5528720379785531,-0.5131449990734883,0.6645124629946882,-2.6961419109785707,0.038385418785390174,-0.49563430776688633,0.2748439566493323,0.3511406098119453,0.41262822518231557,0.8796276970690489,-4.455311448546578,0.27895427686099333,0.4768550648942417,-3.5952887396375828,0.0999535558535117,-0.6569711158651828,0.08636479614448382,-0.2578641613865804,0.10522059133560464,-0.7944074381964791,-0.29476477031062376,-0.9651086783560482,0.43422076900406037,-0.15502038193334108,0.7493401074176258,-0.8673238169527115,-0.7073418555148652,-0.2895861862470484,0.6593746234000343,0.4806741259454165,-0.6754117644375807,-0.37256153525924346,-4.794158789343302,0.974063444665323,-0.8174061250923952,0.21215541948353442,0.8008727077272297,-0.22736450385179785,-3.843883748145777,-0.6748671017294837,-7.263160270738987],[-0.35193965013280243,0.9202491958019697,1.1014672637964984,-0.7359116930320738,-0.7764616230063723,0.5530468102650232,0.8063130120965701,-0.2779951222115015,0.7999988055703197,0.45438681729704433,-0.6931195360892496,-0.16018452150199572,-0.5891783049661559,0.2921930929704841,-0.3856753863345329,0.06921042817603003,-0.20940876345544135,-0.6861092217226159,-1.073254782033141,-0.6770942194227862,0.003696986697987619,-6.276388232427253,0.8207987813349602,0.07742042420975356,-0.4645259584641196,0.30513325862921326,1.2802366787317465,-0.8172570785693121,1.5184241358198696,-0.8570126756446512,0.7532351664564134,-0.14947647111382706,-0.34617250564773727,0.11408069148517541,-0.7439848221493779,-0.9087220706037032,-5.800427719918619,0.16411991778113968,0.07086084714672904,-6.1801629710815025,-0.3083451810177886,0.13627393626074052,0.6380264907676241,1.0987823821932836,-0.8402392961532059,-0.37754260743598467,0.12016762813020851,-0.10184448699778804,0.1818828677736865,-0.5088986682477358,0.6547864856653669,0.13093635956444621,-0.7031739011377027,0.5009466496647541,0.7861267657389616,0.0951341228767695,-0.5867945250246136,-0.4824715575520688,-5.024148837378238,-0.1521335899291891,-0.7108466362055604,-0.9929531091362457,-0.8353627180709673,-0.7485234595085423,-5.837101710474069,0.6633137161066798,-5.457588055436831],[-0.30845577027104043,0.832779338139503,-0.6458012817767478,-0.11237602503624099,0.9170903963465998,-0.8149130515855223,0.7814663296784363,0.08052471199410847,0.3676675481557629,-0.3918481112427848,-0.11755262106512147,-0.4015420107512888,0.4531620460499424,-0.4052613917178364,-0.8178120176224818,-0.144724163668005,0.0388163477264499,0.8811801590529709,-0.017617626790295004,0.046832868847240805,-0.6263129528486953,-18.263838640001925,-0.8547178195726376,-0.2611156195502718,0.8354580650580361,0.32648482038746696,-0.5741320063404162,-0.24160107798294023,0.1605689349857703,-0.6788072050262959,-0.1977790069383074,0.5171098833374888,-0.31813332401895356,0.9843227175764437,-0.5232130000101076,-0.988338877908916,-18.85482061086267,0.8682230937827203,0.15277370385487424,-19.84119657155183,0.8402326490415947,0.4864718181473377,0.32369164170681214,-0.30460928023576034,0.6168637235253245,-0.6385392128854188,0.06453437378925211,0.011567244411103086,-0.15187820426879187,0.28807669694880783,-0.9005690452112084,0.6597438243624079,0.935173253097563,0.8151429453066917,-0.4299416920581721,0.7338199688285165,-0.7825133997150059,-0.8980522806809714,-20.137852171527207,-0.5032307972322148,-0.6659460310052554,0.5523353734482657,0.15045724220848308,-0.7757855265255575,-18.287962663947773,-0.30378866240736546,-19.756239664932615],[-0.3290789956561243,-0.920311332422465,0.1101077807610111,0.46784015692207764,0.4217455883214611,-0.48083919737652264,-0.7946220215094877,-0.19172965315815982,0.08872372125108441,0.6444891375957341,-0.7049039479451831,-0.9200772933906093,-0.8463814107654446,0.3537117570970775,-0.07570460600686223,0.8273410487943517,0.5208211729976261,-0.017296466779011296,0.16339621793778702,-0.9909662974314678,0.5023567406088794,-13.908303370968898,-0.4092672070967396,0.03600110507767024,-0.388592975885407,-0.44050144277921355,-0.5936969852899912,-0.08347637963566833,0.20518824873644564,-0.3272157594324383,0.4469768665640547,-0.9439595102130109,0.08082208106015558,-0.02774623114186948,0.2831328004795749,-0.30071875685019983,-14.288970064368977,0.2308538168594884,0.9982900351417258,-14.96154374396781,-0.6520810107201475,-0.586556746388143,-0.06615262139584968,-0.7886806445859672,0.4309865112933444,0.4581014110521573,0.1554053954841161,-0.5140299438345268,0.7000445451669649,0.7086406811167079,0.7213119706835714,0.726320376141278,-0.6456802516119575,-0.9839300123551734,0.524400671015497,0.7022520780948116,-0.023581197610403126,-0.3845122646789605,-14.048785959705176,-0.189236534245433,0.4762380861479996,0.9051230850128718,-0.8517889658827429,0.04471019239135872,-13.952848066273674,-0.4401682808483165,-13.529113854953103],[0.9477433650447902,0.9894396905275743,-0.7429269504949175,0.017167873536491584,-0.9558091565943269,-0.7013066657711091,-0.33892046493728506,0.47283021350356497,-0.26233802176066373,-0.48714223471072415,-0.23127657110088576,0.8984876050459153,0.5159187890661151,-0.22190812726248124,-0.644373607598689,0.6630672986011094,0.8310177848924981,0.2395023841873427,0.6267531180912567,-0.6578326827547231,0.7917554485662951,-11.774931512741345,-0.4926108216743723,0.010932487417873353,0.43775044490766507,0.17434219593860176,0.1445862448639851,-0.0016313903269140994,0.09887043355624961,-0.6001381233975414,0.013203993556928629,-0.0011513099072446246,-0.9595200176029682,-0.377946208962032,-0.3353295358190592,0.6968546367037494,-10.52240471903269,0.2204524323218772,0.9609813832838827,-9.725139399012564,-0.309766086626538,0.14208246285324933,-0.010357645210364136,-0.8315728981288586,-0.5205268248898046,-0.317667504297629,-0.08208760192287344,0.8411742731070169,-0.966585976025509,-0.08714694039572267,0.6205697242908,-0.6138276199205503,0.09633124115928549,-0.8547297462361512,0.11417108855086469,0.927861076380392,-0.08822675796684831,0.7242863471257652,-10.816513232787633,0.8582079312388918,-0.1440493256879872,-0.4049021988541494,0.24728895762852107,-0.25900381653347243,-10.356845405222693,-0.2974391497562081,-9.991227843625056],[0.4849120584896036,0.11610636683011252,-0.6179390481292415,-0.7866552216570913,0.31032267262751867,0.23333422486357777,-0.6705841615947922,-0.32983570162553266,0.15942678587181713,-0.8133901592740714,0.8266929106639653,-0.35302687994332915,1.0872349868840872,0.4782653732465446,-0.1681125276866397,0.21250621798621117,1.0042762725014782,0.4018399047784066,