{"HiddenLayer":[0.00009554420641363955,0.00016566809595820815,0.0026850583377663368,5.749944200390493e-7,4.261059150106723e-7,0.000021889847883575965,0.004950824706151848,0.001395925028535524,4.758432741069289e-16,5.129328813717656e-8,4.367384173401934e-7,0.000038623234578248223,0.0005450596564414257,0.00007226105307210895,4.705523521639533e-9,9.95188715629098e-7,0.10689815941567797,0.0001698935601373068,0.03703970376442744,0.0006096488260138084,0.0015915600078757538,6.459407245598346e-9,0.0004398256609402408,0.009018015468946382,0.0006314963774779254,0.000006075752736077882,0.00030183999398727496,0.000008543058116805413,0.008361965193768755,7.121141295000458e-9,0.00020758031162932953,0.0004485457301489803,5.476811432686415e-7,0.006602039467352687,0.002705621102289701,0.0000027262988511462727,0.0018309289757160719,0.000012490117736018133,0.007747114302883641,5.7704188385093007e-8,0.00002210722807569063,0.000029596501567435174,0.12214760779952767,2.4497309419201002e-21,0.000027357435872977725,3.6157158970023206e-9,0.000006758575765149282,0.0003455759443117491,0.000021235443636896302,6.403931927859432e-10,6.560873459470878e-8,7.943642632170356e-7,0.18465015423827488,1.02297093518815e-11,0.0010236478387620745,5.381591402930052e-10,1.4682374954257596e-13,0.0033025095463331206,0.0000018294748008339195,9.322804308533937e-9,0.000012497384127795762,0.00010670851187604494,0.01402750468845847,0.000025287561513364214,0.000005220877241512564,0.0007418845277586706,1.1555995798723671e-10,0.00002717916478094324,0.0000026604383888888237,7.127863578505494e-7,0.0008168359021760862,0.010917853525307554,0.005636040695640928,7.280096364771498e-11,0.0004235407510161884,0.00003368502393765755,0.317330025778061,0.000001861258832813008,0.004160909315006284,1.7463248354639676e-7,0.00332816008417798,0.000006879690872136493,0.00011881239924098787,0.0038032164268540195,3.0014653084517185e-9,4.790280944778775e-7,0.007001192721292215,0.0004120348333649249,2.1914010777046763e-7,6.054886095450289e-9,0.0006443190722392475,2.1858641760424025e-9,7.33361447390835e-16,0.000014989029081501125,7.287327836854609e-7,0.000008940247211477357,3.549154883120884e-8,0.016428617453894054,0.00007906580047879312,0.00022302248051509675,1],"InputLayer":[0,1,0,0,0,0,0,0,0,0,0,0,0,0,0,0,0,0,0,0,0,0,1,0,0,0,0,0,0,0,0,0,0,0,0,0,0,0,0,0,0,0,0,0,0,0,0,0,0,0,0,0,0,0,0,0,0,0,0,0,0,0,0,0,0,0,0,0,0,0,0,0,0,0,0,0,1],"OutputLayer":[-0.0014913557628421625,-0.007733616421002398,-0.0022372611848911206,0.0031229453808400767,0.004783081580107873,0.0007702836609490976,-0.00019111130801217902,-0.008948500662637374,0.008726963621660883,0.0020467112548864658,0.9920081206251589,-0.0034151248744579907,-0.013837254357507937,0.004440213293457784,-0.0023055905062812354,-0.006388483876427781,0.005914158553150098,-0.0034128951272549835,-0.004613546781837757,0.0005934993329859695,-0.0020317949690282187,-0.007964388473532535,-0.005206328560936585],"WeightHidden":[[0.048840848475452586,-0.4582637632912388,-0.9204381238410805,0.5446646570920766,-0.648529964001703,0.9730209734416162,-0.8396283427088997,0.2549419564427713,-0.45374731038528276,-0.5573521689763863,-0.8087173823814792,-0.5210621219613124,0.9817311285323082,-0.6114319424033472,-0.6834208912252848,-0.37752360579009464,-0.22561944695046016,0.2953349091180648,0.12095368755258273,-0.03790032506768353,-0.2885999850756839,-0.0006689474295315162,-0.4608516387646104,-0.1275645545346347,-0.3323588973792633,0.46233696345515113,0.2188575472858649,-0.13646643952777407,-0.6423451279765126,-9.262050435762353,-0.9145724505799938,-0.04937591016547003,0.06857299387962276,-0.4330052970530481,-0.7950464824380706,-0.8336212220723594,0.3570548466757231,0.5199857962164343,-0.5304429898496377,-0.024447284705730665,0.8250535863466917,0.3062386336050519,-0.7692447562422193,1.3776034218145765,1.0167904380561401,0.4026818049193366,0.3769121138106008,0.4869052090321113,0.1729061363002897,-0.6454960458129936,-7.812806172754635,-0.7930062339503731,-0.7324790622621874,-0.8678759159796763,0.6279991771780602,-0.22076890591895343,-0.8270925056361846,0.06943477449155765,-0.23313607246927753,-0.5198706361329529,0.44287898589706576,0.13350825153412293,0.824437460260372,-0.3750139554802475,-0.7214620191960873,-0.4917525691699616,-0.8922464991015815,0.7037695112777489,-0.9302336976772789,-0.5541998922105519,-0.17918653721035804,0.07293718178298021,0.6107027506397128,0.7128535296771863,-0.9598786950430274,0.7413176283101675,-8.336721439264632],[-0.9986291584054938,-0.8642252375095691,-0.6481750003286209,-0.1708408994386648,-0.8118966232700348,0.5397318604277371,-0.3040833591483738,0.2828486970875899,0.6224209355367014,-0.6989556354914976,-0.021587567599557527,0.007093348786987877,-0.311049883383581,1.1196498315969217,0.17193954093522637,-0.7166776221213137,0.6580702879069529,0.5284115433952388,0.7397118793073121,-0.668022923778766,-0.7269388795728269,0.23116976864993227,0.11996431921466856,0.7616921778568785,0.8458555780521271,0.7289199192738525,-0.11364738045933585,-0.7253362026667439,0.40516556049492364,-7.25962789177356,0.513107787002712,0.13740991197979727,-0.04543165606001252,0.8298665678827132,-0.08940513958355303,0.1499078051441889,-0.014172230847783244,-0.15341913834191917,1.2548989365443926,0.9163394452179152,0.7591940490034885,-0.5012013430112392,-0.16196306584746267,0.4501610709129403,-0.5821072518101773,0.6597814674527245,0.5703869645493105,-0.4675005902902362,0.6241905167613435,-0.45770056685175653,-6.65376602365222,-0.13596131096160705,-0.2734871983046274,0.13367917969318716,0.09811825181345259,0.7081382195998487,-0.8729543721269849,0.31853096909672074,0.24698675949310547,-0.10836890273697743,-0.7620703072624563,-1.1623328988330932,0.3669961038012658,-0.7341495533627852,-0.2195419416384303,-0.08088788836196849,-0.190905068921346,1.1279161841931251,0.09856438292571214,0.687539532564664,0.79442913602362,-0.4791517481867747,-0.604694490185133,-0.13040174030905022,0.02081408527983348,-0.36801632702479675,-7.961138182178288],[0.6656443616023354,0.3178134447102361,-0.8738385148685515,-0.6306095990777102,-0.759723357787486,0.18267625703093102,-0.6152195496563567,0.3780477124660918,-0.1541858160748412,0.13493260942259294,-0.9943386389005026,0.7971936131755188,-0.21716506988120207,-0.1315984303338052,0.3286999778971575,0.11550950908432471,-0.2419480928983724,-0.9187843527725954,0.15046901087369008,0.7638651724839229,0.044656319470816996,-0.4783219756720103,-0.14077176712116754,0.5716897560464279,0.18091937009884237,-0.0027976008111147525,-0.3894424115430969,-0.22450786606557827,1.4907084371838046,-3.505570677121949,-0.6974554190987807,-0.6543427141937705,-0.43600032680273587,1.740398606730055,-0.31117120511608176,0.2996863862931677,-1.1244131162245656,-0.6032471508629601,-0.47588651175754637,0.6158077389776282,0.05480466586382409,-0.9460329982846197,-0.8369689456849098,-0.3347207792617276,-0.8570857179066316,-0.656085521234603,0.7725076045681132,0.9037914539039946,-0.5578866453644137,0.056310410818359066,-1.8389345688488947,-0.49707616134753885,-0.004812110792836891,-0.7082065306273333,0.6566048450509081,-1.032916491937138,0.14936826116973115,0.29188012415973824,1.6004449975113086,-0.39406902625612966,0.20087848355842072,0.5127641449746795,-0.3892866094900383,-1.3359094780369916,0.4584205305959467,-2.0807922712396025,-1.0188109695870202,0.8074643469650701,-0.9238018297768519,0.8346879683073903,-0.25510318410885596,-2.448461229682916,-0.12269186863776016,0.24543277463581514,0.2023407625286958,-0.2568335808090947,-6.09453354643198],[-0.8214348889763573,-0.25676462106507814,0.30850742611073817,0.4766893421022803,-0.9815581781216984,0.6618159959773605,-0.3246755378818258,-0.9313946262727468,-0.9119768020672648,-0.6818775383567541,-0.08348053285929462,-0.20015091356551917,-0.812864760895175,-0.056869097716169846,0.1194148256388464,-0.7762054897821852,0.80910689797261,0.6618632820216181,-0.8982634803691741,0.6031461100997085,0.09352463527697924,0.22902498013392097,-0.8986559086790646,-0.39861866588456163,-0.6196020508180613,0.6133943305656134,-0.6517597210856143,0.45284008708823625,-0.2930313273387574,-12.950958209442481,-0.9806860733980635,0.11474270367908379,0.042426148771909755,-0.35933856527655983,-0.8896520067750373,0.4624485683591731,0.7319928140996672,-0.37221091142996193,0.01826699394870415,-0.20351680858884874,0.4245451194071945,-0.5446735125835931,-0.8011805575459708,0.2552189205962231,0.930580127703849,0.0002454347486781989,-0.1404276962779211,0.6169267240648579,0.16064057723510028,0.9428987829226345,-13.549655164268968,-0.7581454883619029,-0.5530354946584899,0.31248946559063107,-0.7271023171573457,-0.34378795938632195,0.37210233965750666,0.46305332020205675,-0.09046701415939526,-0.34908624095923974,-0.7949556143560548,0.2977799649261986,-0.1659385509649424,-0.06320195876411872,-0.13643391419917525,0.6960645379355758,0.7691272395166201,0.2989887960987944,-0.25046940941447843,0.26868481093319163,0.5087252386861991,-0.4042170548004512,-0.006223761898327348,0.014676131867055454,0.7898576311696608,-0.4435935874223822,-13.213484509275657],[0.10793215842054651,0.7980690055911741,-0.44522496932697464,-0.6850617379619703,-0.7791854714276913,0.05295292822298519,0.05321642273355408,0.9144958188106153,0.3954709504249166,-0.022344129091174638,0.23694880832975848,-0.22114947456504827,-0.7084502701026488,-0.27662601046168206,-0.5717525439033949,0.057925236629619896,-0.5883946507182402,-0.17658530199488823,0.22391359209871567,0.9162956759971104,0.941246162193827,0.20140580149449566,-0.601573558528338,-0.9365933364289705,0.6461221303939942,0.7883432201927597,-0.45987243177256304,-0.913969006107414,0.19952615410174335,-16.12293284274556,-0.7349938668715853,-0.6291102121600626,-0.44292538530343967,0.9466890277018803,-0.670946974540442,-0.71926904848922,-0.8365287879000504,0.6637590778659104,-0.12354603082737171,0.298946000640792,0.6237211040843036,0.9873874710341348,-0.6653524806795887,0.5858973128637547,0.6926778425683602,-0.570403728555928,0.08064651926692774,0.19436494580605307,-0.8458490127372797,-0.7915937888122542,-15.1496197695984,-0.9398774293576819,0.46332116995126205,-0.22392895158412926,0.16726745713046715,0.17356790927464077,0.6867842475374148,0.4159773620000749,-0.5477685110238241,0.2707335842484647,0.8212054411349774,0.2554424063742645,-0.5637068666182568,-0.04651637956843703,0.6301540282229553,0.019387457678900977,0.5010732005809629,-0.9291009721496776,0.5404740779817435,0.6918635042572261,-0.03368705062892534,-0.8540680257103973,0.3523509193087594,0.0005195692943241143,0.4786185008010203,0.4035089507878971,-14.865072995265647],[-0.429018586262443,-0.6570573455367176,0.4437960774484951,0.016308639437355853,-0.9328565365035055,0.10766729584003765,-0.816067374792375,0.9504747712152504,0.21642454780128131,-0.3783792183522667,-0.09463856238672214,0.2578583388027689,-0.07038455449384323,0.32886949539939114,0.3160924302150154,-0.24200574101969324,0.09105243881074629,-0.6683813765141676,-0.9337842902916992,0.7829512716130523,0.45667413502611065,-0.917864104685988,-0.42441994709431513,0.22930652122290793,-0.7731516371377349,-0.422306569796418,0.03991474249320447,0.2835177233387385,0.7253690096619745,-9.064077513817994,-0.012860413647448348,0.238089304903911,-0.8119129595033171,-0.8922835660416494,-0.7205090741928228,0.3847074669878601,0.42150036735212854,0.0039639439828867175,0.5087864195553232,0.9728797903954148,-0.8889637688042705,0.32768513468582294,0.7432609061049966,-0.1388224760524586,0.8008773411732943,-0.9878515635996993,0.6041290121838069,0.9126569906502993,-0.9644507130438196,0.16672201175153123,-9.606603367912141,-0.3292937780440583,0.2590830880994481,0.6673092560471429,0.5316932232443965,-0.22283121729489594,-0.38244181871233346,-0.3379155595383355,0.7737011193721697,-0.2502358905092087,-0.6977293887704636,-0.034657159425362,-0.1373670820804042,-0.6590125704534756,-0.6244369452210391,-0.36415066320589806,-0.09542014215251053,-0.2943632153895938,-0.8028089278197296,0.26376339991151776,0.9972944689624368,1.1307129305222319,-0.45082007792618234,0.22722491159719607,-0.12054913481333643,0.9028691575728353,-9.647991972727365],[-0.8301329430715293,-0.2281784365189399,0.16432365943731628,-0.6158779005908352,0.2930977056623334,1.3867027776446141,-0.033617201471981904,-0.039929306148281725,-0.4701938304799574,0.7898304278226542,-0.9383672273414599,1.0304837224017362,1.6098109146887,-0.4080285603478478,-0.6908163319521405,0.14190030446145893,0.46936603720338455,0.45910933584098657,-0.33347887481699645,0.2703575157586322,0.01760093002415681,-0.7556214204509313,0.37910899935919534,-0.17189660168793613,0.669537480084476,-0.15408593280730362,-0.19750462491118795,-0.6294796411367035,-1.102221510910472,-6.673928249991141,-0.5425913315267463,-0.057854391984491986,0.13555164818428656,0.5943378415829329,-0.03874965200442973,0.04884581361548317,0.7095510775773506,2.5239794493558305,1.0211631348919394,0.4565241337008216,0.5391197212504165,-0.42855227937276474,-0.3727856513684812,-1.4404187632503886,-0.2772648402877221,0.01804695936180078,-0.6986577659470272,-0.40161420336932874,0.6031055628607866,-0.4455736820111468,-6.6697583952656805,0.8367250510670495,-0.8779111943772155,-0.8813951405080234,-0.7177434974122974,0.24417553511762502,0.364747088824574,-0.8541518799388678,-0.8406488736313621,-0.386477724394944,-0.1496576394183857,-0.892960789853354,0.2599951448301446,-0.5286819080229292,0.756331420405087,-0.6550863076978694,-1.1303208859442597,-0.14793207532287858,-0.859605025495014,0.8635847992544439,0.2848533229749226,1.5567387567162936,1.7098833345557765,-0.7957748973272635,-1.1396440573270905,-0.45743226335385445,-5.454222436115042],[-0.8189415459295087,-0.2491791872287539,1.1217667931750521,1.7984793372565882,-0.03833440363497623,-0.8950356246888468,0.2239892109008464,-0.7148083572027407,-0.35884869058502983,0.5012871194875486,-0.30188281739077316,-0.4519397230267212,0.4569712777865856,1.0153805054548761,0.9429320573088283,-0.3147578971995008,-0.8889191238920627,-0.45121471172355226,0.07879274998652618,-0.8813058358378608,0.028002282188272137,0.060250989134041665,-0.5008951414848499,0.7083407911409594,-0.4683722710824365,-0.9139921461027672,0.7634409180742405,-0.37718146967685606,-0.24817486371538197,-4.1433827432368275,0.4940725534101011,-0.4168480186244546,-0.8207637473410893,-0.3881363756446698,-0.7617334952878685,0.7840719972589513,0.5594573653764225,0.322470217169216,-0.6422776140913724,0.3340609901980373,-0.9471221005591521,0.4826592919987919,-1.2072301546457767,-1.23865116089165,-0.5195098621369909,0.5927953722185426,2.16753817935795,-0.8426329803775652,-1.011159939763198,-0.8572694266816336,-4.512758142003633,0.12775951245323497,0.18170577345452488,0.3457721779930637,0.7645733004062896,0.11145769500325535,-0.4994884290352023,-0.7230076040312805,0.4887124493342196,0.14475862729729785,2.3117048271019036,-2.613965774585041,-0.0007232659688608527,-0.6264684291318084,0.5515502469512547,-0.8700446879564293,0.14771130647301453,-0.16346374285349088,1.176460039253216,-0.3369397396258889,0.2759957338526102,-2.4409652143503973,-0.3660760964801306,-0.6421856482641839,-0.3083429727684069,0.26590578237092305,-5.822706131677381],[-0.28135481834660603,-0.6331287729210413,-0.8483160441974178,-0.05134419513893857,0.685357071221692,0.9398679846176319,-0.3872979856746005,0.11118766171213246,-0.011872355451619439,-0.1769585175598286,0.3863575412800082,0.7947629928872849,-0.8237180489461453,-0.3059390933057535,0.09134992287838575,-0.7150837397042263,0.5427793849855617,-0.3368892557599343,0.6182242418558435,0.5146198337162629,0.23609265349663133,0.7818300880417969,-0.6545265868391172,0.5227304481541957,0.8379711803278697,-0.9711104264228009,0.5288917528856282,0.7941111432311609,-0.5626694908788581,2.676632686416779,-0.9143202748519779,0.2967862952837419,0.40046246885264375,0.7773447658117165,0.6828239650309216,-0.04600720516402612,0.658335720353208,-0.2717916412752811,-0.7795617199693489,-0.35567772754453414,0.7640794115491696,0.50165957425978,-0.22404825587146593,-0.6584726576774436,0.5790943800284607,-0.30142324105261353,-0.16310422272504846,0.2730643830355476,0.2604420146867472,-0.3024691786830157,2.6939317635051365,-0.8998154063881323,0.6666532481503202,0.10819128669608298,0.5639627076775254,-34.21401980447239,0.40324154611986357,-0.16226396309487792,-0.20626671217735898,-0.5955908551734077,-0.4892074544433031,-0.6631358606519199,-0.914314148726445,-34.17574469590366,-0.7274633970818627,-34.828379062102464,0.9663360646880064,0.17594596620930908,0.030738858881290295,0.41680060356161164,-0.7991031156095647,-35.507531084018574,-0.9773575497391065,-0.3299816453004952,-0.35926193845028376,0.36985971241432275,-33.99378777019581],[0.6661605363651412,-0.44665039727746353,-0.6144467109696403,-0.97701612590496,0.2953996827321225,0.5684659505935866,0.6688647922578227,0.4356647399222038,-0.90373943957247,0.71075319156564,-0.6515887565947275,0.8830233222878252,0.6466854376577243,0.1341905626650088,0.045029603295046246,0.03246550790806231,-0.534818738178382,-0.9506715465538763,0.9392801748851155,0.24140944849650656,-0.9186329025365246,-0.6122823456663713,-0.645547564579867,-0.28003406220900245,-0.37358959452885304,0.30264497782080685,0.8222113352563838,-0.875608254495436,0.0079037407357521,-16.820880621067467,-0.8029218747864719,-0.37781403085642423,0.2410546498660617,0.1373573899413816,-0.0843579328964468,-0.6211960320076585,0.6918211081259498,-0.8375088940862097,0.20230483788952092,-0.48663657465414,0.0925174118702433,-0.37506423600830036,-0.17866518551998412,-0.021337179214107948,-0.42597266092812286,-0.5649300935319642,-0.13933322303311832,0.8561004362820333,-0.5281670187215742,-0.6547411866323092,-15.647284734254853,-0.7224603195136524,-0.846984878027704,-0.33120276994083403,0.3470228269665652,0.9878277928918064,0.35443140861229294,-0.561887519074557,0.39179920949092484,-0.46650242995180163,-0.9460850509193648,-0.5022738454792752,0.27544265634374404,0.1389736715094741,-0.6360420884410275,-1.0637751864411216,-0.45616074879628,-0.27512254390311924,-0.470728532511216,-0.7953755720779213,-0.19086032552178495,-0.9577001810827057,-0.2035041375975598,-0.5590977123060451,0.6677606895238997,0.3358364119236445,-15.69350792182558],[-0.5963013947217373,0.8778593135968772,-0.09589550630500313,0.24578879763961464,-0.24253748696853808,0.06733103109772766,0.7592908232573504,0.6494067245156946,-0.4532290395515146,0.8421976931321723,-0.20690126068163703,0.2823372196744592,0.3120857588456054,-0.3979176743572302,-0.4468487765519204,0.6753989779819569,-0.16616373610072413,-0.35549134619360967,-0.0938351680652485,-0.7202818000277877,0.3642046659952831,0.590016806140262,-0.48728364394546014,0.14738765027533457,-0.40576879795278703,-0.9203782656627035,-0.6070616349160646,-0.45861685740773617,-0.3596090878863064,-15.078447673700733,0.3070196767011173,0.17258117601965148,-0.17288821866404505,-0.683839483536691,-0.4060477044132326,0.43839127614180967,-0.8282591432599826,0.15044875447160064,-0.9911514819717302,-0.9827745019517008,-0.8995288820409704,-0.08441727017193298,-0.34505232972238287,0.43967991492175923,0.20030377009290537,-0.015019190145363522,-0.559342232087341,0.4620986273043037,-0.7420463180973362,0.5096717535863509,-14.392996575162085,-0.25329599192124863,-0.3158227370359256,0.4052167027837486,-0.42875063623014364,0.6912418776219391,-0.3636528421281597,0.10927403049188693,-0.9769307765098888,-0.30321673970656504,-0.8460449707100227,-0.5137520872405237,0.5404678603388149,-0.7316212851427659,0.7467358632768025,0.07943565942360674,0.14373373511646362,-0.654239913189816,-0.8681258370352047,0.24818802877530177,-0.43985771504742455,-0.5083474117589029,0.5908713182064114,-0.7557414975024835,-0.15926064533866724,-0.09411474950072019,-15.03450667933483],[0.9828874982233637,-0.11001595465575703,-0.89549172591059,-0.8315472740955826,-0.7371160581707262,0.16572838253681757,0.9882347532140615,-0.4948408923869243,0.07511310652386011,-0.4267186548570229,0.2599526732259844,-0.5824219364563353,0.2899779463551205,-0.7442090701699376,-0.2346341896771449,0.4083805233425662,-0.23683533582050284,0.5230922857074597,0.2116307388717489,-0.41720573786257475,-0.08698433798181741,-0.5354063825258856,0.5035989331686692,-0.24502443562513776,0.784333269277266,0.44373492045741897,0.5107451334665293,-0.2726012811602833,-0.0041270746300838415,-9.782546585536354,-0.4160115921423396,0.0949549925082328,0.033445206668267786,0.7772820044503919,0.8063571632000223,0.21241752443335077,0.20719989397542765,0.4897561014814306,0.6846793310697636,0.8736041044044964,0.13825404234793856,-1.002694984932967,-0.040219626168292014,-0.47275618251317203,0.46346393127510077,0.2215945544599116,-0.6583173360583155,0.313416711243414,-0.9178165777151912,-0.979788318303102,-9.707421552732836,0.03167410458496628,-0.38749408808778546,-0.37011187018717734,0.11288917106807367,0.5725747084658347,-0.27943465290600455,-0.9459246477063378,-0.16826659014362377,0.4133060384698713,-0.11667890529567876,-0.2637691719321404,0.7580757162332279,-0.22504935939105836,0.35079919388002945,0.030941830967155998,-0.6136649572160204,0.41958616120394093,-0.3639222772322171,0.5896012066229753,-0.0077458869730878165,-1.2684515406071522,-0.6920501337389087,-0.6490467643253499,-0.5467575797333057,0.6959516996982694,-10.555208162420634],[0.8858163136052608,-0.10078258588773725,0.46147950442923613,-0.6965280910472231,0.46169547349068246,-0.8075266876273023,-0.43348230044519936,0.17315206883281067,0.3946509331489912,-0.17065446975345214,-0.44069068994131927,-0.21603991638209488,-0.5193082543176711,0.4998265039692932,-0.4215728062716594,0.36070331429636443,1.073153849135701,-0.8043793360920081,0.17652921744737807,-0.23724607501233225,-0.7621180632247629,0.44742086966316796,0.09483322261696733,0.31305624217906236,-0.6956792387849317,-0.19525259725063607,-0.06170309895936744,-0.7508326662530276,0.08074716618286437,-3.7554205811999166,-0.45341417621587465,0.5900305135962505,0.34805716586341195,0.3585742276448352,0.06855797359804132,0.8509525071860391,0.007094900110453269,0.18552935507270382,1.022593562389559,-0.019630671294430052,0.5830981523844555,0.6613911940126292,0.6227022226046641,-0.907370441340978,0.16634166463287936,0.1038125798231767,-0.5260887720471408,0.2741996564609516,0.24950551751086947,0.5539792526821795,-3.6421880347325675,0.5329654828155276,0.5794380420764876,-0.6997822792938251,-0.4380268033305899,-2.242240036377577,-0.943878057823573,-0.5049567390484586,-0.47077185594108567,0.5892847416301864,0.5081382616447494,-0.7163472610623299,-0.6784339076363665,-1.2896716833954582,0.2158788365692882,-2.754721363439082,-1.0354444089537536,0.2801295231687485,-0.6522564861277039,-0.5405913965580047,-0.5464286686772252,-1.5817531689221767,-0.9343429510377951,0.9132598296253975,0.09057330189236515,0.0749533240776824,-7.508197318258606],[-0.005284661647690706,-0.3865233800502842,0.4225143018822443,-0.3894852874148637,0.8290226628400851,-0.614458418669323,0.38378381953565793,0.9326408095289883,0.7868874781701665,-0.355058076839069,-0.7890724758556561,-0.6818001128072778,0.9542786368028955,0.00966366362780356,0.5484452973481415,0.6178303951469347,-0.14447304131164967,0.17496645169022745,0.9467213175148245,0.14377446182368853,0.5721661985132946,-0.6829367708646763,0.6661994760000359,0.5758063971036548,-0.3709090671717736,-0.6695455495225979,-0.605973680306742,-0.28246637322751494,-0.9444888224943224,-6.0396599928583115,-0.6203643787636969,-0.3445513066703997,-0.9267909097265816,-0.6798950109482096,-0.2534260107592505,-0.3915695686285071,-0.43906108605929856,-0.6007452731322389,0.257131136078714,0.6985700512157218,-0.48920061896793265,-0.11627526269419573,0.06903501647649056,1.0250633500241297,-0.4279769631301973,-0.21879452055660362,0.5566065919814167,0.6866848813393518,-0.542091048249712,0.33006532309181497,-6.298063483823204,-0.8510711824668621,0.42275830894265237,-0.8509789167073537,0.62917012873863,-4.09892001153354,-0.09079575843221381,-0.46133274270861296,0.5586021385818385,-0.1559845613878035,-0.8488199143014062,0.16357098550852187,0.12046033522926146,-4.996875072242162,0.6954104199039791,-4.209798418800133,-0.5151487854198397,-0.18370554523070756,-0.4975927016761145,0.27632837141373706,0.8089673906499271,-2.4546352655241677,-0.07548464758274914,-0.29072114230062335,0.6708317661931396,0.369380783537777,-9.814846632954138],[0.41030764458020963,-0.7226708453779953,-0.5918575659200762,0.5807600150407001,-0.299779082631313,-0.609265060653564,-0.590627389447927,-0.7260868348019602,0.20635479814744442,0.7154534197646838,-0.7499054585138959,0.46316822160965915,0.7030615238888804,0.856676270299053,-0.7260212022309692,0.28152519290422645,0.5901494047895325,0.5082055061656805,-0.6079084812330582,0.2621501146561671,0.9650626776687324,0.1189706332574673,-0.6049592758737637,0.30816572234516626,-0.432707864909868,0.292580507708046,-0.7398034765916083,0.36020756010470534,0.3068009813747575,-18.37116733837886,0.14584023948731312,-0.3227904333187624,-0.09626322768144774,-0.12470010271397647,0.7180278958551828,0.2771466089858892,0.8989248057385248,0.8456192222609515,0.14577750401970715,-0.4596049747860845,0.8898875012538114,0.37982945348496083,0.8364536933219475,0.35107375062617296,-0.6660599306662012,-0.5135314387848295,0.4069903992772732,-0.481473210341721,-0.8465679982989742,-0.059222540641814286,-17.045236712478623,0.8843588319700558,-0.7162377433627484,0.7099377122623338,0.5306831237206898,-0.7952936683299058,-0.6771142540840732,0.5235113411518947,0.3980870388482588,0.6688313921047749,-0.06508835389087957,1.207890818785956,-0.2835987615208176,0.883956533345652,0.9337771627224353,0.37770427990520455,-0.6748304362045107,-0.5268630156033003,0.6741110620643355,0.38754163283291604,-0.4654340919739154,0.3617612173686606,0.5503539209075085,0.19906012476067647,-0.8624547013990317,0.4650028912770136,-17.846898675603423],[-0.3264231315564871,-0.8287130247845261,-0.7177905050709666,0.2963390720631812,0.8432002579845609,0.07579321187256605,0.02543456423044475,0.05785665285647047,0.4431118621599788,-0.34333320334277473,0.34679172470822334,0.5792975159957737,-0.6409412965078399,-0.5563631443630752,0.771450078006422,-0.8722506650595933,0.10306057914213287,-0.4343087118212433,0.13426854594054904,-0.6353169193700099,-0.044619497376148134,-0.711621170678126,-0.36270359118466133,0.007454700331512347,-0.749379766245656,0.9000885438229536,-0.3101547294979443,0.7336591745487372,-0.9182538025616952,6.496389264454443,-0.3643972207372199,-0.5621644174454777,0.1777057124769161,0.33298293254221506,0.006136430708316985,0.46339612762102755,0.6686272677519103,0.6316182229185809,-0.6356765131676908,-0.3918830110214227,0.8554263080442284,-0.8940367802099084,0.08108687584160762,-0.9637687839026826,0.2673629808377709,-0.3433686868306209,-0.4347473746543246,-0.36235106212025664,-0.050334931073568574,-0.09797751311676506,5.723452139773224,-0.8630619663959318,-0.34649782123149186,0.7734579776671777,-0.15186199311149023,-18.555457778127938,-0.45414630216041196,0.0215293973184783,-0.5335942827962983,0.7950799688854914,0.8231433790208769,-0.990079554400758,-0.5463557680127374,-18.542682177818232,0.5539507843799851,-18.802983423447145,0.5436029433849491,0.7228446582060718,0.6042687085490935,-0.38399139710224334,0.475799611810338,-18.664057630015343,-0.7398051284911988,0.5294869391979465,0.7763892750389318,-0.5233740907390341,-12.628915819093327],[-1.3656154603994934,0.47177939292325727,-0.1100163088668493,-1.1816685497179404,2.729324477196219,-0.1271627450118579,-0.8230273723932692,0.23183576024522862,-0.4032960846780894,1.1574312666881506,-1.6240937238327526,0.6767643223620466,-0.22545507604553044,-1.1719103780283053,-0.002032316734868486,-0.018371048463856395,0.6056121950195834,0.49494060416587043,-0.8663378988676048,-0.15029462989652517,-0.5459911144332174,-0.665148064561895,0.7245686874117532,1.1996978288062337,-0.7338381185494877,0.6148244833577001,0.6372108664053682,0.39305342619185113,-0.5469670074486375,2.1363104820582444,-0.4525274268019621,0.5204531966171411,-0.16113418185057063,0.13070064697796116,0.003376206971398787,-0.11022208148695736,0.4752671295238678,0.5570274161204999,-0.8591725778216135,-0.34736820733632273,0.6552000255979791,-1.1751836020167192,0.16161343055199262,-2.0221560778786323,-0.562464383287202,-0.9661287414211945,0.5042021746815964,0.7630025632716845,-1.4709007872442696,-0.708540509360852,0.5140571031795435,-0.2529020005928579,0.010316687468638388,-1.088478170220261,0.5181581376768986,0.056281345180123614,-0.4962577614100382,0.5011556705226262,-1.0044183522861867,-0.3250907849678995,0.23198609038918888,-0.9550552308307042,-0.8272932114750873,-1.0335014007776269,-1.5484999692498655,-2.772283394095793,-1.1838871773990216,-0.8924626646833379,-0.9542448537197094,0.3725443486414131,-0.08669309530672133,-0.2310518769551082,0.37989985612596344,-0.8082128149347927,0.32884070127667636,1.1857848807192228,-3.3234759097315734],[-0.6778975335221156,-0.08277438190128522,-0.7205557417434435,-1.0389816229724027,-0.18694647659410474,0.5560056633461419,0.9645334005019974,0.5410931133929211,0.14161461345656287,-0.4801711275331419,-0.9861281182753506,0.6273960514439064,-0.9252019637915355,-0.2532495077953098,-0.8926580632979636,0.9165976249033844,0.44242928593584147,0.2953783782889791,-0.7299186460857502,-0.3359566163670447,0.2316797215419177,0.20497219964927563,0.20671968180619363,-0.21550606589661386,0.9287290102652728,0.05814642483735964,-0.3378853688110074,-0.17192925216988755,-0.7035838038908535,-4.9074970036591985,-0.4197947689297095,0.5797599964033447,0.43504655814561805,0.33397682316973815,-0.26936151301928696,-0.6203985461557558,-0.7756127025416951,0.8344716019786038,-0.2373199350805293,-0.7772920725923784,0.8690520975818282,-0.47816575081126017,0.6794747014257221,-0.3883382754576325,0.23911828073732289,-0.10034905903846074,-0.3029745339706637,0.744132619541231,-0.1176866792789129,0.5452830383911116,-4.592594294200657,0.7843763708795847,0.23118985061625116,-0.2609138223747564,-0.19812037545406744,-3.6522771041887663,-0.3047463648387022,0.7851737943239997,-0.691691634003092,-0.9625455788919964,-0.4070897061789796,-0.7473939207794191,-0.4968717004656085,-1.957243694305939,-0.23161165664445252,-2.715456737823197,1.0271267399769373,0.17886969098399408,-0.3372772441117631,0.2314236719442311,-0.7889970310877574,-2.0602951456396594,0.9718714516647093,0.7366358380806388,-0.4574125878562272,-0.4713015407442287,-8.804146042486508],[-0.20625696949627909,-0.004608912386460296,0.20451234945755845,-0.6347611660182115,-0.1623006551094745,-0.5702596884906846,1.407028691972727,0.023180951667714233,0.6184962310174912,-0.36065016476055234,-0.6082571003736171,0.2514323714035594,-0.48969272148484466,-0.7937604600557406,-0.7846895703972449,-0.6398974212441796,0.3700846856599544,0.5143425008955992,-0.8745521775438178,-0.6022796680037302,0.6311628873027519,0.12894750888742623,-0.3254084433592564,-0.3330433643503162,-0.5162915472817802,2.030684958726199,2.033902699303434,-0.2321221126596124,0.25393108449023394,-3.6508035680851023,-0.017469756831794817,-0.7612872493259559,-0.20513464963086928,-0.6031851838928889,0.08733317946669442,2.348128310550935,-1.035483495647322,0.3433126787321873,-1.2274496970279778,-1.2471772354356163,-0.12528176367704924,1.8088036006895654,0.7962925776936121,-0.38424287081288483,0.5871746320188431,0.8614026111379132,-0.2143570024781236,0.11603232720476975,-1.3355200198275523,-0.6076198019881999,-3.837595540993182,-0.14820431244642832,-0.6714891638949008,0.06857878331879719,-0.4185354340545453,-1.7963108085330934,0.5417412453740393,0.22558096492296997,0.5166867404397688,-0.256705514654844,-0.29260367717776165,-0.3149119623198086,0.6653964190548897,0.19936387671435993,-0.605491373215359,-0.25945499325395344,0.1251375272646348,-0.0713877859211542,-0.24925703921253284,-0.2527685502706855,-0.7674320288647293,-1.3983431028799786,-0.7612510372466341,-0.041561041250935765,-0.524239880875024,1.480605299422766,-2.9278222505231293],[-0.9547125722259916,-0.08624927046021727,-0.42039443987137154,1.503570018023374,-0.1015275678886606,-0.6655570335266824,0.7762867127964932,2.0544226039715086,0.6026724639957336,-0.5602089396084845,0.18372785784528278,1.2867798297272086,0.5137984512331671,-0.6338078533733781,0.20643626952884278,-0.7051285792318507,0.16177916118686583,-0.6154158464070975,-0.4945168594371547,0.4983796411126146,-0.08483543573394614,0.3182820215221234,-0.8321774487287483,0.3221502655771924,0.34929422729743087,0.43494434279700644,0.25671993847754354,0.6063530024518273,0.9190953650618945,-5.551005507672421,1.410881079298658,-0.2848791030609767,0.3034182005792584,-0.4099941601987243,2.05926094920052,-0.06268890104829006,0.3861730451604931,-0.2865288707929661,0.2906716499060543,0.5203513768041493,-0.7247573668696515,0.43987849532328804,-0.7532954207884018,-0.08400986895789839,0.3053741856493086,0.18994599536679924,-0.7910452890398726,0.11101749671401498,-0.9206907149377898,-0.8404725534507064,-6.971085564655501,0.6964234425720051,0.20908817819969552,0.42691186179240026,0.8201139893764365,-0.05123120029347282,-0.2944082284346248,0.6059217132661688,0.0014961648069606566,0.35753235762932084,0.3046044347147722,-1.0793411932536405,-0.15585348850895578,-0.4465186770731647,0.04638240224568849,-0.25015796341538366,1.2983744506152848,-0.6508479955132734,0.6222320006189678,-0.14536356334882825,0.4584560297427414,-0.31036344114636005,-0.6807628825672162,0.6546159061418896,0.4025620105518259,-0.6260588057238806,-6.483612579295911],[-0.11378321255226678,-0.48234513527003,0.5143134912645236,0.060924153869416214,-0.6388587938895147,-0.48453277590197263,0.08899883348826602,0.09851943038699867,-0.5523926601129968,0.6757293070627706,-0.21630967000711934,0.6580162554216648,0.3089506873950972,0.44936705473900324,-0.9627726710875016,-0.4440609658887936,1.0126880621768328,0.5776380068818754,-0.2576793420397733,-0.17420746875217102,-0.4513188646878785,0.4695338854397878,0.13004353617702777,0.059938233493215635,0.5931514901571667,-0.5523838853523108,0.338871399651207,0.15826150810898723,0.4098834837333694,-5.119230104168593,-0.14928699057528183,0.6331404929362278,-0.7989858766957126,0.5946276217335267,0.3519473984947656,0.5599086915306482,-0.35714192570273634,-0.7592609620024832,0.5042817026245671,-0.12884186594726768,0.5687375750963383,-0.8298588276698599,0.8857100494132539,-0.47386552341907445,-0.46468785650909494,-0.4180229813435342,0.4970245813806762,0.7338497416871081,-0.5694838016107931,-0.9140089434468869,-4.548010051581365,-0.8441839171249241,-0.785702662660658,0.8518660250178748,0.7803057676694872,-0.9322788382141518,-0.6778579965194977,0.909686658507839,-0.4426631374205572,0.6383810751104074,-0.36048215817567264,0.029018464726433667,-0.4967476584685177,0.2801951043760239,-0.8911417909085914,-0.9348329188812017,0.0336668462115334,0.2034858125648189,0.2602256208533618,0.2136371289895386,0.7213454180619577,-0.9699841100188584,-0.5450018800830813,1.0064153778899951,-0.16406735172273956,0.2594590435767393,-6.0892310273491255],[0.02377815350393507,-0.5570326623401469,-0.8537953086097416,-0.49107857389081644,0.2761656561919851,0.28167466892563436,-0.8506855929523708,-0.45389202600918005,0.6124988555154246,0.0267575980624391,-0.9279181029107502,-0.7315277063948556,-0.8871977538546723,-0.48646797793336655,0.24691730455973898,-0.6240438690836886,-0.8975905488053775,0.6413232748397812,0.4362890090395001,-0.09219584493234086,0.7695696155157076,0.10796021550674482,-0.5191892589536455,-0.6090313764464753,-0.6524749472037361,0.34817689937032487,-0.3181253831009097,0.0743474029142204,-0.6869592771997902,-16.85789432993292,-0.32276934575702865,-0.5859636038694775,-0.9648346198633418,0.7372224588084682,-0.6294972563760363,-0.2168297396044437,-0.5943495718235347,0.4614330529248365,0.2921115880000814,0.09461108327427026,0.9425001908735852,0.5553701068939699,0.26682322676279224,-1.0058110497079569,0.2773389715396733,0.785616203337455,-0.8191039457368398,0.38138984207760335,0.6234980566602759,-0.7811472034104905,-17.548054658635568,0.4020082407422179,0.03717030888790294,0.8983481601412447,-0.7505460668921172,-0.6170837444210155,-0.8766397656860255,-0.22058920109762323,-0.21812399639474536,0.19604277849254553,0.517226696069243,0.8384193895558,-0.3327884156906436,-0.40959405003854316,0.4080708577583625,0.8417937945530837,0.3465969244995717,-0.32631421012600703,-0.2745228042476403,0.16547996797931644,0.4425671649505227,0.765204732969412,0.7640634508041219,-0.18362801067998727,0.7981323044308024,-0.3969764058157597,-17.78150635346896],[0.4378722581099307,-0.7032431217353139,0.37139698195277077,-0.961420158746292,-0.7765686935201471,0.2533439621098326,0.2057456539380931,0.007222691779014451,-0.6584743808932044,-0.9020762709535953,0.02949825423730908,0.396577559746053,-0.18742285054057226,-0.4647738278995527,-0.6457165948180666,-0.30469573921139237,-0.9103670671490739,-0.5295321407341731,-0.5223313499318467,0.9059758640483502,-0.45649664572832166,-0.6586157202581906,0.9807195733803514,-0.6579656948052924,0.4625752566621589,-0.9066944931620972,-0.7667569211122598,0.7963800192560492,0.6236515448091581,-6.4438157274412715,-0.6771061932477874,0.0906078408161671,-0.6323734448635578,-0.4833689688493646,0.5632366285132115,-0.4793555712268063,-0.9744195558592248,-0.6650720098244121,-0.7107980128943071,0.3278896541083571,-0.20979500942769178,0.5759913691415612,0.7844717298112436,0.3617073884102761,0.7717958545692016,0.17913513770758663,0.0811721950529572,-0.06607722844012609,0.19767667421794038,0.1553546590692602,-6.875234607330629,0.43568160406227513,0.09155192692827789,-0.8053362948412593,-0.035884929030447474,-0.9153158254617296,-0.2643578528573458,-0.3226035644927962,-0.9395084289983909,0.826080928083333,0.8069404934919333,-0.47252751799774234,-0.15693810015474913,-0.7062150835385615,0.11494383777914546,0.4385462422442492,-0.05951298543743838,-0.7975066771737974,0.8479355402170633,0.849746956420184,-0.9523748794209883,-0.3272493310083215,0.7713261579212488,0.7680779655346782,-0.33809925058955925,0.6742640662689792,-8.006260145895201],[0.48914017780481045,-0.28101439280629226,-0.7880984983260856,0.9522624917167627,-0.7604878910700525,-0.7270842948701565,1.8155327142917368,-0.34364225466208226,1.2777415014585818,-1.0138970412424813,-0.3964410039438076,-1.4022268595212712,-0.4104771069965798,-0.8594992797618347,-0.41582050544990123,-0.7491219665454294,0.5579135379587559,0.23536390699647783,-0.6066586291091647,0.30177842234109875,-0.9070734028973291,0.5981806564581474,-0.853920382035444,-1.141724694693981,-0.5510558621095325,-0.6954305740293651,-0.6286634157930097,-0.9100719614287578,-0.3848060525538636,-0.9335066607302139,0.09159662998699246,-0.08369699167266256,-0.5104867270786475,-0.49684244916072673,-0.22050726699016832,0.11066701714267829,0.040196868174185864,-0.2135982657925362,-1.9057828247690878,-0.7075160145417364,0.4071378214588053,2.2950679685438184,2.004000488416879,-1.2977411954654448,0.8189773888739315,-0.09131452956070897,0.8151123471951011,-0.2396717691891166,-0.8590535455875118,-0.14477158312879243,-1.2332310691728692,0.18307531874416855,-0.11858209256420092,-1.0670314316412703,1.432263005755164,-1.7308001553546475,-0.920812715656173,-0.19750176851686332,1.0431687164944883,0.34369854164350694,0.15530411327714333,-2.1392082136475814,-0.8440599108177419,-0.2956330633770297,-0.0385464123418413,-2.5452249947934993,-0.6428479795769653,0.15059057483649846,0.9857959384560097,0.29669929321955146,-0.5783594800281527,-3.23350838162907,-0.3435773943006234,-0.7560345585923863,-1.4064727039318419,0.10106833959277603,-3.5644349506051975],[-0.6097466798005258,0.4810349176442096,0.8404954810112141,-0.5533379914265439,-0.7606679893771261,0.04419107031236538,0.431120210992125,0.41813718219704243,0.8415274686937385,-0.2776168929355236,0.5798856444807712,-0.9676948274619672,0.9918597600806867,-0.7601702356767078,-1.0271802744778857,-0.8611544310751866,0.4584441579914524,0.3446874131810754,0.8956633924018911,-0.7140683278840323,0.9741376165128836,0.12400996469662624,0.7491158763524871,0.5062620492212911,-0.20180985904471901,0.7724057038501088,0.1935362204092064,-0.4663794034609224,-0.48443147668677766,-4.914295330241437,-0.16683755136598608,-0.18537416549843586,0.07139057882147433,-0.25745848125046683,0.6932825608940144,-0.7152067783821564,-0.7151873762265956,0.90546179354349,1.281273572512844,0.04646197957861247,0.9747851315805435,-0.24643256443502654,-0.82934802043031,0.7555131859416393,-0.4301453564424034,-0.8935607970321093,-0.40376302232711897,-0.8683747735517546,0.8449487776161073,-0.535481982865034,-5.008023387849987,-0.6006461930328311,0.3901192883897542,-0.5572096174957747,-0.5111097328961348,-3.7663812677246358,0.4575054650507432,-0.6322781972023855,-0.437472329290649,0.6951976066014809,-0.32631271137113255,0.8477645400121965,0.3356722974037205,-3.8225609616549883,-0.22909251440364195,-3.9933820632912163,-0.9193118653112922,-0.7909382747153447,-0.01780990291510144,0.9891429267978915,-0.40628886667918757,-2.8820286565936355,0.4804809613910988,0.9724825310355055,0.8481766595793356,0.3119762639344504,-8.597080651021763],[0.29431954165486773,-0.5648817542149555,0.09286344049861275,0.47084061098827834,0.8617481846853481,-0.9193865143409419,0.47302402926274645,-0.2837962659079449,0.3999136808842402,0.5543606244552357,-0.548432233677283,0.4276949948365479,-0.4841198098000622,-0.17275408429241235,0.004183210141831269,-0.5118604295995007,-0.5208433588032187,0.686987698295291,-0.2835371644216539,-0.44734864909468686,0.804892513302688,-0.3401053821135821,-0.6410017717253835,-0.7752349073374755,-0.4643813798890318,-0.7325460023105607,-0.6352703593850033,-0.10634156665913692,-0.5874513536053906,-9.04616068623961,-0.7868120232058504,0.05426022205718744,0.20468416997311414,-0.5874486885647356,0.585485070975048,-0.48070177302986283,-0.16486874431434678,-0.5475420435499545,-1.483849784366045,-0.353679670341701,-0.7312845217687811,-0.8438263969116676,0.2132866584780602,-0.5257118689165384,-0.8072534537038151,0.20568053495594726,-0.5265240763931491,0.9649878012088743,0.037584613119261395,0.31447338869818325,-10.621140957856568,-0.3237351484335543,0.19667226026041137,-0.9877929970876751,-0.2560507672398691,0.36860585799088325,0.36452818058190245,-0.3926262342394994,0.24131614086246592,0.14096717806938935,0.6987382561833682,-1.8999289841270222,-0.8202771842856693,-0.7166415245150466,0.6555515715577331,-1.0296146201391339,-0.9162508354287414,-0.6341635158086224,0.3132567914712851,-0.5783294908549832,-0.14667809215907263,-0.2183691138323603,0.5186075105729293,0.4901632516110639,0.4252887049664756,0.18193782875582937,-10.805315823713224],[0.7879257965749201,-0.21493310309332672,0.05929103256696283,-0.9976054852695312,0.9800998705075871,-0.16689554463087364,-0.9275191857355607,0.8706073567067284,0.6666586753983412,-0.9904724720713036,0.35081377774860595,0.9203983973371427,-0.6005787776068209,0.7069067107247499,0.47741402110051495,0.13173871883163113,-0.05718037254391504,-0.5698368425850441,0.10236057401026434,-0.9783908581500146,-0.2898506021280604,0.7883232850711123,0.12071144680780146,0.4093137707361235,-0.8457751123131201,0.08357220575345059,-0.8742441854426288,-0.11659094435296016,-0.3381332606686532,-7.531297695916997,-0.9992722228535659,-0.551685299963805,-0.8771651916558284,0.35950254288754213,-0.3373261910864052,0.7093658072211334,-0.31363687966465303,0.5461664365762509,1.482621137001771,-0.30199940328905933,-0.29584573176619605,0.01140470447408816,-0.6004459545623351,-0.5964486237229556,0.3010198710686312,0.8465412832315707,-0.5069950143678702,0.5037293099787598,0.24549140104584757,-0.7111017790876553,-9.216456163301103,0.048662856740935005,-0.5614771089741835,0.843366737807031,0.32644904619899723,2.1658840617202335,-0.04124862728416995,0.2726033866341445,-0.4233365683203345,0.09665732389770797,0.7911542169972448,-1.5018843559078072,0.6683338470679786,-0.48154868539274515,0.13120782313816728,1.7812691491760086,-0.0058894147869292925,-0.2019763466196864,0.5115694122339145,-0.041377108619643846,-0.7522291405353224,0.7588917537489166,0.8526039159163359,0.3494218149088593,-0.9959687977289406,-0.9775290394916082,-8.011134197557194],[0.7227399516982992,-0.4794140771137963,-0.7525305942156039,0.700472284527153,-0.24603269361488384,-0.08226965940739235,0.4660827154044779,-0.43786693126095294,0.3938826274747283,-0.8302438599965414,-0.8304388723878312,-0.5418339614783,-0.7994419193527239,-0.6634422446428888,-0.05062669308735728,0.866805090686757,0.1983158957606374,-0.7217708519518141,0.8324983376998041,0.512121661473694,-0.5124632191506538,-0.9424788059633854,-0.2017021377847923,0.43769159686164605,0.8724652036587792,-0.29421339059891355,0.34519603617234723,-0.8007557719821924,-0.7204409287900684,-9.72989228016794,-0.17517694014758134,-0.4475298279713707,-0.6964830631313423,0.7044206322449033,-0.3652165818082764,0.9191847244129586,0.395353758895353,0.5900026175813873,0.7575565980554365,-0.7491265823490244,0.1590913404538616,-0.9610969520410892,-0.9422348346111878,0.28404716902845784,0.32536332442781896,-0.6705703861976829,0.05761600448645587,0.7697547559694774,0.028992997647176805,-0.6104651169156485,-9.547316342349989,-0.5807702135973197,0.6766884954958441,-0.48644848385786615,-0.46147813951794375,-0.5339088846183432,-0.5968882662898027,0.19441659478506215,0.8532619437292334,-0.5082394523326821,-0.1627728478335097,-0.6513306974001983,-0.3995839873975442,0.385646736457544,0.7144852818039474,-0.03351124692023428,0.179209415645244,-0.6769784552757564,0.9832831673483837,0.09657226751964189,-0.5634052821480301,0.5071760750349625,0.24296688511495693,0.3407891158848432,-0.7299260582768904,0.7239885875841005,-10.98926813924667],[-0.8915054742515602,0.08956871753357942,0.10099320492876192,0.36564031634389904,-0.9670359811810291,-0.5403660520163438,0.3198238158477687,-0.9131362410417916,0.24361255073774582,0.2189950119806662,-0.487668553972967,0.12516527231398877,0.7747776764117131,-0.5587931464068135,0.36372007195174844,0.1110910429711372,-0.1250563468986459,-0.5004554185883978,0.5275849552004349,0.3978807101574019,0.8456481601575148,-0.4741268333336996,0.3626786569510957,-0.1555925942348759,0.3058590021146942,0.7226146155963343,0.3479063877662931,-0.8132611380234308,0.8889225448452914,-6.283350997465728,0.4633376315072762,2.530225905843888,-0.5818888107932869,-0.35252866482146406,-0.9398336192629312,0.006335639310109189,0.12446716189380305,1.3194797740109876,-1.1318458643480043,-0.47421528905380655,-0.1135920410566083,-0.7710808694406179,0.7221507395074892,1.255981890323512,-0.3915227353806991,0.17109337921174927,-0.8703090535155672,-0.4863941284409358,0.4959891040490043,-0.5160472808494942,-5.404906551101429,-0.387544201839306,0.15581635089403062,0.26603089635439625,1.2026458615807092,-0.342164099199448,0.2669754177113985,0.8067867044623435,0.4902348548931682,-0.1707127791217479,-0.9369061832552595,0.8795564099686535,0.7917139323435071,2.4708524401328646,-0.1644621244283644,1.2214496747962298,0.5188004776204029,-0.10384271365263278,-0.09753088261029745,-0.1388794137387858,-0.9440033827493172,0.8162430522217441,0.4599966618468483,-0.5651741734453753,-0.6215174417112908,0.2474234150496384,-5.228331141987159],[0.5462648375980459,-0.09278995503855067,-0.27941249293081444,-0.32566844889337504,0.15915675678783203,0.5156554545466776,-0.4669478343175732,0.3220861361034576,0.16092954742400187,0.6290643272422589,-0.8858891262058795,-0.757696295428127,0.07295213971298166,0.5120484695403303,0.7163919165326089,-0.25128766053195745,-0.9756409324392982,0.8823517143900399,0.08654941217121812,0.05963726063405939,-0.4353860419533207,-0.9575496801888613,0.024057917446974778,0.2772548661960342,-0.12203278832868804,-0.9113628334022505,-0.071439275538589,-0.4142474251642923,0.745189234513067,-18.67167573624191,-0.8896455990537628,-0.9599190309242739,0.9204697535907039,-0.41193625125714733,-0.44229237670735044,-0.869557879670357,0.6084357604356573,0.712207462826951,-0.07232527402138415,0.059724721057195305,0.40001995165582305,0.81763169783547,0.1630119300117746,0.886209100201712,-0.02446630953346679,-0.5222357140416909,-0.6330272574053559,-0.009454666133505209,-0.14848642742631768,-0.33345641273559345,-18.7087138081847,0.529112461511224,0.3621013285366203,-0.3855034348265179,0.16380246019254327,0.14144962597790348,0.4512237309609852,-0.40364020995469174,0.6179173686287424,0.15743689545394024,-0.7512562565243188,0.5200861077665478,-0.38033349990553594,0.5330466640120277,0.9415772367318068,0.2984167017495404,-0.23914657149693197,0.5137213936330439,0.5685044760380827,0.15195638449878135,-0.8775088476644527,-0.6052375634340817,-0.7151224933661955,0.2711964482207122,0.33011825995772026,-0.6386765261713767,-18.691465786408177],[0.8123119735005898,0.822679369252109,-0.18903168315351304,-0.7449666111553764,0.3800382712211279,0.11917916626792044,0.7470468920558028,-0.4852864718609949,0.4449416728216881,0.8095834388798279,0.7161486123276369,0.03445815565158692,0.9659668162461672,0.0844714869144473,-0.3494814955238553,0.839557760022853,0.14222598841564796,-0.3385260844537876,0.5501624098145759,0.27472389862394947,0.2683494745433189,0.34667055849464823,-0.4471725048539454,-0.04965406372885809,0.5576202259746343,0.448587784432665,-0.3872171514715359,0.7535447044786531,-0.45415341432199163,-7.439843972160814,-0.32960565942406667,0.8530197390733112,-0.42814999731181225,0.4560162134411802,-0.7257503482469337,-0.9969723701519076,0.4677701887559044,-0.02748302515755659,-0.27459534152599274,0.05342853918122006,0.262315634665922,0.7933928546316306,0.1311610439675048,0.8619205428168016,-0.5483998778681188,-0.28765757766403494,0.15113927461919113,0.6365888922673771,-0.8278233373547258,-0.4216478174231025,-7.971538486728815,-0.944627081890366,-0.44677503558032594,0.3272661078093512,-0.14285935825881094,0.5915768286048755,-0.4150920197553854,-0.10980939386564793,0.4048447760250848,-0.7898714423018156,0.6547017649981491,0.7889655031151067,0.29281664283318376,0.7418978281618157,-0.41360468105316023,-0.6740139887530789,0.4945271944954323,0.6144750604706335,-0.06354560295463799,0.004204747475999402,-0.5321816024008051,-0.07454956808116045,0.15545503482946954,-0.1751438479493539,-0.8644593039624736,-0.4494886021358805,-8.855322098720627],[-0.4396382258594603,-0.07988805552336851,0.44343644169245305,0.17937001754115178,1.7548287178836637,-0.7211316990384152,-0.6361011123528981,0.6816118680506867,0.6852133503148563,-0.4569341794327581,-0.7654204414627188,0.27144925798083247,0.0886974429835253,-0.6632705876278313,-1.1636028958426854,-0.0656616873038167,0.13705792597371497,0.14512061322386177,-0.4115357341989445,-0.2524245297560258,0.017733121246455236,0.1593737503948759,-0.940836693012077,-0.6576083957819802,-0.32130373856571187,0.8669368292331673,0.5454272074959162,0.7706378927791797,-0.7812102206258533,-3.1728728123702576,0.12290162123136633,-0.5553578575896924,0.42055022475779746,0.02241675033868439,-0.6514498339307364,-0.8800606314672584,0.7380587530961261,0.8647480842599289,-0.4535014725086362,-0.49917891856096613,0.1761668049027316,-0.615345475009207,0.6317475028592894,-0.5830895133094125,0.7632307906940633,-0.6219283486120959,0.41544787495163027,-0.8857864923379646,0.5608008181596101,0.6786071823930352,-3.2339626472826044,-0.5215596771032367,0.07089498821179743,0.9616594732672327,0.3134985034369822,-2.911179591662466,-0.22397963323525713,0.529203136143373,0.49573337627734965,-0.38962916943906556,0.1942699207965015,-0.4815556910234126,0.25524448409456185,-3.5428023800557806,-0.7518001747077694,-3.477469402190833,-0.5071631427532955,0.8695887063262551,0.2528980666141655,0.6303956246207448,-0.1868438384721931,-3.6864068708200746,-0.02447046439829629,-0.2233162865485944,0.6280324332737007,-0.7212109969952322,-6.688331059280972],[0.907076779323671,0.4654741276407876,0.16732551032592635,0.6749702462095722,-0.2819647682222016,0.36145219195031636,-0.5371325615958542,-0.10709740614293148,-0.9296373986596486,0.03436232674912413,0.6146588410112637,-0.9939612068078295,0.596589109296938,0.1593513727117456,-0.0032302066841239908,0.8912218631719578,-0.8951439327189882,-0.27209256898177914,-0.5386188811326085,-0.5261715094309831,0.6515843445515782,-0.879316770135595,-0.6459502746456702,-0.23169745088108132,-0.9301649397331215,0.8557188482663334,-0.4142956771810663,-0.8301775243985331,-0.064797953548551,-16.09506562788318,-0.9068402096036519,0.7529681984684978,0.6232263004466276,0.5626050310788836,-0.3991048789000444,0.11471721221019253,-0.4047037069460802,-0.9150859566232461,-0.5551357821004471,0.08796369742645845,0.5397528404805515,0.033570647620444656,0.9393228411744885,-0.6981715944413635,0.1661214304936561,0.17761334104122922,-0.9912353781308597,-0.015524023808984395,-0.08489832870115827,0.8799218218521024,-15.317314394559949,-0.6836358698242796,0.4730714210284964,0.5838236811102949,0.8681978726385227,-0.7833535606035655,0.851706388444412,-0.1580693122150046,-0.7797252669915546,-0.11443688932463288,0.07022452049226661,0.6307284916153151,0.7728484807641139,0.5550247854101656,-0.006356638373915059,0.21855761689411665,-0.8465039996591406,0.6409271513964959,-0.7768981738731565,0.020624794684812167,-0.15392555523662907,-0.3836088155254892,0.9908000878668757,-0.8795691088899924,0.3919070016853116,0.30526310176090315,-14.23709593915791],[0.21878054189445936,-1.0230542102248101,0.14899290154875794,0.5350444269801867,0.18433462304150214,-0.6485701295140406,-0.7319747046146186,0.5195028551389588,0.47897998766088523,0.1749325292906758,0.15208634995501794,-1.0002839650658224,0.4416777863989002,-0.897300307688898,2.7144259094641976,0.5760604747639816,0.7947759607868746,0.071733575492579,0.6966403483255652,0.609320608203085,0.17414514012664753,0.8759697272839748,0.7897902601326493,-0.3103484067551804,0.7833699490733239,0.6830866225134151,0.7691753807148911,0.43951683609614045,1.2232679539859905,-3.352812263108683,0.06580995912027868,0.0374915786923397,0.6687716391178299,-0.2135044006986929,-0.3953206442387905,-0.4344378264207415,0.4811669902283542,-0.16382838510100023,0.1657802598022895,-0.563575491419927,0.7382971487771649,0.3019575278036234,-0.7539948396963402,-0.1980199977296108,-0.12438391959396386,-0.7491166488014463,-0.09372127858064157,-0.7457961549798828,-0.786259056063372,1.220233839507505,-3.2508599660935062,0.2919958624612212,-0.004617743517628674,0.16509823204925256,-0.8700380089236709,-0.1102740582829,0.2745925797374984,0.9217493431093803,0.5074596784980819,0.7277845714756874,0.7020849298284272,-1.0714692046980214,0.15538099875330696,-0.8804535472803435,-1.1499154314484663,-1.5228438755836602,-0.11561039399737179,-0.18429213671497832,-0.6316305279871184,-0.4701759303513612,0.4046965963717607,0.816855763836243,-0.17002844580406729,-0.2331121865478694,0.1135610572271628,0.491868157020397,-4.7805994256082505],[-1.009343192556037,-0.17191603439305217,-0.12064120891014121,0.004429209813097003,-0.14006193000548345,-0.27255231756349757,0.08746874870999298,-0.9209891838088944,-0.9198005332689436,0.48383361788529144,-0.09362359628002487,0.8255159724588873,0.3439738468740096,2.2847234972868145,-1.2849015612230408,0.3820924353546547,0.17267747823024576,-0.30000281035392895,-0.7842110846325305,0.5762619619294219,0.6199842193647183,-0.1481304932889921,-0.2408151748661829,0.39983706556449855,0.13774047496886244,-0.5738480363354898,0.44359684863938137,0.9592916584530627,0.07131736447560681,-1.0769434816161338,0.02635784279499287,-0.7949759218615693,-0.38585883966581014,0.34129402909910456,0.9151150450956447,0.6411189932265722,-3.775447988595808,0.6106530487608324,-1.5412884212815876,0.3224608462052082,-0.25451183532621857,-0.5574954315063958,0.6406359188719463,-0.5103157173877304,0.28928213322810975,-0.7796859879978832,-0.46328055477025043,0.28049044557043945,-2.475473025290832,0.278015543954647,-0.39588536787323764,-0.6519806570860525,-0.6333946408937677,-3.4712215558072126,0.40424024067751163,-2.1301976456209397,1.0222957226105627,0.9945652984494494,0.9214436163790983,-0.29984905072183204,0.681993167325626,-0.8896049262320045,0.30537518158429294,-1.6393322471493248,-2.772704048551796,-3.4117148873313337,-0.4645093864477501,-0.5905786674260755,0.2270377487317637,-0.5958532883060377,-0.5784187238065903,-3.609248497105322,1.234875656732301,0.38371401011269646,0.9641699464864075,0.0366935139699759,-5.497071873012513],[-0.7239977225124807,0.8890183115949936,-0.6799981145670527,-0.39186753628655213,-0.16872387325041463,-0.8790421409349506,-0.6649485737601774,-0.20475080837160414,-0.4346892609937087,0.5920295430617366,-0.5305652838531926,0.9455381515760591,-0.8006845746256466,-0.7268718565063009,0.3179921068121743,-0.8318219237297417,0.1975525241114048,-0.22241388661835124,-0.860819193158461,0.5295825218440736,0.158105748322833,0.577224006524111,-0.989033832655603,0.7411199298127562,-0.6903964738076575,0.9053008974350865,-0.6925105820392867,-0.313306525943241,-0.4558318272568169,-12.5561876302864,0.1769495919524972,0.6857056335810464,0.941808281839273,0.42366247993243183,-0.23461360698087003,-0.8606424079581362,0.029536122928155287,-0.7217036192503992,-0.32730249195435723,-0.1516456164759152,-0.33845088431996817,-0.8124319582495649,-0.6741339576874712,0.27387527321797644,0.680846680304033,-0.7825846455190478,0.19187475310405663,0.7627527344111842,0.6647712054011213,-0.26026096067076593,-13.854661104952369,0.8822633040485328,0.874866988657151,-0.38624010556295096,-0.013968027528018102,-0.11370877727957061,0.8881752336192827,0.07645727181676713,-0.5728491486035364,-0.28164283352595193,0.5512034712956251,0.04188490924059021,0.04532436272056913,0.36039990650752346,0.6927700762703808,0.1694930882125214,0.7886763475434602,-0.9511897542838452,-0.38229236742924133,0.43388940994828273,-0.4789273381248373,0.42027356744025096,-0.43548035476174063,0.7721429759826733,-0.01789349926209374,0.7301800959026616,-12.712547915912493],[-0.6851853339622375,0.7095901476850686,0.22496438388575385,-1.1855047353625634,0.8084674808408562,0.4896059718853794,-0.5419875743311785,-0.1944909313500071,0.004078438533898085,-0.106589489353781,0.030934733225458578,-0.1971502737095687,0.7644480493334486,-0.004995614345989575,-0.42436652034061956,-0.6712192191111036,-0.7405519055668659,-0.6663355203609883,0.5512991008812933,-0.17886652134052008,-0.6101981627269079,-0.340467657678526,-0.39587949976869413,-0.38312845190405376,0.4876695079324832,0.6481379072463661,-0.04595733677873479,0.8253087698814998,-0.5741938379961011,-5.592436867212608,0.3999350449815113,0.4988977916748767,0.9530073456649788,0.6215373134700702,0.6041536203278635,0.9605373534478915,0.11519409052873207,-0.9709636697319659,-1.2109967882857071,-0.18299122650773159,-0.22156457485476747,-0.15689996699809897,0.9451950851602007,-0.12080639877200079,0.11771197792452419,0.2888467721836473,0.6436658852145901,0.5791358031262882,0.22469228307465963,0.17504118380892636,-5.434280996613216,0.8048372362251911,0.30514314604475745,-1.79582704513299,-0.24490399975561247,0.647916295844846,0.93083472435634,0.44224819541743027,-0.4067669704287951,0.12895366490145171,-0.181029724752341,-1.6221065917746573,0.5547451333417044,-0.11759661479933048,0.4406771831618422,-1.8660386812940837,-0.5676037152245987,-0.06149990463711813,0.5027381532386769,-0.5322600759860003,-0.2783571027481974,-0.7463090058395565,0.059028751205441196,-0.44970564025909554,-0.9630291145515277,-0.8325906300975612,-6.615008839479261],[0.9441277635771834,0.6588481758738499,-0.00014671516554509942,-0.6917837077286877,0.8725487194364664,0.40323897964393907,-0.7991963729474209,-0.48236646598100175,-0.11212690564438633,0.9110357950201718,-0.8925489730203632,0.3437613724476998,-0.4990807050753357,0.3529492153150566,0.029778715109504594,0.4830519028754174,0.5876132407669457,-0.16197678041990585,0.8135055657686657,0.9125852739756436,0.9029600714074508,0.7754206146935041,0.9999377400736426,0.42952000511524285,-0.44512252147528486,-0.45867360812755936,-0.7373184613745201,-0.29065293052950314,-0.40117017726331616,-13.301666240277985,0.44534818042724816,-0.8151574682415594,-0.40591570830428786,0.5266387939647966,-0.6659252293792175,-0.38062608830189293,-0.536236289497012,-0.011952951332390181,0.522062595862629,0.4974660342116951,-0.9983140217932918,0.26241378839157853,0.5454102546098124,-0.9473563419822586,0.4937213100283203,-0.7843773128374847,0.9245483217286508,-0.8206683007929287,0.6648948590142326,0.698768159901006,-12.98248900087054,0.7830374093518355,-0.8034847570645517,-0.5271587749554785,-0.07561560631073495,0.23195143531977344,0.29400625404504116,-0.8553931251584106,-0.3358089990982369,-0.7582235931160568,0.3667606116614439,0.5068598644451392,0.960755795433982,-0.09585206629692677,-0.7973602349604073,-0.3076616489725963,0.9220016535399829,0.4030919617687225,0.11844791624790912,0.7831423042874424,0.9613251472757676,-0.8328232878179498,-0.517034935426765,0.29833208204204753,-0.6897563368761314,0.855105433867015,-12.949348125909678],[-0.24566990895996654,-0.8965907461852829,-0.30168840501265165,-0.9273607980158538,-0.6343576263198079,0.38524401342588854,-0.5276741115706322,-0.39843187830474713,-0.871892342454413,-0.5212187689210185,-0.7498664001991212,0.3820943296234657,-0.6896518321040183,-0.6962178221422811,0.21271871269148798,-0.7924288597063963,0.465350700615112,-0.04448745711376687,-0.31134532521241454,0.6019391954482473,-0.3578251174122386,-0.34814464135331397,0.11738412884206226,-0.5964401400097877,-0.41571065742933966,0.5782777158750675,0.5031808672164908,-0.060266669923093236,-1.064591448214055,-5.030360184788698,0.17113225262048037,0.42669236323638726,-1.1728649455343043,-0.9969710574869572,-1.06391910441085,0.3231124321008914,-0.22290646479182416,0.22746592325704734,-0.7850024457076521,0.3255685079998793,-1.1932170508442463,-0.5072401966933674,-0.6730461010289144,-1.3243935775243914,0.3277146870608139,0.6114860200055695,-0.4731464281700783,-0.26331761290502786,3.7210513540605152,-0.7913234311953271,-4.379884055239035,0.05134328167598585,-0.9298037840062731,0.23549934606641668,-0.8399618800917116,-0.3216535132639372,0.4539135537072654,0.7935318936826911,-0.5836697743983059,0.7482545534775621,-0.03835338005552503,0.2291553575038277,0.8527721948428164,-0.3114166525863099,-0.007782800375786356,-0.5291826639305521,-0.5591247307849986,-0.5196438737980729,-0.06941913235282964,0.3272506340517937,-0.8674125634681946,-0.4482897601268223,-0.562514469076282,1.24245586485533,-0.6588129158272263,0.11331880032576719,-4.073580410485441],[-0.3359577861129171,0.25415813233539547,0.4759007140671135,0.6723547989753179,0.9050976689416931,0.20637883529652004,0.12528015777671908,0.45706844364415344,-0.6871678925496136,-0.678778317393343,-0.04745390250599097,-0.7579639050049672,0.16263559331620203,0.7727579095718089,0.08781944753899819,0.22857608920774292,0.6874304976913356,0.379154379778105,-0.4986403881092186,0.153150434646666,0.23803169098276258,0.08140129763198155,0.5218538293722894,0.8419847175108688,0.6823077239695228,0.8858867101054696,0.017935153229053244,-0.2369130173480652,0.224582157109131,-18.703460151779602,0.5341330251998829,-0.03667355753715832,-0.4784345547218476,-0.7854882537558052,0.7208830527664448,-0.7201933514472497,-0.7544040713041879,-0.9823911336166836,0.5194956441556186,-0.5404255450134554,0.6100188251930936,0.8671830221329562,-0.17601773455820827,-0.3276517655842013,0.19207316594682255,0.2679061998083195,0.6068882769063311,-0.9302691718466539,0.8960800731676952,-0.7557867886558098,-17.221072520443105,-0.9202862008460859,0.5622776416711961,-0.6500331867295605,-0.5387531910493877,0.10148438277750603,0.545497488134144,-0.14423183598443512,-0.826115069608716,0.8099741313842921,0.2595879751186053,0.2376735492780222,0.10055603781517945,-0.9557473520666685,0.33907894391724575,-0.9340692874710557,-0.9868045068052068,-0.869711864670797,-0.24594851385589928,0.05652230325529507,0.8354385314092843,-1.0303530797501117,-0.6143101243174981,-0.13455858296915307,-0.572225505364706,-0.4470717898272309,-17.443947987702064],[-0.04695003758973989,0.5834063443263523,-0.9816001062354415,-0.8681287941874418,0.9702371938439206,0.7630463522807475,-0.08412128552268797,-0.9230009112810136,-0.6377562768252536,0.5669946995433828,0.79130546338771,0.25244261819309727,0.7479870716571956,-0.7993019562143835,-0.8899179795565554,-0.08263090511729712,0.6959647768631588,0.9119044923357041,-0.7746376002996312,0.6629769783031516,0.6127198982851655,-0.9665225225939584,0.1715685873476788,-0.7452287546880897,-0.32551961007974806,0.4391566373311031,0.2501008572499124,-0.801551913454596,0.2346742961181495,-13.060058722793134,0.2619899036561326,-0.9297434568301979,-0.9134713729752054,0.4692825655585069,-0.31351829924060665,0.8708650641907519,-0.6451155559697604,0.060966957818452426,0.7324754399313101,0.1189319681954141,0.9886457130410851,-0.3126518569728969,-0.7394761463073108,0.3316456423200547,-0.418717214752931,-0.8226722730052733,-0.9098172613069602,0.25509343203216833,0.04338747451613603,-0.2645730284643471,-11.738999571859662,-0.018105182472670057,0.7606591953594857,0.1168079519182395,-0.9442417834769743,-0.6561185767266202,-0.7290882929478116,0.6365146696712349,0.22915383332291253,0.0617424069509542,-0.16585075276170724,-0.04136207159974864,-0.4580208060443413,0.7650378041801861,-0.8842279941670306,0.017883961879837224,0.8574633113778374,-0.49591033249892186,0.9435772316600265,-0.22888642461557054,0.7436635764562014,-0.5048481191571791,0.31909096343346166,-0.406639562914993,-0.10061752592222345,0.1700056712534161,-11.474563180416293],[-0.6878259938523006,0.4950411603940304,0.16091104583368723,0.33784961783143613,-0.2923038278159517,-0.1067325818047001,-0.11021745676683495,0.3487321886981073,0.9345477770488889,0.0002187167928725311,0.7828778684052207,0.03399536374522046,0.8392203505674375,0.3099975826609324,-0.476396347973572,-0.20275726217569356,0.6264158036860473,-0.8216594533625817,0.9276675983558651,-0.09359438498836133,0.7323156861493485,0.18326192296540436,0.17490626987683572,-0.6647627706579742,0.02857007938925881,-0.9619441009051151,0.9860919086938441,0.5062797593663025,0.646275219405558,-8.939990086066995,0.20643707832968955,0.6096559796057687,-0.14585737084717904,0.6133582781231789,-0.20951763163881534,-0.2146687723805473,0.37575330980560556,0.26481453051877224,-0.05108399092200366,-0.3582707246986813,0.6061077476851653,-0.974320348681047,0.04557899059892662,-1.5539314321640305,0.8825601921502972,-0.625439494632247,0.1594777865227521,0.15948631892643772,-0.6579261529836069,-0.7270676817770189,-8.408196261805816,-0.06547670866474403,-0.7197244104970992,-0.08779779700530387,0.48321105161285755,-0.531232525268375,0.5260272957840829,0.09144927839638203,-0.4069470099872232,0.27352188495803187,0.10008931009843676,-0.20582067853735675,-0.5633162465095174,0.12019086281744192,-0.5146898922281254,-0.6652769388207692,0.48766171542848813,-0.848850878517503,-0.0016807854356110645,0.6336547288938185,0.0730969106224829,-0.6296769031171442,-0.8067532498650755,-0.3266661260758083,0.2401592928913891,-0.5517121842795991,-11.09777525739297],[0.0009075527101607139,-1.1219833138115087,-0.3034388347486852,-0.476457472801746,-0.8786413088393871,-0.45407655862916635,-0.840298498933332,-0.3501162127995476,0.054416149601341834,0.7632214689038841,-0.7982528268111209,-1.6688348117584892,0.37857013197986733,-1.5678271496991978,0.6851928450285873,-1.1628931930942008,0.3660958483412265,0.18584875223919264,1.8894368360281033,-0.30008437711471175,0.7291164391797312,-0.26317091907937573,1.9031521154217546,0.7940104129241138,1.8815341718254184,0.8550072815468077,0.8485746345730927,0.11379031466253033,-0.12961745428939164,-3.85927801793046,-0.18383855190066697,0.5822306309284503,-0.5833948657128044,-0.5732900856388085,-0.5865480958020873,-1.0677699741083326,-0.7372502333421505,-0.0671597554898492,-0.8022889416600961,-0.8884057616608659,-0.13804515422038166,-0.6784133274758496,0.7250297347078306,-0.6435426689065296,-1.0216593909729128,0.43605825060321335,-0.13410734599959487,0.032061137994681854,-0.44942797098262166,-0.07164568632761442,-4.002459348873233,-0.012890791340415587,0.017396004268561915,0.7703603340413402,-0.6376838483017028,0.46975213544947547,0.31417927225394643,0.8503896319202223,-1.0393352786126446,-0.5623484925601459,-0.2702148784801998,-0.6300754078335433,0.7013863346813908,0.27473373788892336,-0.1214984164213158,-1.4331819663909258,-0.032868330048436575,0.18794878275513752,0.0483920039487866,-0.5977513952267112,0.3766178319767355,-1.0320626945379043,-0.26066259264936154,-0.015865701748814957,-0.5967221767300099,0.5496003396073139,-2.7563236705111915],[0.8713404571967378,-0.28457006142065444,0.9635426257522284,-0.885882709476872,-0.2664833348346667,-0.07155310595035935,-0.9644985516750271,-0.9771966342039466,0.8452725298038053,0.3313358721101374,-0.20226120909178158,-0.23431739076982339,0.6476409577930853,0.9068954851045448,0.9856579975296311,0.9000959706355494,0.9854641122280068,0.8695078590108118,0.03654488770239572,0.005288722849385863,-0.0377282040692406,-0.27724468790847756,-0.4597891158241496,-0.8830499307906438,0.2341326615462056,-0.9723575357574292,0.7723083084429154,-0.8699136380421799,-0.6781171831999235,-4.28480538075982,0.3103770821532619,-0.3251185190618304,-0.6818655062832475,0.08027231619529651,-0.8008919305398616,0.516423720443715,-0.4176122879016463,0.5761090012178292,0.4136241253014349,-0.9115791102920567,0.2941472092522732,-0.6749653333863485,-0.1650413600594144,1.2437273010371952,-0.36750025864704383,0.12060394869902824,-0.14111163036738927,0.6497911484528767,0.9910371756226144,-0.4958631064757406,-5.083437829875133,0.1179635859341277,-0.29259224064927347,-0.6960381903090913,0.11501896325482464,-42.10501349811297,0.14976703050415252,-0.29086473327319506,0.7447697320163011,-0.4707738745755853,0.6609322359623335,-0.027083309678793372,-0.09735522360284565,-43.40243696056874,-0.05594738733823281,-41.97736977263841,-0.5952005526232655,0.01794455479954271,0.5793976020910216,0.8288516819317318,-0.5078162574529599,-42.73855831467672,0.2609322447037776,0.38772731606635014,-0.47599672731552256,-0.7242268901877493,-46.71394957672859],[-0.3131124614410547,0.5301331109838782,-0.8892380135851764,-0.008574841741964975,-1.002815683647622,-0.3887297306163611,0.02218408919303302,-0.4628235318427533,0.5722675031954783,-0.7279134625192456,-0.0059078117007260855,-0.513638399310068,-0.929653701087046,0.5957881252659233,0.3605736272131471,0.5138040192400152,-0.34729528988877617,-0.3902787769059178,-0.2926016118120766,-0.2762021631297966,0.036266553457869555,0.9159204229182756,0.1407645928967804,0.19369390371011724,-0.2787611470196951,-0.473675116352742,-0.3224467164277291,-0.48951447541517,0.7687194916059915,-11.137841504955901,0.6333814815525004,-0.37453808923473153,0.523435146655907,0.9204233652225705,-0.5926043040996697,-0.1526422024269911,0.617584621620706,-0.07388752270066506,-1.7969099055271867,-0.25129631826237997,-0.4874451061856941,-0.30165831303476287,-0.8495071231851575,-1.2014175380283028,0.22048147118373465,-0.9277639273028317,-0.7578425081564358,-0.16588609181602532,-0.6900506183804869,0.9456624186226217,-10.742887714799545,0.8410288602675541,0.9106143451966153,-0.35538580317844,-0.0037188833223302685,0.30103033551101926,-0.30553344654882486,0.3225523135109424,-0.31576870661528184,0.7066973632034492,-0.7127339113711467,-0.40596059326640893,-0.08808001730801032,-0.7718321002655942,0.7100848560187822,-1.48203633314295,0.14622035273334238,0.8741583506070734,0.9237718709682761,0.1689935128537089,-0.3397911320450836,-0.27173306672545855,0.06639531356883006,0.01176421586775212,0.026489730022971777,-0.8704039601770506,-11.177394695868962],[-0.303993313912431,0.48335517303140174,-0.3935745856309972,-0.7426536711498782,0.9954921117476874,-0.3630391154756863,0.5092097672615831,-0.36411125627698787,0.09391468151850463,0.6976572595745671,-0.712555471855398,0.06250492247998513,-0.06470616081079211,-0.6597311213560936,0.707163301162221,-0.4738533398563444,0.47578019867285615,-0.45709288669220716,0.6215114698395383,-0.9133817327366953,0.3740508673481033,-0.02564853005144291,0.2805314799288822,0.18557422595439318,-0.19949120036483983,0.4365197552941763,-0.7770949646789463,-0.09864015364350698,-0.8922309283333102,-20.90423568961222,-0.3586637155539811,0.4861039534988576,0.41351082365290026,-0.4547501718311237,0.8443748535132274,-0.43345368113001237,0.39325890733459634,-0.8847700518764625,-0.22641719785356307,-0.09092461097422581,-0.851979009693663,0.33904951524583204,-0.813862859234207,0.6408265605114561,0.41491818251633056,0.3000851219874563,0.5689372546806633,0.4756624101355317,-0.514770773819535,-0.8543924105637785,-19.727053703699852,0.2308555160257264,-0.2991437201144623,-0.9345520853696225,-0.7684679226808494,-0.6204459497014677,-0.4286303363496416,-0.740628493956617,0.009811981209859452,-0.5464902038304262,0.009967316473502278,0.06779202052574056,0.184093347610354,0.05784157115982639,0.17258344000862746,0.603529218707008,-0.0857246045084185,-0.5136360334725608,0.31534901100598606,-0.16498217395178477,-0.03757163913416759,0.2843729440434579,0.5921304421695551,0.1957674626895816,0.04000689295046738,0.28053518854433585,-20.2018626153337],[-0.5620535892301578,-0.8061209008300425,-0.5270927260368067,0.8053835999344797,-0.3591120603506687,-0.6118244809968697,0.40165826772777224,-0.17335089461223394,-0.5296466042217807,-0.04102948837331844,0.022787286602906923,0.050578595720561004,0.5701659111615799,-0.08870397276535065,0.8821657081645669,0.16336837375345556,-0.9994521875005408,-0.0851904018099036,-0.6675971831985467,-0.3806584625770361,0.544897112965337,-0.14706315481382878,0.8582624065117386,-0.7771430400355388,-0.03019911397231732,-0.04735091521739425,-0.5541066467244652,-0.8944498398546155,-0.8831042071650358,-10.653573228697336,0.768329382406493,0.3301486545120524,-0.4265494832506747,0.6237471758079687,0.09477238957622787,0.1934893260791187,-0.7914560517545762,-0.1458052613678165,0.8525245145531741,-0.8985051136976142,0.2051757685826416,0.06181190582428183,0.12688200795477078,-0.20076397658805323,0.21196161790021237,-0.8502975381647878,0.5645865763317649,-0.5668676034525543,0.7068153634147198,-0.20351634007645655,-10.961314753968301,-0.5595886435454622,-0.20580333779129592,-0.32523139576642945,-0.6529527728619123,-0.2547022543232082,0.8902437898089004,-0.24272322281878547,-0.8774058699160965,-0.24283595710841221,-0.36330759096680687,0.15484290991220462,-0.861955620821284,-0.14978583901002734,-0.49699749016997286,-0.5025136100915208,-0.7166055957531842,-0.5893751782520192,-0.5637768339234647,0.38412518249419453,0.7976632940925941,0.6145392800477784,0.21366182798086644,0.8815653007629997,0.4388396727189494,-0.4617885889601882,-11.956834341371966],[0.8416285977212352,0.5512087486010121,0.8037033656027085,0.7473944235204656,0.8437640121924621,-0.6173482829891176,0.5601017765308686,-0.472058701343411,-0.1639971354910891,0.14339808245285834,-0.7339727768934566,-0.9046262872459098,-0.2656280233882493,0.5188894174523504,-0.6534375719840166,-0.22804027022653164,0.0035873548265067026,0.7129252108087941,0.054600032609605186,-0.6607827783563078,-0.9974249214776131,-0.3265612765601718,0.6952157174078217,-0.7326558673999509,-0.25880539570578526,0.377280547974255,-0.5288813246386534,0.15197308005518226,-0.4097130447848347,-8.159498027334092,0.6849023361944788,-0.9846285103407983,-0.1151353735671153,-0.596660692420848,-0.10341435506169912,0.6867889913720626,0.7569176013618402,-0.1305316315894156,-0.5057194520453985,-0.5800987143568566,-0.47844360855965734,0.2514898868984465,-0.2359292096020662,-0.8727271183397078,-0.5345196412888141,0.45102220085926104,0.10570865903721892,-0.8448558627672644,0.9060280440244283,-0.31496137638117033,-7.6315382635588405,0.5347805155820349,-0.3702446491014792,0.6029647102347384,-0.8840222595799121,-0.04395459112974769,0.8423945594407796,0.527304741974669,-0.21620546673788535,0.361771551000715,0.7557015575485387,-1.4044521860571106,0.39033291580286994,-0.6761333004970034,-1.0086890890968496,-0.34310981770285354,0.2728203246287541,-0.7047839275569769,0.6153390824258477,-0.9067418471395328,0.7980682687944602,-1.1755823243072983,0.5986162351360893,-0.6130905877376369,-0.5827799039269843,1.0093206392266718,-9.216394905238788],[-0.5864530497954353,0.4146516080677387,-0.8179893226428638,0.9938793929955317,-0.053282826059651525,-0.3779806417863798,0.6147114231564546,0.9195336963716556,-0.26916084569020576,0.4468727817926755,0.7402199570592697,0.8509891898544986,-0.13737951329172723,0.4846853495482463,-0.7710583475277916,0.7128131303012749,0.27943213796154454,0.1711079777027748,-0.15785549759681688,-0.7580345502011945,0.730070674033837,0.9708413833906857,0.3968909334149377,-0.23412564198770108,0.17546254019767743,-0.024369275912957147,0.48842726539665443,0.26867695011446124,0.28839628700640396,-11.223984385992965,0.6463977355816196,0.13138273727488778,-0.44058393167244814,-0.8116832972600242,-0.6980880286471046,0.2455791347059055,0.9236191260888483,0.17868130162141152,-1.629166074819179,-0.9026478254111421,-0.12698516452264685,0.44718088298746894,0.6637414904282974,-0.652726491381904,0.728894145060022,-0.6891641415259363,-0.6610180194898233,-0.09366081537701157,0.14795347041674564,0.8640550691236866,-12.317574959466516,-0.4676615352778746,0.04565674502123798,0.6026014773704828,-0.2983763515715217,-0.5540435934607179,-0.4698738331029832,-0.6141123083448099,0.978206925054045,-0.5131788747434675,-0.6134451497642976,-0.06671560957460475,0.6434889041636603,-0.7064837903173835,0.8894604463807047,-1.809526756621502,1.0022414688182382,0.2838863046812139,-0.46651550505845796,-0.6037209810341116,0.27012296674693315,-0.369465433707658,0.3574528862242433,-0.6213539749272374,-0.6972882722723618,0.8881241735638078,-11.571361845668651],[0.5656112114161458,0.18440564508267263,0.15713206924991108,-0.3026993973362179,-0.7767864428533734,-0.32849453982187593,-0.8640734414788246,0.8126188875055199,0.8991225557481629,0.34252614378691276,-0.7903136428769238,0.3044053168162116,-0.34251808173289416,0.6594774749553486,-0.5190610430086858,-0.6109667072840017,0.26930301914709726,-0.31650885272549195,0.5708741149872271,0.8935221569860063,0.8188088925163741,0.7860930221861208,0.8684099967302594,0.8640206306131885,-0.9346897717026301,0.7989027411160137,0.9321323734693051,-0.4401792685822804,-0.6796076011552432,2.7060081402531115,-0.6758217028462146,-0.4784663297958681,-0.487475642270854,-0.6363702502561769,0.09033120890507784,-0.15386110003946576,0.7382396750464552,-0.24860034455553504,-1.530248716592882,0.38108056082846126,0.5580819116014584,-0.06574122880946826,0.37235639006006044,-1.4117752998607143,0.3852106778626386,0.2958950262230835,0.1098555022958969,0.9169093230453224,-0.5031581138079051,0.4181875071266635,3.520881575992517,-0.939503050273035,-0.3719858807007662,0.48836883842483364,-0.3103724898203633,-22.91093426778461,0.023993125722004294,-0.35286047453411734,-0.8484676776066159,0.9146607422196329,0.9641752401409208,-0.19302219458294395,-0.27694721063406463,-23.28087528183288,-0.4681201422488942,-23.74429420597964,0.4182410870430538,0.06608939569850765,-0.15043642311015748,0.6284792699445888,0.06069490948151368,-24.96830861004653,-0.8952651882157494,0.5101001177588925,-0.0859387518113892,0.10533282952105594,-22.221754405684223],[0.05773088131815479,0.24207029688538714,-0.04891871443005354,0.11893798791769174,-0.7223325208651739,-0.07691374705100341,0.40014070275989866,-0.26510319554306644,-0.9159865133041118,-0.561539007461538,0.3354516488552125,-0.5801214649772224,0.0077070723488855755,0.5793740007210153,-0.8284352414490124,-0.38024833083148707,0.5051584453583845,-0.43865460694378994,0.16455596967075797,-0.3459697390972108,0.8942840285071596,0.10255346764402155,-0.5409719457511791,-0.2188686364672512,0.26941610800976595,0.596715629622375,-0.40780259139502656,-0.8165869004959696,0.5130203808483078,-14.697771852201639,-0.34405983335606394,0.528726274004524,0.5004274864696364,0.44797210985501806,-0.054952977190782806,-0.8414518995152582,-0.3828893852190892,0.8145870495631032,-0.6228515793881129,-0.4482622609754258,0.9189951457262345,0.5244703287373311,0.859503309685703,-0.10734219036396227,0.37093202789516716,-0.7839395698804321,0.28108615045335067,0.8284805530538376,0.46690795148109726,-0.431523283683344,-14.965223356534175,-0.9572395279519372,0.8480498517606359,0.4122865686455196,0.7608097427727372,-0.6033524020334561,0.06841172664074868,0.9641836229914587,-0.3794620951310819,0.01927607129078716,0.7190533005777522,0.31058956228689916,-0.2758301343580956,0.049617550225446776,-0.24340688066250885,-0.45083892400167286,0.7539798263809451,0.6687720214892274,-0.6613281478589862,0.8636553281526915,-0.41997723239879214,-0.6008158445965787,-0.5683525867832241,-0.05673197296954547,-0.07936978780774732,-0.5738021240985175,-16.240655295312177],[0.015549454546653298,-0.45697831476004663,0.633140855932049,0.10438946228566047,-0.6734388044191918,-0.49434836366223006,0.1570230646382739,-0.24714072741580273,-0.03948754989565405,0.5008210638079266,-0.5340329647257508,-0.9372856298798129,-0.1216062184991452,-0.585198104011088,-0.17977082569950953,-0.3791030759339429,0.5587232049205568,-0.5980368205214297,0.7208192662118414,-0.5606856731524285,-0.17043108300499268,0.13570476441329005,-0.7963646601125467,0.10185753964721846,-0.5580666496890333,0.9630148548329099,-0.9238907179950936,0.9853285209842507,0.8987334011369102,-3.675114995513647,0.7076479285158348,-0.43114294810773557,-0.3854629458753762,-0.5352934717997303,0.5513901540951334,-0.5692813821813788,0.9111807831832689,-0.5348322823687229,-0.9883270583458946,-0.5709377397515473,-0.5037900109802037,0.8467913067003059,0.5291751857631146,-0.9033822472867171,-0.5123211743327057,0.0888861900764112,-0.15324211709624275,0.770947213381197,-0.6753453500664218,0.5871655968340994,-3.049006172196652,0.10716425166435237,0.9272610989017253,-0.24116796558112538,0.46546641771380515,-10.897415949377175,0.46635080970303655,-0.8678298989344354,-0.7025666645510514,-0.24821901750895467,-0.3290173470147838,-0.29128981316794406,-0.7712889271350135,-10.093132880728916,-0.21627615091855218,-10.055511170778438,0.45329620864032205,-0.3578879255540197,-0.8262819868518595,-0.20326123683396125,0.39731316777233483,-11.09637620006793,0.6542720125094095,0.7415260651044419,0.5732404679203553,-0.28003856966089646,-12.79238010025182],[-0.2435794883971638,1.5162824022183539,0.44381512185761934,-1.1223247774669212,0.6405538029053489,-0.6030591517255175,1.370669036711478,-0.6983710619895407,0.27566618311456387,1.2780035353157917,-1.2048656705873797,0.23034909912084972,0.016628271963756668,-0.292112532654477,-0.20856239470351998,-0.2777676546422568,-0.2775890649155731,1.1553583132680234,-0.824563657890043,-1.005404252463019,0.1899602793087699,-0.5557605636481173,-0.22249299370220962,1.296183405576564,-0.49931743965544906,-0.6845214468928533,-0.6351989002975527,0.3313473441054745,0.527780532846555,-1.9191379581416814,-0.727390183366488,-0.5942843646243124,0.6484842725869745,-0.42452220068659713,0.10867651470662802,-0.5086066840160547,0.36379403249069453,0.6512414803406098,-0.6353549146714113,-0.6471184915369942,0.5206132574919476,2.3203503321819485,-0.08979225719244541,-0.8242422776518465,0.4607839768591828,0.3488504246877919,0.45582978332416735,0.19084216960654507,-1.1862115666216626,-0.45559605857476954,-0.409491663745113,-0.094626781794291,0.46443216463593295,-1.0214351157651769,-0.6907792243479708,-0.11045403942062805,-0.3761547974316049,-0.04721083949026957,0.02801777064985878,-0.7045977051061253,-0.4933157525839329,-1.3776298909936329,0.7180012335438196,-0.7348563489089243,-1.088280348771843,-1.6721619097751461,-1.1245450409546425,0.5386077294949119,-0.5971197936407502,-0.954368411944627,-0.38823216580238795,-1.6124041267833809,-0.689903997069711,-0.0994579230891843,-0.9258447469730035,-0.34533308720488853,-2.782592107540516],[-0.4562040835367274,-0.9743156449030099,0.8139046678545522,0.2905776548687443,0.7213493239544548,0.26524520750377356,0.4604054631323937,-0.15186339850132613,0.016664487085164315,0.00672201859431249,0.3825133259563033,-0.5160936687183623,-0.10873913733296324,0.7773731188810089,-0.39623824227345106,-0.4555106898435718,0.4970167603252977,-0.14908087114801877,-0.6102712995099653,-0.20260341106188742,0.5974136534838033,0.6653293312179961,-0.8667567544062361,0.5650431357964686,-0.5400893095690397,0.8085503959046971,-0.740943283127431,-0.8836883088064775,0.16081322046083338,-23.452085161562128,-0.6232275494861291,0.5662620530072112,-0.5948610124449684,0.03570071789212938,0.34825351996416004,-0.5243869272265291,0.5437680061682578,0.6736720361974972,-0.057901167412595066,0.39929035148057956,0.2509406291313933,0.5724070070001649,-0.711412070969233,0.8992616735130201,0.016531271514536795,0.35058837207835947,-0.3427757076729743,0.4944551087278817,0.6595070757493846,0.7447062242107262,-24.298957226073853,0.4484256276647749,-0.5177881306047504,0.6039799395697684,-0.9344507792884078,-0.2480444890051345,0.854042593518502,0.5340265600295917,0.9915208964456979,0.8766931824816298,0.9995732067853345,0.5728036835454908,0.25764237846931387,-0.3053206211527155,0.6547976613534552,0.7774768597446249,-0.4500370528954583,-0.44006855738625633,0.030254000973125836,-0.6231786113706359,0.9861087588998991,0.47541955182011253,0.29868862736913104,0.9165764746167835,-0.09848596560966132,-0.7253143537105058,-23.464652548401272],[0.11702839216464825,0.6494096653988445,-0.15794523993245932,-0.4772722622597954,0.4482157181320473,0.8143923200790179,-0.30985541920675086,0.8907647603319727,-0.6295981928591827,0.7311461596972328,-0.1848352878938671,-0.22384304392945298,-0.3361242700831507,0.30298548226272143,-0.2102352335166667,-0.595072700061175,-0.003977547567391209,-0.717406615628443,0.5153825709601806,0.8742858109503113,-0.7360779232991126,-0.18130954218063275,0.2982561101798005,0.18596619452022703,-0.3755386224746627,-0.19383350352538217,0.11814407192230264,-0.06183518184456246,0.8744102190308374,-8.514350874574934,0.1792041959226531,-0.041784539008822875,-0.2680693761788642,0.5728392595424608,-0.3887421542157616,0.7856383415394556,0.12286691722172625,1.390901294785921,1.1298614090070713,-0.36617275005999006,0.22620677303492168,-0.7189537638970175,0.42697634831827513,0.9015854593066774,-0.692734320545328,0.4522068339236531,0.062185874788735475,-0.6034549947524371,0.9469538344118135,-0.17949297279354012,-7.344943515037262,-0.8546727980615815,0.5696786277881607,-0.7981126201285128,0.7189733490260815,-0.2654939957244712,0.25606473735497154,-0.10565104537241546,1.0759591743739352,-0.15028948908007086,0.08900333812642611,-0.19958397699932678,-0.6190908066549482,-0.644587409830782,-0.7640122118426218,-0.09821139236290309,0.002600110388251515,-0.5215796242218856,0.8903044038608405,0.6365082153106635,0.7291633073671585,0.19418106036933855,0.5572976870448687,-0.04091879630339648,-0.8863553804452547,0.006395793516013205,-7.831164033063337],[0.5645808190419228,-0.8148531434139439,-0.4379091641027346,-0.23194811786192288,0.942046438953435,-0.15768985607507263,-0.3884160165378031,-0.4646331278204153,0.847144977047021,0.5547023057292455,0.4305420511906122,-0.14905420643071302,-0.5445953880978048,0.9969737884980042,0.8596633338136492,-0.995737912168047,-0.5111118124353744,-0.6029888287513921,0.9072829256528039,-0.9178390505687966,0.28166795385626686,0.16565658326267338,-0.8527968421563928,0.18259989613935373,0.1551721528453334,0.5679220828321945,-0.5818450216580683,0.9741459414265605,-0.9050346884441881,-21.178661025611277,0.7100166994353614,0.9728426774920726,0.8990560876373532,-0.059370693564241614,0.8879923892639772,0.8612307490685627,0.7101757553369088,-0.24045858353748797,0.6963626208767397,0.4550742550225759,0.42563489168961155,0.2589317174292087,0.048371925308351126,0.35195167696641344,0.2603882862297566,-0.5418425243464443,-0.34106121170276,-0.9338623021506771,-0.5053019301770172,0.11445652503981074,-20.206802075068524,-0.8045094851464936,0.5968737223366446,-0.217491196909065,0.17012694996222233,-0.7071290017896915,-0.32082380913476694,-0.8478443226806804,0.34866138241297573,0.35279428634194704,-0.7920379558486007,-0.9212819204298357,0.9076549503668911,0.7702511694669736,0.3985768886366966,0.7388872758651828,-0.6055642710975503,0.5640135510921012,0.09174554325375538,-0.2993634876934718,0.40284742366134013,-1.12728424032225,0.7869962010403903,0.10323413793218209,0.6005126616791241,-0.463734838740439,-19.675216813665383],[0.935666844358069,0.34472898739181107,0.4487065354801369,-0.9213184842948692,-0.910354999946292,-0.9094327054779663,-0.4372643437985109,-0.316046679936999,-0.7188017682237626,-0.35563960879380985,0.9398160773799,0.27385526030892243,0.3385860046313187,-0.13998107491453318,0.2579353554774312,-0.21540793101267275,-0.39184993646812905,0.31228818015660426,0.4851824619349892,-0.8309430898590152,-0.37176913143216905,-0.3218337196340469,-0.339417871770541,0.6997509592590425,-0.2018997979512135,0.030055251509689778,0.8010581155589565,0.49292058278208833,-0.9474472786689163,-2.466501234139082,0.016327936570796703,0.06212280130897585,-0.07393674984866894,-0.6948014341378138,0.2874528979608506,-0.34994101186610554,0.4997837398826682,-0.3370082154652514,-1.0579514099230163,0.16768391755227624,-0.1360390257763936,-0.6600906719140407,0.07598830479725775,-0.05264000171528901,0.4186151286839412,0.9926606897703424,-0.8187524378149167,0.794830947577917,0.8467523739392876,-0.17432524472770738,-2.111067760059794,0.3985358312493097,0.21280142848960626,-0.8474404646550954,0.1848011480704206,-26.412167074448483,-0.3087973167914047,-0.4854753747835612,-0.21588666706115453,0.38608496821653726,-0.2147540466244722,-1.0568091012097294,0.12414954912649484,-27.048703572001372,-0.4880114481408152,-26.31952368123816,-0.6525407729707696,0.5917777857946379,0.824667911810832,0.3007173243158259,-0.682054642567438,-28.105955488860044,-0.40001399168354207,-0.7622325350918959,-0.4589344559127525,-0.15168040217546905,-29.554854625811476],[0.8718361545792368,0.6777701966517616,-0.006165592279481373,0.533821547955672,0.12288614036868015,-0.04119328736877803,1.1149367015959504,0.5272421910129648,-0.5583283007159826,-0.4809727289775426,0.045235773306724375,-0.0931015183709255,0.1552240751044105,0.3972949449360899,0.5290448691379683,-0.47554947465005226,0.8697780242715722,-0.4301410056601112,-0.7612306519042493,-0.5915440299755287,0.06779987980785196,-0.8470002324331197,-0.810922892736657,-0.5438014643755976,-0.7371929015428236,0.018853968101346225,-0.5568607253839144,0.06197327092312502,1.1218220381830044,-6.963258520794647,0.13898025265821404,-0.8069898314259589,1.116639884221522,-0.6053756276637403,0.20350739220435926,0.35110179452716406,-0.24627216995078327,-0.483785628819128,1.1129273383578735,1.40848341097579,0.6809826902956452,0.4257785232937813,-0.21920058287223237,-0.9661213286262157,-0.6582082232587568,0.20380623771914744,-0.1238521006566885,-0.17223239987823485,0.15863631397078312,-1.0412143317672975,-6.677377387129359,0.7456117179388492,-0.5664001359580187,0.48837402562994847,0.5439538582284779,0.8447326326720365,-0.7635083705018465,0.6474612269232124,-0.9459818137768876,0.043569741606627396,0.13353290061593465,-0.2957249519475496,-0.5014836996272121,-0.21216681732246476,-0.08674334422739055,-0.7886149280185037,0.42902022681563756,0.33418292430295315,-0.8484004383233335,-0.6823579861942956,-0.25188144235985926,1.1281996285494391,0.5714346603074316,1.8923222937031265,-0.9209121487045749,-0.798339463227081,-5.5767028563371035],[-0.7696751791015399,-0.5414793309795459,-0.5849889212032251,-0.6181850604088194,-0.7952832588561471,0.3988172122912584,-0.07819053636809,-0.03998468295851168,0.8953992437024334,0.4734127074672724,-0.8942532522512489,-0.04099371489774378,0.5014399871425755,-0.6267153542077222,0.6555729855853029,-0.012552164320530981,0.7347572097547955,-0.8368275229191315,-0.6145053979335994,0.2408524959668601,-0.37045141478627497,0.9230220879246568,-0.5659525000415547,0.46944550283273645,-0.7134227426584632,-0.9493257192156418,-0.6040280819217339,-0.0006831234955906536,-0.8305423343671124,-2.4780119045791635,0.09638691010609325,-0.10146856570659846,0.9999737483999216,0.7730619093570965,-0.0156204847895067,0.08914028622377848,-0.3587333828193431,-0.14807305796431422,-0.21625184494665037,0.6351617077909932,0.5545224903981393,0.8308178702172504,0.60706954805453,-0.9623606814324677,0.9732871527077082,-0.47162010251275066,-0.660971666455918,0.9107096256462116,-0.4234131373804994,0.15467313120257525,-2.64741568631664,0.2738420156318305,0.31426115334907306,0.5750477079552562,0.5007729601945264,-9.680438077563092,-0.017104709594508858,0.7540414361161016,-0.8423886088655302,-0.26431454336009125,0.7705895764964091,-0.33337480376986695,-0.7454899643540984,-8.83682233610267,0.08414803925432895,-10.326452652889381,0.5785510708530142,-0.6902478751019999,0.43370123086152845,-0.48289219714113263,0.7284668793235027,-9.082381389467493,-0.9628436600333767,-0.5214560795407677,0.054569130316997665,0.6931470817817296,-12.104048170153348],[0.3616931975653556,-0.8234499508397122,-0.17668969123107334,-0.22403398548264383,0.8708798394431487,-0.7514790267061418,0.8798285836491605,-0.3928125588587008,0.9554224848466172,-0.018208192405263356,-0.10249740116362566,0.48883045668026603,0.20650039679512747,-0.30161489720529217,-0.7835501521285995,0.6562583165219681,-0.8410176508549925,0.6727935102405532,-0.2330573112580837,0.07019747225070383,-0.07271261717764625,-0.6111536937511639,-0.278985559375717,0.9632922202693502,0.8175300509753559,0.759295622619642,-0.2895016087729833,0.8190500892320578,-0.7645809042442796,-16.530651406975345,-0.6309031562477707,-0.10937747309843776,0.41231457445310254,-0.37674152056671434,-0.17756135350603175,0.8905018774799269,0.16469773486240127,-0.3662510994558071,-0.6870546045466782,0.9250457043525832,-0.8704031786119071,0.20723693964520645,0.04273805413031799,-0.287381510855349,-0.7922504467014586,0.544358296377617,-0.48749084660735503,0.5581052435637393,-0.30487673667934995,-0.01864140553974747,-16.933110923700543,0.3158251052912308,-0.32628673756914534,0.5027340502467413,-0.434268027945108,0.6447130118342317,-0.45211093093509963,-0.7625596346630237,0.2505375775318293,0.48636678545952433,-0.7180443493514481,0.0045815417650583255,-0.12267982773604194,-0.663802016396621,-0.5978050431516039,-0.28264354974222555,0.5177938895289892,-0.09777878676597995,0.31825610251151926,-0.5841754693920445,0.7216267955034705,-0.07308434251104012,-0.275035913026414,0.29828413607214943,0.891904034704554,-0.3641807023833403,-17.38836684365005],[0.08054463638266539,-0.4621784153505581,-0.9578827793054054,-0.10992177326839424,0.44713686390014157,0.9245772912145923,0.21991268959238638,-0.8641139530802802,-0.20601423699626395,0.5373810620196114,-0.5293404724349269,0.29593762439955273,0.9663310233471649,-0.14342841353762562,-0.6739020124302316,0.9006963429629584,-0.805039997434589,0.8880178132633577,0.43410788870175976,-0.5963789147762161,0.7410481307395494,0.5235046004768897,-0.004168889715578357,-0.23133024035953792,-0.9279745388884282,-0.999932214240862,-0.44041276208532937,-0.26854693703959753,-0.3956041358905457,-10.633045969083915,-0.525179041244462,-0.790807324809599,-0.5733265252648766,0.22995338288773204,-0.5943267012867856,-0.8805069937127775,0.7811849740974578,-0.8719308247633868,0.28694220108480606,-0.9958664721289613,0.3430700902594353,-0.14885939252445313,0.4461783807545255,0.24931542127469228,0.19819274955748067,-0.4721772794946688,-0.5611350279168258,-0.2485035667633408,0.508787958617472,-0.31338877678318544,-11.120039288884195,0.32285799438958523,0.7978981510007089,-0.9554019571497679,-0.8459429774991335,-0.5942731826920111,-0.4726028845613863,-0.2031165301612203,-0.27605872760007455,0.042556408965740145,-0.7956748044691824,-0.01642703759222981,-0.13652824612911724,-0.5031023280320173,0.21678037280043316,-0.8040002942357266,0.22867621016899625,0.2760032738668379,0.005065821550162816,0.02470301283416414,0.2600569685516648,-0.025271614589233403,-0.0749658941127155,0.37335865874176116,-0.056927064066603236,0.25241334052406944,-10.82363405699987],[-0.624533191458326,-0.7930823367005733,-0.1154707121989009,-0.32075300665378104,0.15738598443842977,-0.7025104614325574,0.7359269805330376,-0.32871713065457714,0.10917493691859075,-0.2368628594949028,-1.0102987166466988,-0.5205811293303564,-0.5097968587539286,0.39870203010886535,0.552178436856266,-0.2462254162282183,0.47019062876441076,-0.22145354656565527,0.625081163671896,-0.11129835768310589,0.23877743250362796,-0.3873023078938098,0.3795664282599675,-0.5351928125886982,-0.8311306503746699,-0.5151392416278635,0.46325311644160994,-0.9465439278846951,-0.4006730426134031,-8.105705563183385,0.48279218359079357,0.0004990156804701774,-0.4055661883564967,-0.5747210447568599,-0.888760711717295,0.8460931112463037,0.019376214616792137,-0.7970475553942347,0.33654234764595575,0.7981379800224234,0.9468542332469851,0.17883424306649537,0.6601194301865811,-0.14530837674795985,-0.9797379785710767,-0.5528824290852323,-0.03918958819736687,0.24109297669834545,-0.5213923384380498,-0.14104105827453736,-8.118439617524942,0.5152995349871811,0.6876803474161067,-0.7813682979696004,-0.8147928249571422,-0.972783942659626,0.4535000141891465,0.5259538212079122,-0.704512393288146,0.17261952622419305,-0.2469436364170626,0.14308164230856538,-0.8529800045143391,0.2049855454734341,-0.6867167360356825,-0.7290226980678468,-0.44747904852888354,0.48067120902866056,0.5045253474803528,-0.3574465334038192,0.014886171950155973,0.4927156161664521,-0.4587433756834631,-0.2958543594820033,-0.4063467524501979,0.6778685229521254,-8.731811355208979],[-0.1931677753585018,0.6093420682989954,0.45882069383053925,0.6460224002186975,-0.04041706053301867,-0.6443448151994754,-0.752668098431349,-0.20293420294538553,-0.45998370016484125,0.7621081162606188,-0.7480972400765507,-0.5204060042427111,-0.3865023552109188,0.6848536253401091,-0.6803890988992188,-0.2405672326973538,-1.011177602768616,-0.6251302243288578,-0.5118197495871941,0.32724075981368567,0.4410569771927348,-0.795004301807284,-0.15164005470631894,-0.015851501828690835,-0.8357397489317899,-0.6741486037433936,-0.3804611070088601,0.3399638703482031,1.8920810383875455,-4.42200416331571,-0.41086200930924544,-0.19167330910124145,-0.4884032441323348,-0.12390652831530621,0.23050805983926484,-0.9561147691827669,-0.614529009602294,0.18671720278543252,0.09704814827951348,-0.11834641642228814,-0.4969915136697781,-0.6402424856448022,-1.4237212456589898,0.8863544662605182,-0.0394220155792888,-0.49490415794293435,-0.16309166845673817,0.4865289972632661,-0.32767760820051206,-0.6099410448004754,-4.094703987212819,-0.9044875425152485,0.10256735468853088,0.4566627815697135,0.7757576033621542,-1.6548232996251573,-0.3537330700860507,-0.15078505440964404,-0.37870125704786983,0.5563990488556996,-0.7151392930226439,-0.07278824089207449,0.3624775893457641,0.24971433674056606,0.6899100188113226,-1.4438478913746264,-0.49542099543287127,-0.8897848923991364,-0.9446020653612397,-0.9899858818012482,-0.23244784162152146,-1.3186863824980644,-0.7609478666095043,0.6446420670946312,-1.1623778861676752,0.2053231641726599,-4.711468811995717],[0.44340468324497045,-0.40456362391008993,0.4853668087279616,0.3249356822741055,0.8650069366504686,0.9897751693432042,0.22447649008128376,0.52689541551014,0.6672327866942286,-0.8857700545892899,0.6236899766686593,0.7938109559119749,-0.2758867068561313,-0.14607061676691446,-0.8332431919181462,-0.8118535079335976,-0.11623866789899004,0.10198761598453257,0.4744721522532802,-0.3398062102295383,0.8919576003899907,-0.7458081512533594,-0.7961418793156594,0.14979924666759026,-0.5747955105261165,-0.8308925599515732,0.42689457841205103,-0.41236434787820264,0.09059952840819284,-10.084404870263647,-0.2577166972826274,-0.048807671613712376,-0.8388302902469736,-0.6342927466687139,0.9592248570795447,-0.01872299021791494,0.9473248804016812,0.5323871661207197,0.7065823723526687,-0.612863032598951,0.7495835830000636,-0.6421129406754915,0.2703933503761074,-0.6626664251673202,-0.17473861223994788,-0.9175122172642992,0.7500699822846115,-0.39600476842881854,0.3734359147445246,0.44047231195932257,-10.236518827780777,0.7390115829800697,