{"HiddenLayer":[0.005722088651527205,0.0026020325525696257,0.0000281310845665232,0.000969392089496529,0.0000883778680886284,6.166205551835576e-7,0.0011224136887685546,0.00013826815323550532,0.000010083817678564443,0.00004963327710896491,0.005498625962649918,0.001451958727316965,0.01146691979830068,0.002608828497482091,0.000001247556712291938,0.00010374224086466293,0.00001385062522284973,0.0023439751250431433,3.965558836223319e-11,0.29641656192417665,0.00038223289749388296,0.0003922783650438782,0.03095009775451825,0.011183404301682399,0.00002538024998931432,0.00006152596016314913,0.0035114433158593833,0.0005242005097310632,0.019379567001662677,0.0011317864876934421,0.0005433959940619809,0.000595227371039482,0.6915783388326668,0.0001289559539217507,0.0015612615862784776,0.000010132474026188242,0.000012590497373249103,0.0010074965698051736,0.00025790953642085447,0.0000298855739900569,0.016138114527262187,0.003791819619521836,0.00011059194689274131,0.03690289199986715,0.00012938669971257342,0.00007370181804931717,0.0007474711479713869,0.051572865635460506,0.00011037018575830663,0.00012841854949065005,0.00003176531587000101,0.0000010032348121357697,0.00006076480565569061,0.000005836700013820391,0.00001371425510464574,0.001106683445732922,0.00025610170230174996,0.000007214775933734791,0.025602318422983862,0.00002233651671488439,0.0034643957411635185,0.00000424865776639376,0.0006167924485506891,0.003692234840401895,0.0012117177749803836,0.0025171305481536408,0.00002196323293694508,0.002117954343040776,0.002621248114604027,0.06273315344412081,0.013171182682297196,0.003861070049344684,0.000019747687759238397,0.000899206850045435,0.000023674165784917387,0.000007232110240709342,0.003433211957608871,2.8321601897140573e-7,0.0038145312987234964,0.0001616475593387913,0.00003373873676154167,0.0000264885503180498,0.0006125853007868708,0.02089259798146755,4.884054573879167e-7,0.000026962853969752992,0.011024654951830875,0.000037338489504144034,0.01126610626732004,0.00017510483149887305,0.00005363928576497053,0.0009060266402730118,0.011100704380962122,0.00019418183464524295,0.00020891652475349707,0.00005045626940344649,0.0025885917149780805,0.0009511920538396056,0.12679374963356696,0.00009006994067569665,1],"InputLayer":[0,0,0,0,0,0,0,0,0,0,0,0,0,0,0,0,0,1,0,0,0,0,0,0,0,0,0,0,0,0,0,0,0,0,0,0,0,0,0,0,0,0,0,0,0,0,0,0,0,0,0,0,0,0,0,0,0,0,0,0,0,0,0,0,0,0,0,0,0,0,1],"OutputLayer":[0.0034326150301517803,0.020905904481412566,-0.003123573665113296,-0.0026581367363480574,-0.010322480151180013,-0.00042658669420388845,-0.004418600163893579,-0.004746303794199425,0.0005130227146249359,1.013559129977354,-0.012194731624471614,0.0020780184296367715,0.008123622089786373,-0.02009709813809279,-0.018116303184545983,0.01437476871153625,0.011299401509863125,-0.005148923054325367,0.011292910512471277,0.008440905026242286,-0.024188600959381835],"WeightHidden":[[-0.03155408944854634,0.5273870301411576,-0.569233062236362,0.20175928662737186,-0.2636327369730626,0.03220761710954925,0.5479834489897083,-0.29126071172887946,2.1991739358479627,0.0642669341012194,0.06360222842506218,0.2291090580592444,-0.5021270280510832,0.5091293667056556,0.12040327872514367,-0.43699546972543407,0.24401761409992948,-0.135283511117213,0.3688673212449079,-0.4211781258488505,-0.9320849271211329,0.414316406495991,0.7426611511206852,-0.46158495561519813,0.2214812747435817,-0.879683446755319,-0.17264234848120757,1.853816209202217,-0.40359778989766193,-1.0018930705336373,0.6723513750400061,0.33017688515470006,0.5956096953076647,-0.9809430489905332,-0.21985200045241238,0.49440382594436316,-1.1702620298781377,0.19020713076254958,2.167040235447484,-0.08017355197613571,-0.33555541355372137,0.7470542496534581,0.24145118998776127,0.8807826476136769,-3.3847676038138963,-1.0515747130719935,0.3488808567680145,-0.8318237730329712,0.7355720817363663,1.2141129051556625,0.010390398756238982,0.4725387558600439,0.7846939312201089,0.6398361811639967,0.6179732449263488,0.07397930178107308,-0.40046479913708966,-0.3400277948485986,-0.7678704721854137,-0.10765818576384588,-0.5842128711772586,-1.3978216402726693,-0.9060954979312575,0.24855547564245342,0.7308813023200976,0.2157677037114678,-0.4591086252507287,0.047669166881315984,0.43865879391719037,-0.3327658906447579,-5.022324198535819],[-0.532184393073377,0.28012512303835374,0.36318325328271445,0.872062198645156,-0.993676650547532,-0.48795819730745926,0.4553044195938524,-0.039690218827125735,-0.5212655807607097,0.26676446527068043,0.5734844145437277,0.26855893176142037,-0.41795635047147633,0.18503201998867996,0.2809201745598169,-0.6174745633975074,0.47982136894742383,0.7622698212234905,-0.5780048921217117,-0.756773797220103,0.04877347141586733,0.26760602310911935,0.5708677424751735,0.030797920743306593,0.7010178065057354,-0.9644788268052833,0.3298702476827594,0.31440232464752144,0.10090443410850906,-0.7721973793527384,0.15077827881145386,0.6719685650058281,0.45348577398391676,0.5567090978383056,0.31491227650639514,0.442971938370251,-1.1797081360821602,0.8228665290609978,0.28007481694619873,-0.18855933523451238,-1.3558745844914684,0.8187939569425486,0.13420715730665694,-0.8492527891159934,-5.1315634309246025,-0.6550102621142427,-0.6141634249553365,0.33640884826803386,-1.3327958964167,0.8241191348343518,-0.4910775734600537,-0.24450132929851084,0.43636191285101295,0.424948295137773,-0.5061656494238719,-0.2503808984396352,-0.3483409324418566,0.01323061247692933,0.7285675494456207,-1.4283056487571266,0.41090546610951384,0.6042777962944801,0.3847976961112596,-0.2129271816575775,-0.5725668938255327,-0.3893747433117408,-0.16668827145861984,0.5946448491288819,-1.0897157209510329,0.6671273868636123,-6.711290547858372],[0.8371710686521247,0.2056507288904489,0.5936224686516124,-0.6574430280367863,0.6116656317218776,0.19260672064181789,0.26143723184884726,-0.32831122970557397,0.12072155428660872,0.3062745497561563,0.9898008200890174,-0.8172724049184037,-0.6196632550436368,0.3532638489944704,-0.11789302438451427,-0.35199320578003124,-0.13783417387976765,-0.9629799591741698,-0.2852046658960228,-0.01221029933556169,-0.038278170161497795,0.3010978030897717,-0.011534298313336275,0.5313072215732867,0.6791279995948035,-0.7941794802594202,0.5536872627939329,-0.4877958545598337,0.06927031219388234,-0.3906850141896744,-0.1573294837077404,-0.3787759800742027,-0.21005047995049464,-0.8079252623923445,-1.0721718724790161,0.14858823166157611,-0.2839516336419046,0.11924524970936594,0.9342107305194336,-0.8171501329327644,-0.18632478678086128,0.5903378957879382,-0.7483927440283199,-0.12438749471207251,-8.547756138947722,0.6599934067910611,-0.3813694758838611,0.8509592708747167,-0.8025602376204565,-0.9761104293528406,0.2614053054188032,0.575447200316838,-0.2552686706904962,0.8676676422193169,0.026887844245164723,-0.23156111215494185,-0.007686540684460571,0.5977736418189916,-0.6690865599958071,0.3754532727581962,0.3268266584851828,0.08232750407806078,0.07001430526001173,-0.43544970377176306,0.5052122305340608,-0.9676127801183317,-0.20223610146220017,-0.4484399184530312,-0.0896055261542989,0.6720783752434603,-9.515629952084165],[-0.7680568375425137,-0.45051190784987644,-0.16755311354466976,-0.4566924983165532,-0.7608744547117221,-0.7335158360761229,0.5275367323419285,-0.44497666070321223,-0.6980449324357584,-0.09307125927453976,0.7210087804083438,0.0457621127292404,0.08911827742519897,-0.14714276438660728,-0.858510142794807,-0.6437669865756636,0.49751476953614254,-0.34473849151291547,-0.1546179999393703,-0.9213024122087458,0.10206804617307191,0.6209202028212291,-0.15716214639753842,0.3167384724476277,0.5732356485300312,-0.3855127911810039,-0.5278202896797687,-0.5002302120574409,-0.9939255933936116,0.25870417627196945,0.20847984261757896,-0.7241858709899163,-0.5464364237322293,0.12703567806561233,0.46312153843647524,0.7018647499715004,-0.973263017872622,-0.13931346761429345,0.43032525745226247,-0.43963116478332487,-0.0694867095662063,0.3840225209372187,0.517260019845894,-0.5379343993479635,-4.555632423857708,0.581667187829955,-0.46547255536996884,0.9620916453577211,-0.4456243554806801,0.9311838706376713,-0.8358344692086117,0.05023844350605038,0.7387167478510689,-0.48143677142801405,-0.7232611982760293,-0.19570744932935638,0.7953031553414578,0.17543479702894244,-0.1806628172739887,-1.0222826949383204,-0.19529874511437817,-0.2842332864581729,0.6987231390054929,-0.4284138730354385,0.33955531369033626,-0.8695277952997437,-0.6385895545095599,-0.5638962876097181,-0.8831731396298318,-0.8329529390181494,-6.59323345419819],[-0.9703739732325137,0.2640277313097283,0.8985537841683432,-0.24202626251560275,-0.8592275368430301,0.2621304957162849,-0.2525314197429762,0.013584499457803483,0.04472022369719965,-0.46639415504736187,0.9821112763344085,0.5986811754817246,-0.6243320384273825,0.7875185964525041,-0.9909675445792661,0.588556838459324,-0.4209139757352149,-0.09193070438066316,0.9116734468791667,0.0864121283187065,0.8970532737680057,-0.9532640840294192,-0.8285713854507826,0.9356272665506251,-0.5887202773405815,-0.3832214423179207,-0.18842603451337786,-0.24155451189828667,-0.421780451377038,0.9520137260678673,0.24847753827609137,-0.5849907646308682,0.3998501992821196,0.8941993320976717,-1.1662096983334858,0.5141793177717159,-0.8314863755732533,0.5163551417472617,0.3419175989634361,0.2939771421055127,0.7694118600027049,-0.6048981390764394,-0.7867602119525542,-0.3626048506595204,-8.538152282004017,0.48167996099819593,-0.22381431973461816,0.19448431416164333,0.319580388666995,0.2707547864853653,0.46626610447308847,0.07208093235021025,-0.6297054104788191,-0.9949967047924316,0.43916609795532674,0.393082191043679,-0.00010125850862525323,-0.07953226717472366,-0.6724964592779576,-0.246643510909799,0.37482112410507057,0.713560882030394,0.22800117773871453,-0.4468627956137421,-0.06129580199180906,0.9800293474106552,-0.7854372442870996,0.40552674123547877,-0.27424058419806935,-0.35204178873610714,-9.241875324414442],[0.42100675136979576,-0.5498177756640655,-0.10891910183489603,-0.7009745350755873,-0.3468801244607934,-0.25807783036122006,0.25519814212797465,0.6132302895866188,-0.5564383489283896,0.12750395285568794,-0.48812327048449317,0.1426748602998625,-0.026391290244176156,-0.9115785835004477,-0.1182098244784632,-0.9600929980800028,0.4512443485439355,-0.7866862197120754,-0.7190294000809544,0.6236409477732774,-0.91551905684044,-0.017574725500130395,-0.738023406810883,0.2026840843476948,-0.2992097081665046,0.5035063090715844,0.05874179867513939,0.24979859294099266,-0.6362957385923342,0.06379731261152527,0.302026515773106,0.15848222015920194,0.006932721561127815,-0.7516351136587057,-0.39323900358890457,0.23471935940237051,0.26132656227348966,-0.5710490314310069,0.47077290712331393,0.9533810597263783,0.16845399441181227,-0.3626054914125064,0.7688275041259169,0.7342211660311485,-13.097206114914728,0.5049218529561647,0.4751001651794784,-0.5305040376899554,0.7543007460069471,-0.7569155017469592,-0.26999952732150656,0.7604073962360366,0.8350717851681473,0.9960654333738511,0.9314457460682781,-0.5121602483856904,0.7308440294849805,-0.6400860640720503,0.738209987657554,1.0513972581368773,-0.4530670047023968,-0.7024230939958188,-0.5844027100861958,-0.2228424784258937,-0.4186269546481553,-0.48416704316842984,-0.9121267145431509,-0.3291162327643647,0.9024988209619601,0.6982435909314274,-13.512325192644495],[-0.09462158678859109,0.20164890609827227,-0.33756790710010165,0.2730129072776439,0.40394843280113385,0.7931074181420292,0.22334712560249514,0.4231794064176784,-0.19318066005289344,-0.10794967005666914,-0.7167152080661644,-0.7690995405832782,-0.27962977323257004,0.8870526534371163,0.153121451071563,0.8628343921998994,-0.19364836848419564,-0.0659239484303496,-1.6399167757413051,0.46637121175493884,0.30010213712648953,1.025018253273727,-0.2393924913689513,-0.6283625823682353,0.03368726787129904,0.655765587487876,0.10281007708770841,-0.1519247798458449,0.9313464477067026,1.0602079391775179,-0.036443983115685724,0.7697006458841018,-0.5639486877412205,0.3529751756957179,-0.6062391634326079,0.4137057867371488,-1.9475080462714989,-0.2341403469735205,-0.41845469230690113,-0.06560965929267627,-2.7340195970217462,0.5609992276939059,0.2331304093724151,-0.23617687134665957,-5.11809260461808,-0.9618452730099466,-0.7050205035662597,-0.5983615299255735,-0.07875750398002383,0.6415946167910328,-0.7640332301802425,-0.7456116010852104,-0.6765332879469809,-0.5274856045010582,-0.8273505442615164,0.18554933671282606,-0.37566236443773215,0.4671044050938846,-0.7040989852472913,-0.306147033254949,0.49578516902441067,-1.2698940114393564,1.1179706710511965,0.931179534961128,-0.18130430656911548,-0.11244079946098383,-0.40576960360127845,0.9044494695097464,0.22207310100419836,-0.020016524393986865,-6.725376499463963],[0.5250096216287942,0.22860395638550332,0.021712537754302045,-0.8261310832064426,0.2729111826319103,0.6850887539718508,-0.04092627647096594,-0.6481413688158352,-0.7387775835498509,0.9056060426405613,-0.10557131472090744,0.3329821359759895,0.6124684925908435,-0.3775157785088961,-0.045302707434157215,-0.5553277997493579,-0.004253653882615592,0.07225369831585378,-0.0042853591561562805,0.49777675177563585,-0.29080302484347414,-0.9010698965349483,0.6645588582407161,-0.5378654000142482,0.760532622870285,0.8169625668282472,0.4536724216410626,0.7136576410829077,-0.8327396159345937,0.1411419003387027,-0.46129145764232043,-0.8898179445166055,-0.20017098808899728,0.6247433984003481,-0.18666711966720334,0.4992121446909464,-0.470706113436178,0.07083506091558434,-0.7192171679627473,-0.3974705170065468,0.2996226726612403,0.33559630847028715,0.07634366249651786,0.9074905234138939,-9.162307896416523,-0.8764441928341461,-0.08073093142332657,-0.5432356116261,0.6663229364218096,0.017952114307750802,-0.44195058659640873,-0.214463158198588,-0.0647978374035227,0.47113139921211067,-0.33046088493749576,-0.415534419771865,0.28739958036756186,0.3120336008174,-0.43699628445719946,-0.6002095552597104,0.40151681552023355,-0.4013153189937921,0.5326425896471463,-0.00916896673505297,0.37057050392315277,0.2665943080470648,-0.3200542039113487,-0.5397108516967172,0.49700024849224544,0.37285519862614336,-8.958442406711137],[-0.5770978665243242,-0.8165784014214754,0.7314747089652283,-0.18507408629529412,0.414019967219967,0.4720167045785267,-0.2256776980644466,0.5275141220347817,-0.5743453823174992,0.9892363955796187,0.29844958357923107,0.7380740997495672,-0.772443671381282,-0.4426322128406829,0.6045325659410042,-0.43413785903387747,-0.36923575675805714,0.5693607605699876,0.7722540231146975,0.4168900274522722,-0.8008839603217377,-0.7597384137930097,-0.49756656497658364,0.18311091288878564,0.5339464058145298,0.17941037719900751,0.1285953601280298,0.889520401248141,-0.8493887466592444,0.31565995434747024,0.8088045252198153,0.2525754812802915,0.16310932283258356,0.7366461084707236,0.11893477002392633,0.8904851201438085,0.6453332103233157,-0.8036295844075002,0.894274446214767,-0.054216532201791644,-0.4589880841850617,0.07609084404857819,0.8116183903555688,-0.6293665996830277,-13.257149287292709,-0.39656133583686365,0.6918759371726905,-0.7109290321360646,0.9313397269583036,-0.6764353269245835,0.2252902036273459,-0.7043894984779842,-0.7179944066037859,-0.8375110376884173,-0.059153036631890615,0.5237342330797138,-0.8401506304806603,-0.6089713491293547,0.26833467751794204,-0.09673924674791474,0.40043482085381327,-0.8096083055684735,0.4299392435962292,0.8568199039254916,-0.1933305995652409,0.5464812018456282,0.12738506829531884,-0.751063129993208,-0.19585928539540118,-0.15596891508642435,-12.073929766563685],[0.06260487569167321,0.024436671370694326,-0.052900237996623876,-0.8297995601803746,-0.8253236220242073,-0.1150733228437486,-0.8941060191105105,0.17683639585258706,-0.41090948102659736,0.8094743547574953,-0.7967851397481597,-0.8669546829105201,0.9284548984030359,0.13190267112045884,-0.10047240630871489,0.21849282526483907,0.06278853105126991,0.3405080123897251,-0.007547565088946411,-0.04644076834319669,0.712151265592832,-0.6051683525501932,0.8664627667888339,-0.5848592939451361,0.8113355435802245,0.9211151401903771,-0.34321927077361886,-0.8713447358823274,-0.7776869287331964,0.4774881022858794,-0.15884295885504784,0.2611996393943162,0.566030397816841,-0.7012855228175587,-1.0547227478918018,-0.5222313254937514,-0.5962717651838132,-0.45477624815053475,-0.6576107775671964,0.1702640695756697,0.593723644407897,0.18515752272087133,0.9029756308374404,0.9407605700644546,-11.152160175694062,0.2280231746468226,0.1809191942644673,-0.7166908686482076,0.11304215498004744,-0.9492027305204538,0.5821847339115395,-0.008986652801978471,0.9695610142578193,0.8432443282303483,-0.1074096766530976,0.55566767871967,-0.7418362397813982,-0.41157952948749305,-0.9104573221432427,0.57042484754543,-0.2027353345503197,0.36733537840940544,0.6312489979405155,0.09467360231412196,0.25941265879240033,0.0013409132718851242,-0.13871561639919447,-0.4263123678370549,-0.02791819803703193,-0.9205878845640112,-10.251312660384981],[0.4518993733184181,-0.7465687729997594,0.8936651907388509,-0.07837825572990208,-0.8790309106579179,-0.1216973790007526,-0.7046350543211815,-0.7221689185301409,0.37519857402427426,0.2523803740053268,-0.15882229900779748,0.025459149081829575,0.38612460354851214,0.08562947959415289,-0.9424236438237907,-0.5478719806902242,0.18305963209062792,0.9129197666320844,-2.820586651532193,0.6969438041509235,-0.021977426975279157,0.47075952722829756,-1.0167248416495116,0.1166921437918111,-0.6931612054377548,-0.7032690224741611,-0.38034796346728733,-0.04176755199659248,-0.279565946717817,-0.8063126885695073,0.05125518155106238,0.5879646470422257,0.2451589410387594,-0.13606593333073005,0.312160330680259,1.3668021196999396,-2.8065436288870096,-0.4746953193768393,0.1242317857698494,-0.88245049143703,-1.8056598922442761,0.7163708934276046,-0.03534228881989672,0.7762882419825718,-3.6954086344981003,0.27462920510030564,-0.8472311035538445,0.41738146973778517,-0.9575411806349349,0.47840476196045684,0.7580097013216092,-0.8532082748266271,0.19461178874070684,0.4037533948133065,0.5453818056247072,0.5651838833026225,-1.0069652359550783,-0.13833025922576248,0.6783651052455318,-1.568729259751798,-0.01949104921773019,-3.052592512203474,-0.44149365547709646,0.8448247446578461,0.0626003105442775,0.24203736424130687,0.34966292053900117,0.003624624544672383,-0.7382211169911651,-0.2369863907184559,-6.111048846198758],[-0.8138332209411518,0.79860123877461,-0.14896663374833746,-0.8256800815060823,-1.3849498826267694,-0.853308612784419,0.030863866760393918,0.183334414387589,0.12022898327675578,-0.7320213596512928,-0.5051502454712833,-0.44396031359101396,-0.8961069340509358,2.916814927231228,-1.264831411261746,0.39341294151021755,-0.7061904085682141,-0.8046716045781638,-3.0906090927326995,-0.8905134440153002,0.17224685663483752,-0.3601617001890786,-0.4543786839099695,0.5318921413149819,-0.5128855086486213,-0.8654871418212552,0.45022787718320434,-0.9562171118995265,0.7017223197068609,0.4322600090818286,-0.6187787870301223,0.6398505221560201,0.4759933988128062,0.48213575844814305,-1.1123093207765147,0.0679370375747431,-2.1740653655169164,0.2476382079681468,-0.39069445390591834,-0.1743178571673918,-2.076476308504238,-0.3659568761588805,-0.8960024434575007,-0.07490960383170259,-3.7574250965169593,0.43985399463506736,0.8377074447672579,-0.2379205742277795,-0.5646416239173666,-0.013892543251832217,0.7236391537747727,-0.38453659450316124,0.7868240905170779,0.5273754316185814,0.6768723916149121,-0.4010417293164093,0.06925495183325264,-0.46584023754916265,0.3412636728368463,-1.030695798323912,-1.4754301345811398,-2.3597173235682654,0.03625165079959893,-0.5431113360353661,-0.9420102297023649,0.9934895905109294,0.3537504180361511,0.8910853434164205,1.0410656935416365,0.14519937093243196,-5.728726440208378],[-0.6779366684706344,-0.22779807094369992,0.8097173733402032,0.9432819581669444,-0.6393598140237399,0.3254131328061991,0.08170737618460609,0.006548306743277206,-0.5243669423992697,0.19600011137876458,1.1114195566559937,-0.20551632255322097,-0.14642931070597823,-0.492326143609056,2.493927229913867,0.17866854490459314,-0.44171133663821593,-0.5359479918737945,-0.8381405561641984,-0.25677720394608866,0.12385966563448786,0.37382999151171387,-0.8748166168776245,0.21356736740653823,0.406861162571097,0.22507290278167835,0.27658975164204824,-0.8357833942435229,0.4437839336849407,-0.008723843937023608,0.2550407107893007,-0.5400741813778919,0.287393034614056,-0.3120255265354761,-0.8988364581240921,-0.7980641945103855,-1.868404903051523,-0.8710956529297919,0.0435666277776008,0.3039842326061526,-0.7888695881220374,-0.5765473331598177,0.62387729548274,0.027736191193313015,-2.5206241274049566,0.406739787540633,0.21459476179284842,0.0033393632535946897,-0.5182015421815099,0.34130078656991486,0.9973181332211155,0.5908447565607153,0.6044134087809591,-0.1112575732403431,0.44578626213919076,0.22727014360032483,0.1991465093750689,-0.2520194421442362,0.39026145946023194,0.30340450814022457,-0.15613236962085272,-0.374533471920518,-0.4072823353068216,-0.5569591360180184,0.19194851886934175,0.9932364564127625,0.18857059344970234,1.086220964279326,0.028087774413699206,-0.15960766989331143,-3.92066098177534],[0.5999947047643432,0.5369156376355672,0.4164764467235595,-0.5348653901737342,0.43115544042307774,-0.3903945058292085,-0.38331792466385456,-0.7058114452909253,-0.28820513498140654,-0.9148250411773501,-0.3639598110162303,-0.5915004273848238,0.8704577701427478,0.2581238144541691,-0.2877737116878346,0.8439886876787147,0.8420462293714744,0.6290547526247446,-0.5090976816498867,0.914877559384698,0.6421016810393549,0.4786513522104911,0.4806120568084515,0.7259054561027531,0.5334739617079821,0.3128870127672388,-0.13436170013226664,0.4685182375399718,-0.42204548783333007,0.3278761038305827,-0.5862225203515993,-0.559553101926528,-0.1266712644931552,-0.09410978228127595,0.24171853743431734,-0.4746190902566432,-0.41936254923451954,-0.9639349828014472,-0.13043576365743145,0.021156406112025856,0.01375478029363844,-0.18647140483102428,-0.8248713011853326,0.5591356243490918,-7.561591252364168,0.4609973078809455,-0.7822685450571654,-0.4603539007609574,-0.20363669688389074,0.2911642194470323,-0.492669516565663,-0.38906412059062895,0.16534343982202898,-0.8462028628257343,0.06561954287925348,-0.68115878747468,-0.20029536717343324,0.263518438968373,0.6626202572323341,-1.291781670929443,-0.5371657433166586,-0.6927786088411229,0.2050258804765357,0.6848308170958062,0.591308886368766,0.9857761576968735,0.5672536617112338,-0.3856764434557726,-0.48724775537731324,-0.44802914653423326,-6.575458330128642],[-0.9667018368949801,0.6812914231553058,-0.9748461083997623,0.3108238139349963,0.7228710131168099,0.6267758286385868,0.2279196334288713,-0.6118983013646373,-0.1224190437412064,-0.9783366744153839,0.6533408765685949,0.7466981368584445,-0.8844853182909501,0.8312793387276437,0.7878589310054323,0.1007209115372042,-0.33786891023801285,-0.013162776635977673,-0.054159963858493,-0.19878053977459215,0.829907338466665,0.24230001019720265,-0.09601720622130035,0.7939838031054565,0.6569039067688216,-0.19087652378361733,-0.7577560323733753,0.13738226223079394,-0.3168789797359889,0.7476762926389546,-0.6630969139673792,0.741210003544051,-0.6423197082623371,-0.1337115413635185,1.3091514679417287,-0.16757366061629228,0.32026496573827273,0.7342402576374716,-0.7303346331689322,-0.2153644726143869,0.5973536280936685,-0.9957923104087886,0.1250431928958372,-0.21438824876619084,-12.5683088052792,0.477731078001312,-0.7159200054920822,-0.2190321016354108,0.3559248638343361,0.07729867845615566,-0.48004971289967924,0.2508692737447703,0.8248787741708147,-0.3386621147386423,0.15444069241355382,-0.46715829791205926,-0.7124782551336829,-0.7767737169693346,-0.7550926785197593,0.25124813494313203,0.9175750618632657,-0.28219394284535526,0.20810557394341903,0.12600041114297494,0.7199466615618472,0.24309684277925755,0.8909686173229915,0.05108906884239536,-0.15467774031896142,0.24389688410277588,-13.581159616527573],[-0.001954847048681322,0.5792422651031645,0.7395243194062978,-0.996483564836259,-0.6312717940573683,0.0753412679253231,-0.1808571443909026,0.4045502256835261,-0.636437183489126,-0.47099409301196654,0.9314121892474966,0.4316770640924244,0.9712858082249924,-0.41370732888851675,-0.6919515989475649,0.8500159346599673,-0.1232425593721177,0.5782618550547947,0.5563091038285696,-0.3408479075860437,0.9663039908257706,-0.9421924618173699,0.6705289132545474,-0.9137035487747672,-0.8990048642904999,-0.1278044295567331,0.6589164792953366,0.32813902282294094,-0.6243883087315326,0.2121775096410823,0.5210197635949225,-0.9455536622233005,0.8437663680188158,0.7259149414911489,1.3512735724075255,0.8321513969876999,-0.7921886373077179,-0.5471202851275389,-0.8585352729955444,0.22182845451629896,0.8944116224887998,-0.15296353352840666,0.7170787917607266,-0.10699496092602813,-11.29499332003951,0.9423836112183291,-0.11384326784604704,0.7265160211743193,0.21498564741149465,-0.0164397945543599,-0.4136244988191262,-0.44339885879782037,0.08070021427123086,0.004931472897626236,-0.6156184917266215,-0.6670370876679969,-0.3890595389319101,-0.10911222581470612,-0.3091496441387739,-0.35720199681110054,-0.7135570763466166,0.22824904361744824,-0.58204146272292,0.15392263102812714,-0.41718066155608374,-0.06909108028418663,-0.23035342158810204,-0.4667516906834666,0.6813050218700968,-0.8320449611437135,-9.751767350892582],[0.7762288533222542,-0.7666955243928768,-0.9644303159639499,0.3559721898070452,0.6412396380100582,0.4739304256574772,-0.5786128722478011,-0.8831307303829949,-0.8390029033393707,-0.6133724041328482,-0.2194590547701361,0.9290590785391564,0.3864448969867608,0.8466743612767503,0.8089633721919439,0.474218352882534,0.6980937954946582,-0.1511169002892903,-0.956376944742859,0.7854845398293282,0.33682000551510427,0.19379607153980963,0.20329039524725223,0.6317598183921239,0.4581730963030039,0.7971330757434412,-0.3498794329751565,0.2156868598777039,-0.3266641345672293,-0.8328914219151508,0.7353384877453653,0.9276543388184285,-0.5568249634358725,-0.9573130348075853,0.6071399524391331,0.847537830147772,0.8231640064672777,-0.20457963852774652,0.17421690963888653,-0.7770637532206383,0.9975430837839031,0.36916478114083157,0.6354680024101538,-0.4505855988363306,-11.718988385442389,0.9229822825529294,-0.7312600983015729,-0.6292276074144001,0.4498237096443367,-0.5930194626969935,-0.06211108995355418,0.08157762701559633,0.15539852985306646,-0.6060697764667266,-0.7505601089362697,0.5090524758006276,0.319108035512574,-0.6936559807298307,-0.5285537908346555,-0.193592473633972,0.7593021182552099,-0.6679433847269726,-0.41226876563502546,0.9714821813015255,-0.4317690348480329,0.7190259180145759,-0.42266048982143584,-0.5418773858159727,-0.9537336692472482,0.9250989487046922,-11.036050509029545],[0.6143452596436403,0.7549371870122654,-0.6148936840954572,-0.5817025360704027,0.6262750727448532,-0.9115237838334306,0.327534589195903,0.8957640659721092,-0.5506787351219303,-0.23171238905144104,0.43047459564888685,-0.905405982685525,-0.9708046510710464,-0.9039510322296926,0.0157921933131776,0.13444545478924325,0.3593053132392326,-0.1785643649718031,-2.44651629764957,-0.3087498359958575,-0.2256876259258011,-0.03546588153995079,0.872072690921375,-0.000952627433828724,-0.2834745145152917,0.3225550949128071,0.29701213907450175,0.6658226434585788,-0.5894843881977675,0.47048452826777504,-0.7025197088209953,-0.9879853860032379,-0.6442052547178544,0.7984488647825595,-1.3425782102514279,-0.40596748327168386,-1.635500287045577,0.7396119770578403,-0.10098418978333056,0.6978045444463419,-1.3429573961842505,-0.8760078237735278,-0.6375786682483162,0.15522743182761103,-3.2570075257688624,0.008382873455780508,-0.5791812715151474,-0.7101656230640327,-0.1386689380219053,-0.26884049637932433,-0.09959729819040158,0.0382427401925851,-0.19481932753965622,-0.5140885215467438,0.18268563831718648,-0.38480505606307636,1.1023921463125042,0.532416409175297,0.44641485248729695,-0.49335619516430107,-0.48990811645301624,-1.4524941884553098,-0.6788585076483442,0.11523724499878889,0.6415842571179382,-0.7156337587090754,0.5080513355313013,-0.3724842042044108,-0.5365659324028419,-0.14963851415224114,-5.875038399209321],[0.3106237218182052,-0.5851958320114515,-0.9469584761926498,-0.7350674321342711,0.49617157364403697,0.20726683297385712,0.3298455945065746,-0.8836598926557824,-0.6133755094317374,0.019405529379763805,0.14901151499774318,-0.15568049168973774,-0.20692481262578755,-0.10766598756314825,0.9926411217854805,-0.4739782283369017,-0.4727948864136788,-0.2630759802678666,-18.605766905669903,0.3274764953777733,0.7137476499735331,-0.7680461541920645,0.7589005719478302,0.5301503183568587,0.0909339716780229,0.9136874983017405,0.8246969653963201,-0.832999211188813,0.5819468413709434,-0.031412330581831654,0.6369078146919597,-0.7799629444328682,-0.9162002274314308,-0.7490951170961725,-0.34641118309168123,-0.1450843890842958,-18.17780309187307,0.10069430448148513,0.02917903674518366,-0.9298690661902823,-18.213986185627626,0.7441754791835901,0.6339305660559797,0.25778074841124665,-5.237690285192849,-0.4115728689244971,-0.4990054961471955,0.7463036531436158,-0.5245382998970464,-0.2707205628388161,0.7434476724173703,-0.3589414246442673,-0.3926991248319481,0.7961565638820016,0.7046220119961757,0.08901182291016084,-0.19283955035791348,0.2802150452527805,-0.04686605936188926,0.9339246591935458,-0.1177300078842074,-18.345895080675135,-0.2222340899474276,-0.665521969810846,-0.34200352320647237,0.702106895193334,0.7908157139844312,-0.8540418033344924,-0.4192273326154207,0.5703072059833233,-23.687713255175428],[0.07730343573566013,-0.6559071926234009,0.08722026441054999,-0.3532880505355944,-1.0887569764558251,0.3176751290941164,-0.7416438244566858,0.6159392411366891,-0.8690723755387887,1.024010607659891,0.5576369581931259,0.13573673735056072,-1.2774000196372428,0.19068178063924354,-0.628175101582033,0.6584444326237837,0.6130778387482119,1.7164634094903706,-2.630022637086695,0.5123891284386934,0.6902758902573017,1.634480635958143,1.0245176776217464,1.6836839420942984,-0.5203572020939444,-0.5658388212998017,-0.3419660388532134,-0.932493402210814,-0.5349833798156675,-0.5965292982875305,0.006562528462320879,0.2866263861480892,-0.6435599298426432,-2.1082914043187433,0.10959543211307242,-1.5324751211482905,-3.1778848144819216,-0.08513783239138452,-0.41552668084399796,-0.10500565744780964,-3.383908881069533,1.5065802280761202,0.5821288097631017,-0.13870957042937063,-1.3268693758836543,-0.5749600805151807,0.018463015723798073,0.21930262646173787,-0.7427434428227558,-0.3356577518351062,0.873739686915582,-0.4487172320406146,-0.38282380353850237,-0.2676734854163656,-0.8446953805578322,0.2783311509084316,-0.13068590831751703,-0.8449832997203692,-0.049875097542622426,-1.1614172526014834,-1.093938341124775,-2.683752100407478,0.6387634462366711,0.051336330755628316,-0.08397684990469025,-0.18934408584391058,-0.33668892238965337,-0.4039441399457215,-0.76143030792966,-0.11920258805173477,-2.5831357226864204],[0.42085304606468477,-0.10653600071110499,-0.22702449731778693,0.18451011394246883,-0.15294592915914648,0.06627437592950661,0.4545736753663521,-0.17851128930008933,0.249824411394504,0.10143362396637993,0.30352732914463704,-0.8841967044418466,-0.5244002573931023,-0.26668594977509225,0.6466535318724618,0.5723919853016168,-0.3140932798301637,0.7437641572311904,0.8217622335634553,-0.6338140979703317,0.7765843789965783,0.9576083733265853,0.637114405134714,-0.7816060994096884,-0.14905845899012485,-0.6532948886978279,-0.7302840274987962,-0.8757304131084481,-0.679315575330103,0.19425703106466521,-0.7189451646115056,-0.9083153528331903,-0.38191025385877564,0.0849799841376876,-0.04047187597309329,0.731406085130011,-0.7423272057937623,-0.36866086272805576,-0.9998356629820702,0.09510744806696175,-0.39349905061763196,0.08861528963600931,0.7683436896916337,0.0039628408718639305,-9.110747701208078,-0.7468500871280082,-0.32726856015834255,-0.05366917112726055,-0.8443098720998068,0.49822060381359945,0.24183970337558613,0.19663217944432074,0.14227904711191508,-0.583179162692251,-0.16713057753633848,-0.03632748548082856,-0.44132855309812347,0.46490047806601925,-0.20665419498177504,-0.5030132216740494,0.3079283238912459,0.5966927336734026,-0.6985197065157308,-0.6912783751706225,-0.6117680259870386,0.10168423482554928,0.29951380220092794,0.7089536699614325,0.862619171356405,0.752179779395855,-8.612890258314753],[0.827888801700394,-0.4454900767631935,0.11868652945289843,0.1577070840024968,0.6456818439866133,0.5476458912434431,0.6035979752868104,0.7807213712537155,-0.7353253367341455,-0.06605625330343044,0.9664480887708232,-0.013798827761515383,0.7675914742924922,0.6163703341036426,-0.20415594595133751,0.6193643825305748,0.19544620799799697,0.7890780962449806,0.41810558866546804,-0.9020854681034808,0.6543301419066122,0.15612321864205744,-0.036359168480155524,-0.6428077468283437,0.6181169250243636,-0.9201104224072001,0.8113150403886235,-0.6363947626432671,-0.3097982123048465,-0.19521994173535176,-0.017476011667569333,-0.03810382815277209,-0.9939893837357608,-0.1313255609678384,0.3154892134485106,-0.8126999677383263,-0.19052511829100133,-0.10231801885766667,0.3491667524323248,-0.6112711196960517,-0.14356753790072047,-0.7925932877865697,-0.05966844136854081,-0.42330187602480723,-8.947490929491174,-0.34903536520127815,0.8379099074601825,-0.7644754786873549,0.3382720587948887,0.04132840809974887,-0.9413413157983179,-0.6038134962337068,-0.5921842125701074,-0.6582288640553253,-0.856270342522202,0.2352979087166531,-0.8979008396574384,0.28378083174536245,-0.22561021830530573,-0.8804247050624142,-0.12172761574832376,-0.8763346765489309,0.6484785907898147,0.7362165510341622,-0.17615858757602781,-0.9204847429862317,-0.12859050746040912,-0.3329855252005124,0.671747791746489,0.43332675749834026,-8.632251136853661],[0.0631930731660673,0.976261752761155,-0.8151930148285947,-0.048673902040690685,0.3307167246634645,0.30837376659339655,0.03197607866096925,-0.19509303414259443,-0.13987958496865718,0.4860802343186922,-0.5521957452279209,-0.1676590808944389,1.4859365112510592,-0.1439096414912857,-1.102392085619465,-0.46333699111616716,0.011677138650350532,-0.4305721671256995,-1.1943932855550619,-0.6582792252670743,0.11637073545182121,-0.44929039934049575,0.511379284773951,-0.43323076507961084,0.2904865253237334,0.2896593960383131,0.44009886431198175,-0.46270946094463183,0.34771819908452156,-0.37124929653652416,-1.093369699802824,0.3175859776310114,-0.3290892795749785,0.7488962699807683,-1.7656758445579745,1.3369642725261908,-2.3687285379420935,-0.3016129834162581,-0.6761487529079232,0.1625157686919518,-2.35789879020995,-0.4565020718605768,0.6939085595943402,0.3627544855860498,-2.40731636294997,-1.0606367419011955,0.2303690217261462,0.4502468899296011,-0.26180850628132846,-0.37259845317537127,0.29643905316541563,0.4423679036699531,-0.7421615244350401,-0.5439623617751953,-0.3651310665738462,-0.08460549375798428,-0.4814681533970847,-0.43954236460602525,-1.0896377055700102,0.8064068533299714,0.7126371816457964,-0.8236844909731306,0.17616360718823915,0.7173632332857901,-0.13138722436267622,0.45724335033744445,-0.63575189954083,-0.2605893369933056,0.7644927958534786,-0.22315612715596295,-3.0144522641236247],[0.9068278091832618,0.07699418644383771,0.14348353581176984,1.5011593393288762,-0.41373180759542383,0.14797085304619423,-0.7832303755891707,0.13931261698780414,0.3822892956618946,0.010620556419290241,0.02362086981404824,-1.1396126773658515,-0.39176133825685344,0.30141252634855337,0.16122094028642206,0.017761201040938018,0.09873627871048857,0.4422756098421821,-0.5260444964532192,-0.4158053429987107,0.0960555688090757,-0.3401084313248872,-0.4645152257337607,0.8190229615105146,-0.45825149804701926,-0.2678011064341081,0.7809086756519807,2.6869995727065676,-0.3828273548904309,-0.2512229671040314,0.25680342171142334,-0.764585884615416,-0.7426439196727498,0.3546171291328107,0.2167438346402102,-0.04819494951371514,-0.47426055927419475,0.44887321512176054,-2.7485518109451554,-0.07741900751496089,-1.1507676179938076,-0.7842465986336267,0.7004819806073835,-0.509094931963366,-5.140630210465876,0.3676360734651394,0.6326004217606306,-0.3981866812913003,-0.03263255700804005,-0.44571239679648783,-0.8258313192585126,0.46396986860827544,-0.3898566354650565,-0.900278879784472,-0.21821736730777502,-0.1500091835073221,0.7625517230151323,-0.14743801672869516,0.3877326199804757,-0.30565427716073984,0.33291582502603473,-0.8871330170835184,-0.2675064878157651,-0.43278913779800354,0.7800255660367077,-0.23343614706061083,-0.06208029580367845,-0.19819725706882896,-0.6845238325927246,-0.5508799107738699,-4.9243906121999865],[0.9571530333663775,-0.7990969609820056,-0.26378211631770915,0.45329272979015894,0.7719533066411545,0.14447599606603861,0.866513740116635,0.0912660270759141,-0.7202498427383176,-0.34161395318875615,0.6958113778243316,-0.4415763867379302,-0.508019994133791,-0.18039521250445756,0.23566160090236885,-0.9952425350412509,-0.03203715423869004,0.3060781766869728,0.7647501722234247,-0.17768210973040746,0.17884651761333248,0.6014741834778353,0.49995423445141846,0.5870199746533076,-0.5734889801367329,0.15990725857832452,0.3300407336925004,-0.6993878491715309,0.4109063631366056,0.8359412803619599,0.5403258680614869,-0.05991847812959887,0.591673396174773,0.9135463278599752,0.004498279327512874,0.2157091236445054,-0.3177848652007204,-0.38417058732901893,0.3937438123747326,0.08059409005618161,0.41445571766663974,0.20039131832937745,0.7761840481377169,-0.5304826597349904,-12.29660869530442,0.005862476539948693,0.664548491423882,-0.050394841652742925,0.19720129818993512,-0.8398834121794178,0.6320116949141512,0.6868278209364034,-0.8385206121867614,-0.8029500635726035,-0.4238565286819674,0.08760078908518575,-0.4386338419549374,0.9583045895307941,0.5327303808459517,-0.04124083242124967,0.017714308925749673,0.716271217280415,-0.24123258940511422,-0.35672073305114477,0.4422485775810894,-0.8022000342383491,-0.16861468529313767,-0.5409457261380713,-0.568216571329244,-0.3288652797229462,-10.887594095240948],[0.42891147192850004,0.8157275224132498,0.24260916078927378,-0.36312874989472904,0.4342313838074106,-0.9930165486888978,-0.048333295260111035,0.6586196393495514,-0.9139291951138895,0.042306328317090566,-0.19358180902729535,0.5291123984657238,0.5269709047312587,0.5261650573248033,-0.6524027394099524,-0.8158785700713852,0.8047274655059199,0.09394522189669177,0.7608572965417693,-0.939788765398486,-0.8804090548795654,-0.598893745830717,0.11763231538942188,0.28723640844708065,0.5082482145368237,0.13210118301251478,0.3690865110382549,-0.8257497377524201,-0.851385650294715,0.19335063188027235,-0.19670274591790488,-0.09744253371145462,0.146731085942697,-0.07851481074120328,0.6005468880063818,-0.6958698479670549,-0.7212130492663243,0.710901636575703,-0.09475655767013878,0.7395190360848808,-0.9263601179989166,-0.202323240344338,-0.06293608805354131,0.6442137294871796,-8.858707799324577,0.48839124957073266,0.16954690435068073,0.2280591386442546,0.701047466030805,-0.7396537002697121,-0.744673719003691,0.6944926329667898,0.8383670779788273,0.8377329046774487,0.2398398793265633,-0.6589234259066565,0.5736879250177992,-0.7863263040016375,-0.8682536921856192,-0.30160877121676105,-0.23810070753291063,0.6769130540229004,0.3482009810923655,0.2741159900871725,-0.08198275269734413,0.8680475768727786,0.4182717361518875,-0.25814850708015313,-0.6024599650439446,-0.13102433508495245,-9.789939849126775],[0.7119198428897585,0.5216042917202717,0.2109211148390419,-0.5918138490042106,0.7423882823939781,0.19855092176235742,0.3292920436687302,0.06889411493177136,0.8438721225806831,0.6016509454914003,-0.41996146417894126,-0.6029824526890641,0.9182122474712117,-0.47954075185315614,0.46630705050663596,0.08272039972860112,-0.48725604645004417,0.489825174541705,0.14123167654786078,0.8408117508232532,-0.8492346209352468,0.370252244019427,-0.47634800277215894,0.09816062241718315,0.18480039271148407,0.8183223016146542,-0.7326057629773475,-0.7301894056430833,-0.7462256530432486,0.8586199290138801,0.06939185036534666,-0.7781550768005843,0.0820839516474861,-0.09577473107325862,-0.2565507410411612,-0.7436149420047233,-0.9985181902884838,-0.4757662788006196,0.46417188354411726,-0.3626328134611285,0.13252792089952803,-0.7907676405862858,-0.30516407271302903,-0.6661022590064671,-5.27606828006495,-0.5066104953647862,0.028298770597117717,-0.25902138077547593,-0.8767038055173486,0.05781173423613185,-0.1805111073404182,-0.46123907468719505,-0.24264480207960992,0.09655915052103253,-0.844459711497787,-0.6218530063623995,0.11381929843468923,0.15521420634368682,0.5622006624968262,-1.2988542419277809,-0.9718962691432423,-0.22665226869299213,0.38315145584308763,-0.07490817793567102,-0.6962119903177636,-0.05335473735193337,-0.6018880047265357,0.6070655055005694,-0.7520408712165144,0.060708254738236905,-6.138252478584552],[-0.8670972371014909,0.02350540937516281,0.6672197428762014,-0.8968082944778598,-0.026550011227091715,-0.676601300300819,-0.8577815579112692,-0.3060605287841805,-0.6063097053956878,0.16233049815977554,-0.3298449469705552,0.8848263677734527,0.38469065489438076,0.18145612489974586,0.34386298707741253,0.5833269731992059,0.6198323821151662,0.43441080858579906,-0.1994004768967858,0.7265137616818479,-0.10472844772219504,0.8058066401966201,0.36558495568142246,-0.37395206010606896,0.9254405386534066,-1.00280491869416,-0.20369819120683888,-0.5351657257942396,0.6706052602375449,0.6170237372428327,0.11876647724391115,0.3251048279676157,0.24046907611594354,0.6779653522809118,0.6540498832372185,0.7079369198988907,0.2242012886491325,-0.17431159266858803,-0.6584352596265544,0.025743869763639547,-0.4004425118610735,-0.6183282488346518,-0.6675116671437978,0.03739961182765121,-8.192321768224469,-0.6544268576638613,-0.3009247059027893,0.5753953110061254,-0.4026974078651805,-0.5136106888397017,-0.9731239876216978,0.2993144596231479,0.37048557349932953,-0.2815838200067906,0.8168411026892662,-0.807806435882427,0.14669904876561218,0.612033265407539,-0.7256028518483276,-0.15391727296994162,0.589257616604853,0.3654016012134148,-0.7198223120387468,0.3417882589544672,-0.21767534104505076,0.5814620343605236,-0.9387330142182441,0.19555292603741578,-0.620252885433967,-0.9154254421699469,-7.9875740523788945],[-0.7471592636562776,0.45232169467014344,-0.3938963036759987,1.3161485984975818,0.8755503032603514,-0.3598065853516044,0.4031126228185777,-0.16264606471700646,0.3470164443889131,-0.1872058073344068,-0.20626694625755382,0.9939306261574945,-1.503048148851169,-0.9947117998711381,-0.23246240992205502,-0.38324242566411726,-0.31910568922521454,-1.3114370358524383,-2.754801741723282,-1.379619576178832,-0.3199844451864904,-0.49672659217561504,-0.27070447354365695,-1.1846540261534524,1.547115660643319,1.5743419265798164,-0.32039918198943224,-1.1210902322168206,1.5819632431717037,-0.8091555693436207,0.3183799292139731,0.4320803604598905,-0.14673939230219354,2.0441767457321456,-0.14122850632381398,-0.7192431283477371,-3.9944155121123885,-0.5605596721542291,0.08767031297677227,-0.04177402524807747,-3.7960004679585326,-0.26741918604808357,1.9203391003314625,0.6398866569816691,-2.3291808753850507,-0.47015340561813024,-0.16968319168966564,0.015621361231984298,-1.4236212827414825,-0.5719157384659963,-0.2453563763265952,0.7363536333617934,0.5081300761461512,-0.12286630837506693,0.8001096206509206,0.4396166353467064,-0.8980046523880795,-1.2162191045211863,0.2762077452496948,-0.008039945824491837,-0.3536866245737613,-1.4593794354838028,-0.04556421396142133,0.8221745184216233,0.07341095778636578,-0.69445843508085,-0.0917478934132712,-0.09235405123031415,0.7869557105728184,0.8156133848001513,-2.6125364561372],[-0.843401570003233,-0.40875604810616223,-0.21879115598885718,-0.8530969197328525,-0.5464996404717956,-0.5436603940568067,0.05048218534728368,-0.107441067272015,-0.32856518180368643,0.190697610167091,-0.8028634281672832,-0.8943720033701104,-0.7396321100232552,0.8350141176034134,0.8310291121980162,-0.6488653350204947,-0.40741645581923996,0.7873753070219836,-0.522335565372547,0.9776501386894271,-0.9178908653128898,0.8815878691061784,0.5805194422476048,-0.7624545423237794,-0.1223021914971903,0.7739727057372359,-0.4907815386876736,0.805455622358002,0.09640102650373393,1.1219427835095341,0.1002641969789285,0.11437368276225113,-0.9624063389596549,-0.6381247712989432,-0.42544319381818235,-0.12582083394727928,0.1336098121525167,0.06517237005126326,-0.9736624514797767,-0.9201980303975367,-0.782579997904372,-0.0503674182934247,0.03749987047113857,-0.13443973611890894,-7.129990509327866,0.18270681730859598,0.579291105749767,-0.6167410136446472,-0.006274643759044409,-0.264970112918926,-0.3384269281096152,0.12329167465229451,-0.10053730057976672,0.592241566048414,0.4901100055224436,-0.36520370966955773,-0.4765386990037041,0.8231779713157288,-0.0354388291507709,-1.3612659951302286,-0.18442284162323758,-0.40864602991990945,0.933399771084425,-0.8166020329630024,0.6494751500134193,-0.1231233974272393,-0.862097526809722,0.7521908687460952,-0.3095669010783719,-0.4871990530992269,-7.5703630452717094],[-0.476308312862899,-0.30485620900279153,-0.6870955482634772,0.6185559049327519,0.9351703593346656,0.8587362368006499,-0.31025769197577374,0.7521692006826249,-0.22522215314015454,-0.6771510928133079,-0.6760879849133185,0.09982820827618964,1.0107833134105784,0.7662216358204686,0.7294149862674376,-0.5495392378839368,-0.8306165493751257,0.2863917939228372,0.9075338864915186,0.40684786464705663,-0.36939162630963407,0.3077301113831186,0.08347996471201949,-0.3409408991006074,-0.6231419104900486,0.42522505452135795,0.3142816287812628,-0.9761950827987127,0.5159670288435887,0.45830149292324607,0.905959328487806,-0.5811648941788888,0.14990183024451476,0.6342960375580031,0.6227429557955098,-0.6828168242439352,-0.5793440849574651,-0.8088316355992968,-0.3132960964556519,-0.5685271753164707,-0.7609513021365868,0.13620199596199167,0.6576219811072676,0.6810412978971777,-8.571042469863182,-0.27138719052322346,0.5223328458288015,-0.6848243446071972,0.3384763575559949,-0.5680132447252805,-0.5702440389746408,0.3181449944044716,0.545447968694036,-0.610054617858936,0.300565644084521,0.6473819023541424,-0.5842630851858852,0.6338330778381804,0.260281213982642,-0.3557845920526908,-0.6011170701300133,-0.7572521082457585,-0.6755566651507969,0.854304553462773,0.9702024248335965,0.12191492176588176,0.2158624137716972,0.325440145652575,-0.17486170123877656,-0.9780637341063356,-7.803566580262548],[-0.22561613923916998,-0.24572591578521366,0.3316582375196988,-0.5223311504276106,0.8397823584853118,-0.6565202515425841,-0.8971029379207413,-0.3558009077835392,-0.8987179456147493,0.48765127344058795,0.09023234517722181,-0.18195397999623877,0.2922567251706265,0.8696987608459971,0.5458264771518212,-0.3782101390248118,-0.8522048494902273,-0.7853879265430375,-1.554863704790694,-0.9977521328897461,0.29520929044667893,0.5069574931740853,-0.45927367776484174,0.9759744554398808,-0.15627018697317488,-0.2747616414900982,0.24012113601391566,-0.9415047712896418,-0.004331836543188616,-0.5487054336826338,-0.8584749936817196,-0.8026556607052169,-0.8480391420291122,-0.7053515975655938,-0.6902078255843973,-0.231208576549468,-1.1028842402297414,-0.5246985179119829,0.23412335280323915,0.8189884928486403,-1.9358935551232626,0.25987144460609485,-0.35677023574716404,-0.8005381406714238,-3.997688644365349,0.03571334478770915,0.5627618090794002,0.4376419918179393,-0.7907259181645078,-0.6233974279525877,0.07883239372979804,0.07492129921836978,-0.33928211428202165,-0.8419546332401945,-0.21616421291079474,0.32475640328919975,-0.7636870329817319,-0.01310666780343894,-0.25622769673459345,-0.2589839719164599,0.6702574966318952,-1.891326349649616,-0.7465209153451043,-0.8518854505856784,0.37084107142081696,-0.5861067132433516,-0.08709568124706348,-0.002640839945875801,-1.0169831968328062,-0.7383414778921473,-6.640642423541525],[0.36943738323651476,-2.130336360257535,0.07258118280851657,-0.3032124895049145,2.211105738704067,0.1506428351429632,-0.020570450992887696,-0.5852548166589661,-0.20837525764837142,-0.580927653713393,-0.6238426663690425,0.6503390856135067,0.030918508678699656,1.2995043511814481,-1.6078857945468006,1.3494894839298213,-0.6036557806887936,1.9349586628251698,-5.029114206261183,-0.5062470889104939,-0.35510397560667223,1.5600829245344192,-0.6847337261921627,1.7759188535912682,0.4474071486594622,0.3655940961886259,0.5397635953603223,0.7212751788438195,0.34429352819365316,0.6346632842034338,0.9797161169978538,0.575266620004305,0.1778166535211032,-1.1279789544885734,-0.7197749352879024,-0.17071530966567927,-4.377631295611127,-0.3568162261066836,0.3546617861814699,0.27586576257478007,-4.247530148465097,-0.7323493715450681,-0.4080994359275546,-0.2958986083722283,-2.637767810102079,0.12077824470220616,0.20262785629171182,0.0004816673014245089,-1.19811794351988,0.8386985270094585,-0.3262046860070612,0.7690091144257882,0.048096941141911445,0.7237640015541226,-0.6333255165142324,-0.7883710756462894,-0.2723474151988092,0.0644659042874216,0.9761940430276277,-0.3525028897069659,1.6088725029814437,-5.511681132517299,-0.44153712323522726,-0.9008523636717182,0.8024446170928667,0.8695013398782581,-0.13866561909551148,-0.19828269218106415,0.5875724686457491,-0.39211618201034637,-1.1256276962176057],[0.7136060711632168,-0.8153539283618195,-0.06565028161471906,-0.06709646595266475,0.1548707562012407,0.23834143568280383,0.06189142593810485,0.6155447859958114,0.36984917985370913,0.275937405720581,0.352720424799538,-0.7763749437540162,-0.3457671571348175,0.8825308601453037,0.48796028942220526,0.4549414341470084,0.1136745122039697,0.2886587788071127,0.35904359701322974,-0.26472225408935596,0.472060318771128,-0.7664934576291595,-0.013924177096226167,0.9867291672655654,0.44720068029247656,0.15684180195520178,-0.37764286160085975,0.12890128336607143,0.10141737249069045,-0.9812141094315834,0.734742209979842,0.6558213702442427,-0.6660202906853292,-0.9149549188083163,-0.7669348066189453,-0.5476529198201006,-0.20884839977771572,0.9675049702929872,-0.36216653957196565,-0.8983962136904903,-0.09794309127066583,-0.8846131195877365,-0.644763696248448,-0.07907511037370002,-9.684149560598081,0.5276143840487568,0.4945231288098573,0.01969500663981076,0.3510020113893016,0.5908880262455829,-0.8261996536296661,0.1278643443099151,0.6694398790483276,-0.8997726543492612,0.06239592845054315,0.9500643209003892,-0.16013627254026863,-0.5676544058598271,-0.42019774427604867,0.7508749193333418,-0.0874793273536949,0.7319939887647008,0.5830995459726737,0.14208287722769866,0.04045787210075425,0.18306510394978265,-0.137596224439492,0.9291782586980433,1.0395941653936092,0.13853841839704678,-9.24457700126385],[-0.695150020058068,-0.11761858601146849,0.026383230531273894,-1.0099476271732233,-0.24789211550980386,1.0455175031705315,-0.8654410319768941,0.69736542182467,0.5278968834714571,0.4310072138111964,-0.6343387767863873,-0.34950604754139963,1.01815115639609,0.8546185038091442,-0.3753196419338291,-0.4908851059414936,0.46496340476927883,0.8971798566770885,0.15245738483683186,0.5493640594138526,-0.7147838883513707,-0.05296277016193739,-0.0666351633075964,0.7852089848061157,0.9064532263907943,-0.3472827472225096,-0.6589171538744856,-0.07398311099290866,0.20085200740457218,1.0285232760642316,-0.4924344968944742,-0.13674753169945378,-0.3765062240804885,-0.2027655980262467,-0.5570451454331707,-0.7329324155950078,-0.8345612213683083,0.8245267358273488,-0.12245626904920183,-0.9787135803772814,-0.5674811744001598,-0.20279887431436605,0.006282275141511266,-0.019122757973831516,-7.328789777214763,-0.8204491245622257,-0.2582649888064788,0.12806668221510417,1.1918556385896253,0.012150751957397052,0.03137519685249023,-0.8329951278732114,-0.6406204507509894,0.38120239114688276,-0.7784555055263952,-0.8728461553093455,-0.3653965291901294,-0.8217961553214759,0.9382636497030602,-0.7101291226503045,-0.8532664134413565,-0.19061673859988926,-0.9139086957896452,0.5881546373304032,0.7445771629928823,-0.4453746881737825,-0.5193199157766517,-0.15710840592027087,0.9505439554953298,-0.46030211150790806,-7.358002982112202],[0.9079714609066365,-0.679613415758172,0.358753944702616,0.8911989883115264,-0.19163618242729888,-0.3453894591996432,0.6833923063437541,0.6382213376794411,0.31400075712190323,0.7629289289349962,-0.6055494223300893,-0.09974318728010426,0.452915029364842,0.3195007242268269,-0.6051580343000178,0.9593861124187099,-0.13186731312736458,-0.9349340109754514,0.16687325188568886,-0.43053981125212837,0.011421806959554628,0.2513345645192094,-0.4866849195997431,-0.3977933373310945,-0.769987340896552,-0.37679471008881044,-0.9289174606444697,0.7250337239435326,0.8888846727978597,0.6516931979200491,-0.16970769876125633,0.5786829735074684,-0.484409250290541,-0.7511261939954078,0.682433014213603,0.11974615290222358,0.7358071200154873,0.12892412139523343,0.330164171769167,0.6345885888574986,-0.9011573992182522,-0.6699401768186144,-0.6170290863299528,0.7415356187203284,-9.905481132433678,-0.585329307567099,0.7011388630987768,0.15498493324208423,0.7127144649035135,-0.3746956734955892,-0.4180823605576168,0.6836363471505849,0.318226673661572,-0.23576411863151733,0.9927959502476584,-0.0675463681944266,-0.39170428376818905,0.18907405678180514,-0.9670249865293945,0.5390268586744037,0.9742659210535211,0.1112643651687542,-0.8355923283231006,-0.6994302342395292,0.9149004597807799,0.5495611453610998,0.43603760564937327,-0.9205302860994498,0.6911803384855484,-0.0035349130014784985,-10.56482210865225],[0.9694267622089682,-0.9556771176872484,-0.15299959248636555,-0.8282380053803303,-0.23921263023949627,-0.770749321523249,-0.6631846238923232,0.6935592876620577,0.08844297145729657,-0.48232975350445934,-0.3304829755617621,0.11434081745056468,0.5746824442449541,0.6924371113453941,-0.8940211436703009,0.12333385619394877,0.2687567531346196,-0.00538954469393435,-7.502719070231821,0.09563709914608172,-0.7551225760836048,0.9398625612965523,-0.31790380030998044,0.01692013803824196,0.1283705591441087,-0.03446845472010756,0.09872935596653419,-0.600066938414557,0.44039508106101394,-0.10026198803003976,-0.5913884568958113,0.9251590645533678,-0.6203539043787691,-0.7656316639504088,-0.9006834585005005,-0.4732768200905753,-6.967473112081445,-0.5693650458337305,-0.6161408031451742,-0.031721039771904554,-6.754999885214984,-0.4174642262255995,-0.4372725549135931,-0.10423461161180694,-3.9552053156980125,0.13449642514894408,0.5884958740967048,0.38050455270753275,0.17072181252601415,-0.5536067955759681,-0.9314095375203068,-0.5890293000936485,-0.36085871377876716,-0.15811743812415044,-0.009204203242679992,-0.6977824088433915,-0.6410844816077952,-0.8588366307444711,-0.21336461167590012,-0.3564878394378684,-0.6633814496058049,-8.357331830046151,0.08356953255667418,-0.019279334226701847,0.8992817747086869,-0.8694764278281664,0.19281459091712796,0.16157804414906402,0.7253467477268762,-0.8673878396489688,-11.277166759071282],[-0.5166778683460235,0.8918967260639528,0.35463506012578094,0.20537339804116347,2.9895705801113093,0.23006256652032572,0.83685772422812,-0.538087999288424,0.36513305507055854,-0.6547392405246247,0.7681223640191346,-0.5724597057120057,-0.8446122747197611,0.23044295314191118,-0.24693738679050561,0.45534747834728456,0.297124806287084,0.44910543063995817,0.43713993653092387,-0.04511793387222962,0.46383933407599076,0.33388946899017363,0.7403941339447807,0.6290345729515283,-0.379059358320812,0.08157903967650867,0.046247483179826195,-0.6583939154087973,0.49416095957762596,-0.5489128311695306,0.5233016746510454,0.7395419310286752,-0.281796132947021,-0.12227478129844611,-0.6397094661861743,-0.01290645741484561,-1.1345755933294328,-0.5544928621552143,-0.4788456013217502,-0.7515059011105458,0.3034210363905789,-0.8118509463989183,-0.7231303441925325,0.5027837447183372,-7.484806403080091,1.2847163905995072,0.3575554112674383,-0.291889126115827,-0.24946128774781837,0.09849863863604351,0.334376769039165,0.8356872781841916,-0.005574607344697743,-0.23578245436236592,0.5950444960756683,0.4724126964681311,0.4770358861629906,-0.5039951287214258,-0.024007672811939596,0.0028278545499050125,0.15094107200048898,-0.8384184391309469,0.2729666060022836,-0.09877488389943463,-0.5244784441622637,-0.5437292337252714,0.2983207354329545,0.20423122164266638,0.6705238229618117,-0.48045511544939484,-7.348442279101519],[-0.1700325280081548,-0.625552483129319,-0.25335538008685754,0.22365551531085046,0.748121346656638,-0.45494488248796416,0.7933177130364893,0.8529394756941009,0.803076943080956,0.2667253448761434,-0.9840696875092666,0.6663989632701134,0.3942278204344964,0.08026927179454205,-0.33449869665161847,-0.2705931547451657,-0.6609875756401072,0.951140522862078,-0.41948981775730154,0.4488542185501199,1.0272656205978565,-0.6643058775931795,-0.6974003538572567,-0.1672796299666793,-0.19961443392279635,-0.4421706958903545,-0.09649658969288222,-0.1896992064989484,-0.1484336575941351,0.43976023188485663,-0.5966730724344314,0.1729720008336913,-0.19969846429000052,0.5375248387708564,-0.3813553290860786,-0.5131229265607028,0.965764417254944,-0.5516300148506382,-0.40606300498044523,0.3512120168134235,0.006204808333873752,-0.3388599545483807,0.10691394517993846,-0.8528200315541374,-7.725927178062953,0.36037166464137244,0.9017387636934019,-0.27035050016033335,-0.32331807106542854,-0.5687851740083526,-0.43915657466210095,-0.9606651315886564,0.3558221874007534,0.48017896582732866,0.014755455684473466,-0.3464407257301343,-0.9022355586782954,0.7046767507007459,0.9872727527290118,0.6256164484302413,0.29240248640856903,0.29098174607794713,0.9739889962513827,-0.6757466993531851,-0.7514593534022687,0.9378717049653871,0.7667072121704045,0.3601465001173666,-0.1898852756608895,0.6557057752937436,-9.213810490842443],[-0.966495763105651,0.1971781977418258,-0.3385936744587246,-0.28151539290057537,-0.5904901363853765,0.06854766653742034,-0.23199458283922952,0.6030701968272127,-0.15020576294605392,-0.8386549676892976,-0.09332137399220646,-0.8009859055819449,0.5527600578103143,-0.012807536665936651,-0.843933621161542,-0.606833606150736,-0.20772944540805144,-0.6604093782392592,-0.9769382097567675,-0.8480549492411696,0.15918741960012117,-0.057819354408255974,0.5472083474715961,0.43642298190188145,0.5420175369577939,0.4395910715702398,-0.6099231101464133,0.7761538607643399,-0.9606214563759118,-0.5668993433266838,-0.34554217158197226,-0.771015260092392,0.7286636145656741,-0.27713270608725915,0.3935764512724073,0.005871005308200763,-0.9878946046838809,0.8782834371419115,-0.3979342187498722,0.37107236976426855,-0.498495201429975,-0.35451675876532923,0.25977641948532054,0.8884824236267321,-9.365750863414691,-0.28357692715936655,0.8623619861288377,-0.8602197413619376,-0.004355245315241166,0.020701131412475413,0.9921657515611384,0.4847316265256555,-0.7229626981934019,0.6037354380157911,-0.8225079026598088,0.5910752904678529,-0.7180766228264918,-0.32966000640390253,0.002016747681094696,-0.6598555543374478,0.660172549041875,-0.3514772255404005,-0.3578280734804225,0.029560351747319868,0.5101124982308628,0.4355502278033967,-0.5647096425793886,-0.3316219470129143,0.5450070368499916,-0.3939151296542375,-9.757696661440923],[0.2670709986279829,0.6657702443982777,0.7629648090278262,-0.18984661778503445,-0.2715895541107282,1.183191320810527,-0.7644973859491156,0.04823497295626201,0.7100018469416093,0.5061567141742792,-0.3435296071471529,-0.22308155920711173,-0.26277039028767174,-0.44356733035475804,-0.4902014035828783,-0.3164405703564997,-0.49936480328274707,0.9040709401985736,-0.8773218349933031,0.3689785135701315,-0.40883155103380403,-0.7138488801111768,-0.32460575354512317,0.7386535525483985,-0.23471700443436566,-0.348042386680075,0.2651839196984992,-0.18306331444473362,0.10675775299604114,-0.005046839398193341,-0.18519880835512395,-0.5290884794280554,-0.6452548478996277,-0.001100156027862595,-0.6252904805144364,-0.47365949717406475,0.43212300981944324,0.39510046207698957,0.1596221615867451,-0.8640807457165635,-1.1458408532480864,-0.8501870361909962,0.1850661420308909,-0.0986939041077383,-3.642838322506108,0.3304417871099056,-0.4506861274946239,-0.16495395860033324,-0.5270820231465169,-0.9805894893884257,0.2372468398354396,0.36211881090898945,-0.5001039223436807,-0.8761537464286008,0.7176351661788043,-0.4343312352266056,0.16870270062450357,-0.6352976216509211,-0.3946505102210469,-0.12865902030696938,-0.5056556845472803,-1.378865215765182,-0.6873349155897456,-0.5745263333264004,0.0443002164361211,-0.1862059883888622,-0.4198198094836866,0.02493776980121472,-0.4385501280520386,-0.8163928201291126,-5.015162445435034],[0.6230318534723712,-0.3573711544692664,-0.10378487291683054,1.900473854293851,-0.25324143253410103,-0.8369386021550752,0.10232603934585434,-0.6683829074671385,-0.5575263964758465,0.018118342937663443,-0.9212312317363465,0.28778350806898834,-0.8241484776794678,-0.36662952106318974,-0.5039721802268106,-0.4453389522483977,-0.16022964118559027,-0.10959540856278042,-1.092086264658182,1.7508254619905377,-0.9718677853360537,0.5273817894303119,-0.11361130037703776,-0.48051529315423025,-0.25333258844859563,0.31428351869759685,-0.364044868862392,-0.9938375357851316,-0.9388606287423408,0.9213459469506649,-0.09382256418323427,-0.1694213906810483,-0.8413416906971789,-0.824350821447057,-0.3091530074408144,0.2303285951195845,0.205092584784303,0.8431349869378356,-0.8136092881022868,0.6006148242972619,-1.535449329587824,0.8335705798813218,0.35046182375598084,-0.4870192147387535,-5.687737543553711,-0.5854028134354283,-0.8571226730233721,-0.4671231430904464,-1.0528448466694629,0.24822709320679878,-0.3195529155862819,0.7869772982871116,-0.13488026381630683,-0.9619198393072882,0.8567559479446999,0.4363175840079741,-0.9824720059645231,1.7964893988040416,0.30707192500132086,0.29101675118212844,-0.33193441840529614,0.15709157973795665,-0.31469252738659736,0.5664909551587735,-0.1788120526278537,0.16150807355845237,-0.5068245650079668,-0.20719939405148632,0.6719404639215146,-0.1171300510863592,-5.461399186747455],[-0.8086765454408733,0.6337050213987406,0.1303814825396948,0.10169277091698688,0.565271146001311,-0.6582614627545197,-0.41479729046716307,-0.2661753143274323,-0.4290118668371419,0.950306357287987,-0.286427490496833,0.21103792445298125,0.45712240605355103,-0.715339364331888,-0.9446490729620999,0.9378839940229752,-0.8594552354662178,-0.507818387810831,0.8051265957971556,0.5168296027973295,-0.08964042597350108,-0.12621539555154923,-0.41279280625085957,-0.6563006266464281,0.3453349023080528,-0.693775558123185,0.03681881080568753,-0.6959476012122265,-0.7328629465951122,-0.29920568313851714,-0.7427959392105647,-0.7672220704997538,0.2167258220940238,0.10787472461852791,-0.9056587819175382,0.7165615953742092,-0.28132950354352726,0.5467916319141355,0.6885638649108267,-0.1464198299290899,-0.09148691925432667,-0.5666298903514799,0.5435370737410778,0.7513142045724327,-9.73745445731551,-0.7443472096403163,0.6032080013245704,0.5399921923305171,0.23384329583745994,0.6702043530572855,-0.7887707041898524,0.952062231243114,-0.8013192860038263,-0.1093542529148649,-0.5548944687246973,0.21763166628842714,-0.053128497668951606,-0.5094875479595918,0.24071164649689294,0.018782641078226362,-0.04467864607376566,-0.83296108463737,-0.655098199498649,-0.37250113543033336,0.06978150000259761,0.4029468477048496,0.7918611156536732,-0.1894861681889937,-0.19387164589990685,-0.3328564605302489,-8.601741254041148],[0.08617821672261888,0.09238054660008194,0.20123562587896204,-1.1672923370708896,0.1681963345386898,-0.6649929336330229,1.0883343190794355,-0.9500407925637749,0.20855371295704184,0.13719724211167794,2.5235182133416263,1.367771801147133,-0.6118717205911843,-0.740809890652845,-1.5882444607453425,-0.13677753653751668,-0.2778888490072297,-0.03803219899370234,-1.6631582111209118,-0.22055358344323858,1.5533243815875566,0.011866919845472633,0.023529388388452817,-0.05671421648946996,-0.5085503456168677,-0.7723987396664486,-0.07947560028229915,0.3903293809935658,-0.6620599681019462,0.5757420503823234,-0.43200340093961054,-0.1414080233481736,0.6419623129102188,-0.6124448631505345,-0.10637897833334727,0.019805284624941504,-2.821324956325808,0.9424582779762878,-0.7410855631767823,0.5024645330604313,-1.13581890200488,1.065826536088942,1.425545383118976,-0.20716986071316687,-2.1092681066259154,-0.237451239635568,0.02518636457577469,-0.3228823650589567,-0.9642021596761688,-0.8845413039335152,0.9061052111127917,-0.8036683871153057,-0.5843298664303448,0.9005907656299129,-0.20465773095293502,0.666551950428782,-0.6608078154078296,-0.29593860620253154,-0.44829618189949927,0.10049348907010242,-0.9714179202481527,-1.6874588915940463,-0.4060585890592882,0.46511060799622195,-0.07401433973733872,0.2506407818116079,1.6293406645722393,0.9745750949927027,-0.8532562858883237,-0.4899014318308955,-3.2226348432311127],[0.3986971255813125,-0.42689876039952385,-0.6401679601625232,0.5893917493847709,-0.6271918272493034,0.6475913701933773,0.1894168134807398,-0.9376926700845742,0.5700259980172515,-0.07170769401328721,-0.04261135991953962,-0.25821741740632986,0.00010667107058714527,0.19584810704173986,-0.5621883979907089,-0.6586546285422988,-0.06840439716030276,0.5729712374832993,0.14041170637538344,-0.49980388529634484,-0.979085505644855,0.13255808931154334,0.0011521780571734491,0.3951043470156032,0.4122632037506014,-0.04530593434501719,0.47583414236493643,0.13047516779816795,-0.8951974683963392,0.31148439910600856,-0.6315562028846878,0.5168492854726495,-0.13102720488413658,-0.4064379129790429,0.014010799458565655,-0.40530818852472855,-0.5154106444192326,0.5313802117218216,0.02302710279571958,0.024452415102451892,0.32138819029502175,0.32266471696324156,-0.46697271946154584,-0.576765609387381,-10.452512784033656,0.4749014480582668,-0.9265752453459468,0.7164265214683063,0.9221158115975654,0.47620167059315,0.15796798351476132,0.8002680428534151,-0.7451797830991205,0.33040254502026567,0.8948943085995502,-0.8812268622957206,0.9297223475270201,0.6329615933255142,0.2313299971349676,-0.015207760557112412,0.5032700665984998,0.54726271337218,0.3083348654380561,0.041168891716211846,0.6923206905560162,0.262223114134088,0.4504306509690432,0.1699893372595367,0.28957433508314284,0.6224854696870644,-9.525559764714622],[0.8026715001841486,-0.5512880361950349,-0.20238781151332505,0.058381619548225204,-0.8994349450051778,0.12161408684258507,-0.010364273615562174,0.4304286085612474,0.4788456349505833,-0.2599862277798464,-0.7115831946611568,-0.9081536233364598,0.237582078227965,0.921208593523609,-0.038044668335702775,1.0151283103426552,0.7936380448131315,-0.5023759298352063,0.9156797999339845,0.25691562836279996,0.52311645375173,0.9762920886335696,0.18579067573194066,0.6463199148947327,-0.9805317295863043,0.9052098194018455,-0.47592741937380223,-0.1092475041170302,-0.9933475183636158,-0.6262169149296514,0.04190540442168884,-0.10723437274360932,-0.5148741864111758,-0.1624219395573957,1.045366695165416,0.19527744707915037,-0.8159740147850936,-0.2784580846201511,-0.7888150995910109,0.33731643848843373,0.8174300363866991,-0.789804478227185,0.32987967413253366,0.6887862499567564,-9.156251780700313,0.9556615995943656,0.18416446311897172,-0.3182748766677213,0.6019638425581814,-0.22126783941793743,0.796636481776688,-0.15939306174978926,-0.5705179165920208,-0.21129042167020465,-0.41459382426536384,-0.7151034424961311,-0.6846081439854267,0.7288778761162273,0.979718142092604,0.04212039761092552,0.5660167512888568,0.41639272642508457,-0.3177997745031097,0.7544693387575373,-0.30081627822070794,0.37413462509214335,-0.12127097848106999,-0.7545330193335597,-0.005711740981788008,0.5772534941592595,-9.013036220378112],[0.9559262359367913,-0.62931009085698,-0.18340798278515705,0.3633382820271334,-0.7098564545509592,-0.38878603639836523,-0.1008648788118431,-0.8375329515744774,0.21658624461770257,0.36117266428335426,0.20606749405571756,-0.9324928523454024,-0.2524359349085032,0.2760856188180868,0.6667104806609785,-0.7236968264588294,0.1853927295448715,0.444794725138547,-0.3517906014710223,-0.9275370524492927,0.21387440325739643,-0.830327886364949,-0.3955482225531508,0.9214099245079748,0.2934346708855141,0.20046599207162705,-0.30100213204644116,-0.08172831577687836,-0.2765448839893217,0.557438698397343,0.6958140115084537,-0.5789138271366793,-0.6254489013056186,-0.08274951275380794,-1.1101829657163307,-0.6062190761903011,-0.1666032135523638,0.8029598006960049,0.13866047642318702,0.07856651830988486,-0.7012193837154422,-0.061944410233381694,-0.5829342554244067,-0.9172840258037929,-6.763635468813042,-0.25475019110690605,-0.7098610364841975,0.05856129652313121,-0.9098750335212351,-0.05505276047663259,-0.9556328360821695,0.904524688382009,0.6460239893449913,0.6957154203347388,-0.8680318466342123,-0.8036342129811805,-0.272460131077993,0.3234493197385286,-0.6978820327924623,0.019509333218152358,0.15218342533310844,-0.41358182056034726,1.0124685065951358,0.19681839488276462,0.6395587520113157,0.6177114138067255,-0.7879416867056009,-0.11959310506515047,-0.24406256691333952,-0.6350739347539323,-7.642922313680803],[0.2103615041244751,-0.617535784081601,-0.8553992813921131,-0.11939872291435348,0.5339140591390333,-0.48458930940706424,1.8359527778804443,-0.37382519182618557,0.4824607185894288,-0.6465897024120737,-0.9073114532526374,-0.2155294499910609,0.5179542984822512,-0.18701684442295438,-0.9018364562542083,-0.4185736701067022,0.6807107736473026,0.22160835609476737,-2.628436336780779,-0.2540404944251447,-0.6084495471697029,0.22823958670526337,-0.7446442752749253,0.16121814008667917,-0.4800197655846727,-0.5424512407491779,0.5062231085982932,-0.8979604058512666,-0.32457768108257296,-0.46579046093886567,0.4858196607057948,0.34068847603594693,0.24282252066096877,-0.572529480701303,-0.08786931294634659,0.34895071209061407,-1.982165078810246,2.6624865406570875,0.04695885741845254,0.5414720516787754,-1.7875818232670933,0.07635216260146972,-0.37854595484322934,-0.12337498503611763,-1.7240637737868232,0.5771884639032364,-0.06526870534605451,-0.962938624732071,-1.7631432795606752,0.20935438966694725,-0.5728202215176673,-1.0527347120410202,-0.7812935962258293,-0.2114459601686908,-0.7492064542872453,-0.2821466626513464,0.21397313127619505,0.35950685243558456,-0.5362497061543554,-1.1495442108531204,-1.0282825696147568,-3.0077773534507775,0.6015796034609239,0.2647454078507599,0.29300104283698347,-0.9694543712172032,-0.7205760821268778,-1.0349446795437383,-0.9132942534079299,0.4690391832620647,-3.1333668977433375],[-0.5181009521826623,0.7134188068521091,-0.16284137914611807,0.44156171656202337,-0.6484340444438265,-0.1803394233473693,-0.8330780589200302,-0.4340211875967978,0.025974042349929782,-0.33299210417096997,-0.6097540371822944,-0.10304309823251165,-0.34607962923099805,-0.8580354619816872,-0.1782910863488528,0.6059278148503511,-0.6112825876464262,0.13330422365363342,0.19354902873722427,0.8508408613666921,0.7963084189129424,-0.5483457137970068,-0.2342368293204217,-0.6617625624054417,-0.08344225684208424,0.2002338432033717,-0.45301930668888385,0.6264078015468973,-0.2997017176486819,-0.981652151951076,0.9746277949597426,0.5544157097493332,0.9537906687414506,-0.7479121412189987,0.4571252444499769,-0.2558618032004687,0.14151366704416524,-0.7435040573059543,-0.6262385109088546,-0.5614835953784726,0.6125328743482029,-0.8323949584014587,-0.45284063953843556,-0.5591887081770737,-8.197485606680473,-0.800504361935825,-0.2399029369001767,-0.06579042968282256,-1.0526922639339151,-0.8684209866640126,-0.4373343406816109,0.6411031933757011,0.5825984046433667,-0.7312425911919391,0.8772297381604177,0.9962472308327711,-0.010183003252544724,0.7152739866698712,0.09098729839814598,-0.9179828394269193,-0.6579913808635234,0.35418312808196833,-0.8059455259516928,0.83452313789844,-0.15740445099270592,-0.69623188795248,-0.9267831789236063,-0.6486709745119091,-0.9145795107138796,0.5954177086545734,-9.244870075992774],[-0.5607161576670588,-0.7556091396265614,-0.6503081031763251,0.8663047694421288,0.6923802688034867,0.22690914466939613,0.9068056056031754,-0.8837511403235243,0.41788246631482445,0.7032646728446211,0.1861023481345081,-0.8631204774228499,-0.29906846160407996,0.3516970516911907,-0.5216260458261075,0.3753113268928816,0.4845888580451152,-0.9805133364361183,-4.434835635655192,-0.6457935912636735,0.35930373428277124,-0.17192838760069315,-0.47841179986783205,-0.6223540091694562,-0.5834747626551896,-0.3488141136801196,0.34452562612762744,0.388407369535889,-0.8465680888529713,1.0015224728521788,-0.5504128282827299,0.8155453869717012,-0.07586786134136947,0.0661342916948671,-0.3036000245109924,-0.8643575649768132,-4.663131711596119,0.5167573192544829,0.3408529236895466,0.40148300538683984,-4.034073822514448,-0.28653217827277033,-0.2976009984995316,0.32523201735036134,-2.7660707290803273,0.3914606121509728,0.4524763031580436,-0.6125232362622501,0.8682857284191076,0.6230195554170808,-0.07675638321022275,-0.09695985753370295,-0.5733576250067028,0.14963488299838984,0.7598973209475435,0.6595677560721679,-0.16803865062805162,0.4547583975930549,0.13214721000859386,-0.3643504706091493,0.6804121725197025,-4.304848775229771,0.48377313559540486,-0.701830393919791,0.6146290182273517,0.21616579794419363,0.6257768590758087,-0.8392764760291086,0.2118681254438411,-0.7385117778117165,-7.979575341236885],[0.23334622469110067,-0.03065582892192505,-0.3787390871935453,0.32906369310036504,-0.9384520955510058,0.027288674477340822,0.5967698036630669,-0.6563956215952026,-0.8655450507796798,0.1896986676849857,0.9990379181858413,0.2235294810526439,-0.5907086759203335,0.9133374817727467,0.3339232584381111,0.21974952896177816,0.6035698840192549,0.9401297215962254,-0.5776774749283883,0.5978969073610055,0.2958741373926095,-0.5827642569343933,-0.21693027438734838,0.3199481541023997,-0.5028753933467185,0.5968587754407283,0.1827472790817314,-0.72410721729983,-0.8492195795072607,0.7028007351440625,0.6776069443890087,0.38198089054546835,-0.03773060802390731,-0.10826010849889955,1.4572735309705493,0.1899530250547972,-0.058809955212241465,0.4349816823371546,-0.2789317855367837,-0.7703692491561793,0.5664160766647967,-0.14302828596795866,-0.13951308992906072,0.6906131394029553,-11.25933858353889,0.31986458305310456,-0.838316710687584,-0.1245966736361562,1.3767674887860277,0.8637504708009416,0.9105158023277321,0.45217899057622674,0.5167294163472032,0.7290318711178569,0.5693487474150203,-0.6400689156202469,0.37902291392794824,-0.3949307586400552,0.897852994653105,-0.22633207076497108,-0.779267311739188,-0.7515367636168402,-0.5486657206406653,-0.9402288365759139,0.6678995301610207,0.18580444299451768,-0.9813893814680048,-0.10716202373476914,-0.594178429214712,0.530935762020442,-11.297236598285009],[-0.6947480828488675,-0.18055103594457358,0.15872667652763905,0.8831697691497352,0.28650736288978035,-0.3229311616349898,0.6985922363584925,0.31491766268104604,0.6809938993522844,-0.308980833201456,-0.3025962670849042,-0.4107165202783938,-0.597691909722008,0.0641773872446128,0.6419766437307768,0.3111439752174896,0.521890639408251,-0.10287828101933498,0.5282068445371303,0.5913036303927107,-0.9119332270734302,-0.841520605557179,-0.37793245920513746,-0.04791010150261131,-0.5903854712291055,0.5972059520265067,0.24275531071303724,-0.9379106515356318,-0.3963289601931881,0.4747707389661583,0.35513243055496696,0.2524152545634793,-0.11016162348440742,0.7744640842637309,0.3346962083877719,0.12789226746490023,-0.15440192774187433,-0.26626083029529785,0.25502228087704487,0.46862704456103477,-0.5656265401579831,0.6064706282266284,0.7632774549550099,0.3696789927800668,-13.458035794043068,-0.5101578425888831,0.42032024112104927,0.7102498754364558,0.30613811386511636,-0.7079132884985917,-0.32807987750004064,0.9029394533820733,-0.012826641874058214,-0.9911768641123169,0.5554737016019536,-0.32294306585031435,0.16078402395985955,0.2875274175993165,-0.6022468540126884,0.7794885954583309,0.65602412939939,-0.3342943254052778,-0.39855456565947667,0.0748683478340622,-0.4484048859395777,-0.35878194932375573,-0.13707381367246085,-0.909332015587348,-0.07204191490416956,0.3958800385805853,-13.709401752082847],[-0.44081706332640497,-0.5253376839338608,0.3547774512507467,0.5141289878841379,0.7347771672551072,-0.8376347454976519,0.404504163175309,0.20263801664098632,0.6520458014593902,0.44359952858534324,-0.9853611404517322,0.7595861522318588,-0.4224171532500056,-0.1179826120250463,0.5021600003701983,-0.13275884303998955,0.974756807220932,-0.24684468715863264,0.5745897985687997,-0.9317005000765645,0.9076126419386807,0.8187354087311727,0.6376475722840641,0.23744827354295775,0.48210120363203723,0.9825856858478739,0.4476135749992242,-0.7185911989886014,-0.04509434695834164,-0.8223315999376989,-0.32487051373660425,0.9533918075447587,0.6103780930903699,0.7428808511970331,-0.8321837922047401,0.6494168819872247,-0.713440161504533,-0.16936364033263737,-0.6890674076568256,0.9255065147304442,-0.7924804193202906,0.9408536519888461,0.9758038517534668,-0.7581388135253057,-8.399971728948296,-0.8152450513132662,0.7664892894451419,-0.3324561582294003,0.46467019234823065,0.289503447072116,-0.7905312118437756,0.19145376883454288,0.03244368653015711,0.248791808159919,-0.35610564097597264,0.018532361052416936,0.8864551091793542,0.25447420877624954,-0.8868693986227038,-0.06978584977534756,0.5290030932308739,0.22901042637089494,0.7199631500165539,0.20292050298353148,-0.3515036962158363,-0.2989917984244611,-0.008148548266635056,-0.7776311990975512,-0.2563490196203484,-0.9120988788884637,-9.461600590754607],[-0.025180450764473363,0.28816019473902194,-0.9363204039086318,0.09703702513291276,0.8931393566760919,-0.014878177029628967,0.05781510798658171,-0.5134407535517505,0.720664099547859,-0.2968705202580886,0.3652263220771039,-0.051042324053034015,0.20171310618522592,0.9064317873851027,-0.27770959185371136,0.0566921946936806,-0.0009231992075711443,0.6351597255338092,0.13375920661144053,-0.7726663570829485,-0.860972441724614,-0.7356542834803758,-0.05012524831177998,-0.07155956841761814,-0.9130442316219155,-0.06229770021325345,-0.26189374450315966,-0.7992226048939141,-0.0351612055521385,0.5276862601467438,-0.9625173359676089,0.7455792032989076,0.02658228918741507,0.6918646605966292,0.6096556885198472,-0.34908507497981556,0.6882243173167779,0.597880850289589,0.5892244617183383,-0.3121168439493774,0.3551407000562751,0.23672159757541467,-0.7420849773077287,0.8609224089480781,-12.836635608144142,0.8353928279845972,-0.11741526950552784,-0.3975941000662643,1.1892014360361014,0.9373720128869745,0.6685582260233519,-0.3047442197651948,-0.8102323514706752,-0.3488231365491702,0.19711103345335385,0.4221482935818767,-0.33077553292810163,0.21556885320449246,0.5315950866828798,1.2969695423741852,0.2046443960690418,-0.833242584697803,-0.7414609201313195,0.35455345491734,0.9746986556297789,0.5488633626930953,-0.505178006482118,-0.6481627447451863,-0.49385072981991496,-0.7797006946786017,-12.686499457918785],[0.7091439437339542,0.260278944896247,0.705818250532801,-0.4135864929286354,0.48928423286039996,-0.6714967272371403,-0.8507273266334547,0.7724956090134892,0.4939606566997939,0.5054081038118781,0.7278866720106619,-0.5425008741235406,0.608883952011284,-0.5453023993752568,-0.2175039664128947,0.8653606732168626,0.6280260050237519,-0.06653862290622437,0.4424263342645692,-0.4809760065407817,0.8256487643202238,0.7444454737419618,0.47224711523809515,-0.9879040811426901,0.5059592828415139,-0.3062488228088543,0.4131577224977981,0.4734270488109781,0.8447606618663497,0.06354570960879043,0.5401581131132648,-0.39048639163817933,-0.6161310038826459,0.9120312897003426,-0.2170769102697121,-0.6011810405203001,0.8129558624886374,0.22695087884003207,-0.5778594126555893,0.845771639209405,0.7691810177990036,-0.6312783079685232,0.2600206842349261,0.8561869815975945,-11.24042537881017,-0.6013563314137781,-0.2649276776232814,0.19616957390475764,0.9899476534594649,0.4026390412006858,-0.6350044192653731,0.21421428344271826,0.3410240408921515,0.33774274146712957,0.47386329616236617,0.3086875855891265,-0.7390864684073506,0.07583068127181368,0.6327372811359807,1.265680615667897,-0.6051417019157332,0.4137323412569345,-0.15692355669687122,0.1945303149514134,-0.4796474531559681,0.3603244340432881,-0.2909472695358056,-0.9539534233210788,0.2415626208631638,-0.6199098426547635,-11.130523743064899],[-0.08040454160226679,0.35048887368628606,0.2872737628328955,-1.0470036864523835,-0.8194046219966915,0.4106299834622701,-0.834379437551514,-0.38003731800458934,0.8641888095050537,0.0640844063721894,-0.4112937471214872,-0.266873862084122,-0.2677717016896544,0.14615700500105694,0.8599549152304646,-0.6772541914080596,-0.5068840795224245,0.6476465001889383,0.4207249263408437,0.23759295284196438,0.02210266297845054,-0.41443324079259636,0.9032082417845656,0.5781922340104251,0.8588494319351541,-0.7272939127703738,0.037224317363497114,-0.10044949775555226,-0.3730619828063832,0.10639533864307499,0.7131857145980315,-0.02708567279012155,0.05304218949047117,0.10770616958671742,-0.9323130190071244,-0.7454246221358967,-0.5584349630766419,0.6472938938286728,0.4339611204400409,0.9595657000555629,0.4963952167317181,0.0925745738458784,-0.289755567103643,-0.09629085715168072,-8.283618283239965,-0.22997418974266637,0.871283005008491,-0.9050636227148086,-0.5786109370690303,0.8667000148654108,0.8028205100455207,-0.6932936164969317,-1.017039098799676,-0.3622606927770928,0.20207448792191696,0.9658752470920909,-0.9458665243896442,0.3503092479431648,-0.8745069511044864,-0.2680905062320358,0.7409350212414669,0.19868368643054637,0.18404516015518782,-0.6608550771108135,0.7766979498277427,0.9392409322647733,0.5638049972972298,-0.5269852685811509,-0.147560894723184,0.08977732666893873,-7.452966828496374],[0.022537551623063,-0.2486439647184791,-0.37442453489051136,-0.016464750242371668,0.9905914584879953,0.9877731560595434,0.654257374378879,0.16536550820369164,0.33692077532390396,-0.08799630233570278,-0.5338704586579485,0.44419992101516326,0.575259370567042,-0.02630222086299088,-0.6816896077201807,0.4852803207216358,-0.652620154892085,-0.6164257352735744,-0.1580815606281781,-0.26926517779085013,-0.5836108149844986,-0.08863688635545555,-0.994749039185347,-0.01081352517690848,-0.05904188279735085,0.639672042949143,0.3915815444994098,0.6538842439643957,-0.703806254739447,-0.6839307125048053,0.7533010685757253,0.17590966171743955,-0.9528931859861945,0.620712536472374,-0.5200601807974072,0.8609694085787302,-0.3041307535804028,0.08223319172462588,-0.5311540798168485,-0.29982527339936493,-0.07284673269282987,0.8560761949507746,-0.2724077193939489,-0.004651395541241845,-6.62593186144124,-0.9271232312455387,0.8400451912599717,0.13996029043548447,0.007204447055208108,0.9179371730921638,-0.8618029930691306,-0.6173689859757345,0.303270800693067,0.479991388095627,-0.6889919474920917,0.42709332321427873,0.3542618268316786,-0.9489477129761728,0.9322922930634302,-1.2192887604971143,0.4220763191652657,-0.9270364502224382,-0.5977525367751492,-0.9843154326333816,0.06676198806054578,0.5305367436060561,-0.3186686288362807,0.17528741522788394,0.7265255106614058,-0.3239611238165898,-7.65326379571395],[-0.11297217353850192,0.4528923370706176,0.8327926588836121,0.4605916073623546,-0.6791872517628714,0.25669964929364986,-0.9877049474520533,0.5735424925194946,0.9613502582876973,-0.6929670715245174,-0.18608134731858691,0.3909496080319043,-0.1674282514025298,-0.713468325103066,0.698512087211534,0.6723409684274451,-0.3811077982472004,0.09755984395104773,-0.9081984819233818,0.6696327545342393,0.3363427825184523,0.29669758876614344,0.5684674594049733,-0.11507657917526086,0.6410978678627737,0.40858765049947154,-0.3111577719120318,-0.8562725181095859,0.031152596610657092,-0.17989338987193237,0.43019605607609085,-0.9066413213506954,-0.2948912964900192,0.03438539292590343,1.1052522819243595,0.2414370003895665,-0.30727905826688356,0.05620925882425372,-0.07427886097364736,-0.8945908617794349,-0.05248386565053601,-0.4648265527830822,-0.5680811600184258,-0.0780648337360251,-12.883489642488174,-0.45591970066296816,0.33258972688353,-0.038297336135559155,0.4948759051979503,-0.6022953716000489,-0.7120378731966652,-0.05224368804193587,-0.32444860330025455,-0.5560465110741718,-0.08836552933655659,0.9383056932105421,-0.6368770998734239,0.946095008379694,-0.42547259268007304,-0.5502902679759964,-0.45470229325172706,0.7843273281283077,-0.9072283898981344,0.0074111084839414984,-0.8650199817056624,0.6729096147851896,0.4976284888672953,0.9170633178288791,0.4583790217854774,0.9399855990774885,-11.936932629385524],[0.6590795829807026,-0.747714399095689,0.22385776456610865,-0.3116856634634833,1.380883552152397,0.1874743825426542,-0.7710869511556321,-0.07565004966871705,-0.6498939531060608,-0.5851009674240397,-0.28399887302983545,-0.3357751206504572,-0.5730607679199428,-0.41427871450036835,-1.1445444538272331,0.6803149247470992,-0.0427308681734803,1.512119495759972,-0.855707459594313,-0.5604511579868946,-0.2763539507716283,0.8621924684153344,0.07528829426849626,1.7595508618932711,0.06374920429468808,0.04598774472324101,-0.647611769511059,-0.05709058172009859,0.527584604956871,-0.006467346113873126,0.9172288525049321,-0.06847198328125392,0.5330925782945668,-1.0216793374808446,-1.0119136262772137,-0.43028619789581823,-2.422919893802112,0.49050246740446385,0.3691561211422374,0.42453254201473356,-2.6578778478994636,0.225947120053904,-0.3244515763824497,0.34379339845516477,-4.731624668590191,0.7608989435832866,0.36623960140626144,0.47076738067044394,-0.09178521164227953,-0.6199822749402838,-0.15973491450606714,0.2595583838801416,0.09901408499152883,0.22963317643067482,-0.4039274681483973,-0.7016634400876672,0.8025857953483264,0.6632444138697455,0.8657675037012612,-1.474981390626481,-0.03401390080182958,-2.720566583170723,-0.2823667545659007,-0.49143139412015013,0.1900868360589775,-0.4154717487439026,-0.5600582857639727,-0.5598141386525484,0.5215257986501045,-0.26984294390985414,-5.152461690157871],[0.7094061934448683,0.5793737477821235,-0.09385481902993502,0.036324088891063706,0.2799644979587748,0.9638347327376342,-0.6502445910591607,0.7397780122034973,-0.17055906453134742,0.8329015286292888,0.49548932303196747,0.56875504431334,-0.8953735350077331,0.19073653679546973,-0.5681816284204468,0.9089955448956478,-0.4314930438418081,-0.505153430059811,0.02604992113762735,0.05183326867500331,-0.48673386710482996,-0.21984117408564577,-0.3189874647263051,0.07193913457064605,0.6938243847228014,0.10091885766086155,0.5854115581168791,0.44776577788753347,-0.7838804498650573,0.8101900947265434,0.5662479700732018,-0.2258324469605167,-0.4126180221991382,-0.9813663891931157,0.10155608215233948,-0.21981778777545757,-0.4981405809760776,-0.40866586324265736,-0.5733314919530778,-0.9368089795867821,0.1241287188219,0.18904851416818813,-0.4601995134729475,-0.5180846143425422,-11.219401654431978,0.7881114251209335,-0.3043185374083763,0.8361066708333432,-0.5668873947193052,-0.5872298485324036,0.9427622688718837,0.6134819197201398,0.40498533671587666,0.4054443490804719,0.24835017260067693,0.12082665085593408,0.32351190628617343,-0.5445308577979229,-0.3265317377453429,1.1925370125363568,0.15322406893173826,0.36579214957666906,0.5746504130245179,0.3636921956798113,0.5733670660095267,0.23040528300015972,0.7125249094189621,0.7783123315898617,-0.15231091525960325,-0.7240855543597189,-10.204114309574242],[-0.6516026526750603,0.3620059771489356,-0.5984655115141059,0.9270940715782245,-0.6336172400520516,0.1958900042055796,0.6738374385812402,-1.0555196595019305,0.1707313393963539,-0.9520322278506118,-0.27094007084172966,0.39750238960665285,-0.4432814932032764,0.41369215673369153,0.06753825158747477,-0.006563450204344368,-0.06542674778594636,-0.4096948040764886,0.18773344526654845,1.44763940931858,-0.7276698619060662,-0.9327445016717242,0.1418127751514879,0.7181915281048467,-0.043096302265689605,0.6707733430422564,0.43531484404765264,-0.807980570530864,-0.6641403437841685,0.3417163366286562,-0.5341491693055384,0.6947790960631677,-0.3937579697787614,-0.5436401875340006,-0.8512771941186182,0.9796944153614972,-0.6657429683576928,0.2359439184529838,0.23130534305922124,-0.19685666920290956,0.12938046476910603,-0.31902371548430014,-0.11342950922946284,-0.9747346896620731,-4.829516603774097,-0.25567221555169317,0.289589630862399,0.5997955771040566,0.1670160167790435,0.45093190780324743,0.6793705528474805,-0.020734181698284483,-0.100484191552073,-0.5080648428928628,-0.5952839067183023,-0.16105031770432265,1.0215465414202543,1.4229875370224563,-0.33086019673158146,-0.5025344853255644,-0.3151747608484124,0.8164847113961605,-0.23333768433637525,0.026575825907033817,-0.8089797269745631,-0.2924895214252726,-0.7485675733463617,-0.41568975134034175,-0.8719490755427696,-0.017540922240177136,-5.2520318741430545],[0.009874050249187005,-0.4072037397120933,-0.526723691372303,0.37959427875381807,0.9757608812981192,0.4503386125744589,0.4095934720875651,-0.9471081756866498,0.8715266294567736,0.27929394575105027,0.26178577276207793,0.8089683932780578,-0.4805315226516318,0.8190278603828383,0.18582140740082068,0.3552076835919096,0.6274109778361089,-0.6732359983817428,0.03269464817808035,-0.3852972470291129,0.1359637084054674,0.988490880405555,0.677943387505008,-0.07852550742005347,0.16284507088029604,0.96287978731977,0.17118591992246782,0.9396475658303051,0.6714718868187224,-0.8016418276101267,-0.7347868074175883,0.628820675622454,0.6098128836016837,0.3521285117038579,0.8574579962653733,0.5527898612717025,0.705443342848096,0.3868458977780231,0.10686996653903957,0.2612100410928,-0.7667602553399877,-0.2641365054176647,0.5473731660412298,-0.19584727043882946,-10.957440694222166,0.42648274405963765,-0.5637998546564551,-0.7042442344500282,0.25061738451751214,0.9029841012840192,-0.26434846691836406,0.2930502410631298,-0.0933139409911087,-0.14300161528015062,-0.2709232007598103,-0.5031075468549604,0.5447340290989153,-0.41348756720806945,-0.8328624769061478,1.0141385340382238,0.660651156504656,0.6251779237533276,-0.8087031772210722,0.007734809468706206,-0.9805229501648229,0.863082075133968,-0.49726929022705296,0.8909898803040033,0.8967456272104068,-0.41650918723265706,-11.69566749913819],[0.8346841841915439,-0.8637189075740662,0.7514023472544864,-0.20380835905745115,0.5115253547144682,0.08207328764861017,0.06882524908454685,-0.313854550952018,0.8451566515044654,-0.7200743010241314,0.84936201942652,0.4550732602013254,-0.369322261633516,0.07143662043439719,-0.8108260591616964,-0.04711351601267394,-0.3847822589387933,0.45585125110195535,0.053922497106954036,-0.47195760212041526,0.7041160756580515,-0.8086059292757799,0.31605310004856113,0.48389616404184344,0.582951796524341,0.6345937093883676,0.3176413864238045,-0.017077978091131134,-0.19476718664207365,-0.7043054799570532,-0.7767221752845936,-0.9594212952787773,0.5321869931929037,0.8837307017189892,-0.543495256995109,0.610203295672257,-0.7699692429660383,0.17653733360383714,0.292179315714168,-0.5790067149015471,-0.5302997700370246,-0.18730084418348997,-0.5693469224937685,-0.9294473192025745,-7.158116118405594,-0.8938554987707888,0.42546238800983666,0.45067386698142314,1.0686605087981471,0.11135039508158494,-0.5529551152999941,-0.7706342569038886,0.0487439221115871,-0.4361340658457621,-0.5573166033502609,-0.938844320954608,0.7181614674011821,0.13373822482364167,0.23352896526727313,0.9536670005199561,0.2807846861579108,0.031733942038590944,-0.0745775453835058,-0.4590417506998748,1.0011032171261496,0.3417485027403337,0.6753786639479845,0.6145905455906907,0.8923527629535254,0.3771642556764962,-7.846232939012778],[0.9127138352441413,0.8129591182276757,0.37893641146634405,-0.3317501220914962,0.8429006753842929,0.8021353917137287,-0.16533944846113519,-0.12365116452512184,-0.11636060850010334,-0.05372934977034544,-0.9616508305997118,-0.4600030657239825,-0.9638079678055492,-0.9118010818871172,0.8651079028037582,-0.22436171315408873,-0.12121021013012971,0.7046277761759633,-1.2128351193720701,-0.30189765012557046,-0.8314248273314488,0.7059656929414396,0.4209645524816248,-0.7462599557021906,0.041838124204988655,0.5434401942958822,-0.770168900164852,-0.8184792218454148,-0.5195048752815061,-0.372004213333713,-0.9639202650290192,0.5427374257543925,-0.00505304140811989,-1.018705754699481,-0.6575866156253105,-0.30429885005843127,-0.29347710139688626,-0.4083013967256099,0.5659223327541765,-0.2149452280250543,-0.4221744825301427,-0.3271573910605611,0.4874204259731847,0.44383771548687645,-6.6207595876513725,0.5249343597921341,-0.1670810534082859,-0.40445399183152037,-0.12301078015463274,0.7587543400482659,-0.9000930871231593,-0.6785162645186574,-0.4431154420609391,0.260755224871103,0.5790972267457303,-0.7953781605035017,0.3606539437854831,-0.6816824358436772,0.5255927253629346,-0.8163950306770601,-0.07479500827864183,-0.19200062140319157,0.8852113283583674,0.255082451177161,-0.5893725670773347,-0.8564780740135264,-0.4928653537865632,-0.0182427871210971,-0.682271196958016,0.6804378815232429,-6.302795910467325],[-0.5758601302965789,0.5970400559986422,-0.873370223633236,0.24511311694712587,0.5011172880225395,-0.3544709956007256,-0.9890992123010333,0.03866630909004985,0.07655209135784498,0.38560753618446825,-0.2437971299510363,-0.867890430722604,-0.2998389708100814,0.7389817253995565,0.9115947900338016,0.4522478003564445,0.3143450934410248,-0.7011497795249511,-0.5027242349256646,-0.2508080151469169,0.716570626354427,-0.8101075401910544,0.6066149543535745,0.03454806442535729,-0.9893856473023165,0.36424646061759286,0.26780709165160144,-0.28940806917530754,-0.5753306414709957,-0.7949778762818752,0.8180110402927855,0.2918629701481035,0.886318285478954,0.46172184101003466,-0.7784443370702452,0.6896215720763577,-1.3344307744452968,-0.025618447734428812,0.22464807100981568,-0.26704927372079296,-0.1263200442050313,0.5374497403790154,0.5314487035359231,-0.6194058849539203,-4.1548919196163885,0.3998428003194071,-0.5104544701335756,-0.8928668850810024,0.6048809739059313,0.07219367893747138,-0.6738069342548805,-0.3391146761461554,0.8120785111799705,-0.46816369835002036,-0.8152857474252083,-0.4235167026832348,-0.205244428719868,-0.04321856911103343,0.5983145258427961,-0.2520021270761477,0.7677506671482097,-1.2275890602901465,0.46791212667973586,-0.6886933995955008,0.541517460192307,-0.16093265794883918,-0.20788110984728195,-0.7381836397966777,-0.9788884455412741,0.02089029825387273,-6.013411037392463],[1.0270007368375402,-0.8767797803273585,0.0061575259076531805,0.40491650410368557,-0.9114638857528679,-0.2676106643491571,-0.22127634620503514,2.3876120433548857,0.5519438230714941,-0.1288495536156713,-0.20462245028436993,-0.4481540084702147,-0.07985460087734292,0.13614460583178928,0.6479431288988846,-0.7364737740452627,0.5955033759684758,0.8219445363694875,-0.822793909141015,-0.9893573032195544,-0.23065288577197607,0.19390913002294355,0.22010378765801467,0.12900253124189842,-0.11180854493587002,0.6677318378266599,0.5298091378355939,0.1087438228705154,-0.30745391402151395,-0.7645435117936182,0.16172171427911677,0.14435947292088736,2.5256728025082116,-0.60254497612475,-1.3331214602424357,0.20527449075739929,-1.1908296475341207,0.6155340145806502,-0.4275449184103697,0.47340827708412625,-0.48386621483160963,-0.26926514616263003,-0.8334879479474647,0.04700952957769935,-6.064121353131048,0.30233379075439504,-0.8306993818222639,-0.9239361358744987,-1.3963982474577878,-0.5055042902459712,-0.21108310667777166,-0.0017802185099000342,0.3122347402092896,0.30408080954633276,0.5577834884206149,0.11724194943768443,-0.1660662306522753,-0.7091466388216761,-0.7510942336272659,0.20523128785881162,-0.27606601937263886,1.274191096654841,-0.3032533689181653,-0.5105879447142415,-0.47419804426268486,0.781419340100518,-0.1871032740647815,0.7078192428694914,-0.6378477853955155,0.6950193292227052,-6.804376059569832],[-0.765894581632918,0.6228276349579528,-0.011249973712166784,0.41679757352958563,0.6394077778732852,0.6706821169423922,-0.6349365580161263,0.174853874571132,0.4713868494491282,-0.7130286986695009,-0.3817276886797017,-0.7100576586498847,-0.8965088087107578,-0.8752118728656847,-0.0335669472902173,-0.7932330489482441,-0.6505610798272752,0.19959996665505902,-0.360218951814165,0.16255472816116123,-0.29107189089206337,0.9534850263123389,-0.20516356859677642,-0.7055320806686568,-0.8619020596846506,-0.7752766053333279,0.7413553286731428,0.5429822310037246,-0.05302138941367743,-0.6963211278042442,-0.08378275200426694,0.45622182389333626,-0.7951757903766203,-0.693002541092752,0.6549493501329162,0.33093443305703246,-0.06160497937326526,0.90445417306453,-0.33359111599488783,0.9926535375449748,-0.08553504913120018,-0.7343888330105408,0.47803916455394946,0.5203350301229577,-11.289892961740053,0.9989628578561736,-0.9511408754357596,0.6061676867658914,-0.6327514473863791,0.904309849659148,0.8543327403077355,0.3737767626549726,0.49117161955620475,-0.8657132163471858,0.13151577526224897,0.31653002901961996,0.06906461780975226,0.8726059628605739,0.8188073345001781,0.1571667122169267,0.5631130670450034,0.6364007459186335,0.2936894385523454,-0.9181734411412249,0.10911616284556268,-0.855186781882305,-0.9442591163139917,-0.6197354345906108,-0.7181029377459811,-0.2827539279720823,-10.925720803108051],[-0.9040026220534887,-0.833973936189608,-0.8608345450827724,-0.15989214867722235,0.10861807832652152,-0.3394704523876822,0.04495186376070434,0.769023591620461,-0.05775511807981831,-0.9820895175864334,-0.27742236473441756,0.00800191190493547,-0.5217345995183214,-0.31018447388303283,-0.07274587614104398,1.031226453544683,0.1098379294119631,-0.09880022094223774,-1.6476783118133298,0.28227765061850413,-0.3305153266106476,-0.2462791984553742,-0.5845621946373765,-0.19067813363921565,-0.36425778628507155,-0.3085000249337683,-0.4493243646927479,-0.997367716033391,-0.8827056930446343,0.06753170592852097,0.3144423094913278,-0.9984735149863601,0.19766683214380143,-0.01972718680104809,0.6844847386253506,0.8857628861652439,-2.715630822468676,0.7289093504208514,0.6938361538254728,1.9137562605699039,-1.0843927088754488,0.43821486828140727,-0.45500782861696604,-0.17871076839502154,-4.683288529119746,0.3268868262568641,-0.8674219715854159,-0.6181174637164196,-0.7173983333038885,-0.5344944877246836,-1.205849464310663,0.7299792928506288,-0.5162149294221299,0.04428426360882404,-0.9714081051470438,0.16772055287156426,1.5058356829074306,0.3104665619666875,-0.3983903712143153,-0.9924611923757046,0.18528310545882806,-2.6602034680728517,0.21300657480800844,0.11282071946616544,-0.3110964832102583,-0.7709388937099455,0.4895913184713646,0.020566907987134744,-0.4283712927181123,-0.3720670626579189,-6.056431827711796],[-0.20069583058037552,-0.4814807539793732,-0.24022263831096283,-0.31878992370832154,-1.1850104337551017,0.86714212197277,-0.29588399977228136,0.5514363189563625,0.8595230796934042,-0.16940831182429789,-0.15797739956785142,-0.8166445189104531,0.7295339942877291,0.6352843939137239,-0.8696907270108978,-0.08680395759582807,-0.0344562555980101,0.01938137095812441,-0.9392559892771605,0.37959031251618824,-0.17206272759199734,0.0005854935809299805,-0.464002548611532,0.6723305051493526,0.0630585248274549,0.04805989854473689,0.7817808285169092,0.3805243759712101,-0.9660775424686076,0.17798737399894526,1.2287639558909027,-0.09617469908299672,1.148390492286516,0.7312504325861089,-0.3434627985608198,-2.273505962665496,-0.06737732513751314,-0.9744175379352806,-0.1295245726572631,-0.11062246675000012,-0.9971842689863516,-0.7411451074025924,-0.9100038968604693,-0.4645055595201779,-4.942827077971244,-0.8713871120661345,0.23299265940398567,-0.1467704556183308,-0.4022781843157108,-0.36651837680139515,1.235347493463398,0.8148843318573543,0.729147837221315,-0.3182215248682042,0.9274991623206048,-0.9572578716579708,-0.09472908664797858,0.085588008227229,1.2232588325613034,-0.9379665731329859,2.0586244820354023,0.47724215272771603,-0.15714271333095708,-0.8972869199855145,-0.9020755547449956,-0.8731273578477412,0.35988353179611277,-0.8337179836885802,-0.2928627139508992,0.39603973376223567,-5.960880330220041],[-0.9374672628128565,1.65236060000948,-0.4383054813073908,0.9386525095261318,-0.5232500214904995,-0.31504989503594877,0.5424562239831577,