{"HiddenLayer":[0.0000013602634591552605,9.062660341454495e-10,0.0000018927204293503891,1.929748574006131e-10,0.000018366404304202557,1.3356647031245183e-11,2.2211414768544007e-11,9.758400573545005e-10,3.333823911153526e-11,1.384195991130449e-10,2.3576319755720087e-9,5.093173216203246e-8,1.1793474538831368e-8,0.000008415347828821918,7.3125982471526855e-9,9.159799439634763e-7,3.7762269596255335e-12,0.000009250024232520485,1.0030800218383135e-19,8.162014493676606e-10,3.9732756827862205e-9,4.5602364271334465e-10,0.0000024548113612289215,2.865686957696804e-8,0.0025340954715161214,0.000005543884315314532,4.752329192845092e-7,8.205865344487878e-11,1.0781348314728021e-12,3.2873663385572174e-7,0.002550132315141814,0.0002143384490715132,0.0001866375979764014,0.0000034873384796129782,1.3024941392891594e-8,3.062505415925294e-7,1.3085981612827415e-10,9.161268993040918e-10,3.199794445406884e-16,0.014065789688447716,6.060167545579121e-8,0.000005096466818466466,0.000037535809305708806,4.757176767162056e-9,5.220889526500055e-8,2.6175329455949984e-7,3.497431611974719e-7,2.792514302278568e-8,3.1794030638665524e-7,1.8107726537229547e-7,4.306379966408817e-10,0.0000012336655800581573,0.0012399141794224467,0.000010828124182613469,0.000003136023140806969,1.8393034463708018e-9,3.3610937421321405e-20,0.000002632081427044394,1.5506507533646545e-8,3.760346119602933e-10,0.000005691841941848288,1.502286553702569e-13,0.0010950836801410639,3.007462455673679e-12,0.000013329414292206604,5.139224033100679e-7,0.29547322832566913,0.03851389835531994,2.6009193232402117e-8,1.5496182701893286e-8,0.000010471946595514387,7.132987283921064e-7,0.000003984996398070789,0.0000013222132478525413,0.0000020643688380741373,2.8280239860651807e-13,0.00000312857857235285,0.000010354233627629288,1.268740158890101e-8,5.598907864125736e-7,0.00002448728224280754,5.00656718645918e-7,1.134647632274697e-7,0.00004323905370989244,2.297526027993373e-12,0.0006977629061963389,1.2338273534940903e-13,1.4716199753371328e-7,2.5035751086708334e-8,0.00035490338102290203,0.0021385845154662485,0.0004980788149633337,0.00011200078029642043,2.0766216173858338e-8,0.000021731160379956334,0.01913827211894851,2.3674149958682874e-17,4.060365214357858e-7,6.066279206958467e-7,0.000003752730667325139,1],"InputLayer":[0,0,0,1,0,0,0,0,0,0,0,0,0,0,0,0,0,0,0,0,0,0,0,1,0,0,0,0,0,0,0,0,0,0,0,0,0,0,0,0,0,0,0,0,0,0,1,0,0,0,0,0,0,0,0,0,0,0,0,0,0,0,0,1],"OutputLayer":[-0.0043849434218941104,0.2433100423916842,0.043395705582401876,-0.011339943179294895,-0.0038839802907140227,0.0014605303571462909,0.056955142929947876,-0.013190714249275263,0.04834508342651492,0.02581214766298475,0.012470148406186203,0.0014436824461221656,0.1398434272521304,-0.004448946421349319,0.1367082314664338,0.11140619146541297,-0.0034101162051700493,0.08737037410338733,0.12457789443590926],"WeightHidden":[[0.749585578768654,-6.676760330470727,0.3273741606558144,0.2832274272619321,0.4882748118938462,0.9001601295830773,-0.6792774333966983,-0.07778827750116339,0.3918108282362728,-0.521934207034819,-5.708139857652046,-0.541355876141286,0.5146972262218648,-0.6045035177487579,0.5868395153584532,-0.7344797391894938,-0.7978693845764151,0.4115054648071846,-0.6524207779067298,0.28070358698318587,-0.2528952501488099,-0.7997824880475908,-0.7318314733044435,0.19167201563054787,-0.03588393571534211,-0.1928440839215099,0.8535449057861749,0.9682393612332555,0.8054908337942647,0.453261665643359,0.8943972213374909,-0.517469101021976,0.5983347097452364,0.04649095473921422,-0.7642067532831079,0.46947957104108307,-0.26159238507552207,-1.021609113820899,0.08142762726479888,0.3399410795060751,-0.941161083781904,-7.290436632705607,-0.7232713589582264,0.37205270375910243,-0.9596122661734452,-0.6352837513500781,-5.8068023260192,0.12153238830220624,0.7522166708443192,0.010128241449443378,0.5143787901060948,-0.4800352996034909,-0.7872984751308627,-6.8295338310155875,-0.5749886066577065,0.6222779448717566,0.4448001552804269,-0.9813054661164962,-0.2601179530280752,-1.0090484001802136,0.6058603905599461,0.916482544254511,-0.5835517685239642,-8.175913662221026],[0.6487595398483106,-9.739512480352403,0.29316453820050514,0.8893255063435339,-0.021164484410338205,-0.20487576290244225,0.8277787921345858,0.8030583961811533,0.2912083072628986,-0.8625478376409491,-10.692730700296242,0.6793523282597037,0.27469421580973485,0.05771560244603272,-0.6047276546083763,-0.9573928635400172,-0.2732898166767176,0.3786366557771076,0.24828430449357722,-0.25822968355543163,0.2636201210823604,0.02049199740780742,0.40819828140384895,-0.5625675375609359,-0.8606347025140507,0.13521207120730214,-0.30655304841542697,-0.6221626730003254,-0.2716041326955277,0.3649673905129779,0.9835149798147393,0.5582269214832074,0.2685108386900816,-0.8384761543606979,0.5010293560069617,0.38777118023622187,0.5266169126153228,0.6457108425026024,0.44265016164627746,-0.959777746387684,-0.337768259427221,-10.178012503397492,-0.07438772793194204,0.926181796152845,-0.9965213303471272,-0.5576032706451955,-11.212916165103781,0.6210618445829766,-0.5973243673218824,-0.1693023957015785,0.46241066219538585,0.12434528984563764,0.6173212787548632,-10.673155179979247,-0.8934855097698523,0.5080271182843172,0.7664666351953927,0.771789881262915,-0.2065518764864828,0.09028471483832871,0.5112709656103971,0.8751059310905193,-0.7644808235540691,-9.935528590522555],[-0.04271003924051871,-4.590186184322382,0.5920321677549993,-0.9455651203969988,0.807530187658578,0.5023739212679692,0.25816511442528134,0.7328209246547165,1.0618507270206017,-0.7396609954218535,-5.198981756411184,0.38911909701998226,0.6112002722001001,0.02308527539196067,0.3714974429340546,-0.14994055536587564,-0.618490458949939,-0.0426134056650237,-0.09065790678554042,-0.9965652798375617,0.21873009963223933,-0.4254391621403865,0.6066700506144347,0.8885101998158065,0.4092206239474185,0.4630046878001145,0.5839200688663906,0.3419395034424194,0.5467926533563378,0.8950481487175065,-0.37158798156101236,0.1666513826626547,0.6241564590074402,-0.18891648861701968,0.3943598149756371,-0.4483303348672903,0.3513274525923996,0.10160212598533479,0.6256843533149726,-0.2291337616835524,-0.15014244578174943,-4.055709927779943,0.3965191635495237,0.5215744797030977,0.2574369727958826,-0.110774733534321,-5.1686272091546455,-0.32997593503974093,0.972186274940822,-0.6399106448789806,-0.29324506585745214,-0.07671123496113767,0.5981696369794938,-4.2207853820045695,-2.4239958160997204,0.31187912748305524,-0.3219623099339569,0.15974627316175663,-1.368276510995941,0.6667280291245584,0.27010212247287935,-0.7461114231033317,0.6411139626013873,-7.95177580424562],[-0.3136695172221918,-12.689036837065641,-0.3263249474717532,-0.2345023161433419,0.0027423261111505382,-0.6100396264658589,0.2422593453124688,-0.41631611140953767,-0.10439244912912773,0.6233076578024502,-12.230845385913662,-0.9102943059721539,0.3957055293257383,-0.5223979050315413,-0.5013071154957405,0.7796657975211685,-0.46004195584431845,-0.979818049441204,-0.42386596972682744,-0.5665170169858992,-0.17718389910506566,-0.6801109083338939,0.8498101111572645,0.832599774950676,0.050168251582685106,0.044917743355824866,-0.3107241985884116,0.6737870276144189,0.3183971621173356,-0.6841967562862037,0.6041248958766414,0.9276548531901928,-0.3548367069938708,0.2032786639655522,0.11920138423082627,0.601871026488578,0.4652019114142426,-0.29133292000571004,-0.5308285215514202,-0.89710213705872,0.4559181450330905,-13.207113015990062,0.893653579925183,-0.013808760706769611,-0.8492827735977213,0.9683738518876687,-11.649185906090471,-0.31488951437929075,-0.8866570314503123,0.28103869787271674,0.5982855847666992,-0.3555054942701793,-0.17421693456240603,-12.59045894785064,-0.3104950329396634,-0.8201875971448369,-0.837319215035143,-0.7916814311529754,-0.5323139796901114,0.0011031676473847929,-0.008997176544623132,0.51368298193415,0.23963877123145658,-11.31737251670108],[-0.9403604197007892,-2.4618585277477667,-0.07459281632881846,0.8335703330934787,-0.3269704553435163,0.43736217887911416,-0.8184176580808585,-0.705245002352898,-0.9068986169669733,-0.2359491571858321,-2.76481113906497,-0.16637937841424563,-0.8906609746791081,0.15157810885019884,0.8917063977208118,0.013093214917139093,-0.3188001021241404,-0.9803157319912139,-0.7956280682520601,-0.9350349731563387,0.1802717337170709,0.11129197188325214,-0.255786660363012,0.055320900886464575,-0.5984571853731766,-0.7524024176952085,0.021437422073981232,0.4177263673325185,-1.0111993219104443,0.1346317998710808,0.770584334053946,-0.6134711775298654,-0.6598017779884621,-0.95152498073747,-0.04433476452561016,0.03488043186733125,-1.1343970821820435,-0.5281251622074149,0.13632308031881138,-0.3276453204249986,0.6618167952477748,-2.8292554724524726,-0.15181462372591942,-0.24803423350224302,0.07871179716219769,-0.9993999322477611,-4.325986146245802,0.1947549543766162,-0.890761013863539,-0.494650537789947,-0.07382961114202839,0.7278600779688871,0.21775154234461366,-2.8338979311602914,-3.005717704284903,-0.7409233060254223,-0.7982914753911984,0.3121113822983457,0.6445954896199954,-0.6042809034542151,-0.49050214168125944,-0.48695405014700033,0.7583636631027383,-7.467838921358586],[-0.47609607959143535,-11.476652265581626,-0.40926511577112734,-0.9909412070071519,0.9550016677071677,-0.7276442871358816,0.22301773988997595,-0.5645379712692482,0.664953886703566,0.8858306223762682,-10.75679191010444,-0.03595666875252374,0.8165469133081248,0.5540446801674894,0.711204860613133,0.8509107056949367,-0.03158598880717925,-0.9764612706361105,0.9557335578156751,-0.9664859079527235,0.6383450175018893,-0.2635369329083802,0.4274855715776442,-0.5683491071797825,-0.5176774099048218,-0.6293573701042741,0.8518915125726341,0.5633775055524539,-0.4059492169608808,0.6835284941930202,0.9435412754655701,-0.6108491940174012,-0.11656571211165132,0.4697772395657091,0.9874896365453537,-0.33907111929855577,0.07941322414981553,0.2239162504191746,-0.30484899744856886,-0.4914842130266375,-0.8523200626986152,-11.066141048902521,0.48544811886960937,-0.36474261483510534,0.3995576526823796,-0.14927007484455412,-12.278351803000314,-0.4470901441982741,0.8737240527564767,0.6732646535414238,-0.18290412717821702,-0.415349597944207,-0.6311068570385997,-11.856863190224162,0.8479909040306705,0.7912725426689721,0.3174184152885096,0.8499380603172771,-0.21352092585897106,-0.2491298973043323,-0.5121165164963171,-0.3048399985815926,-0.915047218043652,-11.201364631875913],[0.35670880816788986,-13.111972420503028,-0.6016192652795029,-0.24749806064071864,-0.4957816910577063,-0.4942418565417761,-0.6686091102514613,0.009569397441108593,0.10262279763157615,-0.11173246423203353,-13.543957582061761,0.618256137300241,-0.28998215793163545,0.40937857753762635,0.6597890206107999,0.5830663206221512,0.16155448984794582,-0.6752330344211128,0.7331492442063874,-0.4489326810004235,0.23128774148967857,-0.7618067292977995,0.6040404116647131,0.8612655392438244,-0.7802560135955523,-0.009723950158302967,0.3547191835084089,-0.1813054737962124,-0.020252099568256545,-0.5470874674245294,-0.862821766197332,0.30993429270409956,-0.22838408861165027,-0.40828512919489723,-0.6672542024884548,0.610824927866705,0.6266383206036903,-0.9429224416320641,-0.17535640206758285,-0.2010299700970794,0.22376213633445466,-13.075687876542958,0.31298492355973884,0.9401686379738444,0.11868960063012877,0.8276878821618079,-12.427338417370807,-0.3522297455535487,-0.6329482837989059,-0.07090477193658352,-0.530894650116545,0.34969802820933776,-0.03607349649774784,-11.700876383108387,-0.44145656096668295,0.7853276876237018,-0.17582025440066715,0.6527951045668698,-0.5963494124339532,0.10841531914495664,-0.6089835317898494,0.48106860474892255,0.9367878478426099,-12.716843800272377],[-0.5846860458355835,-9.53625979849922,-0.85497256791026,-0.8144375282081181,-0.9577392083291577,0.10162320808161796,-0.6663037401985786,0.6977430820220991,0.21028939320267032,0.36078943575167904,-10.733257691945004,0.8321401567331279,-0.2973977187149289,-0.778983516029273,0.8309988479035666,-0.28921357123902036,-0.43615428605956924,0.9070140149688182,-0.5369992718800977,0.578510122255546,0.07997962348266198,-0.6808177864468368,-0.05583901722495764,0.9039730156606193,-0.7837810902125412,-0.9986682339681008,-0.19428001237883674,0.34763343350318116,0.4575912352371164,0.0878280412181028,0.7089779433878853,0.6474250663109228,-0.9681372001119523,-0.5992714828129455,-0.406987601637392,0.6873964185368581,0.07144282788767597,0.5172526577789761,0.7853496310556964,0.2217769292291152,-0.03972667893198656,-10.707511495906779,-0.5859426751906875,0.0001122848398411692,-0.35653320347195133,0.02991171995083187,-10.077029790627728,-0.3179640437229438,-0.40605515477283,-0.21307486088534525,0.6816919553443064,0.8467635285764936,0.6483851447739637,-9.932028296262564,0.20957871464405675,-0.06938439525582868,-0.2730171626250491,-0.15586929780745437,0.23438699685827077,0.20927899562857435,-0.3293123997006157,-0.12500830781937894,-0.8270266525646507,-10.760227761733193],[0.5689073901923704,-0.6053293803428541,-0.42741210288592474,0.02012519766460253,0.22706648592251386,0.35758242873151214,-0.822936423967119,0.3588123799140386,0.25564148904841366,-0.5261670029187078,-1.2764480655558048,0.006469899156615381,-0.39118039604223326,0.9180324252182376,0.21864995605664178,0.7068229059927564,0.7353145007807832,-0.10409054315218846,-0.03695281556202589,-0.07552072190763823,0.7293174357883534,-0.6728560499128522,-0.23801025966588413,-0.09307147271024674,0.44759824667667364,0.7439997180545187,0.11607455070603051,0.21187836916057762,-0.2871480190726173,0.22246120997294644,-0.09694236535829699,-0.9325019390437229,-0.8591691571018663,-0.43032939510776697,-0.7308085877347016,0.8483817790811637,-0.8868125478798324,-0.7301575565312792,-0.9248906447721714,0.7655419170895237,-0.35740739182454834,-1.1016818131056767,-0.6162574101912097,0.11965017501042995,-0.14038965909527198,0.08497972160192173,-1.1508668875667334,-0.5549776831769779,-0.8468891672418107,-0.5226370487663865,0.14772732761217208,-0.4377903478695375,0.33359635765643,-0.7418754414188665,-20.291299933690603,0.27997008812067803,-0.11381541274464914,-0.9220899586754495,-0.19275303328251103,0.8052807716243513,0.5987468318810992,0.057742037014555235,-0.9061021611979256,-22.90050289340004],[0.7453094441176111,-11.56626989770041,0.9016138226538148,-0.6725802641818104,0.9043482218117949,-0.35570355491527605,0.06033683486222678,0.639496360149633,0.20017215932805943,-0.44891894541535515,-12.390701356829142,-0.8283838369326145,0.712073884633249,0.18406531199089707,-0.5374249406154148,-0.3042374889279216,-0.9112778985157238,0.9251581400448385,0.8725272001954029,-0.14982773972923658,-0.37232786030858145,0.07974827532589626,-0.8445866808728523,-0.26400995497684454,-0.875214190138821,-0.3784472311463203,0.6398294862675762,-0.9585376604763108,-0.7435887745239966,0.9215238224184245,0.07982419201354582,0.4844207616807589,-0.14920251074593952,-0.72185787147907,0.30759651348794775,0.45660113235190997,0.8954110378415095,0.9283644198599644,0.6561115584920257,-0.20936189751951362,-0.0902808421934215,-12.20412351374096,-0.10462724068386586,0.6331646382992986,-0.9226855944275003,-0.7312447511953543,-10.703087761287174,-0.8547682605260026,-0.9298146071031101,0.2535454542521131,-0.22695176894013483,-0.2557250169693078,-0.11976048764213354,-10.738343436146481,-0.5853031772656365,0.6587404439362547,0.33376673124291556,-1.0013061918613133,0.21670651945197358,0.34352168747719847,-0.9456356692247962,0.29351581195920917,0.33462552266076306,-11.06105300405411],[0.6009333442518859,-11.014454326684078,0.1523004586811592,0.02592640625571271,-0.17119677994891205,0.4598733519305833,-0.9946823185371984,0.907931934108275,-0.8203345550809941,0.5955577054228987,-9.819382051629582,-0.175027183252199,0.11213849570127489,-0.6441236853865892,0.8360019634408085,0.8370311797372338,-0.2782506916512784,-0.13413461071972727,0.09210672965873525,-0.38970677569004786,0.5969479712156348,-0.7739898211318849,-0.7574921219882094,0.8576570863693637,0.1096177316199403,-0.8895349130681798,-0.11159988741937654,-0.9878611486499951,0.5517391100014718,0.14603462914529003,-0.7864617086214072,0.30744711962572635,0.4497405027243258,-0.5491231714313116,-0.7858773000715376,-0.27137906291384184,0.8370237162651195,0.06243720541865084,-0.9591979877475595,-0.11008138956496145,0.9987179466883042,-9.991032499473771,-0.15303537937511347,-0.27613409148664425,0.8926570247859172,0.38159849212861885,-10.628466177851454,-0.13659418032080822,-0.05079272160037775,-0.989595085431872,0.3363330695971991,0.6009669016826914,-0.3621654883239742,-10.132318383787096,-0.5056507463287924,-0.03550400270225779,0.937686076399858,0.9156132156718566,-0.021265413795267092,-0.9524544787774728,0.29996890162661527,0.1017219848155472,0.3854710048813147,-10.12072530107546],[-0.19058207223855908,-1.6522161734623004,-0.6785637861760108,0.6844935554229432,0.25613994446002863,-0.5855662202524625,-0.9390836443125102,0.22101107179863072,0.2145720454486729,0.7501829205758265,-1.911715545692263,-0.5929625035585459,0.5505301776325922,-0.21573747351411718,0.10689526220922202,-0.6604430605582075,0.7475381011338283,0.8775090685088756,-0.08003614791008248,0.7621595337291944,0.11857110595237189,-0.8452658674104188,-0.3765007600369448,-0.8705153887300997,0.49886644873775876,-0.7362231626291078,-0.5410139266570138,-0.635549904300642,0.7414373147580774,-0.04888544612662327,0.9120741991195448,-0.21789342259889594,-0.8526829473815292,-0.9263729956406662,0.9985460998761102,-0.6668319086990855,-0.8309680653255014,-0.5604755770206468,-0.9469013929555349,-0.1154189391452716,-0.8356709205949578,-2.47669100912368,0.7660375264374298,-0.21971778830337677,-0.10687236417089346,0.2337619325728492,-1.58196946298027,-0.9095183777245445,0.22725980410328175,-0.00797308359903257,-0.5907326438242619,0.8655292193601481,-0.6909440048172804,-2.1141222241588493,-11.020381338687685,0.18168492618039137,-0.2629235188600608,-0.4558149048983783,0.9594570845240509,-0.9070260670073755,-0.10660090600433686,0.27197147547960593,-0.8036862362593564,-15.024788218962831],[0.4959714019972082,-8.30914859069097,0.40355352840863795,0.2825321334145358,0.5497610505101651,0.34247945359774357,-0.5606938734289044,-0.9402655165104135,-0.12627836825807662,-0.8758884723842455,-9.736683221623842,-0.47390845190888387,-0.9061026480241781,0.541348651557148,0.5796925448781642,-0.8701610115211867,0.5621195043101882,-0.7347217342862216,-0.12862869069421004,-0.8291955055143696,-0.175083234691817,0.44208766120610044,0.24246689034527313,0.049937236764096206,-0.31952820913025304,0.507216089092763,-0.7742640160860226,-0.007089820260463336,0.3014181814507105,-0.7009317240096171,0.48406181272803256,0.9046714005235486,-0.54533973457764,-0.5914109392631347,0.661404183785348,0.9529198766688854,-0.5058228305536501,-0.03973046259417849,-0.09065780011052241,0.6539402772745188,-0.4697637023791822,-9.644202762566414,0.8338464829264299,-0.490187489373617,0.6896950569436242,0.21147096738036167,-9.294693709907362,0.44015786255283407,-0.9118172981812489,-0.28242034845812075,0.0032414771963289613,0.08193443736468005,-0.8310235376368053,-10.022689133653053,-0.8979654257759918,0.09425594004257903,-0.1912850730967111,0.329449596295179,-0.04507184609803161,0.687242833638523,0.4241383564610424,-0.539122571278276,0.010612109987331355,-9.293493996698787],[0.6736309948306854,-5.029764055557598,-0.8936447724045895,0.7135387081305491,0.21966918918827938,0.8028209114420821,0.7275029003773021,-0.3305885848475092,0.5942076786157302,-0.22016653415743712,-5.237914057085951,-0.19185720189074462,0.4669585900670982,0.2553933969317945,0.7164238411920748,-0.7942654480939118,0.5897013559061359,-0.011297289222090326,0.5397951208192803,-0.28280712495055993,0.15019290243778274,-0.44022471826725335,-0.22057508738971005,0.2247648826484995,0.8702925676293386,0.6258262104164602,0.5522055216408662,0.2547491069208478,0.4227244953709879,-0.02872238154071769,-0.5778824851528328,-0.4928760174842189,-0.3954986315295838,-0.017560696292227635,0.7968752459347788,-0.457639582548289,-0.6817045997286401,-0.5116695361930812,0.3685950749936199,-0.9777472925029596,0.5006394368201106,-4.543922038186864,0.47762994899828,0.5860633653517768,0.3547655879373513,-0.7686422016218758,-5.3734806472992505,0.7186020154546564,0.5719464512600142,0.014366086445214912,-0.6557612257265308,-0.4922119292446807,-0.34225106387506304,-5.569904453939498,-0.381817290198304,-1.0620331674040489,-0.11193313169261553,0.781122314039739,0.5138850485189292,-0.13595151103720154,-0.5602678618764328,0.8083123171276865,-0.385557273310356,-7.250243739329794],[-0.8055313517577884,-9.192873103442487,-0.6972871772890977,0.5054296884431576,0.2536547579054998,-0.9705465255324611,-0.4031021466082586,-0.9232594512108895,0.1949163959578055,-0.8155035080636814,-9.463246285570063,-0.6631554760437905,0.3190868900752206,-0.8597799610476788,-0.4890441453424983,0.44248211180229935,-0.822703043568738,-0.4682520349484851,0.845742519520243,-0.6227714904207562,-0.44024170288158565,0.6458481792178175,0.8810881870657684,-0.7857922799001638,0.22088847638246822,0.8390308396849909,-0.9997353888212238,0.8547298157416856,0.3447767724860265,-0.10427929068314158,0.2840965864977305,-0.6410594558941641,-0.29030209122671663,0.31152107159243525,-0.11965445781252147,0.04486965913898365,-0.4066147687456187,-0.18251935182852194,-0.34272964029951775,0.883656454876173,0.7434879532952521,-9.52150832447371,0.07528265938943854,-0.31589329844217273,0.572267745831257,0.2707889768266016,-9.22538287665545,0.1504427786704662,0.3319191588927756,0.4032922479291442,-0.5156081241986954,0.8578048138155462,0.4657049531897327,-9.448786587713798,0.49426141975931503,-0.47211685947117366,0.23989859926166585,0.8279647611832102,-0.30727822102252766,0.4413979505786569,-0.5953727132804502,0.8046889632698618,0.7402952015976435,-9.227919915652366],[-0.6613866350042001,-6.59905441392423,-0.3256255866052984,-0.0336863816016349,-0.3593646378918395,0.3335820884992549,0.4768344348582578,-0.3577793393831878,-0.7423937532797034,0.42473107260490317,-6.981874576042885,-0.838614649315274,-0.21722126509009262,0.2974212067917084,0.6694662311726739,0.25266248335217606,-0.8024969057607649,0.2808483751659473,-0.5641115660169055,-0.3072623146225415,-0.8313754497375955,0.05489559156969521,-0.8092086013755038,0.3798322173348151,0.07324340926535168,-0.9990576704862641,-0.49873418547139714,-0.9023039521272267,0.07080209563712513,0.6359144388813656,-0.5061215293424097,-0.5469059615205274,-0.09037759800095693,-0.8645130707044559,-0.3695674258217227,0.4086028064526588,-0.5062571321180926,0.10873608300479133,0.162606980686503,0.5779052666609504,0.01780154994448395,-5.896893408086531,0.8820526664625882,-0.011264335520723789,0.7747722966142481,0.40222558701561506,-7.00168991236731,0.07260124930166857,0.10780809393941873,0.869747868324181,-0.3752826664376633,0.19969966024385905,-0.4286007005470299,-6.850067120497988,-0.7058363273305084,-0.8116016435525966,0.694376191540761,0.34032333232493606,0.5167427290521031,-0.27156525867641995,-0.1080510150157565,0.029322452684001608,-0.45737261699584464,-7.24772353592723],[-0.3178122805370694,-13.378832986603983,-0.39697868409277576,0.9854314561721129,0.9223837133449735,0.134099563182007,-0.794336799606711,-0.3341523091669327,0.7880800964233513,-0.9499204085450604,-14.454075640576894,0.07836647199784072,0.9201435147591207,-0.8514795439162308,0.9197951715616408,-0.436641868073854,0.8003502241908997,0.9611482849737027,0.3384037034282673,-0.6327839503510783,0.26364459959310854,-0.8866823644206739,0.12880437642156062,0.2662526567713168,0.71292507957977,0.27518381929121166,0.23258032087405245,-0.04780484944519757,-0.9883742803052351,-0.9647232394400058,-0.5190952011007919,-0.990119187675328,0.9197787195365495,0.7069719587966983,-0.5381945973466153,-0.08663159542517039,0.5530069598076937,0.15855348676235362,0.14870944764520097,-0.5413962939799931,-0.5892756425976784,-13.666031837760368,0.3717882379053885,-0.06352495828321274,0.21619376943200155,0.140926832739797,-13.92880800819445,-0.9521026995408524,0.8501613812904304,-0.08110987516181213,0.987904965061614,-0.2575463833686315,-0.7137043623316808,-14.678404093791753,-0.12459092119482904,0.12694049957446332,0.6585353896213424,0.3358067473175381,-0.9996484388067077,0.2934220716170892,0.5991417574795429,0.3986660954286298,-0.14138001209206066,-13.625171835325812],[0.7970943584424236,-3.578523271384001,-0.5877482760403461,-0.33721617635665985,-0.39215121651627693,0.9563350642259243,0.48517794824202637,0.06292719640930343,0.7323624964951586,0.22520800557355133,-3.9279992964497112,0.613146468541934,-0.2779975713647816,-0.34090447935240226,0.1439801074973475,0.5987702261657409,-0.325158850219636,0.2859166418295356,0.0359178924358481,0.6995656482233524,0.09232095070161478,-0.5243506771774283,-0.2770443426350396,-0.5086208167089675,0.5159645565562411,-0.21922360150485243,0.9890128162457265,0.7740078369515542,0.7949585265174282,0.9489859850638693,-0.41161569472945225,0.3096538288199086,1.0034346468563449,-0.8405825016462138,-0.6413841151451982,-0.04530314993487381,-1.0926107688831084,0.3039369523744289,0.9398157405566961,-0.922988315661934,0.6994907300671023,-3.28967070454452,-0.3259917988689221,-0.8401454449781819,0.16962800286458288,-0.09079052514670355,-3.581997144447203,-0.8440443004143893,0.4226887619354609,0.561997683098407,0.9190096313518199,0.46702957172132903,-0.13004659975001256,-3.210708281798572,-2.842983926818355,-0.25039638462031266,0.978674487460097,-0.37926768677677947,-0.10344093292701373,-0.811618429965183,-0.059774369708860325,-0.7410129572241617,-0.7027218085081723,-7.163022820230809],[-0.6700152383153497,-2.2074956780985726,-0.11429623553640766,-0.23216424228566845,-0.2060351769337428,-0.2663994944442827,-0.5022329351320838,0.652588230942774,0.34999267933806855,0.45047146842778596,-2.975536457022701,-0.2741202623501462,0.9826322296139558,-0.987602902865884,-0.7049532219286971,-0.19073430179770545,-0.2359026012672646,0.3427441906760864,0.5928679294703245,0.6339112203184158,0.15735057488786186,-0.5314616937713463,0.3094236356533475,0.48343472219268646,-0.8453494084923395,-0.9989488006878361,0.9897772832799994,-0.6409680500980597,0.3952661889462499,0.4379193886730528,-0.5509237341174603,-0.746926098547454,-0.4689922303131778,-0.9255107334306737,-0.1369734523252314,0.7735718210867981,0.14889558101606884,0.6221102651155884,0.2935075399913156,0.09113966230772291,-0.23471348933347314,-2.5424217438657655,-0.953362810080926,0.7307562021541101,0.041591456526944626,0.8272702171329571,-2.4345195202079393,0.3728186880205704,-0.6807793015154753,-0.42470209552079996,-0.8373973963975274,0.5086072319651127,-0.8716959074511688,-2.9863995312705214,-38.95471279086042,-0.21330772678354393,-0.470530681422877,0.3833164886415373,-0.25651815775088693,0.334347754898624,-0.37172189828429886,-0.347903284242419,-0.24530177516332397,-41.56279243829776],[0.4601059802424533,-11.199950698259313,-0.13525228498105024,-0.5819153422562712,0.811129702305586,0.12495281753224075,0.5721917391633611,-0.5906307666164582,-0.025315829339172004,-0.8420806526835488,-10.353159645733376,-0.2293826806981998,0.6688050453078128,-0.644676761574848,0.9835150544956953,0.8412030153874454,-0.36776178223792294,0.09604309600457867,0.6669355463820706,0.5477849129695357,-0.11971259858795853,0.23357257008892193,-0.011933233375332208,-0.161808489293251,-0.3565543588179433,0.48684464444306075,-0.23154506799117125,-0.3563098931281471,0.6557228808580098,-0.7664781307912796,0.04506297398387055,0.25770376030261316,0.3694602489646851,0.35031537099883986,-0.3475507897103738,0.2799771904116069,-0.7101847113392061,-0.8315321893877482,0.01221143589845351,-0.6484788531540651,-0.02468806220774338,-11.462275456813426,-0.17003401370776539,0.5798994315425722,-0.5450212805769795,-0.06176199653053322,-10.36645956614768,0.2037375866155955,0.33477176501651135,-0.9981925750101934,-0.24266753188944518,-0.7701979098740793,0.6506369663893189,-11.328594282406721,0.2956763322827503,-0.7294385034817167,0.7999010525734699,0.8689762180327444,0.6373228289906601,0.43628402181123044,-0.6983966673215929,0.9765308042648101,-0.30223225902831474,-9.816175234130577],[0.5267270393248731,-9.051976770764064,-0.3883947982346554,0.9709751692281595,-0.706408337212073,-0.3872632435889063,0.5783883617549984,-0.6999415469786209,0.4111289217013762,-0.27798882537600256,-10.128490282872828,0.7034947276288351,-0.8804799463438712,0.7005690513270918,0.8706474378157962,0.4923793064136635,-0.2794599114043147,-1.0450589474044407,0.16532238052353196,0.24053332500032437,-0.02410762740245153,-0.5870810986569034,-0.9043501304425452,-0.8550480129663206,-0.41694094547656513,-0.23021061708294335,-0.9021933202921131,0.7902892177619653,-0.8232790349035729,0.30662411192365935,-0.328195321838958,-0.27117061035914936,-0.5685509109086486,-0.878657224460034,0.6466241642653526,-0.4047823020635498,-0.3730805149933816,0.2609723849364525,0.33123583459986344,-0.6586024714054651,0.016440648449409675,-9.051347281269068,0.6823520926328374,-0.21733778080091296,0.7365131488654699,0.11859258116847171,-9.998176019661145,-0.7740080987006617,0.887942211013454,-0.16069401230241817,0.46913935895869835,0.5864162434301925,0.06814541455988703,-8.476516670089689,0.2836326704984677,-0.375615968126001,-0.2782482235165259,-0.13105828220747154,0.5736554080058712,0.11555524346556001,0.8241129671149436,0.12588248656378362,0.920641367619883,-9.461424348558955],[-0.8783255748817843,-9.336739572363799,0.2523264089328772,0.06933542162961359,0.17926380197456152,-0.6605920964041087,0.1445566640833294,0.03988412554958864,-0.8288981146941293,0.42472305456682014,-11.069357452134744,-0.10762438022471796,-0.47542480964201955,0.5332941799455535,0.48532759001812414,-0.9141303143150395,-0.972934825227828,-0.7542209252501838,-0.45296122573799297,-0.2852510678797111,-0.9292320354423648,-0.9102968060339753,0.13569776609530487,-0.7628080023890852,0.6069094936951568,0.7031437442929044,0.31817490705043916,0.22653960801641468,-0.1198204473658779,-0.07033103905390892,0.5552720836765412,-0.361012861492032,0.5960970918194091,-0.9217826423792839,-0.3866345788866567,-0.3260578325897673,0.43350057873716613,0.5488140434237376,-0.45721729856044335,0.6059728289564553,-0.39333417034894,-11.110322891792093,0.3128339068842134,-0.9133981676918428,0.33772588260135944,0.42726477519325384,-11.10845598766186,-0.8497404865410574,0.588678691133663,-0.13438106438127023,-0.6664628137465338,0.1868619206654338,-0.590049225497768,-9.8559881259332,-0.599876955984301,-0.3552822387184804,0.5891251346014249,0.9221430726907022,0.9512021074032493,0.982508128819858,-0.5470886534966484,-0.34339258607647904,-0.18618257923087747,-9.706547795892012],[-0.42961634693723055,-6.194645941765756,0.5513202372840442,0.23804138463255176,-0.5109720825091657,0.7864988274066189,-0.2952816017899591,-0.7447595807280659,0.5221470670722104,0.8136884298060154,-6.148428950579152,-0.4046746213956685,0.2877469590384673,0.700860939362404,0.4726438232251693,-0.6185025876444021,0.793942092843479,0.21313878624828964,-0.13425285561939362,0.04683517734809874,0.02060885248381158,-0.1694289678682658,0.7176853067264425,0.31008443789156953,-0.015297645853545781,-0.6877349351704068,0.15391323720222988,-0.5137259521045981,0.10547163495317814,-0.0035989852918264747,0.9004795121058818,0.93652230419424,-0.9182603521630274,-0.16435235879109494,0.06305526457015602,-0.14103162506338973,0.42240771172672276,-0.20541904060914534,0.13025823689550006,-0.25010365782702604,-0.7364282470480232,-6.057569968047622,-0.040984571965398425,0.7170827458650274,0.743932362623162,0.13879620289853387,-5.632212676000577,-0.964932423855165,0.5944053972086457,-0.7452234760060166,-0.2028715476912862,-0.9650221375722075,-0.6164187372336223,-5.430948290064865,-0.27548516242618776,-0.14746087695492535,-0.28767116741864046,-0.7283965877281376,-0.3814215850657586,0.7686326258678621,-0.4161697189816039,0.46017011141626224,-0.6514173205520458,-7.833346969184924],[-0.6259194047473978,-9.160559420575515,0.12148269338239885,-0.5494931331227083,-0.6766686586778374,0.5047367080634162,0.2728844572843992,0.058002845344010456,-0.48218345969397136,-0.9929007222729814,-8.133895337581436,-0.9010907694864664,0.5572088399247421,0.5590634512080535,-0.5886863048311214,-0.6954945209202019,-0.11372433715810396,0.791983501244703,0.16107835832119677,0.5188112589234677,0.1483828786504756,-0.1758432547091598,0.18097787765680404,-0.36094931987737505,-0.6594556815438443,-0.16285279543176848,0.05557186516188479,-0.7442184149444417,-0.37896011808845814,-0.632793502408376,-0.35361289867720813,-0.8223914440119009,-0.12734979719152195,-0.06672474553927679,-0.3867946582733109,-0.06587010637132522,0.8564854465392764,0.46599865972153204,0.31525055622406967,-0.814367659635267,0.022686740215533102,-7.878196406747341,0.8362600979954586,-0.8882510348600696,-0.21497300684395637,-0.8120548051177934,-7.604896442051397,0.21997843489917654,0.7919921673552329,0.22432179237909822,0.726427973788151,0.21120360800658988,-0.0659518020456385,-9.239952413943739,-0.6037128674664054,-0.7700576334223456,-0.7409190303889355,-0.02514066000562866,-0.7806619409970286,-0.8088614209283289,-0.5003803623470772,0.736693945692862,0.295336256037246,-8.852532674965143],[-0.07759586074366596,-3.5273995887885783,0.03168585551116985,0.6442672371516655,-0.1429353972007771,-0.6874558219687155,-0.20365804997921647,0.04771786697296359,-0.12600464143542836,-0.08781430094117233,-3.1164684149241064,0.3947790114322873,-0.4437047850989537,0.4514602401118037,-0.24211717906860086,-0.8690126168357406,0.38586003831986504,-1.1337153450924435,-0.411455754093995,-0.7230423256230095,-0.4099399937324112,-0.3711780307108861,-0.25629472681910626,-0.1109020194609616,-0.8361119078288441,-0.9020800247290198,-0.8356066746466936,-0.3487669891213854,0.2775937505494655,0.9347463296059958,0.1078382046443741,-0.7620440248988419,-0.5297815976675522,0.40075783198604403,-0.019575614603462126,0.6807395567236053,-1.2997341942788003,-0.5219280705149509,0.05295044546167718,-0.8250988192620956,0.6049495341352725,-2.518378743091746,0.15598151925061338,-0.17333009630202806,0.15665916201343735,0.8305769638000982,-3.116738642674012,-0.1354123084959942,-0.6313396404997454,-0.1264646203359761,-0.20626835917068154,0.4544905109133939,0.6817339833773876,-2.738068533316759,-0.8778083960554048,-1.2026641298343088,-0.8242004808273774,0.42200042558066586,0.2767272252377057,2.6812877815064406,-0.5818767547924522,-0.774322559728257,0.5773535264775166,-3.3919010505576885],[-0.6020016628913062,-7.508506934710429,-0.7527840322666804,0.7354226416193979,0.028608255871154144,-0.7675296235507539,0.715457012864919,-0.6933235507964547,-0.713047355765198,-0.39541190369376683,-7.987892453415011,0.41900928043975594,-0.5097971604356458,-0.48347165688360383,-0.7796509215519962,0.030438467262115847,0.037602050485788026,-0.2567220907795097,-0.04145586017741663,0.8273293667337583,0.720081320086351,0.3932512268496862,-0.4049203566320576,0.017716364351007947,-0.44108965050606336,-0.9685189587391696,-0.8292002016588643,0.34946897539990224,0.7850434011918204,0.07091540285044674,-0.7512589144806959,-0.8325669771624273,0.6439072113610925,-0.37386291986513986,-0.7616551244303574,-0.4965045312341622,0.5515715220277758,-0.7220175043375293,-0.23890546018409295,-0.09951162234897065,-0.7126998319660803,-7.935343430569951,-0.2179384001357888,0.21715266611841638,0.3756616228668184,-0.1988293112507721,-6.535510478269356,0.35391581479020096,-0.3991616961825093,-0.06928267134563276,-0.5546216726944623,0.9607086342634213,-0.21209975456285235,-7.82806483172236,-0.1522181569156106,-0.6586584185536242,-0.13848804768039216,0.8175530383490421,0.024487853835717565,0.4791885649074822,-0.8758679453120624,0.8169242954901028,0.4354370720570456,-6.320439649605638],[0.8368123739903622,-8.201805016327793,0.905298889039783,0.6059415848673539,-0.6578092137839002,0.558708146222397,0.7821010501949536,-0.18844275501736654,0.9164355178272295,-0.03828121202947956,-7.392716489582783,0.14334014388813002,0.07766642946751068,0.453554598808359,-0.3123186398028103,-0.33274762905914085,-0.9488233500225205,-0.4816762627548418,0.8739817048064288,0.867433950148835,0.49462711095150724,0.3597270458787935,-0.09049746915886583,-0.6343354088372598,0.5912236939813028,0.4754445143642082,0.10718902905989594,-0.27146346149378026,-0.9757140908686791,-0.739414303672919,0.0253322263105309,0.5544512970792583,0.06810394446015852,-0.792967876111585,0.9975542136059885,0.5622900587284386,-0.26511342301559093,-0.49719236750893253,0.9571763830997526,0.5702534059999307,-0.4659021678487322,-6.935180270043362,0.9252446091251929,0.8454292833997797,0.1702097494258014,-0.6645345218151774,-7.649325796154081,-0.42824846673181893,0.2750395739200276,0.20858669484946404,-0.42915066566693577,-0.8237531966613951,0.34762523689946506,-8.079061444711762,0.4324494592600427,-0.35977239046219656,0.5596507151589721,-0.7894893716091748,-0.04351155075508473,-0.20166846887640935,0.6698724528414861,-0.6696469725601026,-0.552242146456274,-6.881725318356581],[-0.7991129208854629,1.110951858119907,0.2218143280400957,-0.12197725867673592,0.3877586889460307,-0.6469245775536254,0.9258096905448399,-0.4572987288477607,-0.8932854507847053,0.43268622313744654,-0.36590427344510096,0.9114313826172433,-0.3538016268143767,0.3791913449599518,0.6213035355049066,0.7730449256521769,0.7618194382750316,-0.702206236010005,0.6528523119554595,0.9994959117647456,0.5004040091077282,-0.9483142096336131,-0.6712324331080766,0.2556470090538613,0.6742453869073278,0.457756080830668,-0.8024188121174011,-0.8647715413914144,-0.6384865456177138,0.8645212436804373,-0.3603610468496059,-0.25760436847059937,-0.8767722614457263,0.771979424147463,-0.4276003409057471,0.9576010019300762,-1.1399852256441636,0.648077032773003,-0.5208143597400725,-0.46716733208557126,-0.9104859787328652,0.5469370380842467,0.5654083955945722,0.038204094083380026,-0.7318213231511919,-0.081033780043442,0.3320517963750615,0.4104844979040041,0.51963049658494,-0.5344834491398802,-0.4335357260244489,0.7705586094698378,0.4030884003101596,0.04592058266194016,-22.697553696006363,0.4717246439904497,-0.8117425192036359,0.012464921406732596,0.7627623288802956,0.23152627497232878,0.5503958873843355,0.2341052724732882,-0.5589809056932127,-23.68930838506257],[0.29684919920663383,-4.770852699275997,-0.002825865123946666,-0.2518291658807472,-0.16390944949596228,-0.7724392851856514,0.13312444531896167,0.16179684571540015,0.7182156423157005,-0.6935543273582696,-4.719533121786951,0.2735099004003788,-0.9801633558785326,-0.8953841278462433,0.11189412436856379,0.6169384492199123,-0.24199900393530535,-0.3097082564147567,0.723728325422303,0.1750883595392024,-0.3188956714616133,-0.39134809849251945,0.09923603546715477,-0.052183167499443295,-0.565540100704254,0.719440291035394,-0.7533084604878546,0.24116865117695122,0.8734182865821231,0.461463455089931,0.16255031281488358,-0.3700426690179172,-0.3189099004996284,-0.7515267086860734,-0.5730240672245107,-0.009587052857241625,0.877608692286447,-0.6819544713818662,-0.7927166386455112,-0.890370312239919,-0.00197612023783985,-3.7888932824153585,-0.12346533406862426,0.8753609201795278,0.013153083884843268,0.57314287732037,-3.6843957520842174,0.7404251819659037,0.336732874634262,-0.8909397829261422,-0.05676978297201034,0.866936468371669,0.2244364390311277,-3.8580557997191747,-20.437853543619696,0.7028000401716736,0.8446761375431064,-0.6618619039900149,0.7806239787434883,-0.16643065686447353,0.2297854944167962,-0.7882744683712107,0.09242801080028111,-23.567380490213615],[-0.7842196640183098,-7.307977600999618,-0.8275323419557655,-0.037890757903975565,-1.0124128224429372,-0.2865024883782262,0.3093385777894318,0.6796623936963861,-0.17638478407380595,0.17535908133231765,-7.1814509943819305,0.6095345836298608,0.5498158247774798,0.5104240429772996,0.15417808064152969,-0.13211624141933814,0.2849140752179533,-0.3079304900675661,-0.3544588793318052,0.9078478908327062,-0.7743130606099962,-0.7086737481197413,-0.5461471239176676,0.4598719566582012,-0.7871763170804223,0.891767639944789,-0.9594356793272848,-0.6454423612858657,0.2946917336144498,0.2253825966564364,-0.5941714244219161,0.6631555384444389,-0.6489842210511401,0.583292212494848,-0.2828056865432553,0.37242603703363863,-0.10836400213824905,-0.09252235382568645,0.7362182137848664,-1.0387770259991673,0.7423489092857662,-7.512632740190408,0.7882624054985982,-0.7325740290448516,0.07834562648934855,0.8190321785973966,-7.752415152822108,-0.07252518297100623,-0.8101105347478766,-0.25788482641277977,0.8706555791267697,0.13096257999047642,-0.11381939163360975,-6.368871090634209,-1.122204806842079,-0.05607094946485863,0.6671808356789359,-0.6458265784453638,0.4424378628618116,-0.039938368991167005,-0.879631322228282,-0.9948400472453284,0.48862956306138716,-7.597562187536347],[0.4492888009722556,-1.005108225515504,-0.1348002324901116,-0.25972162310302305,0.6301055456042539,-0.7133239722341325,-0.40915810920434614,1.0430142702494107,0.2661923975722143,-0.4474175629167395,-0.08577395460863445,0.860848270169071,-0.9517980914743597,-0.3453518062577508,-0.7360475906116871,0.21027303605625647,-0.20675284263958774,1.1018534092855035,0.21764150405153126,-0.12243793436454363,0.11161215952151596,0.11733661417133594,-0.6994524235909018,-0.34377650850425034,1.4603675498523567,0.7255551174866436,-0.9094462829455422,-0.17997094874039626,-0.764334580347264,-0.03455151066141286,-1.124356380164127,-0.7626892892462993,-0.3909128310243012,-0.28571769557921733,0.1774715701202233,0.04418147952194514,-1.4114518927274475,0.517600631726157,-0.31510678232565364,0.123909905550472,0.7085665912439206,0.6627381830927388,-0.6111258003038772,0.8919480182534164,-0.8326265680194331,0.46458464680963435,-0.9740061569187348,0.2182810049917878,0.8270847849772316,-0.2410039944846887,-0.36382784663723267,-0.9226756985799294,0.3720900810838122,-0.6954984478190362,-2.3644159397677837,0.8349538953175876,0.5631260706977547,0.7605794070400622,0.31884788405583536,-0.38094632844896775,0.6898345329085371,-0.10855956733374579,0.14015056588580269,-4.391023934103473],[-0.015316077286312553,-3.2675388188298258,0.923918045254296,0.6352638360793764,0.6471357343327463,0.8906701709893436,1.5843483257099407,-0.9985113891963727,-0.23375938075608335,-0.08567551191183666,-4.816012613312099,-0.658486637171523,-0.9911425470222909,1.278501620552622,-0.8587882603665808,-0.9349126762749381,-0.4937286137816505,-0.5827477828694695,-0.4952878483043455,0.9404743989586243,-0.8079724901820295,0.3568117492644984,-0.11510284555915036,0.5203969579978491,-0.534419248513036,-0.9255523323981585,0.4161882160787414,-0.06150378306808194,-0.4886287766948082,0.4616531862030997,-0.48851789230078185,-0.8276416157838944,-0.1424450872743667,0.2790231425737013,0.5309490233117927,-0.6487656665338808,-0.044099491643468894,-0.8699233629843688,-0.7083468684116564,0.5932465948513733,0.0707569386090814,-4.3538639766896345,-0.9110738420772418,0.39124674649752633,-0.875942447394734,-0.934957408733471,-4.907666795866246,-0.5568731293845994,-0.9244436471818015,0.013069423902228565,-0.1759896170681909,0.969680277040102,-0.14864204643386056,-5.044016195548013,-0.10565445169666021,0.5060418865167539,-0.3595695181695468,0.034263063906098165,0.7604594430721628,0.5422940996004886,-1.0431904959954104,-0.8217907300333176,-0.1273009089690628,-4.695737002915333],[-0.7465295605081168,-1.100913977245354,0.33249943525442954,-0.8878728155231094,-0.3223352070509234,-0.4600676760754759,0.7090920519910602,0.22342036181404548,-0.30800592561562296,0.12838373964848598,-0.9346169729180605,0.514002692972987,-0.6335792438276069,0.1916996223758919,0.27150733236609675,-0.9675947307661129,-0.5209382259183034,-0.9146330675653663,-0.30852324000200293,0.3811718456587238,-0.4082555557553478,0.6730265780305624,0.36354866196992225,1.0144163095865504,0.48159288141617607,-0.5451669703072601,-0.9575079085524759,0.40555794794861233,-0.265884415300621,-0.6277622637072598,-0.7008266525562634,0.48537527586031426,0.846749449901588,0.8822404521620297,0.12688361295897213,-0.9506778189367093,-1.2405034903005032,0.9547336945105351,0.6655023868861303,0.6118170495308658,-0.04488563190010119,-0.09760213003339581,0.819362779907546,0.8112168125887832,-0.19920181436039697,-0.7081439385947151,0.16319538030566613,-0.9532232398337754,-0.5639216705310387,0.8405943827127517,0.7435737428281162,0.5746839402604946,0.7928981609514891,-1.309136089040997,-6.98906117536543,-0.4782194770960428,-0.052001804331410974,-0.9360437253683408,0.8838071994338216,0.5001398731693031,-0.7596043196564194,0.6574909707060446,0.7479800288779999,-8.875707786186972],[-0.341584888913714,-4.816677240959553,0.07728871097069671,-0.4780594032752816,0.2953393476490954,-0.45848934750965026,0.5779875691333836,-0.6598681500525329,0.17527376617462748,0.6809184573664008,-6.316108636264676,-0.5428089068404698,-0.13919979998650966,-0.5140934109214006,0.23467536644591427,-0.1424112276243103,0.15940004360380425,0.7398024148285349,-0.8316861348070151,0.08161604995481238,-0.021843951277900425,-0.6552998966026232,-0.15090827463639614,0.6415810987242566,-0.3425335877371573,-0.004419871969539566,0.3679255984892307,0.6475851024296182,0.519174669628998,0.020880877781820593,-0.9250136120334437,0.996906489061664,0.13265159857529085,-0.6451106039378949,-0.22828100076913133,0.5545338149445148,-0.5609005929223001,-0.5880294114014285,0.3437748240299481,0.37711899764416396,-0.6277744374203192,-5.938165597283757,0.15489545468088572,-0.3182808203303453,0.6669936178321662,-0.42906252497486425,-5.501768645321626,0.7733889100799382,0.7375043130963495,0.5470425761228502,0.7195735430359583,0.0776271771065298,0.1737075040390811,-5.1941116401934275,-1.3448893067012047,0.30531998532617965,-0.9446472308641971,0.8436980098127912,0.2520099519708113,0.10610917768530378,-1.056366261320962,-0.8335521953181597,-0.9721960077831503,-7.228093567037886],[-0.6381228321784284,-8.025003310469423,-0.2088128517830214,-0.5547136982321278,0.6737530309254431,0.945761987797352,-0.7109100876142894,0.9911694647775395,-0.5172819077743942,-0.1458734863154804,-7.818568098939965,0.033706845078360685,-0.22133515662868347,0.08520764569966731,-0.09638021799980924,0.8719233172184542,-0.19331214191592663,-0.749958241844029,-0.9287993609785908,0.22849954870947706,-0.7856670226890652,0.8525051081865901,-0.48387316412391984,-0.11223548054707908,0.356589650230074,-0.020364621962942146,0.35025678269183996,0.04198646109305482,-0.015575465003699114,-0.9748365285392173,0.7819485692967884,-0.5902879852708174,0.8435911987820515,0.08906607572211597,0.06365951239922772,-0.3403445580071497,-0.8746251804813985,0.08344973329619287,0.9349150824745877,-0.5247347647503319,0.11550686368382407,-7.479251001266446,-0.028204396788445357,-0.42359515896894834,0.16921825227713622,-0.4954459074436275,-9.122522347568168,0.6478084857735864,0.5727366200059046,0.5806494239042211,0.12672273345548823,0.3773101705302455,-0.5088701206119709,-8.429431142120535,0.6310650364935818,-0.046247558079398794,0.10333817537623079,0.9474854592835483,0.017462177007786506,-0.7077164828136632,-0.33682403481130935,-0.5013797700033273,0.6731074448889587,-8.366925422916369],[0.6745866355132533,-7.576087886690605,-0.9105254904949202,-0.2367144815959189,-0.634339249915735,-0.5933609404327262,0.09507353489844672,0.0675372717107647,0.7009773568746601,-0.9123437439782319,-6.522963521460734,0.7427050666975333,0.34917641386814424,-0.6771481908041147,-0.9280824262356286,0.5762229622046947,0.13409770361973444,-0.3064609300961304,0.7220980414419546,-0.3250317001971698,0.8378710973228217,-0.45170498742589144,-0.8591119330978526,-0.33553715899914927,0.8407659212490977,0.7749434906198863,-0.7611809558061968,-0.537622958735898,-0.8647711449533684,0.6564421113548529,0.7842336615317468,-0.6574518080796329,-0.9096374259456833,-0.7140816392939447,-0.859073175132467,0.5129600963287096,-0.08351596307390029,0.5916754302093411,-0.4448491424975919,-0.16259431883774036,-0.5225577797575266,-6.288564866172141,0.23927494432511479,-0.46917260494844265,-0.5912621979097128,0.27299185516320146,-7.489626411948752,-0.41726148729921214,-0.25808102433588304,-0.3191928933378216,0.11316539109633396,0.0840979844106582,0.5345566108281977,-6.91453835328799,-0.4437784964922191,0.9385681232605805,0.27555315559476073,-0.8329685989237424,0.12629388264879898,-0.8459892939348114,0.4557615435093343,0.17097074346217359,0.6321944480988447,-6.9369807354858875],[-0.36680346867156877,-12.616616047568181,-0.4054499566434669,0.8376768497097675,-0.8419459545426851,-0.18686975104687398,0.7138196770837387,0.49107478531889753,-0.21916362648574836,-0.22603750774421463,-11.559335464385878,0.04520689735671618,0.08718380090213503,-0.36277255250341384,-0.2562052458486774,-0.8622485174457782,-0.540538505420256,-0.18047617114525577,-0.23990278649150357,-0.3224980820307857,-0.8236829819470618,-0.9225369183719497,0.19231912287399963,0.31098433095851713,0.47815178695342625,0.6825149347599134,0.9393235289577657,-0.5139640084260583,0.8404570337093475,-0.1784490541611886,-0.1635850356883871,0.4737939020079894,0.9905532352295783,0.6928639959220887,-0.02766364560249838,-0.9203890380740987,0.1845467359671514,-0.4857638617150132,-0.7757806881003827,0.47382662165477274,0.32448874262047694,-10.732223160846743,-0.6316864572867041,-0.31097750709432576,-0.2129135926824244,-0.6413962772125386,-12.54494505552711,-0.9387727088148242,0.7827546964393731,0.39128232822576775,0.8813218254401568,-0.35850874961922957,-0.8979036683993523,-11.681436822825567,0.21164935776607827,0.3406947955010707,0.0725628268251436,0.15178326255504174,0.712556048107763,-0.8181792993252947,0.6712007861503823,0.4438386150908342,0.027712587449405517,-11.360610487990696],[0.8241050351378788,-10.512677525607675,0.810397297675845,-0.97950092465322,0.22509503209707546,-0.7038039983513891,-0.08649414809653237,0.04660212513164263,0.9462368658482005,-0.48543317301316485,-10.427798587565144,-0.8394752778596909,-0.5827500494868503,0.3928217162673253,0.0480342223010696,0.2693900057500699,0.07963477396914741,0.23838528910580137,0.7097804456499786,-0.5542348456908909,0.40873140909154965,-0.6944821726831384,-0.9886788096130601,0.9432740935145318,0.3525870437941688,-0.13170356278062628,-0.08753747531421863,-0.9989895568370709,0.7706350081872468,0.46253429308049226,0.114893836682947,-0.26933483645734735,0.5394279137265918,-0.8437317845555813,-0.307097312565858,0.056664327194315925,0.06189022454025476,-0.8636527618308433,0.533420861132932,-0.3358588797249159,0.9465707822514672,-10.158026732963899,-0.7107184831875278,0.3859736592430527,0.7521604465652645,-0.2747178826318382,-10.882003052486153,-0.16799277692640885,-0.3359926997738447,-0.14457541980177224,0.5067864583995306,0.4525783255230197,-0.5930560281100205,-10.193242427920499,0.600285720860755,0.7979447267397395,0.20001936085359895,-0.38309595631477733,-0.9341855462699628,0.026512306575113012,-0.7922644917071179,-0.17029190808579658,0.19988151409205762,-9.892633663599183],[-0.9579462788915803,-18.3136701816455,-0.48482211051064467,-0.07922089375487755,0.7810316116813347,0.3825996676573118,0.6822235536821943,0.17070593780314858,0.5715806407006427,-0.0025021944992119627,-16.694106426140653,-0.5299124551994095,-0.047329879063940074,0.9394172117627334,0.927058709197566,0.38472814138613426,0.10237559703686272,0.30425618067895444,0.04183977197835744,-0.9860315178714194,-0.9869000155112206,0.01221611045456976,0.6485576943788836,-0.8620384976052302,-0.6706924448947124,-0.7430359578857019,0.6876958653703409,-0.3888728482620102,0.26034043520887507,0.891441076069006,0.04753107963312453,0.1345725566121322,-0.10553744348916481,-0.031067580036840365,0.25179703569760503,-0.9231477253187326,1.787280162023417,0.5982392439704574,0.5856440232769795,0.31261352739134574,-0.9368831603552509,-17.984778660347406,-0.1288017084324673,0.07319360796077407,-0.06571399064811717,-0.5595733161311647,-17.533931323580035,0.06686242167476869,0.5528553312833633,-0.40893851301339035,0.01519765943941893,0.31160978515389215,-0.0006517452915353261,-16.890079867930222,-0.41477363048430244,-0.8450815833749288,-0.5755799993336743,0.1560689059366155,-0.9250774893775379,-0.6276579767970552,0.815745900239881,0.5750497591413736,-0.769044428945354,-17.203084200192297],[0.20853055802531295,-1.314919753949044,2.0681500399067745,-0.31024404767471775,-0.5823883055609727,-0.7165728090104714,-0.6621501982119571,0.35073304950447204,2.1521881495667707,-0.03990740468488527,-1.1519132693338732,-0.4002959175249951,-1.1276681503863033,0.37710124733879113,0.172545713675082,-0.0037606012212407242,-0.44408515992049147,0.460335934884565,0.08626555184975478,1.9373312436720698,0.17043685400421324,-0.2551967750072526,-0.23242841637438352,-0.23297669079109615,0.3336260022423595,0.19055889870778978,0.5019378722288278,0.4336257386851272,-0.34264479459293407,0.057361797725497855,-0.741665614366189,-0.13255914957912734,0.6754052669434544,-1.0279177902614165,-0.48977483533461574,-0.18085317200800594,-1.4376457201998651,-0.8024709922569943,0.013974111035479155,0.6300668005428485,0.1491764017045437,-0.9966365932332257,-0.02981842958545448,-0.20742992134401378,-0.19549786123863402,-0.9169156754667761,-0.903576318768173,-0.7281796440821504,0.5732322185952489,-0.39886034582083396,-0.0960640045285077,0.44309129962789,-0.10383579046784337,0.3736628610218038,-0.3875785058293516,-0.2977126003828203,-0.4045306732475206,-0.33086288915839396,-1.0204694715362608,-0.6036443398693345,0.40331380590977917,-0.3129094660749601,-1.2498378792062788,-2.8022547037123657],[0.8663680573567358,-8.911880769264553,0.6948895960090005,0.271292184036096,0.6499234370782656,0.9530285600905009,0.7762849498290321,-0.6359951892306954,0.6365606795448407,0.6586938227052012,-7.466470960388222,0.7160016705090455,0.4840848680452402,-0.8052205208318038,-0.7980146191408543,0.4061142851438355,-0.06535469777319504,0.32996693544486777,-0.8658588263408571,-0.757003788705691,0.9644130729631276,-0.08080144123255063,-0.6322405480476515,0.019550669537917977,0.3433548773577334,0.3141581676837042,0.580539661222018,0.9476296910408226,0.7499119281016409,-0.9352432231549149,-0.1625630257120474,0.3929930741081629,-0.9734567537632257,-0.6688501158794795,-0.5343365884183818,-0.5086081179691827,-0.30903595030733166,0.7384844149382467,-0.9221410480087849,0.8109000277699645,-0.7746926815623095,-7.459485201496876,-0.9868152794048469,-0.8895964269448341,-0.7266767438840375,-0.6736420700357876,-8.41601160460252,0.3325908347769335,-0.9918857235107384,0.12878856260974902,0.32444870527177166,0.17388596774978574,0.8681577964261534,-8.540542991569025,-0.9747418181639352,-0.32040365782847247,0.49237919355249915,-0.3074737480781571,-0.3211846087982659,-0.0699610380647499,-1.069205478959578,0.28844989916045694,-0.46384726811449595,-8.493764630019916],[0.36634389682258534,-6.302924290227243,0.5468731747366854,0.6688779676254833,-0.15767061782759023,-0.5909781441471831,-0.20093703602960794,-0.7181076890803018,-0.8532070932107407,0.16220122825676492,-6.870611876585621,0.7272997133083983,-0.8199468479511712,0.7314369473728346,0.6971626896790487,0.10283927568221571,-0.0763417709457916,-0.4898068906666676,-0.36582856636761857,-0.3458961139205902,-0.8668578397545857,-0.8255918617405762,0.7267208183653431,0.7671913986575009,-0.7099419892346882,0.8244156098219432,0.26959024698971695,0.12610693147679397,-0.67631663880048,0.2827601726799749,-0.3229080732426714,0.32211805275644406,0.8546878321415855,-0.5921223131705393,0.24229492558372656,-0.5969946692186497,0.12863410144426568,-0.012258560970782545,0.5319227474903083,-0.3522304606954201,0.09073738881408537,-7.493794062803881,-0.622478510363386,0.2296500662938881,0.19594061385904496,0.07255210132558469,-6.123094153035498,0.5934332478117307,-0.17472328137520657,-0.7707390918950126,0.5369523274568972,0.2788947814247592,-0.2607883662810644,-6.929781183218101,-0.9705916041112757,-0.14574810010014871,0.06974340504631737,0.9373396019883936,-0.3678062549070603,0.038171196560721855,0.6235566728956726,-0.9403155551020264,-0.7821535650816691,-7.4999271598147095],[-0.3011374699030987,-1.5062359175982245,-0.11480351617076393,-0.8470490224068978,0.36412838941519826,-0.9264055849741982,-0.05308504083724831,-0.42653014610912615,0.45762891980739456,0.021636402746685848,-2.8811216576781633,-0.17006202253567643,0.25045180622251245,0.8821122089255312,-0.2278402017377456,0.6452497032150014,0.7942763117847635,0.6866551843297133,0.6382176489733036,-0.6555541462755045,0.2741563194154598,-0.3286716232830699,0.761238902775835,-0.36952457560956015,0.25740366875709775,0.47616231470863823,-0.501757761563433,-0.9729262168206942,-0.9215627869010464,-0.2918403696734461,-0.45506121335647753,-0.3902453422022966,0.32965612098515745,-0.8443021351495493,0.8026701422915529,-0.6094154268814104,-0.5674631819532887,0.6641876331889329,0.34277758958423077,-0.2960990557390772,0.8243494859758164,-2.488174079488299,-0.17709233621333706,-0.33881533789127444,0.5035273629602387,-0.30549349335565656,-2.5639602951244607,-0.78127554073723,0.10380186887312869,0.10951915031599163,-0.9367951849458395,-0.7364934750469475,-0.5228275229210955,-2.4208125776548792,-2.3144168504472984,-0.8498218230487975,-0.7196371341684888,0.42653092109738716,-0.9843794011463634,-0.4667897783957822,-1.0100774916183475,0.02111844437335578,-0.5740282594427647,-6.40961246153229],[0.40758585846263073,-10.881205546852225,-0.6049835137133338,0.24230060025242345,0.9399372404561488,-0.6114492123842572,0.06482480171337358,-0.04276512956551537,-0.015220909427507073,0.5793172330331384,-9.303396417103688,0.6906037931380647,-0.07737616787988123,0.02451092304176463,0.32063385835421804,0.9244463141143016,0.9531073758414264,-0.030840811252562047,0.7780351705392815,-0.8566822637120018,0.12806400805544202,-0.1292653068097318,-0.7959605803256619,-0.09023050131075219,0.3134904497427144,0.2351307678455572,-0.7146988520129307,-0.5421929322758122,-0.6947327771521877,-0.8348282682638776,-0.7376290020712184,0.846149742982107,0.055144416801356524,0.5872664096517524,0.998610776778781,-0.05505647216397674,1.3609064234123738,-0.1015191756354194,-0.25245842307385924,-0.7855168547137533,0.6274581893001971,-10.372836473296111,-0.4117264176240457,0.8439105668824801,-0.25164805177914196,-0.11801241522767507,-10.182401754133673,0.03846644224237937,0.8480836698867565,0.8935636828117869,0.8924440707663098,-0.43974874851382073,-0.12697528399567073,-9.892330154739126,0.24138603784410778,0.7134322245070407,-0.284701426349301,-0.4254654962388705,0.4418373103390175,0.5094705609461236,-0.39830142324797346,-0.2608340673924384,-0.3856102922413417,-9.133277119389108],[0.7418877090689261,-8.434286259376215,-0.6145189286904796,-0.7884578890987192,-0.2433800414993158,0.06644406734898187,0.8926516391294009,0.6224555900733278,-0.9947820388775747,0.4566034031204354,-8.023235342148343,0.21015991553556201,-0.9643636942093412,0.6111820617366631,-0.3573220215036366,0.6367306794095567,-0.7702840543464814,-0.05011610782229267,0.77498236617655,-0.8211207116168528,-0.960398400658083,0.32554802821207784,-0.08420553174170074,-0.09862903588356399,-0.6746174289705708,-0.33884979997008324,0.9568356580804569,-0.4837527128440166,-0.7032918424178232,0.3281451785317343,-0.8010608933131275,0.8592621942494618,0.4499038534540631,-0.007666543927319609,-0.6892189895502818,-0.5113085023071905,-0.34655259540233213,0.01051019019923834,-1.0001035170956696,-0.9677684516954407,0.10718452983428799,-8.731823072009174,0.2430221325341812,0.1843072174105502,-0.742402206096097,0.8546522847242961,-7.526412541393411,0.9701890444113248,-0.5043578236373568,0.7654639657582365,-0.0011092555901631106,-0.6621814310873319,0.05083162510795039,-8.451417815709448,-0.3841517241211764,0.8929743373667073,0.671372655886578,-0.5398420044466894,-0.7625131088625854,-0.8345586623359358,0.7637835847028192,-0.9437789767594632,-0.33323520130799966,-8.354512099263152],[0.6310820036333417,-7.652526486211798,-0.3708058656896904,-0.48511985893453186,0.17135055217890394,-0.5316268296572738,0.6691394096931715,-0.4868670239341804,-0.9818658174043751,-0.2201107012124194,-6.520261454926778,0.2790451469834806,-0.7947800781038394,-0.756331668605632,0.8414738158478965,0.28134343856647764,0.6803856507994597,-0.5643871005961534,-0.6322033787751685,0.0757294387145179,-0.6382026623455858,0.3712711229252751,-0.7092981384578394,-0.8996167094349365,-0.5415522302410922,0.6663235877603428,0.2809739964320671,-0.38785118187650425,-0.021493675460114006,0.8591573704797781,0.24819011782055792,-0.4947410121354631,0.1773119376719049,0.5121784952088839,-0.5148787722430316,-0.21529785752238406,-0.4956974528589276,0.8116292578480956,0.6630414609036012,-0.4602355486503095,-0.46200161696787256,-6.380700142426525,-0.13527169059919167,-0.6405461655442605,0.7638447038992965,0.07347557339368897,-6.380877687633948,0.12799911902568428,-0.8514563056332383,-0.392137849478313,0.08717358380271398,0.4367247841303068,-0.518917011975266,-7.620708640457747,-0.557066051917704,-0.007499955195855751,-0.6137670099944484,0.029374811859645706,-0.4190739225436808,-0.7741517185246962,-0.9301499361823233,-0.9755732658695788,-0.46232337603575424,-7.390248788255247],[0.2719469000155748,-6.373620222929717,-0.6849251295623638,0.27120670718530393,0.8055889771191246,-0.03583030617512304,-0.8277550191369989,0.35369662744450636,0.003742382971420028,0.49119013869435774,-7.491364601826338,0.5462611416586337,0.2897591759578092,0.8871665081536153,-0.9035062313440657,0.9850463283323517,0.7670821094276253,-0.4225792374976341,-0.553521781780874,-0.005239915072333546,0.1847428907697369,-0.393964677520625,0.3837401136486981,-0.9847660339586598,0.72157730096169,0.09896877007268688,0.20413979265421572,-0.892032075266688,-0.6919433928531057,-0.6575960101327004,0.8636820427620467,-0.3063973612698328,-0.35770689465249356,0.5881835611905218,0.829828682893641,-0.03288964804301859,-0.21280473753727241,-0.8014526865123944,0.7725432500984892,0.7792398305170438,0.14598487615305927,-7.855042845187637,0.6252653381891744,-0.16977916399478718,0.4432400569064366,0.1996587511381734,-6.1993785612868395,0.608252681391636,0.8395402755687517,0.04803047072052715,-0.40737773509447195,0.2486955477398648,-0.3034369592052333,-7.60249536524462,0.670975926240538,-0.31067989283025965,0.5372340764512648,-0.35572540768146954,-0.2377980635880892,-0.37132143006221774,-0.848193940869606,-0.39206884613611337,0.40043887320504457,-7.9531222025401656],[-0.6353518397930776,-8.04031389416196,-0.812894208541632,0.38897880497165016,-0.6165109874145687,-0.9566591786275283,0.5540590930306071,0.18495443117097227,0.6155437582458676,-0.3823298725640598,-8.993716346295384,0.7586841274320243,0.11262860147504825,-0.316648328831355,0.8158235947459914,0.07736451295696088,-0.07033237923655626,-0.30347547596690183,0.7763006315542094,-0.2053676597806944,-0.4352541338131117,0.5560300741526509,-0.7958466630456542,-0.7299497991098286,0.5759502052533604,0.03697024918945771,-0.39236885566570573,-0.8878068885188056,-0.4562185853404343,-0.8558519836705448,0.030402828892589953,0.4106621252721777,-0.8714763550561928,-0.531737235081038,0.9535344702375665,0.5253508415339582,-0.0001465381037579256,-0.39177439616466614,-0.9474508020917303,0.7188415016020163,0.9072706241126933,-8.717131940455328,0.7079016419617102,0.20810540065698108,-0.602778357274163,-0.7509220041126383,-8.262723340066358,0.3542157704536971,0.1504978900914502,-0.9030604164496833,0.6011925220967559,-0.9877881775719694,0.9604451322629383,-9.247623977571065,0.10833135825297564,0.04198326433621559,-0.5505244422854122,0.28534544411006674,0.23626116984918832,0.8320270375510368,0.5315353273093919,0.7853537201121481,-0.9939705286237744,-8.790037278617984],[-0.9903181398730313,-7.330721379718806,0.9754789856283383,0.8346292147745056,-0.8605031087675193,-0.5413261395085879,-0.4040732819794024,0.3331646759647054,-0.7543258378072659,0.5922203525883034,-6.7771509532222725,-0.5636635192331935,0.9370247071304667,0.4724563654126901,0.6824288977401742,-0.8313860066631632,0.41619083787747285,-0.27538470206871407,-0.9491951806650233,0.38075835366429667,0.7624320348947091,0.3148560647939845,0.19759851828586347,-0.687426173714674,-0.22146025399981822,-0.9262028845128887,0.8289452365590986,-0.04117281895560925,-0.19304517246135822,-0.7225520785535916,-0.9061922234864602,-0.9876672706788828,0.962009878733585,0.19881920360679464,-0.44452630180878483,-0.559513319497711,-1.0732236711111949,-0.18227206685084119,-0.24923352217648784,-0.29912219770795617,0.8071380281463586,-7.84533755150141,-0.20212992492452464,-0.9352668553527687,0.7849350398300313,0.7994095044128442,-7.222751330276375,-0.006226533493120714,0.43908980144360316,-0.29716763278373703,0.9887928397240364,-0.032538982489405746,0.2533467719864135,-8.033240476671187,0.7559764544828191,0.2595051007164701,0.5672386158740442,-0.8514516676656035,-0.9410763030778208,0.16967726027463392,-0.686432843960298,-0.5108901764879489,0.41028391255913454,-7.885849360101426],[-0.3650307912871688,-7.749945953601121,-0.23347754188887349,0.7839975444328933,-0.31452346992998104,0.44559493646549686,-0.5634624743481984,0.8521018694224153,-0.6097023694936896,-0.8057823596530412,-7.424952571712659,0.22634891803361565,-0.6657248737641387,-0.2212530180678382,-0.3290630052649163,-0.6747354376978691,-0.32686959176879865,-0.24297120805848937,0.7861820506878805,0.7378547698866617,0.8938513389307238,0.6507220264545838,-0.2660145974929178,-0.8531379744930846,0.0656258000444947,-0.9127287308924624,-0.6781863935431007,-0.13063288869090803,-0.6838877676399995,-0.6911698018118184,-0.08809049789692189,0.7332272267122116,0.653740076344462,0.3737548735814672,0.7402900707478023,-0.9633657416501957,-0.8559321786141815,-0.8694887135638674,0.7544441222859616,0.8917670151033955,0.7590617386249328,-8.301618996930332,0.4732652147918073,-0.10073328052150977,-0.18133060131596312,0.19746173842692122,-7.300557649347582,-0.817575953393186,-0.9413054080476744,0.32517423100032006,0.7624022244439611,-0.5313467695778977,0.7191488609996805,-6.722359401869483,-0.14804098568041757,-0.0018688486308640906,0.8453174555091911,-0.9009907975361354,0.3654499213925245,-0.3695965934648183,-0.5953664015339208,-0.3990452285847646,-0.5297969582829561,-8.154640763258218],[0.4721122621200253,-12.281469427418084,0.10860076043214632,0.6554944078609849,0.3765357438304361,-0.4396178351746818,-0.8986655946804049,-0.33972269885780637,-0.16915518298492838,-0.5999570146105832,-11.707154929859895,-0.11226533056115426,-0.4549898853080663,-0.034493166760132914,0.3759496087892025,-0.4459372725371285,-0.37878311288809785,-0.39694180908920795,-0.02236989272715523,-0.8208336902985699,-0.9914479686804305,0.8413082706120389,0.6528399778640575,0.7091920999403704,-0.9056277278346243,0.8975414907198817,-0.5722384745676483,-0.17018299083601948,-0.14551378432762574,0.9314545787395543,-0.09473518403500496,0.46995879367684873,0.31271272484687274,0.31422802037788217,-0.736532036611435,0.29481523737120874,0.01227657960671215,-0.9901570461610731,-0.09501643233466406,0.5572342348455773,0.17735685052379846,-12.422110473588026,-0.03281889308478991,0.4502848883047265,-0.9635946113366213,-0.8061377076953854,-11.44944856464628,-0.21277311121286865,0.3478016759672166,0.2646866464947328,-0.7487479411651221,0.9627363237536622,0.14725993611825197,-12.507442148241651,0.9800942273818892,-0.9252180181810796,0.6855630941135714,-0.585312177142705,0.4421706579328267,0.955048395626853,-0.8004370628250917,-0.8795782232841666,-0.4766376875137693,-11.480991126668062],[-0.9613536206386228,-6.8207192850098775,0.4769576978003256,0.5805848357681732,-0.614406122844834,-0.7688209521565338,0.3080430635221799,-0.19806278822385884,-0.17116729399146932,-0.9980931901963547,-7.888701181210757,0.7405913078216922,0.4275492317323511,0.6760791491476094,-0.8069786420861317,-0.7473312507302645,-0.45341442574705926,0.4149134691258342,0.017259871659728917,-0.08850418858779037,-0.9262662146298652,-0.5931342974319468,0.06476539980028771,-0.31967779418320513,0.17506519023492648,-0.6310171742834095,0.6442518239537177,-0.42139307039393786,0.883789249158376,0.42022490337201673,0.10735707998376354,-0.43487459021103525,-0.11665314863056345,0.8437758636952774,0.09133557598428016,0.20135931132407162,-0.281480908392253,0.018564265619497033,-0.8497023660568918,0.4551407082386547,0.2923657813501624,-7.895736081656831,0.9190845800788155,0.9281667418538918,-0.9132602705623541,0.45333286233890413,-6.122983564565901,-0.17994624400685663,0.22042585704568854,0.8754534601899895,-0.19960562358721665,0.2992325322581912,-0.7281095089933897,-6.444894021523626,0.3954827467907216,0.29247090052384456,0.25197907725061636,-0.588280831638469,-0.36642637269335226,0.8839222178230072,0.44870128636227563,-0.05216290770623429,-0.15381788209392175,-7.743437597716635],[-0.7056233072356781,-2.523781218835444,-0.15743741454450905,-0.852746490888559,0.29428233001073106,0.3128778455751628,0.6036902331976342,-0.04020163346813606,-0.7580191931178155,0.30276296953319126,-3.4659034006556815,0.132846751214146,-0.1644432431059117,0.46804207843400425,-0.8864366650816075,-0.5589582053624552,0.030388447985399483,-0.8048104396804644,-0.6398018834178612,-0.1691454158258284,-1.0293180240620314,1.9010838883642225,1.8922097874946886,0.025018244169540474,-0.2642396271324731,-0.3228169804222426,-0.9226140304381167,0.7444134574881031,2.5452146606356876,-0.5773713852730935,0.7216465321806392,-0.28802182189985487,-0.47264002215949724,0.3102548431543212,0.9197042597769767,0.2202300094660814,-1.0542377617455285,-0.1193898075435848,-0.5824084584415323,-0.5286745473123118,0.9461771559703069,-2.7843632090002144,0.8204221161535283,-0.2660170959638227,-0.9610869284650488,-0.816395180778345,-3.2063398091345143,-0.6569171788291134,0.015769356787938366,0.14897258653309844,0.33859461852327477,0.4068794233479009,0.33357293646763686,-2.8273466894942447,1.849068812857941,-0.5494039356761111,0.9109132501300313,-0.9210278061737441,0.1629227247206647,0.5529506678105222,-0.7458488779995135,-0.6561584450841685,0.9417751570975927,-2.657310851994176],[-0.44063231107286266,-4.904632309128126,0.7454985578051068,-0.09504381861054066,-0.9856462171581051,-0.9882146141187955,-0.3947514053471437,0.46263229323044364,-0.690117717978581,-0.8352124951583677,-6.335142548803122,-0.2248337355095338,-0.9352625701236822,0.2668585359719634,0.5213425230837023,0.24960621215304368,0.35623147614608575,-0.5388595199565531,0.22784678876554593,0.6011228123516528,0.04368807451383523,0.7965758454644114,0.11867866949610156,0.16446560778775243,-0.5673319101063339,0.7994517846085478,0.7074818647598969,0.8531478467399093,0.714259382449892,-0.02389320041988389,0.6217612182593867,-0.6039401588216714,0.06758670798381393,0.05173741131282603,-0.03059951679297086,-0.4559517222930639,-0.6684116848900955,0.7265607784743172,0.25469875483377735,-0.26168067534500344,0.6046848557805432,-6.132639253953961,0.329433652718284,-0.6399171531458238,-0.4658218567248861,0.04264570553437957,-4.361070335900524,0.0520970151387208,-0.2799607502872503,0.39209317324994447,0.5433333985348979,0.7799584669064541,0.380941742899476,-4.377476492935313,-0.23971444253060106,-0.960360861220582,-0.4329960333065722,0.7089266491151223,-0.2804529456134794,0.6868945049953011,-0.8259822942558148,-0.07185514581210604,-0.006326806754169032,-7.141675125971733],[0.22855455239574973,-6.521277580035201,0.8633564788413512,-0.5860870131454345,0.49609792943957265,0.7257213516525045,0.8806299053803561,0.9728140988746717,0.5104331230944165,0.10781051261246045,-5.584010647380339,0.4177069101484849,-0.6589043174956508,-0.9841484201516244,-0.44504491646198124,-0.07963206485334087,0.2392246411692914,-0.9000039020297851,-0.04471143154774041,-0.8580607772255607,-0.6593906479555902,0.7096852225607598,-0.5829332617553256,0.7789494576235145,0.1254906431384316,0.08086646666881292,-0.4379839675053097,0.003610757237004646,-0.16112454509829652,0.21439309573448798,0.9176400093979219,-0.05463133405978073,-0.2954037916816721,0.184909985561179,0.11658385525914429,-0.8571859512233949,-0.4626731160269467,0.3142126855890002,-0.6663758350050364,0.5634296525150444,-0.5105692716377435,-5.512001449725528,0.20280017146911913,-0.40381091354860305,0.10356458252107463,-0.2836563885547643,-5.670614889007718,-0.4442547898055015,0.940179125903509,0.6093534656829376,-0.6044902467420898,-0.3481426332274504,-0.2832632146020985,-5.166408206866182,-0.9681099384301285,0.3411239025481771,0.19186257161248366,-0.5796962600762047,-0.28504990719990103,1.0352931813833126,-0.046219473262898256,0.2546903382582668,-0.32491847888559655,-7.194763314098173],[-0.6946553129356059,-10.2828007156834,-0.9543853503769716,0.7207171068027769,0.8079468934175154,-0.1793228612738832,-0.07267070320758105,-0.47957757644431,0.49699655551454025,-0.4488573421885301,-11.34012685856203,0.20554915565273216,0.027646930189752818,0.6038929824953512,0.24322490154676352,-0.32848501773681504,-0.5610897635749058,0.12893115778915196,-0.4984480088327218,0.9394454040785657,0.759836495293495,-0.2000817988012496,0.24122084022692422,0.6594048059501832,0.8318076594085214,0.446313006356952,-0.7785177381518297,-0.8815222033739731,-0.9901506703241263,-0.7588416950637565,0.1577246327366824,0.4972326307967032,-0.9518019531004376,-0.14251400793176358,0.17285754550500187,-0.13411242315513044,1.8093572609565356,-0.7509398738488926,0.7752588465933558,-0.9124230515476527,-0.8294357415192759,-10.260836332535396,0.9284742552974603,0.029034749858152256,-0.5165071291584961,-0.9432330556999508,-10.702636569098585,-0.12718136552473003,0.15327356160622072,0.32893339680233374,-0.1560272333177052,-0.7147682321268585,0.81347627472881,-11.831349518269608,0.5215715276528579,0.8652663056597845,-0.2581306839371276,-0.5040102039996442,-0.8860606596197077,-0.765463217818173,-0.7373249211857666,0.9488811806705371,-0.8479497087554185,-10.791363178609384],[-0.5820908527049091,0.7071186254069273,-0.16701043800215742,0.4288559872044633,0.4752598403756545,-0.9433009794857811,0.3275530460836207,-0.4049035892902345,0.594990417806887,-0.12914807232029457,0.9790431109731577,-0.43683597928914897,0.03719177896811132,0.9130553579045833,-0.41604601145233766,-0.31139404817172867,0.9397356190334332,-0.8965828344675009,-0.7781839509542624,0.18154881005275003,-0.2745229631725582,0.4912337473441579,-0.9821954422374648,-0.055624935638380446,0.6920731928841681,-0.35199089295586494,0.9243427926897185,-0.803894001485321,0.5959037247243866,0.968412295333988,-0.1677856058881838,-0.6337884056464679,-0.13192768693200452,0.21054116971419412,0.46439690358702235,0.7494381746837055,-1.2880875072700153,-0.7178271778223675,-0.43505899022242345,-0.6979875532869789,0.5731421230153051,1.2394682633546834,-0.7281189830345189,0.28667520623383735,-0.5212521349817278,0.2913246395608775,1.1024393370391319,-0.34727986447568737,-0.887384922257658,-0.725054704212928,-0.3981577785670254,-0.452273434492233,0.6135315486292809,1.639136307877099,-45.42698282226169,0.8878763704323742,0.24950083786867738,-0.500986227791411,-0.20588065669846034,-0.6063552683506832,-0.08365205434679548,0.07176949847790315,0.596116536737775,-46.31510580898896],[-0.4866499011600919,-6.3958118159688615,0.3493417223671063,-0.1286060932102804,-0.48691926235031247,0.39382376609760417,-0.5507773726742187,0.6476622927696206,0.21341478283168394,0.6570380137616579,-6.064595653531479,0.33738712621122197,0.13157615586984656,0.6996584231957826,0.36034019150634383,-0.2334362381768179,-0.6395005047904838,-1.0052059680781709,0.5019385591987824,0.5915399820433365,0.4396640526915904,0.09236909709337068,0.020616023138754172,0.09914833474515342,-0.22212516094940105,0.6914889158533329,-0.986593573634067,0.7485076071731852,-0.4705715905557108,-0.8927072850337396,0.2697488882390585,0.5031162593785348,-0.6391531849790091,0.286435625858763,-0.6377175027093469,0.5087415714135798,-1.4293185681526304,0.5466371597867654,0.2779244001474301,0.24836963704050852,-0.2477338589202376,-7.308712322802716,-0.6712760922742338,0.5046240649354079,0.5020012897188187,0.7906699131631956,-6.250621317653723,-0.008461898677234575,0.13686892735302555,0.071832008587827,-0.5625626851780094,-0.20324108184671913,0.9169478937475815,-7.361011354520355,-0.9220594281029304,-0.9824403963918676,-0.3282125918111473,0.2762938407006469,-0.023014915844218414,-0.8441839948422302,-0.5337880567979849,-0.4177822604847187,0.008998213648518794,-6.567646750283975],[-0.658797196015691,-9.528670388153513,0.8573157356609488,0.9994943679853788,-0.38779967046314173,-0.8632267260356735,-0.3240989316147777,-0.14080452391571374,-0.30219370446768035,0.3730830126535387,-9.014075211084048,-0.4311735599101573,0.574309152000857,0.45055422857583766,-0.9893992123714462,-0.4785500348005665,0.42435667998050447,0.18410576338542373,0.3912733119258331,0.06021152033964449,-0.19045770259870093,0.3619198945250334,0.18058960079500092,0.46201443016198174,-0.8693997259935766,0.5220187983055607,-0.6834404140967859,0.6332477285914233,-0.8847569961679109,0.906093169141123,0.5272075663862281,0.20706132836752938,0.7873069111142398,0.9976232252296855,-0.7446513133996292,0.6080853296995307,0.3830838796704923,-0.19777046957988947,0.843528806578048,-0.1451698890753912,0.9709134615033147,-10.53353569809804,-0.6491109969811599,-0.08858194075870231,0.8002410381727396,0.623902098935279,-9.253468671189156,-0.4094715129497347,0.7634507212175464,-0.5043038508416171,-0.01077323195292154,0.02776069173854854,0.8365444368491338,-9.406650621164111,0.8124772013370994,0.41510493288322164,0.7485630178429972,-0.19747606242741308,-0.7618942549868074,0.54393862342595,-0.061011434589660095,-0.984116241276265,-0.5567881437545479,-10.19004547160462],[0.9532948507424782,-1.6969564927135887,0.7065163527373642,0.4304039097714816,-0.21896270496888753,-0.4967957954488746,0.637082803571078,0.8696331825991781,0.6329752200800006,-0.2937365954270439,-1.9995293312554754,0.9044356573477428,0.15881786463666545,-0.4187363248257293,0.4674304263701698,-0.23632065807071845,0.9428073119003121,-0.9318979435648601,-0.6951878825495295,0.7648335846461595,0.5693443104580502,-0.32582663135921136,0.8374386724829033,-0.20644941251469118,-0.36108809285650517,-0.13616422935989372,0.18934407470484355,0.2004531617582362,0.8075026572600564,0.4989477206133522,0.06794099896375043,-0.2710620970124571,0.286185494202705,0.5474324665124239,-0.21454951239379075,0.8779106736867487,-1.1552312079256701,0.8625933231506553,0.46215030170185134,-0.9255658231120238,-0.9405530999026522,-2.3562939765338564,-0.6642165301975365,-0.23258447696671405,0.0842713541912683,0.38616935087467086,-2.581116636135028,0.7789408855419585,-0.8996385321804516,0.02576778843763346,0.03667850250651761,0.18152536713150702,-0.2911716870036075,-1.843462951514657,-15.078400223958884,0.8707550634389719,0.9856641537703129,-0.40167403261178625,-0.3152762655792113,-0.21640750760508137,-0.03910944916579407,0.38875723854427147,0.5266564326425948,-19.344177783540186],[-0.8398659619810472,-2.922530141699591,-0.3284382461548952,-0.7418135487490509,-0.7194156056798198,-0.28133379546375237,0.6311328160326576,-0.2965875741128176,-0.623478552964512,0.7073742602043618,-2.394685679359519,-0.8682293567143016,-0.6010661827627041,0.2944817622670039,-0.44922418411451476,0.47319493551200437,0.6873959300236516,-0.40638949772682426,0.14802188039979827,0.9512777781913313,0.6544193807254455,0.32667615227185126,-0.903079687823899,0.01900802693899589,0.020408347887452438,-0.1773038690119026,-0.1742985597073351,0.5234055917850594,-0.3844100872599788,0.561772606880138,0.7362138971156614,-0.39818276599273195,0.7755288864036809,0.37338326147897605,0.6744978826819655,-0.4300230735886987,-0.6646976094477594,0.950324269555715,-0.7468570432880117,-0.17378610298265987,-0.05261236983163001,-2.594913316782574,-0.37449991604287913,0.6006210205504893,0.8621816759476758,0.8153183347597812,-4.125155907478408,0.1642976473339312,-0.7249565120907269,0.8959554014791582,-0.8748689973671546,0.42631365338029725,-0.8281610059970578,-2.760349440324132,-1.2499629949482327,0.41339678490441434,-0.3447147669691462,0.23775035103215084,-0.9139319180272066,-0.8101363496068406,-0.3409119380018407,0.3716030294411003,0.6339445983662129,-7.228492352599789],[-0.5115133653618597,-15.858070777771989,0.46513445936324244,0.4717388487339293,-0.9417340763708033,0.7745667447625897,0.6010545884422841,-0.5720752129147592,0.8948962141405613,0.1685854197725558,-16.64185678324316,-0.11910901467057768,0.8468208758093406,-0.3041410693727654,0.8947680843992969,-0.18346295362628132,-0.7597279575223085,0.31554240885151336,-0.7440347603929955,0.5202051028655529,-0.6702673344483674,0.9579396935631445,-0.327305997836285,0.6899768606627871,-0.9471254746944024,-0.7183437214029237,0.49457398240532324,0.2710927245644963,-0.608960056514998,-0.7819176970228691,-0.32635698953128855,-0.07682431372501328,0.7749828022297818,-0.1545549220091945,-0.6579171610972436,0.22926577233731313,0.5190788526660853,-0.20954857392487553,-0.8722595295374744,-0.03406312948942254,-0.598936625799301,-16.26052199289771,-0.29904233481054454,-0.4436028194095969,-0.7345644032237697,-0.38193904281706603,-15.859496025934268,-0.6947033989790004,0.6185883402642633,0.7171718433444092,0.7762781804548445,0.08804657544663098,-0.11402868963853734,-16.272386393825922,-0.31846779230408223,-0.9447173716088261,0.8200136419020755,-0.17099294907902485,0.8329787286974784,0.7777324021422634,-0.9711462415683036,0.2252323081874293,-0.002068557726367612,-14.828837556546961],[0.00207386129914174,-2.2303278259431742,0.08152519954101475,-0.7957725315756453,1.1370926196114075,-0.7709196689894098,-0.8038336697876356,-0.9985463403579101,0.16814713841982973,-0.35221968752490707,-3.1736007753732633,1.381263182554108,-1.3040893789956365,0.11202431599670352,-0.4305360226297031,-1.0047481726831364,0.6602247619915211,0.3307009328690136,-0.07216579156802182,0.13336995948403488,-0.4002350121594711,-0.2949968263090256,-0.6307293091056307,-0.512335129680571,-0.6102949466530159,0.6850113897688275,-0.5068599099108623,-0.9730591070060755,-0.2897039875861277,0.28139613454163637,0.7445053836455114,-0.3922569558320121,0.8376278437896727,0.08541878506078691,-0.870381827381966,0.4543962963992256,0.10109712111455044,1.1435314590906502,-0.21528473993988478,0.17230379507589466,0.6756473916833795,-2.5939201433931567,-0.658163369759591,-0.26591990191631937,0.02428201547228488,0.656905831456682,-1.9461485763947175,-0.17152804633840268,0.19868206817951298,0.1995820205982951,0.6851409631768207,0.19711470045927773,0.6205320354942935,-2.5759034013258746,-0.8851531806967881,-0.6119742807844573,0.07973315385327222,1.6510091461518648,-1.230969486907215,-0.7109186550960975,1.6070210229061197,0.3671613226059043,-1.0309327176411616,-3.5617229972283084],[0.6463294159999468,-13.510913920983029,0.0589712637023525,0.8018505750475863,-0.17086452612851055,0.14197174187220019,-0.8510951953762705,0.42091320133083654,0.630156243606982,0.08636956385954409,-13.06666130616908,-0.22122893869732774,-0.4139787401370156,-0.0734963759499777,0.1576499402266809,0.16318050374177,-0.7287164779938278,0.4975251658428734,0.4620752174489912,0.08999025166642706,0.3953311372044118,0.8324512763466422,-0.38536763472798163,-0.787703781517181,0.5855214838813847,-0.58143014906207,-0.5062138901085582,0.6239668680135471,-0.07829795255024627,-0.7579802190735788,0.30218745252762663,-0.330938464244459,0.13316330803435192,0.7493828422873154,-0.5178611687904406,0.8383626755302278,0.4785435642351224,0.45302873989158815,-0.35311929281347404,0.28846397412400815,0.9013739329175448,-12.30015945649109,-0.5102090628899929,0.6820589890478571,0.26516883934935137,-0.6195960105506342,-13.78064451696969,-0.6928544160948579,0.19968634439517008,-0.7940314621014621,0.7067944805267746,0.1557524206992926,0.8767392408234064,-13.26538244293328,0.6381308324604382,-0.41377001703340205,0.18506730655281592,-0.37867582292300167,-0.9778818565220686,0.28106775556332025,0.9796561281984248,0.0019005135383939793,-0.6103284055714914,-12.763426609444434],[0.02111580340156998,-0.9923942318198412,0.17954211269309653,0.6900257098720753,-0.14735465752807003,0.06456339196295073,0.20235713207295064,-0.5513124885407705,0.2458224166345229,0.1882707859669336,-0.9745571672950707,0.7806469309261118,0.4951794676185732,-0.8201650953788976,0.9748027800498775,0.46564910324654846,-0.6049491204841093,-0.4442380004727782,-0.9533851932137903,0.3396058773415841,0.9844336199127709,-0.5927442056172615,-0.9180731548596281,0.08163062787485992,0.16216142943852996,0.4414078365705164,0.6708221751275814,0.2575365041789726,0.4352734658925555,0.13405673769496323,-0.6678944811788436,0.04426647049373737,0.3363454653264468,0.7328889905148769,-0.6102630001729841,-0.17836580948359634,-0.808727239432718,-0.26611999864707186,0.977596821919072,0.6208589612191753,0.5652987568522361,-0.4069166449504224,-0.7566524056641255,0.8533752617659438,0.142752582499566,0.9417822779819007,-1.971503059921029,-0.8232786682807506,0.7557065353772711,-0.7262903176274265,0.33712967352962003,0.4448358286122834,0.38979569719623747,-1.5533569556494948,-6.804123306005186,-0.876171312596164,-0.7015208118329497,0.18394020859914442,0.796093520946819,-0.3643394650248433,0.8484810935201536,0.022882887203788806,0.31145102142242564,-10.025658564804054],[-0.7483617173753162,-5.251810279917545,-0.21810249164533976,-0.9953532273400666,0.7758435682965994,0.948512608512092,0.6955917370252632,0.13210908440649977,0.626397327807383,-0.3975914419355541,-6.445113521156297,-0.40266003766780406,-0.7649471262627761,-0.8679853239000376,-0.5400013161970508,-0.011391284691217763,0.6579101162468094,0.22365046182899484,0.48746364643857687,0.27276293283597014,0.6861898422135482,0.5075320442457901,0.591508814557458,-0.6565344662537166,-0.07552589186049943,-0.9931034002467909,0.40360437859179726,-0.3150708855570746,-0.23084229559006955,-0.9992799414522469,0.11774917522903706,-0.7084015775082585,0.8674482427327729,0.05218903911282161,-0.2554570748010055,0.7469427602869055,0.45333129817074735,0.5564416764131083,-0.5054203988046395,-0.7438844246674304,-0.4390962852992821,-5.3163197141049325,-0.15517496435317285,-0.47272884440884133,0.18417035453738673,-0.02499610900529152,-5.784763909037598,-0.38956240348814525,0.026729745045490277,0.9757422974121535,-0.9730235200009401,0.10397393315564965,-0.27948827291036504,-5.748976358181656,0.7061427015253859,0.8405584146974622,0.6095308209308948,-0.6789243627378204,-0.1105865189810216,-0.6821186073101579,-0.5759827876328169,0.09470895790521365,-0.018668481453822557,-7.044529473158169],[-0.05041959981099039,1.424249775495043,-0.05485611787314714,-1.403444236642557,0.610151914312508,0.046558473819651676,-0.05802337949152807,0.3010256462650138,-0.08592545668943578,-0.6652277825073226,-0.031839713905342897,-0.0674550249246239,-0.3294566885269917,0.08318730177071398,-0.10023557867113075,0.49131654189789364,0.3472264634568314,0.06512536023773874,-0.10768656937177319,-0.040765222927926406,-0.10806213681995486,-0.48769642020990356,-0.5794597029830395,2.079935286118319,0.27511202966553233,0.743617601750617,-0.30325712585282144,0.2944288504608886,-0.44390519006008006,0.8357809297545611,-0.636092951356684,-0.1722043772443524,0.04400836486953522,-0.4580842764884631,-1.7975166080764042,0.09636661373405707,-0.6748459680617543,0.748205974940341,0.016471350147799706,-0.03768061762745912,-0.8094030555004539,0.04482722929604549,-0.16494354200085434,0.6828222770949831,-1.3713110754573836,0.35368678894431976,-0.11578689279228797,-0.7371066309701458,-0.34072690501829034,0.6663833538945089,-0.7664413444905462,0.15947639281067352,-0.8717514874591129,-0.15987330776532901,-0.5869841840850831,-0.20172016532277418,0.036222742325648025,0.614292138276532,0.5063128563582913,0.047294374611771134,0.15575058200045003,-0.5624983495848752,0.3781216673239071,-1.431568463669258],[-0.23681478158170852,-3.298096019253377,-0.37534453938097406,-0.31872016747074544,-0.27012741862486755,-0.14487318624461978,-0.8624458953018018,-0.27611965027939667,-0.36684795555010175,0.027592695871819076,-2.0640490806111775,0.6837678569123474,-0.9300807223955472,0.27647104849613674,-0.09550123025552687,-0.01999978399757364,0.7136478248745264,-1.2578161177082352,0.12945411065610737,0.08812540224266972,-0.012741565784153188,-0.12399981069972692,-0.07477618525966694,0.11273646292490455,0.5692666163452784,-0.3095139207490344,0.24440850545950665,0.8218273560731751,-0.21906534516435133,0.027771613077211023,-0.16538315010196247,0.3881752321542911,-0.10548125965275819,-0.9860049065307305,0.21797514915815713,-0.8774609285977675,2.4634807470662463,-1.198844525814721,-0.02432041036428193,0.1995491243758218,-0.028979233009706024,-1.1512362611687068,0.0013020548993385888,-0.9947680414326631,-0.5143951892841502,-0.06842566151035016,0.04524227351210985,-0.3805564402478444,1.541721778356971,-0.8905942975529315,-0.5216038741118207,0.08998240355703829,-0.12418314356080494,-2.660980488427977,0.02472836575482768,-0.14138065194779315,-0.26455859960239236,-0.034661610073408386,0.23703244794937908,-0.8597770401981857,0.31751564647703406,-0.31472416404215314,0.48096055562561746,-3.0551609635962236],[-0.6949340991520002,-9.086241883635937,0.8188417547046734,0.3117207773224397,0.9482541676504206,0.7276686516912592,0.8266437983241914,0.6101898378874432,-0.13773587971586326,0.536095071801031,-9.000025287502222,0.7723429327938794,-0.12053117034886225,0.4815552680477418,0.5739076249397008,-0.8480906228020473,0.995149546589322,-1.0756460750970833,-0.7533205591290578,0.01464056553850691,0.0754439340494151,-0.3411020681865785,-0.5206121981474957,-0.040654907379125096,0.259697447421769,0.490512161732642,-0.26740304080864796,-0.8182037259916985,0.7880810634580968,0.9434436326962454,0.05393946900913764,0.9261865401027007,0.14541128685487367,-0.9001943075921348,-0.9852397186944947,-0.17420320714976956,0.962224666600894,0.5360601585666916,-0.7240606742247797,0.7003456528339743,0.7818262457413865,-10.002794830304142,0.34624986721814666,-0.1782063847396142,0.8390220335389934,-0.09660339372588017,-8.64370957656836,-0.7243000732657223,0.1113277424097644,0.6377030278794625,0.4966600755786994,0.9453013863079337,0.4957888795364065,-9.902911988628112,0.5091510911206724,-0.42947985733368554,-0.517055284160951,-0.2533708364822147,-0.10017395629041344,-0.9523602201824348,0.2664049473131134,-0.7897995183244458,-0.33121616500687023,-9.092169457436393],[0.7245293552614964,-10.193405156387294,-0.8498188216796835,0.8379573064744685,0.30393966733538036,-0.14725766440136767,-0.2689033557691809,0.716873474781558,0.147233698892863,-0.36506984657977987,-8.800341854852116,-0.09661702457414163,-0.9811680583744415,-0.3492827278258295,-0.20199208054740078,0.41210945927683923,0.29299087777024285,0.2624020710398684,-0.37577306510875463,0.5010230993282857,0.5343457769029548,0.7454273222411314,0.8103721800653645,0.6534735307699363,0.7304380263510434,-0.7209885185352276,0.38600151888179174,0.20772299955163806,-0.9674444125356879,0.7982527513838672,-0.15428337461092767,-0.3507551566646402,-0.5815387888557398,-0.7182286942446979,0.5936577421234966,0.7909624857802587,0.85138673659917,0.5878385648627069,-0.7135375521285117,-0.988817449605511,-0.9472166235586726,-9.863674867996702,-0.8387924886816931,0.8306432452090677,-0.6047134162356097,0.5692738779779621,-9.23340548632773,-0.19640171185769442,-0.018166450536298267,-0.11960271553854789,0.05350827610239827,-0.43543690802459556,0.18894470149236284,-9.027150782068452,-0.33058153569020443,0.561456203206653,0.3030587427753192,0.3846979294883352,-0.11260595456282549,0.5311262172095759,-0.9183786067015091,-0.07826158640300102,0.6010861316041252,-10.240696468049068],[-0.9933340795553038,-5.666992620419713,-0.3933676693577097,0.43735065292993375,-0.014007300095881907,0.013677316690615305,0.7900987775413187,-0.3187311421511524,0.6322755753278119,-0.760470151723707,-4.4328013555192305,-0.3193720936306771,-1.0138791595762573,-0.280531968039344,-0.524270820825228,0.223091070713534,0.9985937067289626,0.286388112714441,-0.5227806786295958,0.6311863371229464,0.7348269460025851,-0.7238432878498146,0.07318733659594878,0.7694065300179519,0.47362235708622374,0.7365315976861473,-0.6932207594413321,-0.17746751456010582,0.7203439546214244,-0.08237657330694814,0.8039243393087084,-0.6768850699294741,-0.6840177841924064,0.33701256979130645,-0.08475985088163866,0.7103351617600764,-1.633038722340209,0.4533234342606902,0.18767598768013263,-1.0542455046738852,-0.3458301929504337,-5.451840405552979,-0.5590712725642747,-0.16078695901439388,0.8141198142934337,-0.8245815361456137,-5.635310215577503,0.4384671335936414,-0.4921173976038843,0.31108505943496506,-0.5760200592624186,-0.1205480881771318,0.4322000994885528,-5.118453342516197,-0.7089592534814849,-0.9736775366188214,0.5974012846241085,0.7305406575249256,0.19824469246254312,0.6091000606754791,-1.2584844862272582,-0.5716177613258558,-0.10925198010816407,-7.03819613347327],[-0.07937955326960906,-6.506934358554329,-0.3531827860108498,0.6130790189654692,-0.652814060825981,-0.2891733611395248,0.14612714501185747,-0.06869744490326243,-0.5848132667758701,0.9162860755104902,-7.43612605361464,-0.8735240682920528,0.3740254520288133,0.6440137155721394,-0.5207480492186592,-0.18288917377589936,0.24574590946558597,0.8294978472469667,0.18390138214116136,0.5319532475897424,-0.49571847388859225,0.694194893979777,-0.1111140981670332,-0.9390516064812313,0.55080977686273,-0.8012746201333131,-0.1405836352593567,0.3685761063929122,-0.17749179533053283,0.12157548298884432,-0.3203240910847697,0.3348133929691703,-0.7234578895247052,-0.10401762443692927,-0.7080702817663833,0.14986579109281606,-0.4415987791969157,-1.1121627651810568,-0.06696984582183814,0.8570903807082676,0.6255557174151694,-6.574835939322586,-0.9935352771870035,0.5110010507860232,-0.28585865007762273,-0.9159417405575347,-5.889956786068366,-0.4778528249598281,0.18398812543482768,0.4360095095818292,0.3168244450524487,-0.8065077628243773,-0.5717137652670277,-6.202452555725306,-0.31860911012308,0.5934013015836992,-0.0017865901002785377,-0.9748389208005382,0.2477881534163143,0.6299620331451,0.1292688495101454,-0.2054837040558345,0.5314616130886511,-7.937431556003736],[0.7797469440717629,-4.901524029488118,0.9991890885303195,0.8794635430858265,-0.2927485098359655,-0.9611941527656792,-0.8559590232248402,-0.4563716189941151,-0.0715258305887639,0.1525870754163045,-6.233230514035436,-0.5044728467938243,-0.775929005018932,-0.42353430109234114,0.5472047694836165,0.31297282556852946,0.4042081838470597,0.8253597816783893,-0.03016621878258205,0.33040523584560766,-0.8986049720981086,0.795777487698859,-1.00606925608722,-0.4021902659925496,0.28865807232044455,-0.07504539103341988,0.8689456034396033,0.4358934964150663,0.17822341521127352,-0.0709313126850564,-0.8490814127576212,0.23808162255182297,-0.11158017718686261,0.05276843023692283,0.811521652205762,0.06519122898431676,-0.9224539290442096,0.11145244084305211,-0.9375757261123846,-0.8923098522281411,-0.9542546317492481,-6.419346711964392,-0.7286836694416905,0.3183929208668343,0.10759023919994956,-0.037148767327553296,-5.754526856720589,0.26964533955451814,0.4271116193889827,-0.3951390490264841,0.19072142038469156,0.5244639024326846,-0.33954875368094906,-6.399692420864368,-0.03516101928809183,0.8066191923677293,-0.8670732519433725,-0.7251366357435334,-0.947826345185957,-0.7492744142363245,-0.047348421381126535,0.0856479576269507,0.5168968501402765,-7.155705537230668],[-0.9718048617211285,-6.580923847326197,0.5175965305828919,-0.0127708377568441,0.39505973402192157,-0.8572137651862709,0.9167057221076735,0.44075136390520103,-0.42717433982302083,-0.019430452393905534,-7.737738136046736,-0.7575492643474085,-0.6330928783587441,0.7470683715602963,-0.5382999698065559,0.8589758328221999,0.7248281109834915,0.3928011870441212,0.619388851382179,-0.9724738609112451,-0.19716514583833583,-0.08346350115299202,0.3958972526931362,0.9165770012057042,-0.661604997365094,0.16226205021198037,0.9161328800035353,0.9166398134241963,0.7499612393539321,-0.5881384375295267,-0.8452216900834643,0.8132650540523878,-0.3694476613667444,-0.538622174554495,-0.04286253467833631,0.5009962305703991,-0.360340698042435,-0.29795652337490713,-0.8085154058061488,0.008406254880734435,-0.15805402607045255,-7.2081943012545615,-0.9314154985929567,-0.16884701664097518,0.3881051573180186,-0.9917218727918279,-6.910355315701269,0.23356689587302115,0.2335588013078986,-0.5455088969285974,0.6223204986918989,0.6291215367348343,-0.8030069810651299,-8.094842392423214,-0.3231224366160212,0.4375291000433539,0.40026440606299235,0.6689162597232866,-0.9089348142170891,0.66442865326459,-0.07161810242536848,-0.27783460676055804,-0.3944600451323601,-7.529646240589553],[-0.4617433183424551,-5.733343556907513,0.7171436052347123,0.8469528372897505,0.17720662996930897,0.16710241587761004,0.3314644030896915,-0.7636242355158706,0.3865305913318384,0.5482352660851584,-5.864566216903948,-1.013832296988792,0.340636570141023,-0.6901211691425734,0.10157136382486714,0.34092327111516146,-0.0506320000669144,0.07274393561230301,-0.8677881977367926,0.9758629855704394,-0.9077625111448138,-0.3046270240056905,0.09315253471602138,-0.9056408357925921,0.8497345632037295,0.3333751427022669,-0.12447763888515245,0.8051422965544988,0.8426661899832099,0.4234923914069979,0.011113429418888678,-0.2705909500976287,-0.3080879253215494,-0.19133164173299147,0.6394601373515376,-0.5763147002580248,-0.3412355964987827,0.20629916168678228,0.4612596276809367,-0.26116434986084636,-0.6312028487800455,-5.385111348941278,-0.55494317422091,-0.42495776415849995,-0.0587286995167013,-0.6414819680528226,-5.193120369487045,0.4444879109517355,0.6996202610149793,0.8173273121604642,-0.3422417426943939,-0.32952533829308783,0.30460624798468217,-6.926319763818295,-0.8711641198288582,-0.8916619075562543,-0.9816705990598076,-0.9446084446419041,0.33077240426387466,0.2492928759520449,-0.421142821445166,-0.0827957490147917,-0.5292703537475107,-7.838861263180457],[-0.424890019254779,-13.430502352583822,0.08743404511043372,-0.9980006500280205,-0.4560339663961882,0.9864259901603449,0.526669615283106,0.35782804260139556,0.4295073273867914,-0.5081834684926245,-14.372515371080322,-0.2629726489047969,-0.45406798464086473,-0.013631000196332854,0.10495812988419723,0.9806603724259755,0.8004035912442107,-0.0487913854621494,-0.8065878164012829,0.35914522579112146,-0.44349637646983603,-0.9070960748739071,-0.4694322272050699,-0.24870248123835226,0.25670756012200996,0.40932806124503285,-0.7868522604410558,-0.2784821556164674,0.24952919721657646,-0.44072158563359703,0.7889368797292531,-0.9250419438515612,0.8960702003005743,-0.28773242064645776,-0.7444973463407917,-0.4444949259370284,0.6365985311948233,0.6030142244112373,-0.9830518096103907,-0.4497513456916317,-0.8472204073462878,-13.014972951076407,-0.4859424360587784,0.9283980234369001,-0.15643347955539005,-0.27107908688664983,-14.449450812434096,-0.4053390486499848,-0.2511726077424456,0.9399602922626072,0.6117858492432762,-0.5170871867860372,0.9085659967461182,-13.3596051526978,0.5567111928096653,0.44526379523923487,0.5516852363025747,-0.3328375826095151,-0.8216818718435819,-0.7129320644652849,0.4916000826362923,0.9756898738409782,0.2745721900325321,-13.197873996999402],[0.45537205790703306,-5.19957513905793,-0.0739574141001297,0.9059094467233977,0.2569547295798559,-0.5704484643086991,-0.2570582210770252,-0.019906237295955077,1.081004554216373,-0.7683727443213849,-5.000250694063879,0.1951267055358274,0.4192228662728786,0.16562327355289258,-0.22327665439674654,-0.6818602340812533,-0.8663091150216554,-0.5816166040286398,0.5004168892925631,-0.5061454528164395,-0.9684644661748387,0.11224546105169016,0.46865917927601236,0.3724315683027582,-0.8158329790359059,-0.2945299640105514,-0.8904644574026767,0.1397905711767248,-0.341798981985961,0.45366761431544433,-0.7157244226368756,0.8849707680542019,0.42262295109941583,-0.9388189201088997,0.6553343693053189,0.7164109909931213,-1.2412028044641723,-0.7176012127068409,-0.4124297480552304,-0.813910629020679,0.6791690671061074,-6.311294060544433,-0.3937410349446876,0.8053548864788128,-0.5253113186990311,0.706176294434254,-6.848058557483027,0.7852930201815853,0.32359681004272606,-0.6099708107403586,-0.9704663703556103,