{"HiddenLayer":[1.3017507868943751e-10,3.1909911844796066e-8,4.457456532178959e-11,1.9920011703459954e-9,0.000030613666531862716,2.6233044886198034e-9,1.9671441321928011e-7,0.00025741148556293386,0.026417920916404436,6.991066884818563e-21,0.000003075275069627742,6.393005021193912e-7,0.00001451167678875425,0.008436202669262266,6.878952488647414e-7,1.0809755004295625e-8,2.1888580852910506e-8,0.000004656739952068346,0.005497131089457709,0.03590955202119501,0.00001175830275096353,0.000002339812704742879,2.008740190371231e-10,2.712676765538541e-9,0.000016023484725101534,6.195578335013385e-15,0.00007332429465111102,0.00003348350323081176,0.000003331876586688372,5.969451825177349e-15,0.0002780410678056388,0.000008194971993091727,3.485869434460441e-8,0.00008816085126934966,0.013320632564224152,0.023817047112500076,0.0002919124055170423,2.8219490348768433e-11,0.0044898392809076,7.269855361581417e-13,5.130676492792999e-9,0.00036768425244672326,3.1826398822966345e-13,0.0000014743305548332834,2.3521311415148457e-15,0.009526164207090689,0.00001867548997939635,0.0023373240893400935,0.020914927137948878,7.356695199925052e-13,0.000011492709824987458,0.000008666893696041126,3.734743780768438e-10,8.279175850637892e-12,2.785282026926531e-7,2.0771064673618835e-12,6.714707323731789e-8,8.166511959675197e-8,0.011325288138818437,8.826316994986115e-8,0.000018381548165006546,1.0769434212720755e-8,0.000024607607284367243,0.01686104504283079,1.8474784065826634e-7,2.876074510980292e-8,3.1943361398802506e-15,1.6248487867210325e-7,0.0004628370380277955,0.00003553309393779434,9.105156169410249e-7,5.472319513288108e-9,0.0002346696191802618,0.000002523541046853598,0.00002734303460767548,0.0025180177424281172,0.00020917292483401656,0.000002466492215233032,0.03245734014833336,0.0000015651921005807192,0.000001225029696157123,0.000045986072179218484,7.513977087677106e-16,1.4641465932231956e-10,0.00001644013224255503,0.000007521039403280459,2.2921722703332833e-11,0.00022665981449733236,2.490556220976004e-8,0.00006036932521128896,8.249508565131856e-8,0.011082434164198157,0.000022496590628622937,0.000004494547702864849,0.00013204180631148712,0.003913343620612961,0.000021869511935586526,4.833649609014681e-8,0.0058882605675411055,6.575386110615507e-8,1],"InputLayer":[0,1,0,0,0,0,0,0,0,0,0,0,0,0,0,0,0,0,0,0,0,0,0,0,0,0,0,0,0,0,0,0,0,0,0,1,0,0,0,0,0,0,0,0,0,0,0,0,0,1,0,0,0,0,0,0,0,1,0,0,0,0,0,1,0,0,1],"OutputLayer":[-0.010877587189450878,-0.026110439478173313,0.002919681922962337,0.009004784548965462,-0.011605812218479093,-0.0002388129081749065,0.0018641500520798718,0.0016952255169897634,0.0012661397828853654,-0.023716649067535202,0.0041727545299926165,-0.010534132440424414,0.00827575497838497,0.02122786796081558,0.005727291387495864,0.0015322729897355863,0.9986284762601829,-0.0040784337831485835,0.01125994838349691,0.00022469428600725618],"WeightHidden":[[0.45632989884875375,-0.29401603887914596,-0.27934028971425784,-0.0991664070159795,0.14402226474725344,-0.9800557439661723,-0.4416418295610648,-0.500042774568034,-0.018302208514480833,0.9591394568251065,0.9537049690923929,0.5364817312503909,0.3637658590822761,-0.5107498544163465,-0.24945327716675963,0.7132936236682683,-0.7229998261111553,-0.41631840745248616,-0.0057256131997920675,-0.06796088766958813,-0.2111943004219165,-0.11016187136169517,-20.242413748770307,-0.270046650685989,0.49462950213336265,0.49083314251290877,-0.7867602727418322,-0.5235466267017996,0.09899078061782349,-21.15923309262791,-0.47317329228036126,-0.6670719765317745,-0.8689079450307984,0.09025622097173946,-0.3932838175362057,0.7341719107731132,-0.6404513826252746,-0.5593091172164846,0.5663055127048843,0.07135790987159357,0.8198632502417047,-0.1694024152252325,-0.6781787708511058,-0.71373576947751,-0.6474370048776488,-20.535634207658006,0.5283628154429257,0.8616319863202361,-0.14891063640705907,-0.1598830176974103,-0.9629933361690406,0.007737696641199378,0.32011716239957705,-0.7177536841553503,-0.6186104722776504,0.2805921489181906,-1.439748998083545,-0.03484518291507835,0.09499001438049373,-21.294721593007004,-0.21863568607926925,0.32259405992152546,-0.13683326638008936,0.07096456150147631,-0.2635093074178124,0.664427131739084,-23.078533045037247],[-0.5242823599454806,-1.8347477500615164,-0.137540105018995,0.7541595695103532,0.7034672805355701,-0.4165074173179079,-2.012120267997106,-0.7544739303762231,0.13132465677903976,-0.2611534713251498,-0.9670879239760771,0.13307682542076674,0.6165777934019246,-1.3203951847313156,0.46081656939377597,-0.4638685022880024,-0.1874194080677105,0.26933081355162364,-0.8132372754544269,-0.10222485780642676,-0.3487875794463901,-0.7564081202439827,-12.121522843988721,-0.014642002924194843,-0.21057070906681255,0.5874903620336301,-0.011894223589024464,-0.3608895196573036,-0.9685188305845628,-14.5668335126667,0.9557424770225107,-0.9387876543728593,0.7400667195621433,-0.1217369201762943,0.7683510791407671,-0.474830968537082,0.6411366173423988,-0.2692864165526719,-0.03712862655117724,-0.6493408240472706,-0.7994027574960912,-0.3047088680929424,0.22534867895120603,-0.2643581046372684,0.10932605607713036,-12.63709266540685,0.8386456875708553,-0.39694385538663224,-0.40055236544302913,-1.5668919135153547,-0.0014360410144222619,0.9565879001353965,0.05071234168474899,0.858327103155057,-0.23216343481278345,0.017487829882803726,-2.3303444042143187,0.5865506041910772,0.41580566548057185,-13.556447041096018,-0.061750774217982356,0.5518594740804771,0.7018210139579271,0.7952667208028416,-0.6951509831787613,-0.3001849627749434,-14.765695830631678],[0.3156788760646288,-7.71801284941587,-0.7678255143945776,-0.9803374411898791,0.7852265524473706,-0.9702496433559584,-8.256895851246579,0.6544463341474609,-0.03194269396569646,0.34378789418751077,0.18012089619642382,-0.7931549700612426,0.15230456122269587,-8.976476502691344,-0.8321115976858287,-0.9061337907367779,-0.7357026913320307,0.7441778848010377,0.8991312621841153,0.8241622127214058,0.5850295294748639,-0.0644553335250245,-0.170738542628076,0.09763432716601218,0.3739579639975801,0.56382744960976,0.7981459856631378,0.5326601428199822,-0.4104096707974172,-8.907108886862591,-0.943863775508391,-0.4063072676440891,-0.2492077168136997,0.01756409739055198,-0.7819371640282018,0.42263035724994,0.09206555881882705,0.9689022366055221,0.30319821307459144,-0.38255133808979536,-0.4267598564657527,0.18491154520042938,-0.2751013542053126,-0.44502073837216877,-0.8188274308743723,-0.0010176362116001223,0.02957550388759172,-0.9768660847614673,-0.8203073576911242,-7.468228390647201,0.44532530524109437,-0.44640498154461716,0.7492970157643376,0.3377703605025699,-0.8733904997813908,-0.9393227317188062,-8.366859233724421,-0.945037008174013,0.5885731962068728,-0.5897503773384632,-0.09567974006294418,-0.49116021991850967,-0.2292132831759709,0.5584038493467445,-0.46397901134997155,-0.9269668549917235,-8.683613660588083],[0.13245943156412648,-1.8668847230973737,0.03900961932385034,-0.10888895240582668,0.2883737536203379,-0.7700112949674577,-2.044912473234291,-0.05167172896952099,-0.5190579577436476,-0.7948723108340469,-0.9803377980533227,-0.5506790233087826,-0.6105710719092436,-1.7219137657578636,0.8951623161538865,0.18323412653313612,-0.5830312800020341,0.29316477346888875,0.7818805193993076,0.9787346435241358,0.563470812657699,0.427894122298713,-14.482939252778245,0.19645679870005672,-0.6578272174165053,-0.8513333236594126,-0.1013969474485904,-0.8327029833887992,-0.4609644887739086,-17.043875006720558,-0.9984762742052784,0.3636016105664718,-0.6871141533673779,0.5491391814479978,0.0468585724183528,0.5821803408126983,0.4595671362969452,-0.4883321176224687,-0.11599005826519328,-0.6753085592140794,-0.9444802096501351,0.23790595134220888,0.7255300817037147,0.07441540114375518,-0.639809086995171,-13.89713799190205,0.207348561407287,0.137774285043885,-0.7378495384398261,-2.326528968153841,-0.6734463750401055,-0.8891301148803649,0.8868529094420485,-0.38920607798331763,-0.306138223222749,0.9512243050658595,-3.4594691312233463,-0.28191569280869583,0.23916595224114306,-14.797968475639756,-0.5989985008557173,0.06777979201698062,0.30030183957017986,0.33758906079415946,0.0007592699060603466,-0.9686289564773795,-16.478566106510034],[-0.2551751413955339,-2.9268045236062994,-0.34571865003389074,-0.8852810259705047,-0.6925750634566283,-0.7469399551319914,-4.434937609801098,-0.4219096523396666,0.2611142719062586,0.7926106383719039,-0.8982361300503909,0.8632352609550642,-0.48373073647833703,-4.1735166557140335,0.28553003228291024,-0.8052190952071463,0.728941605564961,-0.8701281360844159,-0.5494682203301803,-0.9639574133167211,-0.20762479389178573,-0.6084704454283753,-1.2699871218308174,0.8196342788553606,0.23017147235468,0.15773948815730124,-0.2871612902074213,-0.8262332100019465,0.4555169344714266,-3.401513340646205,0.235923166653783,0.7266505931275394,0.685798121960499,0.20270298079716528,0.07853605456810629,0.9067306539268871,-0.6036304146659438,-0.6002392532875346,0.6689286705021324,-0.19829347313569812,0.6315635122189154,0.3671367649202691,-0.7945238642023864,-0.9323089755090725,0.5406637395887045,-0.3217712868112833,-0.4306499050845019,-0.5599978265996701,0.054555866730179294,-2.7864975147383464,-0.8218550263649604,-0.922098559983886,-0.22582534113716818,0.8443746685281889,0.4002749807512981,-0.9840583374020317,-3.664455881555608,0.9336360614760395,-0.9452340609041245,0.13282177619034266,-0.59460336662239,-0.9460010461938081,0.5772915445519325,-0.5168213007015254,-1.3553459767237117,0.3309639929810986,-6.004285781242095],[-0.6408553075168186,-2.2405279648888676,-0.6032211252472716,0.6184946295043457,0.04606292725512633,-0.22277718315853792,-1.577213227826119,0.08523340124068135,0.8817169411928832,-0.06354989750288002,-0.7610791889444636,-0.05718466498461993,0.13651648219838022,-2.632685885142766,-0.5200015213296316,-0.3109588687803376,0.8632443594073383,0.307041196525578,-0.43709193484483855,-0.8230734159999321,-0.4778587805250564,0.8264901434380094,-10.491003545854387,-0.5967553119500092,-0.7394116981875749,-0.6054399882175227,-0.37061221401494027,-0.14289076153386157,-0.9582234977682377,-13.853094579412815,-0.9629022804425666,-0.5745241771140658,-0.9297700915456286,0.08915480331492602,0.9431037768663141,-0.4725724320987386,0.3033813258437134,-1.0934319619110966,-0.3134837551085831,-0.08439936253681923,0.06389622221470581,-0.059627628772839156,-0.04142246067797566,-0.6274239995987131,-0.8318595275283307,-10.438028902195686,-0.3598979298937717,-0.6283544338866736,-0.3911950447733779,-2.789890298512089,0.7059210466202548,-0.10725998070312061,-0.45983416662812937,0.060641095704666206,0.2970692280381401,-0.34570979137523905,-1.8497177140934056,0.5948054666146361,0.5980181448874011,-10.577892760283172,-0.23144101508318538,-0.17209189394700944,0.5568592642890163,-0.7496623921795516,0.049728206370469485,0.13765070356987966,-14.100983435338865],[-0.6366750138459162,-4.940125641512001,-0.027445543453334022,0.6467162137636051,-0.12755219582233815,-0.5521329023815219,-3.223220208886036,-0.9441900079648101,0.15743207650377328,-0.35812162580954426,-0.42745198045665633,0.3357074658249252,-0.9425894050726342,-3.2462641407139987,-0.9299813316410828,-0.6810639994528419,-0.7195948227849817,-0.1832915797789546,-0.8310804030961499,0.7798845003714562,-0.21852024316942303,-1.786921000139063,-0.9136884089974764,-0.46523854255575686,-0.8652415417301275,-0.3639875066025942,0.6035520490294152,0.4967401880307513,0.2128640757150301,-3.476688139924803,-0.9152101107921471,-0.3498158685671318,0.9974182114700345,0.13511600869003096,0.2820581098582093,-0.5755157592734,0.4099225593936771,0.6867312986364799,0.3890942283071275,-0.18209841778539612,0.9324122129740169,-0.49701123571030814,-0.3723706356213089,0.25514166944407884,-1.4632822678738708,-0.9733674298934709,-1.9146036357795082,0.45636093065520517,-0.6290314618808469,-4.643882468711034,0.6627774567473581,-0.2557002466252665,-0.33971755531892955,-0.04238594419591414,0.5287857466004218,-0.9086433760177907,-3.8724832664287767,0.4530125744582885,-1.0502810575826131,-0.8597529621826445,-0.03648544776620234,0.0717581208235019,-0.8766914918306685,0.6667198492368941,-1.1400964088364292,-1.1630831416439786,-6.401721216864742],[0.16766046492758815,-0.11388525458276433,-0.3840164437946108,0.06264078360883786,-0.11084937388863571,-0.8366916834538886,-1.0047406369381768,0.8428535632260717,-0.6989861399145448,-0.269167306222437,-0.7554796801106711,-0.1635680476981051,0.5291260274187658,-1.285834374345742,-0.6711260170716596,0.37709370080579446,0.7312862526670716,0.19051345018959398,-0.25332624521642927,-0.4117713772877606,0.014677155231484516,-0.19662091754187383,-8.751982776454218,0.9889582019396234,-0.4845324275198619,0.3806570614657699,0.1534758421924893,0.2141463257126401,0.1792213278780863,-9.112010695409392,0.09619653468159586,0.34144592390295053,0.3959189913435712,-0.4962406084217255,-0.05369659760967245,0.8439162673906025,0.05946892530906409,-1.2741598741723625,-0.9623700601256411,0.9274928087158927,0.9254822594988293,-0.9674682093545172,0.918369210376015,-0.6365384104527527,0.5457633607739599,-9.699276235434038,0.848296995385223,0.9622920965506223,0.4642214668576141,-0.5537717191061231,-0.7923678737307861,-0.21684033614883727,0.08569110916729683,0.9874505088223071,-0.06404627467265822,-0.30556139651432657,0.30482439012163715,0.5221862133126797,0.10271693273686956,-8.707414884253364,-0.559250805163907,0.8670084667662695,-0.9083270655873551,0.8838451816040428,-0.01385334515532627,0.5631743405011674,-9.846860598321788],[0.43627704174821585,-1.6622241558387107,-1.1796391590204738,-0.5688688880130869,-0.7279195068149444,-0.9215997727070062,-1.1460062582780532,-0.9025470357135398,0.5000049432755234,-0.573673304737083,0.28189070057343596,-0.9588201844744477,0.2826794369569432,-1.0854447384444068,-0.8562411041710378,0.6561773279013954,-0.10415971653643037,-0.45629777474304645,2.1962275329961107,-0.6192910431415637,0.3931310237193943,-0.7402418460463801,1.8078691553595838,0.27236216023732734,1.7654961840083567,0.6788984158600705,0.6699957162161012,-1.2440890309442891,0.8476677958788789,0.3912371949720392,-1.131465453828766,-0.2552558047491782,1.0367112875178037,-0.6292955816815555,0.4371305807147671,-0.8991068523891322,-1.1064579405590456,-0.8705021183721163,-0.12788637019996443,0.5353703916962467,0.16651567469473158,0.34637987780719787,-0.4814048149487351,-2.444455911687628,0.31549248042246325,2.764075154176708,0.05728717263761313,0.3874509044685092,-0.4040229774895222,-0.8433872164321153,0.2662390527204111,0.8847190313160066,-0.22505108811856275,0.17035297802825025,-0.9633472492367406,-1.0737695431573409,-2.1893061320076184,-0.6400543195510109,-0.4783570852495803,0.32715672597403156,0.723199893111006,0.6925905253915583,-0.5547870791743795,-0.16871830793676784,-0.2521997357806724,-0.38467425773193864,0.6074404683000716],[0.7632925982197576,0.5201841503517971,-0.9169346602220503,0.9517892827940653,-0.884982821773376,0.6773839755905584,0.40651600366642926,0.29761246769486616,-0.23748594793594524,0.06601079453889813,0.9478141513323999,-0.738476499953397,-0.9330688077251185,0.42846266958124923,-0.10984512896517018,0.7753941074776542,-0.693408555462296,-0.761979775821999,0.4566403368275791,-0.8066954944781833,-0.03392277427927659,-0.5530739299110875,-46.179656498758995,0.4949517235958716,-0.0342431693254206,0.41197922112475394,0.7932980913063397,-0.35434726249738646,0.8978759103333744,-45.1419475537937,-0.39219517274342275,0.10584865494070361,0.9561076889838334,0.7041160102016968,0.4192145638871905,-0.6299742637723718,-0.4434319188619563,-0.7014753954953017,0.6958709857860057,0.6772742475242404,-0.11302389309990701,-0.3819348275870481,0.9562924273870879,0.7578740618003996,-0.2646358052652146,-44.58647452105798,0.26219381378604867,0.24484176957250714,-0.2748552731946098,0.42945787500304533,0.4970368492054831,-0.4982606732899928,0.22273348492593947,-0.9388246688707611,-0.4141052860244865,-0.28634145556987456,-1.1995358816847865,-0.17758296596854362,0.4420310055353531,-45.903312049973906,-0.17320452776409712,-0.5457842206170556,-0.3102039396668437,-0.487486736778759,-0.38982551357715534,-0.908849797927999,-46.064251836951186],[-0.45662776185908655,-1.9996326167359806,-0.27829601884227717,0.7376043254158414,0.5702998934367601,0.6743084238789536,-1.9760033478804695,-0.3020939718821162,0.37248686036430195,0.4658938872825892,0.524866292508116,-0.8145235101096375,0.18699352853405402,-1.1831134537897467,-0.3256070422254788,-0.0546651985330792,-0.02088527386609253,0.8562373303922809,-0.08548963706785295,-0.4725507136930041,-0.2021606776568101,-0.23314054966793754,-2.1138802592357098,0.4213023140085314,-0.561390874018055,-0.08670254653564181,-0.2699561915594931,0.05074396626848496,0.2543707702194149,-3.41744391019672,0.6817882810783202,-0.7465298703821416,0.5440940773090466,-0.21057759312181973,0.7775963837407903,-0.8547071266886253,-0.72702211085992,-0.4357574702581982,-0.12665732765113816,0.6871536358388317,-0.9328476804722117,-0.6205568902804222,-0.3411237840627606,0.9022263100941136,-0.6550886352247245,-2.4914160489134543,-0.02433894792280797,0.47538052090898986,-0.5178963167893998,-2.540129091651209,0.8829880519331584,0.3346586363752208,-0.9537685964362695,0.8277957861789251,0.588727880048288,0.6196464086169436,-0.9434724602096188,-0.4735637768121763,0.6640174960862995,-2.5721283141011364,-0.16063380321008577,-0.11593953262057242,-0.13914937846637018,-0.5552137784313986,-0.6920054185659991,-1.2233942286879758,-6.268867715441079],[0.5459827573576261,-3.931858999444908,-0.7469363062410598,0.011517499720789548,-0.4286542204589766,-0.16694192624041818,-4.448544086219904,-0.3643446115345722,-0.15245091511512282,-0.07371043914547848,0.1743888995597006,1.1346066098920882,-0.18908914106094366,-4.254644459033244,0.8593609520617409,-0.6120864921675399,0.9896346256049263,0.9169996199457644,-0.857697788251259,-0.5757742019452988,0.6426571532790633,0.46716351604091594,0.20931743538229328,-0.5457192767060414,-0.8668969582119191,0.7702769886149481,0.6051591583900866,-0.6514340404395059,0.30168655093021773,-5.816814612033315,0.18051925083791323,-0.31366058077406117,0.8074802066098875,0.9687472763942592,0.2816451129378974,0.6921366141737681,-0.9120959493438168,-0.5011940834776868,-0.2781747627353867,-0.6347142601209503,0.012351847524093452,-0.5689482621777153,0.42083318263168096,-0.4190085829387715,-0.5030660047612565,0.11083949890101286,-0.262644696904487,-0.5229501390306412,-0.457018374503392,-5.338788711969883,0.33500496526644796,0.8715209790070395,-0.8752818592025157,0.3589793960390945,-0.7697055031550509,-0.24024725951717,-5.365510249426129,-0.5762927043921279,-0.8883512502603162,-0.00621021738355844,0.6920784912068434,0.6979984172928348,0.09922781242236156,0.5091517547743172,-0.8110794957546262,-0.05454015411261221,-5.617238524756235],[0.4755780077090618,-3.498231193785626,0.12859680334317783,0.6835363832719917,-0.9858478767378611,0.9097039281770882,-2.862544803398025,-0.3316378027104238,0.6755486898325317,0.5769185646552362,-0.7217112527870294,-0.0025799785567818738,-0.6304746184118999,-2.1208610081657087,-0.695390533146574,-1.7167511200050474,-0.5100905763015164,0.7672712104704765,-1.1829295039137435,-0.8567274064406555,0.3837066249265253,-0.49766043471837623,-0.5265604980514056,-0.7823213664981573,0.24471776831163378,-0.02011762951892436,0.47743931755697044,-0.3476119573107854,0.5438003707939775,-2.284551463202791,0.12388229969605447,0.8652662079395953,-0.15428640306086977,0.2072516630435262,-0.9607646395425958,0.8849303432980902,0.022624123204672563,0.05608822276115365,0.67326590325309,0.42797271696730244,0.6007852982600058,-0.6618617528602013,0.587829164547205,0.5470396416367889,-0.4985610384125424,-1.1095166340491331,-0.9208665772454168,-0.896743970191124,-0.3944656940589986,-2.6072497357440283,0.1743030831503545,0.5633442002900596,-0.9067543114278183,0.6168514693422,-0.640263524954508,0.22436898952346973,-2.0947491604882367,0.8130405829114258,-0.38593413520966485,-0.9839083179289995,-0.24926916544225833,0.7401834678345814,0.059536691629751545,-0.4765420698122493,-1.2272255257543687,-1.5580174399658415,-6.256493641193441],[-0.7191680920413523,-0.5507684087846731,1.0998842241301854,-0.8875527733223391,-0.6890162222686708,0.5386126890590449,-0.5021760270770879,-0.7223737189102838,-0.7463456257948261,-0.6307189424485163,0.8502587432271289,-0.021931061242834924,-0.4263700051385065,-0.4739271454707613,0.3160767810111977,2.0201536896017194,0.09989652883864143,-0.6636526838341683,-0.6852158791372088,-0.4381529084373943,-0.09894482648075001,-0.6274000654804499,-0.2480531767241102,1.4551253635390038,-0.5501807837607051,-0.29407795165318806,0.11618529359086212,-1.0614489932299738,-0.41764481537427794,-1.128755492073858,-0.24970090818898402,1.486868636728829,-0.7755748489563938,0.23574246720627992,0.06641805507216494,-0.8451077664981185,-0.23528372344850623,-0.45441553859342976,-0.09834233218636271,0.30006469403933045,0.11116339088660339,-0.01390037384539788,-0.08785180646327626,-0.8407302089507257,0.6594530779225505,-0.6249814927541234,-0.01855780982392695,-0.839849389517012,0.086318260617876,-0.8372414686136241,-0.4247597800140529,1.2204690439965922,-0.6397259164294067,-0.21980162993508207,-0.8323798442290122,0.10015915130075996,-0.20588596712114063,0.008593973865345814,0.3131636588657379,-0.42412274580303533,0.6273894730580449,-0.32376528827972667,0.9413711467039767,0.10454682967535955,-0.07827627432839379,0.5303407526905954,-2.6469765668020346],[-0.03611200525200764,-4.21655379718504,0.802402869415218,-0.2508040462918372,-0.9494948969499797,0.889339791491925,-3.8355993873918925,-0.6676761451978671,-0.1991115182739486,-0.6193775807657865,0.3478034184855826,-0.8275945637459601,-0.4202974965828181,-4.932658683115489,0.4921214400461373,-0.706233624412775,0.33965131015291256,0.895722911087102,-0.7437102920314973,0.35632271269461485,0.568667086331415,-0.8707719159543308,-0.5608821686852744,0.48674198051400164,0.10140947061107138,-0.5009076291281135,0.37303192324856965,0.40493066463689736,0.6258910089581502,-4.330872322113574,0.6622313826206968,0.5700794070639692,0.08699728296488554,-0.7539641245599614,0.8015244067487153,-0.8987686040882303,-0.6984278770495294,-0.26189917118253137,-0.2774056999179001,-0.8360221983836537,0.5500808140166675,-0.22149851631597225,0.5619885103272046,0.5291804172482024,-0.23935777706112218,0.0006275880678055881,0.27705705932448743,0.03850980019535941,0.907735384743078,-4.116227716314248,0.2669641417471523,-0.8999821469170712,0.9548160268103443,0.025823285381039004,-0.7733092229852424,-0.2258999648437104,-3.306879673585783,0.12329021601341228,0.1661774967630231,-0.8207492342205409,0.10778123676135377,0.3897924398879023,-0.8994886883985067,0.5880002260573854,0.1534844440145027,0.5767738843549299,-5.6693689540334855],[0.0852264732017722,-5.629509886713922,-0.7639945027024747,0.6431540586522291,0.17326871031007626,-0.8381472530062702,-6.1964293464156865,0.8572911200655011,0.8903741493316475,0.01956335304533757,-0.23679038973861757,0.4757075676301425,0.793075311159195,-5.61864636444928,0.3867037123471748,-0.42514608423485645,-0.9576301590686365,-0.25423561494089864,0.5731841482477976,0.8312904497339807,-0.2678364051135861,-0.3906457554954518,-0.4658994012994494,-0.958054055908728,0.18579878242124168,-0.5513151524754155,0.5313766742468324,0.6478033568659707,-0.29791586988854224,-6.247548871761233,0.5730297757418376,0.14840388111624267,0.628723869130913,0.09999031822889491,-0.828753394716951,0.8301459242093927,-0.5250657971861792,-0.3602589884421784,-0.08508233780634683,0.49708456169524906,0.2989271053955822,0.7867729314878998,0.8027386444831561,0.3857430172714042,-0.7313088608045563,0.4404389296771022,0.035136579376204825,-0.20988204642423572,0.843704789250309,-6.5661962712690265,0.854117570162369,-0.789576972864062,-0.15967728319198773,0.0742660166252312,-0.7872316702421753,-0.9206787358355989,-6.573531158309552,0.09994323642771871,-0.3213782329282973,-0.6801925656983395,-0.9349664522683778,0.9855101086613222,-0.5690519755056662,-0.7398208975153643,0.7706574464252114,-0.26753212976977353,-6.33737895790612],[-0.2223810206045003,-5.449130954234783,0.6407187125916605,-0.8057610701102942,0.8103190696629224,-0.13848097249640284,-5.43651661022676,-0.8719806141924433,-0.42204803275043173,-0.8124062224756256,-0.7603623794997387,-0.16956811657283888,-0.028889321296839982,-6.069974594635887,0.6490758685981878,0.06064468175121618,-0.45603202886566996,-0.5814931201156427,-0.8807949895938415,0.6331054362175571,-0.6543128431393909,0.4732934192408349,-0.5837146376833631,0.2942074224814125,0.1667642975236732,-0.8371171822601513,0.027721022037094995,-0.43352673938539116,-0.20953444069820135,-5.652696329978959,-0.7410681347629751,-0.2510727578069882,0.8396614605407047,-0.1582441804817697,-0.2588177487657873,-0.5390976864607784,0.14145861304801036,0.19169949989074037,-0.8784961860599196,0.7489393572102674,0.06247982652762551,0.17652663984473102,0.5525156116408727,0.5729848436495046,0.2844205730543903,0.6284551875266181,-0.7524803435344084,0.9553063224074893,0.14133982817719928,-6.365587434327462,0.8542728288437287,0.36964585971300096,0.5551181321381239,0.3912496671487193,0.4924397228422766,0.955113786348449,-5.812107142528525,-0.9180748916555082,-0.5701278662821531,0.0525503472952091,-0.1370202911860645,0.2969590562140334,-0.09795506052308606,0.9370898290267126,-0.6502173889676054,-0.4959339068191969,-5.302499562048641],[-0.2130629406212419,-2.1480554913815526,-0.31746106856547096,0.644310743588197,0.3691322972440958,-0.7657435096729398,-1.7085548891307958,0.11935529050603627,0.5808504643466997,0.10184892081437667,0.5678095639287061,-0.5587396666093074,0.7827334190900181,-3.1161729917510534,-0.47369458834647954,-1.0525222287692928,-0.7079788974268552,0.4553098847483762,-0.22947867387321247,-0.9004651871075556,-0.6534424686236776,0.2788902528986969,-0.9644288558245905,-0.09941282894766881,-0.21008800487571025,0.4045620651575185,0.8524080557457213,-0.7136500059228591,-0.04886769286211352,-3.253236863904912,0.9133370233131809,0.07448072145481684,-0.8744717892480932,-0.06904014705880542,-0.19000666297001548,-0.09834969886473624,0.6661013954479976,-0.6962009012192937,0.6735316664891963,-0.15645796111138546,-0.5174052627933061,0.49180142565688806,-0.5783468490273828,-0.5057714417296917,-0.9319459478572172,-0.39327801614588803,0.6058196749518964,0.07766422114134255,-0.1182970181964962,-2.651933576128559,-0.308647527006744,-0.3460816142012465,-0.4944222489530239,0.10253403424579761,0.12378536158649561,-0.5507786539983577,-2.74582441674902,-0.7432616668539506,-0.5652787108946291,-1.1254989693356987,-0.389417972134543,0.11033707505958058,-0.43113760922907196,-0.8340838593095515,-1.0117396873762112,0.5424000577127244,-5.801506952743214],[-0.10036195611103824,-0.18372390448630355,0.6888261429621615,-0.6260241024429727,0.5651413906177459,0.7707153992604893,-0.7242040476842294,0.6697282430313574,0.14331263522822943,0.8282485735864257,0.676279311746414,-0.27364763257342795,0.09920104044052264,0.11063119417322914,-0.02337187983012888,-0.8443687857936296,-1.2517206571042172,-0.575429212968095,-0.3117417130472318,0.19303780429863654,-0.18604904198379105,-0.17493293052618827,-2.119224099708683,-0.5368230744431004,-0.8028841427824196,-1.0765554273651596,-0.3914099689721969,0.0710297008398357,-0.5419488241874922,-3.7665657472172254,-0.4445422284608207,-0.9125850584197376,0.3213388532443342,0.5514531872075664,0.5583362797134698,-0.6153599721538392,0.2867563278024093,-0.6210663526946844,0.5135365890798562,-1.0750003171291462,-0.35504184610412964,0.39293763912340884,-0.6811688452432898,-0.4360818929485281,-0.04404347254287019,-3.437806539294972,-1.0972782884499106,0.37988271281806213,-0.3722311127910547,-0.0799784042207928,-0.6311367614726723,-0.39170375047905326,0.729269666146759,1.2204063627843285,-0.1344750021892837,0.3753256272736127,-0.4475096185119619,-1.5848883765422697,0.9253304617803992,-2.5641002213397326,0.048918747945225105,-0.26924948954720146,-0.47166096890719184,2.1722498630307006,-0.7415948835670125,0.4381250972766604,-4.907886499935879],[-0.3108483685490311,-2.2497776948580053,0.5770873976021618,-0.44779130565182873,0.49834218157242594,-1.9932799478506462,-0.5304270666437833,0.5132561803674449,0.46863231163509445,-0.37603817993175825,-0.6540404545280534,1.2877998158111443,0.35266355489521983,0.23611502301473522,-1.3202199556911285,1.0961201190966692,-0.6227396908968914,0.04987531366824329,-1.3073063083992527,0.6756596409468293,0.5407752899203718,1.1780358865121356,-1.4724323278666611,-0.8712422546573849,-0.7682553535388467,-0.3409826804562204,-0.25213273264197195,-0.49056941487603284,-0.6467027465731523,-2.008217889238612,0.2584920077899875,-0.40032310221661843,0.08753303794243501,-0.31940547190277213,-0.40516144695651213,0.160319478219367,-0.6096793691636453,-0.9122165486501403,-0.4746315264658798,-0.9750709771025462,-1.70607003457507,0.6559404417257655,1.002418963058358,0.004354856934930015,-0.42273785480047366,-0.6036060611104438,-0.09384097115224527,0.6002833913051322,-0.5214107569696826,0.5388461036760336,-0.039852562301403244,-0.5595067311938878,-0.3127076980485384,0.23170370032312457,-0.5771113294538166,0.2834191309258285,-0.5076157364369038,-0.7994181504810315,-0.3470416300449809,-0.6633377010174443,0.051046687710562574,-0.46730185448088296,-0.755204053622949,1.043180404323124,0.47977690627148495,-1.2379466435973767,-1.9844310713001054],[-0.280862604322362,-2.815871529957228,-0.45056693090085603,0.5432143119798157,0.6807435908377222,-0.21420938342141008,-2.9347811738505114,-0.30183466740119735,-0.23491904177748077,-0.377528899495201,-0.629682767258247,0.748775182699337,-0.02436783491467463,-2.6672388525771265,0.4655674564908799,-0.8172828224774203,0.7020681657907074,-0.38086263528616315,-0.7826753417036674,-0.7337640723012492,0.10360034099481513,-0.614408900391906,-0.48204141836177444,-0.472255522283061,0.12250028368229675,0.3655809168184551,-0.24915081624039764,-0.006452335704360933,0.3508300966813308,-3.0836288535411644,0.8540702745115412,0.4140084848609564,0.922034817690798,-0.11273788568990743,-0.9954177972900004,-0.0549903164389064,-0.49467048647004086,-0.08907176603747001,-0.8537651664041012,-0.6181544789067518,-0.45308469576949356,0.6562133216126349,-0.9299281056336477,-0.5674073688146831,-0.17194273701949248,0.3216997343982108,-0.41455888705761007,-0.7901024306799442,-0.8989219808338891,-3.603568837964867,-0.6134440169460871,-0.2685503415575816,-0.505122105286237,0.6630144583046536,0.4505549127102463,0.7253767105383776,-2.711391555800878,-0.06350730619905315,0.5391686813649351,-0.7990734782073056,-0.5051412541601502,0.08062323153011215,-0.8059502300439279,0.6146870226224559,-0.3285136140488824,-0.42935501736246307,-5.427690382668624],[-0.4897441636342827,-4.154690558084768,0.6419530718218805,0.25039101790104257,0.5116591245884348,1.0072127896544436,-3.734100246097137,-0.6760081318243005,0.6689922428210697,0.28731777784718143,0.3426945095224212,-0.3597971134789376,-0.20573603408983712,-3.1424415060713184,-0.09883297683593367,-0.6531432935234971,-0.1781320947233527,0.5271045672142076,-0.548382689157199,0.23528162214220652,-0.46760392500350584,0.9573004906876542,-0.6130960453791698,0.8379173069260344,0.1785107870172249,-0.867121626371311,-0.8805544016693989,0.20449256332018886,-0.6241225791295931,-2.336338367169743,0.24847085982124667,-0.44074597549257283,0.928009881690943,-0.25887540238173445,-0.6713475694482935,0.788156551372101,0.2934071849713438,0.39033366519941454,-0.05252112188793689,-0.9375858115300045,1.7630915221202033,0.46522993540113033,-0.47295740208200626,0.10619128609950002,0.4230138627321487,-0.21855285408505504,-0.08219055787463064,-0.9878156135969174,-0.660714316685915,-4.192399985173139,-0.1404199680841896,0.7751409049577543,0.6614946879882032,-0.826343126220483,-0.8501659637864433,-0.7341717337824423,-3.5256265650176037,-0.8681399909273022,-0.14914072232974818,-0.6543989127415039,-0.7796897242731983,-0.29754802901139277,-0.11075475521176127,-0.18365697200568873,0.4460815265042567,0.0705513610859531,-4.3547062331155635],[0.02534658914601319,-6.567639031454689,0.0626445785261087,-0.3097452721211319,0.20356843838680277,0.2384633738012415,-7.199193377992449,0.8972626314610337,-0.3973110619185529,0.3474431333332258,0.6284358298388977,0.279079537000478,0.9321301004654998,-6.58097653726346,0.6080148193789024,0.7846312888652522,0.23993913652013313,0.6501864366598359,-0.004564285514771394,-0.8610227754604836,-0.538257322964153,-0.3042677549460813,0.5280870437783708,-0.618130883800415,-0.0284027402406519,0.18173858714614696,-0.4390702820236736,-0.15143661423810795,0.5072753073713984,-7.270839590519837,-0.21416796762756884,-0.1892732515104748,-0.23222323684365298,-0.1598716066929819,-0.30393218722899307,-0.6268560258593636,-0.6874181626436215,0.4015799020207764,-0.517186207936575,0.8160195343456726,0.5790038237196676,-0.31759056268906966,0.5733662061392973,-0.029686503156487794,0.7873003749067145,0.3063854177432254,-0.7030782728805901,0.8192722714948536,0.40993064766663095,-6.468435309794269,-0.10863876771093481,-0.1941911815788102,-0.6118286270675373,-0.45918081650995396,0.32700714989951496,0.9700172862337841,-6.872666262928455,-0.697051358134009,0.7526460197043049,-0.8757860600315421,0.06048873983893308,-0.6082184915472064,0.4880183772283503,-0.7916825547503772,-0.46362034879227654,-0.02592338619522099,-7.176678878724224],[0.5561482326142309,-6.015531737550459,0.9293115397326016,0.6098321346848299,0.17707397572817551,0.7450887086564916,-4.890367480623327,-0.8442015616219367,0.4257754941613581,-0.19782076138976248,0.4379395191320666,-0.48244971834320527,-0.2157670756822201,-5.145942698049583,-0.7575820881768116,0.12736496086145074,-0.8106731599799559,0.4945531654151219,-0.0631957722897883,0.011771035308831968,-0.6846558207798827,-0.5994295663021679,-0.934204875875188,0.41064982046029663,-0.26903659928334855,0.7134981381562719,-0.7361787567171956,0.7136529744873256,0.4274479802402515,-5.4977151145010055,0.7474639543594613,0.19850294516872508,0.7653630663977081,0.46882002629856684,0.8891157735706028,-0.20998689087629144,0.6413044090582515,0.1258548864492216,-0.7050569294196283,-0.38972386022007327,-0.8080413186613752,0.30499331014131636,0.1307134003175728,-0.14448495555576518,0.5938271657210599,-0.0016621975245989773,-0.08820021843805617,0.5836026608687477,0.5877131277784454,-5.9937916693860664,-0.0171150762302242,0.47735506889931667,0.4216022400406489,0.740810537530668,-0.8057631213779869,0.2700383410542375,-6.376675115518634,-0.7037990650150725,-0.43704322852349836,0.19077180289405246,0.07838617600676359,0.3771178828201219,0.916704951228623,-0.2383080819421389,-0.2464583235193987,0.0924806037108926,-6.563912483054512],[-0.6399600202608721,-2.8863793533376194,-0.13504866982072064,0.40939254398373476,0.9075532325910509,-0.6447214984393268,-2.054314779564382,-0.8799179823366514,-0.28854928825877607,0.9055183017712999,0.5828690901834361,0.08122212668753631,-0.4115233603393849,-1.8554540857386803,0.4425757371244157,0.5035917015947208,0.46643013845630066,-0.5336250874870557,-0.3128835681020664,-0.9869517244394737,-0.7346437297602576,-0.8731555703052941,-3.505788950557383,-0.8257675909224307,-0.12300589026456644,0.5593782164419805,-0.055293942446353446,-0.33046759787934493,0.5733590433764795,-4.662727145668504,0.4026185707614227,-0.5796497469757802,0.7464648981644728,-0.6129887815406846,-0.2489655875979717,-0.014611537644591215,-0.192145856268459,0.128258806214423,0.07008941183829293,0.5966548178999209,0.674926569411009,0.4256439883555809,-0.6098153123807323,0.7799108993853356,0.5375668311199079,-3.500638298284293,0.16554203582616825,0.7177944383762153,-0.20918430428457846,-3.2201116152548965,-0.5638042290441473,0.385765508971624,-1.1097896216708292,-0.35865122642840347,-0.6318653533234962,-0.4018036881723253,-2.024244417905758,0.6136537593933827,0.6280721838831954,-2.315907142277594,-0.7357035501896996,-0.3903192957860067,0.6472680824811989,0.9398619257305794,-1.003238268212956,-0.5879183184565919,-6.473857803278235],[-0.535639693455209,-0.6046446845181802,0.5104134911491953,-0.6157772648731852,0.1916687197500361,0.451598970329318,-0.29407813858660514,0.7003626131325305,0.059699164843263666,-0.630672810951844,-0.5922513875495935,-0.3074831158208063,-0.08433318880416918,-0.26848934177268496,0.5231440535405955,-0.8478910541893684,0.5802076687759969,0.19930722047876803,-0.023031765316191954,-0.5114424730960748,0.16228340690288773,0.24033779371573996,-29.186479724643046,-0.512931123216735,0.47973964013247467,-0.7871259155059712,-0.5927575491741353,0.5383278857534866,-0.10277588807177886,-30.314750415699926,0.2316918354027919,-0.287627128211668,-0.9845644035445995,0.2528303469244646,-0.7502003811294363,0.9971443309496824,-0.6009909946012619,-0.7300062174083668,0.37514275205967756,-0.21053709777775073,0.06065986638336463,0.27220382441337754,0.4228193522282955,-0.17200965361758044,0.6365394845766854,-29.74447284059689,0.006598845718583609,-0.8823570516361947,-0.4694909547936829,-1.7840027124376918,0.040001010528576984,0.04942002629474646,0.1534354526442124,-0.5514304405293673,0.9549541532339446,-0.7706742213406244,-0.7861118330557886,0.06858048939466531,0.6596518417435436,-30.775419918884587,-0.07498662672591193,-0.16719753154045922,-0.3086586636882564,-0.47745356834994945,0.20519281359384559,0.5191226511974536,-30.914564384098163],[-0.19632705774914186,-1.9139853507449842,-0.9195196721356292,-0.796982640387137,0.1038528812964616,-0.4233296215915865,-1.398478059222023,-0.33078251338128173,-0.927913648375234,0.4167085471694489,0.14391781367084583,0.7667813160823027,0.4771000413730071,-1.5872712803491484,-0.047387216566973055,-0.9632226137176392,0.06534580635330146,-0.5359200734914679,0.5718813963248419,0.5658436885396899,-0.7651360140098754,-0.4252725734450266,-2.898603542048007,0.08277425054008722,-0.5544035099721089,-0.9989126340502665,0.6957118510226178,-0.5000935802058335,0.20143979676186993,-5.683299441250114,0.12121676657187722,-0.1471621444600047,0.837289756891438,-0.23645903933579795,-0.5514400522157872,0.8625484315801787,-0.29852744674456705,0.22025425425914047,0.6296087928953512,0.36296119072927296,-0.6841620631975254,0.1681149459208652,-0.2378128461822493,0.515441722701419,-0.7192264587753943,-3.037074161540629,0.0981681979479822,-0.890391041900523,0.07710219983511049,-1.8854940814355081,-0.017910732987815738,0.38857756388254816,-0.30374853936853674,-0.6133760548883082,-0.9719327456045483,0.5348932408663098,-1.9458250822318368,0.49826605828208226,0.4209958993544057,-2.3134393578276726,-0.13180101528761326,0.18088022723101402,0.01025076681502496,-0.4961445733694777,-0.35856519235632184,-0.8225488705335662,-6.585760227728224],[0.5314342559566607,-3.877216295207139,-0.7262363749751025,-0.8781366062838964,0.614995779810068,0.6362804756980983,-3.9513997511173256,-0.7980461271283714,0.42035311960642746,-0.7941214566724855,-0.2789559631636563,0.5392500308928388,0.02066593354758504,-3.219665743042956,-0.6136968802190568,-0.9359074738364432,0.6201632622485319,-0.34461777050072856,0.036045809327349305,0.9270266813435749,0.7079766180701196,-0.39082985105363993,-1.2074060494925534,-0.49054787232420416,0.7091222758733906,0.6106296199154502,0.8072399621212367,-0.374131230042504,0.7595798380548445,-4.390923551274697,-0.49388331762142473,-0.8368661758399554,-0.7488575240710174,0.9967166110238743,0.6845516535406236,0.8584228947669794,-0.5199120504390465,-0.47986185204393067,-0.05263559722023223,-0.36776282915702974,-0.6514310949456951,-0.5392186920038573,-0.12075847530610699,-0.5979812872648663,0.3484830083492451,-0.15548400949575342,0.5281651533469606,0.5327844760717514,-0.9862410574623168,-2.4345605656497753,0.7372026549629868,-0.5582356118849459,-0.9411884761268303,-0.6511423761803378,0.04607494546795674,0.6331288207860764,-3.1379456174533864,0.22412463234671554,-0.7263859976333085,0.1528076736405665,-0.40654436848253633,-0.5703811807780147,0.857753625747312,0.5857140750434565,-0.8225020563283845,0.8353366159156089,-5.660915790990561],[0.4240811387751922,-3.7111540981268445,-0.41582290235575053,0.34415207563559463,0.80140105729013,-0.4360853025604118,-5.355927020116671,-0.7632908480194516,-0.5191618170772256,-0.9240378298002471,-0.4447709655477577,0.4420105066736768,0.3668543237056827,-3.96652009667593,0.13951504844996598,-0.17917572280586283,-0.6984862209139189,0.944169569665549,-0.8975146216181771,-0.6440819603369943,-0.4739273239914614,-0.39818365623022955,-0.5291253482984626,-0.8631735256134823,0.588766910699903,-0.9616148004222493,-0.4418609643732143,-0.3502520704761437,-0.24657578471487948,-4.345943313152327,0.7028305557046876,-0.01566018910522104,0.2555958683542876,1.1072794294436168,0.03700302129399729,0.9423457031768834,0.2426261257802838,-0.693750331541341,-0.07755601116596095,-0.6256898218824891,0.7077356164774743,0.45353281643966586,0.7409740550867706,0.21655261817217555,-1.338859426616497,0.05953201854445521,-0.15395712821898475,0.11034095581732384,0.6233330829547514,-4.296444582809027,-0.21532529131842457,0.03140335479087452,-0.6628810588258685,0.7161631198109797,0.43008359806475166,-0.14063876795012795,-4.853236658628188,-0.5785920339785973,-0.10546768879942417,0.4337351960570416,-0.1394524589875067,-0.6696788293931141,-0.8510268216688253,0.727202376839328,-0.1569912715523202,-0.07988962166905642,-5.6953293811708585],[0.24434603731129592,-1.3348688725529436,0.2740927587987467,0.327797846686684,-0.6105654118572328,0.8225963256357176,-0.4560214649537256,0.047898121011130446,-0.872211958762499,0.9383117065654045,-0.3116854474388772,-0.4709891139301563,-0.533549306654804,-0.7711781935248004,-0.3057993331227545,-0.9179948002415694,0.668119117241286,-0.5801045073839705,0.31160483501846997,0.7438262684921083,0.8543520558317516,-0.8037835178409066,-28.467366834065068,0.2496828372861523,0.5903995335651612,0.6229653523487767,0.8758291745229605,-0.7565241009466932,0.7967000869538688,-30.130441095883583,-0.012789471298575748,0.41098387063429054,0.06249086600314678,-0.9663485667616338,0.5302073105877152,-0.35142427823750105,-0.35862270777757815,-0.06586240998548264,0.2570920410416425,0.19518029993148078,-0.44645275966461206,0.8743139355560964,-0.06235206273198968,0.8080616690173092,0.34129953068918134,-29.233005795929532,0.3435148384825676,0.9126414187347205,0.6463907086652987,-1.4407943942447243,0.7330853504679942,0.21617590644569112,-0.781352130441274,0.0396796239422666,-0.2725433276113265,0.7743260704692443,-0.9060315867159296,-0.15522765363779573,0.8927416308115209,-28.299019914460033,0.7403375488200796,-0.7385351298800701,-0.3113471031677966,0.9122434579618487,-0.40559342840989276,-0.9914872837682832,-30.38204955258925],[-0.7621865467057106,-0.730606653102711,0.7622869264150578,0.9319606256072226,-0.9731042739617662,0.01513608770221075,-1.0662616452723919,0.33137569483980894,0.7025345002237013,-0.5108131945795927,0.10286735484571626,-0.7775817425771114,-0.6618637482440521,-0.5978557729886034,-0.3324028406090539,-0.023882578472952144,-0.4871976793809837,-0.3661241523557824,0.04850113537317597,0.5577291827375443,-0.13261603356734206,-1.1417280120670863,-2.938965451730525,-0.13272720939479854,-0.759310289086054,-0.8076269807215969,-0.12968080623843437,-0.10181386536109746,-0.36487374542726686,-4.514673262838671,-0.8182662478390524,-0.0846616816811928,-0.05997672049610064,0.26260451033089094,0.9805010306135405,0.6681467874138198,-0.22278201090032052,-0.7134885316493047,0.09709705356581239,-0.7762961687611142,0.7850527017033371,-0.7631925158133754,-0.372735718286131,-0.6244702453553634,-0.20183730179331388,-2.455994017711418,-0.07400103020250547,0.9332303548136098,-0.6919261089852375,-0.8804832707563637,-0.8520575602462624,0.06895843766324188,-0.5571543244854545,0.16756860547922048,-0.7535841768054109,-0.241232449506455,-0.8655190252826152,-0.13268879992460025,-0.465337689968564,-3.927506892763102,-0.7016647993459043,0.397055906458626,-0.03127872789991989,-0.974297073456957,0.21792207382558867,-0.19036161567971494,-6.137561309829624],[0.6229760488780195,-2.113742736328293,0.14488255734830685,-0.6534032371112424,-0.9633062699639348,-0.06436714449796475,-2.537802056419103,-0.051586255794816495,0.32452958341037075,-0.1753887474377855,-0.8057566780885983,-0.7224891163269228,-0.19527371072168898,-3.2932753387034226,0.677648755420261,-1.0602449569820285,0.4848278937781807,-0.7543827152631021,-0.4607978888451347,-0.7183995265192789,0.4101708810411812,-0.0503033669248946,-0.8077338259354246,-0.989214332225921,-0.6425145680689698,-0.6303082745035717,-0.8832787355166147,0.06099591829636026,0.3903277761284897,-4.433890052029501,-0.536037533957306,-0.21894553664269042,-0.8096686373489068,-0.6150201669499015,0.584436853474727,0.31110443398556636,-0.31801284374602634,-0.595205590199885,-0.3155475732971547,-1.1932536084651046,-0.752172415699337,0.5802374931755152,0.7550148586176442,-0.3796368365450162,-0.8650186263297677,-1.3983748660873754,-0.9877146110914442,0.8713803793397424,-0.6072047653086209,-3.4354374785013158,0.97692935067495,0.43799712415013864,-0.06266937238855431,0.3455277169571658,-0.275220798789997,-0.4572569874680164,-3.2018417539346777,-0.3481844377394955,0.42310128185889284,-1.381139663483039,-0.45380187379066433,0.5317956997452171,-0.03350832277684063,-0.5660588178047021,-0.2970871524345497,-0.08153044354003368,-5.55966463963191],[-0.8755564200058965,-0.8544779529182922,0.29879273338208895,-0.6318896784244833,0.6612694968871691,-0.5215043599354534,0.6166513130341871,-0.8869796871218144,-0.47953448229764173,0.43715311450924826,-0.5702675550462275,-0.689398139780053,0.6632608424293255,0.208259480378142,0.5643998817172807,0.06377653861172504,-0.6456349967075677,-0.005580005470169092,0.800400507718272,-0.37871688290234623,0.4572362902849596,0.795544315998316,-13.36894656595521,0.36308656682580237,-0.31401285556211295,0.1136170735738214,0.22231344431363498,-0.8427159017508561,-0.02071648067010709,-12.822800877638509,-0.5892714325927958,-0.6983482437811555,-0.9005239652416653,-0.8624902439791419,0.03412135224387099,-0.1015300482642002,-0.25024180024561365,-0.6911063700647373,0.8820231818797742,0.8262783781807819,0.6118040055704501,-0.36336864347127323,-0.45783039639430145,0.5607997585614465,-0.29193178426761157,-13.389231622773519,-0.41525085916872184,-0.3241005460885016,0.15101982740994468,-0.01925116392793656,-0.6894901471049271,-0.15314749323990065,-0.30269784887109574,-0.5989713769906918,-0.8212314135860651,-0.7379681761559426,-0.5928644210557888,-0.894762351959371,0.9112547725910926,-13.664213341566677,0.2542643783091536,-0.048269704641433764,0.008826400934041528,-0.7433736896095899,-0.3621357115821123,-0.7625217628755249,-14.558568012054522],[-0.3614562805080643,-3.0976522947129244,-0.06670755105824959,-0.5090256882682915,0.8194808564557136,0.9615567583447854,-1.7993361249795505,-0.3183435131084848,0.2988659094577095,-0.26439089233674173,0.46245809577717684,-0.9383453730047875,0.7584109612112244,-3.7472016833392,0.5891208756591396,0.6220668116265587,0.11602613941725025,-0.7412749590529183,-0.08099432557462302,-0.486553821919558,0.5498792313715758,-1.205321287540781,0.15655058450507695,0.3005760217797402,-1.0131634999789987,-0.8170973079169911,-0.5004056396422094,0.7297705400501011,-0.7787101083310867,-2.506180642342254,-0.40219684012738754,-0.4283620436680911,-0.9981080173150433,0.5039939602087014,-0.3309704624363265,0.4082594433395615,-0.07546736864955468,0.18644651533648343,-0.2544288321171347,-0.7153378806577385,0.8085530535409453,0.6624626563366355,0.9600953306382503,-0.07618554094812145,-0.1441548732323167,-1.1693580201318385,-0.8974636435815108,-0.20446459648616902,0.40837051779944056,-1.8947911953954741,-0.7639956435542316,0.017995866418296057,-0.41393083010624854,0.8565921519400268,0.45361084997532314,0.12403075848412666,-2.4543470221052828,-0.13538175313096293,0.19416988073016078,0.1014031810712649,0.3611924298870141,0.11774502314317822,-0.36757649790475216,0.5060187561770687,0.6020213719857649,-0.6173774730507973,-5.122724467883471],[-0.7173622010783999,0.014604824280525263,-0.17830208086496105,1.0786138773332667,1.4069619012640444,0.6764474399284256,-0.384713744356617,-0.847958224104946,0.9217298535429176,1.0559554678385668,0.3203991640588166,0.23703696167579866,-0.5999104767222839,-1.1705008011458302,-0.2687193047772967,0.7477642828900164,0.06353266969075508,-1.6361433256969218,-0.774164457269156,-0.6682726713099127,-0.534281873719255,-0.7682816807111136,-0.11520381271146239,0.7070806781253878,-0.7592962981309411,-0.8325460411175124,-0.6605991545531779,-0.02587462224979258,-0.6314730144958361,-1.8322263246159498,0.5061353494555011,-0.7088536568989282,0.8846248274633274,-0.38068581499153514,0.2113162335374616,-0.9370642612189173,-0.37630127012635006,-0.6767160826346272,1.557757215541832,0.5886978033015864,-2.869804029252302,0.46492334447204553,0.8246185826057056,-0.12398918908965606,-1.421335123054627,0.6342882102382208,0.5153646879427147,-0.2259245299994333,1.5227874608389798,-0.09276390691607081,0.33494849418433675,0.7087413080989798,-1.141739873665968,0.584698085505307,-0.48821533600268374,0.4679933871474688,-0.07195006032053479,0.2237405995224076,0.09465447987948214,-0.8273667724652052,-0.3565334320463048,-1.0398295832344615,-1.043467537485717,-0.387855613317771,-1.2691528371993843,-1.5843679176110999,-3.12572421725734],[0.5287264968279263,-2.084267202888829,-0.5786902358898569,0.4547304239395514,0.28264641749892705,0.7712774944677419,-2.0239157066457243,0.20848595104767287,0.456184435298918,-0.3980303584707858,-0.566924435737356,-0.8486167638767371,0.015154439540595073,-1.3168614770866618,1.161965274037149,0.8065328630948688,0.9262818179980102,-0.16361586498254102,0.16541926834798168,0.376118963971132,0.02549168939140044,0.27620308083852646,-0.3160203898646858,-0.12691267125861921,0.14365368295354736,-0.8365729881332151,-0.34547282861363593,0.04142649516302836,-0.38984952916150345,-0.9150668899162109,1.15028385809066,-0.3491082086998904,-0.6897320488836215,-0.8594333128693354,-0.8595038845235197,-0.7915362249388564,0.27052952962619337,0.034924304763520486,-0.19839430760507223,1.0802990547843239,-1.7971468119244736,-0.3644026914924601,-0.3187795541756407,-0.781728169836901,-1.0276525553759701,0.38249234079910943,0.03462513378852128,0.3565905131560091,0.042285744295745845,-0.3345453291830866,-0.9119408866647248,-0.8522130094245982,-0.09701839749876581,0.6519752006759945,0.4377834383492735,1.144828778991572,-1.6230385611696692,1.8220066672101909,0.8267441940511958,-0.429312297797862,1.1290054551594293,-0.6485467768123893,-0.7194463619744421,0.753034840728853,0.21043293265097396,0.34081755395210556,-3.078710642486695],[0.33345311799620947,-2.3678120573891035,0.533217761576749,1.3334372321128498,1.61046732835823,-0.3461188565664782,-2.2594097285008212,0.4518948798380324,0.3243365255613495,0.2521282878849075,0.21875789570066567,0.4041672036456899,0.5417934957103774,-2.0023076545205685,-0.8585340532866461,0.3194338610204269,0.3096308687777525,-0.1306113513023841,0.29075719041149745,0.4243054558866587,-0.4412351871255445,-0.31283558884243573,-0.6204582197557739,0.7444806697967096,-0.5061651487675359,-0.9119021217211555,-0.7768268684128157,-1.2348464995691122,-0.13809327334878352,-2.498980939488741,-0.10477488512002997,0.8921517126243623,-0.8271106244324924,0.3328293343451003,-0.7620759862722972,-0.3954515251428503,-0.6094810631230334,-0.8920629617840582,0.7324838310515309,-0.2697562581877214,0.3753862050804082,0.5172780929993919,0.669156524136807,-0.17194893874593245,-1.3334465148992567,-1.241817755904679,0.07490786555348546,0.12299576002724882,-0.15371851376916304,-2.67090182243768,-0.4118250426581309,-0.8498477969447196,-0.49922269246865464,1.6585744547511745,-0.29353210732521656,-0.2940729736388731,-0.9357201779430535,-0.12385574105974148,1.0568469947115047,0.4239795397419324,0.8818016528762541,0.717277886236799,-0.7936676003835262,0.4087748750455792,-0.02542489670216377,0.2079088153086871,-2.989532954162545],[-0.47023429542743567,-8.243562106641281,-0.5751045556959867,-0.8297151114235103,0.9963454072961012,-0.235356788891903,-7.498418861589866,-0.9938830446269854,-0.7103093079825646,-0.6350969285413678,-0.8526345192463545,-0.7777843653209225,0.15964765023504576,-7.3034920512844845,0.27567362562090125,-0.01614318819298749,0.4841972493394632,0.3025150797538986,0.19853039485352264,-0.12921450126393544,-0.9161053415015302,0.054974211891603994,-0.40005785727742643,0.44335501402621225,0.043818243062894384,-0.2943821326905076,-0.23473374556726886,0.6294545878866028,0.10567229305174465,-8.532758567490122,-0.10938792240826693,0.1778415112654713,-0.43368296686976165,0.5542352486908739,0.1925357819087487,0.5822349389354566,0.8309016118442,1.0273458523828334,-0.35063598686087166,-0.3926972427316508,-0.17915882952939902,0.40494878008971985,-0.6296393109680347,0.2762177241659056,-0.8117238372980679,0.14804177413046612,0.39275584675875636,0.36684823003555145,0.14632611717814661,-8.665188983126004,0.288780126658304,0.3741266475030408,-0.5809949758808401,-0.39594380498767573,-0.5352199208109762,0.26726461344739905,-7.294224039200365,-0.5805027685720251,0.3381663354944411,-0.6938270940918293,0.775628951696514,0.6871851010912143,0.9309701655445088,-0.031213734207004344,-0.8190238025820199,0.6874114267656842,-7.352775575955069],[0.11865115349575982,-1.911366611302628,0.014891265845093671,0.7722919958451904,0.49877421308170017,1.9401889514593047,-1.2436025488183098,-0.5846564739443953,0.8777948031269659,0.3309899100578361,-0.13408555500113334,0.7409027165262607,-0.7233473063363431,-1.68743473679233,-0.9061467449410016,-0.35958055689605295,0.05267768052485827,-0.8997075181345875,0.02784863868594657,0.11799123961677863,0.517977631645485,0.3989247953395263,-0.2605176353529518,-0.3678672592788043,0.2779684406911434,0.49301798551190007,0.45170486708986823,0.49565342263476775,0.3920822734335103,-3.4777340850936462,0.6144906347800444,-0.3810666149086565,0.49506921317863656,0.8601659957205972,0.17856693499725904,-0.9411709307822664,0.5165440748260943,0.20669200168769192,0.9001822293796677,-0.39649679466655013,1.1129813543122573,0.6356680403190808,0.6638551883990247,-0.14936642613196308,0.46600989788823577,0.815368456538098,-0.011319701433108967,0.39247114788658943,0.23660765351151014,-1.6514098439238674,-0.5845128694387933,0.6149801078804011,0.10351216980099834,-0.0980308685225333,-0.5854134143660119,0.658679536527586,-2.8091252418439003,-0.19762605312389453,0.07288111876573478,-0.21816224216123548,-0.27160241980553557,0.1561950013746458,-0.21100573774713374,0.8754925870093626,-0.952337500159874,0.3262179133217741,-1.5751037577368872],[-0.5670589232676386,-9.010458851761117,0.23014961246936372,-0.8390675800693486,-0.614092640780112,-0.2357268130035916,-9.269110736386544,0.44998944205183083,0.22114575724521157,0.941771251227927,-0.881391705316249,0.36038119415031283,-0.010165059466274615,-8.2909099357651,0.7543262259638028,-0.01768751548411343,-0.46944605327526284,-0.6193237293539229,0.41232139150991376,0.7094817742862175,-0.5522651689690133,-0.5761379722544381,0.5984088795768959,0.28559935809905856,-0.2904955909014889,0.7014524343375326,0.23320577759058558,-0.13317809762771823,-0.22198645260767982,-9.511158005482041,-0.07153825004663518,0.36651299207564036,0.4203912999956062,0.27237615337795157,-0.38519669349186536,0.2764630765277186,0.5764934155315955,0.7058048875020273,-0.8446371202520166,0.8042707710962596,-0.8896573163130383,0.10215992534786353,-0.9548718579045409,0.06559460644595318,0.21828613445525932,-0.5150774246322116,0.21877529101694426,0.02318831937774248,0.8400495306612201,-10.1184064302264,0.05385279755248907,-0.7524831627528604,0.6413940850804933,-0.8836675513214209,0.4019913850072457,0.2191354897031883,-9.66008975193521,-0.8858870482332912,-0.9803706217997443,-0.6595414471195129,-0.553943343266929,0.01150871411461969,0.8446086195375571,0.647837463701899,-0.4352349469870085,0.2972535349618184,-8.85941802121659],[-0.7659710766302834,-5.832859730996492,0.6190246743435495,0.8273808624140281,-0.6060391126948497,0.4736726312994989,-7.0482831225944516,0.543488121566948,0.9881535069975742,-0.5517610390536866,-0.8460349346155185,0.4291869030155237,-0.25493112349121033,-6.467900562989831,0.47774664446698833,0.11015839319341035,-0.30184311137186776,-0.6989193694892872,-0.49951782530101513,-0.8494240959863834,0.4674034483675933,0.5052951996584188,0.7911580774083219,0.889943612880106,0.07724918547400583,0.8080296682196354,-0.32128718043830623,0.05729677845366535,-0.8670786630856427,-6.402285287787788,-0.7984916043470095,0.5221019608174212,0.03763718263086077,-0.7643154600605278,0.042156301611058676,0.8373962451881426,-0.9674886424277687,-0.2044324757492737,0.3412970204680676,0.4122233346078435,0.45390618467602434,0.6263229237929026,-0.22768229222436653,0.8999134917316093,0.017247880558771005,-0.019157872753865653,0.715435510003356,-0.5677570111025132,-0.2675086776995799,-6.1441459447615125,-0.8939025800974775,0.37694673419090263,0.3719470399746777,0.45958788751929963,-0.6580606758480759,-0.9580297433037382,-6.2298308322191565,-0.9614239983880137,0.6917449233438331,0.33431979568737824,0.5893821307129704,0.6087343496983078,-0.29753711859249454,-0.5594312949129197,-0.7298920840934612,-0.030412830189262784,-6.427563546695443],[-0.413875465714918,-1.8474708905097061,-0.7032007725506582,0.2950788662482798,1.1534770663051699,-0.23968121984564494,-0.3206799827328376,-0.21119742727910543,0.9114655251862064,-0.354058732666408,-0.36509849203900635,-0.29484815149840127,-0.45540737211609544,-0.3050902115068139,-0.3118494201647196,-0.6319912294062198,0.607286249714215,-0.5538592732125526,-0.2710628111211335,-0.6654900714758041,0.25122920768397033,-0.6846279314069741,-1.622509587205748,0.6156648552346577,-0.6801292261990458,0.04052131037456449,-0.8712748528475214,2.5074030160761005,-0.7603163385340348,-3.585834327653106,0.9030192661743369,-0.08600666680978611,-0.38213711746217544,-0.2849080869045678,-0.44966352558735667,0.21835373006643588,0.20577081919723267,-0.9283015536437246,-1.0648661057735074,-0.9805470759803202,-0.5794847638249588,-0.5003869860873496,0.8766671953546993,-0.719721816768172,-0.8643604908906962,-1.2610511384611915,0.8172773336813768,0.9251037157056684,1.1653277762752356,-1.064162357182413,0.9038563153356244,-0.9430692017530419,-0.5094060418371881,-0.5735660263325487,-0.6555058973812004,-0.8606768511017165,-0.5350376623303271,-0.18186153495270022,-0.29520671177910673,-1.992037902128846,0.4354665950969692,0.4881248901894999,-0.6965619637014382,-0.8942530220372621,0.3971881775175005,-0.35407221509393433,-4.138545776379021],[-0.8234044512508885,-9.127345669409745,-0.5741127816395254,0.9627619506191883,-0.7393292487415555,0.176961351563486,-9.251354720832543,0.7405919622372867,0.6065353551928557,0.3093236730038062,0.727304438906363,-0.8173608795836318,0.695787183819929,-10.072231805409178,-0.2809898616469279,0.8272011530341743,0.5857472697163064,-0.6894358671669927,-0.34407285491794515,0.9613662162968258,-0.5265154252426932,0.25669474937287745,0.15162035487478048,0.285673876006236,-0.4745097403421409,0.6200542849111336,-0.01348702189933475,-0.09260889995703307,-0.36895738933041883,-9.742422091115296,-0.948470646554771,-0.06400346772658787,0.11431189694781632,-0.34652562066102743,-0.04766529712030884,-0.44311990569250176,-0.4220435426416671,0.41864353625025325,-0.6761631213527106,-0.14788374116060504,0.18395203289147805,-0.09798512117889728,-0.42203568133170577,-0.6363184820564777,-0.8168121869599911,0.1776943355266997,0.8588772085472797,-0.4610848868247933,0.5311438980031822,-10.205642174567378,-0.7893377801962007,0.3059749652529548,0.0655858533290707,-0.09752340336576702,-0.723143717746581,0.4208992157271183,-10.452084955819746,0.007944322490392631,-0.5837565262715629,0.5471913521865895,0.254930878675637,-0.11098133055695507,-0.12917390025778705,-0.30040352982710333,0.17653685698241034,0.811655216954391,-8.70732824687705],[-0.029742971676084404,-4.5433761935965356,-0.5578149102849272,-0.5697683236003241,0.4497982310213404,-0.28395702529302397,-4.991903813384937,-0.24680545422514738,0.6550752296333872,-0.8437297090708803,0.45670331008513004,0.2233140105622701,-0.42638474619359484,-4.5852087967001625,-0.3396856473377257,-0.3013064439624941,0.7537174629642558,0.05003091027528626,0.19683313991370424,0.4789464140041762,-0.8504309740602053,-0.3367924210851066,0.22366351626075154,-0.6242151152995996,0.5750258898064508,-0.6063662726028487,-0.9892167087123085,0.1424786190627373,-0.9360016380098182,-4.487429618034965,-0.9576181442959604,0.00299978406562181,0.2250640320679856,-0.31896056145154295,0.34918293814510454,0.32011579429918247,0.04673739810749013,0.563996680815274,0.15689126751089677,0.38593513687894526,-0.7332887813016644,0.7783018304413835,0.09702947038057654,-0.9708496738952004,0.8226243924209207,0.6906805594032692,-0.08497552900526306,0.9219438401535339,-0.6356584434035002,-5.024248058151126,-0.8547265603998244,-0.30717118199266114,-0.02383400602369223,-0.46925847265104853,-0.10297277973577432,-0.13593725118040131,-4.6353648346729095,-0.6906589847131244,-0.8984706188127833,-0.40735210297764246,0.4904270708064925,0.4805322883754826,0.24187305727091646,-0.5132456426245193,-0.626112895704179,-0.46945580128200265,-2.9758918580442635],[-0.4958500200470528,-11.8863543102843,0.7015052360019853,0.4371074330868793,-0.19329059317628908,0.5335399469351015,-11.7974534871318,-0.3654943291337096,-0.22688454881461442,0.6221088368561115,0.43947365312411185,0.5302068966587637,0.009843157485490028,-12.163767964590656,0.21636422253631984,-0.6681074197478722,-0.5524656997033102,0.4858926586236958,-0.2181081383102832,0.39880506100926333,0.015080065394599013,0.2042308565719648,-0.9797095622627847,-0.6300769428184637,0.2296405854781929,0.4149590583480898,0.5627992509779361,-0.825522945962932,-0.5570438009755148,-11.549898089023754,-0.5831575855911182,0.46508596952570463,0.6608651063041221,-0.42244456807369624,0.19905627733444597,-0.15514107705788374,0.8479979982865015,0.6306754836043194,-0.6714241644131328,-0.6363834520360839,-0.5319705097521419,0.0015343236667513687,0.24327707705831098,-0.2222374722682008,0.6728263250848739,-0.8849150738614769,-0.671588738406663,0.054563824062457064,-0.7591640329908537,-12.32580808588143,0.3310695668756761,0.12978573185396158,0.48902908851565596,0.9868190190431477,0.24413420785466564,-0.7536455902802562,-12.454604497233777,0.17369951426606822,0.0427220827285159,0.7142702383179642,-0.814311986654226,-0.6168151179297355,0.4132370207741808,0.9788331592576834,0.18967009742357985,0.9279130452270011,-10.468683809324322],[-0.5706869615799709,-0.11578575206852436,-1.0720400308789688,0.4473113105504111,-0.6739250881112492,0.48583215049355444,-1.0887534650358286,-0.7749461377144692,-0.04401585935908613,0.6792033589555234,-0.6103744576482893,0.2938227806655697,-0.14092287740027576,-0.7229779918249107,0.6241651623901319,-0.4640949189393064,-0.21072561105604526,-0.06400004926989707,-0.46476233400201056,-0.3580591321183121,0.9488244450495118,-1.1749184264899846,-0.8239927047574382,-0.495889489786275,-0.8811657949845494,-0.66455344141589,-0.36669968573286743,0.36027077957401094,-0.3804153628522075,-1.4172027052002911,-0.17344387525634788,1.727679399764392,0.07159613102911853,-0.15970510461146173,0.26008592586612245,0.10765828678645945,-0.2328642007981866,-1.5427102162321646,0.6589063663237371,-0.03756339162900907,-0.19893515866083053,0.10112243680004199,-0.5011078070794551,0.9032391588850152,-0.5747201712927205,-0.9712611085639634,-0.6289933425245258,-0.5482860395134246,-0.3083641301730524,-1.4115037009519107,0.04636953627989705,1.096600800848938,-0.12917542737132456,-0.5345844536778045,0.9842080880017601,0.4603998882766189,0.3268299225718193,-0.08382653814140888,-0.3278131465131108,-0.3067211649791737,-0.04414144862975742,0.556343502562687,-0.6566451195839078,-0.11024715449691266,-1.6498136034187134,-0.6301473967079263,-3.030788021229915],[-0.7991422780471802,-1.7497797393802224,0.2444160565468407,0.5904657091811267,0.2341828519812631,-0.36842176746057714,-3.060850984929259,-0.4075046983941859,0.9589350990755732,0.025108461291830107,-0.6579435054900181,0.48978667785992197,-0.9697172900353085,-1.1105545785064623,0.4553448483438583,0.816652818490609,0.3416066230826323,0.07073585599800013,0.8901381008813987,0.6833476416127678,0.3702737881317521,-0.2582516136991135,-4.943215520370115,0.5188724009454315,-0.9597827966036362,0.5069538695778508,0.8898403467602108,-0.41025559240825166,-0.6676746317945824,-7.302895225492523,-0.6007424591468338,-0.38273028701123396,-0.9840209275084111,-0.2205886408222616,0.8799658635312908,0.22870613784186958,0.4725107767865872,-0.5496916143577549,0.845147677426224,-0.4952331644365165,-0.6059802662051307,-0.42662503924705114,0.8299282503435506,-0.06797093177838053,0.570873523425304,-5.862812925419751,0.23721558585725647,0.8683168575472671,-0.4468097933072881,-1.656991051617172,-0.43548996035804166,0.23823815504353485,0.6801347294833844,0.545330612653983,0.8150019910747092,0.5829498580321751,-1.3543496478039887,0.6705105968314733,0.3415126267845013,-4.910865504923943,-0.19301558759887835,-0.30597727105639205,-0.6609818789183828,-0.23903642120570573,0.17633113991571603,-0.1604758707717081,-8.141695074536456],[-0.31112912959374706,-2.035912227438557,0.26391104829272705,0.255052543831119,-1.3919152280239142,0.04038965230827804,-2.8217131825630224,-0.6520953180331336,0.7649758108200725,0.2327908957574431,-0.7392603195792435,0.17995914956603515,-0.3108596899843672,-1.848003380503634,1.1174766328956538,-0.5874658156862519,0.3824966914415557,0.6590339815253499,-0.7195262085494433,-0.9411654662192811,0.7518491652171655,-0.09217621439968675,0.3537596887020862,0.43910447341783077,-0.5944894449789954,0.18955913876179695,-0.7874487126937592,0.06013704973807829,-0.16846616206222248,-2.5744548056908925,0.8953687447442286,-0.11623704735022758,-0.672625699467207,-0.31773386866314135,-0.5361834121730031,-0.46398708963929314,-0.46338258708106395,-0.3880293531128821,-0.3389447870406832,0.3490914123898361,-0.21788070263950787,-0.057790513929774884,0.5921855605186882,2.897136816105006,-0.7290339151825127,-1.2199014911940174,-0.725102834095292,0.4671689917134404,-0.38072227467228126,-0.4733039481628751,-0.7707721702518735,-0.4042833244592733,0.18480916291316277,-0.5326928656332478,-0.3009485892193712,0.5692742754696523,0.23185099333195225,1.2184359330134016,-0.10275601364864537,-0.4723264790558135,-0.013534353533825687,-0.8741957502586402,0.7209493737184336,-0.3175366233572868,-0.575657503800736,-1.1663020964620012,-3.984596160661882],[-0.3775358695590504,-1.5412673908514418,-0.8963339085296209,0.5073579438877827,1.8133898943420375,0.8561089892947535,-2.2080387167045914,0.9256725399233191,0.9542533074235374,0.6568623364554131,-0.4935786612095209,-0.05125227374766207,0.8854666138545132,-1.5667219088905817,1.0248113873418794,-0.1393413266086264,-0.5170089397688387,-0.15834116413145968,-0.37247170325078743,-0.6675637343354591,-0.3412436040951088,-0.5619568505950486,0.011811831700663453,-1.1107014888818447,-0.0073693168291925045,0.27418633855482855,0.23277879439827398,-0.1944885850553002,0.25715202556902267,-1.6923750303075769,-0.4527002943228114,-0.510709264988508,0.9457444330457765,0.2764464123019081,-0.7438586538054877,1.0823058018907474,-0.04899930024220566,0.009779441772377653,-0.15597626124304906,-0.4589572178303692,-0.6675852740009338,0.385721321728031,0.620053388529643,-0.7841379233709933,0.0467193031968261,0.277278224168473,-0.033688184812068464,-0.5776643673002915,-0.9128984036655314,-2.2580596189431725,0.4393769914303452,0.41154740937943807,-0.3138668727431509,0.7388562108644012,-0.4214012359434437,0.04676739278237967,-1.553818094619794,0.27202485148955624,0.4001525119546092,-0.6960215865498306,-0.07953449247625892,-0.5088838197262957,-0.010790215067741707,0.10629889300017299,-1.2298404398166456,0.7700828152352174,-1.5073234303396021],[0.03890644919023564,-9.588331166807324,-0.49168779277848534,0.24267099537335352,-0.7561379956515871,0.6449669545728474,-8.339834363714388,0.9007536970588141,0.9787304159650133,0.5172309360093345,-0.8035567479097419,0.6316808210489077,-0.7865720091837961,-8.512191532447341,0.744484238573259,-0.3427846829980517,0.8988320945876405,0.6002290017567247,-0.4429538124767614,-0.40812430059418003,0.04733988344688724,0.1253505642122167,0.7575410443223091,-0.9577248578559525,-0.7610312113373158,0.34588091435662766,-0.66522583332451,0.9922942949898363,0.8053075460939202,-9.161393483619898,0.010406362739867567,-0.5134807792780302,-0.01398047858492156,0.04047931578912752,-0.40965696579617594,0.8677453374397888,-0.3837742180200111,0.5636677715646116,0.7548431187855172,0.05298176603949965,0.8311722419901486,0.34156979988316016,0.7173798977619575,-0.7352439138026957,-0.36787296505956746,0.37147371985976657,-0.8640462038283728,-0.6003197565278034,-0.4513938103167312,-9.668705493598054,-0.8677634376985505,-0.3826883833750691,0.1402493332786433,0.7594499824377646,-0.6045522075938802,-0.6501287738282093,-9.793773544799697,-0.7522898018848566,-0.30055183330338386,0.8033847987306768,-0.0953845316623302,-0.20915396978171924,0.2081372594635852,-0.670418153194259,-0.33662242796874,-0.3012337198457622,-8.12599611120226],[-0.2872534164645248,-2.561836752843365,0.25747857267803725,-0.9147538494163554,-0.34302587877083274,0.11364390917371929,-1.8730533446175954,-0.14685372452300482,-0.4258055369063781,0.9980156182385941,-0.6472592117979494,-0.19535055369211118,-0.5759512536380437,-3.0456998405968045,0.47052483667779355,0.4762015069991194,-0.9910955676767766,0.7595674419417777,-0.3099384592149905,0.872803659195146,0.8284400617116495,0.06922015062983014,-3.765912102767545,-0.7423267618014604,0.017378624290264,0.744980526894697,0.9484967829876466,0.2957872527982716,0.7647964422003645,-4.32946319977363,0.5903249183577528,0.8475060962800423,-0.2684754262905369,-0.495651779797675,0.1697950353511143,0.3164796378568719,-0.4375784581736177,-0.6014519605313822,0.3374872038988262,-0.5964567955118828,-0.4381785818984842,-0.7939577510192283,0.23105859425975242,0.8667372490898315,-0.21981568611794183,-2.857386910274321,-0.6722712932365742,-0.6870049533254771,0.14742820655164782,-2.333956829353652,-0.4594242025776111,0.19938998277034592,0.841677425180626,0.7119112182980676,0.117924357149381,-0.37433211305850667,-1.6905818324660908,0.8897927521704465,0.20631710740830436,-1.8300343881619061,0.6584228154894615,-0.47181967700465044,-0.5632653360755773,-0.9071617454930127,-0.42263897005878165,-0.7918347692479583,-6.777106350863773],[-0.4910544687907729,-3.168250268917704,-0.8642616383751701,0.24057750111656792,0.4055500903788947,0.8040870455250482,-2.0746938707019185,-0.13103153911023102,0.41605913536720146,0.5089913262686677,-0.8027012858620661,1.0708913342413109,0.9706923107462889,-2.318295655165575,-0.37274580473678404,-1.3188308244625726,-0.6023934764628422,0.3570853566578215,-0.4782187929013655,1.1277561298506789,-0.04343816436181766,0.7456991297799026,-0.1962076820478957,-0.251359376759709,-0.7132719926794543,-0.31825322352380264,-0.16524879264221293,1.0594142513542764,-0.6441677011969786,-2.6924695118932727,-0.29007391530638904,0.1416014782766344,-0.47639831969827723,1.186148916448248,-0.5010656932507745,-0.6700085672984498,-0.8257108552734014,-0.3244024225870486,0.25656341507044483,0.5213425326548113,1.112606916774902,0.5243453393653178,0.2137921470137572,0.4198824642283982,-0.2018103010029144,0.5947276480166336,0.2519857549063297,0.8320199408330836,0.9318231773565089,-3.0778848991930867,-0.983545694617739,0.7603672286094941,0.4085220122230642,0.20712451663510795,-0.9600560897971532,0.5043065494020833,-1.1271210008887191,-0.9505836059065645,-0.38490952662665284,-0.9819830130895381,0.5962555698201902,-0.19486966045422888,-0.5620928786790147,-0.33497866212744876,-0.8330630988356506,1.0081076854407443,-3.4542848555990746],[-0.664130166400212,-7.686534136810766,0.2513875499796713,-0.5333456255843739,-0.5290610299228786,-0.16316149073814665,-7.726309918556094,0.2213014578777774,-0.12011286017488473,-0.3517896576320732,-0.9521932942949394,-0.14629260848597342,0.5171725457333222,-7.026457880245865,0.09212792295881381,0.48676453920107476,-0.005144942662366484,-0.4328971017625599,0.42330400137521246,-0.5780441459583869,-0.44364429422275287,0.4187607905273465,0.9757473115704688,0.9407828760761394,-0.6419818637067978,0.5368272178078698,-0.9100329447994971,0.14964471556802963,0.5294803956038351,-8.994093787057334,0.48338599514346703,0.9549182699319642,0.32708335746802186,1.0534520139546408,-0.018217888512435356,0.651003968907998,0.5245257702130401,-0.4035213316094518,-0.4682645183088549,0.33668338046997315,-0.025675640991269406,-0.3768896537000185,-0.9179019097558505,-0.30541113245069285,-0.3273262228088264,-0.8031319308744903,-0.5353724278782339,0.5008739084762023,-0.9823495808525224,-8.84350400142249,-0.48098069178410113,-0.02713644447513312,-0.38672019181461753,-0.7196771537310731,-0.6946774118234531,-0.9546528810481643,-8.673109197618048,0.42876695244716195,0.1349696454673017,-0.6402043010686891,-0.7447245659440814,0.09799336286716376,0.7567029750307082,0.9234077439481256,0.7942399330624207,-0.7444972152586441,-7.181312175694589],[0.6842653907740067,-7.427119276691831,-0.2504747910292828,-0.2638501115612024,-0.24964766422200846,1.072164432418247,-8.99669226171965,0.930832409669459,-0.9506197130531351,0.7751369668696023,-0.3953326067949349,-0.5672377724126172,-0.32613447658975303,-7.646157485401026,-0.06120122181050887,0.5603836672768917,-0.3518146927314988,-0.18163307190363073,-0.15332590733220944,-0.9151723820417943,0.1131707360944968,0.3080832909043447,-0.6192776924119745,0.953203388295223,0.6065633953532895,-0.747681903137236,0.14588107987772747,-0.8514814484096169,0.2682547204747616,-7.586575716053926,-0.07193507537093881,-0.4882355477237225,-0.5644213572254522,0.03549338289848126,0.3930655898764632,-0.5245077355958383,-0.8627218458608308,1.092776742089379,-0.7641228117084707,0.4250956685055292,0.7231960940688256,0.8645834580015418,0.643918939018022,-0.8817525938548963,0.4520778749966457,-0.16457459723206463,-0.4218467310151059,-0.5045803740008947,0.9443063885132809,-8.496781906351817,0.700732294329207,0.19216671520382347,-0.3588446361181786,-0.008498350220294318,0.7998469883695517,0.26202135035053814,-9.140348644601852,0.1278133639401132,-0.006521461571756657,-0.35821509023986425,-0.3360295538603696,0.5174102539180556,0.29193637770901076,-0.5843402163690223,0.9125636081320313,0.221237429690497,-8.61234191406889],[-0.05102006314628061,-3.8045323871767653,-0.32419139833764393,-0.3746164193488897,-0.977848138197378,0.09407220898261569,-4.337632183799857,-0.16024181856976336,-0.8084428168930141,-0.34958048843082834,0.13766490917354998,0.7969076048124156,-0.9698681796788893,-5.147236967928271,0.20016304253449485,0.3299627905129538,0.5921218476290523,0.5225697166791458,0.2965125078254882,0.7259689155157925,-0.538771171686236,0.0006489359123469119,0.41306217785159455,0.4612087045721161,0.5782401086906036,-0.5349655916272458,0.7653595639457109,-0.3184631052554364,0.20212468426357058,-4.14720129863813,0.2782810806479029,-0.16539950230598846,0.4857212209602394,-0.7124895448382919,-0.7295247453655102,0.16602041702134593,-0.2576653513337929,0.15979551794957822,0.7212058394024407,-0.2836565844896112,-0.710465692164941,0.6022954270257456,0.5825217346171473,-0.5718936683315499,-0.3148524280170058,0.6656094866920763,-0.3661385864229188,-0.3003769890755658,0.42208991482356695,-4.095243060298535,0.10406645830617885,-0.14008711835655754,-0.09425959286540675,0.43553549305525885,-0.8967472461648877,0.48886324512699647,-3.332988543473384,-0.7807864513843993,0.24480397144815766,-0.2391825986248154,0.3794723371174805,0.25838626994450964,-0.13637618310236632,-0.0628710960332205,-0.2218632691086705,-0.35249837328556916,-6.516333397884342],[0.01865936470316403,-9.426170238610347,-0.2762220417324295,-0.8208061235735495,0.23076946332004822,0.7108824631552547,-8.214754719865807,0.6387914849954832,-0.12561676938238356,0.6109533110001188,0.459043408264477,0.8935298762166666,-0.16110746828252975,-9.297856596097127,0.8379792186686854,0.9221003595810637,0.7784108723512219,0.9322567824825511,-0.4886571284369286,-0.12019729412694657,0.6987794535542158,0.4076476445149116,0.25787819355590114,0.39818827435978027,0.17508192498200492,0.8409335196253649,0.22987642982505962,0.8171054714639407,-0.10892881724283035,-9.612666705560592,-0.021333680334411926,0.5750212578245631,0.4421026405330424,0.5969621511222287,0.12358927774350055,0.32274591788478946,0.14159034314045027,0.6812356660790359,0.7904067903074207,0.8334044238414654,0.8441963201590418,-0.3311060061856817,-0.18543727360683804,0.8485660160812203,0.695629584886637,0.7728454129846892,0.538268850985815,-0.8608911360562791,0.20778377611470494,-8.580852093587017,-0.051414006646289666,0.44487116550810635,-0.5012195605364116,0.31649029909446125,-0.21729501299267057,0.257037168142086,-8.3003146522714,-0.11774506817876976,-0.08553374878261347,0.6219963061106915,0.22961959139589827,0.3481156773761729,0.41355710668275036,-0.7783775361369921,-0.15317216099294656,-0.36158991828194126,-8.319646289191061],[0.4597358366193205,-4.698411508891025,0.30789312742144226,-0.406476048963865,-0.14737771818109338,0.1964006633966312,-6.293547291077644,-0.633347386038088,-0.1848826621768297,0.48836761236302045,-0.25927594492688005,0.48981577970850215,-0.03390756577094919,-6.441281722969889,-0.20775455255232647,-0.19963811186919625,0.5374466512419225,-0.5116485459464853,0.7112452731771157,-0.5361779756607339,0.04143861619691988,-0.32382666401596827,0.7754927405463452,0.8675556493138794,-0.6693020861421691,-0.5134188553804764,0.39394950720112054,0.6483754515533857,0.13273049729831338,-6.439439079755002,0.8228466200760838,0.9824467625778059,-0.9209570788842129,-0.9185818760581792,0.40536014968677114,-0.6176971294489371,-0.7007913544728075,1.6582363275059917,-0.2945989901877599,0.6276306385846759,-0.7343432113429973,-0.45859501060444696,-0.12786511224566932,0.4449473797529989,-0.7588556914396148,0.9548329305895875,-0.7969120312824933,0.7793480676084797,0.7398251869675413,-5.65392870874019,0.41545567497896857,-0.6558178632974959,-0.909040603242013,0.8444557993238263,-0.6327905156772083,0.13026406623993006,-6.4086484189897,0.08357413145405344,-0.012014780714264197,-0.9749769429548408,0.8396828916864262,-0.7174211781881897,-0.6149147120333665,-0.8565178417436656,0.2965184837454391,-0.5995879438006787,-4.773399384131908],[0.7208264884297639,-5.168902811552679,-0.3857789031790416,-0.41948959118246865,0.7329166630141866,-0.4937600506772238,-5.887649994545564,-0.8318848209125804,-0.2852093351105878,-0.5097070535019756,-0.924232991653875,-0.8814332415763678,0.7538464767884793,-4.880737373249118,-0.7783036813927151,-0.4003301503963351,-0.7121909269796236,0.38890432367937033,0.24933423651380646,0.7132251908952403,-0.7550261926985652,0.5353090942675058,0.04752846900390583,0.07698991247786392,-0.09937576552604395,0.8384256579600811,-0.7243247501883763,-0.1225473337007093,0.7202793597843589,-5.449418275790707,0.05113404117573472,-0.5451574966553335,0.23068522183059273,-0.7798843221806459,-0.691450065563822,0.3581205724021737,0.4245536958253759,0.45516341018027795,0.18305602653712566,0.1354134248932301,0.6577807111691345,0.07264314979476591,-0.2440658064046331,-0.3131580931121535,0.7788528326845601,0.15123501532663697,0.027106910987062173,0.7811731626752134,-0.40684189019382533,-5.412296717063501,0.8820978263489883,-0.10169225100053288,-0.5162857816787942,-0.8955526323258395,-0.8972086217240813,0.05290114120156026,-6.413420927726611,0.009266182853731536,-0.5527321343509736,0.3757931422452844,-0.9484426112666523,0.7123159228547468,-0.4953922889484876,0.45756189852010193,0.3962564778692909,0.010119831453249274,-6.564387871381831],[-0.21545573192233278,-0.04389360124535411,0.0439609124076434,0.41912689014873233,1.63536024236418,0.741216274242107,-0.960123374804453,0.7288778251814529,-0.544910222149195,0.7872294909966662,-0.3451031897421982,-0.10566133703945428,-0.378546711891018,0.3228387871030875,-0.1814266669595137,-0.1500436474987917,-0.07861549711567593,0.30047319563008934,0.26595520660245303,-0.06824767553780273,0.9138148482828657,-0.5433933426879575,-1.6954944469472004,-0.6151296173320081,0.14495642454502322,0.7145537397445193,0.43076785998603023,-0.1909396921504161,0.42671675406392723,-1.2198500219013912,0.04568712023137874,1.041339575101177,-0.6055672568857433,-0.6969678695055055,-0.7537153744893729,0.4332362646611164,0.2727320680475534,-1.0256528309552333,-1.029664842394968,-1.4103190464992894,-0.5876259804250815,-0.21078010440420789,0.19835081692547152,-0.5940594728799877,-1.364191529653095,-0.2096614246055056,0.3278751092441653,0.7086380110769525,0.23095305685951517,-0.3803188595998692,-0.8606523563911653,0.3208414466416766,0.014770411568319057,1.103595381785456,0.9176249033683657,0.6196300460181484,0.15302682252914354,-0.5654729062741868,1.338720349506133,-1.417586482879611,0.7170571770156337,-0.7813148178339383,-0.31495725774629507,-0.20474580244235158,0.13331055954355644,-1.9761815393615882,-3.708001611694608],[0.03875550332208251,-4.00633230692334,0.9910075480832108,-0.37942978282869544,0.5099394576385026,1.0914828485137276,-4.043175810290365,-0.1921698764275783,-0.12655201798328708,-0.6662519194243101,0.2624637900493683,-0.5999351189035769,-0.7869788809457589,-4.744701600439493,0.868560815720215,-1.1062282501031688,-0.6759502004057231,0.2822185052234846,-0.5852009414616426,0.47200147152290567,0.9851014381001414,0.2688423062023504,-0.17171751245008077,-0.5980973697589809,-0.39149840553379434,0.30241253674785223,0.4330963419148552,0.5214870275577976,-0.6025308158215631,-4.607081507746578,0.8365830073467084,-0.43814127630592986,0.6618566589229852,-0.12430400468616881,0.7181803090878611,-0.16971406026174968,-0.7153854289037628,0.7361737074919559,-0.2450588745977065,-0.581860823339783,-0.39512467877151713,0.8946688578696522,-0.36010126513450896,-0.2321269079246588,-0.900021396756285,-0.9923028335961647,0.5785455069653604,-0.24826623673737827,-0.272646466899376,-4.941336452236391,-0.7756029040273866,0.8862769700365825,0.27514062817056345,-0.6619023052766776,0.7016585858209587,-0.8479059417263133,-4.313956997312403,-0.7796322627896134,-0.5905274737125139,0.3838031992843275,0.014465620992237666,0.3296655452743999,-0.2598499953944669,-0.12656868091709794,0.011540525870060362,0.5084985732319814,-6.219359007815687],[0.45486141583983636,-2.106160419556378,0.20183128344636905,0.7181403017418239,0.5327556517043559,0.3748643999325313,-1.7457164058469843,-0.28230480738282726,0.588443710220945,-0.7139861145636773,-0.4257787465225619,0.10661477022868773,0.7868402855054221,-3.3018205361666393,1.0028524221207789,-0.47605881983170734,0.5941906503180593,-0.9797749991286945,-0.006537100092176893,0.13863287487090262,0.14411797629463935,-0.162143349968563,-5.273789397200269,0.6547111294315527,0.4130743742807433,-0.2593586908575949,-0.08850175066148006,-0.7001475841721169,-0.8064755528034872,-6.787614764129902,0.37068436797529447,-0.5032297482753872,-0.9941292362185713,0.7722361592554179,-0.20533110653757697,-0.039239015442758755,-0.5483036086832347,1.2454484171768931,-0.2807360942207027,0.6814066420778039,-0.6018155079949534,0.24982201327004097,0.027217547200993605,-0.9370624120687162,-0.17819752968836414,-3.488474048321727,0.7079845541213875,-0.593595375944841,-0.515473565164836,-1.6515573041970844,0.5345076909169632,-0.8414889449420165,0.670965042019837,0.9593795726100555,-0.10384527303868094,0.17230244803026845,-1.9341771710943232,0.22180588164927112,0.8363567864618091,-3.582603124189973,-0.18905219585452032,-0.8276250397118408,0.7231794257290853,0.07981936995982525,-1.01272585027807,-0.33596228560395713,-7.408819369890897],[-0.1575827139991533,-6.129156597261549,0.20771847682598413,0.41770268712021175,0.17089844438761254,0.2564623549984712,-5.876355856892743,0.022341636077195855,0.05142312486509374,-0.45490014882809865,0.6134110588455667,0.8273817080856835,0.04789799565706914,-5.051767827053443,-0.46033987541081256,-0.10404248107787734,0.629558674074008,0.7332514085238832,-0.3725784003953561,0.9681486734437846,-0.9797034091025201,-0.40193164916986474,-0.046031870444567545,0.8352586566269211,-0.7633771491058224,0.5608912813950762,0.380353337614814,0.1374027383343209,0.47763025536440873,-5.872949224019577,-0.9666939677691186,0.43775724588453274,-0.5861226594167505,0.8238381791251839,-0.46315302584965856,0.005746949290590718,0.5487819446083536,0.09512192125053535,0.19523553667481722,0.7263698967396813,0.07810507639007123,0.6555925386764377,-0.8543768859315245,-0.3677689188897078,-0.8470750285278477,0.9832068868848388,0.15467896875560364,0.4551642119476713,0.4414570467329553,-6.356320101791595,0.6913812715895581,-0.23211654656661518,0.8343592187862763,-0.24424610153148432,0.6041893138958966,-0.1450405779685416,-4.83462041005206,-0.22392690475262303,-0.8238395503235844,-0.8525546081439611,0.38520602746756405,0.515531892338626,-0.6896827576177702,-0.11571428011564538,0.37686784159301173,0.17486727234214772,-5.527182916398451],[-0.5014476187969795,-1.5848110175440353,0.7893933736783382,-0.22546060026320108,-0.5846041174767925,-0.5036990251663382,-1.6634522571579407,0.9225505980323405,-0.7143881950586786,0.24683997097724036,1.030282498770987,0.9518641458491943,0.8877067491925674,-2.343336929923148,-0.7245780138230501,-0.5935773179809142,0.5591265928893029,-0.5799462582801788,-0.41548019990804785,-0.4493990087868285,0.48707760623069013,-0.9607455566076369,-4.100464888194628,-0.9912397768468051,-0.026080454142742123,-0.26124212893894394,0.5283368432827066,-0.9631728240417169,-1.0014685856642216,-5.45977277202639,-0.26245325227398053,0.15918042305240138,-0.040224132737938074,0.4487050343168354,1.0127646166872268,0.3736623765291122,-0.7330891535449596,-0.11474490201940073,0.6592932262053139,-0.1540361870406807,0.9238928838098065,0.3743775329891175,-0.24160790561202103,-0.7301303087912446,0.0469608112723371,-2.9560600341583223,0.04165931490751974,0.33262278623887814,-0.7051708685160177,-1.3316171547107605,-0.8213538485616548,0.7861763759160745,0.7387901398529714,0.8526963050523136,0.8980978387750946,0.20200548595262888,-1.2067534032132459,-0.7591156727236064,0.6792812382520674,-3.9890202063170537,0.8361914355534388,0.0990965459474332,0.6295521668131564,-0.5409927743889441,-0.7074219786710302,-0.45807782896347227,-6.769563860361248],[0.08119341844442114,-0.3055580110305045,1.9367356612693363,-0.3271828391427116,0.5867495752484946,-0.23386731236568042,-1.9402303418528366,-0.5272583287779778,-0.6342647731487588,-0.022607338809019384,1.6397630997229584,-0.441685694909353,0.0601418947195868,-0.6083388093065568,1.2841203624321982,-0.48339183205879865,-0.7911799250065085,-0.44603916519508957,-0.35798594824594226,0.27220242327072475,0.8932231923583396,0.040760166206192244,-0.34532149248422145,1.4306456121105824,0.021029650895924065,-0.2689119116501951,-0.37469121041201836,-0.07340149491250995,-0.724270801006344,-1.6100157082473172,0.20556064200029447,-0.8531286149739022,-0.35043183172287223,-0.5249085466665645,-0.3191620709397976,-0.16468770369257577,-1.031117437585439,-0.301022931239723,0.6905045441527792,-0.1961943425288613,0.018145240321717847,1.0188556121955308,0.13952372913660444,1.1695811964949967,-0.48396569847182774,-0.9128957187954174,-0.10286823142640687,0.4833718817715564,1.06357718926482,-1.6050565784430417,0.1607993768750326,-0.41544582567170907,-1.2858802828284712,0.21447701082874066,0.8571792157834706,0.18020137112085005,-0.41309518458811717,-0.1545865400102278,-0.6918209607615168,-0.6260540561456759,-0.5580344934690611,0.45795825136904295,0.23853611308067102,0.5046312173313021,-1.0126363094022368,-0.9030192731870369,-2.3413805978861673],[0.3631013250236328,-4.332966197661135,-0.9301290890863929,-0.4451681624369105,-0.16840082809749551,0.981620374767822,-6.0025147562800045,0.3809474925044628,-0.054660171791187824,0.2360785006548207,-0.10277726364169114,0.5170914937768891,0.5920784915485311,-5.04706769044319,0.6564991144511049,-0.6437758755565188,0.9548375313784947,-0.7678439205192525,-0.8642420573781512,0.9223309410046442,-0.6538663060545654,0.42749770082682387,-0.523627545116673,0.6586804565773762,-0.1601505380653501,-0.4437942420638432,-0.8799649871691408,0.591525877073547,-0.17635850276232146,-4.9647331724506705,0.9874340748206899,-0.25840930404282997,0.20418381848883943,-0.6508015102883767,-0.7208024310922251,-0.06464787359525334,0.8172177486514298,-0.004255963625393519,-0.10430122902896054,-1.0049544045123804,-0.8445358576296422,0.8096838326361945,0.7838954289169389,-0.4937483391294644,0.5610072866970426,0.06234040487945511,-0.9717257609896438,-0.11191007590096669,0.8117486992240807,-5.665580904710798,0.5532006884649315,0.8904493307539638,0.6058566224447977,0.6466422733954553,-0.13364990694296533,-0.02078740490205051,-5.583930084618543,0.03132356842508229,-0.3815605135610094,-0.8517388870669893,-0.3842690744641639,-0.4356664014784339,-0.8669862472936365,0.5039166463500077,0.008514913539319767,-0.8526003980566434,-5.976319025949483],[0.36363266040276565,-4.332402518252379,-0.14686116045490227,0.7894835578252899,0.740744016020607,-0.25135530210763,-4.938253444512379,0.6238015924314648,-0.7302096172876391,-0.5613757271100795,0.5537084036753729,-0.14240913277560505,0.837178987507317,-5.763611599789197,0.2799875145652962,0.11286665359724433,-0.20006570778804456,0.13596239636798074,-0.8976825066155274,0.220394443736005,-0.5311664252340559,-1.2353485249159106,0.4722651302970177,0.08388347793598692,-0.08761689741622923,-0.45011415987322134,-0.7108438651094169,-0.520694493279502,-1.024184063539947,-5.622085739264528,0.21524344708875598,0.0778636940753807,-0.8204928930300487,0.737375305377708,-0.6344302328645438,-0.9842720177472134,0.22837127952300623,-0.8371375236356369,0.2272443793976851,-0.3693879369984083,0.36031376774093643,0.4836182712586964,0.8380327158240731,-0.2561811408441921,-0.9448481949117085,0.5363407661758572,-0.6191003771804091,-0.9397411745704398,-0.10804585501490356,-6.220918208209434,-0.8077280825341889,-0.0652627865471314,0.12646279304641156,-0.6831979526502898,0.4733203673067443,-0.9643299803852883,-5.438341492155613,0.6433106354345108,-0.16511070181127016,-0.2841264099529103,-0.02269029937705505,-0.3406932683603844,0.6691967951639568,-0.6341361876636873,0.6339606797370472,0.5425076843171883,-5.835835822850894],[-0.5780784995267568,-12.506090523287533,-0.9647676222352377,0.9322279374269176,0.4439170507199467,0.8359032626066616,-10.63054397024782,-0.6323980856807292,-0.5005323422596171,-0.17910474847850175,0.10829187114144133,0.4929968834604015,-0.3626576254508852,-11.830347709482366,0.31497087974765886,-0.9004312787885432,0.7012102520278631,0.5071514713704528,-0.07312910343968194,0.28618998421656516,0.5866812666363117,-0.04737639332668137,0.7623257131890251,-0.5742107807542034,-0.18698611106567747,0.09684516602777833,-0.9555450512651789,0.5723416672964244,-0.03547555345556348,-11.64904171629539,0.07513209856546384,-0.5472261366160384,0.8540681923433348,0.0662310969982102,-0.8174952320148028,0.19065167385790344,-0.5818454072910192,0.7007886645827752,0.7566913101400402,0.3553486330290109,-0.15979039961453104,0.8996710029073589,-0.28083520788745664,-0.16595450830585745,-0.7739917246904744,-0.01647699690377217,-0.8600548804998916,0.4697896854602987,-0.8799381651728594,-11.596640860472904,-0.08484534646235399,0.7146426970551337,0.91157238099592,0.3792992728412807,0.4996742255726221,0.07625624839154746,-12.293338301120215,0.9003631755577226,0.9527431489729831,-0.061461763357436014,0.2884659379228752,-0.2206587626007939,-0.27259782808492644,0.06915032694931601,-0.3336230112770787,0.540581671219854,-10.43483090149874],[0.08160864277075165,-3.6690811426811676,-0.7873068745182464,-0.9354420220905605,-0.7986842979091988,0.9406281466863516,-5.159455702250559,-0.30882850740209267,0.6586629036500237,0.3926704264775458,-0.2537123890458863,-0.9596753525608958,0.2354515594850879,-5.313862784133923,0.43191866421005054,0.7500006315337211,0.23193728692221915,-0.29079859367130273,-0.6701555492204953,-0.6461796621575245,0.19332396948393837,-0.9643870849303909,-0.7461487650555697,-0.9964713292196702,-0.18130478714563208,-0.052023360207520804,0.8357349931099227,0.4804099757506046,-0.3835567706087798,-4.081629087684793,-0.7126778862427401,-0.1389364974730056,-0.9707140653037531,0.2037314410671586,-0.9019845126909268,0.19201615099869176,-0.3490637909149389,0.05445375046196122,-0.7884527653072219,-0.9444381387644392,-0.5033412727322648,-0.4296269639260186,-0.28158197434397736,0.11884847126842345,-0.36673198742363106,-0.9104838693833188,-0.07768138739144094,-0.5564534634372239,-0.514592128282872,-5.3288431885894365,0.47324174859733303,0.3298701702480798,-0.819014587067773,0.8560968195136921,-0.7651415947724862,0.8986633626182193,-3.764158829673295,-0.9366667416347128,0.2908343472016153,0.4869066366689591,0.08565871802211109,0.4930557904132347,-0.47367780240373814,-0.12878040130654694,-0.009800598827603842,-0.6499276463025676,-5.761325387837321],[-0.08876720423223552,-1.1936226150032054,-0.022156671350175756,-0.2535569028008071,0.29772245785689644,0.4054363765091092,-0.6711561690010099,-0.32623279296945284,-0.9272046870421068,-0.22112425380570333,0.45882243801834904,0.07903843727983045,-0.7456225530865459,-1.0477958936423777,-0.29593952016823166,-0.11408032111654436,0.6418350528486613,-0.4964826901144509,-2.5180184633487546,-1.0055971422341845,-0.18388950236255525,-0.18331711592682134,-2.0048106677902173,0.6180729506999023,0.7163150296690469,0.5819172196050044,-0.7940306646029371,-0.10378876455508358,-0.47576371083691454,-3.1061211887658624,-0.8467449782715668,0.603661606266303,-0.9680284029173851,0.9379180520589686,0.1377340195703373,-0.498764902338771,-0.7062126601008644,-1.341176843721183,-0.9487575153819766,-0.0002560436400625576,0.35934514645556065,0.846574340787746,-0.6463532800669707,0.27618314866074756,-0.3196345317039113,-2.1749650683302164,-0.8084002840647724,-0.3390207718241867,-0.07947331656950288,-0.37952220528922254,-0.0344512463105912,-0.24392562729045655,0.5738006219811674,-0.5199713994257763,-0.1587502328371118,0.4171184289390358,-1.1977819173962203,0.946257131616897,0.2575964829963727,-1.1629950696094062,-0.710792593835182,-0.17096126167114659,0.4207344077771358,-0.460046409285805,-0.24657888276028497,0.9594114915199797,-6.092128532557361],[-0.2850192662172742,-3.585329628294952,-0.08227295418510228,0.9496694125018094,0.059146322926030344,1.39042965423081,-3.1956149836653824,-0.5729668091012404,0.3157125747694888,0.11564379033659884,-0.37815159802556053,-0.9140439109197521,0.21273403455219925,-3.8125456410476186,0.22626279636444407,-0.5459602683662467,-0.30811462754309593,-0.8335851988518639,-0.5708327201508689,0.3866057125636856,-0.0823982696538516,0.24433629172001314,-0.8808303464586162,0.27334553066799955,-0.6908490534335946,0.10521032948573611,-0.5741498140266428,0.3221127694946859,-0.38504514085535957,-2.6124332208828775,0.5767143808604536,-0.37979383861980914,-0.3123659676158994,0.4399252152994473,-0.9368418372058827,0.7116245411586578,0.13352696526081956,0.561194027745522,-0.6718384494640611,0.3765770438028561,-1.0979699073613984,0.503551512494502,0.271470156142666,0.13796474988828838,0.6122799785490863,-0.4799649959208188,-0.26082669962363797,0.9071328752643585,0.596524453524827,-3.7475347188355976,0.3061655541305013,-0.06685955155796333,-0.4124286800777004,-0.1953304411575564,0.6167265224749463,-0.6507960237513211,-3.7485807078701168,0.15256991735183978,0.2545449709793004,-0.3135841914805236,0.7102309279595967,-0.9233126326454676,0.5671959283151581,0.5111691878481012,0.9656558520339036,0.44658052951203064,-4.287509881565241],[-0.28241733430881577,-3.8120917924736903,-0.24908033029892537,-0.6790866199385553,-0.2094780030549718,-0.2764576321687705,-3.1309204085133864,0.4534498516027128,0.10012393504656282,-0.3265358460218316,-0.4570046743646457,-0.08809870803173384,0.41896126125967464,-3.2159446658585633,-0.5079252831655284,-0.11792176831512358,-0.4600686411708683,-0.9991184036945211,0.1619466236510983,-0.7959210024608222,0.73018576410706,0.34817713855681726,-0.7181984299386048,-0.1414096425714037,0.2881802685344931,-0.6176679013802494,0.9486259894697454,0.5314229495508147,-0.4952679412473645,-3.627437009828181,-0.47245859166903553,0.17706836930133743,0.016657451088464732,0.528454444021328,0.01411047177798561,-0.48711719722701324,-0.23240159533477453,0.2515046152136594,0.6010657563758699,0.08919843138364666,-0.002866245032053357,0.5637541049322555,-0.63061598150729,0.3691340036850876,-0.6578741907814868,-0.5079942488177355,-0.9869723361536786,0.3945260703943601,-0.037691295855319586,-4.046066217946914,-0.8617964761211295,0.5934829054879058,-0.09862818739159358,-0.8259859740346838,-0.3001527598048474,0.6834951606906926,-2.684310784172684,-0.3329580812416169,-0.10336766116858909,-0.647711902627138,-0.3448360316181312,0.0860459659361022,-0.6998443999438895,-0.9031330568080245,-0.7619553385917757,-0.22391677797406687,-4.32788738917469],[0.44477675525649085,-6.006943543384027,0.9133673586906627,0.07401769508166095,-0.8500317546440121,-0.4112765128201921,-4.9757074410579545,-0.02403462356352721,-0.5243328722004569,-0.29883236824511294,0.2484814278440463,-0.6235701437828404,-0.024955387872257612,-5.805075509192126,0.3804114842117274,-0.512795071469897,0.9311856905326558,0.8806042675688167,-0.4710327547354881,-0.2647341285181083,0.39034333226698664,-0.15531955763262006,0.3412330275478872,-0.08186490254767562,0.7740377430423265,-0.9577865531198556,-0.4448510704874842,-0.6640694978460167,0.014838350206493146,-5.079782176113215,-0.37478307996388033,0.9688592116354178,0.49743828142046986,0.7710736135423972,-0.7271775235636863,0.4761136927601119,-0.00030563870427846823,0.058142014582976305,0.20212471294511458,-0.3492179152679942,0.6211312552614541,-0.8021671088720893,-0.26027182551839106,0.06079490083492698,0.9765809597988655,0.8507492497047485,0.14464199828438953,-0.021381811366258396,0.08219133792338668,-6.393927006468525,-0.9723814929812467,-0.7314813930084105,-0.3137119834738872,-0.8970885757705398,-0.5372722981776675,0.2889540101310484,-5.583174027859683,-0.9422351151449232,-0.07898317629153528,0.4124986060376391,0.6688884293092859,-0.9140122171351285,0.7029700444352588,0.8672197630498915,-0.48837651357472983,-0.7863720675720852,-7.023790896404286],[-0.16847563958521883,-2.7348986917197133,-0.2513464928543698,0.9663506989798124,0.785092847234555,-0.7878862669195961,-2.3386306126953045,1.2612191029995181,-0.6053461036343466,-0.8406750548079805,-0.11393884626103389,-0.9121932799688622,0.3250877202931987,-2.099044484391365,0.6505389902312183,1.148288394489484,-0.9504301656979631,1.3446809611492598,-0.3678237281895046,0.43437580040180856,0.6966029881412984,-1.5343624757336787,-0.374338824810071,-0.28864906688548525,-0.2675399149173996,0.09983129626508817,-0.3488363179704589,1.1625481273600908,0.3052405383975867,-1.455205500297887,0.13753924450913996,-0.5331916241333718,0.09325260910733098,0.5952328316285532,0.7595688336703836,-0.7521336034761825,-0.7756405459357015,2.4465075385181634,-0.7669433023242747,0.542522692880658,-1.5759165474208436,-0.7122098124413938,0.14731344593119447,-0.6525209426779949,-0.9109959525660202,0.05012025887605104,0.6860255392851795,-0.8860961086202621,-0.971301591579937,-2.0835597137885635,0.49206534433420707,0.5551908190503485,-0.7972561162524254,-0.1289854152435592,-0.6200526809524121,0.4976967363946539,-1.5839981288147904,0.5739106016947535,-1.0077643666991254,1.352465876885893,-0.6974348078250213,0.8961245487436036,-0.7184356968159966,-0.7132151569722073,-0.49862460233755845,-0.021633261417355484,-2.6472125755940192],[-0.3040747035947367,-3.5635860401952466,0.6146460142722091,-0.8443531281691267,-0.0022936850219059646,-0.36982812534342857,-3.670192547248759,0.42569579328864204,-0.2111001007795493,-0.06745972958042268,0.27372173741080746,-0.513815197090983,0.36613613858967636,-3.9542415945248677,-0.7228253578320685,-0.9381895215957783,0.6749522371671808,-0.5902318908399885,-0.6674147128089519,